0.45456976
0.33980307
-0.34416601
0.032626629
0.18326467
-0.14695285
-0.65875196
-0.26440603
0.086869486
0.3685618
0.32001165
-0.28672358
0.12626754
0.25163946
-0.16607921
-0.17914537
-0.46381474
-0.10109219
0.097766005
0.051586162
0.29965398
0.10623296
0.4091697
-0.36313421
-0.25123936
-0.22314066
0.13771467
0.54248124
-0.074564084
-0.095239691
-0.58164781
0.44098222
-0.049442116
-0.25381446
0.22554281
-0.37067139
0.012558224
0.09063983
-0.27654171
0.064150497
-0.16446091
0.094498314
-0.071238928
-0.079260625
-0.15379658
0.27315044
0.30140075
0.39427319
0.25962389
0.0016266305
0.10843161
-0.57114041
-0.018595507
-0.20811638
0.23257902
-0.40814769
-0.26297498
-0.25821191
-0.18195076
0.060632206
-0.042238824
0.20917879
0.23724429
0.20938474
0.45766094
-0.12779185
-0.468869
0.27921566
0.23011421
-0.072310396
-0.073115766
-0.18826284
-0.32132301
0.64378071
-0.013843081
0.26828158
-0.31561223
-0.061802272
-0.33026132
-0.14700368
-0.02504196
-0.071432546
-0.33372751
-0.33106768
0.32196972
-0.34955552
0.18354301
-0.43598852
-0.19792926
0.10471372
0.056162857
-0.020593701
0.27230138
-0.039725602
0.27759191
-0.62447089
0.272663
0.42873442
0.10757703
-0.21787487
0.21889842
-0.093199737
0.067019686
-0.47754025
0.18571189
-0.60385293
-0.28421044
0.33404848
0.1218963
-0.35934368
-0.2539629
-0.57755786
0.54186404
-0.47629759
-0.29029417
-0.35018703
-0.12534858
0.40121573
0.61841977
0.58465242
-0.20570999
-0.31754878
0.63711965
-0.090223514
-0.12062527
-0.22668868
0.089260697
0.10895561
-0.028315345
-0.13492218
-0.40477377
0.63156021
-0.41317597
-0.73926282
0.092202626
-0.021075228
-1.0419677
-0.28855762
-0.098208331
0.47991416
-0.31325182
-0.10534421
0.44679624
-0.6909368
0.47990164
1.1071633
0.17431381
-0.54722357
-0.11261149
0.49048051
-0.23568957
-0.056738053
-0.17252113
0.13817558
0.22160994
-0.08777187
0.36111641
-0.26552603
0.32475379
-0.33926919
0.88125604
-0.026969325
0.0094071086
-0.20661779
-0.25062019
0.31012478
-0.41622615
0.0097205909
0.15813692
-0.15567592
-0.57601947
0.29280028
0.3090319
0.26330316
-0.20549983
0.10475695
0.00019917544
0.38597566
0.060717713
0.058188457
0.24535505
0.075924948
-0.1425302
-0.024706084
0.10074168
0.13432714
0.53342783
0.15587518
0.024820428
-0.075406112
-0.13631476
-0.39125392
-0.53552997
0.2453783
-0.2466149
-0.1929203
-0.30598038
-0.39124519
0.66711092
0.22983126
0.14192089
-0.21014862
0.43765831
0.37176022
0.50290412
-0.12229741
0.13010986
0.28542647
0.10071475
-0.51904291
0.32345766
0.15613119
-0.33151639
-0.53093928
0.13625501
-0.014370691
0.0074011651
-0.45963708
-0.08630275
0.059751429
0.60768372
-0.16393752
-0.15519631
-0.25601631
-0.11443566
0.48634809
0.53705037
-0.0571816
-0.19124728
-0.31068912
0.19543132
0.48479277
-0.22235698
-0.42996943
0.057823341
0.34200433
-0.33934787
-0.20903525
0.48535365
0.074901991
-0.36698732
-0.077428199
-0.019048166
-0.45683169
-0.1014438
-0.41378471
0.68946725
0.11456472
0.2757875
-0.0072545665
-0.1257766
-0.13752107
0.41998556
0.43259883
0.400635
-0.080166899
-0.097946838
0.22755633
-0.1374741
-0.33667755
-0.61620301
0.16167364
0.17557901
-0.3629294
-0.16429073
0.21315636
-0.030693825
-0.17733814
-0.065732978
0.019535419
-0.0068137366
0.10296805
-0.38498941
-0.2595098
-0.13660473
-0.10996906
0.19896846
-0.32775915
-0.0291836
0.046852808
0.4448162
0.60530025
0.078484319
-0.32156608
0.39220119
0.61205745
-0.27359688
-0.47455302
0.27107772
-0.18371353
-0.21593285
-0.010386057
0.0095239701
-0.21965912
0.15547183
0.13346559
-0.010732978
0.052570887
0.28072056
-0.19038682
0.073724344
0.42670736
0.50563347
-0.1366794
-0.29046655
-0.01855405
0.064006351
-0.2290796
0.4448435
-0.007620269
-0.11772107
0.13658676
-0.13714421
-0.22244661
0.20130862
0.13717698
0.067640178
-0.91559786
0.36229765
-0.13020879
0.30273306
0.12019068
-0.63759166
0.018780997
0.13077238
0.37099484
0.16803759
0.33170712
0.48480216
0.140294
-0.24038774
-0.27643356
-0.034378603
0.44570911
0.25010145
0.22741386
-0.010200431
-0.75881052
0.14390193
-0.31400546
0.036552701
-0.027737647
-0.20382701
0.40592274
-1.4087012
0.13574047
0.32329255
0.21963011
0.11380502
-0.0066193757
-0.022094492
-0.095749483
0.34299499
0.24568188
0.53224927
0.51386899
0.20270126
-0.63048261
-0.25660148
0.2708813
0.29928887
0.046163645
0.083544225
-0.20849435
-0.17932791
-0.022695286
-0.63167757
0.22492614
0.15507679
0.017750252
0.48543641
-1.5990469
0.08055152
0.044983838
0.29473475
0.18785693
-0.19492526
0.013222792
0.16044338
0.38715518
-0.1675988
0.53130621
0.69463331
-0.16116565
0.099132217
-0.97518837
0.23795794
0.1268177
-0.24104528
-0.15852514
0.056415096
-0.26669395
0.18391821
0.064212181
0.15895388
-0.12877476
0.48690525
0.41440737
-1.7125885
0.041178457
0.027831553
-0.18195407
-0.73122829
-0.5580337
-0.0041987533
0.49249279
0.11427931
-0.2790719
-0.20888782
0.18170322
0.28029585
-0.15519819
-0.69909894
0.10445907
0.53064418
0.25144732
0.20271137
-0.019672537
0.27154464
-0.099511161
0.18287224
0.22303592
-0.43956691
0.25720736
0.043613374
-1.342187
0.11934701
0.11859539
0.098383047
-0.44951674
-0.23869522
-0.017513203
-0.18230417
-0.017298929
0.019426445
-0.063804552
0.50294256
-0.15666243
-0.87892818
0.304012
0.11918175
0.6025328
-0.15180613
-0.10321233
0.052537095
0.13070606
0.24700949
-0.19754562
-0.38579771
0.43717524
0.17406233
0.63697326
-1.2907182
0.48066264
-0.20238777
-0.17030054
-1.8454731
0.94711876
-0.0045524524
-0.47073787
-0.71140492
0.60529077
-0.34561688
0.15654638
0.05591568
-0.7559666
-0.17057578
0.35986856
0.30211937
0.64597106
0.075101919
0.1242952
0.32988533
0.33840209
0.13203393
-0.20467827
0.029735461
0.52477872
0.11301761
-0.84753549
0.70665956
-0.047004409
-0.49221596
-0.69785702
0.1313905
-0.23445544
-0.44191757
-0.056514665
-0.017149666
-0.53066814
0.34402415
0.22382693
-0.16542429
0.70296943
-0.054670397
0.25601971
-0.058420908
0.051860385
0.33113891
0.33273321
-0.096848659
-0.53993273
-0.67842025
-0.079261579
0.53344554
0.0018254472
0.25834495
0.23392487
-0.019694557
-0.19118306
0.12287668
-0.38385677
-0.25974381
-0.88383174
0.097490743
-0.38150638
-0.32148713
0.075524509
0.27968761
0.38082892
0.098032489
-0.18271194
-0.15269977
-0.069577344
0.3577897
0.19945927
0.4694466
-0.09333583
-0.0063791433
0.38177416
-0.53897655
-0.012848439
-0.10377917
0.32144073
0.075835697
-0.28698847
-0.089922272
-0.36789122
0.091327161
0.12895519
-0.80568779
0.026678609
0.1859401
-0.39946616
0.62277073
0.29703
-0.55070662
-0.23223598
0.14414588
-0.11223258
0.12701182
0.21575303
0.052269343
0.29138038
0.013322833
-0.20283723
-0.16317093
-0.595433
0.27044702
-0.097892225
0.59999484
0.18148643
-0.35464233
-0.24824868
-0.26371145
0.22995055
0.23921841
-0.487333
0.024035757
0.19523872
-0.48588073
0.099982351
0.10622461
-0.11530337
-0.30428302
0.094191566
0.56254578
-0.36966497
0.50086939
-0.31398204
0.053258706
0.042204898
-0.36551905
-0.36832589
-0.34805599
0.32871401
0.22100279
0.9475323
0.14058536
-0.11666878
-0.025443271
-0.28900084
-0.20442407
-0.0083103916
-0.92865443
-0.57879728
-0.11614446
-0.46757045
0.23769011
0.38956949
0.38426477
-0.055569023
-0.27165756
-0.20069401
-0.8039692
-0.82333946
-0.56163186
0.20939581
-0.65972871
0.39351463
0.011193275
0.26860663
-0.67939079
0.11551901
0.15894631
-0.40904096
-0.36872494
-0.011595521
0.39289063
0.099778682
-0.21474522
-0.12309182
0.20386004
-0.20126404
0.55847603
0.33141896
0.30395216
-0.62707555
-0.33014381
0.49547678
-0.54562891
0.48546737
-1.7277826
0.17031895
-0.70001638
-0.13144416
-0.68452281
-0.54510003
-0.14908437
0.35539085
0.53402233
-0.066189937
0.49642041
-0.98405576
0.26575369
-0.050321162
0.25006074
0.18705204
-0.0022247825
0.28837386
0.15379925
0.50479174
-1.6800143
-0.14186415
-10.360033
-1.2267122
-0.82171851
-0.79893982
-0.76523525
-0.56899917
0.2316528
-0.0087811593
0.25211045
-0.20003173
0.59786731
-1.7098562
0.3510859
0.31750253
0.51031399
0.23004265
0.086750858
0.40801665
0.39398843
-0.014906103
-0.37440565
0.43477157
-1.1513906
0.31575814
-0.52587086
0.27089167
0.43900707
-0.085131831
0.23793885
0.34436455
0.57470894
0.063128658
0.71927881
-0.12873849
0.61041361
0.24425597
0.32177383
0.6190933
0.26244304
0.37871042
0.55311227
0.6340732
0.026097916
0.27138358
-0.24392863
0.58167654
0.032313973
0.23843624
0.57840228
0.46030486
-0.49024728
-0.4031128
0.091327272
-0.34750667
0.14165184
-0.93271488
-0.024102617
-0.46485764
-0.11898495
0.38574687
0.15886736
-0.028223764
-1.126258
0.26134658
0.44116163
0.68390876
-0.083289556
-0.12058099
0.28095615
0.33461553
0.58373481
0.091450341
-0.98451388
-0.44785449
-0.72864002
0.16301069
0.6600529
-0.36886677
0.050355129
0.40208688
-0.54193556
0.28250459
-0.03145596
0.42530218
-0.21757644
-0.37788785
0.8783133
0.08597371
-0.0092585534
0.20802206
-0.12154585
-0.36370817
0.045329243
-0.3038089
-0.081999727
-0.23778406
0.47872317
0.28769249
0.051064994
-0.60121769
0.12853822
0.46891776
-0.13732304
0.23095788
-0.32475075
0.14831716
0.45068216
0.2691485
0.24352702
0.18479799
0.15570594
0.22317854
-0.45420966
0.30344272
-0.31082666
-0.078497186
0.10317641
-0.31261095
0.61439896
-0.084559806
0.33660322
0.043415278
-0.33869368
-0.28534415
-0.15991899
-0.21607536
-0.038881496
0.044679724
0.28322455
-0.26581705
-0.019432742
0.07328485
-0.024935408
0.51851225
-0.034242351
0.021273315
-0.089295432
-0.33765554
-0.014911349
-0.40624991
0.11559064
0.17505182
-0.40344915
0.25697824
0.39905825
-0.02161728
0.10492523
0.21421038
0.13562477
-0.27505368
-0.13403842
0.032482922
-0.3609935
0.021053227
-0.19010238
-0.14552258
0.34340233
0.046904709
0.2158307
-0.20430362
-0.13848045
-0.046721607
0.13228558
-0.13488749
-0.23022795
-0.23019512
0.037054919
0.62023586
-0.056400266
-0.27383468
0.37237385
-0.019218549
0.16103452
-0.037516691
-0.23456651
-0.14714523
-0.0050827777
0.097574286
0.35961786
0.10729639
-0.14046639
-0.67131722
-0.5188756
-0.056725658
0.1920065
0.018225668
0.0012144719
-0.00077092682
0.34366873
0.69102061
-0.1904664
-0.051550049
-0.15137464
0.27075058
-0.053914394
-0.64801282
-0.22239193
-0.15350524
-0.096974395
-0.087384388
-0.031852193
0.026819117
0.51216817
0.030960217
-0.0162847
-0.034793925
0.068120196
-0.1612722
-0.46797958
-0.062205337
-0.23958175
0.29859278
0.19678734
-0.40498683
0.18888251
0.50018078
0.77188343
0.0014240142
0.32470274
-0.46139297
0.62473035
0.48536342
-0.42497039
-0.19316839
0.340505
0.17019662
-0.44540343
0.043669116
-0.16495526
0.0040055728
-0.27478436
-0.092198238
-0.18757305
-0.27181244
-0.0186221
-0.13436964
-0.099418685
0.1309218
0.014101264
0.32054335
-0.06874571
0.33473867
-0.13091932
0.33799836
-0.39186674
0.11309302
-0.24306314
0.42714423
0.37946376
-0.012910753
0.11699745
-0.22310381
-0.46691066
-0.18696029
0.37046424
0.26733086
0.22444817
-0.48801968
0.23028825
-0.1452747
-0.25097224
-0.119293
0.29795033
0.42357701
-0.32918227
-0.024432441
0.36621061
-0.021876886
0.40243587
0.25571167
-0.062853731
0.06862963
-0.18967903
-0.51606864
-0.23073192
0.89273614
-0.30438688
0.312116
-0.10615117
-0.143462
-0.16395353
0.11375776
-0.0068921903
0.48324302
-0.33444899
0.31971201
-0.3697305
-0.43960354
0.15666305
0.22969094
0.013115413
0.20430033
0.0034724926
0.24310364
0.10170007
0.034595754
0.61093158
-0.1403266
0.20901453
0.45782167
-0.22145706
0.046455357
0.17854908
-0.19968128
-0.25491467
-0.11788762
-0.025965564
-0.14954743
-0.24405199
0.16701055
-0.19531037
-0.31532457
0.086236082
0.090887263
-0.53432292
0.20492145
0.2835716
-0.00072101143
0.28359541
0.027254572
0.90054429
-0.24096918
-0.11005644
-0.015778935
0.06648808
-0.049327925
-0.38017288
0.16574399
-0.25969097
0.59433043
-0.043147732
-0.32696393
0.078147031
0.33037788
-0.38145879
-0.093327142
-0.38845289
0.31931755
-0.1315964
0.60689551
0.34046254
-0.25188431
-0.21596935
0.30298901
-0.57289338
0.54339737
0.0081517017
0.17083617
-0.45655766
0.73482287
0.38472542
-0.05240247
-0.27780879
-0.36800677
0.30689624
0.30098996
0.13480508
-0.36803481
-0.21393992
0.065699287
-0.12949486
0.023430197
-0.35479966
-0.54844451
0.39777982
-0.062196914
0.7424472
0.29087305
-0.15258117
0.16148101
-0.54075056
0.59502757
0.38077068
0.0019734674
-0.19195548
0.70895249
-0.24801031
0.29224497
0.10583998
-0.12057351
0.28654909
0.068874307
-0.41978678
-0.27201912
-0.16754992
-0.10892021
0.08522974
-0.19862051
0.065720595
-0.069322422
0.25557265
0.05231205
-0.1724831
0.38428026
0.16063297
0.56994224
-0.62190616
0.032211263
0.32093695
-0.73430389
-0.021016948
-0.4548766
0.14048211
0.28367221
-0.15818003
-0.11902393
0.36879498
0.11834228
-0.14082657
-0.19399518
-0.52334523
-0.20615393
-0.15025793
0.30368084
0.089829788
0.33270913
-0.22885229
0.15314068
0.18594569
0.43574733
0.11436342
-0.039884623
-0.39548162
-0.11450692
-0.001087853
-0.0032588139
-0.05664606
-0.024196707
-0.1566135
0.58536881
-0.45417929
0.57255745
0.40442938
-0.029273376
-0.13005377
-0.077422865
-0.25628904
-0.20805226
0.14777461
-0.43097559
0.39160118
-0.20296614
0.19925769
-0.23312418
-0.18913803
0.27349088
0.59160501
0.19509858
-0.16289009
0.17868374
0.02329924
-0.14443022
0.039691377
-0.14739858
0.0058353734
-0.65045637
0.22268729
0.47194088
-0.20268142
0.021785069
0.25060406
0.30810556
-0.14440525
0.37137127
-0.14994542
0.29717714
0.058943626
-0.091394886
-0.24555078
0.18159612
-0.021249291
0.21670043
-0.25517735
0.34057558
-0.093438208
-0.27116612
0.15472506
-0.22011073
-0.16969271
-0.00075550552
-0.37482515
0.02339882
-0.29880971
0.093239658
-0.16178218
0.51696819
0.667184
0.062313482
-0.33224425
-0.43635979
0.23445901
0.21927923
-0.20883575
-0.23581578
0.06745249
-0.34523618
-0.37547162
0.1037784
0.60162872
0.42809168
0.11577693
0.14271596
-0.036219381
-0.0867033
0.38694897
-0.53064162
-0.55927855
-0.17794232
0.0069458261
0.28886616
-0.37613428
-0.01915152
-0.33371234
0.43927211
-0.047866799
-0.23657744
0.050029647
0.43882471
-0.0093406383
-0.44954354
-0.18661505
-0.41009492
0.55061334
-0.24620128
0.20870383
0.0071992646
0.38941047
0.23111506
0.40565076
-0.078535825
-0.086262621
0.27694181
-0.3059178
-0.17937358
-0.043139867
-0.0048080301
0.17067999
0.037508529
-0.0320751
-0.41482031
0.18029955
0.087368228
-0.1470644
-0.21399023
-0.25305411
-0.47911313
-0.28036124
-0.17484157
-0.17730094
0.710334
0.77019036
-0.025068255
-0.16477957
0.4326928
0.47594205
0.29000184
0.14443526
-0.22849077
-0.18144031
0.55336589
-0.2924411
-0.39752084
-0.16511476
-0.13963783
0.17492931
-0.063623659
-0.18187772
0.30766222
0.19194777
-0.3082794
0.29705811
0.30712068
0.41213489
0.7499215
-0.13490638
-0.11404863
-0.064025216
-0.17563023
-0.45463738
0.12904996
-0.081453502
0.063337728
0.17914291
-0.2765719
-0.27554581
-0.16699226
0.76913255
-0.10524067
-0.18831001
-0.12878756
-0.52684861
-0.071726993
0.34366268
0.22422327
-0.070559956
-0.25509468
-0.058436088
0.28501821
0.0059228018
0.016529582
-0.099314779
-0.23399493
-0.085807592
0.32396087
-0.092104547
-0.41112369
0.43805784
0.011773269
0.43069977
0.21216035
0.090056017
-0.27118766
-0.25487754
0.43485302
0.53280914
-0.025456436
-0.15957661
0.031460084
0.23892602
-0.049891919
0.12995549
0.10115211
-0.084557325
-0.12815896
0.14839973
0.019533886
0.033678852
0.32035223
0.29033592
-0.16735177
0.25463849
-0.18303868
-0.70323515
0.065611213
-0.060979344
-0.35479262
0.41292602
0.41681093
-0.30625761
0.57687503
-0.067340121
-0.44749561
-0.1968164
-0.29759654
-0.59741402
-0.0044662473
0.77899802
-0.16159831
0.18057984
0.35932463
0.026529031
0.064782105
0.061797101
0.32395458
-0.032666605
0.22991297
-0.012506128
0.11902595
-0.068290539
-0.0090502948
-0.15475135
0.013147318
-0.11661766
-0.26443759
-0.15664272
-0.15175906
0.6297574
-0.061002471
0.011207351
-0.17240402
-0.44361892
0.10679661
0.17961852
0.72855759
0.71563411
0.46130046
0.82514393
-0.21198976
-0.79652798
-0.78919899
-0.49732894
-0.30268073
0.070373029
-0.35214534
0.23628344
0.072460786
-0.16476887
-0.22649717
0.43108681
-0.46282959
-0.35265395
-0.44387305
-0.43842351
0.35969007
-0.33945143
-0.082848564
-0.0091461679
0.073281467
-0.038822446
0.72669756
-0.5624091
-0.10802273
-0.66632104
-0.45191318
-0.10469446
-0.18502656
-0.4743686
-0.16831788
-0.13815726
0.59152555
-0.39643171
-0.67986989
-0.51268947
-0.86027908
-0.45028412
0.0081056748
0.089049593
0.32183391
-0.28530088
-0.31989861
-0.079143025
0.15679485
-0.27305433
-0.013819713
-0.89251941
-0.41078505
0.22660744
-0.27721441
0.22964802
0.20032734
-0.045576684
1.2059844
-0.37216106
-0.49189204
0.21160907
-0.017339414
-0.79559928
0.89357901
0.89760476
-0.0903873
-0.77518827
-0.40299299
-0.13485077
-0.42067578
0.27079666
0.58935535
1.1601059
-0.55409718
0.81453419
-0.051046487
-0.19362012
-0.96973002
-0.72610128
-0.92404622
0.51712078
0.73977906
1.0806769
0.44674414
0.27790901
0.99916989
-0.14101225
-0.62202328
-0.52464038
-0.94280946
-0.47710532
0.69967675
1.3326426
-0.31426737
1.3811798
-0.87215263
0.38124055
-0.80194402
-1.3015165
-0.70403808
-0.2434656
-0.79463619
0.61273837
0.37932101
0.92053074
1.0746168
0.6239801
-0.24646781
-0.80145115
-0.64682746
-0.59767181
-0.64654118
-0.94348377
-1.116022
-0.66261864
-0.62361443
-0.098290108
0.5305537
0.007362111
0.15589404
-0.72723693
-0.57711679
-0.66970819
-0.46932966
-0.21298544
-0.027532253
-0.11315244
-0.029111866
-0.35307431
0.32056993
0.34057307
0.73282397
0.66437548
0.81839025
-0.49748188
0.15254706
-0.27156386
0.1994088
0.28230381
-0.24705984
0.45533919
-0.13824692
-0.16562852
-0.18759556
-0.080938421
-0.16441028
0.3706843
-0.076210611
-0.092054978
0.31604472
0.58688128
-0.06129875
0.15121444
-0.1257468
-0.38007849
-0.3474158
0.0052566999
-0.30371305
-0.42298001
0.39889655
0.32991567
0.82339674
-0.25840431
-0.053311434
0.69525063
0.94612813
-0.11482648
-0.23726109
-0.0064484314
-0.1708689
-0.024643045
-0.42034638
0.39861313
-0.15681104
-0.38981983
0.30295864
0.059316717
-0.021371378
-0.26080573
-0.08368168
-0.26689574
0.035143252
-0.11824945
-0.10750107
-0.03276201
-0.39973137
-0.097076856
-0.13594796
0.49403945
-0.012005669
0.44245148
0.71334171
0.41958714
0.21166448
0.018105766
-0.085877739
-0.36317652
-0.1104359
-0.4094058
-0.046991505
-0.18262181
-0.25798449
-0.3012495
0.079834707
-0.05209545
0.17718604
-0.36488122
0.37046432
-0.18836677
0.15104032
-0.073377602
-0.36551011
0.026773278
-0.0081109479
0.0090445401
0.36586168
-0.11482222
0.038241837
-0.034622587
-0.24285057
0.064152353
-0.24908186
-0.29691538
-0.39258453
-0.14381573
-0.06919615
-0.18670833
0.21658495
0.24883328
0.30616498
-0.09027192
0.22807626
0.19456883
0.26330805
-0.19088894
0.060127914
-0.2418077
0.49092963
-0.50876945
-0.18716337
-0.9236725
-0.041428901
0.40353274
-0.14030725
0.044810202
-0.32446203
0.11235038
0.18103884
0.0090956874
-0.13929364
-0.44952312
0.45811006
-0.14339329
-0.43280098
0.045935933
0.072308697
0.13391949
0.20404214
0.17540228
-0.24693088
0.4406617
0.093871161
-0.24131446
-0.33762404
0.83684725
-0.53768641
-0.61655289
0.034768235
-0.13931702
0.6526705
0.85361499
0.47826892
-1.0011046
-0.1200731
0.72816199
-0.17589627
-0.5005601
-0.13269335
-0.32393235
-0.52063507
1.1167653
-0.22071458
-0.23589374
0.70047975
0.27170429
0.21257067
-0.35295579
-0.39781508
0.49847424
0.30767354
-0.55936247
0.59946865
-0.31339544
-1.1588812
-0.25277945
-0.027730014
0.86750847
-0.16263022
0.060659498
-0.50911903
-0.13381343
0.048861898
0.19948374
-0.57346725
-0.40521929
-0.027228838
-0.86371285
0.069065459
-0.094938941
-0.39169198
0.18659721
0.28803483
0.15315855
0.92140794
-0.10095036
0.8273735
0.39635116
-0.44355243
0.28443059
-0.32489184
0.58414859
0.13819098
-0.0096136378
-0.20735657
-0.33290315
0.1771061
-0.15132129
-0.13822673
0.29345626
-0.032030612
-0.57704419
-0.16163565
-0.25122929
-0.1116934
-0.1529348
-0.045875903
0.32636315
0.3769916
0.018405665
0.42136943
0.45592999
0.51727498
-0.026262572
-0.19487886
0.072863497
-0.49984843
-0.30838645
-0.247205
-0.92200184
0.025303766
-0.47139016
0.30249259
-0.13019945
-0.22544031
-0.065026626
-0.14468366
-0.10669639
0.78621852
-0.35788113
-0.07956697
-0.25056022
0.2640596
-0.50653076
-0.080797955
0.10959376
0.14801788
1.1464555
-0.45678458
0.20531283
0.3517918
0.060819656
-0.09371563
0.026028672
-0.59358871
-0.0022439284
-0.45763439
-0.024882419
0.14032403
0.30490732
0.79920834
-0.70704389
0.30972883
0.1438639
-0.29066542
0.3068175
0.30520681
0.21397996
-0.16281581
1.1313232
-0.50436169
-0.66691685
-0.089740105
0.033505175
-0.27183005
0.14512585
-0.07807447
-0.10553561
-0.078569166
-0.22943465
0.41938841
-0.79437625
0.36765328
0.23883876
0.0028433662
-0.33586997
-0.92270023
0.97989285
-0.2297495
0.51025051
0.22084101
0.029371012
-0.4527756
0.36170587
-0.087504014
-0.083865054
-0.13196415
0.36088353
-0.088133805
-0.12382657
0.208167
0.3244279
-0.17650457
0.47706175
-0.035226796
-0.36238477
-0.21278486
-0.33415964
-0.24207206
-0.33915073
0.51879978
0.02747816
0.71595734
0.10335975
-0.25092882
-0.21816686
0.10282893
-0.25387794
-0.071969122
-0.20255926
0.037754722
-0.03787151
-0.031839881
-0.039580673
-0.0048410459
-0.3260574
0.44388404
-0.2777684
-0.36744252
0.16502073
0.13274704
0.33391923
0.08252053
-0.042580783
0.054405626
-0.6581713
-0.09365768
0.19974716
-0.0087201418
0.38163003
-0.12952703
-0.4220551
-0.63607597
-0.18822683
-0.23888028
-0.20145068
-0.37047914
0.11330578
-0.12004481
0.17756796
-0.2153208
-0.1349863
0.16022928
0.7139526
-0.21480748
0.62994182
-0.074909478
0.88814825
0.014377925
0.42754623
-0.86495072
0.24920888
0.13216297
-0.35833144
0.65828997
-0.027284738
-0.0069543207
-0.42978528
-0.0018251654
0.17516939
0.35939944
-0.37043896
0.011540265
-0.14729202
-0.22078931
0.030149663
-0.15782794
-0.30791476
-0.17434224
0.31370741
0.22699012
0.0088931164
0.1990971
-0.15571231
0.38790137
0.47017264
-0.15769294
-0.069375373
-0.80337238
0.43447959
0.11312765
-0.35182407
-0.025188738
-0.047106765
-0.56432468
-0.025457967
0.40765533
-0.28969499
0.071776219
-0.066790439
-0.068530679
-0.191322
0.839414
0.23936054
-0.0080046831
-0.30880475
-0.19084145
0.053787582
0.075214304
0.20864186
-0.31421375
-0.17118792
0.49111044
0.050418839
-0.13034256
0.39732775
-0.57880813
0.26114273
0.37150198
0.018137015
0.70588869
-0.60570776
-0.22971717
-0.14124498
0.26195472
-0.37413567
0.69405484
-0.10125777
-0.11269559
0.24311231
0.28533241
-0.13204695
-0.24836567
-0.23745903
0.59292907
0.71978754
-0.43546557
-0.07459417
0.12025334
-0.064637624
-0.26756427
-0.79540378
-0.15213212
0.14425288
0.87826812
0.24179582
-0.018241765
0.83189505
-0.74748325
-0.47011003
-0.46349537
-0.063304447
-0.24244241
-0.61891752
1.6813996
-0.54312199
0.48310262
0.31044894
-0.2546095
-0.49821982
-0.60586542
1.5042365
1.5401832
0.83294499
-0.84362918
-0.45517915
0.85413706
1.4995968
0.23532467
-0.43002111
-0.32262236
-1.5967059
0.72598737
-0.021533046
0.72729158
-0.30813318
-0.0098443525
0.31250659
-0.14446317
-0.092010222
-0.54301977
-0.19292022
-0.25284469
-0.1954135
0.42949706
0.18720636
-0.28116107
0.30312005
-0.12492637
0.5225687
-0.28497696
-0.15923393
-0.045900196
0.20408872
0.46095368
-0.11239816
-0.55673558
0.68000352
-0.093822241
0.28546658
0.0040374896
0.33260646
-0.060864765
0.32187483
0.65386277
0.30295789
0.21289627
-0.23997377
0.025590567
-0.25293487
-0.46730843
0.76550198
-0.095710486
-0.098069116
-0.40602604
-0.061997011
0.14065006
-0.2232037
-0.39369953
0.00093151932
0.1063173
-0.08928103
0.59530222
-0.11317188
-0.20594575
-0.20678322
0.34269565
-0.22243008
0.65884286
-0.3084009
0.023469497
-0.11797372
-0.44041216
-0.1003754
-0.044362929
0.55992794
-0.005736066
-0.15215658
-0.073670164
0.70033979
-0.11003125
-0.50006562
0.61563128
-0.23388404
0.32663852
-0.26998028
0.062182803
0.43827447
-0.30968377
-0.48726487
-0.23420496
0.79164052
0.050459508
0.39140841
-0.29579979
-0.32010996
0.070873588
0.019990936
-0.24334387
-0.1385712
-0.39418799
-0.40042132
0.77393299
0.37850013
-0.28760403
-0.041777886
0.77134323
-0.12944143
-0.33811325
0.14849763
-0.074414842
0.24110426
-0.21923654
-0.08626318
0.72430336
-0.03561651
-0.14356405
0.023282265
0.35411951
0.50338781
0.077075012
-0.10069156
0.29868484
-0.357425
-0.059688255
-0.21420753
-0.11510052
0.51180071
0.41522831
-0.34253722
0.093510129
-0.14947571
-0.36218214
0.40572301
0.31017375
-0.29645187
-0.39728981
-0.21439405
0.22760129
0.10126403
0.28609511
0.091600843
-0.069983535
0.1998339
-0.1427826
-0.14860782
-0.11572762
-0.17181484
-0.06159047
-0.71148354
0.2858164
0.4668071
-0.57649827
-1.0052304
-1.0214355
-0.44571647
-0.4571003
-0.99816835
-0.0072599752
0.044396453
0.21056974
1.3916281
0.065945715
-0.77446765
-0.1713099
-0.42082992
-0.42046791
-0.48034185
-0.13127616
0.17200364
-0.28447407
0.34434891
-0.070068024
-0.60266364
-0.46312845
0.14945084
-0.18349713
-0.45626327
-0.51540786
-0.4744837
-0.015192792
-0.35197943
0.34860113
-0.3207038
-0.26008686
-0.26729947
-0.60316795
-0.6692096
0.053039543
-0.31720313
0.19192453
0.62904114
-0.63417095
-0.21143903
-0.034808379
-0.053338822
-0.19060488
0.057121061
0.69391459
0.84574097
-0.24811071
-0.29547238
-0.17333151
-0.26043224
-0.85972226
1.3453176
1.7536144
-1.5959865
0.72638571
2.0076685
1.3575345
-0.98524421
1.4696074
1.0985919
-1.0091486
0.56552905
0.64073324
-0.83042967
-0.22575158
0.41207543
-0.23985299
-0.053165786
-0.67055589
-0.027645994
-0.22294579
0.033527024
0.60485852
0.82444298
-0.011920554
-0.12912068
-0.30880791
-0.25100702
-0.40851212
-0.32651463
-0.40612045
0.16116305
0.11852875
-0.501818
-0.33016291
-0.19432817
-0.32002345
-0.43718076
-0.51565188
0.31391457
-0.46792632
-0.12507479
0.64649469
0.31146201
0.1738006
-0.64313811
-0.99930918
-0.31357983
0.2063172
-1.0780096
-0.17071718
-0.34425989
-0.0808044
0.16399182
-0.17542166
-0.24000826
-0.3363283
-0.054406863
-0.32337102
0.098541372
0.24723619
0.17806597
-0.42094734
-0.20873973
-0.14150396
-0.14890476
0.015928034
0.086682022
0.35692129
0.45409387
-0.029552188
-0.14140941
0.5216732
0.093744062
0.16131896
-0.69764078
-0.67699128
-0.70754409
-0.10236821
-0.28710318
0.23216924
0.020424824
-0.039534613
-0.24763434
-0.087334521
-0.16319069
-0.098488629
0.44935179
-0.40759507
0.044993822
-0.081579745
-0.16120659
0.15026839
0.063320763
-0.055765506
-0.53092551
0.53414273
-0.36133572
0.19328861
0.049551319
0.20035034
0.070916407
0.11174354
-0.026520029
-0.51938027
0.22575386
-0.44555372
0.068884902
-0.0064147757
-0.34151179
-0.096530229
0.63980657
0.71149343
-0.044606309
0.45506287
0.05738559
-0.34204954
-0.5957163
-0.50156415
0.072797716
0.11595566
0.031126518
-0.37981424
-0.39444429
0.22852001
0.16546513
0.11690598
0.078894362
-0.15945376
-0.12812322
-0.25305295
0.5631938
-0.28010064
-0.00071085867
0.064796709
0.14110735
-0.066935033
-0.53411734
0.1852873
0.77576745
0.020732792
-0.17926504
0.40059987
-0.27714607
0.34865057
-0.28749353
0.46653831
-0.39774793
-0.22172962
-0.37506831
0.0022087211
-0.11241654
-0.33961827
0.17580163
0.45225209
-0.37854362
0.27505502
0.010142624
0.15527511
-0.58304441
0.47602516
0.3374795
0.13324726
-0.73850858
0.59332311
0.16113079
0.21375418
0.039036013
-0.24690157
0.49547252
0.16822767
0.028610805
-0.25879505
0.016157219
0.30641267
-0.44204116
-0.16302371
-0.22626039
0.14504391
-0.50817329
0.23509192
0.023743257
-0.50413543
-0.048146121
-0.36503053
0.67996794
-1.0708461
0.46884072
-0.27149913
0.46226028
-0.41898936
0.009309398
0.11752637
0.79751629
-0.22962369
-0.19689767
-0.64130217
0.36798972
-0.070818864
-0.36580667
0.32741937
0.67290765
-0.16678439
0.071144961
-0.21391484
0.021578908
-0.1198751
-0.24846907
0.1374388
-0.20751686
0.14848995
-0.34828776
-0.0034323651
-0.086259834
1.0107458
0.37005883
0.20225196
0.89728701
-0.33660913
-0.33947623
-0.64419729
-0.16208418
-0.66016555
-0.39571083
1.2951381
-0.093186714
1.178874
0.83587497
-0.25329345
0.064230017
-0.72923952
0.010263449
0.51768279
0.62069619
-0.70191222
0.075647488
-0.21733637
0.071323112
-0.045779143
-0.64546263
0.27352446
-2.3053143
-0.17865382
0.027127391
0.9192968
-0.2348686
0.056649078
-0.54257798
0.46722746
0.18083696
-0.35380161
0.47539058
0.051823691
-0.38010499
-0.31105176
0.012300964
-0.13040286
-0.18289287
0.16382784
0.42163882
0.40292051
-0.25535268
-0.231719
-0.38813969
-0.26109481
0.050976474
-0.54193556
0.057385772
-0.31908721
0.42522189
-0.023232631
-0.17855203
0.080458798
-0.087179609
0.2666238
0.28498867
0.018550221
0.35106373
0.16893552
-0.15393242
-0.4027462
0.14046286
-0.18703002
0.2028078
-0.32636052
-0.10758702
0.28893325
-0.48285675
-0.092837512
-0.7247541
0.40425923
0.42335102
0.083548404
-0.29041538
-0.50182617
0.043754801
-0.13009039
0.016784022
-0.33950064
0.063887678
-0.0058255894
0.18676363
-0.052839044
0.13065898
0.26980025
-0.18884924
0.212928
0.027387707
-0.21765463
-0.19873703
0.048058081
-0.25216997
-0.053988118
0.52003199
-0.18450789
0.19591419
0.091289528
-0.67970985
0.063666187
-0.50401288
0.075237274
0.14480014
0.12071143
0.22236104
-0.0087762726
-0.19457787
0.51919496
0.60234725
0.22973958
-0.013675742
0.19846104
-0.027184343
0.051559534
-0.052036669
-0.63047534
-0.12426124
0.22300047
-0.344098
0.034710743
-0.097288623
-0.66392416
-0.26798302
-0.14268044
0.30159289
0.054246299
0.12413007
-0.31018275
-0.74466729
0.415508
0.23294283
-0.1267049
-0.028452912
-0.94592243
0.98000544
0.49506709
0.26713401
0.22594413
-0.26184002
-0.24830432
-0.42498773
-0.12512952
-0.23332389
-0.19792974
0.30276793
0.38563311
0.67400336
-0.081586719
-0.10108158
-0.70083869
0.18913789
0.86797428
-0.49195313
-0.28196019
-0.071745709
-0.8682133
-0.089112304
0.32263765
0.053564515
0.026070032
0.68302131
-0.57837552
0.056511123
-0.36834654
0.39232168
0.0078454092
-0.11258454
0.077401944
0.19854499
-0.26761663
-0.43566298
-0.0020121306
0.045147307
0.1331107
-0.23706798
-0.45231262
0.18536246
-0.081268147
-0.019167768
0.34164688
-0.056725699
-0.085287832
-0.23695259
0.25689346
1.0773532
-0.038154252
0.018385476
0.048803885
0.1393126
0.094195992
-0.14734066
-0.096296467
0.88386875
0.15455636
0.27211186
-0.26911867
0.15054758
-0.23233084
-0.30593753
-0.1962963
-0.16816807
0.33360386
0.24425076
-0.32324123
-0.023224866
-0.33834985
-0.15252328
-0.26031438
0.0061335717
-0.82017559
0.39863497
1.1128746
0.19751187
-0.0013539579
0.12910144
0.15232763
-0.1388588
0.32653141
0.28662285
0.36752418
-0.046480075
0.37588647
-0.2565715
-0.52852845
-0.43807155
-0.24753685
0.19952686
-0.020553818
-0.22043426
0.38522714
-0.24091105
-0.26757854
-0.15812695
-0.26916459
0.5474807
-0.35071909
-0.0019342186
0.045695659
0.14583376
0.4267427
-0.0068902187
0.052419774
-0.45265308
0.029604772
-0.31868771
-0.27321997
0.088599332
-0.053904273
-0.66304821
-0.092378311
-0.32594311
0.13040556
0.26161158
0.36769247
-0.058755513
0.69106573
0.2953313
-0.052160632
0.39433014
0.11996955
-0.50361168
0.20931348
-0.34373343
0.82955319
-0.060408559
-0.13199532
0.38227105
0.0079890229
0.22461183
0.33523288
1.2993704
-0.18973629
0.30961594
0.031014411
-0.4355095
0.07643459
0.34856617
-0.11652265
-0.012383558
0.64374161
-0.037361376
-0.64475775
-0.49661794
-0.44432992
-0.30119139
0.13692255
-0.010659429
-0.31099811
-0.25384066
0.37588635
0.33523944
-0.30067772
0.49952719
-0.2927202
-0.01883916
0.59061581
0.85501432
1.0158503
-0.16353948
-0.51552629
0.33802524
-1.5826352
-1.0403411
-0.21368697
-0.19274724
0.40420437
1.4791654
-0.46900707
-0.35404533
-0.79995811
0.33285522
0.86505526
-0.95066738
0.17724703
1.1318946
0.4012976
0.17224893
0.2699466
-0.3953754
-2.6970081
-0.39490113
0.0093169278
-0.23949993
0.075291358
0.43973011
0.12013143
-0.082460806
-0.12491926
0.024561375
-0.15026911
-0.11079648
-0.6303584
-0.018126106
0.06968224
0.016742028
0.35614017
0.64418358
-0.17262383
-0.014841761
-0.096648052
0.27778289
-0.39350656
-0.25391233
-0.41932368
0.68067515
-0.0084020738
0.22925279
0.19496681
0.049057968
0.19307502
-0.031144926
0.57476741
-0.26293784
0.090407878
-0.024460411
-0.57189333
0.22014941
0.59176093
-0.27209213
-0.28349313
-0.25189498
0.38783821
0.2086312
-0.7289266
-0.13054512
-0.32095692
0.48041466
0.25102055
-0.1088032
0.11883582
0.06612318
-0.37920988
0.21231741
-1.5665075
-0.099005952
-0.15288532
-0.40476158
0.20862076
0.3917965
-0.28753152
-0.33082628
-0.36055562
-0.14796039
0.42530164
0.73210067
-0.1320121
-0.29846448
0.52689332
-0.05715343
-0.043718543
-0.22448099
-0.32326674
-0.15434526
0.06777557
0.82221282
0.06200311
-0.34894946
-0.082979374
-0.43591821
-0.17548563
-0.4485611
0.10668918
-0.10877434
0.5300644
-0.051115684
0.22634801
-0.019864587
0.25258338
0.25738886
-0.44179648
0.6351639
0.14691485
-1.0448372
-0.53407937
0.0034786945
-0.17121112
-0.30663037
0.0028114803
-0.20202284
0.90592003
-0.10229203
0.096976392
0.15927842
0.14416739
-0.030803164
-0.022005793
-0.39394927
-0.48468122
0.67248249
-0.39324805
-0.36006802
0.057106491
0.39769566
0.37430152
0.77334344
-0.10816618
-0.16529097
-0.016736541
0.7268309
-0.24078633
-0.24961787
-0.24393864
0.14953129
0.092216767
-0.092592455
-0.3777121
0.16608506
0.10512041
-0.45504132
0.13737483
-0.10829498
-0.31703112
-0.18731706
0.078175768
-0.71919554
-0.24186113
-0.47775403
0.11989289
-0.1307842
0.011337171
0.39903614
0.48693302
0.70269459
0.86951703
0.76831746
-0.030063523
-0.01528694
0.35306787
-0.74783957
-0.76837218
-0.13285674
0.015618326
0.39140639
1.037308
1.1942196
0.49787334
-0.19896957
-0.25251999
-0.48752981
-0.37748444
-0.19486523
0.57531387
0.065740012
-0.039584726
2.178813
0.24091254
-0.18107352
-0.11439818
-0.40538737
-0.36291295
-0.27630219
0.034565087
-0.72950095
-0.71497428
-0.70945907
-1.015758
0.088328339
0.065902583
-0.25789157
-0.1706121
-0.41495568
-0.39269638
-0.04067963
-0.89750403
-0.36302954
-0.64203739
-0.33039659
0.9403047
-0.25488895
0.56974381
-0.15990198
-0.50989074
0.66748822
1.0652397
0.24574797
-0.78005993
-0.31827179
4.3648381
-0.00015640433
-0.17535575
-0.64458495
-0.80900174
-0.17469406
-0.15376113
0.2444519
-0.39173555
0.24703032
1.0815969
0.038699538
-0.2783255
-0.48163536
0.25856215
-0.070331931
-0.13371238
0.16826361
-0.033871636
0.33473173
-0.13076785
-0.26958385
-0.77952921
-0.20413694
0.2382448
0.23540719
-0.61896551
0.5709874
0.59095371
-0.21440347
-0.32491022
-0.92238563
-0.48161009
1.4423677
-0.29857832
0.26869023
0.17582157
-0.20198913
-0.07346049
0.50114077
0.39958745
-0.11598377
-0.23466617
-0.12492843
0.97966957
0.43692887
0.74721044
0.37891412
-0.12065829
-0.10200476
0.020208901
-0.39864054
-0.88136941
-0.51448333
-0.5063442
-1.4650646
-0.46382523
0.90760756
0.65362322
0.13436633
-0.089522287
-0.0052959477
1.1868829
0.25542766
0.62943399
0.30048791
0.079969846
0.22872804
-0.37845677
-0.29731086
-0.14343345
-0.73359299
-0.58838207
-0.52336651
-0.3807506
-0.3836394
-0.025396015
-0.51511484
0.28702861
0.066246785
-0.42063275
0.49977425
0.087152638
0.29595584
0.18850757
0.45625037
-0.080564506
-0.12261821
-0.06549681
0.35205513
0.27304599
-0.074224576
-0.81357938
-0.048529964
-0.29094887
0.44303963
0.52488834
-1.4514611
-0.043472134
0.45868629
-0.13845658
-0.63287878
0.46442887
-0.58974087
0.48659173
0.065197647
0.29417771
0.40076885
0.41031232
-0.28995994
-0.17251343
0.044714831
-0.0063094129
-0.14135943
0.25753164
-0.32163787
0.31392294
-0.11836565
-0.70903349
-0.059296384
-0.068436421
-0.0088859033
0.44500417
-0.028006215
-0.9680506
-0.39222771
0.37678936
-0.068695851
0.26487139
0.16996287
-0.46857297
-0.16089752
-0.015749453
0.051891688
0.55975688
0.10628066
-0.37990654
0.01178776
-0.028928002
0.28451815
-0.47345018
-0.083705448
-0.63986737
0.067213245
0.50329971
0.09258268
-0.11168959
-0.29796568
0.084055826
0.44987345
0.21905228
-0.090934008
-0.24153364
-0.086353749
0.40907425
-0.31280559
-0.52884805
-0.75421929
0.12567042
-0.20795451
0.19683982
0.38882801
0.24310093
-0.13658564
-0.86131775
0.12182008
0.1237109
0.0080636572
0.13738722
-0.47832477
0.2069087
0.4039914
0.021415643
0.26172715
-0.34407243
-0.35215744
0.10113565
0.058425322
0.027263712
-0.31481293
0.56868339
-0.16007392
-0.81222802
-0.090988182
-0.50233763
0.30806372
-0.17827132
-0.13960446
0.24306244
0.26830396
0.01081706
-0.25050232
-0.35618046
0.26516184
-0.45545208
-0.35178319
0.072596841
0.13761482
0.3444463
-0.70934856
-0.061595764
-0.042035986
0.24373347
0.27831462
0.033524916
0.54305029
0.30697948
0.24349396
-0.65270376
-0.65869051
0.27253121
-0.63310474
-0.63406593
0.51229572
0.4744142
0.97480893
-0.040282235
0.40161198
0.58749837
0.64238948
0.13040964
-2.4436145
-2.8121259
0.15632048
-0.37260389
-0.61535966
-0.15136397
0.030005464
-0.24046676
0.28801647
0.23215804
-1.1027161
0.85555524
0.19959646
-0.27641693
-0.25099483
3.8203259
2.1316307
-0.004050618
-0.14424892
-0.20316751
-0.01837758
0.043423489
0.00022416076
0.23372439
-0.25186369
0.080084778
-0.003723827
-0.48797217
-0.042214487
-0.077532746
0.045827467
-0.39049539
0.18225439
-0.13500024
-0.56478322
0.38753882
-0.040337529
-0.096285202
1.1212217
0.54783249
-0.040025648
-0.77851903
-0.16889311
0.38175797
-0.0049671857
-0.15432377
-0.083333112
0.16424099
0.21608408
0.066225395
0.13714382
-0.28191653
-0.043580446
0.016898163
-0.048987012
-0.10046951
-0.012183245
0.059941076
0.018314946
0.10608163
-0.44186899
-0.20282957
-0.24348733
-0.010749415
0.12373287
0.66164911
-0.15055688
-0.62464637
0.36718279
0.43524486
-0.19425833
0.007688676
0.15439357
0.26415533
0.29797533
0.113006
-0.057120744
0.26771623
-0.44250453
0.51461458
0.32003328
-0.57943016
-0.80140054
0.061987262
0.16671376
0.10136375
-0.2219357
-0.30439913
-0.42879459
-0.10317624
0.047481224
-0.097028971
0.36806807
-0.31922698
-0.47464687
0.4673253
-0.41041607
-0.43170145
0.027203565
-0.67195433
-0.37429956
0.083108053
0.20534877
0.15142427
0.13073303
-0.50268489
-0.27800873
0.19834164
-0.090298198
-0.60437793
0.39255342
0.30348313
0.41948375
0.13051209
-0.71102542
0.088993646
0.13157696
-0.33467206
0.3301684
0.59259278
-0.063795045
0.16768777
-0.14537844
-0.5774017
-0.33424315
-0.029318847
-0.1248789
-0.14490637
0.12203388
-0.20469625
-0.24131186
0.10297051
-0.0041311793
-0.039525226
-0.063707568
-0.12904838
-0.34326726
0.19183826
0.29475197
-0.0013177969
-0.14662883
0.096673638
0.34753588
0.25969639
0.04806174
-0.57833254
0.39351743
0.35531217
0.16564429
-0.67996836
-0.11602731
0.11190448
-0.028080078
-0.67104679
0.067348279
0.12865289
-0.040554043
-0.0029914402
-0.073587939
0.29202285
0.67062205
0.099089079
0.030161098
-0.44973725
0.17315117
-0.068981819
0.083628885
-0.087242723
0.31371561
-0.4366329
-0.28215367
-0.001167859
0.091681182
-0.16993222
-0.19137128
0.074533686
0.31971088
0.19698022
0.90778762
-0.029398881
0.13394326
-0.4194569
-0.31861538
-0.081546783
0.32706034
0.14144894
-0.20485047
-0.15180959
0.17032024
-0.040599585
0.13932659
0.049378764
0.063639961
0.063979194
0.0007223991
-0.29897997
-0.35885018
0.52282107
0.15158042
0.28362149
-0.51827604
-0.29632246
0.19506994
0.18476146
-1.17717
0.0049330196
-0.0038311151
-0.082480714
-0.12939574
-0.62444776
-0.18527898
0.46910262
0.22433095
0.11510188
0.17916572
0.14859158
0.072364174
0.12505113
-0.052582759
0.049263608
-0.33412752
-0.15138908
-0.02970444
-0.0011570209
0.25839177
0.16802666
-0.42464909
-0.049027018
0.11030619
0.39934722
-0.19802286
-0.76328343
0.83391517
-0.0056838756
-0.39042276
-0.31107578
0.041792914
0.41342288
0.050400309
0.25245878
-0.17527889
0.29146597
0.081152253
0.38147491
0.065118149
-0.44747531
0.0037859869
0.20553452
0.10072841
-0.14142524
-0.91001165
-0.16275686
0.12186499
0.0043836506
0.25472558
0.067825206
-0.035570841
0.14277591
-0.29131898
-0.2558448
-0.021618953
-0.27897623
0.28616008
-0.43378571
0.50731248
0.30034295
-0.12764183
0.27162936
-0.23192132
0.91087693
-0.030752674
-0.48797348
-0.59826082
-0.25856414
-0.035003528
0.52495021
-0.13962871
-0.1216576
0.29201779
-0.36788782
-0.49608028
-0.16815719
-0.3023729
0.23046021
0.348248
-0.61486495
0.19694637
-0.021772319
1.2019312
-1.8722527
-1.372242
-0.66844565
0.17120799
-0.46295565
-0.38449931
-0.049432717
0.095336236
1.4057848
1.0695318
-1.5424623
0.57592565
0.43782756
-0.86092669
-0.45157623
-0.44321936
0.0086014979
-0.21584217
0.77410519
-0.41042459
-0.052139558
0.39370093
-0.046783742
-6.3350668
-1.7075832
-0.010893264
-0.47791752
0.23632759
-0.28132737
0.40937826
-0.019044895
-0.26819071
0.15743367
0.12028588
0.32496905
-0.084459506
0.047910053
-0.67759234
0.26672477
-0.27970588
-0.69182599
0.35995308
0.21106482
-0.086723454
0.049991798
-0.20945303
0.21368952
-0.16182148
-0.2804867
0.52916813
-0.50142664
0.10569739
0.11517441
-0.2277322
-0.007816337
-0.68749726
0.36237326
-0.29822186
0.21406235
-0.11860285
0.082115777
0.15295428
-0.10847382
0.16364723
-0.58228761
0.14543574
0.15201207
0.39722186
0.32932526
-0.30885449
0.19344965
-0.32457191
-0.090105005
-0.021219973
-0.20169337
-0.024199193
0.0078698089
-0.33491945
0.11300527
0.16390528
-0.050280124
-0.16628796
-0.7124446
0.18130046
-0.022876268
-0.24604861
-0.18022428
0.11385659
0.38276261
0.17474903
0.73597252
-0.62182361
0.11633767
-0.025189871
-0.41541818
0.067182712
0.35321414
0.025627188
-0.10771754
-0.1701519
0.047932785
-0.099628478
0.33610186
-0.17388828
-1.0472102
0.59380406
0.11836697
0.021373024
-0.76480645
-0.34922409
0.31356832
-0.0087972432
-0.40905753
0.075520277
0.18190105
-0.12751076
0.11001136
0.18757322
-0.48988017
0.25165457
0.22568578
-0.097900428
-0.056621216
-0.27229533
0.32516593
0.50332928
-0.29613745
-0.039884049
-0.19305648
-0.1524889
-0.086054705
-0.20050108
-0.085699469
0.32618192
-0.28331813
0.068835661
0.0061671068
0.39797506
0.014189179
-0.36301628
0.10015892
-0.032725088
-0.40763175
-0.11698725
0.24384701
-0.4171221
0.073971704
0.05528963
-0.33435032
0.056575913
0.37460467
0.071224228
0.080201909
-0.63859373
-0.035032019
-0.10833643
-0.76547259
-0.27988455
0.0022283774
0.40852743
0.78843558
0.11326863
0.4657194
0.51451641
0.50304395
0.61172009
0.50155073
0.45112947
0.43439472
0.44918895
0.38580915
-0.12574926
-0.33687085
-0.4032129
-0.13000603
0.20560656
0.12410284
-0.26418883
-0.094609924
0.12730846
0.051617082
0.25875813
-1.1110188
0.035594791
-0.40983987
-0.018207587
0.29397663
-0.04352532
-0.98609179
-0.57397354
-0.10818052
-0.39713833
-0.017053649
-0.47107384
0.40860689
0.10277765
0.22180535
0.22360283
-0.097591817
-0.33819437
-0.013204917
0.016752057
-0.016850084
0.25064069
-0.071212642
0.25025836
0.11947381
0.39435947
0.080182083
-0.53489161
-1.400092
-0.43113038
0.25516942
0.42428684
0.33973789
0.10182373
0.17282835
-1.5805035
-1.2640887
-0.65968478
-2.7457938
-7.0567741
-1.8900744
-0.67781729
-0.29840985
0.50884241
0.062650017
0.43530944
0.14549127
-0.12476058
-0.084309734
-0.49706253
-0.91861093
0.27712926
0.023253281
0.16578026
0.30003726
-0.053417373
0.37723523
-0.15498044
-0.076541685
0.26959556
-0.13409851
-0.34067932
0.21210052
-0.083734073
-0.16906752
-0.39103395
-0.072093405
0.33732215
-0.13012378
0.17274885
0.32705459
-0.030406717
-0.33564875
0.30368188
0.06155682
-0.1667503
0.25333157
-0.22497684
-0.28760594
-0.14627758
0.14478138
0.39150947
-0.11109757
-0.85868549
0.23350662
0.43124574
0.14606963
0.51882488
0.09007439
0.073251486
0.16810226
0.35989079
0.43092978
0.27158728
0.24697466
0.41205379
0.51173162
0.46674383
0.54047817
0.43361825
0.024529526
-0.35088569
-0.12056559
-0.6025092
0.16473831
0.10868271
0.034434639
0.12453189
0.24858822
0.2719461
-0.31855872
-0.19726142
0.071687981
0.14127511
0.052385382
0.15071228
-0.41727805
-0.0078831427
-0.001966771
-0.65438533
-0.1143055
-0.28875619
0.12068764
0.22250865
0.095090307
-0.35997951
0.0082054334
-0.17960991
-0.057534475
0.30746508
0.30193183
-0.37568182
0.074955657
0.40217015
0.51523995
-0.16130942
-0.36594343
-0.15652145
-0.33226466
0.44648421
-0.039204892
-0.096133016
-0.25672716
0.067090109
0.050044589
-0.35693398
0.073479541
0.0017431295
0.070243992
-0.41773736
-0.18024775
-0.011446844
0.14272362
0.15685396
0.060716417
0.027929047
0.17802285
-0.13298203
-0.13024738
-0.26927638
0.19115312
0.24018653
0.31239837
-0.37067774
0.38784581
-0.50642556
0.22197063
0.038228858
-0.016314473
-0.49868539
0.024180623
0.0043448117
-0.47771564
0.035722896
-0.089938715
-0.10845083
0.10425296
0.12626682
-0.0688833
-0.0098326337
-0.36908317
0.13282217
-0.2016499
0.007765458
-0.13889468
0.23453565
0.035207756
0.35764474
0.27132419
0.04678968
-0.38506085
0.30895451
-0.24990486
0.0029500059
-0.20927536
-0.011428474
-0.25571856
0.22682367
-0.19762446
0.034426033
0.093350425
0.29891703
0.011771264
-0.22614658
0.12641421
-0.039139073
-0.46507412
-0.086345114
-0.12399257
-0.16635977
-0.078694612
-0.28256041
0.10238686
0.14672674
0.081005894
0.27654347
-0.0092393663
-0.43537286
0.25644252
-0.14433582
0.16475123
-0.32570526
-0.71705532
-0.38297877
0.21461836
-0.016217036
-0.076601043
0.09136755
0.39981771
0.11288698
0.39048344
-0.15606357
0.024807179
-0.3285864
-0.1416238
0.17144105
-0.24192566
-0.55146104
-0.11290715
0.17831236
0.12171676
0.018659052
0.1259914
-0.15043843
-1.0201366
0.050591197
-0.1963551
0.13067642
0.39728245
0.25030541
-0.12518786
0.012048729
0.14210063
-0.51153517
0.21481951
-0.36279288
0.04037736
0.3226561
-0.4957481
0.0045332788
0.36484712
-0.90292448
0.16228706
-0.033899281
0.08667507
0.013724375
-0.089439094
0.035517275
0.10693876
0.09817642
0.11663608
-0.74657321
-0.19186947
-0.45429906
0.25347444
-0.035307582
0.31830969
-0.019120337
0.25876737
0.49199632
-0.021693924
-0.37822703
-0.22544348
0.082642913
0.16289647
-0.33142242
0.050240051
-0.4498125
-0.61790299
0.51414257
-0.33977887
-0.77778453
0.036529481
0.30789331
0.19036728
0.0038850445
-0.050165664
-0.051911891
-0.33892772
-0.34085989
-0.49512661
0.39524353
0.20918323
0.11974797
0.015474511
0.035297729
0.245985
0.11725916
-0.44693443
-0.030716822
-0.32963029
0.03190593
0.040499628
0.059731912
-0.43314597
-0.10476703
0.036391441
-0.48567736
0.22932939
0.38428918
0.0051934002
-0.28438589
0.067274936
0.12242119
-0.1985772
-0.072373644
-0.21794389
-0.00065673061
0.13924043
0.08964543
-0.50791067
0.0015297792
0.083783224
0.21414199
-0.31467414
0.026610574
-0.27298442
-0.10438214
0.075454362
0.17052181
-0.23764092
-0.36268362
-0.47791281
0.078534395
-0.32261574
0.27590546
0.17601515
0.22151126
0.018341368
0.028749548
0.12162901
-0.40263397
-0.13144839
-0.070516281
0.1861279
0.062853642
0.32062846
-0.33405891
0.013228297
0.16146642
0.10597321
-0.25891826
-0.2210187
0.065512031
-0.19805492
-0.005228946
0.017248983
-0.31711373
-0.16103454
-0.30698434
-0.065467417
0.022868479
0.22002792
0.53443658
-0.034643207
-0.43066546
0.18245251
0.074768156
-0.14535488
-0.13231133
0.014656737
0.32417625
-0.023106487
0.48466772
0.46215966
0.021575717
0.19041631
0.15015663
-0.48571131
0.073913075
0.13867168
-0.19885945
0.10568709
-0.4489114
-0.036853243
-0.42417738
-0.22222503
0.1222982
-0.16459072
0.27843744
0.39466313
0.016298037
0.1640147
-0.19034354
-0.22127661
-0.22486465
0.015698599
-0.13267459
-0.083499856
0.46372074
-0.37271491
0.19296946
0.020486638
-0.00020894432
0.16220076
-0.15064196
-0.24333251
-0.090474226
-0.1629651
-0.28787223
0.17398965
0.17123894
-0.46587273
0.16248301
-0.06218433
-0.54963022
0.27899957
0.19210693
0.017680449
-0.081233069
-0.3967734
0.020833889
-0.0064483089
0.34477216
0.046383318
-0.64735544
0.46175736
-0.17574757
0.33741745
0.015599095
0.52162975
0.065788537
-0.18206508
-0.11864747
0.24986914
0.1899828
0.14054684
0.25744081
-0.016048556
-0.088007376
-0.021484213
0.0553957
-0.35725072
-0.23136254
0.48507154
-0.7720058
-0.088311352
-0.16548452
-0.3923555
-0.48974997
-0.25585622
0.52075368
-0.20375814
-0.51232159
-0.095300235
0.24366197
0.017358474
-0.2866931
0.15090431
-0.20813602
0.40871534
0.36665714
0.19508497
0.48293203
-0.24986401
-0.057931524
-0.39103118
-0.67426431
0.27577412
-0.57635373
0.39551753
-0.0023697726
-0.79308641
-0.14537227
-0.23421386
-0.23677456
-0.19986542
0.14325066
-0.40186983
0.59000719
-0.17387375
-0.64259398
0.019078685
0.012425589
0.12499826
0.036568634
0.56538719
-0.34182239
-0.018013984
-0.37134758
0.07114125
-0.37804776
-0.002047257
-0.47468197
-0.36878005
0.15220542
-0.064322911
-0.15320905
0.50367653
-0.048402295
-0.58745986
0.098016866
-0.086902805
-0.083260626
0.22365752
-0.64056152
1.018332
-0.7263729
0.43772846
-0.066936545
0.019103127
0.17415217
-0.33648387
0.20285329
0.49378902
-0.41293883
-0.30673596
-0.53271854
-0.12468389
-0.18643139
-0.3555693
0.055576794
0.20466049
-0.18300743
-0.49443203
-0.10268551
0.40913934
-0.4231987
0.049032174
0.051024843
0.15630427
0.26083624
0.50783551
0.13040523
-1.331138
0.81725115
-0.95902449
0.02290733
-0.81011277
0.4368192
0.36294317
-0.23643191
-0.24038035
0.092599325
-0.22912681
0.89748448
0.02207518
-0.88058537
-0.58257979
0.53324729
-0.37449491
-0.71670872
-0.9807294
-0.20469621
0.033624094
0.01144825
0.26067376
-0.3978734
0.42334703
0.27372107
-0.71229082
0.11291645
1.6952459
0.34835202
0.027308838
-0.31490505
-0.38092616
0.15133496
-0.43739033
-0.067375049
0.19410035
-0.29127845
-0.0082021169
-0.20688821
0.29167786
0.17314421
0.064320192
-0.035170224
0.058609277
-0.027120205
-0.7569012
-0.37117949
-0.05697969
0.40010679
0.41080293
0.24003756
0.32501689
-0.63585758
0.41008684
-0.23940632
0.14443497
-0.47152096
0.38909104
0.74498558
-0.54390144
-0.82657677
-0.015320015
0.17853133
-0.011858551
-0.52774704
-0.40789863
0.47978446
0.031003481
0.18359546
-0.11106683
-0.77437973
-0.084168822
-0.23311789
-0.41304111
0.21933183
0.31212538
0.22761776
-0.17957032
-0.15951674
-0.82370979
0.82631052
-0.59877461
0.11706278
-0.45403716
0.25339723
0.32694045
0.095349953
-0.23257664
0.32196873
-0.031755835
0.066582918
-1.5085175
-0.64231056
-0.25985065
0.3658281
-0.1934009
0.076524422
0.10421073
0.1201827
-0.46007377
-0.54304194
0.3293747
0.53247494
0.52221286
-0.88596135
-0.57775068
-0.75988853
1.0714748
-0.68372488
-0.45148835
-0.31492081
0.33821651
0.016058316
0.16098222
0.14453456
-0.022733239
-0.024466833
0.33656058
0.015636086
0.37479067
-0.51883352
0.47687763
-0.35115746
-0.11465145
-0.40069777
-0.35531172
-0.15535995
-0.13712122
0.051661838
0.22394264
0.16044687
-1.2453505
0.1001742
-0.48080567
0.46719337
-0.5095582
-0.22477582
-0.32374719
-0.42358568
-0.27732125
0.0087087043
-0.20209964
0.096470453
-0.14181945
-0.38063863
0.28402281
-0.17842728
-0.15707844
0.10694134
-0.6223157
0.014050457
-0.036871698
-0.031311873
0.027568266
0.23795713
0.45589352
0.39960465
0.40541178
-0.69277757
0.6594609
-0.64955205
0.2449625
-0.56216085
-0.74511182
-0.521631
0.59554213
0.36107144
0.25977063
-0.094592527
0.56696135
-0.34525734
0.47956142
0.082478061
0.1887584
0.25314158
-0.031899616
0.38912714
0.28621441
0.083912134
0.15278241
0.19854181
-0.48180136
-0.049862958
0.27709877
-0.16270642
0.46966669
0.58983624
0.21304046
0.10440377
0.11648657
-0.028373001
0.44804484
-0.1937412
0.48639554
0.22841303
-0.13008882
0.006338093
0.32181922
0.13701932
-0.0086140661
0.13281661
-0.090740599
-0.23985039
-0.29063556
-0.02204572
0.42676893
0.354886
0.4342379
0.1860961
-0.070014797
-0.39963529
0.060464822
0.30459788
-0.008328463
-0.19100393
-0.16813074
0.21786915
-0.6542818
0.15892942
-0.11605331
-0.57300234
-0.15167929
0.036382858
-0.30656463
-1.3715583
-2.2553439
-0.87002897
-0.86167115
0.082657501
-0.12933372
-0.06811706
-0.3283928
-0.27527887
0.20761546
0.79689723
1.011649
1.1893489
0.39233205
0.50417441
-0.76445585
-0.036170576
-0.40887469
-0.67737561
-0.45232692
-0.41151619
-0.89630061
-1.0800732
-0.21138875
-0.049140789
0.61078513
0.23169392
-0.31182781
-0.85599774
0.14372683
0.083359554
0.52309102
0.47861078
-0.19997649
1.3027515
-1.1727523
-0.095627315
-0.25823119
-0.34358096
-0.42907006
-0.89860958
-1.3736498
-1.4939194
-0.37521142
0.16654748
2.0571229
0.30340171
0.29544619
-1.1618273
-0.99950755
-0.5285303
-0.29839811
-0.916673
-0.26693299
0.56575751
0.39173654
1.502826
-0.13592862
-0.0038059142
-0.67407435
-0.60039657
-0.012432719
-0.025647856
-0.31251204
0.22077076
0.8773042
0.0035215826
0.25752005
0.26648322
0.72362125
0.020690562
-0.37102354
-0.55446386
-0.83047765
0.05182245
0.25472292
-0.042351738
-1.0691868
-0.26341164
0.061109077
-0.14281608
0.0077543785
0.035814084
0.026966354
-0.013749477
-0.017741252
0.11469936
0.027349409
0.020595323
-0.13723928
0.052514978
0.15447654
0.12617855
-0.14733878
-0.23794127
-0.12265737
-0.098143555
-0.0063101151
0.60428339
0.26874778
-0.18629615
0.33603799
-0.04478737
-0.21539433
-0.67311907
-0.21282974
-0.22930937
-0.12152966
-0.22494991
-0.080299027
0.032419942
-0.032540634
0.19229759
-0.12760793
0.1121672
0.28800204
-0.17119072
-0.058022972
0.18000308
-0.0041951369
-0.24546851
-0.21264282
-0.20650704
0.16406399
-0.021379387
0.55162197
-0.44331646
-0.013552086
0.68222296
-0.24162692
0.16484916
-0.42482063
-0.20969233
0.032902278
-0.11434416
-0.20870629
-0.072780557
0.067608938
0.23530203
0.19240649
0.033118345
-0.14123981
0.093335629
0.082684949
-0.13899441
-0.19348143
0.11525433
-0.063231252
-0.081078194
-0.26669875
-0.05848914
-0.22343148
0.5712716
-0.57353121
-0.028024057
0.75213867
-0.24836554
-0.067993499
-0.34758759
-0.085967369
-0.057511877
-0.085365005
-0.29300421
-0.20327154
-0.019790947
0.040411707
0.088323027
-0.011109573
0.072534487
0.080522723
0.12766476
0.013487288
0.1176373
0.0031284862
0.052702453
-0.16125134
-0.20167908
-0.37137911
-0.029203616
0.4285264
-0.49423608
0.011215743
0.3996757
0.20243068
0.20312238
-0.1933644
-0.076261416
-0.05807469
0.032434203
-0.19453265
-0.12389936
0.10013603
0.065807894
-0.049468681
-0.074182659
-0.12483948
0.14423515
-0.10210214
-0.060712483
-0.0028296632
0.042478636
-0.1921685
0.047744285
0.024597064
-0.10884952
-0.2761569
0.5023222
-0.16630292
0.12443017
0.10969263
-0.21716742
0.049731169
-0.14258182
-0.015095441
-0.34377912
0.090526447
0.34868079
-0.15775527
0.050249066
0.04537417
0.24332239
-0.48101294
-0.010328486
0.15086202
-0.19898534
-0.096837856
-0.24356425
0.024306808
-0.1671018
-0.086509384
-0.20807017
-0.17124595
0.077335648
0.32729763
-0.26298615
0.085071087
0.24842367
0.13992746
-0.55091357
0.004326595
-0.10668664
0.0096695861
0.076377898
0.33594289
-0.15312527
-0.011739294
0.14970028
-0.019475365
-0.14022852
-0.32024983
-0.3521176
-0.1073238
-0.047844458
-0.00099577184
-0.19660075
-0.11577973
0.20742878
0.025342939
0.071233384
-0.33477408
0.208922
0.2708737
-0.053164154
-0.29984272
-0.21505453
-0.10937015
0.0032292036
-0.071556702
-0.23132087
0.048526198
0.31209585
-0.15230897
-0.11739317
0.067383662
-0.26931247
0.063483782
0.10941491
0.036456503
-0.33893853
0.034869827
-0.065415308
-0.18201941
0.0034473035
-0.11350134
0.005570557
-0.028744081
0.054527946
0.21349667
-0.11373726
-0.092272095
0.053564969
-0.58250701
-0.10048121
0.011909794
-0.023384962
-0.23541303
0.13347475
0.15096404
-0.084135965
-0.001524074
0.094844282
-0.31990337
-0.13682291
-0.03591349
0.062565342
-0.26503566
-0.091121539
0.0094048092
0.099514298
-0.062229656
-0.13234197
0.059083473
-0.0067406883
-0.093319491
0.1192066
-0.30595732
0.10541284
-0.10524105
-0.1950826
0.20363651
0.0040910873
0.16533692
-0.13692842
-0.096079879
0.062612817
-0.045259494
-0.018930778
0.14423653
-0.33661619
-0.15135731
0.028533038
-0.1332096
-0.095555559
0.014505216
-0.13479109
0.020634018
-0.0076713995
-0.068975568
-0.021081239
0.013538156
0.09607733
0.14120652
0.013644304
-0.27209198
-0.17655988
-0.18867742
0.26218668
-0.013507192
-0.15743996
0.0080178399
0.025413785
0.073517248
-0.14714547
0.053098276
0.24960145
-0.68221039
0.1623717
-0.036243759
-0.2116943
-0.10048691
0.012645169
-0.014059857
0.11389633
0.085776784
-0.012759939
0.073350228
-0.18320628
-0.076296233
0.19427109
0.21336
-0.081697971
-0.73994493
-0.27798381
0.044122618
-0.016947754
-0.1495385
0.12650166
-0.0016215855
0.25022659
-0.17728032
0.096303239
-0.057995494
-0.017128659
-0.016101826
-0.11737056
0.15300883
-0.032541882
0.053843047
0.009457143
-0.031353451
-0.14255157
0.0050244895
0.051577885
0.17448787
-0.092579685
-0.71284193
0.22791612
-0.43027624
-0.086344957
0.076998942
0.69671315
0.026995085
-0.088340931
0.046244103
0.023377512
0.14711104
-0.18519305
-0.034789175
0.0034609558
-0.065528117
-0.00368686
-0.022736952
0.13984355
-0.16565961
-0.016950633
-0.15517551
0.22875117
-0.10745785
0.036558349
-0.034294903
0.023956081
0.11483365
-0.61782712
0.15577918
-0.23388538
-0.22152993
-0.27788621
0.31815922
-0.00090846844
0.057899546
0.16518643
0.17267863
0.10467397
-0.30177829
0.095076054
-0.077653944
-0.21330908
0.078562975
-0.3761988
-0.047217511
0.094848402
0.0011456046
-0.080930054
0.087592691
0.03508785
0.18848497
0.15637279
0.10908399
-0.45931405
-0.45991039
-0.12357672
-0.3375549
-0.066117153
-0.060420834
0.53739798
0.028493015
0.10304035
0.0082207359
0.076158606
-0.014890242
-0.20513418
0.078819051
-0.14496331
0.15069912
-0.092858471
-0.34017891
0.031781971
-0.06321872
-0.0074068774
0.047996704
0.096354991
-0.17386617
0.0065040896
0.075607881
0.028514424
-0.12876146
-0.20135859
0.17881
-0.40714273
-0.22165447
-0.19195378
0.36310807
-0.0011687265
0.2934562
-0.28829074
-0.14182402
-0.21647593
-0.35115361
0.022727905
-0.041236356
0.0080028791
0.035131466
-0.038033977
-0.22987075
-0.038544293
0.00053249969
-0.053353462
-0.046474982
0.052443322
0.058508728
0.068598345
0.13241085
0.02966094
0.13391408
0.30582744
-0.32773754
-0.40715897
-0.12945049
-0.048681505
-0.022283943
0.10855663
-0.1336977
0.054315049
0.017757678
-0.020729603
-0.084942423
-0.009670469
-0.221874
-0.2028721
-0.14916417
-0.29128277
0.022811642
-0.057100981
-0.22571385
0.098022647
0.15014671
0.14794669
0.11827131
0.0039098659
-0.076790653
0.10653172
-0.034855086
-0.3544479
-0.010488923
0.24065946
0.0077727563
-0.0046273987
0.17226243
-0.13013966
-0.076073706
-0.10200202
-0.046734985
-0.0010776841
-0.17468163
0.069209017
-0.27158174
-0.084434509
0.072076768
0.0031334967
0.040004633
-0.12512559
-0.08717633
-0.04582708
-0.093914084
0.060411051
-0.010140888
0.022008803
0.40520924
0.1226979
-0.19265974
0.0050426084
0.1014615
-0.47517893
-0.18646356
0.10039659
-0.11648531
0.033380736
-0.065593354
0.024377169
-0.0027201837
-0.085507162
0.20123112
-0.19926892
-0.08551383
-0.064249337
0.011809233
0.012882604
-0.1126058
-0.17134175
-0.075656869
-0.032744508
0.10435172
-0.077261053
-0.11158193
0.14981489
0.15094025
-0.18181004
-0.24859691
0.32412416
-0.61076736
-0.0078381635
-0.033040646
-0.041009787
-0.046485364
-0.24047114
0.08862789
0.029756494
0.018565098
0.18341498
-0.097327299
0.008155874
-0.16347432
0.027127463
0.0057028686
-0.17033401
-0.17864668
0.044445872
0.11376306
-0.16021961
-0.1400979
-0.18150233
0.28826809
0.42264342
-0.33069709
-0.64873523
0.18987316
-0.44639888
0.19375311
-0.092246532
-0.052186601
-0.044445597
-0.21679743
0.11111319
-0.16109022
-0.13336119
-0.06561996
0.068577759
0.00028569056
-0.0052298992
0.0036682033
0.047623158
-0.20962316
-0.21158782
-0.11305114
0.12431701
-0.10305318
-0.018071536
-0.059820965
0.34557065
0.13205269
-0.23463675
-0.56645232
-0.029432001
-0.47399008
0.21205185
-0.084125943
-0.017189484
-0.11264668
-0.26229629
0.067654669
-0.11007617
-0.048180826
-0.18716826
0.07288608
0.023036361
0.07521186
0.034600191
0.012782465
-0.11753283
-0.21811217
-0.013692006
-0.022951065
-0.04917619
0.033050053
0.063146263
0.41302538
0.40736818
-0.42069373
-0.44583383
-0.44309226
-0.59664631
-0.016524447
-0.36331478
-0.4281413
-0.37489626
-0.081312448
-0.013389032
0.17356415
0.045888506
-0.068373412
-0.28592768
-0.15248595
-0.39154127
-0.2993378
-0.50399488
-0.20681176
-0.31373334
0.091359772
0.29218
0.10386946
-0.067640953
-0.33937117
-0.18586504
-0.37234887
-0.23809974
-0.41785789
-0.42549023
-0.26063871
-0.20257187
0.20109713
-0.061646931
-0.088675477
-0.30197293
-0.20039423
-0.23876922
0.026286885
-0.30083504
-0.18180719
-0.6646328
-0.32708538
-0.16218978
-0.0067636222
0.0090232771
-0.23968731
-0.16891228
-0.43743944
0.11776398
0.022453703
-0.11610647
-0.37378159
-0.37569404
-0.11861137
0.019792484
0.045577217
-0.063345768
-0.10145112
-0.37741727
0.19272831
0.057669498
-0.0288701
-0.45243207
-0.45999891
-0.86161089
-0.1522281
-0.28197822
-0.18493132
-0.19329265
-0.46726972
0.14312334
0.060876559
-0.017506564
-0.025126277
-0.12311836
-0.19865669
-0.079871029
-0.16884813
-0.081827812
-0.126526
-0.13735288
0.13005143
0.11124989
0.03149125
-0.0063912342
-0.090185851
-0.21061786
-0.16320516
-0.34179509
-0.15435311
-0.22022855
-0.19949527
0.10104583
0.0627487
-0.056105766
-0.17157114
-0.13913102
-0.28494495
-0.12958126
-0.25913459
-0.1217782
-0.062949479
-0.083364554
0.070362076
0.028219586
-0.13890831
-0.16676986
-0.17894313
-0.28978863
-0.22288035
-0.35341895
-0.17569241
-0.13963108
-0.039122682
0.0032486515
-0.081501208
-0.13284671
-0.22137399
-0.15847802
-0.26505691
-0.21623413
-0.22956909
-0.10279676
0.0095643532
-0.053500269
-0.0028572467
-0.42229059
0.021278935
0.042580687
0.056867804
0.77417934
0.27235231
0.26804373
0.080210119
0.098504834
0.1809279
-0.64716291
-0.17094195
0.15671721
-0.89873296
0.015083845
-0.20573965
-0.41665211
0.15071549
-0.10968214
0.16926435
-0.0055844858
-0.089643233
-0.55926764
0.25227481
0.1690205
0.091990143
0.16355807
-0.011011199
0.02346931
-0.082660623
0.053886496
0.16761473
0.37766564
-0.47168815
-0.2505978
0.065464795
-0.31054753
-0.095926009
0.20779815
-0.32269359
-0.47746688
0.35425228
-0.14647377
0.012008398
-0.28606775
0.13961886
-0.10858956
-0.17926025
0.1713783
-0.857149
-0.15803598
0.055385303
0.10408483
0.089932285
-0.06917464
0.075667165
0.37484947
0.031277157
0.17762384
0.33727896
0.079778261
-0.38472471
0.27004015
0.15789305
0.37432224
-0.33522364
-0.7831744
-0.0093408925
-0.036983162
-0.18734549
0.20631383
-0.14339523
-0.54991859
-0.15242493
0.050136983
0.11240821
-0.034454107
0.14265093
0.023747006
0.15361123
0.25948176
-0.18337215
0.047249556
0.20553219
-0.066877991
0.10510117
0.23120175
0.37341312
-0.33777404
-0.10047896
0.48304051
0.20220821
-0.34790707
-0.44070888
0.036712814
-0.35008428
-0.30523896
0.047063608
-0.2158476
-0.18940476
-0.32436627
0.23183104
0.058314882
0.17126794
0.18915902
-0.21738344
0.13380662
0.19683675
-0.3744581
0.011807252
0.4905059
-0.045662876
-0.25274432
0.26658094
-0.26102218
-0.18329616
-0.028861877
-0.062970847
0.099897072
-0.10551207
0.18909183
0.2925972
0.38065636
-0.42042395
0.2321988
-0.19579224
0.50672686
-0.41276386
-0.02473796
0.16002464
0.050438378
0.22262448
-0.016854923
0.12631799
0.2580376
0.060707081
-0.15539214
0.091225699
-0.010160485
0.046248179
0.058152761
-0.47153151
-0.19809565
-0.22050975
-0.1106528
0.17064205
-0.16288704
0.019553278
0.11883101
0.22240055
0.69808811
-0.21962358
-0.59710062
-1.225237
-0.34497198
-0.40395746
-0.81270897
-0.61021942
-0.22903547
1.0681593
1.4738846
0.14357507
0.39138114
0.66892904
-0.51061666
-0.4622744
-0.61002928
-0.18736593
0.31711751
0.43121076
-0.69399035
0.3443155
-0.20265765
0.03349328
-3.7099619
-1.0373127
0.016965941
0.23005816
-0.11215213
-0.19968842
-0.23995766
0.083545007
-0.0836358
-0.10767405
0.204651
-0.28746596
0.17137146
0.22797236
-0.044150747
0.071083993
0.038725406
0.42023382
-0.22967064
0.16044451
-0.016616901
-0.12034237
0.30768293
-0.42052335
-0.050537702
-0.1736266
0.29876179
-0.13991921
-0.35019255
-0.0086958548
-0.013303358
-0.38505572
0.026108615
0.31477198
0.19483551
-0.16448313
0.17696132
0.20973358
-0.28175464
0.22016172
0.17863826
-0.15815373
0.056856629
0.014695929
0.045363963
-0.0046392144
0.021537002
-0.074707516
0.084262103
-0.20438066
-0.24597162
0.14807306
0.21312688
-0.094133146
0.68578035
-0.26699814
0.0048137214
-0.0063298368
-0.12837788
-0.28739616
-0.31262499
-0.19487964
-0.19019733
0.097720161
0.1962464
-0.13323198
0.521707
0.33702195
0.25749007
0.16481195
-0.42085335
0.18208754
-0.25930437
-0.17881365
0.17766733
-0.019012831
0.068141796
-0.071148328
0.28503904
0.0027732651
-0.18211824
0.20004086
0.35920006
-0.011296247
-0.31301394
0.030489372
-0.32022408
0.19591922
-0.57171237
-0.27565962
0.14936353
-0.099415816
-0.0089355707
0.50564045
0.99342412
-0.15006901
-0.095034517
-0.078816287
0.14065559
-0.17810373
0.020846624
-0.013219137
0.1962081
-0.034001652
-0.27506274
-0.2044156
-0.047008224
0.066121839
-0.26042792
-0.090531148
0.011308544
0.13522728
0.0054789791
0.015305973
-0.00037629745
0.40054217
-0.28208497
0.04705251
-0.10527658
0.14169922
-0.17649695
0.14606655
-0.07355088
-0.011006013
0.093043797
0.45125285
-0.3113454
-0.34842789
0.12450183
0.18253455
-0.012186923
-0.55497146
-0.22121955
0.39828184
-0.28924453
0.33357298
0.25831562
0.022377286
0.091694482
-0.25142112
-0.19148557
-0.21718433
-0.2477503
0.055189889
-0.014419885
0.024320871
0.12274677
-0.50056142
-0.17529646
0.32229182
0.029948473
0.062163666
0.41196391
-0.3701812
0.18302858
0.25149158
-0.08665558
-0.16660622
0.48182294
0.27931103
-0.29129094
-0.14240156
0.30574378
-0.16281377
-0.027620472
-0.33756143
-0.13870516
-0.0750577
-0.30338761
-0.46639794
-0.18922882
0.0435999
-0.10850915
0.022449872
-0.17178309
0.079395577
0.044986036
0.14058362
0.50678688
0.17815016
-0.26739073
0.25150535
0.096633993
0.28277504
-0.089687698
0.39656529
-0.25805652
-0.04986386
0.33296013
0.37975091
0.34762472
0.029554194
0.34491608
0.065091491
0.25159889
-0.024268651
-0.09303192
-0.063936099
-0.084531747
-0.68925899
-0.1512288
-0.051806837
-0.32046923
0.12323367
-0.13622715
0.052199174
-0.0040397439
0.24226756
0.31248838
-0.3922542
-0.058858417
0.54499954
0.077825561
-0.26585519
-0.63387954
0.35161296
0.3823373
-0.17537232
0.015381358
0.044354305
0.15518558
0.17822517
-0.18914218
-0.0873558
0.14725031
-0.13827007
-0.2843664
0.11670858
-0.16168493
0.073568888
0.050821435
-0.10702806
-0.046128664
0.18332975
0.33832887
0.46983492
-0.39126205
-0.22920312
-0.36038387
0.13012077
-0.042789951
-0.8879329
0.51354861
0.5755887
0.50977552
-0.0033085041
0.27363479
-0.21403165
-0.1712717
-0.99188125
0.18730514
-0.056997448
-0.34646121
-0.21058887
-0.55339199
-0.062576994
0.35258791
0.23374216
0.38034758
-0.10890193
0.31534567
-0.095898077
-0.018523892
-0.32129166
0.21518493
-0.0083768209
0.96376377
-0.016902154
-0.12560721
-0.07228595
-0.23236848
0.56631184
-0.0084638344
-0.58550239
0.40446055
0.83420569
0.57704335
-0.099997222
0.2194699
0.56414384
0.7891224
0.11917473
-2.3584526
-3.2499468
0.51828414
-0.49254355
-0.85725009
-0.13388929
0.76588267
0.5647918
-0.40266973
-0.16092056
-1.5013717
1.3347075
0.21625759
-0.65830576
0.13232537
3.290714
0.60481441
0.00076182827
0.074163742
0.025318082
-0.29470155
-0.5208531
0.24709803
-0.068959847
-0.4409391
-0.23334359
-0.028923094
0.20496401
-0.011751987
-0.20567277
0.097687058
0.045760334
0.28697419
-0.048740342
-0.17734557
0.2080587
0.030582244
0.42957929
0.58522344
-0.64820212
1.0609161
-0.29956055
-0.17929819
-0.12412606
-0.35779712
-0.33722377
0.34359506
-0.071727589
0.22324157
0.25821877
0.065387473
0.2112195
0.0061995201
0.33276796
-0.44903699
-0.67712051
0.16239183
0.21326339
-0.150077
-0.73792017
-0.08756493
0.39441517
0.10603146
0.47631079
-0.059574071
-0.23098807
-0.11668946
0.33013839
0.15587829
0.16167572
0.20572321
-0.41484758
-0.31013557
0.070096985
-0.036728516
0.13684061
0.094630703
0.16678996
0.72015554
-0.17870392
0.022363773
-0.64149946
-0.52833754
0.2550694
-0.054127112
0.25527611
0.17090218
-0.15102322
-0.065210521
0.24595894
0.42550632
-0.12950471
-0.41490173
0.18405631
-0.19908932
0.41472954
-0.081514515
0.024282446
-0.3817642
-0.25945657
0.51572686
0.023415864
0.16588451
0.16615838
0.24955283
0.095571145
-0.34250155
0.097386479
0.092980631
-0.37627059
0.15723804
0.057980325
0.11815192
-0.5599156
0.36292994
0.46182743
0.15969649
0.1209861
-0.18718031
-0.51832312
0.022733089
0.097854316
0.58103347
-0.24476564
-0.19768973
-0.82980728
0.46892357
0.380528
-0.10285795
0.19221054
0.13648006
0.19309138
-0.1768115
-0.80434251
0.093044952
-0.38667592
-0.068444088
0.17386624
-0.062097851
0.24995121
-0.23879831
0.088952988
0.38158113
0.15190534
0.067002408
0.1647269
-0.51208419
0.15404229
0.20941643
0.32607013
-0.33842671
-0.2036733
-0.62640184
0.074859172
0.023552572
0.25008392
0.20677102
-0.042136379
-0.47825643
0.12635358
-0.48127314
-0.68669581
-0.10372191
-0.12232389
0.34854317
0.29072079
0.51676697
0.26312891
0.04286674
-0.062273853
0.38296941
-0.3615118
-0.040172216
0.41788778
0.37709278
0.2792576
0.28000784
0.28001553
-0.048916727
-0.27387962
-0.30298227
0.091083236
-0.24227546
-0.48259315
-0.3753441
-0.17413794
-0.058792792
-0.28545687
-0.32840371
-0.41178471
-0.16983403
-1.3995656
-0.16369373
-0.6186325
-0.80537415
-0.8577078
-0.22847016
0.14941649
-0.043025997
0.12302806
0.33442354
-0.18030299
-0.83196658
-0.18391439
-0.4404
-0.43566474
0.10144733
-0.032576628
-0.19266517
-0.63892972
-0.90744704
-0.32905316
-1.4923943
-6.5346398
-1.6338471
-0.9866069
-1.2623775
-0.95762104
-0.32003689
-0.1262826
-0.065450847
0.088086523
0.18287542
-0.3170692
-2.2275231
-0.44117206
-0.81414002
-0.15884399
-0.11096181
0.25152463
0.013970579
-0.006965661
-0.028320789
0.23886384
-0.32031518
-1.4117495
-0.3280313
-0.49304628
-0.67503637
-0.16800915
0.00089435704
-0.19093865
-0.14564589
-0.27504301
0.11504422
-0.1541535
-1.0658275
0.060362849
-0.32623753
-0.07750807
-0.29249644
0.22496077
-0.31377751
0.17421626
0.29900053
0.27219874
-0.0057775588
-0.16364922
0.2444846
-0.12006034
0.12650517
0.46657732
0.60488874
-0.093065098
0.038723078
0.017977532
-0.0056990637
0.015082608
-0.27523625
0.25108182
0.091804422
0.27985835
0.3324703
0.61015999
-0.0015257824
-0.30987999
0.22449952
0.26974991
0.13203941
0.20956805
0.5789513
0.81686932
0.91332012
0.45224607
0.11580759
-0.12289416
-0.44964504
-1.4155354
-0.6373415
-1.5672642
-0.47000584
-0.0028359303
0.15923643
0.26847288
0.00068776024
-0.074389763
-0.032422829
0.0086019943
0.13952683
0.14118233
-0.38183907
-0.16474777
-0.32523414
0.17880183
-0.80151337
-0.17934805
0.078755721
0.13097855
0.10296263
-0.020193454
0.2155384
-0.11316496
0.20739339
-0.23545913
0.18803383
-0.030700283
0.28198713
-0.34431204
-0.20340914
-0.16659711
-0.22911641
-0.14238684
0.096184283
-0.0079223812
0.59859681
-0.12703633
-0.19578522
-0.14400761
-0.29863083
0.099796325
0.33643481
-0.44497856
-0.037773587
0.24283351
-0.015075651
0.20300092
-0.3885555
0.19155005
-0.23120283
0.15077059
0.023074539
0.31434277
-0.18236853
0.27642286
-0.21152534
0.071403623
-0.040963247
-0.19607808
0.040623158
0.20943701
0.04471755
0.20196614
0.16083148
-0.0093499888
0.014774615
0.1484464
-0.039800916
-0.33700261
-0.12782724
-0.19675723
-0.1695718
-0.30705667
0.038124409
-0.093138896
0.25361633
-0.11299147
0.10668937
0.1795314
0.19596106
0.29720989
0.13964123
-0.010125746
-0.16176614
-0.23962885
0.033323817
-0.30076581
0.053136829
-0.090456024
-0.17694804
0.19806449
0.15985849
0.20719291
0.021435706
0.14429152
0.032059569
-0.10204615
-0.35832888
-0.33500353
0.093018144
-0.22187296
0.32638204
-0.11759607
-0.22949687
0.24547882
0.032812893
-0.28311998
0.0064952946
0.28876212
0.23877357
-0.36017555
-0.10361533
-0.10146904
0.098369688
0.066935666
-0.063538253
0.61285067
0.012066107
0.031504486
0.31662756
-0.088682927
-0.078652218
-0.7025423
-0.13542524
-0.36902276
-0.40843469
0.14770764
0.12997718
0.061909191
-0.0014822728
0.010203668
0.12268873
0.13386105
0.14550251
0.02198609
-0.10623031
-0.14421746
-0.23296328
-0.10657
0.11057432
0.17942345
0.1802382
-0.35431105
0.38229743
-0.23550102
-0.055950765
-0.25552467
0.32710648
-0.41388097
0.23097382
0.067497008
-0.4640556
0.1139254
0.15727395
-0.25478357
0.19968076
-0.30117288
-0.20360664
-0.35565463
0.4731791
-0.1225291
0.11449575
0.022413528
-0.17833047
-0.25848508
0.18515506
0.52513295
-0.093867362
0.015596868
-0.13782343
0.091895282
-0.47588766
0.067492418
0.12340541
0.21161695
-0.16663626
-0.37529671
-0.032668546
-0.34181365
0.18061352
0.44372642
-0.21831724
0.40059224
-1.1531837
-0.19106123
-0.51130658
0.33262384
-0.14632532
-0.21988612
-0.0014825262
0.10175794
-0.42390525
0.083970502
0.24039869
0.12272242
-0.096918464
-0.20150308
0.36834511
-0.29563278
0.48015147
0.082318462
0.089572668
-0.035723373
-0.21301915
-0.013156984
-0.16656052
0.019641636
0.086415783
-0.23658839
0.24336553
-1.242412
0.10568811
-0.4224388
0.18427289
-0.20487858
-0.17977639
0.020873815
0.14903529
-0.18849672
-0.33531544
-0.20416261
0.41046628
-0.14648621
0.01392038
0.46381906
-0.17568415
0.1341244
0.028474675
0.17440251
0.014235615
-0.48763871
0.20151974
-0.2124853
-9.259607e-05
-0.093367644
0.14131878
0.087938599
-0.71010721
0.14351493
-0.54302633
0.33381811
-0.29437742
0.071044303
0.0066010091
0.30240437
-0.13388206
-0.30210018
0.012515602
0.31489399
-0.011411113
-0.43515834
0.30410579
0.2263345
0.13992077
0.070934273
-0.26348746
0.2108635
-0.37451467
0.1962148
-0.33896351
-0.081330054
-0.11250955
0.10482629
0.1071263
-0.81453699
0.09728159
-0.76121157
0.2697871
0.13415158
-0.060978532
-0.024588872
0.18236136
-0.063842483
0.10676324
0.099740483
-0.11033503
-0.1990848
0.078129746
0.25963846
0.49447891
0.34342149
-0.072182328
0.028372962
-0.056118637
-0.36136883
-0.26379496
-0.27174145
0.024509158
0.039418001
-0.30791321
-0.19641002
-0.46219295
0.0040343162
-0.36081919
0.050896227
0.27838141
-0.12900293
0.011425554
-0.37149593
0.058297452
0.32671621
-0.3272447
0.045003965
0.16543822
0.14887036
-0.07820338
-0.070871487
-0.52728009
-0.21687683
0.28918338
-0.1583977
-0.16288823
0.078122407
0.29280832
0.057198424
0.16374661
-0.19280198
-0.30885231
0.14688958
0.62017912
0.04285397
-0.7047174
0.51313651
0.036412917
-0.021080574
-0.3912527
-0.052253492
0.15653002
-0.42292967
0.11145572
0.089862578
-0.24551894
0.66654879
-0.52813071
-0.052007172
0.053830504
0.37917846
-0.29285774
-0.22420563
-0.30262935
0.13070981
-0.088122331
0.40021312
-0.39662889
0.18442661
-0.1381848
0.27911502
-0.24550785
-0.11878052
0.23840058
0.024005041
-0.014571295
-0.43100837
-0.096988551
0.063771002
-0.56306195
0.0055830884
0.35359359
0.19831538
-0.18733212
-0.28822714
-0.20085098
-0.34721437
0.28999662
-0.17679153
0.11169851
0.24782337
0.19204529
-0.1474649
0.27083722
0.15821657
-0.35985488
0.0205945
-0.45830315
-0.54735547
0.63475591
0.73152417
-0.40329227
0.013910329
-0.33980381
0.34672546
0.21501422
-0.29348442
0.30189404
-0.018938513
0.22274761
-0.79197603
-0.41354311
0.17351006
-0.4144353
0.10631113
-0.1933451
0.1435775
-0.22160485
0.050876148
-0.057523869
0.19097354
0.171233
0.1438126
-0.16667408
-0.90140325
-0.69492751
1.0656317
0.38617572
-0.74836177
0.0047753504
0.0010330019
0.30184478
-0.13809344
-0.24792022
-0.04097914
-0.29298413
-0.32210326
-0.68415749
-0.32981449
-0.29584086
0.23606732
0.1523577
0.043986347
0.48129618
-0.083636448
0.28308445
-0.1202292
0.15362996
-0.012909441
0.058616277
-0.0010470899
-0.26938495
-0.55165929
0.53737509
0.32580182
-0.33095083
-0.02858571
-0.235349
-0.44024053
0.29378676
0.25378683
0.18590091
-0.25593233
0.027054865
-0.15234254
-0.5706861
-0.096611738
0.15313105
-0.22618784
-0.098226748
-0.41626763
0.25517198
0.18935201
0.14919817
-0.0048595709
0.14428289
0.28978947
-0.35976195
-0.3415643
-0.62742251
0.55731595
-0.16644616
-0.061439313
-0.016019784
-0.4620586
-0.033000413
0.11481576
-0.32981643
-0.28898698
0.041562404
-0.51795197
-0.079049185
0.19347633
-0.085083447
0.40009114
-0.09408424
-0.092647903
0.00087753148
0.39598584
-0.16267154
0.13295256
0.1270225
0.023762397
0.22577959
-0.17261939
0.08037138
-0.28149453
-0.22789595
0.11955826
-0.69468105
0.051190145
-0.22844578
-0.35380203
0.44152752
0.19301969
-0.19464797
-0.16405264
-0.0023846019
0.41924801
-0.078302108
-0.4809576
0.058493685
-0.09818422
0.13688543
0.076574579
0.1647673
0.07014849
-0.19386245
0.12772
-0.11522985
-0.20828286
-0.17330489
-0.10877512
-0.17819822
-0.35671788
0.24027695
0.068041988
0.16620365
-0.6228357
-0.23059224
-0.17871919
0.028212089
-0.1359424
-0.094260201
-0.25173372
-0.087691665
0.18286361
-0.30292791
0.37711594
-0.033971693
-0.17549489
-0.29279512
0.62298495
0.23697846
0.25021222
-0.30395886
0.18323769
0.032569051
0.073758654
0.077380858
0.12639923
-0.59321511
-0.18874718
0.28664857
0.040454347
-0.082866304
-0.36961946
0.21244684
-0.0097807134
-0.38398936
0.080620922
0.13001171
0.0090583432
0.15364274
-0.16243725
0.13591781
0.058126763
0.0071540363
0.058597673
0.19113591
0.19894367
-0.41279674
-0.46641773
0.23874637
-0.40993699
-0.0049474435
-0.16821484
-0.010726473
-0.47823244
0.18075551
0.55077368
0.19410636
-0.046344511
0.020568293
-0.028185273
0.075048968
0.071491584
-0.11022203
-0.24256271
-0.33901668
0.49530265
0.063145667
-0.038615569
0.023244699
-0.28731084
-0.41757339
0.23487106
0.27940157
0.065066338
-0.31508288
0.11474376
-0.33730337
0.057395082
0.4848741
-0.65737659
-0.17027737
-0.0026040189
0.20809662
-0.13108204
-0.2232246
-0.060377639
0.13462965
0.52454573
0.40191138
1.3822261
0.14039998
0.22247514
0.10854811
-0.31302485
-0.61274129
-0.079571038
-0.013767047
-0.088392578
0.2253264
0.14579166
1.8427287
0.22796138
0.074870415
0.29940942
-0.19774731
-0.036287632
-0.16038956
0.038099088
-0.22534998
0.50142008
-1.2738121
0.93905181
-1.2338587
-0.5845319
0.4171147
-0.053951539
0.052224528
0.23134984
0.27577147
0.13686879
0.17812777
-0.36796531
0.067371197
-0.74386376
-0.88583297
0.010441638
0.067042246
0.34882429
0.18195909
0.47622308
-0.83265275
0.13917176
-0.088489547
0.70330328
0.32135814
-0.29390287
-0.23750371
-0.043945283
0.15389116
0.53847426
0.83420366
0.011973059
-1.0129235
-1.0061374
-1.9225392
-1.3048917
-1.5111897
-0.32986307
-0.032942042
-0.35523891
0.0053998763
0.27135307
-0.17688622
0.33223867
0.44547263
0.25703987
-0.42261645
-0.67784131
-0.23027296
-0.3019014
-0.73494548
-0.43606186
-0.62792695
-0.46256968
-0.24415281
-0.36978054
-0.98412895
-1.1329373
-1.6803979
-1.0918186
-1.2129053
-1.2641113
-0.33999765
0.077955596
0.049588442
0.21612051
-0.10239767
-0.19693659
-0.24751244
-0.6473515
-0.21515319
-0.44330767
-0.55083573
-0.29828569
0.26185399
0.11236423
-0.011443129
-0.026353631
-0.2821331
-0.13511972
-0.64721203
0.031455167
-0.18152085
-0.079120398
-0.22275226
-0.040228851
-0.25098947
-0.04100455
-0.053728878
-0.66593707
-0.36310357
-0.65016377
-0.012294728
-0.089894414
0.25469095
0.010867437
0.024706578
0.17585774
1.0005474
0.65811801
-0.34976804
-0.41790825
-0.34739432
-0.041739911
-0.34183821
0.080277905
-0.14425485
-0.44624665
0.082395464
0.11088882
-0.048310332
-0.165879
0.11166854
-0.093576685
-0.48573714
0.50723016
-0.04427284
-0.19059473
0.72255325
-0.26240718
0.018827137
-0.26725745
0.21709684
-0.10657065
-0.086433597
-0.057649877
0.4626171
-0.017516278
0.027138224
-0.24575627
-0.10851503
0.54995775
-0.2042665
-0.14381352
0.097530298
-0.19706975
-0.24379201
-0.17689541
-0.30087203
0.088217326
-0.21732779
0.15663569
0.020786004
0.3182244
-0.0015504298
0.6882388
-0.16878155
-0.061201166
-0.28094879
-0.058070023
0.31651923
-0.15305796
-0.07793875
0.10870846
-0.09913034
-0.3243674
-0.31723139
0.43425751
0.29364133
-0.17002442
-0.24072051
0.27681571
-0.17874464
0.37099144
-0.062819429
-0.15401396
0.012865582
-0.0098814508
-0.19144036
0.025546905
0.14458902
-0.14013895
0.0021042645
0.012698972
0.47657317
-0.41179079
-0.064593486
-0.097265355
-0.18293716
0.12124795
0.39833131
-0.02854231
-0.37125555
0.12529056
0.080970638
0.41770649
-0.24650118
-0.34034863
0.5250383
-0.069619313
0.22071439
-0.020270601
0.15717201
0.66915953
-0.079043016
-0.19012092
-0.12976247
0.56994456
-0.12400975
0.073274046
0.1186076
0.46895447
-0.44505537
0.0068306783
-0.23680395
-0.27281597
-0.5114485
-0.26158503
0.019543335
-0.18586384
0.0032929785
0.25438884
0.25205672
-0.13767676
-0.50331974
0.42252356
-0.18064633
0.25988951
0.062624298
-0.10519533
-0.017569959
-0.72073448
-0.40620184
-0.12028117
0.38374516
0.20265107
0.62677991
0.34837395
0.26256219
-0.3142212
0.011221662
-0.086485825
0.12091888
-0.12432958
-0.057082471
0.041615862
-0.17504519
0.085398592
0.01423366
0.39448813
-0.039729469
-0.38364592
0.037799578
-0.67107689
0.21180508
0.056239534
-0.025580093
0.29268676
-0.077880405
-0.27323732
0.16164574
0.62786442
0.040321276
0.1592382
-0.026155656
-0.034998089
-0.24589913
0.21085417
-0.10086438
-0.50191903
-0.030299243
-0.0039199614
0.24668579
-0.20660125
0.13711217
-0.19202496
0.11626149
-0.21072559
-0.1959177
0.060499039
0.88819009
0.016331457
-0.020837517
-0.20943832
-0.046320818
-0.19277541
-0.22550972
0.16528395
0.21576676
-0.41513836
0.041904379
-0.019781686
0.30147558
0.44689792
-0.091422126
-0.10963853
0.18603718
-0.39882535
0.1781563
-0.066856213
-0.06551984
0.31368905
0.11210079
0.02657615
-0.022107121
0.13947564
-0.53108269
-0.64709979
0.039332811
-0.011594905
-0.13502863
0.068028398
-0.11067326
-0.20764379
0.28468901
0.32401386
0.043388218
-0.36473557
-0.29982078
0.52119756
0.065416351
0.2875652
0.081053436
-0.12467201
0.22904174
0.016829241
-0.38194335
0.20511052
-0.081254788
0.056562703
-0.13296142
0.0057828384
0.12745532
-0.58350134
-0.53194582
0.55986315
-0.018870257
-0.080683865
-0.083553098
-0.021198684
-0.23628592
0.3210921
-0.077415347
0.037963744
0.028520938
-0.26619497
0.34257284
-0.13749342
0.22317821
-0.048775766
-0.042538356
-0.065480329
0.33657309
-0.17278941
-0.02457577
-0.22476415
0.2423362
-0.0057834145
0.17181905
-0.25920662
-0.49939802
-1.0033146
0.34140527
0.0091721006
-0.099030182
0.018279493
0.12761803
-0.1696025
0.45169523
-0.027727732
-0.24478301
0.14816208
-0.188253
0.25710493
0.12487418
-0.35523924
-0.0013659985
0.25663173
0.24514548
0.074490905
-0.18845031
-0.27317652
-0.13985923
-0.052688546
0.17562513
-0.31131199
-0.39706317
-0.16287231
-1.2499065
0.33922336
0.019250767
-0.06527099
-0.3363229
-0.028041368
-0.0031220815
0.13547458
-0.054291893
-0.38373569
-0.37470615
0.35802841
0.23398894
-0.11877708
-0.1884052
0.23546524
-0.2122117
0.39737257
0.17148648
-0.21256521
0.58711672
-0.33302337
0.42144948
0.042356282
0.14388001
-0.38242909
-0.60502034
-0.0021370638
-0.10574263
0.02265588
-0.19643052
0.22911341
0.31436571
-0.41835567
0.18031684
-0.15278444
-0.21980563
0.021033395
-0.022755653
0.20087063
-0.10039134
0.19126506
0.093965098
-0.17868301
-0.10495079
0.034979247
0.29747093
0.2357876
-0.17791851
-0.15154895
0.024505271
-0.33459198
0.1405573
-0.22570099
-0.031623077
-0.24794829
0.005400782
0.0089687854
0.073247276
-0.31367323
-0.65699941
-0.2688573
-0.10420155
0.44522405
0.86746281
0.361166
0.14983915
-0.13210328
0.13123804
0.22939691
-0.29230869
-0.38201547
-0.36508977
-0.07673306
0.27460971
0.061782796
0.085329898
0.2106898
-0.13956341
-0.37396553
-0.10174172
0.19518325
-0.35466239
-0.01611384
0.15878238
-0.1611239
-0.1975766
-0.39741766
-0.13250528
-0.24892294
0.048939999
0.70478874
0.77257836
0.04041392
0.21472639
0.24116741
0.14661643
-0.077627979
-0.15698838
-0.15243746
0.23705131
-0.11876939
-0.15684411
-0.25741801
-0.20582378
-0.11418805
-0.58384508
0.11580439
-0.53953415
-0.30551958
-0.0040546479
-0.32879308
-0.52255177
-0.38463652
-0.08480259
0.33839798
0.034875691
0.40553409
-0.30159891
0.1088954
0.48271337
0.86032039
-0.37390727
0.24433206
-0.26038021
0.15548638
-0.048426684
0.54530668
-0.50220239
0.063753396
0.23152201
-0.18668491
0.031413998
-0.6687656
-0.13140157
-0.43612957
-0.17632928
-0.0022688571
0.15349017
0.43788439
-0.49999988
0.27067843
0.036812622
-0.11201373
-0.22299203
-0.12946792
-0.080762163
0.21621984
0.1573683
-0.15829924
0.12196506
-0.21676044
0.13340925
-0.037313011
0.1847854
-0.091370836
-0.35403591
-0.0062461486
0.2131504
0.22155021
-0.29914361
-0.47262865
-0.055218402
-0.22756983
-0.026989236
0.0099329045
-0.59565628
-0.10552005
0.072072096
0.6069116
0.27536336
0.39879119
-0.25776002
0.35839748
-0.27465624
-0.30349734
-0.25538799
0.19602577
-0.43095613
-0.1677396
0.62957823
0.15354355
0.16215868
0.082846463
-0.12309593
-0.047914781
-0.36690816
0.20622116
-0.38912833
0.22257549
-0.13370112
0.01094335
0.84294569
-0.25499552
-0.13573661
-0.69484323
0.19567451
-0.17858037
0.34350473
-0.31110525
0.05564734
-0.21190757
-0.11890536
0.35555884
0.22929953
0.38388672
-0.49914044
0.3254914
-0.015462287
-0.018856816
0.13109618
-0.16813758
0.13703036
-0.45040435
0.16482666
0.064270906
-0.22810262
-0.059338659
-0.032603424
0.057718877
-0.090855986
-0.3483955
-0.22392309
0.079762995
-0.031215588
0.062399413
-0.39681593
-0.33095825
0.091514915
0.47126663
0.30135927
0.28509492
-0.17000793
-0.1815798
0.097881667
0.14160196
0.02315828
0.075537086
0.2907373
-0.007600327
-0.28937435
0.094178416
0.22169256
-0.16316943
-0.037622564
-0.074432909
-0.36635461
0.43894327
-0.42120272
0.027550049
0.31502247
0.20884523
0.0084956409
0.079564959
-0.065962918
0.43755907
-0.35255647
-0.058379386
0.037431087
0.27157637
0.21726967
0.32350197
0.00039915027
-0.22815268
-0.31256497
-0.30812585
-0.055982426
-0.4143723
-0.00024817957
0.63958824
0.28245565
0.18341669
-0.090041123
0.35637775
0.20880534
-0.33306631
0.11017755
0.28395826
0.14906253
0.20371209
0.1006856
0.10728073
-0.0046805311
-0.097483091
-0.26408666
0.1246087
-0.26254857
0.24994364
0.099771775
-0.34753594
0.072243892
-0.38597611
0.019047368
0.095495425
-0.23500739
-0.1089614
0.61482185
-0.36872244
-0.10010937
-0.22289337
-0.27633783
0.59432769
-0.057369709
0.20399661
0.047062345
-0.12957636
-0.25800043
0.17643963
-0.11126553
0.094557464
-0.17494304
-0.059544578
-0.097346216
0.25327414
0.34781718
0.10645396
0.16162603
-0.22812851
-0.10084316
-0.29305699
0.19039223
0.44684443
-0.45684469
0.45909372
-0.4371984
0.25605002
-0.27006704
0.029238382
0.043929763
0.21325947
-0.097993225
-0.09697742
0.37066594
-0.16968511
0.0050077299
0.13318563
-0.23025012
-0.5965817
-0.18568254
-0.12493601
0.27762187
-0.38837239
0.17875674
0.25860253
0.47340357
0.11429034
0.11805921
-0.1325887
-0.10181807
-0.27404881
0.24954455
0.41234803
-0.039477713
0.2301949
0.11089686
-0.095391214
-0.25309393
0.17120534
-0.068314403
0.22423594
-0.33832619
0.16746013
0.70545781
0.46608692
-0.63114405
-0.23213555
-0.37700665
-0.34561643
-0.25181723
-0.20916355
0.396061
-0.35928673
0.12623581
0.30753997
-0.5971387
-1.1060222
-0.5275616
0.04229378
-0.29726037
-0.23350616
-0.18953738
-0.05916534
-0.4998121
-0.9585557
-1.0445019
0.093423158
-0.60257173
1.5399199
0.21159722
-0.39107084
0.33726814
0.61350477
0.17617369
-0.36696497
-0.20599407
1.0411072
0.57959801
0.31263673
-0.34788328
-0.67684644
-0.72274917
-0.29624382
-0.01281025
-0.069722094
-0.49139586
-0.19249471
-0.12057506
-0.21757184
0.064713292
-0.67134005
-0.1351413
-0.42382118
0.0099808527
0.013457892
-0.29600382
-0.057201799
0.59404546
0.35289133
0.47391337
0.13279347
-0.20433711
-0.15265585
0.45163569
0.28284299
-0.25175592
0.14497688
0.73352373
1.0998505
0.19984949
0.064885467
0.49979571
-0.53896904
0.0019844787
0.30452457
0.17276417
0.14263955
-0.14614989
1.1635126
0.63654202
-0.32963404
-0.46231768
-0.57962137
-0.73897922
-0.2421878
-0.09240815
0.082253017
-0.10300969
-0.3118965
-0.029971398
-0.85841984
-0.76065409
-0.62768286
-0.80892551
-0.62771589
-0.45553875
-0.41441578
-0.23890619
-0.068081528
0.75073063
0.53317887
0.63311327
0.6365214
1.2737986
0.89337564
-0.65252542
0.23407444
0.24428259
0.33106911
-0.02150904
-0.095388353
0.42067456
-0.26905397
0.05797695
0.13708054
-0.1640785
-0.11599898
-0.54973245
0.050243195
0.05190672
-0.083178557
0.41610631
0.27114871
0.25484568
0.12419629
-0.79705125
0.18667185
-0.85848153
0.96796834
-1.1357948
0.2870591
-0.31049627
-0.0071457918
0.0037668659
0.1295633
0.41046453
0.10774732
0.45133364
0.30461276
-0.62263197
0.23801173
-0.075813554
-0.63805878
-0.048696045
-0.021140605
-0.07548704
0.12896702
-0.3797015
0.77335459
-0.37204194
0.37271863
-0.79526979
-0.013836
0.45105645
-0.44594514
0.62910646
-0.071882017
0.014516812
-0.35751823
0.24172749
-0.098939367
-0.055655502
-0.19271553
-0.10930079
0.027614158
0.45876312
-0.051999073
0.15913309
0.16144325
-0.28323883
-0.31508589
-0.23607761
-0.11243383
0.11178165
-0.26880527
1.020256
0.24498498
0.36295033
-0.57279307
-0.37438837
0.1799316
0.14931084
0.24176936
-0.17463574
0.48412541
-0.41408473
0.38374537
-0.029814092
-0.089691676
0.51420665
-0.26845089
0.081607483
-0.02736189
-0.49355528
0.23429058
-0.074333221
-0.84513062
-0.34533611
-0.10199845
0.0093740793
0.39440161
-0.049159128
0.61880338
0.61062491
0.10307518
0.0064028669
-0.96641171
0.26683021
0.42315727
-0.46765664
-0.22774847
0.012188205
-0.13837039
0.063899249
0.12433704
-0.012650832
0.034939893
-0.13128532
0.034587882
-0.51100862
-0.15979008
0.13348712
-0.012084112
0.20453677
-0.61678243
0.18242277
-0.30722082
0.31114015
-0.24490067
0.54275113
0.19855054
0.064119563
0.34571666
-0.49787536
-0.039927199
0.30731538
-0.38096112
0.66761309
-0.92637825
0.0099978736
-0.60564774
0.40644255
-0.47890276
-0.095703073
-0.139429
0.50337106
0.25267118
0.73202193
-0.31128412
-0.91760224
-1.3782918
0.059660111
-0.41265699
-0.68060726
0.43237737
-0.28498909
1.0050644
0.13728987
-0.27870294
-0.2089421
0.70873797
-0.1576771
-0.29669043
0.13906865
0.4180434
0.14154346
0.018884707
-0.110173
-0.47784039
0.022448514
-0.07393837
0.058600511
-0.08325544
0.22064747
-0.19672897
-0.77862567
0.1506982
-0.67088675
-0.15745124
0.075108506
-0.21425341
0.099710129
-0.21250601
0.25388542
0.44696561
0.20942819
0.37052
0.53086627
-0.37857008
-0.10101256
0.078880996
0.7158826
-0.61616099
-0.014895136
-0.52140915
0.03002063
0.16776182
-0.67415643
-0.080729298
0.15967266
0.29082704
-0.41756955
-0.20564236
-0.029626992
-0.86326367
-0.08833012
-0.16816247
-0.16302048
0.30221659
-0.21967286
0.51739657
0.55307841
0.38374126
0.59785837
-0.36510512
-0.7530058
-0.74435103
0.73634577
-0.18383378
0.44045076
0.014451278
0.13484138
0.1814502
0.11110318
-0.26221088
0.12915109
-0.096285231
0.13118103
-0.79867667
0.15876088
0.024474045
0.026807679
0.3249875
0.15130948
-0.18376498
0.3144623
-0.58354038
0.062770784
-0.40016791
0.095181853
0.35292435
-0.17402096
-0.23956032
-0.4632473
0.60418051
0.033937734
0.034435399
-0.021212289
-0.20149872
0.20831779
-0.38541028
-0.85357493
-0.11248045
0.050279036
0.16923697
-0.96945047
0.17882751
0.20223863
0.50622541
0.2613388
0.2260462
0.24911341
-0.12773137
0.020039635
0.28673324
0.25004107
0.014755733
-0.10669737
-0.45822909
-0.22116631
-0.38035446
0.41514951
0.51304179
0.4260824
0.0052997237
0.046316877
0.18827665
0.11292787
-0.49122679
-0.31662297
-0.10065984
-0.10905258
-0.46374002
0.32672524
-0.21409319
0.84180415
0.18356992
0.12264369
0.52978665
0.084177002
-0.22700329
0.0085406145
0.27082598
-0.19248901
-0.38712734
-0.76384956
-0.54817796
-0.19047256
0.66248047
0.10073066
0.95865297
0.0082790665
0.17463697
0.094503954
-0.3884505
-0.49806827
0.021327175
0.015783437
0.18338035
-0.80200845
-0.23219715
0.12829097
0.37077424
0.062731236
0.0085552773
0.31207249
0.46557239
0.019694123
-0.1211324
0.46154103
0.31811649
-0.17649049
-0.84099329
0.083655469
-0.63270706
0.3480278
-0.17030902
-0.81342912
-0.010062142
-0.20488596
0.018492429
-0.025552629
0.19346023
0.22035986
0.33377782
0.67839396
-0.86791605
-0.61940694
-0.18007956
0.65790308
0.27392387
0.01392692
0.63089085
-0.054326147
-0.80894506
-0.28680664
0.2666696
0.22625622
-0.3934654
-0.92008734
-0.49367899
0.10272654
0.091798812
0.15425767
-0.61934125
0.014869238
-0.36331677
-0.38211164
0.12353667
0.5845443
-0.087114729
0.14721298
0.058222931
-1.1221932
-0.18309805
0.19427954
0.20644516
0.039725296
0.073135592
0.20597735
-0.52227896
-0.04911571
0.060308348
0.25089756
0.46409488
0.34656978
-0.66279709
-0.24531518
-0.44027764
0.35449672
-0.14319569
-0.50963104
-0.0072053131
-0.15636353
0.23259605
0.3751305
0.13638213
-0.11549171
0.077474475
0.46555164
-0.70207655
-0.31957424
-0.042624529
-0.26077977
0.23679943
-0.010941887
-0.28958803
0.17896509
0.37230185
0.34327751
0.1379066
-0.21922649
-0.10227599
-0.49942482
-0.45877582
-0.029584158
0.17073222
0.48489985
-0.1599873
0.0110692
-0.32834262
-0.48257571
-0.35432675
0.6540876
-0.12463924
-0.26986003
0.60077232
0.1410594
-0.15880071
-0.19294356
0.15719056
0.19164361
0.10193963
-0.43723366
-0.1142997
0.075103499
-0.26029366
0.21391524
0.18279238
0.1146899
0.0018005854
-0.19295532
0.28093782
-0.16962439
0.9935407
-0.23651683
-0.017055778
-0.55554217
-0.40329155
-0.040916879
-0.020305447
-0.69404888
-0.13410817
0.64693505
0.23030795
-0.090215191
-0.17423084
0.029871399
0.17111619
0.029879157
0.020493463
0.15361834
-0.042981446
0.53423494
-0.068353131
0.38094455
-0.43173227
0.055508047
-0.28907332
-0.27216971
0.32418799
0.28324735
1.0463916
0.011847913
-0.086236626
-0.39714876
0.24287261
0.30791095
0.16596101
-0.16541402
-0.11972158
-0.2486368
0.0071417098
-0.25319499
0.53351098
0.027072685
-0.0072990051
-0.30173177
0.56119555
0.19708975
0.038647659
-0.088499762
0.20209159
0.014675911
-0.062288862
0.33343297
-0.081392705
0.046694312
0.31243426
-0.25970331
-0.64324117
0.27295354
0.1009547
0.017200906
-0.81296158
0.063180305
0.15326047
-0.073321238
-0.40846857
0.16267739
-0.02717847
0.50991458
-0.079447232
0.19779088
-0.30715063
-0.063888595
0.23557769
-0.19812173
-0.12140664
0.44291928
0.2900832
-0.049230427
0.19615982
0.033826057
-0.068490148
0.061434437
0.066892743
-0.48188588
-0.073153369
-0.038583461
-0.36148688
-0.78305233
-0.2483435
0.10562996
-0.010305587
-0.14359762
-0.17876659
-0.26481664
0.56539369
0.20688908
-0.041373488
0.53934807
0.20638531
0.38724664
-0.43305558
-0.2170047
0.42795435
0.073064797
-0.093555294
0.0093136206
0.023980875
0.044570535
0.31975532
0.046669766
-0.058450289
-0.14725329
-0.12947738
0.074744582
-0.61006749
-0.2084247
-0.0034902073
0.063310042
-0.20543002
0.14996402
-0.25983194
0.1860684
-0.11896693
-0.039865766
0.43970162
0.10985217
0.29137462
-0.2282518
0.19903775
0.25986731
-0.30782345
-0.095482647
0.040522404
-0.30125281
0.10065328
0.23084998
-0.20652001
0.38100865
0.0066275918
-0.36289737
-0.18515299
-0.080232024
-0.47155693
0.065572962
0.034069385
-0.039223671
0.12009509
-0.1006308
-0.11540445
0.12472866
-0.089973524
-0.28395277
0.26073197
-0.29763651
0.44753641
-0.049340785
0.31495491
0.0083850045
0.34461707
0.26658702
-0.07110668
-0.3010051
0.06067349
0.27103937
0.16616127
0.29820722
0.47016126
0.31248811
0.1128805
0.2123529
0.1502631
-0.11302358
-0.92066061
-0.98871648
-2.5423887
-2.549906
0.33103749
0.48100087
0.41584086
0.052093193
0.15645838
0.26249668
0.22769105
-0.85283124
-0.85509342
-1.6931542
-1.3342091
0.39088988
-0.06693428
-0.18396059
-0.85292161
-0.4248347
0.043804761
0.11039536
-0.27366707
0.22285068
-0.57521945
0.26238695
-0.13267596
-0.18138748
-0.27266079
-1.3665766
0.039306659
-1.1973245
0.046572566
-1.4255542
-0.60288447
-0.77210212
-0.12325445
-0.011086072
-0.028871281
-0.091810599
0.042655952
0.4633289
-0.0028345934
0.36826551
-0.5427621
-0.65952617
0.29673108
0.61778194
0.088632584
0.29854715
0.22011092
-0.28600892
-0.27340236
-4.532907
-0.40854916
-1.921936
0.082577981
0.98432475
0.93545234
-0.088620208
-0.19815844
0.1189665
0.42787963
0.81337273
0.15557085
0.23475271
-0.4420442
-0.36002016
0.23886037
0.50310689
0.10915465
0.15736443
0.12595849
0.22774488
0.37946644
-0.65911955
0.15606602
-0.81482995
-0.53930485
-0.036091283
0.52395087
-0.3814083
-0.10831182
0.22548068
0.056350365
0.076489918
0.23534545
-0.090685584
-0.7415145
-0.36020112
-0.44832754
0.30309808
-0.38135132
0.11019678
0.015983975
0.40129796
0.33411762
0.51881617
0.2727541
-0.31651336
0.21855296
0.26419273
0.28206643
-1.0290316
-0.69588757
-0.52931571
0.22214825
0.11575548
0.27104017
0.0036850921
-0.28335539
0.014379838
-0.054918703
0.49741533
0.0017397217
-0.1319765
0.094393477
0.13908796
0.010175064
0.12953566
-0.062788658
0.43692356
0.071039543
0.56296283
0.43249145
-0.32673848
-0.13038105
-0.50222754
-0.27621177
-0.50372648
-0.21428464
-0.12647228
0.35045388
0.52817011
0.014457799
-0.13675204
-0.40521836
-0.34237278
0.19499274
-0.010296669
0.040193588
0.040041704
-0.17675883
0.32277954
0.47997549
0.36173058
-0.45687819
0.015300458
0.44062656
-0.3641386
-0.32476583
0.040137425
-0.13500845
-0.057669498
-0.40136629
0.11235378
0.0069200094
-0.10734998
0.07173644
-0.067430548
0.49131325
-0.11214355
0.38882908
-0.33375925
0.12521821
0.12320068
-0.19154808
0.097921461
0.024764393
-0.15104067
0.16011009
0.65346205
0.28283271
-0.10576643
-0.10920435
-0.48213786
-0.52238435
-0.22194561
-0.12539639
0.26619199
-0.30094108
-0.23230474
0.073510714
0.067521892
-0.26366583
0.32312477
-0.31449926
0.093466245
0.1648172
-0.12861845
0.30680421
-0.39084816
0.24179512
0.013925999
-0.12978783
-0.29105887
0.10799697
-0.0831948
0.54568815
-0.3951354
0.1280171
0.047791399
0.59575975
-0.28433344
-0.087676555
0.13149704
-0.15615384
-0.18369868
-0.3402456
0.45960501
0.01254552
-0.42287472
-0.095206812
0.009410263
-0.040043652
0.23126796
0.070343785
-0.37274566
0.17389832
0.1071974
0.1304041
-0.23732224
-0.19310564
0.17325689
0.1506431
-0.36760461
-0.15492755
0.0052100997
0.65050232
0.67214769
-0.025023861
-0.25996095
0.27979955
-0.27155069
-0.11704405
-0.3482796
0.41588131
-0.082824841
-0.0092823412
-0.044222206
-0.363491
-0.051882949
0.078362308
0.12793092
-0.24611562
0.63572836
0.14611198
-0.34220856
-0.3952347
-0.059547354
-0.28777927
-0.01798228
0.70515382
0.004563841
-0.045949873
-0.43584743
0.82012701
-0.15811414
0.04032369
0.27010092
0.01722884
-0.28702548
0.95506173
0.10903054
0.073609971
0.70420134
-0.12299849
-0.24629533
-0.11743383
0.012906268
-0.070905373
0.42401361
0.93030983
0.096952796
-0.44739956
-0.29033652
-0.43548241
-0.36261636
-0.29101622
0.59994024
0.67566109
-0.15559621
-0.31855664
-0.030681195
-0.33188739
0.52751815
0.10159597
0.29854602
-0.39099005
-1.0574896
-0.46213928
0.022652235
0.30294317
-0.13249715
-0.19066404
-0.2011793
0.46864444
-0.1071396
-0.16755089
0.67966086
0.41212764
-0.11245421
-0.37887993
-0.12888241
-0.082726777
-0.24096048
-0.65082967
0.34815797
-0.10740688
0.19481201
0.50891846
-0.34335077
0.25192997
0.078341231
-0.11196312
-0.38274795
0.11391231
0.14436939
-0.00076194631
0.15502959
-0.76498318
-0.3410151
0.032454085
0.099488966
0.2435323
-0.10720611
0.68166417
-0.41957814
-0.39563239
0.042593721
-0.17448731
-0.088090934
0.18388622
0.11326855
0.52799362
-0.056851752
0.51091164
0.47199637
-0.082780689
-0.32982057
-0.31963286
0.22333853
-0.35298327
-0.29165503
0.27170026
0.016698865
0.89906746
-0.78891432
-0.067054503
-0.4958972
-0.21087079
0.26231447
0.084889404
0.67311871
-0.22159098
0.12783276
0.54468691
-0.090557128
-0.22233203
0.01046601
-0.016954316
0.16094257
-0.10178729
-0.16792005
-0.089846373
0.38264272
-0.22602764
-0.38196954
0.32100299
-0.20738558
-0.7421298
-0.0028920171
0.029963206
0.97309279
0.27483177
-0.32967517
-0.25387692
0.4929691
-0.07513959
0.17313349
-0.35266635
0.041026037
-0.46144405
-0.48210403
-0.38635245
-0.18660858
0.28611699
0.2484796
0.17663114
-0.056583531
-0.11377782
0.45578641
-0.15064071
0.065195344
-0.23072115
-0.40987581
-0.032176275
-0.57000244
0.0030661435
-0.0081517398
-0.21154919
-0.063106209
-0.018667378
0.063510522
0.63303643
-0.050833043
0.24751399
-0.17165513
-0.11201066
-0.001857404
-0.65117937
0.27034095
0.044057067
-0.11354296
-0.026234128
0.068595149
-0.16126597
0.058600008
0.61646253
-0.11459934
-0.26982352
-0.60745013
0.26062515
-0.181658
-0.10884783
0.63256741
0.024242513
0.062933356
-0.30582416
0.23385014
-0.14269386
-0.14377129
-0.13371171
0.095258743
0.030458054
0.31455657
-0.51310116
-0.4270514
0.082206562
0.26097646
6.3111256e-05
-0.039868496
0.11984389
-0.030010998
0.015054588
0.63647336
-0.2960498
0.3743439
-0.3750284
0.50211781
-0.64248621
0.18583103
0.16792957
0.022482036
-0.0078511955
-0.015720971
-0.2629565
0.038362689
0.16258128
0.68755466
0.07927981
0.21042511
0.33958513
-0.25187892
-0.90938926
-0.049388293
0.10448799
-0.17834038
-0.11702295
0.71687305
-0.063498966
0.10440496
-0.053782888
-0.28328431
-0.06497515
-0.084902957
-0.44100195
-0.2061622
-0.22839247
-0.41743812
-0.0046530594
-0.10524327
-0.2505357
-0.15696231
0.29108539
0.54085988
-0.12593073
0.37860477
-0.0040796204
0.023242878
-0.10702618
0.054576907
0.25800931
0.0085770497
-0.17991269
0.27895641
0.079533368
0.10433701
-0.57801795
0.31946453
-0.3587749
-0.2016688
-0.56158382
0.096400887
-0.19437504
-0.14486489
-0.10290905
0.022289561
-0.0073169032
0.17638408
0.24430706
-0.19352715
0.045404129
-0.36326969
-0.3707203
-0.53250879
0.034773961
-0.1999197
-0.098489478
0.15173136
0.082285315
0.64980161
0.20056303
-0.041963492
-0.059447147
0.18073393
0.52315664
-0.079534858
-0.10384569
-0.57987607
0.19804254
-0.12540109
-0.30588317
-0.46994749
-0.027163712
0.4493432
0.2977429
-0.10644243
-0.19413728
0.40216962
0.43552309
-0.041441787
0.28616738
-0.1908398
-0.41837001
-0.49104956
-0.13127221
-0.043203019
0.15152627
0.058495604
0.011673059
-0.16159409
0.066842005
0.22092241
-0.29588407
-0.30574915
-0.51730937
0.18163064
-0.26864639
0.69042933
0.21441713
0.013277334
-0.38947621
-0.43902713
0.014239642
0.53889805
0.10909271
0.6857692
-0.13769592
1.221308
-0.049630724
-0.51016271
-0.54806918
-0.015748866
-0.2360286
0.45130241
-0.24687096
0.24460822
0.43211618
0.30897909
0.29703763
-0.77651405
-0.30923641
-0.71587062
-0.0072986484
0.036348812
0.45814478
-0.33119276
0.0028816783
-0.16541798
-0.086714312
-0.081190638
0.096301071
-0.04107907
-0.25475362
-0.12123736
0.29676223
-0.20675167
-0.39855197
-0.065207236
0.025798464
-0.074537173
0.31639859
-0.13866127
0.18059528
0.488363
0.21042502
0.39270365
0.12965268
-0.60404128
-0.7304948
-0.019282816
-0.026382325
-0.15411264
-0.26823917
0.11709905
0.030869579
0.064887039
-0.038763665
-0.11500022
0.15289678
0.26900569
-0.33862767
0.24631098
-0.13734147
-0.16653201
-0.27493981
0.024324324
0.36767355
0.2379595
-0.051127508
0.02582309
