-0.027261544
-0.011779565
0.083576381
-0.015962072
-0.020385284
0.0083681699
-0.05497377
0.0042297207
-0.04378137
0.0088634184
-0.070875429
0.0041734613
0.02266665
-0.059779439
0.01267742
-0.00054821547
0.012910474
0.011894381
0.10481305
-0.060948323
0.030782143
0.08346919
-0.22747537
0.084172972
-0.065671496
0.017483748
0.042050812
0.010218103
-0.027204888
-0.0049765888
0.030842688
-0.02044709
0.022510296
0.0078610349
0.059658881
-0.037539113
-0.040304765
-0.0093010189
-0.054564968
0.021609342
-0.0039168862
-0.011624473
-0.01014258
0.032269459
0.040094428
0.043905143
-0.078687191
0.037547264
0.02423797
-0.19523872
0.11166756
-0.019151952
0.065078966
-0.011802845
0.027519034
-0.0088028861
-0.00063034758
-0.025412332
-0.015470983
-0.046646073
-0.079182461
-0.077908412
-0.010763316
0.090072475
-0.01416279
-0.028492905
0.018626716
0.0012329408
-0.069912612
0.079545625
-0.013961808
-0.024357872
-0.034034107
0.11506002
-0.0094835879
0.0024186345
-0.17713584
0.15328607
-0.1091146
0.11015905
-0.012327585
0.05925769
-0.025073463
0.0092248516
-0.080622077
0.015249882
0.015300883
-0.11001544
-0.015748179
0.0053122253
0.024842849
0.029616874
-0.017810779
-0.020317549
9.6475967e-05
0.04281548
0.010484755
-0.016886642
-0.0240763
0.06689994
0.035700075
0.037567668
0.081447184
-0.13970383
0.04644854
-0.037062552
0.080412269
0.007263043
-0.042227421
-0.040699769
-0.00032353034
-0.031434231
0.041312665
0.010237426
-0.015664481
-0.020427341
0.011331575
0.011772905
0.034714289
-0.066587992
0.023813536
0.042895667
-0.0021798674
-0.0021623864
-0.035536792
0.035877075
-0.018763047
0.0070325434
0.11072711
0.13307822
-0.16994594
0.040172379
-0.055695366
0.075956568
-0.035454914
0.05119352
-0.018720012
0.027314743
-0.030648589
0.028551646
0.00091957906
0.045781668
-0.094438724
0.028123897
-0.0010171933
0.050589561
-0.024455741
-0.0082042618
0.035467494
0.038783591
0.0086345971
0.057555657
-0.00063928094
-0.056115706
-0.04577148
0.064957768
0.20341124
-0.16738871
-0.10682064
0.0055942615
0.044647213
0.011913666
0.016192593
-0.0056200107
0.090639487
0.00011937608
0.023360208
0.031257391
-0.047480561
-0.03697066
-0.02095015
-0.03969216
-0.087241888
-0.020720018
0.035615884
0.0010006423
0.041795548
0.025936106
-0.014466131
-0.015647633
0.048790641
-0.06925378
0.07463149
0.38318321
-0.18055911
-0.31552655
0.042633589
-0.034885939
0.050051481
0.0032952095
-0.046575733
-0.040621959
-0.0059987404
0.0614639
-0.016832402
-0.031794708
0.10300599
0.039614581
-0.032784179
-0.084385037
0.012496411
-0.012452708
0.010091183
0.11024205
-0.070201449
-0.029871782
-0.012455679
-0.069959074
-0.029864065
0.10700217
0.47866958
-0.17972083
-0.36876822
-0.00086496217
-0.066858768
0.0017127235
0.050101638
-0.043707274
0.021970611
0.053069443
0.029261636
-0.015408186
-0.051033534
-0.031479556
0.012610848
-0.10351913
-0.081770204
-0.016237676
0.0068826769
0.0073636514
0.044229761
-0.013661029
0.0026262843
0.019907858
0.049016964
-0.083542965
0.093911521
0.36831033
-0.19935252
-0.30866525
-0.069369651
-0.045278024
0.007735929
0.022171853
-0.022610391
-0.021117939
0.04061
0.025699062
-0.026783438
-0.041476272
0.0017756235
0.049964905
-0.040492535
-0.080526903
-0.0077951727
0.024761649
0.088603415
-0.029821066
0.045799818
-0.0091238655
-0.0063314456
0.053881731
-0.092132784
0.11605883
0.18778549
-0.15769619
-0.093779802
-0.046116266
0.045811184
0.019337406
0.020732807
-0.037211224
0.056697324
0.0077263089
0.04825015
-0.042544216
-0.030117722
-0.023150576
0.0252987
0.0099053746
-0.13400674
-0.044195183
0.0044858721
0.03522101
0.060504284
-0.0025329136
0.012070536
0.013150517
-0.029185563
0.010034994
0.050629787
0.094635606
-0.12737142
0.0061713159
-0.18247426
0.053510789
-0.0097556571
0.049058918
0.001881453
0.018625658
-0.08409106
0.02272209
-0.033411577
-0.0024532015
-0.073116824
0.030872028
-0.028168384
-0.016028496
0.0034025444
-0.026288476
0.03511345
0.020993462
0.021822624
-0.014925696
0.013241176
0.033081159
-0.045905095
0.092386879
-0.10440425
-0.031215532
0.059466518
-0.20246434
0.0056813699
0.013673309
0.0014943659
-0.031470817
-0.03410193
0.025211615
0.061752658
0.012698568
-0.024972323
-0.029173074
0.0083246548
0.041035868
-0.006522059
-0.042723902
0.00046124277
-0.026825851
-0.062431082
0.017136121
-0.0047085686
-0.010672037
-0.0094054528
0.027345346
0.064078994
-0.23604989
0.010910456
0.17840326
-0.11461054
0.040951602
-0.011715895
-0.0066995486
-0.065479442
0.040637888
-0.040451434
0.013712929
0.0077486401
-0.013826835
-0.002893731
-0.024794055
-0.046226099
-0.0069322553
-0.04932623
0.032155298
-0.046826992
0.034942612
0.0069456925
-0.028308569
0.029262714
-0.026193641
0.052950427
0.050075244
-0.2671898
0.029045263
0.2416591
-0.081598237
0.08646632
0.0025674058
-0.022997657
-0.031846285
0.032911941
-0.020646429
0.012710507
0.047730003
0.013074579
0.020243907
-0.013715936
0.021605566
-0.027090961
-0.086054847
0.011045859
-0.015145772
-0.025714839
0.022662746
-0.018348407
0.008390408
-0.046060614
-0.0062224786
0.084751546
-0.12634923
0.003797824
0.12684099
-0.19631454
0.035671785
-0.022715712
-0.058543663
0.030100781
-0.018919673
-0.021745909
0.045358334
-0.0095628323
-0.047909185
-0.078601643
-0.014851738
-0.014387633
0.044794437
-0.030285312
0.0085140774
0.0044070487
-0.041703369
-0.0138783
-0.011470871
0.029433373
-0.023428753
0.089049712
-0.0010858724
-0.20645647
-0.1224363
0.26060873
-0.13091022
0.044171233
0.02057239
0.029942309
-0.024980966
0.018892335
-0.080718152
0.050247438
0.0030944878
-0.012009485
-0.0041565541
0.018664096
-0.02162968
-0.088866614
-0.017409345
0.0079516722
-0.039281599
-0.0013107761
0.047886107
0.0051104967
0.018889287
-0.0089016324
0.011637837
0.022413306
-0.10742246
-0.10502006
0.18641509
-0.094629049
0.10972027
0.00556718
0.036593933
0.0020930797
0.037135169
-0.022869149
0.047019616
0.0052553774
0.00089796504
0.054596186
-0.0019976455
-0.023413815
-0.13150796
-0.053788505
-0.0315012
0.0070778243
-0.040914141
-0.0093443161
0.058554806
0.036110707
-0.017621754
0.053937688
0.065933682
0.032298792
-0.21546783
0.090327568
-0.047717817
0.030084196
-0.017543221
-0.027408527
-0.05218605
0.083689108
-0.017723704
0.01090413
-0.031266361
-0.079752386
0.095377102
-0.010716344
0.023487134
0.00028816832
-0.032135416
0.0019507641
-0.0085659111
-0.014060096
0.057223845
-0.055084508
0.031548906
-0.04680568
0.038354237
0.041716974
0.025250388
-0.16992059
0.048368294
-0.1870487
-0.056575373
-0.029294489
-0.02345494
0.029662568
0.065230593
-0.063089326
0.024266534
0.034218058
-0.009694675
-0.028094862
0.0025201249
-0.075688191
-0.055501062
0.010773116
-0.0094071925
0.012857708
0.055679835
0.071471974
-0.029888395
0.052373279
-0.024211967
-0.039388452
0.031389024
0.021523666
-0.13560076
-0.023626631
-0.10066095
-0.028839162
0.020252835
-0.01297164
0.0010591362
0.051327609
0.099106066
0.014119137
-0.017626148
-0.013129841
-0.088727005
0.0035723415
0.030882739
0.017861556
-0.029855113
0.0048461901
-0.056878462
0.046902753
0.024021715
-0.041468922
0.066576831
-0.059288491
-0.012224971
0.061165471
0.20368485
-0.094055362
-0.21023867
-0.027523415
-0.078306817
0.005751906
0.011328575
0.020993911
0.025409982
0.012558167
-0.040139668
-0.037224293
-0.086097144
-0.021704316
0.026201576
-0.0051100841
-0.0018391983
0.031037398
-0.0031141243
-0.019825172
0.053385008
0.10024452
0.047919933
0.04953992
-0.031271119
-0.053408936
0.068657339
0.33555421
-0.085732207
-0.32577544
-0.085460588
0.0083264681
0.015480373
-0.041711085
-0.028592985
0.046869207
0.081871226
0.021634432
-0.013730894
-0.019945329
0.10832962
-0.00075773743
-0.067735367
-0.040404715
0.0071138339
-0.0038626557
-0.0031785893
0.048207216
-0.025837682
-0.042348683
0.08763846
0.019309795
-0.1114084
0.076152936
0.30162728
-0.013855536
-0.35684252
-0.033144951
-0.0038420989
-0.017480353
-0.015827611
-0.034735464
0.028815122
8.3366638e-07
-0.020934628
-0.034395322
-0.078079015
0.037161402
0.026406821
-0.070057809
-0.015574213
-0.042943317
0.0080773514
0.032469362
0.043608274
0.011433129
0.0035231537
-0.0072082882
0.059473604
-0.024837296
0.074674189
0.17463164
0.057887599
-0.22718516
-0.088951744
0.053973734
-0.021793695
0.07718613
0.021848656
-0.019103989
0.014978005
0.03791314
-0.017593972
-0.00057284319
0.046341442
-0.0011399846
0.017259639
-0.12802196
0.0035708926
-0.023774324
0.053704645
0.048239332
0.0087157143
-0.037865993
-0.00015757652
-0.00095112593
-0.060842626
-0.013692348
0.059933461
0.014008651
-0.1883743
0.02094976
0.16167516
-0.030753348
0.031440806
0.034523774
-0.042154133
-0.0026360634
0.010804571
0.0045795627
-0.059733286
-0.062149215
0.013670262
0.093193658
-0.017429026
0.022244435
0.026458357
0.065810174
-0.041866455
-0.023043856
-0.034971293
-0.0036787717
-0.017664958
0.10484536
0.034272607
-0.011870213
-0.023410276
0.011196749
-0.071992911
0.17611928
-0.02410144
0.0088300286
0.00022631539
0.020178918
-6.2100873e-05
-0.029702926
0.0018542889
-0.005964986
0.028634734
0.035340868
0.057209115
-0.028558766
0.029325642
-0.01388139
-0.038020175
-0.031458303
-0.016829923
-0.020376146
0.044034842
-0.045614399
0.034974396
0.011509825
-0.10147054
-0.0073112594
0.11405668
-0.10420872
0.13355641
-0.052763332
0.048726387
0.023897262
0.0055021048
0.016262107
0.012623128
0.017072348
-0.0035180843
0.062047169
-0.03217122
0.069607832
0.032941367
0.0072911778
0.017650293
-0.027017841
-0.057690393
-0.031902172
-0.034751412
0.01025453
-0.0096214311
-0.018268662
-0.015975995
-0.18302283
-0.028190872
0.22712854
-0.090180837
0.13712835
-0.090292655
0.050792251
-0.050749991
0.027946094
-0.047903374
0.031349514
0.0044199266
-0.0059675346
-0.012969327
-0.031516708
0.029442113
-0.070095204
0.018938348
0.026628323
0.020702865
-0.0035476033
-0.016479682
0.019329987
0.055565257
0.0092737731
4.9465649e-05
-0.029375909
-0.29279163
-0.0025708068
0.39655998
-0.21277872
0.2426355
-0.1057924
0.027900461
-0.01368593
0.053580094
-0.020933915
0.059343152
0.047638055
0.0099391704
-0.028586932
0.050955247
0.041432541
-0.032950368
0.053169228
0.035000574
0.073867604
-0.032973673
0.015753331
-0.0034481995
-0.026874119
-0.0064604357
-0.0065234927
-0.00053146447
-0.35324535
0.0055139302
0.50113577
-0.15787622
0.16975009
-0.18068393
0.010554474
-0.034721915
-0.036632132
0.032402292
0.0045806705
-0.048865482
0.041639205
-0.023962064
-0.051248502
0.050188072
-0.052573107
-0.013883291
-0.0090898275
0.050762553
0.0054437192
0.014345394
-0.035778668
0.014375405
0.017032821
-0.018008273
0.051204354
0.049430273
-0.026067317
-0.12193945
0.041939184
0.19093309
-0.020053368
-0.028999479
-0.038087085
-0.037547104
0.0036061855
0.046289593
0.036164682
0.039125506
0.010214525
0.0065853726
0.075351089
-0.042426202
0.031680763
0.028195221
0.013675096
-0.0090981433
0.032710057
-0.02741993
-0.054364454
-0.0011655092
-0.063526995
0.098546259
0.18892626
-0.066921234
-0.26420116
0.13611372
0.037639078
-0.017845996
-0.029903585
-0.046472296
0.00035281424
0.023468411
-0.010461451
0.0057943198
-0.063865721
0.10680269
0.0076489565
0.051902533
0.010915363
-0.025233284
-0.015473709
-0.046475511
0.031649314
-0.0066275951
0.021523148
0.029007383
-0.083610535
0.019631229
0.12782758
0.30701348
-0.048099186
-0.32325336
0.1141652
0.016771134
-0.019535126
0.011116847
-0.034475707
-0.055277929
-0.042423759
0.0060919425
-0.0084741758
-0.0034890336
0.023193493
0.041490529
0.0048063593
-0.010419067
-0.02083775
-0.0056002783
0.024443593
-0.053141739
-0.039105587
-0.079315051
0.031260315
0.036757682
0.0019209527
0.12760228
0.26577562
-0.11027712
-0.29466808
-0.052898929
0.028387893
-0.026270082
-0.010389812
0.0060001644
-0.015912082
-0.0090112118
0.013874007
-0.0022880994
-0.01719846
0.091971368
-0.012213035
-0.016894404
-0.048590232
0.052127801
-0.006655525
0.022663735
0.0017206847
0.046334758
0.019408992
0.00028150462
-0.013200864
-0.11721293
0.14566563
0.19230115
-0.06442029
-0.19684666
0.02932228
0.034925938
0.014205614
0.015805921
0.053071339
0.012179921
-0.059352111
-0.0231464
0.022000588
0.011095761
-0.098588303
-0.0031377813
-0.0097316969
-0.010344378
0.013395808
0.031903829
0.025019778
0.018041762
-0.10531685
-0.016320806
-0.029160028
0.056500368
-0.038251258
0.050696205
0.04225054
-0.053929634
-0.090601221
-0.086948991
0.068898663
0.017062275
0.048160635
0.014069133
0.029832888
-0.039724234
0.01542131
-0.010251625
-0.016303379
-0.020718005
0.033451684
-0.062481958
-0.051544365
-0.022066874
0.0041393838
0.0037321155
0.0024942986
-0.014372882
-0.022584587
-0.013289679
-0.0062664808
-0.034914736
0.027459031
0.26657254
-0.15419579
-0.21994129
0.032214615
0.13385053
0.026832838
0.013004153
0.017581753
0.014965635
0.01401989
-0.023859778
0.030435324
-0.022651479
0.13145199
0.037623774
-0.093100011
-0.039148815
-0.020435242
-0.0028903249
-0.01724188
0.023047302
0.029685372
-0.069491029
0.0057449313
-0.014349272
-0.035962664
-0.033317618
0.30484039
-0.19978149
-0.13177544
-0.096360818
0.06364543
0.0171795
-0.017818594
-0.013724986
-0.019377174
-0.010970308
0.005395046
-0.025910608
-0.044189766
-0.0096925432
0.02087386
0.048397094
0.043545857
0.054967493
0.030619226
-0.0184594
-0.05026168
0.004927204
-0.013476232
-0.055712458
0.0011805178
0.040090822
0.024903066
-0.052754775
-0.10468525
0.097165301
-0.081136115
0.16000505
0.010899815
-0.052995503
0.0090202503
-0.022404132
0.037562788
0.097021081
-0.047795754
-0.069073081
-0.033375263
0.013771434
0.012855282
0.014776726
-0.094729334
-0.0020846825
0.029233435
-0.034022186
0.027661929
-0.053973749
0.0061220792
0.027198017
0.052010775
0.088502392
-0.28533748
0.023615416
0.29292741
-0.23138487
0.05382099
-0.011357218
0.018071404
-0.064986356
0.027019579
-0.074335113
-0.028687151
-0.0092433989
-0.040074781
0.12284613
-0.00053844467
0.033523716
-0.074887633
-0.066341832
0.025259741
0.0022961504
0.0394581
-0.010062966
-0.071147799
-0.0011781238
0.056648236
0.041510232
0.064709358
-0.37200323
0.047968164
0.34993932
-0.15475892
0.083933495
0.0063787661
0.050744556
-0.016891915
0.032793805
-0.11789428
-0.033159334
-0.039856054
0.079476953
-0.007813178
-0.12668294
-0.37460539
-0.29040888
-0.052740384
0.013004445
-0.053851899
-0.065238051
-0.057065636
0.031787507
-0.043766141
0.093437605
0.056927122
-0.01655685
0.48012871
0.50128037
0.017604258
0.031470463
-0.016880428
0.035297949
-0.18213528
-0.038420945
-0.02547818
0.07700257
0.014275718
-0.20794347
-0.031693462
0.17912135
0.015105776
0.088728443
-0.019345433
-0.12321994
0.46551278
0.0020098372
-0.03953819
0.15667303
0.043391291
-0.26427165
0.58799398
0.28699937
-0.040146142
0.049514957
-0.021702459
-0.094835751
0.058380622
0.21832594
-0.032863177
0.066138916
-0.0099791614
-0.10898987
0.11446384
0.043791104
-0.027133692
0.089826927
-0.056326266
-0.088883564
-0.38604921
0.10473111
-0.020432979
0.072818264
0.00029060344
0.028433196
-0.39917949
-0.016517175
-0.03083531
0.070445582
-0.011211132
-0.027500032
-0.45413706
-0.32701802
-0.01936071
0.031253207
-0.023805061
0.087192737
-0.16236475
-0.10686174
-0.0128225
0.0015103094
-0.012049733
-0.0049201143
0.24271084
-0.18946913
0.016933039
0.022520753
0.020111671
-0.026058843
-0.19942528
-0.24868193
-0.027094446
0.059025556
-0.0080082221
0.19211425
0.015041412
-0.030697633
-0.026357759
0.067862138
-0.0077926582
-0.14876963
0.24124093
0.014392098
-0.029706307
0.024341954
-0.017177388
0.077919096
-0.25415403
-0.047746189
-0.012656447
0.06638886
-0.03481086
-0.07214348
0.20300484
0.12749016
-0.010583406
0.060549781
-0.087710083
0.017169241
-0.18368672
-0.06697683
-0.036352389
0.072426692
-0.022990379
-0.051556196
0.12311625
0.45700991
-0.009143536
0.048706602
0.018882303
0.082485266
0.22204623
0.25721705
-0.006462723
0.054945767
-0.0093430644
0.032349959
-0.09789592
-0.080679379
0.0058899466
0.023715809
0.0041545974
-0.064234138
-0.0015947194
0.08251743
-0.039791699
0.0060904794
-0.0060725827
-0.024246633
-0.36964068
-0.097891077
-0.020367596
0.0041963346
0.0015077349
-0.077801533
-0.18490168
0.013349328
-0.015959581
0.051311325
-0.03650219
-0.14303784
0.0417489
0.071453921
-0.048186794
0.054791298
0.015287588
-0.12970445
-0.11939646
0.27476576
-0.034546528
0.062644735
-0.022664908
0.058063637
0.033732351
0.052370705
-0.018387798
0.073889382
-0.0088566272
0.032776907
0.3777836
0.31723204
-0.021466443
0.072270177
0.0018517131
0.13346435
0.89378142
0.29137614
-0.030719785
0.082645707
0.029064985
0.085084759
0.2753765
0.26894003
-0.017336901
0.054317992
-0.024956543
0.076589912
-0.01990887
-0.063454933
-0.0038375391
0.012802153
-0.018685453
0.13532318
-0.49875247
-0.11790131
-0.044018529
0.037259512
-0.0054829852
0.021797094
-0.72196865
-0.031170793
0.0055873371
0.030080004
0.0016705086
0.11790504
-0.58156419
-0.107684
-0.016988162
0.046309758
-0.030639937
0.12022886
-0.029033197
0.036961649
-0.015029003
0.060901903
-0.0044106347
0.11904673
-0.085506417
0.23165698
-0.025728749
0.049917512
0.02777851
0.066794612
0.64237535
0.59512126
0.016611628
0.038314424
-0.023942947
0.1366636
0.41950446
0.30572137
-0.037146434
0.074518584
-0.0083106561
-0.041037086
-0.018746445
0.060179621
-0.017410219
0.10176334
-0.013121977
0.16779271
0.13708943
0.055393517
0.0099484613
0.094929643
0.00038314296
0.039007071
0.58677733
0.15746431
0.013366763
0.046252612
0.014314677
0.031182379
0.0063589267
0.12188575
0.0032884239
0.014224433
-0.0098411627
-0.018593716
-0.46578163
-0.042200815
-0.0079602255
0.047740977
-0.012747781
0.041833255
-0.18920924
-0.02438698
0.0099626901
0.05727531
0.052153606
0.0038548103
0.086419202
0.12878647
-0.039764419
0.05128992
-0.031835351
-0.0036518415
0.12071875
-0.15378058
-0.037890133
0.084143937
-0.006983906
-0.020010948
0.12995112
0.063296072
-0.026050044
0.039194308
-0.037440948
0.053179715
-0.34305361
-0.012142722
-0.056465428
0.1022056
-0.0038014397
0.05289685
-0.06380707
0.1840702
-0.03794032
0.069126233
-0.028252214
0.005834775
0.13741586
0.13485198
-0.033041801
0.032932207
-0.071886212
0.13642009
-0.17645535
0.018486986
-0.018194741
0.071900293
0.019195689
0.12777062
0.54304999
-0.085715242
0.003891943
0.060982242
-0.0073607294
0.056282267
-0.48659265
-0.17316021
-0.022417637
0.054836214
0.048849121
0.049522582
-0.16122219
-0.20227697
-0.0031970777
-0.0071075885
-0.025562629
0.14452828
-0.097641066
-0.090411067
-0.028414303
0.057107281
0.036414079
-0.12064447
0.022879517
0.065843813
-0.0029480639
0.042159796
-0.0033703845
-0.0013221175
-0.3543117
0.29672539
-0.014120782
0.067937225
0.0017740821
0.040443961
-0.15258801
0.1885982
-0.091423512
0.030795664
-0.0061278786
-0.13741452
-0.2893205
-0.052926034
-0.056067165
0.00055109611
-0.033843968
-0.055620562
-0.14510848
0.074095815
-0.026107172
0.061958
-0.019540835
-0.12165635
-0.49364489
0.0092467004
-0.052826967
0.037364859
-0.068542294
0.00079627917
-0.5098567
-0.13140744
0.0083965221
0.035828918
-0.040116262
-0.051627606
0.081663251
-0.13527694
0.017644329
0.063991591
-0.027789097
0.04594329
-0.17478399
-0.061178595
0.0031586909
0.031119945
0.0091894334
-0.060942806
0.19425191
0.26545119
-0.067290299
0.088362418
0.020353185
0.18150017
0.48936954
0.24527948
-0.02246386
0.010107053
0.0021914646
0.0013319826
-0.011527455
0.17036749
-0.0525323
0.021626169
-0.01288164
-0.080929071
-0.4562684
0.059310175
-0.037170727
0.071399815
-0.0016881255
0.10377289
0.0093485685
0.099247232
-0.048100207
0.075897478
0.02240127
0.088135511
0.24129929
-0.074887477
-0.04555469
0.013910036
-0.046789631
-0.034487456
-0.096417375
-0.036792066
-0.045664992
0.038943008
-0.023258105
-0.10355624
0.05513541
0.02291177
-0.013283913
0.042478565
-0.038871404
0.068561375
-0.363756
-0.2595239
-0.029453935
0.01979962
-0.038211521
-0.045431048
0.27047151
0.13538305
-0.0020816545
0.086729668
0.012268061
-0.060276747
0.56902701
0.41855347
0.034291375
0.073170543
0.0073686652
-0.068674475
0.27895546
0.047198486
0.0024606776
0.11494999
0.0094016232
0.097772151
0.47999236
0.46073195
-0.0051799202
0.084186636
0.037706066
-0.057499129
0.18296245
0.43478757
-0.034916963
0.088946588
0.0040205042
0.015573037
-0.12257581
0.045672562
0.0070654368
0.092462093
0.0021531787
0.051559687
-0.41976839
0.024164896
-0.018777067
0.091507562
0.0060153217
0.0041718059
-0.19556127
-0.10369846
-0.053334367
0.06481941
-0.0011078293
-0.021151042
-0.43184379
0.098346293
-0.013192235
0.10535476
-0.020189658
-0.051538628
-0.36928484
-0.1359615
0.014708484
0.093845464
-0.014503702
-0.015763992
-0.61029738
0.10557716
0.019349298
0.07425262
-0.0013957615
0.036165107
-0.048115704
0.098119415
0.021439128
0.083272837
-0.020591637
-0.11442445
0.10705159
0.33035794
-0.014756139
0.08628007
0.0086797839
0.042958785
0.088649631
0.36242905
-0.033419285
0.14389156
0.067445263
0.12069956
0.17899819
-0.13322677
-0.0033490071
0.061002191
-0.0014585808
0.043909866
0.47586587
0.23711829
-0.028931186
0.10513391
-0.0064194631
0.075568557
-0.41607606
0.08767309
-0.0094166463
0.13573526
0.067934319
0.014005769
0.19348158
-0.26212543
-0.036295433
0.034084368
-0.027376482
-0.028128328
-1.1356343
-0.40740684
-0.075325251
0.058428641
-0.00017098231
-0.16370125
-0.41813567
-0.1389848
-0.00143324
0.076159328
-0.0062112533
-0.053036634
-0.26214722
-0.15594144
-0.015577782
0.07782983
-0.031884652
0.10337941
-0.47131392
-0.27369592
-0.022845821
0.053837594
0.0041505168
0.037791546
-0.032688618
-0.077071719
0.0011786874
0.091551736
0.019988388
0.05777283
0.010129309
0.34489951
0.0064651882
0.10626301
0.0063869688
-0.017295115
0.65515107
0.60313141
-0.033039674
0.12922677
0.059288349
0.037959881
0.32724339
0.19675748
-0.068347052
0.09745916
0.074558884
0.031720325
0.22984424
0.18490787
0.0034374704
0.10158163
-0.0023757089
0.049109805
-0.29421782
-0.13663037
-0.061377473
0.11726357
0.065686844
0.047659464
0.32026297
0.045055136
0.0006554586
0.035055965
-0.0065104626
0.01770976
0.084522218
-0.036609173
-0.013738112
0.12144633
0.020499246
-0.072689138
0.20216092
-0.18578048
-0.056552723
0.090578958
0.011822478
-0.030696224
0.11516402
-0.1961097
-0.023628825
0.084972873
-0.01009356
0.12272643
-0.27340546
-0.17375982
0.0025100729
0.049935959
-0.0013104033
0.14663662
0.088694058
-0.16813534
-0.0041809618
0.087672561
-0.011378565
0.012134571
0.74354929
0.276997
-0.0083942395
0.053833514
0.039309133
0.029156072
0.56811655
0.3184953
0.0098116957
0.12154137
0.043644615
0.095139064
0.04815805
0.21111621
-0.026517855
0.12817879
0.071610339
0.062601373
0.3023465
0.052894767
0.019522656
0.13737868
0.064723194
0.11404634
-0.014632906
0.15777619
0.0041872431
0.13037643
0.06838996
-0.073095344
0.53323734
0.033383269
-0.035877995
0.095314533
0.073298849
0.10226481
-0.083091229
-0.10154121
-0.043278266
0.051574245
0.026054177
-0.020059371
-0.74458736
-0.15763739
0.0024327701
0.035242807
-0.043201454
0.054472458
-0.18894118
-0.020398432
-0.011346546
0.10956637
0.035711206
-0.012256444
0.24823701
0.1883692
-0.011434685
0.12503171
0.023523819
0.0086078979
0.32604218
0.13084818
0.015661042
0.0063749412
-0.15476887
-0.077815518
-0.080689847
-0.11794146
-0.064157985
-0.071205616
0.032057252
-0.084024742
-0.071943127
-0.024249418
0.51502323
0.18023294
0.008410532
0.16106945
-0.14879821
-0.039487716
-0.056259833
0.024338318
-0.033251408
-0.026590092
-0.0013693158
-0.023692682
0.039815541
0.0010155254
0.028929194
-0.0092205713
1.5486848e-05
0.0030470034
-0.0074462676
-0.012083961
-0.0072475499
-0.014948261
-0.025587464
0.0019851374
0.037375413
0.025071006
-0.10824727
-0.094915047
0.18140413
-0.013238613
-0.99815553
-1.0185025
-1.2097695
0.081538707
0.30814704
-0.3125568
0.17653535
0.69885224
0.22808795
-0.15718153
0.66990876
0.85361362
0.057071228
0.091285735
-0.30249512
-0.0066983919
-0.19397396
0.023621848
-0.14515011
-0.25466856
-0.16016833
0.11271654
0.34203556
0.17810445
-1.733223
-0.0024237863
0.47720596
-0.25640073
-0.31591639
0.74497515
-2.4528682
0.11717584
0.10347227
-0.043743659
0.43113726
-0.013978851
0.0010926186
0.26315352
0.49705175
0.37373823
-0.12615204
0.20922142
0.1614456
-0.47311789
-0.41370177
-0.028520003
-0.46588534
-0.27218544
-0.17855814
0.48942214
0.14708339
-1.1070211
-0.034197483
-0.42863631
-0.13903694
-0.24781817
0.48184454
-1.3409163
0.50027978
0.35470033
-0.15404534
0.065778136
0.1925187
-0.4101384
0.059751671
0.79331177
-0.38355836
-0.25895593
-0.010466351
-0.38328892
0.0040426967
-0.16385721
0.085542828
-0.17254624
0.12027078
-0.39889747
0.035695907
-0.17425489
-0.32222989
-0.22123891
-0.12554133
-0.17196736
-0.22968237
-0.33079714
-0.9717347
0.44382852
-0.079864949
0.38481817
0.14339034
0.071120642
-0.61598945
0.4632203
0.41393128
0.14919791
-0.6062516
-0.56078589
-0.21123667
-0.019153818
-0.1616589
-0.81662315
-0.22775711
-0.078243084
0.34535703
0.2113156
-0.019189602
-0.26669794
-0.26129758
-0.28910086
-0.3255336
0.37381718
-0.60502738
-0.63997489
-0.25163364
-0.18436441
0.19122468
0.38771236
-0.33038476
-0.16756602
0.39991355
-0.16740309
-0.057554584
-0.48921934
-0.48658174
0.024265245
-0.45301807
0.48889303
-0.22527559
-0.027459463
-0.13364823
0.27318892
0.18879078
-0.34977528
0.0068606944
-0.62138361
-0.65517914
0.0020167106
0.89898187
0.010451064
-0.28731686
0.084891059
-0.1161535
0.050874446
0.13620219
0.072875261
-0.48368928
-0.16816461
0.03574964
0.048356071
-0.4720037
-0.50393397
0.2788454
-0.39193875
-0.32574567
-0.011970148
-0.34531873
-0.002238099
0.56361777
-0.0842079
-0.64817047
0.78450012
-0.15284365
-0.099926211
-0.73805314
0.6036101
-0.046752281
-0.016826782
0.19774909
0.032619786
-0.13593295
-0.18415299
-0.11377532
-0.30895594
0.12825021
-0.040054597
0.09937603
-0.57087892
-0.64251441
0.0097034527
-0.022043247
0.020255361
-0.57782739
-0.67118186
-0.063372664
0.71092498
0.31053928
-0.36916214
1.2980114
0.35416067
0.16080955
-0.87791151
0.79252243
0.44590184
-0.52740312
-0.58341289
-0.27070996
-0.2284312
0.36663213
0.15531008
0.070159055
0.50301158
-0.33821222
-0.46410739
-1.2944052
-1.4503301
0.96994299
0.082872942
0.14405416
-0.67122096
-0.49645552
0.1599021
1.3479108
0.35222539
-0.59114879
0.52594423
0.7304247
-0.86787969
-0.88676786
8.7006502
2.3613815
-0.0067743715
-0.39780223
-0.1692598
0.11472391
0.095977619
-0.40980488
0.046405487
0.33184737
-0.47325078
-0.4299337
-0.59782851
-1.0501307
0.73793405
-0.29408985
-0.43757144
0.53184938
-0.57731324
-0.086741492
0.58096987
0.1050863
-0.56300694
1.487582
-0.058152892
0.47125009
-1.4264209
1.8070165
0.93719012
-0.0098360172
-0.80073434
0.22996774
0.14551929
0.37074873
0.051460322
-0.15917161
0.0075780014
-0.28779781
-0.60448521
-0.58196723
-0.39781606
0.27625239
-0.20541732
-0.41265628
-0.23396622
-0.78221625
0.44136292
0.037408501
0.24201465
-0.10008157
1.1922262
-0.47011384
0.19077852
-0.90585697
0.85737288
0.12879653
-0.024652457
-0.34485897
0.33858252
0.28623322
-0.0025332919
-0.21415706
0.042254966
0.11657236
-0.17155895
0.12773032
-0.37980565
-0.87257159
0.38640001
-0.17082515
-0.2752541
-0.47315615
-0.9599393
-0.065149546
0.21455042
0.40461016
-0.22591446
0.65318173
-0.56129533
-0.062658757
-0.2739397
0.92068112
-0.016047023
0.019774003
-0.84239489
0.03582342
0.11098726
0.02490464
0.12151972
-0.051325727
-0.10421469
0.57994413
-0.31356773
-0.086716555
-0.92634457
0.26322722
-0.076791368
0.22487956
-0.29220119
-1.1654311
0.24883097
0.47561091
0.0041517108
0.23504013
0.068199195
0.020594448
-0.78550488
-0.21316411
1.0635682
-0.1905701
0.0065921023
-0.34030423
-0.16091424
0.10376178
0.33616433
-0.19488946
-0.17536375
0.50794071
0.072840385
-0.37761363
0.094934069
-0.53526652
0.30696708
-0.1507234
-0.21465425
0.12587315
-0.72154862
-0.056718025
0.41675973
-0.12236891
-0.13445359
-0.40189263
-0.36459202
-0.5852043
0.010418907
-0.10525038
0.061087206
-0.028118104
0.10875756
-0.046749163
-0.14427829
0.30187747
-0.12081543
-0.28331295
-0.078056112
0.38454914
0.058576647
-0.13413125
-0.70755512
-0.1650738
0.15819369
-0.31384903
-0.21233796
-0.36394185
-0.35894218
0.099706642
0.087951325
0.31492287
-0.22656305
-0.63512003
-0.57913297
0.21465714
-0.079294398
-0.63118631
-0.014731724
-0.063416861
-0.20491058
0.082801536
0.83832294
-0.095393874
-0.084649593
0.48969811
0.01785334
-0.30761766
-0.29661971
-0.67314023
-0.21541733
0.041201077
-0.30539891
0.14207664
-0.1616593
-0.32402211
-0.16308831
0.33611128
0.24605146
-0.76205575
-0.33628681
-0.24769214
-0.7809521
0.10236565
-0.53005958
-0.06516543
0.087197915
0.09237054
-0.59142786
-0.13509145
-0.13237932
-0.40629148
-0.00091078563
0.46516693
0.01121168
-0.31199047
0.16562065
-0.079664588
-0.17153259
0.024409181
-0.3197808
-0.17310025
0.28983483
0.1166897
0.033798918
-0.39317238
0.1577505
-0.45274541
-0.084172733
-0.27234915
0.17558101
-0.46717715
-0.070969999
-0.045047168
0.29075345
0.11072433
-0.13908143
-0.15556014
-0.27633563
0.36692137
0.083709843
-0.13403744
-0.21250622
0.25594115
0.60780835
-0.3386263
-0.33672565
-0.25358996
-0.48126304
-0.0046648807
-0.15827768
-0.3048633
-0.14944358
-0.27849859
-0.25746942
0.12842332
-0.72913969
0.39774999
0.41822305
-0.024009038
-0.34911275
0.01434513
-0.20965871
-0.54980332
-0.20227529
0.087472714
0.31810015
0.24222349
-0.31061849
-0.28429297
-0.16746025
0.53820604
-0.039753694
-0.041955404
0.29301378
-0.49124697
-0.1069448
-0.22975586
0.901012
-0.097738914
-0.86183143
0.052268445
-0.36783513
-0.39970526
-0.040693469
-0.010310157
-0.025740739
0.19175547
0.056489084
-0.47495478
-0.1523409
-0.28411222
-0.24854955
-0.38363922
-0.54402286
-0.021162307
-0.5589909
0.74858004
0.44777855
-0.24305719
0.13251217
0.28485027
-0.26858661
0.22060901
-0.01883856
0.31546885
0.10976167
-0.90646344
0.16546674
-0.94091326
0.29958791
-0.37968013
-0.39306343
0.01313551
0.1084787
-0.47811338
-0.55872214
0.034613628
0.08517497
-0.65973765
-0.096251935
-0.1280347
0.040416095
-0.29146311
0.726798
0.49760395
-0.36180627
-0.35881257
0.53104085
-0.62127179
0.36000621
0.30979383
0.1774281
0.19315931
-1.011337
-0.68695527
0.18240577
0.039640944
-0.93622148
0.10665032
0.011961871
0.33871916
-0.3506425
-0.43056715
0.11715997
-0.26968816
-0.19665283
0.5444985
-0.23141515
-0.017157089
-0.13566343
0.14406219
0.54106957
-0.20445542
-0.098218836
0.35735422
-0.16486779
0.15316549
-0.24621342
-0.12694708
-0.023274189
-1.1732838
-0.5581966
-0.38564116
0.11445028
0.43100268
0.73389673
-0.026146965
0.11725431
-0.075133823
-0.12537771
0.58102745
-0.22942202
-0.41622397
-0.029386571
0.037899386
0.64388579
0.19047543
-0.86509645
0.34568051
-0.15225829
-0.37533945
0.31063145
-0.58295727
0.49001762
0.052707549
0.24868572
-0.26796165
-1.3869592
-0.77468705
-0.62639236
0.82272941
-0.26728567
0.19795109
-0.029660897
1.3319988
-1.6239133
-1.5875615
-0.96474385
0.30142727
-1.096055
-0.74897468
-0.78947246
-0.081385128
1.6744637
1.281292
-0.4171913
0.69796312
0.69175458
-0.87068009
-0.068624362
0.44804943
0.126185
-0.3682045
1.695107
-1.2418418
-0.81792295
-0.69285393
0.58756292
-2.5402257
-1.7785724
-0.0059834677
0.1478997
0.014744329
-0.15899868
-0.030468725
-0.56595689
-0.48292774
-0.30774581
-0.60812998
-0.10163491
0.18339181
0.0038512249
0.42667109
-0.12281749
-0.094525315
0.78286546
0.47846809
0.10219735
-0.26142162
0.22766973
-0.61492038
-0.31595325
-0.48265067
-0.70713621
0.67176676
-0.39780417
-0.043647401
-0.2394262
-0.055636611
-0.31856978
-0.32604852
-0.18678045
-0.23132598
-0.38919395
0.044009235
-0.24783936
0.27634776
-0.25447026
-0.24529037
-0.53860235
0.18046783
0.085314088
0.10391019
0.4741078
0.40384251
-0.12154932
0.32550156
0.10190504
0.014270089
-0.50008869
0.15568018
0.16314496
0.11186008
0.029549891
-0.73547459
0.31724393
-0.37950814
-0.46651584
-0.51855594
-0.16246413
-0.58701468
-0.26727247
-0.2106569
0.035469454
-0.14759858
0.078572333
-0.29508594
-0.076677017
0.49112937
-0.20575829
-0.093735598
0.1674208
-0.050971895
0.96883172
0.19768097
0.14835851
-0.08573211
-0.2757889
-0.11193788
-1.2490433
-0.26253784
-0.53159297
0.32189643
-0.48608884
-0.009491642
-0.79510951
0.065007582
-0.57434815
-0.37644479
0.18637104
0.091598913
-0.18612835
0.59258646
-0.38650095
0.28912902
-0.14095341
-0.28455943
-0.036438812
0.55753928
-0.026289325
0.20919999
-0.44930455
0.073016264
-0.16679578
-0.15716308
-0.5822354
-0.72183138
-0.64222699
-0.093632914
-0.14138271
0.091189265
-0.11442771
0.12853019
0.087834828
-0.2448612
0.10414779
-0.33790043
-0.19262238
-0.38905948
-0.08546304
0.035178557
-0.15499793
0.071530461
-0.30153996
-0.29954192
0.17067367
-0.090897307
0.049652219
-0.079066284
0.057713535
-0.43770805
-0.18993428
-0.77024901
-0.25609016
0.15402724
0.093573563
-0.058961991
0.22462526
0.42593962
-0.18463522
-0.10899794
-0.24835399
-0.17925869
-0.21974434
0.0083806869
-0.38388601
-0.43319562
-0.0558718
-0.40110707
-0.075859137
0.24351251
-0.0022177466
0.1373928
0.084623151
0.47008368
-0.67923766
-0.19699919
-0.53812546
-0.41154724
-0.56884015
0.15911867
0.45801389
0.11982282
0.32583779
0.44729549
0.074575834
-0.15336095
-0.15831049
-0.45788559
-0.28602639
-0.59205043
0.15734565
-0.15546225
0.15140957
-0.10379172
0.10264875
-0.19018424
0.047538884
0.029362967
0.059539989
-0.2023593
0.34526756
-0.2755104
-0.32928312
0.10619885
-0.34736738
-0.6981647
-0.24845289
0.19345805
-0.39063761
0.32277703
0.12722541
0.41727778
0.27087155
-0.085468031
-0.36876372
0.37243047
0.10279074
-0.30758965
-0.071432546
-0.64500719
-0.12767233
-0.25761393
-0.04119369
0.33069545
-0.17897616
-0.26719436
-0.21560864
0.12342191
-0.30305737
-0.6891731
0.11498471
-0.49080077
-0.23710369
-0.17507267
-0.51377714
-0.084817491
0.39667168
0.27592477
-0.075854778
0.34005114
0.00049378781
-0.44916683
0.33695295
0.24034925
-0.39149076
0.041067075
-0.17331399
-0.17097442
-0.17999922
-0.11016075
0.4741478
-0.1110537
-0.37420687
-0.41237861
-0.67921156
-0.036693566
-0.53332925
-0.20878667
0.2277222
-0.47258365
-0.32652763
-0.016497089
-0.087775491
-0.13011234
0.36690643
-0.29422104
-0.062330119
0.17768805
-0.26372468
0.024862798
-0.11848785
-0.54227746
0.11396559
0.092580877
0.13928407
-0.32839826
-0.23085511
0.31056532
0.48668337
0.18503684
-0.47413313
-0.3998816
-0.095412016
-0.38366127
-0.23981
0.11339537
-0.27805141
-0.78267074
-0.32777458
-0.027295206
-0.2472192
0.077722147
0.091993943
-0.44676146
0.088940881
-0.11388592
0.15883721
-0.50739497
-0.46959996
0.5158692
0.024002377
0.25963357
-0.22161795
-0.0032960195
0.14871149
0.1511595
-0.18550543
-0.71281242
-0.56335342
0.67086816
-0.16568056
0.019755146
-0.018785592
-0.37256148
-0.59837991
-0.023090616
-0.001130839
-0.19811715
-0.091046147
-0.40714148
0.017888291
-0.36969012
-0.23294547
0.074925803
-0.46051106
-0.19512819
0.30037645
0.054051448
-0.22721075
-0.29640433
0.020492639
0.35510436
-0.25919768
0.49307132
-0.36688584
-0.16835506
0.71354181
-0.17031421
0.16809373
-0.18199685
-0.35225907
-0.086032517
0.074368186
-0.0016685867
-0.51133013
0.15524285
-0.039079349
-0.059098452
-0.37398845
-0.13914034
0.037812334
-0.033664361
0.057216309
0.014760274
0.09935233
-0.54679692
-0.02214485
-0.15608144
0.30092725
-0.61107755
0.2579743
-0.18646707
-0.030385312
0.53745806
-0.20255607
0.0083744805
0.0099783642
-0.25274524
-0.031046443
0.071300857
0.0099438699
-0.88941181
-0.01316345
-0.17381844
-0.4061836
-0.2350945
-0.18430282
0.14648469
0.17277548
0.085351534
0.32433236
0.18514366
-0.70852542
-0.040721584
-0.17242178
0.31962115
-0.48055056
0.64086366
-0.12215773
0.067814745
-0.015780656
0.078533374
-0.07479535
0.14920099
-0.14914186
-0.089486621
-0.34184408
-0.025032839
-0.053988133
0.090345867
-0.20702279
-0.11761957
-0.4468042
-0.41662806
0.2949301
-0.21500836
-0.28611884
0.38502213
-0.090120643
-0.66226113
-0.20689546
-0.40943107
0.39426759
-0.54288584
0.71965528
-0.3981671
0.10514824
0.16021545
0.35421029
-0.22167651
0.080645129
-0.10276996
-0.058055416
-0.28934804
0.029854422
-0.069179289
-0.084803984
-0.042272698
0.036490697
-0.31107017
-0.68165767
-0.26820898
0.080139525
-0.30995333
0.34116268
0.030937651
-0.28726435
0.012049098
-0.33523571
0.34280586
0.049985867
0.22561949
0.04437834
-0.27310389
-0.10234077
0.089893006
0.18294992
-0.042702593
-0.33360505
-0.66612816
-0.20989043
-0.019455325
0.28369328
-0.20773709
-0.44704148
-0.20698647
-0.11262495
-0.32001752
-0.15881926
0.17209847
-0.38779259
0.55850726
-0.35563192
-0.2533904
-0.2314624
-0.088077672
-0.030551558
-0.10514663
0.069679193
0.093467072
0.20754091
0.080001049
-0.089818403
0.14585009
-0.05892783
-0.2670508
-0.36474183
-0.64693278
-0.017614197
0.0031493881
-0.22790822
-0.41993237
-0.062303189
0.11673807
-0.14453541
0.031762645
0.29899812
-0.33059672
0.78341603
-0.21814486
-0.0057228906
-0.38221845
-0.12676227
-0.29712114
0.11560981
0.055648305
-0.10332942
-0.20671409
0.30376118
-0.55365902
0.013308419
0.10277502
-0.55348378
-0.13506448
-0.23708445
-0.081522696
0.20687063
0.13560741
0.40787524
-0.0018948806
0.32031113
0.27926153
0.21420939
0.071115091
0.59927684
-0.29248151
-0.061702069
0.082855336
0.25877386
0.061148103
0.43549427
-0.022091985
-0.28643855
0.063859537
0.40180025
0.40817976
0.10666814
-0.25900003
-0.23912309
0.07435704
0.20904814
0.1957553
-0.19136713
-0.28079024
-0.077980936
0.23341069
0.47598657
0.16399378
-0.40664473
-0.45405138
-0.1441506
0.0067984625
0.15539078
0.12631024
0.14843413
0.032300681
-0.22408661
0.04818698
0.3394258
0.045913298
0.031073393
-0.18604685
-0.095181994
0.12920445
0.3031061
0.088008367
0.11268716
-0.32724565
0.087100692
0.093397535
-0.25175378
-0.23942456
0.55576992
-0.076297708
-0.018125944
-0.096214712
-0.26413095
-0.015730511
-0.14726773
-0.37844318
-0.037832793
0.071173757
0.38115761
0.24036422
0.2448812
-0.15048893
0.16480707
0.18300076
0.29174712
0.15847771
0.46573225
-0.031078732
-0.013519212
-0.11682297
0.24564688
0.068469308
0.24628767
0.064446226
-0.028767668
-0.10993963
0.1583849
0.045994453
0.16108647
-0.13707288
-0.0092837615
-0.049220558
0.36380529
0.24929214
-0.46425539
-0.18220957
0.081811897
0.15907569
0.36290336
-0.0082592033
0.24018748
-0.71970129
-0.10080814
-0.49541622
0.03353155
-0.03379105
0.02492965
-0.21879417
-0.0079863425
-0.020057794
0.33631092
-0.0090993252
0.22692031
-0.24049076
0.30160704
-0.18125166
0.21445292
-0.1277824
0.44079924
-0.057797894
0.094503015
-0.091332436
0.060124781
-0.024427632
0.36820334
-0.13378464
-0.23266783
-0.13405855
0.0102878
0.13828407
-0.01739474
0.019066254
-0.091191813
0.24063674
0.28889772
0.24573711
0.19772123
-0.37109876
0.32789943
0.21534553
0.11175825
0.10648327
0.072228514
-0.4541654
-0.051565323
-0.042855732
0.088337809
0.059209187
0.51942903
-0.062534772
-0.28795081
-0.058500968
0.067253932
0.066034503
0.39152476
-0.10358217
-0.26935089
-0.050902463
-0.23317023
-0.24122539
0.060076784
-0.18426631
-0.3652505
0.041316178
-0.067267567
-0.33257419
-0.25545624
-0.54919225
-0.30883896
-0.57719475
0.050554857
-0.0033927425
0.0035088621
-0.32590675
0.03497747
-0.11966887
0.1599566
-0.019506028
0.059224088
-0.090266973
0.055075541
0.011450136
0.097369589
-0.13651922
0.0035921175
-0.12946931
0.31312725
0.049517669
-0.13807957
-0.15728116
0.25548157
-0.12009977
0.063400187
-0.26181111
-0.015032751
0.12208964
0.111689
0.024136096
0.10357329
0.066934198
0.083759591
0.42968729
-0.0507425
-0.25063807
-0.15869986
0.30067307
-0.14157784
0.12495695
0.15687431
0.03270391
0.0048687765
0.11581143
-0.092079133
0.16606002
0.26124796
-0.16825934
0.15841056
-0.26166257
-0.21859223
0.21614304
-0.06974674
-0.41360152
-0.28857666
-0.14807956
-0.17092127
0.069463484
-0.27521819
-0.58114749
0.069315113
-0.086949475
-0.42498085
-0.34046027
-0.11646274
-0.53739035
0.048925813
-0.83505726
-0.31339717
-0.068368934
0.25929308
-0.38007599
0.02582418
-0.16339825
-0.14174296
-0.054663025
0.34548756
-0.41728684
0.11447538
-0.0337005
-0.088668212
0.026234379
0.19702426
-0.33074635
0.29411733
-0.087834246
-0.1753664
0.15822341
-0.31885588
-0.067239828
0.0031744528
-0.24110556
-0.10622187
0.38392305
-0.0042882073
-0.023654787
0.58355677
0.17016988
0.15087532
0.48833153
-0.5356462
0.086150557
0.31189698
0.37672368
-0.13618055
0.19720306
-0.18711533
-0.3309575
-0.1709847
0.11088764
-0.089764573
0.15920784
-0.0034518356
0.077274047
-0.37581939
-0.29795349
0.032366637
0.35710269
0.014490246
-0.2319745
-0.43873551
-0.18222091
0.05068142
0.26590231
-0.30867159
-0.31819046
-0.5159421
-0.11922972
-0.41891772
-0.30933174
0.18012489
-0.46942261
-0.40983197
-0.9881795
0.034667488
0.19664733
0.16701044
-0.42464408
-0.11588053
-0.25557333
-0.10219442
-0.060926609
0.23113541
0.15719353
0.17667672
-0.064153679
0.028804321
0.0017933622
-0.52682656
-0.60063714
0.19784801
0.081493244
0.083149955
0.23366493
-0.097735561
0.1635633
0.29340726
-0.087122142
0.034034424
0.45801944
0.093074828
-0.0073899627
0.1839215
0.14264624
0.37121195
0.23989046
0.038157389
0.29623598
-0.092078567
0.1630206
-0.51025075
-0.20902061
0.83887434
-0.043292426
0.33618823
-0.29355803
-0.42718747
-0.15449575
0.14951874
-0.12041081
-0.52405322
-0.75140947
-0.71108729
-0.33512011
1.1392215
-0.14949141
-0.90549242
-0.660707
-0.83400434
-0.62843078
0.83570337
-0.44470182
-1.3695049
-1.0165484
-2.5426793
-2.2192316
1.3172632
-0.4617987
-1.3765632
-3.579294
-0.71993363
-0.668495
0.44209158
-0.15622008
-0.62506723
-1.0877081
-0.4766174
-0.62621504
0.52025658
-0.16830392
-0.49838912
-0.66229868
-0.42477548
-0.65675902
-0.10065809
-0.4616946
-0.30555463
-0.60066736
-0.43048996
-0.37197536
0.013318462
-0.050666977
-0.13148239
-0.49986997
0.098706044
0.29549062
-0.14130287
-0.21787506
-0.16454028
-0.041586343
0.35010138
0.3265596
0.064904824
-0.18097256
-0.080864035
0.3952845
0.15127885
0.12366873
-0.10091428
-0.23876098
-0.16798334
0.009642709
-0.1822926
0.18567094
0.077129364
-0.14939076
-0.37961426
-0.36191496
-0.23021948
0.21181197
-0.13703085
-0.039773792
-0.50155306
-0.20480865
-0.21759412
0.017184705
0.1426256
-0.31436276
-0.59882611
-0.24512853
-0.95431018
-0.64724153
0.12152699
-0.59807295
-0.99510717
-1.3112745
-0.15249507
0.068320625
0.14154823
-0.11500756
-0.17848186
-0.20078552
-0.16630197
-0.10831645
0.1770156
-0.11698212
0.20085897
0.056249231
-0.048272669
-0.13557994
-0.0055587976
-0.18772049
0.018015454
-0.0457411
-0.27030012
-0.085760884
0.28961274
0.068484351
-0.080195539
-0.073105261
0.057805464
0.44461539
-0.23251542
0.050053768
-0.27368766
0.24357998
0.16245624
0.33171877
0.20297702
-0.013172988
0.059465565
0.50102848
0.0012260518
0.090957589
0.07416945
-0.044725735
-0.13674575
0.17650077
0.19439241
0.10562667
-0.085685566
-0.2210494
-0.0091086095
-0.25392357
-0.21900748
0.35886538
-0.036584735
-0.194144
-0.41217208
-0.19742639
0.051723737
0.38109064
-0.15646751
-0.23616777
-0.098159477
-0.085983083
-0.56192487
-0.12433848
0.067604862
-0.46361065
-0.31922981
-1.0240426
0.005551097
0.24198829
0.1221944
-0.18206325
-0.34178469
-0.096904896
-0.043333039
0.092841133
0.075973861
-0.46309814
0.17770799
0.060509838
0.099311568
0.10505257
0.21748261
0.0015346786
-0.33699211
-0.10012458
-0.1505646
0.17837931
0.39646846
-0.3045567
-0.41869834
-0.1518321
-0.10003465
0.40961337
0.18606798
0.094883807
-0.22248672
0.15207168
-0.0049195713
0.23430401
0.25691986
-0.32529601
-0.027152319
0.31702664
-0.24492864
-0.10620123
-0.14507225
-0.037566025
-0.19628422
0.11745138
-0.23752518
-0.13136168
0.14816594
-0.29150277
-0.14143534
-0.12046304
0.054373536
0.15823931
0.6871714
0.1729642
-0.53591818
-0.20072335
-0.16912115
0.14206593
0.52475786
-0.28822514
-0.50003558
-0.24841703
-0.58846688
-0.24288927
-0.097119905
-0.45412889
-0.82904899
-0.93296158
-0.063108221
0.19237375
0.49001029
-0.40439495
-0.47182462
-0.080877319
0.03498302
0.13028747
0.11876328
0.031340707
-0.04396005
0.16909324
0.080413081
0.073550299
-0.27598116
-0.29161963
0.026700929
0.058130328
-0.028317822
0.23264113
0.12154782
-0.011140774
-0.31025252
0.17988904
-0.026412398
0.48201844
-0.22031657
-0.15139692
-0.36194587
0.23767835
-0.11239312
0.049431346
0.23144542
0.10035368
0.04435391
0.32731235
-0.024833882
-0.041305214
0.31730467
-0.13699248
-0.20629722
0.056774165
-0.041139629
-0.1585349
0.078261755
-0.097029686
-0.12302138
-0.028350964
0.19057314
0.12744266
0.34847122
-0.34986851
-0.8040244
-0.11782876
0.38734475
0.10129552
0.14754255
-0.092197239
-0.7140758
0.029166078
-0.37533593
-0.13423204
0.078440532
-0.39045042
-0.68161207
-0.74388081
0.12498762
0.20426182
-0.037899043
-0.21005408
-0.66400892
0.037516434
0.13625078
0.055630803
0.43260112
-0.44343275
0.087393977
0.015077258
0.044514947
-0.18425091
0.059888911
-0.22963229
-0.44946262
0.10124909
0.058973707
0.15110922
-0.20079488
-0.0060839271
-0.091722578
0.12913096
-0.030398447
0.25741363
-0.03963922
0.012019027
0.11100059
0.28225806
-0.16304837
0.16486263
-0.17600051
-0.44643089
-0.0058528627
0.30921507
-0.099447221
0.070564128
0.13072987
-0.13308345
-0.34605801
0.17602432
0.061612815
0.051578276
0.35732943
-0.24591364
-0.37310135
0.29775226
0.22929569
0.23834436
0.34191769
-0.25190997
-0.24601445
0.10768501
0.48571298
0.1964723
0.19441009
-0.030646903
-0.52326894
0.24276178
0.36833549
0.29580864
0.31725034
-0.6053865
-0.89963347
-0.30819887
0.22581245
0.32772678
0.0038557763
-0.12552549
-0.066244267
0.2053902
0.090864792
0.11165571
-0.058653772
-0.23051266
-0.49277633
0.14268832
0.20420286
-0.0038774875
0.13693628
-0.24577294
-0.20378181
0.25071356
-0.092074499
0.026597528
0.087406985
-0.19520096
-0.50599331
0.09855026
-0.33900848
0.041051287
-0.0099312924
-0.12670277
-0.1597283
0.081584752
0.01568391
-1.8847399
-1.7204034
-1.478583
-1.1205708
-0.62186289
-0.15912555
0.047651153
0.11246222
0.020566398
0.324195
-0.14159693
0.48133448
0.99661624
0.46053416
2.8544831
-0.037821677
-0.10939264
-0.31595156
-0.0068190275
-0.20308091
-0.55125791
0.10276796
-0.03245803
-0.14085995
-0.076538719
0.20950225
-0.22985841
-0.00077124685
0.025312044
-0.08220043
-0.70402682
-0.21141426
0.025055654
0.12145183
-0.11897705
0.79806203
-1.7063147
-0.73539096
1.2316433
-1.792719
2.7669413
0.0071350373
0.092029691
-1.4213698
0.10643378
-0.060784046
-0.058731884
-0.13775901
-0.021540353
0.014470393
-0.1117945
-0.13455161
-0.03568114
0.00056015461
-0.0069526001
-0.026583744
0.073523521
0.19673246
0.066389054
0.026306059
-0.094382986
-0.030034175
0.0051053679
0.057008561
0.9348833
0.324249
0.77294654
-0.56544417
0.0039231693
0.18720967
-0.38940161
0.12888579
-0.11599657
-0.025646457
-0.10008115
0.049683172
-0.03458146
-0.014464493
-0.18889569
-0.038919758
0.18040958
-0.073196687
-0.0063237143
0.054335967
-0.017944168
0.050759237
-0.0044476828
0.018010089
0.010155438
-0.0012775678
0.16377996
0.72859472
0.09378618
0.70985752
-0.40697244
0.17861895
0.23306991
-0.32481599
-0.0074853627
-0.022752952
0.017299155
-0.032117587
0.073688805
-0.052663479
0.023597499
-0.092698134
-0.076294862
-0.015899919
0.0081902035
-0.0041323421
-0.07243824
0.14631489
0.057992268
0.086210854
-0.064261168
-0.075300671
0.011852399
-0.061449528
0.66078228
-0.099405199
0.59614736
-0.14848779
0.25289845
0.30891564
-0.22788243
-0.069305964
-0.0025224776
-0.06892252
-0.082270734
0.0029119584
0.024487974
0.019528016
-0.17274788
-0.070203729
0.1121257
0.16518047
-0.0093214437
-0.052971393
0.12292661
-0.01542374
0.065727822
-0.057137311
-0.11217679
0.001582985
0.094724819
0.52021539
-0.15287295
0.36792043
0.015682328
-0.2056285
0.20928749
-0.12738156
0.057301052
0.0012078232
-0.060786273
-0.25293809
0.11917671
-0.081924476
-0.047347486
-0.14989044
-0.15545152
0.20836568
0.097630806
-0.00048195809
-0.037092496
0.084019147
0.016625542
0.087561511
-0.030192086
-0.11162847
-0.097042628
0.15172227
0.52828693
-0.51686537
0.40054333
0.40188175
-0.49972767
-0.0015163635
-0.0023074022
0.11655479
-0.022780497
-0.04587578
0.093378857
0.014005252
-0.069656692
-0.024683548
0.065663308
-0.052962475
0.13613975
-0.27214509
-0.082887851
-0.057961032
0.033882957
-0.017165691
0.14298555
-0.071659952
-0.06608557
-0.05233391
0.20814539
0.50245219
-0.4351252
0.061124608
0.67705238
-0.092384182
-0.082128987
-0.053642113
0.06522391
0.025211373
-0.066730358
0.076121464
-0.028780084
0.050307419
-0.025228295
-0.083178572
-0.18364939
-0.040986691
-0.18853107
0.045688316
-0.041199636
0.010824158
0.17992681
0.1744312
-0.092283785
-0.047469214
-0.0098680975
-0.11430025
0.5442934
-0.67958248
0.077704504
0.91926211
0.10732403
0.32610962
0.041207463
0.19007187
-0.12145337
-0.15151216
-0.15275493
-0.047759
-0.12052681
-0.073060505
-0.030192057
-0.024439052
0.49810976
0.12492023
-0.1940234
-0.042001806
0.33034289
0.17481253
-0.051438279
-0.16201523
-0.14323352
-0.074669763
0.060178336
0.56929857
-0.56999266
-0.024952304
0.85884964
-1.4540343
-0.40295765
0.0017118327
0.19591585
0.020133806
-0.094494373
-0.16064778
0.051398907
-0.025727177
-0.21168962
-0.09745764
0.06133493
-0.01116477
-0.018342875
0.041470494
-0.062178232
-0.0069479216
0.0177978
0.2878997
0.096644029
-0.14643028
-0.065007299
0.020439044
0.49917918
-0.64354986
-0.049721573
0.91954613
-0.23656596
0.093714818
-0.013172277
0.035925236
-0.14575477
-0.037334062
-0.16686529
-0.0064624539
0.096986644
-0.12516581
-0.16681232
-0.02133541
0.20316537
0.13594763
-0.037355863
-0.018728876
0.17554587
0.063110188
0.089374781
-0.080865137
-0.063694797
-0.1094282
-0.028207432
0.53604507
-0.58716524
0.023516852
0.7047447
0.11965984
0.044208158
0.02012372
-0.027158067
-0.035517965
0.0091070868
-0.04313419
-0.085968986
0.071039185
-0.010442892
-0.22942106
0.060030971
0.17883913
0.058930226
-0.11246824
0.00036352166
-0.022663042
0.0023950133
0.073041454
-0.069411963
-0.034839813
-0.11120065
0.1005946
0.53594065
-0.38498887
-0.13587688
0.64066041
-0.071214058
0.22681656
0.0092777582
0.062382068
-0.14703675
0.045105532
-0.087013647
0.018332828
-0.025774181
-0.10846069
-0.11179611
-0.042475827
0.09149351
0.10283656
-0.047470234
-0.034229245
-0.037356451
0.025447952
0.12523478
-0.035476118
-0.10462955
-0.02613394
0.15305911
0.57275665
-0.2661446
-0.1565816
0.44029164
-0.47296911
0.081922591
0.0039624185
-0.033844866
-0.095425382
-0.030887078
-0.022277039
0.014137568
0.069042064
-0.12881705
-0.30143774
-0.0071684942
0.02218982
0.151658
0.13808957
-0.029019291
-0.012186018
0.033058126
0.0035098065
-0.10330368
-0.030464552
0.040868316
0.099138789
0.56229228
-0.1734238
-0.08536575
0.32563356
-0.071843415
-0.01290219
0.012578888
0.004455253
0.0094863297
0.069521308
-0.028637545
-0.044452768
-0.0092408266
-0.1107921
-0.27116585
-0.013658909
0.045832489
0.014547347
0.049220044
-0.063506708
-0.0071429913
-0.062458772
0.17848152
0.034480881
-0.075728513
-0.0069591482
-0.02628636
0.48945346
-0.060655039
-0.1071404
0.20975113
0.26180178
0.34459981
0.023769831
0.012595271
0.10801363
0.0084932484
-0.027688004
0.0086079426
-0.020697394
-0.020104052
-0.14322942
0.057222739
-0.055235643
0.041349299
-0.018544521
-0.010877918
-0.052443724
0.072077937
-0.051266301
-0.096206628
0.044148184
-0.086387217
0.019269576
0.5729872
0.43465158
-0.14229102
-0.12236222
0.10350716
-0.054391757
0.024561925
-0.054246042
-0.068613522
-0.14066364
-0.10282591
0.044420943
-0.090351433
-0.15875013
-0.03159951
0.01982267
0.037842877
0.10768968
0.034725394
-0.033320382
0.087165743
-0.064155832
-0.017318556
-0.10478156
0.014901973
0.1570098
0.11374491
0.63460082
0.17599826
-0.10892114
-0.041523796
-0.11015622
0.024914278
-0.017238002
-0.098536462
-0.069809161
-0.02769657
0.10702053
0.030765617
0.005730052
-0.031706143
0.23656765
0.052467197
0.0046526385
-0.13178378
0.15834042
-0.071203478
-0.18247311
-0.13137434
0.046364792
-0.017653681
-0.021261226
-0.010448164
-0.036119252
0.4368293
0.22355793
0.12216832
-0.23333719
0.22124569
0.16722398
0.0081707546
-0.14252433
-0.043862648
-0.040826887
0.057866253
0.079163104
0.07367985
-0.094380312
-0.067215659
0.061420895
0.10481888
0.0061396989
0.11901845
-0.007074065
-0.0069268714
-0.087511823
-0.029341005
0.11477184
-0.10265888
-0.011037553
-0.046294902
0.36287826
0.1405402
0.025404045
-0.0525833
0.17589062
0.36613074
-0.023397041
0.058178544
-0.12534194
0.016882949
0.068402536
-0.024466051
0.023564748
-0.096126631
-0.012683249
0.053587072
0.015020323
0.032852549
-0.12754442
-0.030429367
-0.17100275
0.0095475977
0.061413761
0.037809439
-0.025668176
0.027070723
0.15029842
0.34332845
0.10922968
-0.053392444
0.0091284234
-0.38415575
0.32392961
-0.024349609
0.029996812
-0.14743339
-0.068799637
-0.082671411
-0.036921483
0.039841171
-0.11512176
-0.0058056647
0.0044698813
0.22926098
0.10773935
-0.0095922155
-0.052995648
-0.037947383
-0.068291724
0.064154863
-0.063930027
0.064570114
-0.064575464
0.15395176
0.36396766
-0.40415725
0.182561
0.29076895
-0.34191102
0.27450222
0.015332056
-0.19203682
-0.0799447
-0.0038826163
0.021652332
0.11656826
0.062292311
0.023200179
-0.11155781
0.083164126
0.14589746
0.0036821081
-0.044827744
-0.046978321
-0.02402509
-0.17784695
0.17610434
-0.11162575
0.00410097
-0.058210012
0.093163177
0.36363325
-0.30469751
0.19456129
0.21760784
-0.028837495
0.30083281
-0.011966661
0.012246024
-0.022689035
-0.030423537
-0.06397865
0.0075334483
0.044617929
-0.053896949
-0.01675651
-0.012353418
0.011609551
-0.079350069
0.064170532
-0.0020591465
-0.097207472
-0.043169986
0.15376134
0.053304549
-0.027100386
-0.04824385
0.086978301
0.35390842
-0.39303768
0.069191128
0.44054526
-0.29384279
0.33957562
0.0069965781
0.31240568
-0.063484058
-0.10141695
-0.086641021
0.072451174
-0.027589913
-0.21169479
-0.02523469
-0.046989292
0.39010686
0.23568842
-0.15930519
-0.076383732
0.020912038
0.13530014
-0.019512741
-0.29388839
0.011945922
-0.040888835
0.021284129
0.34962639
-0.5989787
0.35845795
0.50604486
-1.4283562
-0.22853129
-0.01568995
0.099448547
0.021655802
0.022094183
0.021189051
0.0022599509
0.068930909
-0.025773326
-0.014519072
0.009227952
-0.072084554
-0.061817273
0.013689421
-0.00059218926
-0.038803235
-0.05642676
0.120451
-0.043127425
0.068559207
-0.040933631
-0.10825755
0.31705189
-0.48463476
0.15791979
0.68248212
-0.1125395
0.49888724
-0.09178701
-0.10179132
-0.078836247
-0.036173586
0.027452514
0.037912294
0.043051783
0.15020302
-0.069427356
-0.075622804
0.13853723
0.012326294
0.027235076
-0.052239943
0.26704869
-0.047540098
0.10816784
-0.22099423
0.012028922
-0.09592741
-0.074956641
0.30375651
-0.54346937
0.048316162
0.78857189
0.03519747
0.54965711
0.013742337
0.16417463
-0.095907889
-0.067011386
0.053101268
0.066226915
-0.046776477
0.085911997
-0.13280433
-0.12629075
0.066946439
-0.064961225
0.071753882
0.011972927
-0.028203256
-0.048792131
0.11585613
-0.049543563
-0.075957678
-0.14253539
0.10489115
0.44513577
-0.37544486
0.25215355
0.41177744
-0.24438919
0.52330542
-0.094741918
-0.005189932
-0.098753422
-0.094119594
0.11144252
0.13136016
-0.047993116
-0.071666159
-0.013729799
-0.071257263
0.18569134
0.0030235131
-0.017801287
0.023190506
-0.06881354
0.052057952
-0.037462246
-0.098434769
-0.048656091
-0.076637775
0.0057856147
0.48131678
-0.23202448
0.037327487
0.33901024
-0.46724316
0.29365492
0.022133902
-0.077672817
-0.036350887
-0.021296207
0.10233726
0.095907107
0.10941771
-0.055138841
-0.13728125
-0.1133434
-0.030618137
-0.21437439
0.0050384337
0.0033476835
-0.05451335
-0.11546466
0.065817542
0.10649917
-0.072325632
-0.10861249
-0.064759761
0.60696942
-0.28923234
0.10100519
0.17418334
0.30350631
0.29718351
0.17860378
-0.0083555551
-0.037118547
-0.034637436
-0.076275535
-0.026004685
0.0030265341
-0.020434039
0.054837469
-0.056922741
0.051403616
-0.09879598
0.048972096
0.038087338
-0.11585107
-0.032393418
0.071554497
0.0094517032
-0.12798035
-0.17302211
-0.019109817
0.45819724
-0.17170696
0.027678493
-0.092880003
0.37543887
0.1204689
0.33631918
-0.10064752
0.081811771
-0.13485503
-0.13324349
0.026716098
-0.030373208
-0.081904322
-0.13157961
-0.10536119
0.16502237
0.022346331
0.023810714
-0.0046479888
-0.037817411
-0.16293076
-0.034470074
-0.0040078536
-0.083443955
0.025262259
0.0045397612
0.81020945
0.1218944
0.1751152
-0.44875994
-0.047824085
0.034204595
0.26448375
0.04145303
0.0098555814
0.011670507
-0.090310074
-0.042810589
-0.00099812949
-0.036331862
-0.072594129
-0.057747286
-0.0031232587
0.098368205
-0.072084479
-0.022630341
-0.14971299
0.089237489
0.14867546
0.079531416
-0.018707752
-0.13297071
0.1360621
0.34392115
0.32871327
-0.03783232
-0.29544428
-0.0076260241
0.038335878
-0.0089008063
-0.085186407
0.02920099
0.094736345
0.053040266
-0.0034691747
0.016950164
-0.12633647
-0.1461172
0.17625755
-0.12119488
-0.04793774
-0.0025965613
-0.041165795
-0.13063276
0.02166013
0.17619365
0.18941623
-0.078170158
-0.13293605
0.070002653
0.38010556
0.21534199
-0.14208405
-0.14312255
0.29673034
0.22370064
-0.014538949
-0.09310127
0.051219206
-0.010520117
-0.10173117
0.010183303
-0.058471903
-0.21043848
-0.11463385
-0.036831897
0.020105332
0.24130632
-0.12234974
0.024310173
-0.15741783
0.12208117
0.12546796
0.067641631
-0.05685579
-0.061029602
0.18215364
0.41025829
0.11329856
-0.15579298
-0.014918968
-0.083733797
-0.17589763
-0.025556315
-0.12697151
0.086739406
0.15550502
0.085536361
0.16704795
0.031315099
-0.11529143
0.068951592
-0.074482076
-0.17876898
-0.072893851
-0.083625659
-0.03476188
-0.13515545
-0.11819886
0.37207091
0.069062039
0.0045198048
0.060204063
-0.10678589
0.2886253
0.55898768
-0.15726046
-0.28971547
0.26062933
0.1433329
0.023879131
-0.13023767
0.066243403
0.092221841
-0.12232821
0.083981693
0.084909409
-0.087355405
0.049847823
-0.092625819
-0.08680141
0.082373023
-0.12965149
-0.0041883131
-0.13780487
-0.21806698
0.32639331
0.13571283
0.063363269
0.049860246
-0.10995493
0.25098541
0.64309388
-0.12680043
-0.30096903
0.081338026
0.32296368
0.023843335
-0.048521034
0.080142237
0.12982732
0.00075057597
0.0080776094
-0.015844636
-0.10933304
0.026718447
-0.016016841
-0.092294253
-0.067528576
-0.090376936
-0.038040157
0.03129651
-0.051715653
0.34319398
-0.011795154
0.08380571
-0.012029687
-0.099451303
0.23747137
0.39725867
-0.19528295
-0.078076944
0.13009445
0.26882401
-0.023664474
-0.15627852
-0.031706292
-0.0051356936
-0.10206603
-0.010109211
0.030872488
-0.12170478
-0.030023521
0.18401697
-0.10546253
0.046448555
-0.094903104
0.024789196
0.060173504
0.064013474
0.31528831
-0.017712196
0.2044751
-0.037036214
0.018424416
0.097913072
-0.022953026
-0.23466924
0.32293496
-0.084097505
0.21688475
-0.00027531327
-0.13166499
-0.08915773
0.048234027
-0.11367303
0.068771444
0.085809343
-0.12119953
-0.026177552
0.10350675
-0.13133687
0.05588543
-0.041370999
0.099528074
0.16303611
-0.038088404
0.1588425
0.052705452
0.15204494
0.019740906
-0.047308445
-0.031697609
0.011447652
-0.2551561
0.40749672
0.053369518
0.20084283
-0.0080055147
-0.025091643
-0.053142358
0.10303973
-0.22094312
0.099240817
0.022784501
-0.23618768
-0.089213237
0.13999024
0.032531545
0.10683778
-0.051629901
0.054097313
0.32867286
-0.11741485
0.082468353
-0.0024290646
-0.0042018052
0.05723758
0.10909522
0.079562761
0.12276889
-0.34383285
0.21172877
-0.22033019
0.26147509
-0.016643828
-0.089998789
-0.031375114
-0.093793392
-0.16732419
0.035350855
0.037392072
-0.098188221
0.058074597
0.050855268
-0.0042775339
0.16010287
-0.0096560251
-0.029680664
0.2294019
0.28659117
-0.020135976
-0.044059843
-0.016282288
-0.0073502883
-0.1706284
0.21978742
0.38019174
-0.41071615
0.02488891
0.068572074
-0.21558817
0.026217356
-0.046100635
-0.14066482
-0.013744895
-0.11536983
-0.088951215
-0.038493965
0.042380098
0.14902677
-0.027946729
0.031217612
0.094442956
-0.009370259
-0.008535807
0.093814969
0.33406237
0.12511949
-0.041605268
-0.12289687
-0.089343987
-0.050362248
0.29849574
0.85260439
-0.31039143
-0.49117017
0.35687715
-0.050268199
0.017086247
0.13761416
-0.048836019
0.12884055
0.52513295
-0.12190332
-0.030310797
0.076285504
-0.12971921
-0.16646785
-0.41327143
-0.016647099
-0.052158114
0.11245367
-0.13552289
-0.094156794
-0.23653662
-0.31037164
-0.09194646
0.052955288
-0.10004954
0.058944497
0.042643718
0.2745671
-0.10115625
0.073325656
-0.16498128
-0.26775733
0.35250553
0.095501453
-0.057168785
-0.12897313
-0.18792503
-0.057511859
-0.011897002
-0.38928092
-0.11782274
0.22287567
-0.076397404
0.12358316
-0.43917191
0.28096867
-0.033842057
0.14067666
-0.082008637
-0.059375174
0.48090211
0.11600988
-0.025991505
0.20431535
0.0047560167
0.010695846
0.23986539
0.22836524
-0.019008091
0.13625963
-0.057011344
-0.17744522
0.20631914
-0.13434607
-0.001839112
0.14751658
-0.020539243
-0.090991147
0.20266813
0.00032059429
-0.054474778
0.052468359
-0.11682822
-0.069959767
0.35532522
0.36443609
-0.04677264
0.0048153331
-0.13374127
-0.3882131
-0.018127531
-0.30377772
-0.042448871
-0.0040599685
-0.19370714
-0.32589331
-0.128169
-0.0039091767
-0.061389599
-0.028367244
-0.17967799
-0.15912375
-0.25414926
-0.1605552
-0.047359172
0.0795836
-0.11683539
-0.11416587
-0.066610023
-0.13913384
-0.041599665
-0.067571476
-0.095415249
-0.67741311
-0.33701068
-0.17795697
-0.065707296
0.17671937
-0.08098498
-0.021171471
-0.017961921
0.015207616
-0.056987852
0.15051632
-0.05391226
-0.26272315
0.194915
-0.039408673
0.035554316
0.18490733
-0.034041118
-0.40960586
0.56540012
0.48502731
0.01730128
0.088796288
-0.073113889
-0.36973095
0.27930093
-0.12488976
-0.0014968283
0.031101627
-0.049353782
0.12501834
0.044569388
0.19383514
-0.021377077
-0.063454293
-0.12686731
0.22035828
0.11379374
-0.43305996
-0.086047105
-0.081693523
-0.14574629
-0.14178067
-0.35568088
-0.029102821
0.012023749
0.027297763
-0.066505961
-0.26936162
-0.017433826
0.17950608
-0.068138771
-0.13040677
-0.19306026
-0.20831119
-0.17525615
-0.24409938
-0.08643496
-0.094046906
-0.14870298
-0.01289229
-0.43275884
-0.46529648
-0.059778064
-0.13314691
-0.06629014
-0.9222092
0.25253254
-0.5800615
-0.044042259
0.16259551
-0.02770135
-0.36509153
-0.2408403
-0.12766141
-0.047646098
0.030934412
-0.099337995
-0.16798507
0.30051145
-0.34813732
-0.030116791
-0.023673004
-0.062098835
-0.1583502
0.23620816
-0.33868375
-0.027587524
-0.037445575
-0.063643977
-0.47725117
0.25660253
-0.21168184
-0.036239516
-0.026138004
-0.0021832897
-0.02594067
-0.04399322
-0.097921997
-0.055043459
-0.060756564
-0.13218644
0.14279047
0.11707678
-0.23354703
-0.043401156
-0.010005636
-0.08209987
-0.1177991
-0.35823277
-0.23231648
-0.046337064
-0.02389528
-0.14915934
-0.021153802
-0.0779576
-0.28034914
-0.074030906
0.006738585
-0.076682597
-0.18505533
-0.52235496
0.21986948
-0.03516436
-0.020104676
-0.13322386
0.17643407
-0.15288177
0.013581101
-0.080310173
-0.077920645
-0.044277094
-0.50608557
-0.29412884
-0.69970226
-0.074497372
0.20811613
-0.032969061
-0.19200286
-0.12556791
0.060970079
-0.012720763
0.093002096
-0.029244294
-0.02332552
0.2408714
-0.18772981
-0.042812813
0.035661723
-0.030096428
-0.094342381
0.2854881
-0.31090876
-0.0021634446
-0.013449889
-0.046108276
-0.0057711345
0.0053228252
-0.41631696
-0.049841527
-0.031150913
-0.04690484
-0.055057097
-0.3848103
0.18672951
-0.063065343
0.086895332
-0.053953744
-0.053832609
0.08141797
0.24712157
-0.067254782
-0.011481308
-0.11543142
0.11424746
-0.61135012
-0.11590639
-0.050483033
0.088648289
-0.040362734
-0.042892735
0.034335375
-0.23556389
-0.0030007649
0.034927923
-0.10022053
0.043510832
0.1073043
0.1954052
-0.049001288
0.10675356
-0.039805315
-0.0015131584
-0.19161873
-0.12782763
-0.021495119
-0.099072501
-0.10962137
-0.53907639
-0.06669654
-0.91792113
-0.023484118
0.27241939
0.025558563
-0.26289517
-0.25998199
0.11014953
-0.014499877
0.092263132
-0.10316271
0.068434335
-0.20079631
-0.24273819
-0.049703401
0.18198925
-0.044669442
-0.17060739
0.52720225
0.063797198
0.003892025
0.02016517
-0.086667083
-0.20412238
0.17438683
-0.39570466
-0.058215894
0.0016002877
-0.10615165
0.12419672
-0.23286751
-0.11063299
-0.073173419
-0.053040955
-0.059893683
-0.18795498
-0.12661374
-0.27484524
-0.056592971
-0.052525677
-0.074378543
-0.78259158
-0.48825914
-0.39462668
-0.062500343
-0.045605518
-0.046772096
-0.64744788
0.10232037
-0.85200578
-0.01997013
-0.061919298
-0.002315959
-0.3943854
-0.2410979
-0.7922734
-0.035347253
-0.059609395
-0.036067419
-0.29470795
-0.13447326
-1.2397901
-0.10479477
0.11273742
0.20854945
-2.2149937
-0.41564834
-1.4226803
0.070988923
0.083698034
0.0077148508
-0.52897185
0.17742206
-1.0024959
-0.051238768
-0.022084316
-0.024444109
-0.47684368
-0.73451865
-0.90292448
-0.065747477
-0.024896223
-0.091699265
-0.37839335
0.0051257568
-1.2994106
-0.021080852
-0.057457052
0.004934893
-0.69272768
0.22148548
-0.39114833
-0.040609125
-0.18410118
-0.11152429
0.30272824
-0.37445098
-0.89156687
-0.11870126
-0.01431034
-0.09517581
0.21536349
-0.36017719
0.0063404902
-0.049411584
0.0049106674
-0.10683008
0.076865248
-0.33074453
-0.23217544
0.021117581
0.047813226
-0.086459406
-0.24517713
-0.11978364
-0.51193899
-0.056414913
0.046169452
-0.10526757
-0.18851146
0.44759709
-0.18991947
-0.019566009
-0.0054511805
-0.16088727
0.2830182
-0.02814734
-0.25778466
-0.031279221
-0.03904793
-0.041352704
-0.21611904
-0.32587427
-0.77933538
-0.070135452
0.19112614
-0.071239866
0.1557654
-0.15918452
-0.1327537
-0.061174333
0.072657116
-0.13591276
-0.0069837575
0.17938626
0.028104652
-0.070085689
0.037900429
-0.16000119
0.23766232
0.21344566
-0.5161851
-0.059553582
0.040419113
-0.069076933
0.18022205
0.074756838
-0.69385111
-0.067799501
-0.010116212
-0.060895503
0.24239981
-0.21878298
-0.04467212
-0.050525893
-0.023056122
-0.10057841
-0.040231917
0.171377
0.48356286
0.024372559
-0.018844239
-0.069755726
-0.24777642
0.21181604
-0.063875899
-0.010279902
0.049237534
-0.057980698
-0.30285826
-0.4189992
-0.23280533
-0.046498001
-0.0416472
-0.081599317
-0.33749226
-0.19913246
0.077874392
0.040166475
0.031097127
-0.09362758
-0.12472308
-0.15834954
0.125356
0.017684015
-0.10491663
-0.050091263
-0.67823964
0.31366554
-0.48054534
-0.015722981
0.068325251
-0.101107
0.059371583
-0.016715767
-0.24170625
-0.083559334
0.04271071
-0.071927078
-0.12777299
0.15421772
-0.009705591
-0.079234853
0.087034248
-0.07568036
0.13452452
-0.026336288
-0.51689976
-0.052196156
-0.064849049
-0.096116744
0.079174399
0.22202902
-0.53002173
-0.040849656
0.011074147
-0.018005151
0.024988208
-0.043570451
-0.05131235
-0.051929787
0.041089002
-0.12785265
-0.0083261169
-0.19394954
0.093727753
-0.0070928964
0.11527067
-0.010672197
-0.0012680038
-0.24979621
0.11443152
0.051735573
0.12135977
-0.045067664
-0.30507129
0.087623544
0.14528193
0.025404876
0.037764695
-0.16694725
0.042303652
0.063898668
-0.21446359
-0.032293666
0.1864294
0.011517351
0.029981228
0.58339435
-0.12779726
0.064365327
-0.017581778
-0.034866329
-0.29626292
0.055287167
-0.42198646
0.0060129091
0.23269992
-0.047415227
0.26611775
0.034498747
0.070948236
-0.011854505
0.13458559
-0.072589867
0.307832
0.1017504
-0.09376137
-0.0017121228
0.18544918
-0.044979054
0.055826619
0.33100635
-0.11662506
-0.051221803
0.079431675
-0.050715107
0.25563741
0.20597009
-0.22130124
-0.0080075469
0.028676612
-0.053276088
0.064952992
-0.23574722
0.13921116
-0.08630114
-0.054087978
-0.13783975
0.15796939
0.15562283
0.31194553
0.01805811
-0.00051527482
0.00094008731
-0.13911392
0.09602318
0.28288323
0.014880648
0.14729722
0.024124904
-0.24299611
0.08791966
-0.16330191
-0.010312061
0.00974226
-0.044063728
-0.06552659
-0.33178431
-0.25446743
-0.0435878
0.076451719
-0.046226073
0.031331282
0.25733578
-0.31939104
0.0018629483
-0.044333111
-0.02301665
-0.39831099
-0.091918148
-0.85522568
-0.054699305
0.049306877
-0.073883504
0.14435017
0.11468273
-0.32840446
-0.067321993
0.023247221
-0.036531556
0.07947921
0.16056618
-0.42446634
-0.019016623
-0.064558506
-0.14144108
-0.098180413
-0.36273313
-0.04440197
-0.00059817871
-0.033954043
-0.081627011
-0.14164034
-0.23203355
-0.31113154
-0.049160253
-0.099346414
-0.11551177
0.0076317079
-0.13435346
-0.30825669
-0.019766085
0.065820858
-0.038254283
-0.039103806
-0.07303267
0.38852403
-0.0039854404
-0.023638325
-0.069967806
0.029429283
0.017370151
0.49477777
0.019384475
0.036685474
-0.074914768
0.014308532
-0.089396365
-0.22598197
-0.07233154
-0.13989311
-0.18170477
-0.024531815
-0.04891051
0.081784934
-0.047692541
-0.020613963
-0.1405468
-0.13412088
0.072441094
0.063836932
-0.055408876
-0.16761455
-0.12272246
-0.10812307
0.15315284
-0.37010375
-0.016784728
0.029111555
-0.13444316
0.044889819
0.1270707
-0.37759796
-0.084694184
0.00012086194
-0.094831087
-0.064177804
0.16125999
-0.048376642
-0.045923024
-0.032868568
-0.11052734
-0.24851029
-0.11762912
-0.026976027
-0.026260169
-0.095735051
-0.13331354
-0.29745218
-0.023070043
-0.48084986
-0.04511971
-0.053687513
-0.085250661
-0.03971076
-0.10681596
-0.088222586
-0.041163255
0.018509308
-0.074711561
0.057663225
-0.0054143108
0.10841196
0.03489786
0.00361219
0.024696266
-0.0043945378
0.035023425
0.086028449
0.010193609
-0.12108718
0.71545529
-0.39455369
-0.28733999
-0.056047373
-0.017622259
0.040406115
-0.02877913
0.11411286
0.10120393
-0.073353507
-0.096099891
-0.02191755
0.098668963
-0.029145878
0.038090952
-0.024475072
0.038314693
-0.012220448
0.14345612
-0.014050173
-0.0050139572
-0.018342772
0.062049184
0.057494
0.09131071
0.21201849
-0.18305175
0.15452166
-2.7946827
-0.40319195
-0.4854044
0.062421333
0.14013231
-0.090736538
0.042333089
-0.37306166
-0.0668194
-0.086616345
0.13095804
-0.20135395
0.18414754
-0.1247293
-0.068132587
-0.011037203
-0.014540295
0.085966595
0.083822176
0.4786005
-0.28273979
-0.023413382
-0.07110519
-0.15545426
-0.10479995
-0.49053478
0.034384344
-0.38070592
-0.28319126
-0.11249433
0.03270058
-0.068485036
-0.18289487
-0.0098060649
-0.27610928
-0.064915828
0.097669706
0.1624873
-0.25328377
-0.13124639
0.028138751
0.5102843
-0.068516515
-0.0055345073
0.12378322
-0.15521695
0.15198399
0.087187178
-0.020682765
-0.27580589
-0.22275513
0.18742166
-0.1577975
-0.19245194
-0.40010357
-0.31093433
-0.19202332
-0.094488032
0.27178037
-0.18991785
-0.12480503
-0.56075734
-0.031166691
0.11542015
-0.056784429
0.61761862
-0.31610647
-0.31448284
-0.018963289
-0.084240876
-0.064195037
0.060956102
-0.12769701
0.33788902
0.13040102
-0.014912069
-0.11824486
-0.19145264
0.27326155
-0.11079167
-0.41368467
-0.12156136
0.17968601
-0.0027918804
-0.15020688
0.37016368
0.11839466
-0.47182411
-0.43563321
0.0083721811
0.18815756
0.12732525
0.30881843
-0.46205917
-0.27335909
-0.36473525
0.10004384
-0.054791156
0.029451033
-0.14831851
0.33028001
0.31202078
-0.25075743
-0.12469772
0.017853187
0.36649609
0.0069417292
-0.68890977
0.1464348
0.23776267
0.15594438
-0.30406189
0.057022862
0.3094379
-0.23936836
-0.28192028
-0.097607687
0.13953149
0.098757438
0.32524073
-0.51331472
0.024580041
-0.31430405
0.11081842
-0.17337848
0.12934126
-0.047693312
0.36329201
0.16506527
-0.34707049
-0.16365476
-0.16561602
0.281607
-0.13365278
-0.92225844
0.78469062
0.12654622
0.23038492
-0.33826169
-0.11200703
0.31639591
-0.1542623
-0.099460855
-0.039861392
0.20714597
0.079330862
0.6985476
-0.44014582
-0.38058355
-0.090173051
0.18028359
-0.079232611
-0.11789971
-0.28188625
0.29807171
0.024795424
-0.33209297
-0.043303642
-0.024886526
0.14910296
-0.49808341
-1.1184468
1.3713219
0.13994861
-0.11917488
-0.23895422
-0.32277453
0.41001755
-0.36896899
-0.26487029
-0.17712753
0.32622325
-0.20993978
0.37587872
-0.31064069
-0.035358958
-0.051147088
0.23918332
-0.24548125
0.16616312
-0.21594325
0.48827857
0.080536269
-0.27149442
-0.27193809
0.016560793
0.17553782
-0.58338052
-1.1073254
1.3075691
0.10040401
0.38141534
-0.13021885
0.16464987
0.32205123
-0.10738205
-0.29954949
0.10156094
0.21432601
-0.26330325
0.67240036
-0.46232769
-0.046545334
-0.22904517
0.28507361
-0.17722256
-0.29068559
-0.40728775
0.6424526
0.021843957
-0.71861517
-0.068719275
-0.092755012
0.32708457
-0.58509839
-1.1079421
1.0850006
-0.36522219
-0.49988922
-0.026415249
-0.44059259
0.048204262
-0.28520626
-0.13054606
-0.14595468
0.18009757
-0.31386203
0.1095541
-0.4164212
0.13134895
0.34503499
0.047636807
-0.02720901
0.20038654
-0.064120419
0.28981313
-0.066050529
-0.44886899
-0.12450383
0.13854143
0.35262957
-0.52891409
-0.43054542
0.078073733
0.27503639
0.18653522
0.01242879
-0.42369771
0.31681767
0.11393615
-0.026558686
-0.27761102
0.16461264
-0.053775858
-0.20912765
-0.39090568
0.27020803
0.18753076
0.27661687
-0.17444113
-0.23887381
0.17197952
0.088916108
-0.18416508
-0.28340048
0.056297842
-0.040148593
0.040636715
0.012500912
-0.089534454
-0.79020548
0.40599784
0.65933603
0.02102928
-0.28117967
0.087960728
0.010429498
0.14803867
-0.090926908
-0.12228357
-0.17641053
-0.41664183
-0.19068404
0.50136727
0.40848437
0.14981398
-0.037234243
-0.27270508
0.11802288
0.16815919
-0.43152303
-0.39796883
-0.0066044056
0.22408639
0.034106258
-0.1524673
0.092168018
-0.89141351
-0.28015003
0.4408952
-0.0033007648
-0.010329115
-0.039389357
-0.16338432
-0.14411162
-0.10496482
-0.022507202
-0.42732194
-0.34730637
0.15226686
0.38176998
0.38019517
0.074180119
-0.026856992
0.11230192
-0.27365616
0.041859794
0.076661326
-0.39791468
-0.016829722
0.09793818
0.030067297
-0.32557264
-0.075015768
-0.57526672
-0.5072068
0.04229169
0.022531599
0.011131306
-0.073075838
0.12722467
-0.22523919
-0.0013581876
-0.22451882
-0.41979095
-0.56127357
0.091806404
0.22365279
0.50710237
-0.071187422
0.012496526
0.24765478
-0.14864764
0.16909188
-0.098023579
-0.13937129
-0.2567341
0.23178664
-0.025449006
-0.36579973
-0.11672129
-0.49053159
-0.63196725
0.032725748
-0.024783652
0.033709362
0.33577374
0.0059019048
-0.16724317
0.05857911
-0.16497561
-0.18199977
-0.91143101
0.034867253
0.35456634
0.2070384
0.056063626
-0.03154977
0.10407569
-0.25814736
0.033749145
-0.069780163
-0.11489575
-0.26222467
0.21608153
-0.032157358
-0.36990565
-0.054796822
-0.62495619
-0.34800875
-0.10962314
0.0011646185
-0.044272888
0.017856112
-0.033984501
0.10426386
-0.15656792
-0.26773217
-0.21959178
-0.23018678
-0.048286464
0.17242198
0.3820726
-0.27340335
0.0089408411
0.49462238
-0.1997886
-0.057059914
-0.16643676
0.002419061
-0.072751068
-0.11720284
0.15879084
-0.056593291
-0.29771799
-0.63615298
-0.50407058
-0.17669369
-0.017787009
-0.410234
-0.070088662
0.2398607
-0.14617662
-0.048288021
-0.14358144
-0.45620832
0.026503634
0.21759121
0.076581247
0.093914911
-0.0094623892
-0.11912252
0.014350766
-0.23047224
0.031637456
0.188908
0.090311855
-0.031398911
0.0032455055
0.0081791794
0.1817282
-0.50351024
-0.59296578
-0.18417738
0.051346608
-0.02492835
-0.34091482
-0.14367172
0.15136406
-0.026054354
-0.16012563
-0.00822974
-0.29865265
0.021775413
0.047332637
0.0014424173
0.60851777
-0.143875
-0.1000122
-0.1512858
-0.1783212
-0.15460564
0.25283897
0.014839233
0.092501193
0.0046694321
-0.18690118
-0.50813222
-0.38858655
-0.18065739
-0.53463781
-0.32534304
0.020723155
-0.12057438
-0.10931526
-0.13602403
-0.53079206
-0.13046071
0.032925412
-0.18715912
0.17736186
0.053021874
-0.046181284
0.38462839
0.0087182848
0.021242268
-0.11364388
0.033585016
0.21343283
0.19751909
-0.10006224
0.020527866
-0.066482231
-0.24127212
-0.55151242
-0.30226001
-0.19458322
-0.4664084
-0.3006902
0.013059754
-0.16103435
-0.10372721
-0.11217644
-0.16933867
-0.25922075
0.034840073
0.025988542
-0.093704931
0.26351324
-0.0026921018
0.10971425
-0.098849438
0.013530485
-0.04487928
0.23908535
-0.033330627
0.14712632
-0.20629588
-0.016896622
0.0032716913
-0.23960996
-0.39638349
-0.27484363
-0.38379186
-0.35281083
-0.21322283
0.012119897
-0.036143057
-0.078721806
-0.35063884
-0.19341876
-0.26211369
-0.010615972
0.16498123
-0.027635008
0.35957363
0.25119236
0.32551381
-0.26383561
-0.0892426
-0.22258231
0.088089719
0.15889639
0.57697374
-0.28124461
-0.087737389
-0.27272761
-0.17618614
-0.14468233
-0.36159426
-0.56767792
-0.24661201
-0.044831634
0.0081882272
0.11744275
0.16187409
-0.38929918
-0.3517296
-0.030087454
0.075740315
0.13114457
-0.011608846
0.46646777
-0.14772737
-0.11674572
-0.17005691
-0.041698564
-0.37251872
-0.02406802
0.17579877
0.40180936
-0.32592255
0.15422559
-0.19384767
-0.070161812
0.23837601
-0.55461013
-0.76150805
-0.1758036
-0.11338163
0.017630562
0.27274546
0.28742784
-0.30798888
-0.16163433
-0.0040623345
-0.037670765
-0.099984005
0.27993116
0.0056203506
0.038014561
-0.0091731958
-0.36530483
0.044716422
-0.27201167
0.01484105
0.19988306
0.35137144
-0.29387286
-0.25701028
-0.23367891
-0.11397849
0.18560773
-0.65015781
-0.40717149
-0.066026159
-0.14847204
0.0028777684
0.34261379
0.067035466
-0.39120051
-0.27822831
0.1850601
0.061411209
0.3183718
-0.1335884
0.43811971
0.057011683
-0.29926792
-0.23813997
-0.0077037276
-0.22347263
-0.37286556
0.68224853
0.093203016
-0.61997569
-0.16616668
-0.021190686
0.055548314
-0.5452528
-0.71857798
0.52869487
-0.64084989
-0.81321186
-0.0074177538
0.040098846
0.22169423
-0.092149138
-0.45770624
-0.021039968
-0.18194258
-0.0314584
0.35229278
-0.31333917
0.19184256
0.32136101
-0.20338872
0.064296268
-0.1099091
-0.25005198
0.21338296
0.41414687
-0.58068705
-0.15296236
-0.12625189
0.34331971
-0.62075269
-0.92404336
1.2476505
-0.03365048
-0.30204725
-0.14946404
0.099378139
0.11360993
-0.18216211
-0.27749956
-0.04084852
-0.041348293
0.10275249
-0.43974182
-0.45054448
0.21692812
0.039542072
-0.10498448
-0.10053707
-0.13394895
0.12058885
0.3419356
0.29805231
-0.19614853
-0.24885851
-0.02108057
0.48336098
-0.30676705
-1.0886103
1.1089028
0.078114748
-0.20324522
-0.1483046
-0.29620162
0.21734661
-0.33484599
-0.20485793
0.15899754
-0.12220609
0.060163524
-0.33025619
-0.24744804
0.14270112
-0.019771975
-0.027137943
-0.11559395
0.07815709
0.46713686
0.478715
0.2275479
-0.21869479
-0.51370788
-0.2745482
0.42371112
-0.23967968
-0.96175075
0.72420698
0.43601513
0.1222354
-0.05559282
-0.14068976
-0.17648256
-0.2093164
-0.38205341
-0.053879157
-0.15351273
0.085941106
-0.37054628
-0.15708101
0.18971899
0.25309664
0.037767563
0.085484065
-0.088350043
0.54869044
0.27330509
0.024228239
-0.10359868
-0.69124001
0.14961423
0.37216845
0.097091176
-0.83370441
0.38048899
0.24455354
-0.0093354639
-0.015398895
-0.19236751
0.31479904
-0.17626826
-0.40452763
-0.075246334
-0.22138363
0.050092194
-0.43233645
-0.42105311
0.25772798
0.19000377
0.15081739
-0.039923523
0.11572944
0.34411946
0.47659203
0.30180246
-0.16923766
-0.47357357
-0.39512426
0.28852874
-0.16924952
-0.74734163
0.34256083
0.30962968
0.61453533
0.23231736
-0.21238829
0.12533611
-0.2421682
-0.62167811
-0.10138623
0.024342647
0.08086466
-0.36203313
-0.14898813
0.076286897
0.055652563
0.19043489
-0.14891887
0.2786136
0.37438682
0.097522326
0.086329661
-0.24747124
-0.20595008
-0.31974903
0.43048197
-0.7235359
-0.26656452
0.16939896
0.59855127
0.28420568
0.25669596
-0.14379913
-0.018114729
-0.091436438
-0.45589414
0.020321375
-0.10052354
-0.14497702
-0.47155252
-0.2385439
0.028384302
0.17755441
-0.045450334
-0.096878983
0.42492217
-0.14999342
0.24290971
-0.2199547
-0.1586493
-0.17438146
-0.21419594
1.07505
-0.44082916
-0.22403485
-0.2195853
0.61181319
-0.01071354
0.17355466
-0.38107944
0.19190031
0.127831
-0.12256744
-0.01789307
0.16849369
-0.35617656
0.20347749
-0.08268705
-0.12882677
-0.059430376
0.17436425
-0.087812111
-0.31510043
0.82704079
0.17682451
-0.35725641
0.096860163
-0.45921665
-0.16952302
0.026295869
0.085885875
-0.68643701
-0.45170334
0.32521641
-0.2146973
-0.0027854152
-0.059801258
0.0077817584
-0.10495341
0.60809767
0.23007396
-0.14642675
-0.20217063
-0.077727392
-0.066951104
-0.17975821
0.077471644
0.31238329
-0.052556984
0.015852107
-0.42731711
-0.11840362
-0.26773477
0.02832585
-0.12328808
0.053540349
-0.1547592
-0.49404126
-0.42684466
-0.25835061
-0.0054806476
-0.10601163
-0.016293889
-0.28680912
0.21249555
0.11444742
0.92923999
-0.051127583
0.094550394
-0.11601428
0.59663928
-0.20473468
-0.14052567
-0.65234774
0.10223978
-0.14913629
-0.2141584
-0.44968733
-0.068169303
-0.19020253
-0.026734941
-0.14305647
0.42733899
-0.26795945
-0.58855683
-0.20012482
-0.25527108
0.6106872
-0.34507471
0.0064748377
-0.30211222
0.067757517
0.46162283
0.35123625
0.075276628
0.026562378
0.064544618
0.65417093
0.05834806
-0.1559896
-0.77840006
-0.073680513
-0.056807399
-0.21117769
-0.70611817
-0.038417414
0.064360932
0.066723444
0.053084388
0.27778539
-0.50344622
-0.55992299
-0.032176659
-0.36695328
0.68448162
-0.49086273
0.023214838
-0.14153479
-0.1291855
0.81681943
0.20463938
-0.0030003481
0.25191811
0.25442803
0.17748472
0.027592348
-0.52978963
-0.10945666
-0.37718973
-0.22194584
-0.01505131
-0.68286628
-0.16377614
-0.14352669
0.52618217
0.061910193
-0.10747396
-0.21554454
-0.027021838
-0.30378628
-0.4971959
0.19136198
-0.12256736
0.00042781141
-0.31918284
-0.11084197
-0.03518128
0.084583923
0.22751717
0.079449914
-0.14240442
0.27501106
0.058574941
-0.5107463
-0.18371761
0.089964479
-0.0042746142
-0.11960553
-0.35439083
0.25102404
0.066147737
0.3932479
-0.10179356
-0.39304304
0.25346935
-0.29299474
-0.56604481
-0.1240521
0.83539093
-0.10949763
0.008482337
-0.56035686
-0.2001853
-0.13209715
0.32500252
0.62817723
0.0085935621
-0.49829459
-0.43121263
0.22690198
-0.15874198
0.085392833
0.11621428
-0.067995109
-0.013733472
-0.31592458
0.25305536
0.081570297
0.14039692
0.036155581
-0.002079905
-0.034204222
-0.70610023
-0.63670444
0.24954054
-0.46605757
-0.13957439
0.0096953036
-0.46127266
0.25794867
0.22268127
-0.068894856
0.53982282
0.09309075
-0.5228278
-0.54738921
0.12847005
-0.441477
-0.42303312
0.85973603
-0.18025002
0.071278863
-0.14873047
0.423004
-0.2706947
0.27060512
0.22066385
-0.40821373
-0.11478098
-0.088352956
-0.4685016
-0.57811356
-0.31229576
-0.31556883
0.00750513
-0.28223825
0.48427945
0.2214756
0.14130099
-0.063543037
0.14260763
-0.13676403
-0.54463565
0.20660274
-0.50715828
-0.31615245
0.4447903
-0.10923106
0.038231198
0.032914702
-0.23984595
0.057118881
0.3775546
-0.10293003
-0.18985802
-0.30373341
0.41730684
-0.19338073
-1.1210369
0.95325541
-0.70792264
0.023305329
0.24163911
0.1341605
0.13321714
-0.41728872
-0.24771857
0.1636285
0.37636951
0.119844
0.15860289
-0.086491615
0.18250847
0.096940219
0.11675374
0.23089898
-0.16899043
-0.66011626
0.19725548
-0.18270636
-0.39131406
-0.27862349
-0.16199593
0.01828807
-0.46433064
-0.39775208
0.84511662
-1.0342585
0.009238407
0.090003021
0.19610342
0.021517085
-0.64038515
-0.051295482
0.22894283
0.28451425
0.19816194
-0.132607
-0.21764818
-0.23808739
-0.050536875
0.16722935
-0.14212857
0.16062783
-0.19304909
0.13670991
-0.16231497
-0.27064386
-0.25307742
0.1212334
-0.59677434
-0.47327361
0.24026349
0.42294544
-0.75402111
-0.030583227
0.39204836
-0.022868022
-0.090306677
0.15278171
-0.21499605
-0.35376894
0.36391991
0.010794369
0.38995391
0.16849896
-0.15305386
-0.33302999
0.30683663
-0.1202184
0.16777526
-0.065965705
-0.51443458
-0.23189415
0.12250677
-0.15170909
0.70447969
-0.053109705
-0.33691919
-0.31500408
-0.016299546
-0.20121503
0.050423652
-0.038015161
-0.65435684
-0.24661207
-0.12611599
-0.28790399
0.44365102
0.13853911
-1.3875226
-0.56089395
-0.10369372
-0.27603689
0.16581732
-0.039493635
-0.33295545
-0.29934585
0.017709218
-0.10452501
-0.3747983
0.0050211889
-0.072144359
-0.28487214
0.065062858
-0.13558719
-0.41781947
0.077263184
-0.23915596
-0.15417936
0.55465847
0.35925686
-1.0077057
0.24300267
1.2271645
-0.18691933
0.56400967
0.34757355
-0.84468985
0.28161195
1.1588224
-0.04675214
0.3110553
-0.066314854
0.27842602
-0.043895241
0.27910718
-0.25625181
0.35265437
-0.0018287833
0.13031848
0.14758499
-0.50114548
-0.30091804
0.28073058
-0.091298729
0.57985359
0.018805759
-0.21852468
-0.25793898
0.24730706
-0.041730911
-0.19573504
-0.090372868
-0.36503896
-0.27478537
-0.05714307
-0.24325952
0.11320851
-0.10872906
-0.51705164
-0.46549955
-0.12982142
-0.23160128
0.55000532
0.15360081
-1.1451538
-0.52822262
-0.013115757
-0.092621341
-0.24015829
0.038298812
0.23050995
-0.42247462
-0.049261857
-0.10452229
-0.11611626
-0.068318002
-0.034686942
-0.13950366
0.53609765
0.35757428
-1.0244138
0.30255017
1.3657321
-0.0087200664
0.40695304
0.18766959
-0.73382771
0.096544541
0.25874045
-0.01676801
0.76788068
0.56474447
-1.2872566
0.3696216
0.93745631
-0.017215265
0.088533342
-0.15005079
0.23018937
-0.021899039
-0.36615309
-0.22473311
0.014891953
-0.157103
0.62737882
-0.21595997
0.0051920949
-0.2153562
0.13027577
-0.11503901
0.30437937
0.039511371
-0.60267448
-0.14722402
-0.11522311
-0.21901342
0.54461896
-0.044602104
-0.85378498
-0.34286225
-0.28100708
-0.25749013
0.11093868
-0.13526441
-0.65622824
-0.33547226
-0.016466355
0.049202621
0.01617917
0.042688113
0.16684453
-0.30599245
-0.42787626
-0.33462456
0.097201847
0.02894377
-0.52768123
-0.088395633
0.30063984
0.38190293
-1.0912448
0.42085022
1.4405488
-0.25498134
0.054882806
0.064084038
-0.43235615
0.067542128
0.34508723
0.035551034
0.55622488
0.48305723
-0.96681637
0.40576702
1.5835623
-0.034933876
0.24661793
0.18427916
-0.44510904
0.16526166
0.14872001
-0.095404267
0.03059244
-0.1099394
0.12281007
0.07275974
-0.1744284
-0.24557298
-0.0050023599
-0.13784105
0.24041675
0.040760826
-0.67901295
-0.217261
-0.10837661
-0.19690534
0.29901919
-0.19455202
-0.88931543
-0.38353288
-0.073563933
-0.11517557
0.06375926
0.074988656
-0.61699122
-0.4886817
-0.094624482
0.0085500507
-0.58137298
-0.11655606
0.66392452
-0.1987011
-0.30133101
-0.15339965
0.38352707
0.0090767061
-0.077735521
0.12603176
0.31535313
0.4738411
-1.3142475
0.079090506
2.0536726
0.49357966
-0.16625661
0.010528388
-0.055369586
0.061669856
-0.00018741333
0.29307598
0.43085799
0.50276726
-1.4233661
0.30966046
1.4832944
0.50940734
-0.044419043
0.0098412838
-0.42700961
0.25526276
0.41858116
0.14136446
-0.011305372
0.084660731
-0.098486923
0.14497727
-0.59791434
-0.34760031
-0.027944457
-0.2470649
0.035413958
0.004815273
-0.57131374
-0.36090153
-0.03047118
-0.17565317
-0.10980543
-0.34658474
-0.25436509
-0.46582463
-0.026145183
-0.22810933
0.27762818
0.014427772
-0.66521275
-0.39142668
0.034994148
-0.046087846
-0.51169139
0.086899288
0.14890823
-0.20686154
-0.28909436
-0.28790012
0.086258695
0.26198402
-0.88729036
-0.49961355
0.39358145
0.49535546
-1.5106705
0.022150874
2.0994
0.49000853
-0.38380688
-0.30107918
0.059332918
-0.13848956
-0.10720846
-0.18459441
0.1743515
0.31554031
-1.2248757
0.56670725
1.6541687
0.36637852
-0.17332378
-0.16501868
-0.042984039
-0.065859295
-0.47718084
-0.029913226
-0.0088826083
0.024843287
-0.61216342
0.10123032
-0.05904974
-0.14475033
-0.097471453
-0.091967419
0.31396332
-0.096459679
0.086209469
-0.28463539
0.062559493
-0.040471796
-0.16679022
0.15549767
-0.72332567
-0.46960703
-0.13514756
-0.12658714
-0.1294098
-0.071926497
-0.25522152
-0.20578019
0.021837
-0.036648098
-0.61296433
0.11950369
0.137493
-0.16399783
-0.08497072
0.042100288
0.29523826
-0.15764368
0.085858434
-0.038181819
0.33633149
0.47740859
-1.9772671
0.38575646
2.0893679
0.57102132
-0.13668789
0.15398464
0.57345426
-0.19243418
-0.29001889
0.84806055
0.29477379
0.44356087
-1.4644941
0.32934269
1.7146574
0.45434922
-0.36230913
-0.067947507
0.48941055
0.071565926
-0.41180596
-0.0300311
-0.098965093
0.052266344
-0.077949397
-0.0026347521
-0.53305101
-0.40555924
-0.32503077
-0.20986381
0.37644723
-0.1284671
-0.72776139
-0.3867141
-0.13318697
-0.068678804
0.52819324
-0.049670622
-1.0009997
-0.42581972
-0.027680285
-0.19644633
0.075604543
-0.025711332
-0.17939857
-0.47388211
0.14592823
0.022930603
-0.92209119
-0.18505688
-0.083209984
-0.45478183
-0.063148782
-0.19790389
-0.0076130466
0.11076019
-0.38127789
-0.27654248
0.38117665
0.35012856
-1.5358305
0.27909467
1.4233354
0.14212725
-0.11907703
-0.11314935
-0.014199413
0.27888161
-0.04049385
-0.05946286
0.46692497
0.5527826
-1.4249052
0.26754734
1.7693167
0.60334605
-0.13424109
-0.044803381
0.08525572
-0.12666683
-0.23136042
-0.38754651
0.025584757
0.10318471
-0.74337798
0.2745074
0.41178668
-0.036425468
-0.058943111
-0.08831951
-0.23075773
-0.057678115
-0.7468226
-0.32698518
-0.095177785
-0.091654859
0.22800633
-0.11590073
-1.303193
-0.45606929
-0.075247049
-0.10929573
0.43177268
0.11244646
-0.61025596
-0.22812733
0.1175117
-0.14362948
-0.027767085
0.12704845
-0.23600087
-0.5584712
-0.012761893
-0.11770408
-0.3885771
0.27459818
0.025107363
-0.37861052
0.50623763
0.19250846
-1.1409141
0.16188303
1.1202067
0.18836325
0.2685585
0.068908602
-0.28352514
0.1417881
-0.17894064
0.087312005
0.4403072
0.27880076
-1.3338294
0.27306506
1.6087869
0.28853366
-0.12317091
-0.076912917
0.53668123
-0.025314739
-0.3917084
0.074084334
-0.019044694
-0.031025982
-0.56821674
-0.23846459
-0.050256431
-0.14339198
-0.39708558
-0.32876438
0.057674594
0.21673052
-0.73821461
-0.32242009
-0.020598145
-0.048630234
0.40277648
-0.041308779
-0.74006498
-0.40186068
-0.17581081
-0.25102571
0.091406614
0.024745898
-0.89887911
-0.28446943
0.012733179
-0.1131136
0.36509931
0.073348999
-0.70741838
-0.31886667
0.19791359
-0.10275334
-0.27058324
0.28848177
-0.17687292
-0.1729923
0.2755599
0.073875122
-0.71662742
0.28629485
0.40566489
-0.067110106
0.11563399
-0.079605743
-0.33534983
0.24155366
-0.10116175
-0.12083108
0.34741211
0.17548934
-1.2442381
0.24399184
0.36673835
0.12735492
-0.055063058
-0.16545384
0.29741135
0.035581313
-0.10755236
-0.096496433
-0.092831448
-0.055327408
-0.56217384
0.11210772
0.27201939
0.0026796234
-0.18312974
-0.16818857
-0.21682674
0.045749098
-0.65222245
-0.2195147
-0.22138782
-0.15227793
0.04250234
-0.013349229
-0.48803762
-0.16981693
-0.12155087
-0.12190805
0.032530092
0.014727198
-0.35498026
-0.29032058
-0.10813119
-0.17491114
0.42076188
0.0054347022
-0.90121824
-0.27222392
0.034007564
-0.10158992
0.27436101
0.23820619
-0.45373902
-0.3182691
0.44585124
0.10825016
-0.63969576
-0.034856476
0.25226265
-0.10515958
0.086495504
-0.032285083
-0.17725222
0.34299394
-0.41743794
-0.16259043
0.25279805
0.039217409
-0.78147298
0.20936273
-0.12697755
-0.19153047
-0.15661465
-0.18447016
-0.10152537
-0.038214568
-0.048826531
-0.32026374
-0.056232259
-0.135244
-0.55347627
0.16046645
0.25502184
-0.17590864
-0.3749522
-0.28277087
0.1707601
0.054946601
-0.79035044
-0.13131799
-0.19195734
-0.10256823
-0.1684145
0.066027433
-0.36266151
-0.33979273
-0.29714146
-0.15344606
-0.030452751
-0.094080396
-0.49562684
-0.2889345
-0.19917528
-0.12233672
0.28381914
0.056931227
-0.69858623
-0.29873928
-0.11758953
-0.12963903
0.028895115
0.0088326428
-0.49126396
-0.18224458
-0.0072120465
-0.089781612
-0.18163083
0.19007488
-0.28411192
-0.32467252
0.23336436
-0.11869426
-0.29614148
0.18496086
-0.54066336
-0.30318883
0.1952991
-0.11894616
-0.62450528
0.1660457
0.15187867
-0.17835529
0.045922406
-0.26600811
0.32606649
0.15398803
-0.15011264
-0.1135492
-0.018203581
-0.22372431
-0.38693923
-0.13034868
0.022697574
-0.15301956
-0.056168184
-0.20991898
0.14311467
-0.18479592
-0.42262572
-0.24765144
-0.22313815
-0.25749063
0.097586848
0.0079456605
-0.37900862
-0.24348815
-0.15935203
-0.19276848
0.061225861
-0.2131936
-0.058627795
-0.068596937
-0.21287805
-0.21436477
0.18876611
0.084464289
-0.037236046
-0.15961018
-0.02609898
-0.12165887
0.14950521
0.14276384
-0.30820426
-0.12575905
0.02515075
-0.11188417
0.087399714
0.1005224
-0.30124965
-0.25516707
0.044192746
-0.15402836
0.042021353
-0.089420505
-0.43185464
-0.27127624
0.001243926
0.018867411
0.23887247
0.14938654
-0.058260832
-0.21608797
0.051968656
-0.16993088
-0.17476262
-0.58077866
-0.87381047
-0.97130227
-1.0966552
0.99778724
0.8671245
1.2293109
-0.065037936
0.054592174
0.058029
-0.031948008
0.10200585
0.094042569
-0.10680938
0.036538377
-0.0065924819
-0.031139405
0.1369333
0.031944938
0.00074765144
0.091769196
0.035943687
0.19517742
-0.051218711
-0.033453818
-0.074334502
-0.041124385
-1.0692339
-0.12356959
0.39794546
-1.0187895
-0.27431333
-0.23204161
-0.43276182
1.0356047
-0.28742409
-0.1791122
-0.014732739
0.099925064
-0.22764216
-0.24514969
-0.1099254
-0.23163088
-1.1032876
-0.099645562
0.072813541
0.20509499
0.76951987
0.078298889
-0.50511003
-0.12160624
-0.1350673
-0.14161755
-0.11084738
-0.46988985
0.24020532
1.0173583
-1.0055236
0.24339056
-0.36243004
1.0229293
-0.44413319
0.38300145
-0.09355399
0.19217728
-0.029768283
-0.38805988
-0.29453033
-0.14004876
-0.55441302
-0.46020022
-0.059978087
0.47177279
0.49791166
0.45233598
0.24996175
-0.40402061
-0.23977968
-0.21782771
-0.020236293
-0.015339557
-0.10554583
0.074522518
0.52477723
-0.48124489
-0.45033392
-0.13515773
0.1288268
-0.29408807
-0.00035274171
0.35070267
0.33339593
-0.058164038
-0.58387876
-0.044918887
-0.31834057
-0.49071509
-0.24938071
0.26940733
0.43346345
-0.16371396
0.46941057
0.030356243
-0.24025406
0.053101406
-0.30773407
-0.060045484
-0.1391712
-0.29218319
0.023679825
0.69075763
0.075619958
-0.92161351
0.08684852
-0.21747072
-0.42747051
-0.37351835
-0.34216157
-0.068006411
0.29650348
-0.055092782
-0.30288544
-0.37158296
-0.11599702
-0.51790631
-0.29028362
0.95709783
0.29522401
0.1753962
-0.068947867
-0.17323749
-0.060287956
-0.071018368
0.33221823
-0.18236242
-0.35374355
0.22569391
0.81516069
0.077372216
-1.1205461
0.5206207
-0.10151691
-0.60290271
-0.69774061
-0.17926775
-0.19110431
0.42803493
0.36799482
-0.37372819
-0.58157295
-0.72539878
-0.41868857
0.23021813
0.92424971
0.081773952
0.29086441
-0.21965063
0.1460727
-0.50499254
0.035612531
0.5230602
-0.28216404
-0.3349036
0.36621287
0.66967696
0.035620246
-1.1985273
0.96900302
-0.6190027
-1.0808237
-0.80504459
0.2087947
-0.29184502
0.59692091
0.3608788
-0.013923042
-0.56815445
-0.62257534
0.66791022
0.15422544
0.68548089
-0.14920866
-0.26437795
-0.28704605
-0.16111937
-0.5068025
-0.23778212
0.47389272
-0.50990462
-0.093535818
0.56248224
0.057967253
-0.54398686
-1.3234442
1.6196728
-1.3626622
-0.82364082
-0.63261914
0.56885612
-0.30532321
0.32983747
0.359804
-0.44987959
-0.32636127
-0.5682556
0.34889564
0.4512898
0.80011743
-0.21604154
-0.61669046
-0.28101808
-0.24329165
-0.35600761
-0.03921736
0.33720058
-0.36313999
-0.41620973
0.98507237
-0.20300016
0.037848771
-1.1548898
0.64188349
-1.8040791
-0.60598075
-0.37248501
0.66175669
0.035477236
0.33669642
0.49641085
-0.022268727
-0.41825172
-0.28525266
0.56537789
0.1688184
0.69635755
-0.5598101
-0.39649227
-0.43113792
-0.52769113
-1.016886
0.29558361
0.28656113
-0.55550522
-0.46491867
0.78406966
-0.25083399
-0.29426149
-0.69624865
0.12521747
-2.1522911
-1.0850409
0.0053454773
-0.23251349
-0.14574301
0.20113146
0.55997938
0.07242959
0.095990874
-0.62475526
0.28100312
0.37241787
0.37072691
-0.31953579
-0.69061989
-0.30164406
-0.25058252
-0.22392254
0.61307734
-0.29419202
-0.073477335
-0.23149852
0.42868713
-0.23519139
0.069977671
-0.70318127
-0.29715711
-0.60093921
0.27706036
0.017160486
0.072542012
-0.06152172
0.46701223
-0.099283762
-0.031143546
-0.048429459
-0.47233674
0.12231281
0.69659239
-0.1541
-0.32516962
0.0084011285
-0.1202194
-0.28122059
-0.22842093
0.32763529
-0.24881713
0.10756233
-0.094882123
-0.28101346
-0.21816072
0.15573835
-0.20173344
-1.0251269
-0.63311422
0.35040593
0.0063562011
0.12028299
-0.24689132
0.24239267
0.34655952
0.078519046
-0.15359665
-0.14051679
-0.097561501
-0.058674667
0.074809574
-0.19179122
-0.22824727
-0.15018812
0.049678158
-0.22758643
0.41377026
-0.083557628
0.11454041
-0.12306606
-0.274398
-0.25486481
0.02789682
-0.25264695
-0.8734051
-0.64700741
0.095657609
-0.0085810497
0.14739083
-0.21258993
0.18381603
0.13609239
0.11689445
0.2473097
-0.014594847
-0.45919636
-0.12762785
0.052183293
-0.24333201
-0.23910487
-0.066260107
0.19814675
-0.41029465
0.31669116
-0.081027001
-0.067535453
0.048135381
-0.39136767
0.0082144104
-0.50316632
-0.11766369
-0.43529651
-0.90564996
0.20305981
-0.025969038
0.1158996
0.041669257
-0.11042471
-0.046742614
0.076563247
0.33727202
0.13609274
-0.61680359
-0.32105604
0.17637736
-0.17846952
-0.32027933
-0.054417778
-0.13383207
-0.18552114
-0.027862856
0.14241011
-0.14032313
0.11345362
0.062937625
0.11710378
-0.70013094
-0.17149213
-0.38226196
-0.42612562
-0.19284937
-0.01104613
-0.057098173
0.081823468
0.037708201
0.20797786
0.023106391
-0.17446518
-0.36280906
-0.1172545
-0.46984303
0.49668589
-0.41814882
0.0069254492
0.0084818322
0.0097978078
-0.27049798
0.10187986
0.11119453
-0.097951904
0.013262207
0.061723653
-0.055926774
-0.23911431
-0.120607
-0.93118358
-0.88561118
0.15399063
-0.0092650866
0.041585021
0.00374609
-0.17805794
0.40849459
-0.29127294
-0.18712305
0.18087986
0.061244488
-0.21593463
0.28918484
-0.48572567
-0.13796693
-0.092987128
-0.053814612
0.026869603
-0.068078153
-0.19037248
-0.17466502
0.11138404
-0.15370192
0.19556536
0.02407857
0.69579124
-1.8545178
-0.091413394
-0.35829595
-0.019238001
0.063168541
0.13227201
0.033904757
-0.45066199
-0.26378354
-0.012789733
-0.071150698
-0.21405643
0.14107144
0.21556436
0.34630933
-0.10828638
-0.042076115
-0.21319999
0.21233146
-0.22293958
-0.10905757
-0.012383766
-0.56316656
0.12356175
-0.0082641207
-0.76531595
0.53802943
-0.46360889
0.4050526
-0.35639608
0.049738448
0.013172901
0.088246025
0.24821889
-0.19134235
-0.16522425
-0.16011621
-0.37232369
-0.15295082
-0.033116054
0.59752911
-0.068672106
0.089489639
-0.22215554
-0.51126134
0.31480753
-0.19927068
-0.29290563
-0.061626423
-0.4391565
0.84662789
-0.028746167
-0.40912712
-0.45831689
0.35380667
0.80117643
-0.034056708
0.042385004
-0.32937548
-0.16123936
-0.048257805
0.22836439
-0.18576361
-0.22077918
0.035777044
-0.34259444
-0.13689579
1.0069994
-0.17254074
0.17136225
-0.25694242
-0.6584239
0.0025864206
0.012868597
0.035439074
-0.102264
-0.43177566
0.85454118
-0.026261616
0.73314488
-1.2643321
0.071190804
-0.16191255
0.094053239
-0.0064287116
-0.22788729
0.19688144
0.32625926
-0.1756264
-0.28396794
-0.23252845
0.14639743
-0.16306755
0.20533913
0.51987886
-0.54414386
-0.046598189
-0.39487061
-0.48674718
0.49297643
-0.24959297
-0.24579442
-0.091633528
0.17915946
0.6678412
-0.30145699
0.45406419
-1.8939098
0.68582064
-0.015772136
0.028089089
0.017034549
-0.34511352
-0.19152506
0.36275253
0.77096939
-0.069839239
-0.30974463
-0.075008482
-0.33731571
-0.11966039
1.0566647
-0.29236671
-0.21459845
-0.40194935
-0.24395348
0.10725719
-0.61541641
0.2198586
-0.49133888
-0.34532383
1.3915671
-0.32012552
0.41919655
-1.8057616
0.6087175
-0.25918493
0.43661615
0.028726351
-0.384224
-0.22802171
0.29699227
0.60811955
-0.16979629
-0.23924665
0.021900974
-0.056782115
-0.071801148
0.4119325
0.19954473
-0.047031082
-0.21894859
-0.486184
-0.24239713
-0.096408799
-0.06471213
-0.34243041
-0.0098411515
0.46297744
-0.12877679
-0.22105116
-1.6770303
1.1877301
-0.63796353
0.53009778
0.024750242
-0.019598192
0.0094094826
0.34663326
0.048817951
-0.54258567
-0.27902472
0.18576208
0.3918986
-0.68292207
0.65360355
-0.32742399
0.0057086889
-0.25901663
-0.086205363
-0.16518091
-0.2441276
0.13002633
-0.13595548
-0.037431974
0.5961116
-0.18587051
-0.73476189
-1.2997888
1.3939574
0.057453383
1.149542
0.00757408
-0.44648024
-0.2323433
0.67742687
0.096743777
0.17440856
-0.064042129
0.56571561
-0.11908899
0.1039829
0.13039266
-0.52279198
-0.030036816
0.10184357
-0.53470743
-0.82281595
-0.030279361
0.56769979
-0.30368361
-0.22019933
0.25308228
-0.0010287334
-0.17991783
-0.9704982
0.32084575
-1.2036214
-0.63801461
-0.013162013
0.24877201
-0.42842445
0.29973993
0.20900284
0.46075618
-0.25995451
0.43076888
-0.27797326
-0.55605519
0.31317678
0.13664272
-0.28837961
-0.088618845
-0.42796198
-0.57224941
0.18721783
0.33959478
-0.10772812
-0.41188842
0.058928732
0.16747299
0.50800592
-1.030176
-0.31562203
-0.14798976
0.80154592
-0.064472258
-0.18980451
-0.59952122
0.010509228
0.55876905
0.15898232
-0.23423183
0.12170528
0.1450654
-0.4647758
-0.072019532
0.023959629
-0.55269581
-0.097144067
0.070645116
0.30107623
0.1839481
-0.26360044
0.24722362
-0.26261404
-0.20850687
0.4472321
0.53718007
-0.44840714
-0.76784515
0.022283893
0.15184665
-0.064433329
0.27115509
-0.40585706
0.36772254
0.37453297
-0.0061350479
0.099001236
-0.002706053
0.34121114
-0.42285341
0.29124922
-0.12806059
-0.53549975
-0.060340263
-0.2503565
-0.18654025
-0.044160217
-0.4639464
0.37100434
-0.039219599
-0.1951682
0.0059757885
0.31883892
-0.0056455503
-1.1437998
-0.40057254
-0.016860832
0.056892887
0.16512421
-0.29456902
0.18877545
0.1104627
0.069786049
0.02894599
-0.11652941
0.2186266
-0.38442969
0.41981167
-0.19828703
-0.52163589
-0.050715283
0.25727108
-0.30441976
-0.16363564
-0.32102054
0.48856199
-0.094379634
-0.050647471
-0.15560436
-0.42516845
0.3527725
-0.6568113
-0.40491584
-0.2533108
0.01104656
-0.27555883
-0.076192833
-0.18065634
0.49037594
-0.069924705
0.18250853
0.23693611
-0.14993303
-0.1491795
0.44501197
0.17663817
-0.21182682
0.075272642
0.12927593
-0.40298453
-0.06430582
-0.61613154
0.11548943
0.075911678
-0.050300635
-0.22862455
-0.5134927
0.19115695
-0.44725898
-0.18572934
-0.29733682
-0.046283484
-0.13954423
0.13653442
0.031164566
0.46302345
-0.11795621
-0.095951386
-0.15309212
-0.25089374
-0.34204176
0.26962113
-0.04920014
-0.28821218
-0.096485324
-0.031437464
0.37684336
0.26179537
-0.163377
0.19348721
0.049882386
-0.0017486168
-0.44305143
0.17891544
0.11128198
-0.73900789
-0.31154546
-0.43191612
-0.21934703
-0.22416513
0.011245867
-0.03714079
0.71510363
-0.061452027
0.15784656
-0.56269938
-0.16114473
0.043390706
-0.11548869
0.097648934
-0.28984904
-0.074548118
0.0052865408
-0.3131038
0.24699058
-0.061814263
0.066529125
-0.18847096
0.37983894
-0.28716093
1.0901979
0.091757424
-1.6641349
-0.17779107
-0.11453309
-0.12723467
0.033699937
0.26763171
0.094588935
-0.094931364
-0.12719949
0.27141577
-0.1403268
-0.49233222
-0.39281926
0.088034876
-0.29943866
-0.0094478894
-0.040876336
-0.14760052
-0.029888498
0.18954231
-0.070903465
-0.11906268
-0.020089921
-0.27452907
0.34603575
0.12784328
-0.19736136
-1.1246455
0.066527016
-0.18663068
0.005411841
0.12016459
0.40468413
