0.0050051301
-0.016004462
0.03182821
-0.023619667
-0.026633525
-0.022313822
-0.019651502
0.037147466
-0.021538636
-0.0064252424
-0.016547183
-0.054999944
0.014430182
-0.0014698869
0.010325182
-0.005831291
0.0067441552
-0.0076401155
0.025050826
0.035787094
-0.013637759
-0.026231196
-0.0047002397
0.00092568662
-0.066477865
-0.15353948
0.026111677
-0.022159511
-0.0079820184
0.01881092
0.046983391
-0.029300964
0.031322118
0.007084074
-0.026910895
-0.018518873
-0.030121224
-0.0062579396
-0.038665656
-0.010404403
-0.0050866553
0.00065012078
0.00045189614
0.026964242
0.024788195
0.027802953
-0.0164178
0.031811669
-0.032156017
-0.020896332
-0.0013029766
-0.062289272
-0.12404614
-0.028854139
0.020678774
-0.015761105
0.0040992885
0.020213841
-0.0020636576
-0.016622398
-0.0017684238
0.015501083
-0.0096007977
-0.024695974
-0.021118673
0.0019805026
0.00036129571
-0.014836757
-0.026230624
0.029420994
0.025873831
0.00081289967
-0.033952866
-0.061035719
0.00066331023
-0.0088862246
-0.017463326
0.030820603
0.014526201
-0.085229903
-0.060131744
0.0023438577
0.015018173
0.0050859177
-0.016388714
0.0058682314
0.023696173
-0.042165678
-0.019600218
-0.0013629694
0.0057759741
-0.016202847
0.033661589
0.0010295825
-0.00139474
-0.023300676
0.038510554
-0.020841187
0.0010181753
0.042049605
-0.001047698
-0.010854321
-0.062923506
0.032124549
-0.0003178012
-0.085156605
-0.091815628
0.002418787
-0.03287651
-0.014830041
-0.019524852
-0.034637507
0.025943195
0.023389872
-0.01125855
0.0118266
-0.0051004677
0.023067553
0.04855426
-0.028830772
0.01821525
0.035070259
-0.019312164
-0.011884223
0.0020350919
0.016066087
-0.025183784
-0.0065771351
0.010902863
0.023953894
0.0038648956
-0.068288676
-0.071985818
-0.098172791
-0.00851434
0.017567929
0.017163036
-0.01656637
-0.014695936
0.017926047
0.013458359
0.011787027
0.01748128
0.00027592236
0.035058431
-0.0091463001
-0.0028080586
0.0061404775
0.0055334205
0.015840879
0.033330925
0.014591393
0.038517956
-0.022990907
-0.02058821
-0.021846183
0.044012453
0.029291125
-0.10335648
0.01645945
-0.096843153
0.0091042463
-0.0020391177
-0.029996362
0.034873884
0.017266857
0.018958047
0.0021393178
-0.035913948
0.016984548
-0.0074923346
-0.034442343
-0.024935184
-0.051384676
0.0057360623
0.019985709
0.032072879
0.054726992
0.014016129
0.0071669668
0.0045525506
-0.01736401
0.0029951097
0.11811299
0.050617993
-0.20002957
-0.0065187993
-0.055681147
0.025151707
-0.0075973608
0.015632519
0.016779967
-0.017575944
0.026252909
-0.015758041
0.0012215539
0.015558214
0.0091078291
-0.047649223
-0.068482354
0.036793862
-0.022216054
-0.004754581
0.019895313
0.0063248808
0.018998625
-0.029921358
-0.024084711
-0.025360737
0.030804239
0.13326055
0.057449795
-0.18961835
-0.0018408783
-0.079136588
0.0017127235
-0.0056674471
-0.03135993
-0.027034089
-0.002521802
0.031597134
0.00040286643
-0.028453631
-0.058762714
-0.018741475
-0.03271069
0.018079633
0.037010994
0.031811744
-0.027575606
-0.022796704
0.0242838
-0.0072216047
-0.0031532987
0.0081030009
0.02710118
0.0082139913
0.036537159
0.037948281
-0.18974875
0.014515386
-0.071666755
0.007735929
0.030359456
-0.032442354
0.017477257
-0.010659183
0.016074743
-0.036307059
-0.017901737
0.068077147
-0.0089316899
-0.0047137747
-0.025514701
0.02291674
0.020483427
0.0074581071
-0.017117523
0.017061865
0.0039747991
-0.029539216
0.017202642
-0.0040623588
0.025317369
0.039775699
0.016615139
-0.094796456
0.023108277
-0.044362951
0.019337406
-0.0093919868
-0.01504402
0.014907373
-0.010323315
0.003856983
-0.035528064
-0.013739484
0.04516533
0.030730154
0.0054102149
-0.030098265
-0.0012689817
-0.0054919734
-0.008721889
0.054136511
-0.0083198939
0.002136579
0.012251163
-0.020689677
-0.023632072
-0.00029757555
0.047328357
0.0056889039
-0.072012208
-0.0015005013
0.0079853209
-0.0097556571
0.009015956
-0.018820208
0.010845593
-0.052730139
0.01513451
-0.034317341
0.030275201
0.018039444
0.010833877
-0.018606165
0.0083854841
-0.010226144
-0.034451738
-0.013345666
0.019239958
-0.0029162006
0.022171039
-0.016232671
-0.006845199
-0.00089583604
0.058395199
0.020419747
0.0046262937
-0.075705864
-0.033740912
-0.053425711
0.013673309
-0.010386422
-0.0076622316
-0.0023742341
-0.015514454
0.0070541357
-0.011408524
0.0010599651
0.035184469
0.0043852995
-0.025886711
-0.0069772443
-0.021226913
-0.0048989267
0.015460799
-0.0078494707
-0.003051104
0.0071587106
-0.001557406
0.028146142
-0.037606794
0.014101299
0.025279509
-0.0021146934
-0.064480804
0.033824652
-0.047750376
-0.011715895
0.020409405
-0.0093499739
-0.0082360152
-0.036087677
0.010836521
-0.01807173
0.014476862
0.0015147763
-0.032165486
-0.035064083
0.0022327409
-0.040690638
0.027979923
-0.0088903224
0.0069556874
-0.01990412
0.02011954
0.0076540778
-0.020071674
0.0045324727
-0.0029567911
0.04439069
-0.028160186
-0.02846011
-0.0096203471
-0.01006237
0.0046924162
-0.032031652
-0.012749455
-1.9853604e-05
0.014913833
0.032674082
0.0048945495
0.0033903618
-0.031934805
0.0043815761
-0.016615897
0.022435693
-0.003363278
0.0034608864
-0.0031925933
0.0022009069
-0.0041098967
-0.029050367
-0.015706083
-0.031191435
-0.008368453
0.038673624
0.074933127
-0.02631689
-0.039418429
-0.066142693
-0.046370279
-0.022635365
-0.013897266
-0.017390804
-0.016248781
-0.01340225
0.044124946
-0.028944848
-0.033385843
0.01330999
-0.016617807
-0.0092248004
-0.0060787941
-0.015158596
0.0024799851
0.012944127
0.0037272968
-0.031143924
-0.0089729214
0.027845148
-0.0076429457
0.0064596361
-0.044678167
-0.048470404
0.058515541
-0.05923583
-0.072869837
-0.02656462
0.013374337
0.037524138
-0.013067525
-0.021006238
-0.031353138
-0.013204009
0.0087484363
-0.030005673
-0.014656814
-0.028393354
-0.0042595142
0.0018121973
-0.0052360552
-0.0073802625
-0.0082791736
0.010350263
0.024684213
0.014565239
-0.0029653772
-0.018284233
0.025569327
-0.0082266368
-0.020007139
0.063729405
-0.067049779
0.0049537588
-0.031395461
0.0035431636
0.011943492
0.021831641
0.01521011
-0.030485312
0.016016264
0.0070979088
-0.010350236
0.027679948
-0.016826238
-0.0093326811
-0.018038014
-0.019792043
-0.02793443
0.0082082152
-0.013825766
-0.020904867
0.045163628
0.016652396
0.039266307
0.026996884
-0.017662384
0.0068716579
0.0061967177
-0.097062834
-0.057503846
0.017965404
-0.017543221
0.010208134
-0.015841987
0.022827238
-0.016066119
0.01985375
-0.0088111227
-0.033687517
0.067041166
0.015062867
-0.0262384
0.016242659
-0.035131384
0.00245017
-0.015815791
-0.01630811
0.024739524
-0.025524221
0.029483266
-0.017216731
-0.033107556
0.019096768
-0.008591231
-0.034771781
-0.030461969
-0.084050775
-0.065330386
-0.029294489
0.016516669
0.011587812
0.02729255
0.0075443196
-0.001956691
0.0098288869
0.0056676581
-0.039632436
0.0012814706
-0.022682881
-0.045665048
-0.034424309
-0.0069092852
-0.025364457
0.044026472
0.033233352
-0.028626863
0.026825739
-0.0012888069
0.024730686
0.0043026893
0.036868565
-0.10080986
-0.027598036
-0.058668889
-0.11553603
0.020252835
0.060051572
-0.015648523
0.014826503
0.0030831844
0.0070910328
-0.0055984454
0.013845145
-0.021755345
0.022010827
-0.02918121
-0.0078790328
-0.047006905
-2.3634382e-05
-0.026105305
0.0054934439
0.031241301
0.032984518
0.0065045487
0.010138759
-0.0081119966
0.018407198
0.087930314
-0.099906169
-0.056640949
-0.017070208
-0.030617816
0.005751906
0.034430571
-0.0046584345
0.0024963375
0.026295215
0.012365115
-0.035204373
-0.03867672
-0.090387277
-0.008588043
0.019451316
0.062991865
-0.003301458
0.019948306
-0.0033676231
0.046750959
0.051918969
0.032036975
0.017408466
-0.035455912
0.002331729
0.013960429
0.13496426
-0.086544432
-0.10191764
-0.056760091
-0.053107604
0.015480373
-0.03349204
0.015951106
-0.020215828
0.079857618
0.026478205
0.026099877
0.0001501393
0.091659822
-0.026153635
-0.037070677
0.035395741
0.0042257877
2.9660448e-05
0.019769877
0.028133215
-0.025861781
-0.040109035
0.011878773
0.013894373
-0.1001932
-0.0017671072
0.16748366
-0.077720381
-0.15265223
0.04774582
-0.035854179
-0.017480353
0.0082797771
-0.052540082
0.026757438
-0.044108953
-0.0046193898
-0.002575231
-0.053242594
0.01602155
-0.0059305765
-0.03397667
-0.012097356
0.015756538
0.015022724
-0.0094207712
0.028463077
0.0012632653
0.015734248
-0.0035699303
0.014629009
0.021030571
0.016762523
0.11305539
-0.034808226
-0.094435245
-0.019992046
0.0060447254
-0.020084107
-0.030717963
0.0084281415
0.0037564049
0.014945555
0.030836778
0.0024410177
-0.040947773
0.038988363
0.022935238
0.031235052
0.019175924
-0.021069264
-0.028679691
-0.0092168171
0.041782528
-0.0082235951
-0.041102685
-0.020983795
0.0058907964
0.0015574693
-0.020000685
0.029095037
-0.075117648
-0.072508819
-0.010606699
-0.086612858
-0.027906297
0.0059267515
0.01119774
-0.030714042
-0.034359366
-0.024906764
-0.0087843779
-0.055646341
0.039530188
0.00082528725
0.022729661
-0.012211182
0.0089412527
0.029716736
0.050269112
0.00038212497
0.014557878
0.0052234805
0.0042230557
0.040776044
0.030563086
-0.025270466
-0.057637956
-0.04812935
0.044882774
-0.10492142
-0.041337639
0.013283015
0.010232035
0.015709333
0.00015968508
0.020839548
-0.012650594
-0.0032852299
0.0043612528
-0.05398174
0.016654719
-0.0074348664
0.0068768053
-0.0061543337
-0.032121837
0.016456949
0.048762001
-0.006069202
-0.018603651
-0.0089413365
-0.0040534618
0.009052421
-0.015026002
-0.019287907
-0.072058752
0.044174109
-0.095476031
-0.082591392
-0.013612198
0.013555584
-0.0013377626
-0.015345014
0.017884864
-0.025728486
0.024798898
-0.017104525
-0.011164646
-0.0021324125
0.018696608
0.026060026
-0.0038594413
0.0081221461
-0.012485422
-0.026523693
-0.016017325
0.0074751335
0.0035971056
0.015525599
0.02777599
-0.028979415
0.0047061075
-0.056999665
-0.024306186
-0.068229951
-0.026316071
-0.021968529
0.030073492
-0.035266336
0.052989472
-0.04519631
-0.01091278
0.0015510008
-0.039646652
0.079405993
-0.042944334
-0.003345533
0.0070300549
-0.031160707
-0.0019465437
-0.0020497327
0.028490055
-0.0062945569
0.018241972
-0.021784266
-0.042840488
0.0039889966
-0.031727675
0.031099547
-0.0091536213
-0.048107442
-0.082483612
-0.044823069
-0.0041201897
-7.6798788e-05
-0.03003387
0.020917105
0.042760249
0.043391842
0.011560157
0.025201812
-0.001890138
0.027061114
0.0063366913
0.0031618145
0.03089468
0.0058170971
0.033901155
-0.03044454
-0.0090293996
-0.028096166
-0.0073831701
0.010061125
0.0053081568
-0.022612181
0.033425417
0.02617323
-0.043723062
-0.05935815
-0.066852406
-0.047416467
0.0044174055
-0.020017348
-0.036016345
0.016342307
0.011447275
-0.027793432
0.0063625881
0.0073256711
-0.027040226
-0.018091135
-0.013605654
-0.027074013
0.0026138192
0.053696491
0.035308674
-0.0062839547
-0.011021582
0.0045297523
0.027881514
-0.040524412
0.0051648933
0.0035656397
0.036386196
-0.09324047
-0.045392957
-0.0030160081
-0.023555905
0.028568612
-0.016571365
-0.0045531713
0.030632842
0.023963181
0.011171061
0.015738843
0.0087281475
-0.018225843
0.019517612
-0.036770616
0.0030692678
0.028664753
0.022526354
0.0016600385
-0.008706741
-0.027227694
-0.003253333
0.031023253
-0.0046591591
-0.0039667091
0.046337198
-0.0016264737
-0.12165073
-0.067745507
-0.068593234
-0.025412489
0.046617426
-0.021023756
0.020307876
0.010954128
-0.010812387
-0.0099895811
-0.034982789
0.012636723
0.0011249285
0.021253584
0.04784745
-0.027395342
-0.0122314
-0.0047710896
0.0040057935
0.0001536012
0.028354781
-0.0013225336
0.0078252805
0.0110673
-0.0049500647
0.057915136
0.022419142
-0.094837941
-0.0048301197
-0.069350086
-0.021559134
0.061091829
-0.023114543
0.02507012
0.019021992
-0.0097750891
-0.020733293
0.029760705
0.041885007
0.0026876992
-0.026774267
-0.053691644
-0.0032489726
-0.035823431
-0.060426399
0.0011112345
-0.011371226
-0.003777378
0.0083296001
0.0098159062
0.002618185
-0.017258435
0.023320818
-0.025667507
-0.10231631
-0.050590571
-0.069383509
-0.026270082
0.017326068
0.023734681
-0.016339192
0.016824665
0.037931029
0.00084443553
-0.006445162
0.03476081
0.0018124027
0.01702624
0.010185513
0.0090896804
-0.011703672
0.014310377
-0.010467875
0.026664369
-0.033777479
-0.008015452
0.010496866
-0.031046389
0.0054504159
0.013472618
0.0016337545
-0.064416811
-0.065832406
-0.018488286
0.014205614
-0.0072549656
-0.0080724042
0.013860556
-0.028225655
0.010095273
0.0097413436
-0.0098128663
-0.027346089
0.018466495
-0.0022071996
0.0041743917
0.0030458018
0.014113296
0.026679838
-0.014756233
-0.032262497
-0.03043166
-0.025457852
0.042882673
-0.027213652
-0.039280713
-0.0611923
0.0021139986
-0.0091106845
-0.08123491
-0.073066942
0.017062275
0.024822798
-0.0036841007
-0.0033922587
-0.014585847
0.039333768
-0.016969133
-0.020921534
0.015985958
0.025088163
-0.043508701
-0.041959725
-0.012177777
-0.00073944981
0.0098617896
-0.022887498
-0.031490654
-0.016634816
-0.014787112
-0.017059591
-0.016118789
0.0078109368
-0.080029555
-0.015971484
0.0014988807
-0.076130666
-0.078119397
0.026832838
0.028709903
0.023071272
-0.030608583
-0.023210842
-0.0011839712
0.010932948
-0.00070346985
-0.016882315
0.0083809886
-0.015538036
-0.015692631
-0.022169722
-0.025313584
-0.0082622292
0.00042039115
0.00076675689
-0.0085555604
0.02980178
0.020386975
-0.022269912
-0.010551318
-0.0074218283
-0.010188789
-0.018084724
-0.033214953
-0.04153828
0.0171795
0.015460212
-0.0095808832
-0.00074546027
-0.001195804
-0.015592058
-0.016278284
-0.019893758
0.027552729
0.016137496
0.0069490983
-0.021232517
0.024420824
0.0096580079
0.0056048688
-0.016504211
-0.010692647
-0.0078764362
-0.048952319
0.017591609
0.021932712
-0.0042646881
-0.019525604
0.010231636
-0.035796795
0.010938054
-0.026819257
0.010899815
-0.04502628
0.0073036673
-0.020460362
0.045234673
0.02495601
0.018227024
-0.019966554
0.0056562577
0.0079386458
0.0063540773
0.0090516871
0.0074020489
-0.01031038
-0.017934218
0.004998642
-0.0071447343
-0.028126543
-0.041434214
0.0041556344
-0.012211874
0.042301361
0.049786195
0.032865174
-0.070776403
0.010475891
-0.02003146
-0.012525453
-0.030830091
0.030060526
0.017324291
-0.02908241
-0.0089782532
0.030394742
-0.013653667
0.033741195
0.0083637908
0.0047924905
-0.032601681
-0.02650217
0.0023627977
-0.01126095
0.0033607413
-0.022448612
-0.022830373
-0.017482489
0.020785885
0.0092166997
0.019912219
0.054442286
-0.021459663
-0.036653329
0.0080190664
-0.069217339
0.005702442
-0.0077567273
0.004664605
-0.025238315
0.12047049
0.050247852
-0.014238087
-0.019469976
-0.025443062
-0.040596139
0.00017005501
-0.027157892
-0.0049679698
-0.042095926
-0.016632695
0.0048117409
0.022940418
-0.012664612
-0.0036241703
0.0039615789
0.020022556
0.0093663223
0.16520895
0.063030496
0.052402638
-0.014660684
0.012456765
-0.019697862
0.12032802
-0.0096218726
0.0063829743
-0.0014596198
0.019574806
0.035831347
0.13736945
0.022864778
0.047462698
-0.00097443623
-0.024107302
0.040433593
-0.046434481
-0.085701436
-0.017693793
0.0024810713
0.013901864
0.010016791
-0.23154986
0.0056875809
-0.01573123
-0.036390319
0.0076010278
0.013641811
-0.30616054
-0.055301145
-0.0036155854
-0.045477726
0.017445201
-0.010748875
-0.19433042
-0.01295598
0.0058003617
0.015723869
-0.0029976992
0.021816894
0.19156675
0.095429264
0.017201878
0.0045521911
-9.5004529e-05
-0.02364305
-0.10176835
-0.032937452
-0.016696168
-0.018539807
-0.037031967
0.049768962
-0.24915263
-0.13859355
-0.0072698756
-0.047667906
-0.02602076
-0.029673085
-0.22414401
-0.058905393
0.0074792355
-0.016139699
-0.0037134723
-0.012111392
-0.11490792
0.021264274
0.059467472
-0.015407726
0.040408593
-0.028846694
0.28394547
0.10315477
0.013112176
0.019515455
0.019088514
0.017006034
-0.020129871
-0.024309518
-0.00016021285
-0.0062345159
-0.021781448
-0.013293444
-0.42109179
-0.13098025
-0.010328972
-0.049165603
0.0075909202
-0.062711991
-0.074462384
-0.045045912
0.05274912
0.0079849437
0.0016326983
-0.084335893
0.32213598
0.087397017
0.022728704
-0.0039679683
-0.02772174
-0.030623235
-0.24165705
-0.117324
-0.016708408
-0.028654816
-0.017047182
-0.01609472
-0.052977718
0.028561268
0.032691251
-0.025856737
0.0025864809
-0.062985681
0.057763178
-0.05982044
0.015472055
0.0096865911
-0.0026387845
-0.063218199
0.7688275
0.15043895
0.050744247
-0.031821314
0.013733699
-0.092979953
0.21670361
0.091393381
0.010158701
-0.012324379
-0.0038807837
-0.045640267
0.6073907
0.15902372
0.07619223
0.0084328353
0.045456361
-0.035273284
0.70849115
0.16521059
0.051785693
0.039927986
0.0020290243
-0.0082001658
0.3311829
0.15700762
0.024939181
-0.015916632
-0.0040667057
-0.0060743876
-0.081533909
-0.070512503
-0.0034611344
-0.018032977
-0.013904143
-0.01079981
0.25805658
0.040805399
0.041161448
0.030774431
0.026036395
-0.11730582
0.044503335
0.012473906
0.02570571
-0.027430115
0.0083695166
-0.0081463633
0.049857356
0.015625915
-0.012182712
-0.013069332
0.027938755
-0.018401222
0.11757254
0.060735766
0.018937677
-0.016942661
-0.016104501
-0.031962242
-0.15262721
-0.048187606
0.021765294
-0.030300703
0.0041464809
-0.059271976
0.065264292
-0.027232269
-0.030659143
-0.03603198
0.014890345
-0.0014510038
-0.11200463
-0.070493512
0.021697557
0.0044720871
0.017175633
0.021891898
-0.25459173
-0.029744837
-0.013063273
-0.011046791
-0.016607976
-0.013937074
-0.14998883
-0.04987371
-0.033997234
0.0060187723
0.013835352
-0.0089397337
0.44739568
0.077369861
0.0088866465
-0.0013083294
0.036702946
-0.0017044178
0.35585454
0.062603973
0.061670214
-0.017111976
0.024694413
-0.011142794
0.29399177
0.077817395
0.025991164
0.016706623
0.034371432
-0.065066226
-0.08734604
-0.010416394
0.032269619
0.014212913
0.028101485
-0.0013376737
0.039288715
0.022087807
0.035554554
-0.029933404
-0.0093182614
-0.011003898
-0.18623331
0.026252503
0.023565719
-0.0095182573
0.024136694
-0.01178132
0.2454927
0.004668666
0.04657029
-0.025043346
0.0056403312
0.0048666773
0.046896588
-0.013210147
0.00035593516
-0.014418994
0.0039025745
0.04162351
0.15556961
0.066234887
0.035158098
-0.02022112
0.0033000312
-0.012545958
-0.097989574
0.022833535
0.006314131
0.0095058186
-0.014724264
-0.059564244
0.23828116
-0.0091597186
-0.0040838099
0.0070871995
-0.016009536
-0.0054139234
-0.26466748
-0.034189221
0.0059536723
-0.0017259287
-0.023224195
-0.01280513
0.433265
0.013575099
0.013771187
0.0093428819
-0.0022970533
-0.017549381
0.58663481
0.20393974
0.035756532
-0.020222431
-0.026487131
-0.06963633
0.064884424
0.079415552
-0.023228597
-0.032400202
-0.019173054
-0.05180382
-0.048158467
-0.035172258
-0.012073161
-0.022570128
0.029443093
0.016354127
-0.021400351
-0.042131815
5.3250977e-05
0.010017788
-0.0086964387
-0.028837724
-0.073327377
-0.028389955
0.017587354
0.015112489
0.036985662
0.044909816
0.033209149
-0.015007156
0.0075076786
-0.023905642
0.0051000323
0.00536309
0.075355887
-0.095671996
-0.0085497033
0.026620297
0.0058090491
0.017046159
0.16646513
0.00069935026
0.0075427108
0.0040730205
-0.011804034
-0.03795249
0.16793928
-0.0060417936
0.011058771
-0.0089085037
-0.040158719
0.11733705
-0.8215571
-0.39869344
-0.10601412
0.010307795
-0.00034022698
0.071960829
-0.18089122
-0.083108477
-0.0063805776
-0.028837368
-0.0011020115
-0.062819853
0.63654912
0.15560254
0.042570867
0.037043054
0.016521504
-0.0012329395
0.25327978
0.11055493
-0.0088783521
0.015886385
-0.0083262529
-0.0026036913
0.24953979
0.13384967
0.055474333
-0.013843748
-0.020317907
-0.041505236
0.2803776
0.078580379
0.057358854
0.011832695
-0.023594465
-0.026708407
0.10701728
0.013259239
0.017573595
-0.049367677
-0.0040234374
-0.019719146
0.13515428
0.023440976
-0.014945354
-0.010820972
-0.010383453
0.021832801
0.04916469
-0.042295139
-4.482178e-05
-0.010263703
-0.0059017162
-0.010862143
-0.17761828
-0.078926176
-0.014851828
-0.0045998488
0.0056153699
-0.064999893
-0.089310579
0.04143187
0.0067559914
0.017188817
-0.0097740963
0.019214798
-0.16873586
-0.070324942
-0.033653434
0.047021795
0.031595614
0.0023760183
0.083404198
0.035672165
-0.0027950334
-0.017132772
-0.0090479217
0.012528755
0.41094288
0.089790121
-0.003186278
0.022042401
0.020969186
-0.043602753
0.34603864
0.15979543
0.040292781
-0.025777461
-0.0090496428
-0.053895283
-0.065051563
-0.014410827
0.010060282
-0.016802156
-0.00054598588
-0.024123698
0.14624588
0.031311765
0.0093508791
-0.037700489
-0.023161864
0.033976581
-0.10217074
-0.18786103
0.010823159
-0.050515067
-0.014789282
0.0081160413
0.1096912
-0.10451877
-0.005900681
-0.0047050803
0.0063514831
0.077481411
-0.3477917
-0.057422552
0.0088872956
0.014121629
0.020546345
-0.0004259907
0.064928517
-0.083518818
-0.026706887
0.0040242891
0.0027020562
-0.028145019
-0.26524577
-0.15358746
0.017065808
-0.012404594
-0.013459016
0.11523852
-0.23198074
-0.19811678
-0.02262954
0.00070083659
-0.0096562421
0.1192999
-0.23515157
-0.15418309
-0.031770315
-0.025077123
0.016887143
0.077263951
0.2915208
0.078164093
0.022067586
0.011377851
-0.0079907896
0.035614695
-0.17138422
0.049107239
0.029988367
-0.037601367
-0.01341074
0.01132234
0.25858712
0.11048829
0.047979407
-0.021628644
0.016496236
0.042339168
0.03787661
-0.036465108
0.029133232
0.012390453
-0.020402241
-0.040040243
0.030297589
-0.041202236
-0.0013790561
-0.023939822
-0.045553338
0.019260643
0.056868013
-0.15965626
0.010231436
0.018825643
0.018258808
-0.022733716
-0.20117617
-0.0095377276
0.020481078
-0.0052756383
-0.039690688
-0.011169616
0.17586584
-0.057276037
-0.00015623777
0.028994612
-0.032941349
-0.015308239
-0.066781461
-0.042412002
0.024133593
0.024344528
0.0058245356
0.03390944
-0.2718142
-0.1698387
-0.028358744
0.015361022
-0.00910189
-0.043687031
-0.27918816
-0.032501657
-0.037059441
-0.022127153
-0.0061687138
-0.0074277362
0.013701951
-0.019173581
0.015809957
-0.014020665
-0.03314193
-0.090955719
-0.1302322
0.029378114
0.016127391
0.014992171
0.0046266764
0.013162238
-0.021128101
0.0069054044
-0.003352988
-0.0017536487
0.02445502
0.040943101
0.16276242
0.042098422
0.012253904
-0.024309352
-0.0089120241
-0.07006117
0.14723386
-0.075803883
0.023004783
-0.045219045
-0.038490992
-0.05166617
-0.071181364
-0.12656237
-0.020509211
-0.036919575
-0.00089966098
-0.047185548
-0.18362476
-0.06474176
-0.047846865
-0.04088936
0.0039679669
-0.0081356466
-0.021654198
-0.047582954
-0.0069789658
-0.035163742
-0.045638461
-0.094276167
-0.12847131
-0.11661325
0.0025694526
-0.019245906
0.011274271
0.011856942
-0.28956005
-0.21095283
0.037171338
-0.021609109
0.0032829803
-0.026412809
0.10100348
0.0046347277
0.022552196
-0.027889183
-0.014741091
-0.013420501
-0.008787103
0.0040381695
0.0053998292
-0.017796047
0.0012907293
-0.063656464
-0.24621144
-0.060005091
0.0061911824
-0.019296354
0.011828475
-0.048438702
0.033483375
-0.029856367
0.041667555
-0.044267863
0.014818483
-0.011790591
0.15459724
-0.073479086
0.022793829
0.013195485
-0.024639435
-0.060247008
0.054666135
-0.066505611
0.0076400153
-0.023676485
0.015453263
-0.019901896
-0.18092899
-0.087340087
0.013066328
0.0051540006
0.019404158
0.020298105
-0.15631494
-0.07775569
0.010546836
0.010115027
-0.0090325242
0.053789712
-0.099459633
-0.15607519
0.00375586
0.0014270791
-0.005409101
-0.0047960021
0.33302906
-0.032960139
0.027929101
-0.00077044376
0.020945566
0.040171605
-0.031291008
-0.043648839
-0.0063531855
0.0016571748
0.028550619
0.052185949
0.17914943
-0.016495494
-0.0010543249
-0.043578628
0.018470814
0.047552787
-0.16829614
-0.078398459
0.040797554
-0.031422451
-0.039592173
-0.016506484
-0.28043261
-0.1657314
0.0081289932
-0.018583838
0.013747541
-0.0096910056
-0.0945393
-0.12202167
-0.015512962
0.0067643709
-0.0052403002
-0.0053123534
-0.11583577
-0.059715748
0.029322116
0.0063749412
-0.024649497
-0.0045254398
-0.0063060215
-0.016983895
-0.050636314
0.0023187266
-0.023832401
-0.001093429
-0.0068993894
0.012474665
0.040358305
0.066779882
-0.055527456
-0.0073182611
0.053843077
0.0037669751
-0.030503573
-0.0021284146
-0.028706353
-0.02164703
0.0053078192
-0.020503918
0.030796975
0.024860615
-0.028332246
-0.01589451
-0.015466888
0.0045505217
-0.01037146
-0.01568679
-0.012017926
0.027623979
-0.022611888
0.0070528276
0.014709601
-0.0086405827
-0.029776648
0.0083830878
-0.0045148842
0.0049322578
-0.46363926
-0.23990299
-0.21794507
-0.04961358
0.096378773
0.0911908
0.13590451
0.12687051
-0.060134027
0.0087290648
0.042415582
0.13868669
0.14088359
0.027676152
-0.075147226
-0.035582963
-0.024942728
-0.097815186
-0.018483143
0.068770453
0.026123831
0.086283572
-0.051333588
-0.050369032
-0.30407032
-0.11208834
0.4356721
0.055395547
0.16971995
-0.10028797
-0.68294728
0.17887375
0.12052519
0.097810894
0.051359095
-0.067034885
-0.066916049
0.080629095
0.033277493
-0.012542378
-0.0063796095
0.024475409
0.066492915
-0.031403102
0.070105031
0.048335776
-0.092851289
-0.054781593
-0.018127648
0.095454589
-0.093982495
-0.21868996
0.054186542
0.18813528
0.0063094636
-0.063452728
-0.2123048
-0.46051881
0.21032941
0.044576999
0.14041109
0.28350255
-0.017367641
-0.05712058
-0.11869921
-0.012369459
-0.053693347
-0.049947634
0.020294154
0.026269151
-0.033407036
-0.13814503
0.0187399
-0.06913282
0.057888761
0.058381028
-0.012597678
-0.021891065
-0.24048676
0.16606529
0.15795647
-0.23144865
0.085978962
-0.12820566
-0.31334019
-0.055522446
0.015495248
0.062429637
0.026115132
-0.21746865
0.0011874881
0.17172986
-0.1504072
0.090813376
-0.063159026
0.24452834
0.020600446
0.029430471
0.099202819
-0.024918435
-0.12243091
-0.077941023
0.058724154
0.066254117
0.014368935
-0.21929568
0.074568003
0.1348629
-0.15601259
0.57269686
-0.11460312
-0.34906647
-0.02573017
0.15121616
0.006525612
0.2425604
-0.17374094
-0.020090511
0.099496715
-0.12203893
0.020231791
-0.008624129
-0.15500242
0.021484202
-0.015928842
0.055941645
-0.025507044
-0.22376868
-0.089329839
0.030387154
0.26069483
-0.01321018
-0.1349833
0.15622559
0.18921843
-0.31224355
0.34641171
-0.33218044
-0.32744655
0.15799265
0.10883137
0.012615076
0.075276837
0.0052229129
0.027748566
0.092740715
-0.21619061
0.058299582
-0.14413452
-0.20077445
0.12474045
-0.010893733
-0.05091311
0.1036225
-0.074799083
-0.044728603
0.070283562
0.088394329
-0.043239195
-0.16182427
-0.18402982
0.52205741
-0.42079172
0.300877
-0.13996342
-0.26710027
-0.029308256
0.083687998
0.22454646
-0.072341502
-0.052000754
0.023273801
0.25806347
0.055489179
0.015161817
-0.1484413
0.088385589
0.16796492
-0.095089749
-0.00064516853
0.044541683
-0.26926512
-0.12267206
0.081687711
0.10112053
-0.08641094
-0.34336001
-0.33534735
0.7280103
-0.56717098
0.83089709
0.14648812
-0.12855081
-0.3105931
0.074391909
-0.011362373
0.11699442
-0.30582589
0.14126974
0.30113176
-0.56287408
-0.01330831
-0.17563312
0.30902305
0.38621262
0.068061747
0.082314737
-0.21641146
-0.37752056
-0.12689026
0.33944601
0.10031588
0.086500928
-0.52263576
0.11586465
0.36515379
-0.72035176
2.9424858
1.0578221
-0.0067743715
0.26876959
-0.023766214
0.19641453
0.025884809
0.0058787121
-0.078905135
0.087603681
-0.19240558
0.0095220646
-0.084854387
-0.099409595
0.091558129
-0.064949155
0.029906828
0.28466189
-0.21928644
-0.084301993
0.071793906
0.010890159
-0.10404905
-0.37789187
0.34935215
0.4812775
-0.99447221
0.14561063
-0.29274556
-0.0098360172
0.017000673
-0.094013415
0.15363382
-0.20261677
-0.065369777
0.047339227
-0.050160278
0.1874752
0.19196992
0.028735075
0.14264198
-0.13105012
0.0063967593
0.094239816
0.13109161
-0.38413015
-0.12190656
0.014555284
-0.034727775
-0.056815024
-0.23440042
0.50781572
-0.070774831
-0.68839544
-0.28422666
-0.7850244
-0.024652457
0.31900552
-0.0041753999
-0.027233589
-0.13544969
0.035349716
0.050014675
-0.099187039
-0.47593951
0.080356278
0.17892484
0.042594276
0.074386038
0.14658158
-0.068125091
0.01720136
-0.19530739
-0.005325852
-0.13701311
-0.017558014
0.056363679
-0.21965626
0.075841628
0.043236021
-0.36315185
0.093548715
-0.32352644
0.019774003
0.23055401
-0.059935261
-0.12606552
-0.21222708
0.049322281
-0.15439035
-0.11901784
-0.015004398
-0.055034548
0.067194149
0.29648271
-0.11715642
0.055111643
0.20718719
0.10586945
-0.091237493
-0.10001711
-0.07013189
-0.117673
0.13615103
-0.1647568
-0.20209868
0.11111978
-0.10939286
-0.3444069
-0.93743885
0.0065921023
0.011438536
-0.043239124
-0.039742958
-0.093853422
-0.020975281
-0.050467223
0.0039040281
-0.10160024
0.13082877
-0.017452126
-0.16051799
0.11105994
-0.021764155
-0.038671378
0.16417165
-0.083864771
0.070400409
-0.062172379
-0.11334215
0.11471476
-0.15145369
-0.092667654
-0.02170164
0.049871113
-0.30117008
-0.49566105
-0.028118104
-0.012569289
-0.0011403059
-0.13894795
0.0037599998
0.044926554
-0.020216981
0.091055177
0.10328487
0.13064192
2.014231e-05
-0.25661114
-0.075273529
0.058924723
-0.084261321
-0.013534436
-0.069835298
-0.02176607
-0.072342128
-0.12667809
0.13484187
-0.065945596
-0.22723177
-0.1370586
0.22389843
-0.4972676
-0.78208262
-0.030272583
-0.065849803
-0.041698419
0.0056139948
0.015148005
-0.025999324
0.087653205
0.067724101
0.15607227
0.061793119
-0.067200109
-0.24192387
-0.10554689
-0.077623479
-0.048893619
0.20889471
0.052277736
0.10315001
-0.062135048
-0.086271167
0.027982954
-0.19943395
-0.32537478
-0.23466899
0.45595726
-0.4572933
-0.5737682
-0.080777526
0.28002948
-0.11094168
-0.14378592
-0.083252728
-0.13730891
0.0015857131
-0.081330478
0.08050105
-0.033326775
0.022559781
0.081801154
0.013348863
0.011053976
-0.090314373
0.0070038983
-0.0062652822
-0.1032276
0.040346634
-0.16378038
0.18346861
0.07620018
0.16095625
0.32931963
-0.55149031
0.039898381
-0.4619872
-0.0056114201
0.23089275
-0.035506554
0.010613373
-0.12052158
-0.15865736
-0.037124135
0.075852573
-0.16782947
0.009073724
0.01641096
-0.017157504
0.15894602
-0.050351106
-0.20574589
0.028343221
-0.0083922818
-0.0098836878
-0.004066959
-0.2717711
0.12429215
-0.013392298
0.019878581
0.21468954
-0.35613146
-0.062585801
-0.5433324
0.014227835
0.23481816
-0.12636745
-0.054465476
-0.072197266
-0.15061852
0.052225471
0.018926792
0.1941587
-0.023232577
0.014283294
-0.052935135
-0.10753179
-0.057118513
-0.063996948
-0.032643966
-0.043016016
0.020772779
0.14527291
-0.077786736
0.0099651832
-0.18178858
0.31215322
-0.2003852
-0.19956177
-0.21536022
-0.60300475
-0.025740739
0.023771692
0.058738332
0.021000234
-0.077254631
-0.12346703
0.096603729
0.19326143
-0.21046503
0.017445588
0.026800696
0.10033438
0.099841833
0.0085358936
-0.013332578
-0.16206804
-0.028664505
-0.039752301
-0.0099699022
-0.0015299023
0.049935959
-0.44885173
0.45919666
-0.39401844
-0.21138805
-0.68363041
-0.86238527
0.01313551
0.11301074
-0.0086630955
-0.070905797
-0.18353352
0.0079961307
-0.11010334
-0.079170018
-0.044821423
0.023320945
0.17653333
0.19247505
0.15342683
-0.021187311
0.12902902
-0.057775978
-0.16238661
-0.11148735
0.16995363
0.051993061
0.10079577
-0.64817387
0.062822253
-0.89647448
0.5508641
-0.76265532
-1.0705228
0.011961871
-0.063716769
0.17041337
0.088756025
0.02961573
-0.019334605
-0.081670828
-0.06966088
-0.31636602
0.090142697
0.18395002
0.33761171
0.065919921
0.049023371
-0.068652309
0.062881202
0.08920905
0.15054667
-0.13061517
-0.12571892
0.22543505
-1.0702466
0.15568309
-1.176787
0.65522838
-1.0052341
-0.84399879
-0.026146965
-0.077550858
0.0097106816
-0.1589687
0.33022919
0.088648222
0.0053114663
0.018112822
-0.30284736
0.14632906
0.33359346
0.28064016
0.060825642
0.096371949
-0.018604059
-0.013042464
-0.11412615
0.2123962
0.0088567929
-0.16392106
0.17512755
-1.3941455
-0.06636472
-0.86665189
0.74226183
-0.8741889
-1.069213
-0.029660897
0.047259409
0.17377034
-0.065114431
0.19603533
-0.12860963
0.086271629
0.45509109
-0.74863636
0.20863655
-0.038440678
0.11615876
0.19646248
0.13800602
0.02308419
-0.26074791
0.08215715
0.25102565
0.15071957
-0.20727812
0.23101464
-1.5928935
-0.39463791
-0.72125572
0.83858228
1.9005276
1.2639498
-0.0059834677
-0.10278768
-0.14743587
0.052556716
0.18163377
-0.0047133113
0.011437063
0.21869981
0.30715808
0.16461672
-0.081788577
0.1087404
-0.18477857
0.099121891
0.13774277
0.09383592
-0.018969692
0.027438693
0.16901399
-0.0053944532
-0.040028438
-1.1270396
-0.29723763
-0.18208838
0.46450323
-0.40394229
-0.90715629
-0.31576568
0.020116307
-0.040083244
0.012320497
0.10275808
-0.063819587
-0.15915762
0.17353
0.16130063
0.058655687
0.037938021
0.31153312
-0.039648112
0.055337332
0.054398987
-0.29852402
0.02369657
0.22917056
0.093524359
-0.022175919
0.13061365
-0.77901959
-0.09020102
-0.15039386
0.40718567
-0.32278961
-0.56934565
-0.52919447
-0.037923738
-0.065308772
0.12293138
0.13129917
-0.088836186
-0.038667224
0.20268272
0.24023998
0.038345288
0.0031751278
0.26660112
-0.13425623
0.0025333271
-0.035397608
-0.15083441
0.04202972
0.098810658
0.061528876
-0.005719454
0.084914453
-0.69455916
-0.11198888
-0.10228807
0.42667854
-0.27870852
-0.62625062
-0.43737963
-0.07325381
0.12628235
0.062691897
0.074839726
-0.084724411
0.038793053
-0.12827349
0.12939703
-0.044544127
-0.017007617
0.024149515
0.097928934
0.055443689
0.034977008
-0.19571386
0.020767767
0.1420321
0.088316619
0.10883241
-0.013779563
-0.32456398
0.196109
-0.14258738
0.029746095
0.070292026
-0.50124621
-0.39652231
-0.099432185
0.079139642
0.036768299
0.043192081
-0.13815296
0.046188436
-0.043595437
0.063163444
0.096155994
-0.10868122
0.067559451
0.020832647
-0.15054114
0.10254272
0.046055216
-0.11408751
-0.011764037
0.029789904
0.19772047
-0.075913146
-0.12257585
0.3747046
-0.2051412
-0.16390263
-0.19046925
-0.29265681
-0.3170135
-0.045631059
0.2264924
0.088571265
-0.1008283
-0.2397856
0.057175748
0.040009152
0.15879273
0.0018345845
-0.016689211
0.091112196
0.090865731
-0.032427393
-0.050154272
-0.1297892
-0.016124072
0.044746015
-0.065958582
-0.055599891
-0.094679087
-0.18392517
-0.076812521
0.099628851
-0.32824948
-0.099381119
-0.48257262
-0.1080918
0.08347512
0.1197155
0.029197542
0.066001996
-0.062411748
-0.044711739
0.034990631
-0.19377479
0.018911693
-0.045055669
-0.043941494
0.019457204
-0.084892586
0.0215388
0.13845474
0.00019655057
-0.030778641
-0.04581435
0.0019448613
0.015890185
-0.19934012
-0.071809098
0.31831002
-0.47287282
0.038721588
-0.35801131
-0.12572829
0.2911675
-0.0026073989
0.026361149
-0.28873259
0.024046218
-0.075376458
-0.15527102
-0.013254005
-0.044706374
0.025112936
-0.057246339
-0.061557528
-0.12357318
0.13527063
-0.11342191
0.089686804
0.10430229
-0.25423685
0.013309042
0.053775262
0.029379779
0.01919839
0.24973264
-0.41122514
-0.17236015
-0.15374771
-0.014195641
0.26727992
0.065405458
-0.046115588
-0.28375301
0.0056045623
-0.18135151
0.070917122
-0.21009247
-0.0039768079
-0.061678939
0.064660393
-0.03745893
-0.04949018
0.064583823
-0.076847889
0.056936331
0.12292819
-0.10322327
-0.093849674
0.14641385
-0.20649956
-0.29933119
0.34552866
-0.20313212
0.20336533
0.0090370951
-0.016093653
0.00059949904
0.040714938
-0.033456463
-0.15646543
-0.17248586
-0.065370552
0.026761506
-0.025913967
0.042681985
0.1300032
0.15086024
-0.050741509
0.012753837
0.2087906
0.047667433
0.060790963
0.03139561
-0.028653104
-0.091427885
-0.037622295
-0.40545928
-0.042449657
0.16077983
-0.33717337
-0.0022429056
-0.054014698
0.010941775
0.20818216
0.071908049
-0.16304453
-0.087877676
-0.10715178
-0.00076655374
-0.062591232
0.047056269
-0.072285481
0.090428993
0.18558744
0.062473483
-0.038445406
0.15515418
0.0079114288
-0.071920186
-0.1744162
0.066693194
-0.14708664
0.060625456
-0.31707993
0.046336379
0.058530726
-0.29047486
-0.038990349
-0.10139272
-0.001130839
0.052318227
0.089087069
-0.22194698
-0.047098156
-0.092578493
0.04408047
0.029443014
0.10787331
0.026538098
0.12680902
0.16597788
-0.097879939
0.064532571
-0.014346569
-0.0098291151
-0.098907553
0.044147417
-0.078648858
-0.17198193
0.031206423
-0.17927638
0.36799183
-0.13483991
-0.33236966
-0.41246396
-0.39167458
-0.0016685867
0.13493223
0.040130638
-0.13690428
-0.041398495
-0.11581954
0.045107912
0.022150472
-0.11648718
0.10529672
0.068434864
0.10770465
0.012923981
-0.033947866
-0.11991171
0.096750692
-0.15080173
-0.06180023
-0.032360841
-0.21728827
0.0049282517
0.11039561
0.16311273
-0.16890176
0.005242757
-0.42397332
-0.30841479
0.0099438699
0.12458625
0.11503722
-0.03642999
-0.11445362
-0.15537766
-0.025271999
-0.0459623
-0.71482897
0.12091559
0.16773485
0.27966684
-0.095241569
0.06941428
0.020432582
0.092780203
-0.08493869
-0.14954895
-0.08926826
-0.018086767
0.05620864
0.16765159
-0.052491106
0.062367715
-0.013932424
-0.6411435
-0.079092681
-0.025032839
0.056469828
0.08843559
-0.095350929
0.027106579
-0.069949262
-0.14549913
-0.05790611
-0.6981656
-0.074209303
0.1021697
0.054481469
-0.05496943
0.0033722625
-0.082544252
0.36020133
-0.017946541
0.12307253
-0.071383737
-0.11295079
0.056443427
0.16338219
-0.03777311
0.19034232
-0.17883626
-0.38343328
-0.19612855
0.029854422
0.073849417
0.020400429
-0.14811251
0.0021562185
-0.033299897
-0.15333961
0.10622137
-0.2630845
-0.078748718
0.061334688
0.049132582
-0.015965477
0.069091171
-0.039664522
0.062387995
-0.016878586
0.12702771
-0.049680971
-0.21520998
0.23831336
-0.11872343
-0.027652042
0.25429776
-0.23903257
-0.050521065
0.131448
-0.019455325
-0.012285517
-0.097918108
-0.037171401
0.11732103
0.020852802
-0.18512017
0.2220118
-0.044427298
-0.050311107
0.018443603
0.15831849
-0.056257602
0.0022348196
-0.066162676
-0.13811329
0.20408526
0.16779333
0.0073205982
-0.20965536
-0.061644852
-0.31713584
0.11444621
-0.006498714
-0.026620351
0.0094018001
-0.2409685
-0.0185045
-0.1836825
-0.15646468
-0.016799847
0.13836741
-0.065064177
-0.024773117
0.018823126
-0.019277465
0.042626731
0.043023728
0.10714912
-0.028181573
-0.074949503
0.076215334
-0.0042450195
0.0017738504
0.12250929
-0.040213678
-0.059269089
0.26560956
-0.31274638
0.24720663
-0.047023825
-0.20372322
0.22131234
-0.22741079
-0.10656806
-0.0060592159
0.14994672
0.19082324
-0.086065985
0.067572542
-0.013963975
0.04112963
0.16717425
0.11717767
-0.1397493
0.022741133
-0.035065185
-0.057531666
0.11513983
0.019997889
0.25220573
0.14420398
0.058693264
0.031482521
0.20265825
0.15005918
-0.26305076
-0.010683006
0.036175273
-0.0050791372
0.18279563
0.05304138
0.15701249
0.27478245
0.091560632
0.30286416
0.16263999
0.098354794
-0.40614423
-0.039821129
-0.013846043
-0.080789752
0.12321427
0.041077405
-0.053026136
0.27159321
0.06861005
0.11355998
0.14593492
-0.13294899
-0.30176318
0.1091732
0.068001665
-0.045511719
0.093702309
0.35777697
-0.37999281
-0.087250747
0.11213912
0.089835852
0.10705519
0.00615553
-0.20165576
0.053919006
0.041618593
0.01075398
0.10145515
0.093112551
0.088621527
0.33965483
0.037799422
0.090814963
0.17176785
-0.13287529
-0.34722483
-0.006869026
0.019194422
0.13421305
0.26139164
0.13018581
0.074690975
0.24614908
0.054130446
0.0095097795
0.19910902
-0.18609604
-0.04819956
0.1149063
-0.096932948
0.028226439
0.11448707
0.22292575
-0.13492283
0.14945894
-0.030024247
0.088993445
0.20680264
-0.12985294
0.20659232
-0.020208398
0.12798418
0.17929097
-0.03645166
0.49438745
-0.57676488
-0.52723938
-0.32729784
-0.089461066
0.071124367
0.024239451
-0.1229971
-0.050911367
-0.010717295
0.022805473
0.031630203
-0.062454328
-0.28337216
-0.39060691
-0.082847618
-0.034250613
0.029379506
0.28882647
-0.23396972
-0.13340357
-0.027187398
0.041948639
0.071777783
0.13903439
-0.12176334
-0.2804375
-0.015255768
0.059337929
0.10777369
0.060877398
0.22052422
-0.1499355
0.054839354
0.069042616
0.19193667
-0.25290748
-0.10554165
0.12386462
0.042440165
0.010217709
0.20844845
0.1939031
-0.034730922
0.38736561
0.067449212
-0.033356473
0.20816736
-0.063665591
-0.47448733
0.29469687
0.015566156
-0.029876219
0.11314382
-0.11592617
-0.030723903
0.059687048
-0.052343454
-0.0511548
0.13118307
0.1142735
0.13121848
0.17096896
-0.048722219
0.10802685
-0.073752515
0.53202993
-0.34288678
-0.70897222
-0.34909981
-0.13215725
0.013109582
0.091715649
-0.049168844
0.124789
-0.035862409
0.0053354842
0.089765981
0.048575267
-0.2873829
-0.27345291
-0.13397397
-0.090033472
0.060905531
0.099876411
-0.058319494
0.013410594
0.023280354
-0.026199128
0.062692434
0.20062405
-0.49394515
-0.56932539
-0.12255159
-0.055484127
0.030990832
-0.0045406711
-0.082301676
-0.27512285
0.0083417716
0.040703982
0.22848897
-0.18712182
0.16037434
0.22408658
0.0058872038
0.13251486
0.26345745
0.11067298
0.21982095
0.4974308
-0.044457272
-0.0040476928
0.23122172
-0.090674229
0.19285625
0.38802779
0.016944559
0.051019307
0.26789892
0.17305632
0.29311582
0.24672563
-0.050657433
0.084391765
0.22324955
0.110605
-0.24847808
0.46735686
0.020664949
0.20915858
0.057186592
0.12390868
-0.48032072
-0.26056331
-0.24227838
0.010813836
0.14610216
-0.014676202
-0.45619187
0.33630762
0.039897159
0.010686
0.087190844
0.053457752
-0.076923817
-0.039202783
-0.12671641
-0.064600863
0.11143854
0.27042744
-0.19364461
0.081247129
-0.038031127
0.045522448
0.12258167
0.10588313
-0.50336665
0.026382634
-0.026107909
0.0078304028
0.1036704
0.035027102
0.11188397
0.10828317
-0.0057234038
0.037833195
0.18554948
0.1642607
0.17927234
-0.042009536
0.12624916
0.083790168
0.25368324
-0.090299636
0.33954459
0.40624788
0.12707432
-0.021983886
0.16367909
0.10196982
0.43832174
0.09559492
-0.20337123
-0.0031720449
0.13116796
0.10952689
-0.43653309
-0.42663133
-0.12818943
-0.0028722577
0.17648067
0.29866028
0.11405619
0.026966946
-0.12935372
0.07788679
-0.0476606
0.64241177
-0.83994883
-0.84514517
-0.65772933
-0.053393874
0.06296245
0.075354815
-0.53112292
-0.0084443921
-0.071167864
-0.059267145
0.043515503
0.3024624
-0.43018499
-0.28163543
-0.2101607
-0.13324003
0.035371367
0.30272642
-0.1042323
-0.18052045
-0.031212661
0.079560325
0.15541744
0.22905201
-0.10277527
-0.12722358
-0.054120779
0.048240516
0.1537457
0.037483703
-0.1491791
-0.039343361
0.073902369
0.3409391
0.31251034
-0.49643072
0.77063119
0.24950556
0.19965447
0.17578937
0.2535269
-0.46481669
0.58628768
0.64761537
0.041836817
0.0021676673
0.16621704
-0.40486825
0.44077852
0.42987785
-0.0092870668
-0.089591622
-0.0017639521
-0.077855974
-0.23696944
-0.23801824
-0.22525218
-0.10402299
-0.021926766
-0.10302248
0.071665913
-0.66133058
-0.52613646
-0.44000989
-0.66546971
2.067709
-1.0516586
-4.1287193
-2.471103
-0.14073864
-0.13647869
0.00011666711
-0.2454057
-0.73776591
-0.52152067
-0.05173647
-0.12213711
0.62944692
-0.40498859
-0.69237649
-0.46807575
-0.012647916
-0.0011561651
0.077692352
-0.025678277
-0.1869598
-0.21094847
0.070961326
0.033680446
-0.076788329
-0.37371817
0.035141796
-0.12344398
0.12289209
0.14643414
-0.15909085
-0.07784532
0.071530707
-0.051505953
0.17294963
0.18343849
0.046503797
0.35440966
-0.15589167
0.26820305
0.050902054
0.19023915
-0.017415257
0.4235653
0.08432468
0.15701047
-0.15533051
0.14062981
0.19381636
0.063542955
-0.1730804
-0.06435588
-0.0094297798
0.1964445
-0.070911773
-0.042778373
0.29150265
0.023013767
0.0016684615
0.17882259
0.40690875
0.21647216
0.36619511
-0.1067102
0.10176574
-0.0085311783
0.35593039
-0.98469639
-1.1616051
-0.87216902
0.022292165
0.15826955
0.26396075
0.063916788
0.52302456
-0.034935929
-0.0080573056
0.095673695
-0.027836822
-0.33992076
0.010436615
-0.16994783
-8.9348956e-05
0.13884747
0.17926456
-0.10442666
-0.02637752
-0.032287043
0.002863799
0.081067435
0.006852875
-0.040106863
0.17742091
0.028815204
-0.011621051
0.12515536
-0.10121614
-0.32702428
-0.0079261651
0.047389448
-0.073635578
0.22783993
-0.29288456
0.36192521
-0.060213283
0.084698163
0.0058631944
0.22341307
-0.093142375
0.74876207
0.52339375
0.22649364
-0.076103792
0.16714379
-0.24393359
0.42063019
0.046960413
0.02955978
-0.17597543
0.18135135
-0.13622451
0.34402481
0.039812673
-0.049978048
-0.092288017
0.24631304
0.004863264
0.13532013
0.65187478
0.026374139
0.08061891
0.11018234
-0.29563844
-0.26099509
0.087297559
-0.28114125
-0.076626331
0.17636755
0.08535561
-0.10753188
0.43544358
-0.047330763
-0.033268124
0.21011932
-0.006730529
0.062883921
0.29193988
0.048522264
-0.076431066
0.2100288
-0.050710041
0.044407684
0.40715092
0.08124686
-0.0062993052
0.20033298
-0.1486648
-0.063221924
0.39424655
0.086749211
-0.15924694
0.099836655
-0.12677737
0.23374258
0.10518604
0.040362149
-0.027733404
0.18559296
-0.066343226
-0.10641331
0.11682312
0.053781983
-0.056749467
0.12373222
0.13078482
0.36563393
-0.29841259
-0.095317952
-0.012924845
0.17129476
-0.055888265
0.45136815
0.069966607
0.096201263
0.12006417
0.20954388
0.061618984
0.37708348
-0.14378682
-0.039400898
0.055563781
0.21344507
-0.089251995
0.15091752
-0.20916323
-0.15858333
0.33941513
0.12786384
0.37540656
-0.28302595
-0.19811079
-0.3329576
0.016328622
0.1584657
0.058721736
0.42131016
0.30001196
0.023444222
0.10629353
0.18481851
0.26335564
-0.20352517
0.046309412
-0.035696901
0.014250599
0.13105187
0.0144312
0.26097009
0.29009542
-0.0073557911
0.11249351
0.15986492
-0.11792129
-0.23080492
0.10884582
0.052989591
-0.062585875
0.04911232
0.054283004
0.26033044
0.092005841
0.035994548
-0.32419968
0.069547489
0.11010566
0.3883518
-0.19798806
0.04043195
-0.24033463
0.10840762
0.14682086
0.36736625
0.28348419
-0.030499063
-0.37120184
0.05738271
-0.37101299
0.3363581
0.29886201
-0.059200365
-0.076475576
0.15384743
-0.21956152
-0.038916975
-0.13205795
-0.04636408
0.042693902
0.28525034
-0.2701869
0.22008625
0.41907027
0.10246527
0.20153537
0.19209085
-0.28045294
-0.029843152
0.012404172
-0.10966766
-0.050186135
0.25093964
-0.20067136
0.11367058
0.68518275
0.12921381
-0.046697188
0.16974096
0.061716624
0.10041192
0.18994482
-0.027158856
-0.058275517
0.16669063
0.048518267
0.040777195
0.32755104
0.024387402
-0.049003582
0.16887461
-0.16404828
0.11145077
0.16561234
0.015564374
-0.16661881
0.084155194
-0.094333723
0.37925866
0.13622853
-0.036390856
-0.20776761
0.083517112
0.096947826
0.10486506
0.13169686
-0.030802671
-0.22938649
0.15752168
0.22389176
-0.074577034
0.39834329
-0.043551326
-0.28494135
0.0641343
-0.2236436
-0.044683598
0.2805942
0.095100671
-0.0850114
0.18319823
-0.23488475
0.10207459
0.062038109
0.079431944
0.15165825
0.22602953
-0.082959019
0.1440369
0.43061882
0.28928524
0.48944229
0.35257155
-0.35967317
0.10269204
0.30888337
0.11559934
0.017629191
0.23172644
0.047519416
0.56157762
0.20920226
0.14614294
0.058653731
0.26225844
-0.022432201
0.10034903
0.46715888
0.10151375
0.056079324
0.22783665
0.19785318
0.3367039
0.47783384
-0.0024054348
0.019523712
0.15364139
0.10498139
-0.032413308
-0.22663303
-0.18336277
-0.19811822
0.041957118
0.074537985
-0.073785536
-0.23413448
0.0047255722
0.01568391
-0.56534761
-0.80054092
0.1021413
0.15474683
0.26078281
0.13382784
0.061973024
0.043905385
0.25775754
0.14337374
-0.24641909
-0.0087234937
0.79048711
0.34656563
-1.0910157
0.011900641
0.021593679
-0.058635224
-0.0049957684
-0.057709064
-0.076959208
0.060578097
0.0030262021
0.028035499
-0.048489932
0.030088358
-0.064425081
-0.00071226008
0.024818659
0.027978426
-0.11505283
-0.041292511
0.01194577
-0.020043232
-0.031406403
-0.051277671
0.00043439324
-0.17556241
0.037034787
-0.32788703
0.68299472
0.82072109
1.0164113
-0.56901526
0.01383149
-0.014683421
0.028646044
0.028090803
-0.002629847
-0.023168391
-0.00071167859
0.01350318
-0.026592711
-0.027495254
-0.027482694
-0.020833669
0.024256045
0.025623735
0.0052050292
0.0025952866
0.011825269
0.016686333
0.026401285
0.026028935
-0.029960118
0.021374818
0.010319281
0.025706397
0.020948261
-0.0020659852
-0.017188082
0.021955013
0.020168949
-0.021206805
0.011821315
0.0052228654
-0.0063284044
0.012775552
0.0033106729
0.021485277
0.01979913
-0.027462149
0.0056338166
0.022704946
-0.024907921
0.0094279693
-0.028498292
0.028505519
0.006812966
0.0071441773
0.0027524352
-0.01270673
-0.010249506
0.00011506579
-0.018932818
-0.0064125853
-0.0088393623
0.024355678
-0.0067765214
-0.010339071
-0.001252386
0.0081989393
-0.016477337
-0.0097509511
0.016505113
0.027827667
0.025984913
-0.020393817
0.0085014505
-0.00042425556
-0.027741222
-0.0019031721
0.00042136022
0.0093984129
-0.0095177405
0.0064607072
-0.010632632
-0.0083211772
0.0069394796
0.025351422
0.029877525
-0.027761884
-0.016135804
-0.012710127
0.0053352998
0.00039582868
0.019454179
-0.026676873
-0.0025325352
-0.016664466
-0.0054777521
0.027329363
0.018238327
0.0081456015
-0.013684688
0.0065695243
0.0047186571
-0.016727759
0.018770346
-0.016340965
0.01373869
0.020492213
0.010485845
-0.015666252
-0.0009807786
-0.025826573
0.02209208
0.01873301
-0.011008671
-0.00071778783
0.011562315
-0.006257683
0.0064116456
-0.02912664
0.017983304
-0.016118689
0.0035023529
0.0063793976
-0.013852292
-0.030355439
0.020564724
0.0099647213
0.026525388
0.0094817961
-0.011759728
-0.014361577
-0.011380164
0.022061259
-0.0017182358
-0.022996174
-0.023302875
-0.018383382
0.030403905
0.021837682
-0.0043802769
-0.0092283981
0.02431949
-0.016671944
-0.010797398
-0.014610134
0.014960718
-0.02269176
0.013289871
-0.0085409628
-0.021967025
0.00035162919
0.0054395334
0.013192865
-0.022442026
0.020237092
0.013619279
0.027761407
0.00078837329
0.0098520359
0.0098320199
0.021002265
0.026353173
0.027563568
0.013098507
-0.00034841071
-0.018645028
0.017819963
-0.0023160754
-0.022793803
0.0050227875
-0.025509002
0.0019798714
0.00020234211
-0.007522407
0.022820247
0.019001471
-0.020260606
-0.029180786
0.0025193049
0.0019276274
-0.021196209
-0.027198769
-0.022672929
0.021678159
-0.018940391
0.028226728
0.0039162044
-0.020978613
0.00020905457
-0.012587239
0.018950734
-0.0036146648
-0.0080497935
0.014988073
-0.035539277
0.013801611
0.018822677
0.025231576
-0.013818556
0.026622402
0.0073891953
-0.0069885086
0.00096361281
-0.021151248
0.018448832
-0.0047162101
0.028002033
0.025255471
-0.0057846545
0.00082120398
-0.0014736719
0.0050095115
0.0034457394
0.0069941236
-0.0011269797
0.013596187
0.0041105039
-0.028342593
0.02788643
-0.020728063
-0.012110098
0.0052392408
0.0034780852
0.0036694184
0.0017118327
0.0034444854
-0.014765705
-0.0058826902
0.0004104996
0.0050325659
-0.0072801798
-0.023561941
0.028273225
0.025510587
-0.014901496
0.017295619
-0.010039409
-0.016460536
0.013766686
0.017230658
0.011811917
-0.014850374
-0.0061628721
-0.014619469
0.020318365
0.02534434
-0.029467493
-0.0068349456
0.020031825
0.024348322
-0.0035195597
-0.013172277
0.0058092913
-0.029397054
0.021892827
-0.022290578
0.0047123805
-0.0209613
0.0040844972
-0.024450982
0.014203848
0.027168911
-0.016892891
0.013987535
0.022965495
-0.0018252152
0.0011209501
-0.01648229
0.012469604
-0.013220077
-0.02863735
-0.0050142733
0.0051888321
-0.0051183933
0.0075327652
-0.010174602
-0.013579494
0.0050568855
0.02012372
-0.019181831
0.0062524681
-0.0077561918
-0.0017584467
-0.015887015
-0.0068133287
-0.0084643746
-0.007091762
0.02905426
0.0010850589
0.027679151
-0.024948576
-0.014774814
0.026913505
-0.013359656
0.028767521
0.020469578
0.017522955
0.00071556889
-0.027073549
0.0030212523
0.017528329
-0.030541088
0.02473807
-0.009824805
-0.0067342967
0.0092777582
0.012233757
0.01569077
-0.0087702833
0.0019247999
0.028430579
0.027826274
0.026383569
-0.0030122341
-0.016900081
-0.01047216
0.01863936
0.0059163324
-0.011224203
-0.011650369
0.0071251183
-0.0074785417
0.004885057
0.0029949881
0.011408729
0.0044123493
-0.0035231011
-0.0043902718
-0.028359925
-0.0014657996
-0.032707591
0.015886102
0.0039624185
0.026781017
-0.019382644
-0.026265975
0.0066046491
0.025298717
0.02011811
0.028352968
-0.0035292406
0.019596022
0.024983792
-0.0065300907
-0.012829275
-0.020975057
0.012991733
-0.02374631
0.016152769
-0.0281185
-0.0030609078
-0.0076172845
-0.0045734351
-0.026010783
0.020831186
-0.02579785
0.0091556581
-0.011369856
-0.0013082655
0.012578888
0.018008333
0.0057686893
0.0051882444
-0.0055500139
0.0052555199
0.017007049
-0.0021857372
-0.018247647
0.013447725
-0.010766608
-0.021100136
-0.020674603
-0.02089625
-0.023576031
0.0041540563
-0.0039550527
-0.014520759
-0.012449781
0.003561808
-0.027506493
-0.0067775496
-0.037635956
-0.0069129621
0.019175461
-0.031510752
-0.015968295
0.024782002
0.0067823404
0.01448197
0.0018029459
-0.0091845207
0.005378318
-0.020412395
0.027372934
0.02994667
0.015438927
0.015722761
-0.0020354115
0.025239628
-0.0020535477
0.017080486
-0.024269503
0.0086355852
0.026097486
-0.016165441
-0.016288409
-0.0060391109
0.00036041392
-0.0032313596
0.024410259
0.0026117889
0.019509304
0.016665099
0.027161876
0.0098384582
0.029315796
-0.010646551
0.004659222
0.0087051867
-0.025106022
-0.02223853
-0.030486802
0.0097646257
-0.012282007
0.027593574
0.010011724
-0.027124049
0.013379733
-0.02248773
0.028304426
-0.018326046
0.026618242
-0.023641739
0.022241961
0.019744681
-0.018812118
-0.022428183
-0.014419192
0.014821875
0.001890384
-0.017210003
-0.0098363711
0.001192244
-0.02123302
-0.012052076
-0.016882645
-0.02177915
0.0072707492
0.017880997
0.015884221
0.012965735
0.027070792
0.016682355
-0.00655455
-0.013700853
0.015204832
-0.027064787
-0.011451376
-0.0018300344
-0.018736349
-0.012635168
0.0089521371
-0.0320764
-0.0040189005
0.0016899478
-0.030905817
0.0083085848
0.0080368929
-0.014026185
0.00404573
-0.013327576
-0.003022959
0.025023287
0.01985901
0.0085896216
-0.017205
-0.026660969
0.016223453
0.020952461
0.022898503
0.00381667
0.0034804482
0.019191889
-0.010458392
0.025430504
-0.023656873
-0.023866821
-0.029924348
-0.0063964874
-0.0072806175
-0.015081114
0.012171721
-0.019323628
-0.020576609
-0.023397041
0.016711472
-0.010384146
0.020163305
-0.0054979138
0.0062567797
-0.0054674908
0.011166901
-0.027267167
-0.010301117
0.0025223945
0.015242862
0.0022120553
0.0054946472
0.0001358547
-0.0079967594
-0.0016371376
-0.025646046
0.027018135
-0.010323557
-0.0040906765
0.023832116
-0.014927813
0.0060994625
0.022161514
0.015958002
-0.03356446
-0.024349609
0.00050607999
-0.0092466166
-0.0049872329
0.0077898423
-0.022072354
0.013621726
-0.00032942099
0.0022955711
-0.0095354039
0.02443859
-0.016394824
-0.0037187908
-0.016245618
0.015911954
-0.020699248
0.016003024
-0.0084334891
0.012807441
-0.020221412
0.02067622
0.018120846
-0.029600417
-0.015828805
-0.021958616
-0.030112099
-0.00023752834
0.015332056
0.022522669
-0.0040057059
0.021580441
-0.029030809
0.028505595
-0.01774493
-0.0046728146
0.0064250543
-0.010007968
-0.021500567
-0.025883984
0.02250379
-6.7112836e-05
-0.030380821
-0.022122676
0.026914263
-0.01403561
0.02347715
-0.024502706
-0.028482379
-0.013446375
0.019018851
-0.014436268
-0.034049809
0.0082338694
-0.017099043
-0.011966661
0.019171564
-0.0094692381
0.024405036
0.0052321404
-0.0151665
-0.0087902974
-0.0029317043
-0.015613731
-0.010504629
0.0089369984
0.0093732812
0.026487768
0.029796313
0.020284392
-0.027368944
0.021033866
-0.012277545
-0.02579155
0.029957183
-0.01584054
-0.0072025671
0.026040202
-0.0039652945
-0.020459782
-0.021068333
-0.024381692
0.0069965781
-0.014507954
0.020124165
0.026828211
0.004871971
0.0095696859
-0.012477118
0.00046538201
-0.01273553
0.0019447258
0.0186499
0.011432531
0.017991338
-0.02078783
-0.0092102615
-0.004629605
-0.022555476
-0.0052085216
-0.014856997
-0.022738174
-0.016576368
0.0078651691
-0.011258303
-0.011756285
0.0060706805
0.014075095
-0.025184477
-0.01568995
-0.030312642
-0.012361608
-0.0033801903
0.0067196419
0.0035681217
-0.013545424
0.0044312603
-0.0219023
0.027466068
0.019512281
0.0072347657
-0.015203437
-0.0068803336
-0.0039883172
0.027501756
-0.020481702
0.0047826106
-0.0081100967
0.0056669852
0.011015042
0.019173186
0.023344766
0.025170762
-0.039458759
-0.0016704104
-0.02845959
-0.010637714
-0.013608945
0.014738393
-0.0035905538
0.0022762937
0.015746029
0.015058666
0.029482115
-0.0070798993
-0.011398572
-0.014139348
0.027369078
-0.0038995685
-0.015273495
0.018929837
-0.026106471
-0.0016621447
-0.018504091
-7.8232035e-05
-0.001858488
-0.0097226715
-0.022269018
0.018108701
0.028987709
0.012588321
0.0068657682
0.010603566
0.013823016
0.012233094
-0.014463412
0.021492755
-0.029963264
0.0053951233
0.007320838
-0.0013918217
-0.022715794
-0.0078727361
-0.015247991
-0.022412725
0.017436037
0.0032090438
-0.0052812006
0.014290837
-0.0305284
0.0090047978
0.0040554213
-0.025920648
-0.021050943
0.016209818
-0.00377926
0.0089427968
-0.025684794
0.0082495278
-0.0091423662
-0.026547551
-0.00065732381
-0.021528946
0.022369359
-0.015821053
0.02029169
-0.020489601
-0.023600478
0.020109015
0.014317089
0.013963755
-0.0088878572
0.02248103
-0.02205514
0.0044254269
-0.030930407
0.024400786
-0.021593738
-0.0045914669
0.0099384617
-0.022940777
-0.022663156
-0.022483777
-0.015949957
-0.017619725
-0.027944935
0.010154139
0.020244943
-0.022902092
-0.0053565046
-0.010368865
-0.020671848
0.026364712
-0.0025341413
-0.027355932
-0.02182023
-0.011182006
-0.016520405
-0.013845596
-0.02035155
0.026818112
-0.02955565
0.0016732067
0.018665094
-0.022458581
-0.022994453
0.020551322
-0.026389247
-0.013191274
-0.021392688
0.014832394
-0.0045377691
-0.012196953
0.022133254
0.0069953748
0.005653895
0.027994338
-0.0063449526
-0.0038726658
-0.024791952
0.019481931
0.014860303
-0.016265593
0.016213691
-0.014068955
-0.0091652181
0.025854984
0.0044076657
0.0017541307
-0.016884835
0.015046402
-0.0025817773
-0.017787926
-0.012989604
-0.011606342
-0.010088589
-0.013707677
-0.022022331
-0.0047455234
0.0041268864
-0.012175163
-0.022060512
-0.024546159
0.017278174
-0.024158694
0.014235469
-0.0064898971
-0.025687668
-0.021971744
0.021213807
-0.020230141
0.028312236
0.0067146681
-0.0056433072
0.014534269
0.023700293
0.013993087
0.011644328
-0.0024527793
-0.014270846
0.024175765
-0.017091267
0.014489343
-0.027866706
-0.0023857506
-0.026175858
-0.0046817106
0.018563194
-0.020071441
0.022968894
0.0038552536
0.0072448351
-0.02861933
0.010675335
-0.0062112375
-0.022108009
-0.006739669
0.018099144
-0.017992552
0.0033353919
0.0090749497
-0.0081414189
0.0010891892
-0.012267597
0.016821984
-0.013259157
-0.019195136
6.0615235e-05
0.028537735
0.01073361
0.015257418
0.02068668
0.019483227
-0.00040942014
-0.035397768
-0.0056982725
0.00054285547
-0.00081063592
-0.011098902
0.013720733
-0.0082320478
0.023478573
-0.0071050809
-0.0061174189
0.0055170888
0.016416082
0.00056263187
-0.030219197
0.00481248
0.013157075
0.0039099273
-0.016859699
-0.025579534
-0.024125144
0.0021211882
0.01973087
-0.0077694412
0.01210648
-0.010902701
-0.010333307
-0.0063216905
-0.027034115
-0.01453821
-0.011458204
0.010304796
-0.015241696
0.012872044
-0.015772153
0.014611187
-0.029365916
-0.029896708
-0.023021424
0.023568194
-0.0077251522
-0.0008784309
-0.0003926018
-0.021328554
-0.029344907
-0.0011939538
0.013080505
0.014120125
-0.026122954
0.026583049
0.018511558
-0.021654917
-0.0044445135
0.008944788
-0.00014369586
-0.023867998
-0.025690161
0.024467804
0.0073746182
-0.015591832
-0.019844012
0.026356718
0.024993256
-0.0038713815
0.0078452732
-0.020059761
-0.019753573
0.010678057
-0.020481346
-0.012105828
0.0049727554
0.0014387392
0.017661149
-0.025218006
0.010938088
0.018371364
0.0028214331
-0.0063635875
0.0031257151
0.0019237652
-0.0083549563
-0.0097354949
0.010914141
0.023879131
-0.027286213
-0.0094535789
-0.024097927
-0.023155496
-0.014592776
0.015425075
-0.0084272884
-0.0044910773
0.012131442
-0.013844573
0.022880895
-0.0090431729
-0.0038255823
-0.026692821
-0.028144373
0.0045615421
-0.0092779733
0.0081864232
-0.022395527
-0.021098161
0.010515752
0.014686916
0.0239232
-0.013269492
-0.017448494
-0.0054798536
0.023843335
0.0076045888
0.023670303
0.01032157
0.00098003272
0.026942838
-0.029461242
0.01083942
-0.02707608
-0.0136193
-0.0054077143
-0.004101797
0.012450241
-0.022690032
0.012661347
0.0040241797
-0.00077055924
-0.02030584
0.0078743603
0.0020503064
0.01382299
0.027203817
-0.02757754
0.019109135
-0.019140873
0.016540153
0.0059509603
-0.023664474
-0.022034038
0.026295047
0.0067789722
-0.030001784
0.0049430872
0.00025700915
0.011457542
-0.023487704
-0.0025831033
0.012531342
0.017281726
0.0017272733
0.029284246
-0.01811708
0.02939578
0.0098599596
-0.010437568
0.012334968
-0.014446981
0.019508444
0.020628517
0.016218551
-0.012268565
0.00983252
0.017336125
-0.0075259982
-0.00027531327
-0.028810864
-0.0082177753
-0.018836254
-0.023074176
0.0018246063
-0.023459092
0.013835066
0.0032165924
0.01243332
-0.015410747
-0.014103781
0.017887587
0.012372275
0.030571954
0.0064959065
-0.016640101
0.028547201
0.019049829
-0.017091636
0.010286181
-0.021587132
0.017688751
0.023082508
0.030995855
0.0098607251
0.0098367492
-0.0080055147
-0.0090371445
0.012302995
0.023286138
0.022042774
0.012764004
-0.013264367
-0.025321819
0.018306101
0.01822185
-0.017830055
0.0033397414
-0.0078110439
0.024759535
0.018896652
0.0079072891
0.014150374
0.0019732798
0.0076807789
-0.0094725871
0.014238371
0.00598484
-0.023764051
0.026656024
-0.014533607
-0.012028391
0.01667122
-0.016643828
-0.009960941
0.0098959766
-0.027098818
0.011346105
-0.026735827
0.014671178
0.0039341119
0.025684522
-0.0027342024
0.021636134
0.02835102
-0.012559402
0.01033272
-0.019908767
0.020963822
-0.027221343
-0.023661358
0.0099512329
0.010130076
0.020157149
-0.018489754
-0.013585129
-0.020385664
0.025330162
0.024690192
-0.012347764
0.027817821
-0.018913228
0.010249373
0.020812204
-0.0041648163
-0.028978493
0.00039599621
-0.002627007
0.014868846
0.0043063494
-0.016242452
-0.0086132661
-0.0010146905
0.01015049
-0.017824313
-0.00087554194
0.026545903
0.022023844
0.010085117
0.017966133
0.024775449
0.016110772
-0.0019262845
0.0025961627
0.005763025
0.0090447804
0.015980633
0.021000557
0.009599667
0.018044908
-0.017073166
0.0055821934
-0.029945867
0.023491357
-0.0012292877
-0.0031483406
0.025901569
-0.031474337
0.024936985
0.010163765
0.0037193084
-0.021645986
-0.026277725
-0.024666945
0.017584572
-0.018008785
0.003056732
0.015812043
-0.020575598
-0.012495302
0.0053014806
-0.03019912
-0.028707689
-0.026374524
0.0067785587
0.0037803785
0.012818187
-0.0018759544
0.001623498
-0.0013015178
-0.0075479192
0.010019054
-0.017765919
-0.011868136
0.0096193068
0.0097258575
0.018089533
0.015286203
0.013409445
0.010830253
-0.0098394565
-0.01211183
0.020224988
-0.010340651
-0.0083570601
0.008057382
0.0055137975
0.02669969
-0.0045936448
0.0055417903
-0.024151765
-0.031362228
0.013394143
-0.014247308
-0.022984967
-0.0085050957
0.034116864
0.021040229
0.019914769
0.0014825957
-0.010808624
-0.029811045
-0.017513659
-0.0009363768
-0.0010728998
-0.029057384
-0.018215671
-0.018423239
0.0085242186
0.020991294
-0.031229032
-0.026755461
-0.017176604
0.0080591626
-0.0056158635
0.0012182753
0.00049619074
-0.025211494
0.0011877987
0.0064884042
0.012800825
0.011628712
0.027655466
0.0045169448
-0.02418492
-0.041579567
0.023944531
0.026448268
0.025919819
0.01971354
0.0025222567
-0.005084659
-0.030160518
0.018114652
0.018184122
0.00050101907
0.026179362
-0.044554334
0.014012542
-0.00012661151
0.02307874
0.020524865
0.0037343898
-0.037067622
0.016303916
-0.028486636
0.0084563503
-0.014593353
-0.022565445
-0.016808253
-0.013222883
0.025699345
0.023257382
-0.017236514
0.0035553735
0.0098397704
-0.014640069
-0.0019086471
0.023306653
-0.01458197
-0.0075269751
-0.0082660215
0.0082853762
-0.010123177
-0.015031768
-0.0044876402
0.025507767
-0.029213736
-0.0039182133
0.010314981
0.0087863132
-0.0081536025
0.0014805355
-0.019322585
-0.0085758297
-0.017416244
-0.011730881
-0.021740956
-0.00039813446
0.0020413881
-0.012257471
0.011111991
-0.0057700998
-0.015551293
0.027316161
0.022678243
-0.023861198
-0.017864505
-0.0013090037
-0.024872039
0.0054586623
0.016761752
-7.2645475e-05
-0.02633623
-0.020004909
0.016979391
0.00089296961
-0.043770764
0.019881556
0.025504408
0.015651267
0.0047511826
-0.0055316887
-0.031087486
0.019805809
0.014794064
0.003504809
-0.019054273
0.026749643
-0.029796975
0.012227599
-0.017222624
0.017959459
-0.025179058
0.0011736864
-0.0018702298
-0.032742307
0.0082610501
-0.028809791
0.0039728945
0.014808101
-0.017312327
-0.0080456268
-0.015568753
0.0074755242
0.006202017
-0.024790442
-0.024098316
0.011131901
-0.031180102
-0.023257464
-0.0011682543
0.0091936365
0.0063669295
0.018367115
-0.0029324191
-0.015475673
-0.0050036139
0.010641698
-0.021334384
0.0027183529
-0.012196003
-0.0041607693
-0.0087386668
-0.0042084735
0.020810742
-0.022143383
-0.0022745063
0.0075563979
-0.017949505
-0.023737915
-0.0088859126
0.012740707
-0.0030048953
0.012514466
-0.0049320813
-0.019820716
0.0070601045
0.0012447537
0.014590866
0.017926244
0.01167077
-0.0096548013
-0.0088990629
-0.021067793
-0.026883671
0.022633167
-0.0056636408
0.0067349616
-0.0071577975
0.003360793
-0.031490516
0.022557206
-0.025474682
-0.0042481325
-0.019210346
-0.032236263
-0.00037132108
0.019428952
0.012591988
0.015785849
0.028540883
-0.022469727
-0.0023528121
-0.0068137473
0.020610867
0.024722828
0.00044653218
0.0076851039
-0.002797497
-0.014046579
-0.0016232178
-0.01763672
-0.0070398585
0.019814946
-0.010171262
0.0085691242
0.020882675
0.019709889
-0.024958385
-0.0020199006
-0.005785794
-0.021038424
-0.0091397343
0.00080398406
0.0055611106
0.007035228
0.0029135961
-0.025426608
0.0030022149
-0.012804142
0.017778747
-0.0014843714
-0.0067474572
-0.011732504
0.02240096
-0.013531271
-0.031994224
-0.009435148
0.023007214
0.013907881
0.012013778
-0.0026811596
0.022156222
-0.018104974
-0.011143441
-0.01204355
0.025689401
-0.018130993
-0.030108299
-0.028487105
0.003926788
0.001170848
-0.014229151
0.033466768
-0.041656833
0.012216356
0.0082483692
0.0083864061
0.027779501
-0.013333638
0.0071916496
0.016295381
0.011442629
-0.0079560373
-0.020440666
0.0065939352
0.0017924232
-0.008770627
-0.031010317
0.0048839035
-0.019515393
0.01093142
-0.024736511
-0.024756478
0.027968735
-0.0098573109
-0.0038247088
0.02651236
-0.00019113389
0.0031089273
-0.030352589
-0.020689944
-0.0226373
-0.010841827
-0.02870735
-0.016605321
-0.022090947
0.021223288
0.023819696
-0.02173394
-0.022236401
0.027059335
0.025668064
0.018546594
-0.014350879
-0.022174092
-0.0047234981
0.022490812
-0.00025255492
-0.0030807506
0.0022479999
0.015448879
-0.027341314
0.00084868039
0.017238429
-0.018592199
0.026412364
-0.007867761
-0.035282031
-0.0082517238
0.018844379
-0.021518912
0.010486922
0.030751081
-0.012150406
0.018032428
-0.021713711
0.0045148679
0.0098797493
-0.014796186
-0.037568569
-0.00058654143
0.020668151
0.0090829711
0.0076320423
-0.013730024
0.00036347791
-0.032550029
-0.025294326
-0.011892023
0.0046471427
0.012440893
-0.027893912
0.011361399
-0.016099256
0.021188537
-0.030121751
-0.015405618
-0.033671167
-0.023449568
0.010872737
-0.031063488
-0.012439164
-0.0021470971
0.026395062
0.011761964
-0.016892059
-0.020642959
-0.0059133517
0.026797954
-0.011740694
-0.017038923
0.014201102
-0.022239424
0.020674683
-0.0062970906
-0.010042209
0.0050749904
-0.0015386486
-0.00038057126
0.030010212
-0.026548889
-0.025689811
-0.023868643
0.020955922
-0.0049719722
0.023774831
0.02452334
0.0052143438
-0.030129323
-0.029454254
-0.0073234513
-0.025047965
-0.0067024105
0.0078467345
-0.032234516
-0.026909264
-0.028603021
-0.016426086
0.0015106641
-0.052681595
-0.0067078639
0.0067045856
0.013028189
0.0069773602
0.0034646222
-0.04302175
-0.039718263
-0.02503779
0.0070027993
-0.00024796952
-0.018287754
-0.0025727213
0.0073909331
-0.022246275
0.007884155
-0.018758371
-0.023320729
0.0050046472
0.019291816
-0.021695394
0.0047482336
-0.012986979
-0.01521283
0.0042960746
-0.027015479
-0.013138765
-0.026573364
-0.019874424
0.0044779717
-0.0048120059
-0.021374028
-0.029964497
-0.015953351
0.027075887
0.0082397843
0.020829521
-0.01939409
0.008891236
0.022987653
0.017897304
-0.020080592
-0.021480035
0.0054535647
0.023019895
-0.017707037
-0.015015293
-0.02346758
-0.011121584
0.018339813
0.026851162
-0.00029654035
-0.0018194456
-0.01391721
0.00099964638
-0.0063462993
-0.0083725518
-0.024979129
0.0018727722
0.0065736324
0.011317023
-0.027385831
0.012500814
0.010653762
-0.0069690645
0.0095458757
-0.019779809
-0.027023908
0.015657762
-0.028638352
-0.02627678
0.010711708
-0.024369396
-0.023884429
-0.021961818
-0.023605419
-0.0077076862
-0.00070648891
-0.03552014
0.0038088516
-0.016588198
-0.016849471
-0.015374142
0.015145876
-0.010172485
-0.030584849
-0.0210931
0.024524763
-0.022111319
0.012812726
0.0032656633
0.019249242
0.018404007
-0.01724124
0.00013397777
-0.015845779
0.022438172
0.024213824
-0.0095682265
0.012162562
0.026022151
-0.0040530264
-0.0076102098
-0.01852941
0.0031593808
-0.00054793211
-0.0090828575
0.025719317
0.037593357
0.014960047
0.011100488
-0.018819008
0.021754129
0.025571242
0.013958595
-0.010139233
0.024062119
-0.022408459
-0.0084253084
-0.022765188
0.025752477
0.013296509
0.021304134
0.011662399
-0.023810303
-0.0022414122
0.010084467
-0.031356595
-0.017354392
-0.013778675
0.015114477
-0.015016075
-0.004170754
-0.032856379
-0.0097772097
-0.012969299
0.0052703302
0.017364802
-0.014747418
-0.0019113526
-0.013729298
0.026008891
0.016917622
-0.016486296
0.011530189
0.013701309
0.005692041
0.021478739
0.025923161
0.029365607
0.017856082
0.015123973
0.01887612
0.021171039
0.00031240433
0.026624959
-0.0042476808
7.7890363e-05
-0.031565733
0.0014004699
0.014212131
0.01647504
0.0049430099
-0.0069691837
0.018848155
-0.023696253
0.017617483
-0.0024224748
0.011596967
-0.025011554
-0.030815991
-0.020611886
-0.026581923
0.019010652
-0.018497575
0.024830796
0.0012877745
-0.028987801
0.022751678
-0.00023676464
-0.028784387
0.022132531
-0.014152604
0.020133609
0.012773719
0.020386823
0.0048476188
-0.037137002
-0.019015556
0.019371642
0.0027001731
0.031121075
-0.0006590712
-0.018097915
-0.0051044449
-0.0019310422
-0.0027587637
-0.013194649
0.019414296
-0.012517578
-0.011434254
0.02510103
-0.00048101702
-0.0022498923
0.0037175424
0.014385258
-0.010514035
-0.013638532
0.026420392
-0.012189478
0.024358904
0.026234953
-0.02621069
-0.02579052
0.021932479
0.02037207
0.0054053799
0.012686049
0.017884532
-0.02379288
0.0045261555
-0.0066901431
-0.031462234
-0.019412447
0.010542525
0.0025729388
0.010479075
-0.019244736
0.0034260945
0.0030731445
-0.0052780476
-0.022013791
0.0029529689
0.026304299
0.0026639292
-0.0060015796
0.020348977
0.023293275
0.0058254432
0.020612048
-0.012245519
-0.006708527
0.015033811
-0.015582603
0.00082855654
0.0092118802
-0.022920504
-0.0097531117
-0.011388495
0.025714958
0.0039237505
0.025976919
-0.017906101
0.0096402671
-0.023035021
-0.028525997
-0.016241556
0.019235704
-0.015733991
-0.02917821
-0.0074526453
0.0089451456
-0.016844559
0.026865898
0.020860191
0.018611981
-0.017171094
-0.00061238738
0.012761516
0.023277424
-0.016885454
0.021253027
-0.015792917
-0.027202271
-0.019276422
0.019569479
0.0097630667
-0.016926965
-0.018168405
-0.025362846
-0.014288644
0.017711163
-0.029567532
0.0065051694
-0.0038244065
-0.018682731
0.011583092
0.012333944
-0.03237034
0.024970381
0.015052577
-0.0044798888
0.0053458894
-0.029994486
-0.0043709446
-0.015309072
0.015322126
0.0087012583
0.013633483
-1.8637884e-05
-0.0059388303
-0.029033648
-0.0085380888
0.018509308
-0.024755981
0.0048150318
0.0076857889
0.020360576
0.023196952
0.021748342
0.029175699
-0.022366317
0.0092330789
-0.025990704
0.015559322
-0.029521788
-0.023894925
-0.0014132004
0.036591999
-0.011033305
-0.0069386666
0.0072155977
0.016510973
0.028690455
0.0072508641
-0.018716045
-0.018377075
-0.005759805
0.021303844
0.024491565
0.02331345
-0.0067326888
0.02647604
-0.013049965
-0.018728718
-0.02650222
0.021704355
0.018603414
0.02590196
0.014031346
0.0072343559
0.024110068
0.020605067
-0.013870175
-0.054753061
-0.048641093
-0.05628043
-0.018252317
-0.018206486
-0.033577304
-0.021227388
0.0042938744
0.021880377
-0.018969988
-0.043245032
-0.021264037
-0.020063391
0.041840278
0.024252601
-0.034756966
-0.0001943582
0.0044273534
0.0354486
-0.012030918
-0.024766097
0.016330624
0.040271718
0.057676282
0.090242386
-0.029484199
-0.087466098
0.093196608
-0.046870235
-0.19595215
0.022556638
0.00044279845
0.011951518
-0.016233813
-0.015091203
0.01082026
0.011988433
0.0041042818
-0.00050786359
-0.025989577
0.017416822
-0.062175836
0.031194787
0.0062632752
-0.052756164
0.017997257
-0.013841751
0.054949909
0.010585605
0.017528167
0.013716578
0.089062437
0.0039639026
-0.099789038
0.10418624
0.087521039
-0.06295643
-0.016118262
-0.039617851
-0.013841741
-0.0076369429
-0.0038260075
-0.066568598
0.0025699574
0.017905843
0.016795652
-0.039106548
-0.046050157
-0.019482192
-0.015969865
-0.0079148998
-0.0072186631
0.013086671
0.00085911993
0.049892794
0.035668947
-0.022823637
0.04074765
0.079335362
0.045223024
-0.10394737
0.038507398
0.060824379
-0.062131848
-0.015265068
-0.0071862414
-0.007359881
0.0087093441
0.026797818
0.016316492
-0.0092198458
-0.015798766
-0.0089252563
-0.054943051
-0.013265466
0.017946228
-0.028628059
-0.0090272101
0.021254672
-0.034191776
0.025220422
0.0026271332
0.011506026
-0.055462979
0.015039614
0.030404393
0.16904347
-0.17639516
-0.077255189
0.022333596
-0.10851201
-0.051687583
-0.010737341
-0.040133681
0.026545463
-0.0076751863
-0.022157578
-0.016239164
-0.0088460138
0.041518632
-0.050346866
0.020071788
0.0092459777
0.017291304
-0.0051400927
-0.034532133
0.036387347
0.023441082
-0.016004261
-0.043098338
-0.058928709
0.0060747964
-0.0076415832
0.17188562
-0.080978237
-0.074375153
0.052561041
-0.08379367
-0.02860726
0.0087574245
-0.013614914
0.031652108
0.072196566
0.033630308
0.017733127
0.013770775
-0.037731279
-0.051984098
-0.01492521
-0.0090385443
-0.0014611476
0.025565721
-0.0064564855
0.036675993
-0.0080561806
-0.017036177
0.018239053
-0.050178904
0.037360869
-0.065000236
0.14640917
-0.10582239
-0.019956369
0.083632052
0.02601395
0.010413549
-0.031713042
0.027041102
0.043617595
-0.021708088
-0.019416692
0.030663002
-0.020249609
0.16111225
0.010486969
-0.029420596
-0.029762298
0.045606311
-0.023357684
-0.051590107
0.014625793
-0.014324342
-0.037195466
-0.05473708
0.0028029217
-0.055625468
-0.050234187
0.1549616
-0.13885939
-0.033970021
0.0050068675
-0.11775082
-0.015118008
0.05113684
-0.00017351349
0.059160281
-0.025187638
-0.010184478
-0.01702814
-0.051723182
0.17806539
-0.022018591
-0.0088461125
0.042426813
-0.03782611
-0.028921362
-0.023472756
0.015490835
-0.0051001073
-0.0051641199
-0.054034825
0.032294452
-0.018623417
-0.067635223
0.057385396
-0.13398911
0.062730245
-0.28030896
-0.23756813
-0.026415249
-0.0085577602
-0.037650809
0.0096653923
-0.10263538
0.019176297
-0.022094227
-0.061731804
0.12389204
-0.013443739
0.045594137
0.041907124
-0.019089395
0.0016812915
0.025646418
-0.057870235
0.042163905
-0.02629439
-0.0084444741
0.0079497462
-0.016367011
-0.04589982
-0.13606417
-0.21420926
0.2488547
-0.11484148
-0.11402296
0.01242879
0.039863441
-0.017874569
0.018771812
-0.0077075046
0.0038906299
-0.018904133
-0.011456969
-0.11851885
0.0026592251
0.067121461
0.0047060512
0.002603201
-0.019069307
-0.026889483
-0.017513756
0.014861026
0.03573291
-0.03425635
0.0070042438
0.035428073
-0.053601082
-0.21045518
-0.13520521
0.33565196
-0.14028695
-0.15452197
0.02102928
-0.04454897
-0.023191974
0.042501703
0.032019459
-0.023714256
-0.025458742
0.020388648
-0.030457305
-0.048359722
0.05955283
0.028549697
-0.02065854
-0.018174196
-0.022009365
0.012184549
-0.0033580021
-2.5935788e-05
0.037020881
0.041522849
-0.037806004
-0.038987156
-0.26325181
-0.12619407
0.39458156
-0.075506963
-0.10982123
-0.0033007648
-0.0014846034
-0.0013688867
0.0084520588
-0.0044090743
0.0024913766
0.023299733
-0.022734061
-0.034937814
-0.021223292
0.006055933
0.012590104
0.029833781
0.01109517
0.0045745703
-0.037248593
0.0085705668
0.03687859
-0.030965405
-0.014058324
0.0011188554
-0.038189512
-0.23655064
-0.13786459
0.3360244
-0.1014774
-0.039403327
0.022531599
-0.054250348
-0.0043497006
-0.013445931
0.025532151
0.03810966
-0.030661246
-0.048346177
-0.067009978
-0.0094496999
0.03590247
0.036234673
-0.026729062
-0.0089171976
0.041791122
0.013890631
0.0085235108
-0.0046830098
0.032587048
0.025981899
-0.034737322
-0.026292749
-0.089982338
-0.14681825
0.21293306
-0.049666435
-0.12080062
-0.024783652
0.014137167
-0.063899368
0.0073396503
0.013681148
-0.0018561024
-0.039773345
-0.021772442
-0.037411574
-0.0029474385
0.043993328
0.012441582
-0.016933525
-0.034932904
-0.00833074
-0.018052381
0.022538161
-0.014753935
-0.022025874
0.015854489
0.034685269
-0.083036795
-0.038171455
-0.14169721
0.10439357
-0.010384797
-0.078539535
0.0023510868
-0.039972145
0.030329918
0.0064564096
0.021877157
-0.0043239961
-0.020101961
-0.025832206
-0.0015087186
-0.014895053
0.024851689
0.059755396
0.0321013
0.0061435788
0.013592624
0.0041381083
-0.016808584
-0.026106918
0.043974131
-0.01479238
0.013846901
-0.059361942
0.076785415
-0.14651623
0.03147646
-0.023543762
-0.086876772
-0.010125143
-0.023586566
-0.020533731
-0.010529
-0.015586459
0.02168346
-0.0046580224
0.0020594795
-0.052494757
0.053606488
-0.0002658531
0.013428466
-0.0086645959
-0.019963896
0.04042431
0.036968581
0.001680614
-0.0061960765
-0.015584782
-0.04191466
0.021957722
-0.039839271
-0.26369712
0.021256886
0.2614094
-0.039702829
-0.070848249
-0.026611339
0.017277692
0.025238516
0.00038448011
-0.054112792
-0.0071204845
0.0025836434
0.0050696237
-0.015622135
-0.025481522
0.015073632
0.029897807
0.00058056077
-0.019521222
-0.019028423
-0.056407295
-0.0099275168
0.0338597
-0.0065381313
0.033290919
-0.0054010102
-0.044822734
-0.23858716
-0.032653451
0.21390691
0.013525466
-0.044721559
0.021825427
-0.031946763
-0.0016970716
0.0015868084
-0.066537626
-0.015352749
-0.032177448
-0.0094392616
0.047596559
-0.0069946833
0.030286318
-0.006915621
0.0094167739
0.023798583
0.065894164
-0.035585858
0.0077739535
0.04166469
0.016788289
-0.012729807
-0.014942262
-0.034817208
-0.12072204
-0.016871741
0.09362717
0.028102262
-0.0012596126
0.013059754
0.020943122
0.019222133
-0.02242635
0.018808696
0.017738732
0.030253807
-0.036154248
-0.040199693
0.010818074
-0.0080505861
-0.070870265
0.009458336
-0.031479869
0.024548598
-0.021145169
0.057734255
0.016613828
0.001510911
-0.039162915
0.0049817194
-0.026520599
0.043583259
-0.023414424
-0.030260406
-0.018869447
-0.048590913
0.012119897
0.074776165
-0.036385577
-0.00070679176
-0.010003407
0.008900038
0.0040624533
0.033105295
0.12496029
-0.019007675
0.013044596
-0.027943805
0.01038822
-0.01339554
-0.037352644
-0.0027790384
0.085003302
0.044569533
-0.020006111
-0.077926651
-0.051969457
0.0011919978
0.18072505
-0.0077742059
-0.16220121
-0.030522851
-0.031132506
0.0081882272
0.022638526
0.042709183
0.0021241142
-0.037534088
-0.016562311
-0.011910962
-0.011394753
0.0058108838
0.023576677
0.017990381
-0.008557098
0.0086252727
-0.018877091
-0.061265111
0.031435203
0.02042282
0.019039001
-0.018899145
-0.021326164
-0.056887485
0.028934231
0.20272382
0.0027806596
-0.25371021
0.11556935
0.085567579
0.017630562
-0.013557037
-0.026109319
0.0069714691
0.0044096527
0.035864431
-0.0032879619
-0.024295993
-0.0011904237
0.044303916
-0.060726296
-0.0048476537
0.0043805749
0.0040348228
-0.071529932
0.037666004
0.0089623882
-0.014173301
-0.0011193712
-0.034526899
-0.049971092
0.032059681
0.19096318
-0.0083307261
-0.22097245
0.10968678
-0.044162307
0.0028777684
0.010913688
0.0032700864
-0.020889511
-0.091549605
0.013801787
-0.01498579
-0.093754023
0.0067240694
0.015691094
0.069208652
0.031572271
-0.015143421
0.011146733
0.0065379841
0.0071181324
0.02085039
-0.016087618
-0.024181193
0.022944197
0.040133685
0.042936265
0.16323407
-0.046140116
-0.22421247
-0.33781019
-0.31899205
-0.0074177538
-0.0069406922
0.021309603
0.02520333
-0.027634965
0.021521993
-0.009040907
0.001051195
-0.044877749
-0.011222525
-0.032983355
-0.013386392
0.0036657185
0.0081456406
-0.02188801
0.030375771
0.041862022
0.045708764
-0.072389558
-0.04235135
-0.065291122
0.10976146
0.17597057
-0.060133941
-0.16437596
0.062714256
-0.16122773
0.03113318
-0.019147022
-0.034551278
0.022580843
-0.017308971
0.026077405
-0.013771802
-0.014128249
-0.027106145
-0.064329758
-0.0046855956
0.016993398
-0.0034892843
-0.0026911888
-0.054871954
0.018491339
0.01168091
0.028822325
0.028471014
-0.071521007
-0.014497017
0.069664352
0.050134171
-0.041814473
-0.14485948
0.017124377
-0.13978957
0.075650528
-0.0013893856
-0.042631067
0.013648932
-0.040197801
0.022246288
-0.043506555
-0.020158237
-0.02603551
-0.040043965
-0.027202757
0.017486325
-0.02432728
-0.019259898
0.0058992151
0.053613186
0.0695116
0.0032307848
0.017330395
-0.03691731
-0.02950798
0.071139872
-0.0019108307
0.042065065
-0.22810769
-0.043900475
-0.11138599
0.046268113
-0.03497991
0.027079672
-0.029545737
0.060365126
0.031007543
0.004723134
0.024964098
-0.0014433846
-0.034120139
-0.016865579
-0.023914292
0.025684118
-0.035116635
0.027649987
-0.021894366
-0.022988258
-0.042114343
0.0091806343
-0.052347664
-0.013806788
0.06025131
0.042675782
0.027395856
-0.12174204
0.038265985
-0.13158712
0.030130219
0.044480886
0.052578162
-0.0093910499
0.0060040108
0.010982024
-0.027461678
0.026094563
-0.066590786
0.019572197
-0.0063659642
-0.018878616
0.023669297
0.022373335
-0.0028542886
0.018784562
-0.0076933228
-0.0059620831
-0.039004177
-0.013735077
0.011907675
0.10696209
0.052290794
0.052655075
-0.11740372
0.065386444
-0.077123374
0.03334485
-0.018608838
-0.01002121
-0.021834178
-0.031656034
-0.029310754
-0.0014567609
-0.024015127
-0.017072355
0.012528016
0.040854637
-0.034479018
-0.027527262
0.01070879
-0.034973454
0.0042948946
0.022041747
-0.017117498
-0.021684829
-0.018951308
0.0080673965
0.12123999
-0.02694414
-0.017475171
-0.085276097
0.025987631
-0.10577331
0.070694312
-0.03405283
0.011236155
-0.019133085
-0.052119624
-0.011755138
-0.02501139
-0.024077695
-0.064385086
-0.0011081721
0.035200041
-0.0043586139
0.016796658
0.011057499
-0.0062463195
0.0068653524
0.0049776677
-0.013030875
-0.013117847
-0.0031138447
0.01366649
0.078896552
-0.042087864
0.013585306
-0.077458285
-0.051954776
-0.084061481
0.010256256
-0.014389941
0.013772105
-0.012845286
0.019336529
-0.0098586688
0.015843192
-0.044258259
0.0039145309
-0.050692011
0.027135216
-0.024561046
0.016978079
0.025588842
0.010507534
0.050175902
0.037561968
-0.029758824
0.03537295
-0.025311874
0.034288187
-0.11224025
-0.11159764
-0.071947962
0.19102716
-0.065627739
-0.052205946
0.003565344
-0.050597418
0.056737158
0.043585502
0.02020056
0.022882251
-0.019103531
-0.038755488
-0.038449425
-0.0067934617
-0.025458183
0.012522317
0.0094563114
-0.024407478
-0.022878734
0.0053471732
0.0014621367
-0.028270109
-0.013795913
0.025568211
0.058273286
-0.040653959
-0.13261369
-0.076083623
0.12696181
-0.020553643
-0.08405745
-0.022516776
0.0096394494
-0.052415449
0.017355219
0.093674734
-0.01897024
0.022076705
-0.0096897166
0.016380901
0.0018762588
-0.03084201
-0.012245958
-0.014902247
0.0072384453
0.019344527
0.027861811
0.01352214
-0.049637645
-0.03811387
-0.020085955
0.040256791
-0.028660415
-0.0038529004
-0.030339573
-0.021814965
0.046453197
-0.05631971
0.0075771105
-0.016237477
-0.025302904
0.098698005
0.036922492
-0.020847011
0.013190982
-0.024173303
-0.0098903803
-0.044315618
-0.0091977008
-0.026873307
0.006730611
0.010242059
-0.0047640833
-0.046028517
0.031671308
0.0081963306
-0.045983046
0.0063037397
0.009005161
-0.049764413
0.045154661
-0.02622482
-0.090580568
0.023229126
-0.052430313
0.023214838
0.039256249
-0.0020389343
0.061987258
-0.0086045414
0.055923857
0.021774562
-0.029672667
0.0068818335
-0.015047226
-0.078459941
-0.019873763
-0.0069420333
-0.0075371261
-0.00082793075
-0.0013965755
0.0098988255
-0.0020587719
0.024100889
0.024573622
-0.03329071
-0.064694121
0.1332137
-0.094669253
-0.06738431
0.022599289
-0.067789339
0.00042781141
-0.02972102
-0.011546629
0.012208495
-0.043572024
0.021994622
-0.00078721362
-0.037274811
0.14465013
-0.020757226
0.0052853287
0.076348573
0.031590153
0.026328435
0.021736689
-0.031019906
-0.01968265
-0.049888965
0.019490702
-0.062865026
0.040676735
-0.035656121
0.053758111
-0.063703723
-0.024467969
-0.01866702
-0.15783882
0.008482337
-0.047372956
0.011347785
-0.011734741
-0.043170586
0.032077584
0.0012221587
0.0031446996
0.032342963
0.00036149021
-0.011008103
0.00086389808
0.021836935
-0.0047504338
-0.0053747403
-0.018201552
0.02769669
0.034470662
0.0020940159
0.036649354
-0.0016357709
-0.038583126
-0.040457286
-0.064483762
0.065720662
-0.044360839
-0.10633213
0.0096953036
-0.0075406749
0.074965015
0.00022097235
-0.033092856
-0.040169653
0.022198534
-0.062516972
-0.0047021778
0.0083700288
-0.013736608
-0.022649432
0.021492949
0.0079357307
0.0055168942
-0.014296378
-0.018410584
-0.031944528
0.050099339
0.033583883
-0.018330874
-0.043388207
-0.1107133
-0.12235443
0.2124819
-0.0047817547
-0.14511582
0.00750513
-0.02283838
0.012169411
0.026798062
0.049113996
0.0031083536
-0.015717778
-0.0088462876
-0.1037647
-0.020709153
-0.0010476792
0.0079477001
0.059842207
-0.022246884
-0.02868348
-0.021429662
0.023040727
-0.003880386
-0.021226749
-0.00768157
-0.0210361
-0.023223002
-0.057390079
-0.083895259
0.14240934
0.12590192
-0.10958581
0.023305329
0.023276005
-0.011105102
0.074222773
-0.0040924461
0.0089972736
-0.0044536395
-0.010244341
0.089547545
0.044753339
-0.039454531
-0.04308584
-0.0097148959
0.032026
-0.051725887
0.0071072835
0.018649008
-0.0083578276
-0.0054797386
-0.031332076
-0.0030856812
-0.010182522
0.085668474
-0.13820808
0.043794256
0.052340142
-0.078864992
0.014501394
-0.013179508
0.027965955
0.01571429
-0.036017008
-0.024216335
-0.0072040674
-0.050260704
0.044883288
-0.039603159
-0.026745375
-0.065531716
0.033925049
-0.03864843
-0.045552399
0.0094784554
-0.0085721249
-0.031902671
0.0067822062
-0.018938724
0.012980231
0.031582363
0.096599266
-0.17579439
0.033890743
0.085812099
-0.035856638
-0.015898455
0.052060839
-0.028928684
0.021253048
0.028399728
-0.16167499
-0.022941085
0.017435325
-0.010677646
0.050428718
0.22907963
-0.04633401
-0.016485656
0.019998558
-0.04898553
0.051601451
-0.10896572
-0.19961233
0.0078309597
0.036364425
-0.025036484
0.086873151
-0.017219821
-0.016274504
-0.0058638235
-0.032661807
-0.0039129518
0.10859446
0.27957904
0.034659665
-0.010678062
-0.029017344
-0.03261131
0.011549801
0.16296625
0.016697166
0.0098156193
-0.0021621054
-0.01940272
0.06594678
-0.20835125
-0.089530714
-0.032383163
-0.022372017
-0.033125229
0.041164953
0.079839282
0.0363543
0.0036652551
-0.010640977
-0.028115325
0.02124841
-0.24302247
-0.097023219
-0.013849217
-0.053547103
-0.023383211
-0.029641433
-0.15440674
0.0021797197
0.031238452
0.0066442783
0.021319749
0.07427267
0.18356213
-0.037204545
-0.0031114314
0.01232773
-0.041420437
0.014141846
-0.079465002
-0.15434776
0.006565162
0.0016189683
-0.032562632
0.030252971
0.08928939
-0.14823268
-0.037588134
-0.010205741
-0.034315068
0.10279962
0.16097428
-0.13660213
-0.015015812
0.068819761
0.014773104
0.086849652
-0.2039509
-0.077884175
-0.0043611308
-0.047174037
-0.041933645
0.043174338
0.015079116
-0.072085753
-0.044755746
-0.03115497
-0.012808326
-0.050217431
0.21570298
-0.084859692
-0.010843652
-0.023651928
0.007857034
0.057228848
-0.069852479
0.045517713
0.029976796
-0.019658841
0.0075756987
0.027076874
0.010856173
0.010214457
0.00022877392
-0.00043937852
0.036952078
-0.03258932
0.12865533
-0.031061308
0.029013492
-0.024641929
-0.029650111
0.028982298
0.11655951
-0.12826407
0.029672949
-0.031282358
0.021777157
0.0027558487
-0.04747821
-0.13715287
0.019302245
0.03025987
-0.02321144
0.052754145
-0.19227272
-0.12134648
-0.0067052357
-0.041756328
-0.043711048
0.066905044
-0.030215528
-0.085442133
0.0065929703
-0.020759214
-0.046416275
0.069838524
-0.039280206
-0.17231448
0.0065316423
-0.0088007851
-0.034152795
0.090403996
0.0074027246
-0.10222645
-0.040628359
-0.019563548
0.011830727
0.081349261
0.43014011
0.0087687643
0.016402274
-0.079259887
-0.02669565
-0.066899471
-0.13000365
0.0278774
0.012249147
-0.016883681
-0.003371621
0.055027477
0.3696717
0.058395959
0.015397348
-0.015209893
0.04041924
-0.057943638
0.052778073
-0.038590197
-0.020355061
-0.069980852
-0.0047667501
0.059331808
-0.39470986
-0.17317981
-0.020889748
-0.071044102
-0.042527489
-0.028580992
-0.077941239
-0.096403874
0.01631722
-0.031498846
-0.017912436
-0.014525421
-0.41649908
-0.17613882
-0.033127915
0.029113119
-0.030428777
0.0089192456
0.1070917
-0.093598969
-0.033452921
-0.0042288154
-0.077410951
0.018787727
-0.094248764
-0.21940289
-0.016249232
0.011486488
-0.012605632
0.051452342
-0.29623678
-0.096655823
-0.029555224
0.049127735
-0.032738999
0.034379825
0.29491127
0.023829788
-0.046607699
-0.022310743
-0.010782482
0.03163965
0.39017189
0.096378736
0.020082723
-0.030763594
-0.037778508
-0.068466924
0.02241357
0.03733433
0.025550567
-0.012336326
0.0019228437
0.042474695
-0.22474656
0.017669715
-0.009649368
0.01544126
0.020671256
-0.071529992
0.20817611
0.1593965
0.036868256
-0.029292883
0.025454536
-0.047498487
0.0099234777
0.0073015904
0.0039769001
0.012968633
0.020981763
-0.021618672
-0.19252354
-0.056574993
0.0029255089
-0.015957367
0.027244439
0.047357
0.61467236
0.026236042
-0.0044284682
0.016847769
-0.021711927
0.02114513
-0.093968183
-0.1515146
-0.012746216
-0.000451089
-0.0034197364
0.054170262
0.14324251
-0.032488387
-0.031310171
-0.016753415
-0.029582348
0.04289566
-0.17034055
0.0082689039
-0.019421699
0.012328926
-0.015398206
0.047813065
0.064356349
-0.074829206
-0.050838057
0.0047786972
-0.014712179
-0.0054118447
-0.17651728
-0.0742606
0.0018609586
-0.038062599
0.028405664
-0.0059874742
0.028094839
-0.0036481742
0.048830867
-0.039808434
-0.019980704
0.11520267
0.0044820746
-0.1011747
-0.022416042
-0.042266447
0.040791307
0.018339271
0.093638323
-0.0027214901
-0.016824035
-0.07120683
-0.00062379567
0.017681079
0.42521608
0.097831085
0.055306856
-0.062857449
0.026902484
0.044336129
-0.14357139
-0.063015044
0.021394564
-0.022514345
0.029488839
0.076726303
0.060653064
-0.019296095
0.039179817
0.016261872
-0.0057240608
-0.025545159
0.077257782
-0.055099074
-0.054013889
0.0019503175
-0.0062959655
0.027954128
0.15918259
-0.066849768
-0.033597652
0.02477552
0.013145951
-0.011756784
0.74024218
0.14183229
0.029325427
-0.025839875
-0.013091885
0.088465534
-0.1026521
-0.10263169
0.02653064
-0.035920046
0.0089248084
0.02649639
0.28388047
0.070634693
0.032454558
-0.016112605
0.062971748
-0.34889233
0.21633267
0.096116729
0.1718531
-0.038307875
-0.040988229
-0.033394229
-0.38257363
0.044308934
0.018953817
-0.069817394
-0.0054630926
0.017196685
0.030189034
-0.032065805
0.01305003
-0.044914823
-0.0094964877
-0.053536646
0.4317596
0.14343627
0.069741286
-0.044452969
-0.0011479914
0.0080042845
-0.3430616
-0.22241355
0.033638991
-0.018550437
-0.00072158163
0.038318597
0.16218817
0.026701968
-0.021554394
0.049222689
0.00056472141
-0.050039236
0.55212712
0.024335563
0.0043684156
0.039554283
0.029626021
0.0056808232
0.45682648
0.076282367
0.00065942487
-0.0062533934
-0.0070971292
0.0013626583
0.11571185
-0.068398558
-0.014518773
0.01711769
0.020206073
-0.0504958
-0.03609886
0.055357009
-0.0082906624
-0.0082134679
0.0029552234
-0.0088599892
0.13115282
0.022163564
0.027258286
-0.021224363
0.034848075
-0.21155351
0.095059328
0.26653796
0.019364135
-0.051522277
-0.013245967
0.043892585
0.406663
-0.14973626
-0.0246727
-0.034840938
-0.040214706
0.013683435
-0.03138328
-0.028451269
0.021023523
-0.033111498
-0.045422211
0.015380279
0.0064760577
-0.11789494
0.038584109
-0.084097043
-0.012702587
0.045853365
-0.22095615
-0.12162547
0.042396162
-0.043042384
0.0086703869
-0.00087942905
0.02087179
-0.096779101
-0.0083087478
-0.0086734155
-0.0092349276
-0.084269211
-0.092871502
-0.031672161
-0.030436356
-0.040773559
-0.0083063729
0.040748578
0.77499455
0.053815905
0.026938833
0.04631529
0.024100093
-0.072827987
0.60673136
0.27190822
-0.0027369587
0.0012337314
-0.014389613
-0.0067955111
-0.28256667
-0.036713894
-0.0041880449
-0.064082943
-0.051991705
0.050954349
-0.37895322
-0.081943244
0.007969019
-0.077745974
-0.015639201
-0.19973412
-0.041010901
0.10197285
0.067458868
-0.060109571
-0.04788065
0.098035879
-0.20372821
-0.21520518
-0.040073611
-0.063778356
-0.012868728
-0.030028256
0.16489196
0.046666555
0.016921045
-0.045494162
0.022914134
-0.055361606
0.26785386
-0.012961701
0.012788671
-0.053140704
0.0074111931
-0.00091648044
-0.12477729
-0.040267691
0.018504065
-0.040602073
0.0013054037
0.033350214
0.17957729
0.01419089
-0.0084381914
0.010962105
-0.045611426
0.008745742
0.17493948
0.045664255
-0.015269565
0.026861802
-0.0075001214
-0.091556475
0.390084
0.059338663
0.004599689
-0.0084150275
0.00044202604
0.086192735
-0.07269308
-0.11990459
0.00036973358
0.0048966384
-0.021584291
-0.0083527891
0.31553078
0.064530998
0.007951648
-0.039581742
-0.053693306
0.054425839
-0.57077187
-0.19674182
-0.042139832
-0.071602605
-0.051588606
-0.11882453
0.021089423
-0.017341211
0.024260746
-0.081405386
-0.040907774
0.12883238
-0.45237702
-0.29395938
0.0004468316
-0.048640363
-0.0013696033
-0.0072990432
0.041783959
-0.10976355
-0.0092679476
-0.090302542
-0.0071019339
0.010969034
-0.16305956
-0.2507765
-0.018475797
-0.046042304
-0.00060696219
0.0082133589
0.10199778
-0.17176592
-0.021533245
-0.028684428
0.0122155
0.015885917
-0.3335025
-0.069135867
-0.0072335307
0.13345507
0.027999733
-0.16000241
0.37051788
0.039087024
0.0027812086
0.031712648
-0.018905982
0.0039362451
-0.19664407
-0.1360047
-0.017796954
0.051588379
0.010120154
-0.019884873
0.27784067
0.017320348
0.038184818
0.047366604
0.017994972
0.0078383945
-0.36296332
-0.044898689
-0.0026761675
0.01966303
-0.040270239
0.10248671
0.02473836
-0.21993738
-0.02887528
-0.036232639
-0.044308603
-0.09479104
0.20440958
-0.20443524
-0.015630899
-0.050500631
-0.041335993
0.15054166
0.069324866
-0.16815042
-0.0018060392
-0.021019725
-0.0057424912
0.0079698097
-0.1987422
-0.15555434
-0.030949079
-0.059072644
0.0098475739
0.043687139
-0.15055928
-0.24457894
-0.010218284
-0.026838558
-0.029526159
-0.048774812
-0.3273623
-0.19676597
-0.01678331
0.0078771897
-0.038851995
0.0143262
-0.18420701
-0.17613654
-0.00052416942
0.062954776
-0.0054418994
-0.058354624
-0.48199672
-0.10606327
-0.02171641
0.076328948
0.03148644
-0.099824652
0.13467215
0.093129843
0.0080682207
0.025995579
-0.014585323
0.090644769
-0.50870234
-0.095229492
-0.027242666
0.0055738664
-0.026537266
-0.0059109791
-0.16730082
-0.11383207
-0.037281279
0.021603243
-0.0096715651
0.01510941
0.11905435
-0.24529757
-0.015027836
-0.048291918
-0.014459612
-0.092019096
-0.020099679
-0.10451896
-0.038109545
-0.016479874
-0.016176078
0.073914833
-0.36259425
-0.31398213
-0.020172622
-0.071266316
-0.036194164
-0.023860661
0.0011314921
-0.049613621
-0.010728459
-0.023756115
0.017786633
0.025864227
-0.070142582
0.0085350377
0.0056834589
-0.012370671
-0.0055339118
-0.026544197
-0.12444858
-0.0017552003
-0.0012162438
0.012235047
0.011005918
-0.014398008
-0.25066885
-0.11919252
0.023827231
0.001243926
-0.0034129827
-0.012400043
-0.0044948556
0.0150492
-0.013204138
-0.028801151
-0.013471487
-0.016364207
-0.093946613
-0.038868751
0.08902356
0.080803409
-0.14282873
-0.076615267
0.28908271
-0.035529099
-0.013796882
0.0094974134
0.022718109
0.030422483
0.027545976
-0.032478828
0.02804682
-0.01814325
-0.024063418
0.0091725942
0.0087482976
-0.020886915
0.0046938676
-0.0076012635
0.024665717
-0.012952884
0.012352517
-0.012095842
0.02724052
-0.047257449
-0.013774696
-0.058710586
0.04300122
0.011117834
-0.63280982
-0.21895327
-0.03726976
-0.086261235
0.0042672595
-0.017488912
-0.015994826
-0.014810091
-0.0020206724
-0.031220181
0.0045766574
0.0035648143
-0.020729996
-0.034089755
-0.0043970179
-0.026352182
-0.040652923
-0.028457662
-0.0040804385
0.01297165
0.011672672
-0.021818716
0.012672306
-0.021479113
-0.039418977
-0.061377678
0.05150298
-0.0083588222
-0.024458203
-0.062941507
-0.039372031
0.0029053423
-0.0073181828
0.020908484
-0.011882505
0.0059141023
0.014771706
0.0072816606
-0.022132186
2.7253995e-05
0.0053763674
0.0029683269
0.018702207
0.024288507
0.041212428
-0.00056202646
-0.039133605
0.015893327
0.02065473
0.0052322675
-0.0025959006
-0.030467771
-0.047251195
0.010663751
-0.033372201
-0.048043173
-0.088009879
-0.067146435
-0.023895577
-0.0044008028
-0.0046316087
0.0099254847
0.0098486701
-0.028033629
0.0021626919
-0.015843118
0.018515581
0.018740268
0.014501148
0.010241613
-0.034401495
0.0015704221
-0.0053730342
-0.053959731
-0.0060184109
-0.00083868101
0.024080737
0.012628233
-0.025609307
-0.06588947
-0.0081629753
-0.010359255
-0.045573693
-0.1224281
-0.044252574
-0.037978131
0.025803749
-0.013755046
-0.016790628
-0.0089579886
-0.032490149
0.017834943
-0.020233188
0.022579517
-0.016228216
-0.048436772
-0.016281981
0.0091532711
0.005674426
0.034914259
0.027632302
0.030817306
0.0013810559
0.0033213119
-0.013828653
0.02846504
-0.076028131
0.027556244
-0.04387898
0.034481123
-0.082876652
-0.028446153
0.009518778
0.021029286
0.011718276
0.039741479
-0.019309968
-0.037962463
-0.013789207
0.023589369
-0.0049441
-0.036815539
-0.010150053
-0.015680166
-0.025903644
-0.020018565
-0.017088674
-0.0069875694
0.024009101
-0.030451339
0.0038730216
-0.015026058
0.015279387
-0.027855137
0.031693149
-0.049427904
0.025629885
-0.078785762
-0.03686947
-0.0081934165
-0.033643529
-0.00046205966
0.012434026
0.0064071063
0.0014009067
-0.029858854
0.016884357
0.030432465
-0.026991954
-0.0023564864
-0.017924812
-0.041299481
-0.035542276
0.0063734958
-0.0069282791
-0.0055926209
0.038298305
0.00022071088
-0.035537295
0.01805184
0.011332576
-0.0089680571
-0.10272547
-0.022782506
-0.082346
-0.035941407
-0.0014214576
-0.019230163
0.014096558
-0.0087805334
-0.030997317
0.0062414953
-0.013928256
0.027418481
-0.014122936
-0.0010759482
-0.01713741
-0.025614515
-1.2582124e-05
-0.016212525
-0.033050824
-0.035936993
-0.046218634
0.0022278053
0.030848864
-0.037689544
0.010987556
-0.00045333235
0.031323601
-0.098958179
-0.011473516
-0.079620868
-0.0099495081
-0.13665107
0.044318944
0.019842369
0.047131017
-0.024771687
0.031546928
0.033552311
-0.045872312
0.069923729
-0.063622572
-0.067477286
0.011177678
-0.026220381
0.022026286
-0.022344006
-0.058299776
-0.068721421
0.0076709418
0.065679304
-0.13074397
-0.01907419
-0.037856985
-0.010769884
-0.082951374
0.14401942
-0.086293407
0.0053454773
-0.013750712
-0.0068966136
-0.038411412
-0.00073469908
0.022158079
-0.017191613
0.015745435
0.023255883
0.0062806094
-0.034228221
-0.031291395
0.012017309
0.0092341313
-0.038251858
-0.017701669
-0.02901471
0.0067946524
0.0051471312
-0.019711601
-0.0080088796
0.012556742
-0.046599086
-0.026004722
-0.05326226
0.02718167
-0.028894009
0.017160486
0.013560363
-0.034418352
0.0054925559
-0.037483174
-0.045692481
-0.033174846
-0.03937605
0.011605639
-0.012892864
0.017524838
-0.011284202
-0.012471865
-0.011656378
0.010647167
-0.043903343
0.021568535
-0.026599109
-0.012178457
-0.015245301
-0.0040015643
0.025784491
-0.0072846976
-0.018426176
-0.074275918
-0.073838927
-0.111232
0.0063562011
0.0071827769
-0.025169354
-0.0051825745
-0.00065914134
0.018593511
-0.030199353
-0.011801655
0.021356227
-0.0058004977
0.029275998
-0.059457604
-0.034453493
-0.035086609
-0.012932463
-0.031221559
0.0048383647
0.020620773
0.023382634
-0.01011145
0.037459087
-0.0009476546
-0.0069330446
-0.073633596
-0.040366106
-0.017148558
-0.11127508
-0.0085810497
-0.063016422
-0.0084853163
0.0049739238
0.011525763
-0.032015473
0.021331523
0.0010942435
-0.05240396
-0.0069744401
-0.027688675
0.0053534666
0.001144507
0.0056737768
0.016206061
0.0097055947
0.016411658
0.00014913116
-0.0087559968
-0.025724731
-0.029888103
0.0046032597
-0.071870737
-0.039586667
-0.023328543
0.0058320714
-0.10578964
-0.025969038
0.015659664
0.0063076732
0.0074770791
-0.046080682
0.0036769449
0.020567432
-0.0018305905
-0.002276507
-0.019258535
0.001099106
0.0018940977
0.00051793066
-0.035151638
-0.019569591
-0.010415063
-0.0076221251
0.015174603
-0.022106482
-0.029242234
-0.0080420915
0.046955086
-0.11176331
-0.031998515
0.01642637
-0.043868806
-0.1169273
-0.01104613
-0.0049982942
0.022897009
-0.014622222
0.0066757328
0.014701303
-0.038218111
-0.022258198
0.0080067236
0.0079096369
0.0027810486
0.013803126
-0.03062059
0.024289295
-0.013352028
-0.021407273
-0.02855902
-0.040077358
-0.028054435
0.021170037
0.0067269495
-0.01912581
-0.06804207
-0.035875827
0.023689501
-0.081492536
-0.18373594
-0.0082525341
-0.041099127
-0.016440284
-0.048167024
-0.026635323
-0.0090343514
0.022499653
0.0085419919
-0.034627713
0.011166924
0.019856479
-0.005096877
-0.012238936
0.0075604725
-0.036222842
0.033076871
-0.019831596
-0.01368105
-0.033668328
-0.014288104
-0.016958166
-0.013249643
-0.10064279
-0.044771068
0.023285929
-0.039167114
-0.10652494
-0.0057484531
-0.035270382
-0.017728854
-0.0081013609
-0.019387599
-0.035000119
-0.021838699
0.023494836
0.022654112
0.0029326451
-0.021848468
-0.052127909
0.0012364332
-0.029304435
-0.020527285
-0.034475509
-0.0021481439
0.014786373
-0.02033544
-0.0060522603
-0.0089135068
-0.021741867
-0.10189828
0.00091853697
-0.027964175
0.02350644
-0.089460649
0.026776681
0.029233532
0.019922869
-0.027718371
0.0085562598
0.021336619
-0.016996434
-0.032665834
-0.038745571
-0.011223759
-0.0082813809
0.012755261
0.003526605
0.021825507
0.00034084951
0.018298356
-0.018037969
-0.0064808135
-0.030714065
0.0023067819
-0.026111946
0.015675912
-0.064049818
0.0064854878
-0.022181356
-0.084180184
-0.15686795
0.02328511
0.020199955
0.018941646
-0.015395544
0.0026822947
-0.025464701
-0.030565925
0.016746521
-0.05730243
-0.005702504
-0.013984199
-0.012442338
-0.0021103614
-0.00081655371
0.012654863
-0.012424002
-0.025048722
-0.015667796
0.025912859
-0.015326214
-0.037713762
0.026324932
-0.062881269
0.013333376
-0.065123819
-0.067350544
-0.11745297
-0.0064287116
-0.014656311
-0.014009413
0.0050015589
0.034106649
-0.013615321
-0.0078617427
-0.0045470637
-0.0085872281
0.029245201
-0.032078203
-0.01780455
0.018505113
