-0.075437136
0.10402773
-0.035728522
0.037412271
-0.024761181
-0.029169459
0.044024244
-0.1037188
-0.057436615
-0.088002726
-0.15871106
0.062650211
-0.053612307
-0.16447932
-0.012371133
-0.15990737
0.020237898
-0.025561979
-0.014995041
-0.10004469
0.55687851
-0.17439777
0.14430481
-0.34638557
0.12947209
-0.089977995
0.031196963
0.0036602158
-0.11921489
-0.092247844
-0.025640499
-0.10792234
-0.074755818
0.029584909
-0.011478144
-0.10216776
-0.079839997
0.046900589
-0.033839062
-0.054945223
-0.095069759
-0.093173511
-0.078208014
-0.080108702
0.052221555
-0.036608398
-0.0037875189
0.55524975
-0.075017668
-0.017198326
-0.26932117
-0.11795206
-0.16071086
0.08404436
-0.055276681
-0.037903335
-0.11334271
0.074185662
-0.015676472
-0.060991704
-0.046347264
-0.17436785
-0.097044833
-0.052156761
-0.014924213
-0.057997018
-0.0089102471
-0.12821686
0.14527938
-0.089944363
-0.041975394
-0.04494955
-0.062412448
-0.024989711
0.50458807
-0.091258995
-0.0072116689
-0.22653675
0.28769532
0.051396105
0.10601158
-0.17212564
-0.058922768
0.098612584
0.014261034
-0.090419322
-0.15994123
0.15462391
-0.078535371
-0.029500965
-0.10986079
-0.14040449
-0.0443292
-0.09032397
-0.079921044
0.03395509
-0.076683454
-0.10032886
0.13771389
0.0047631981
-0.034295533
0.53518146
0.0025105153
0.051073715
-0.099262349
0.38451657
-0.054083992
0.044501424
0.3356365
-0.049860153
-0.22299041
-0.14242788
0.027278062
-0.072127461
-0.087639228
-0.020171022
-0.24233328
0.0034724928
0.060311072
-0.12009026
0.061979976
-0.5599044
-0.071268268
-0.21248142
0.090826489
0.20533089
-0.21125022
0.26661655
0.5543201
0.12948026
-0.13136208
0.06629438
0.99332261
0.2555117
0.022327602
-0.099553496
-0.12309471
0.066790476
0.11643705
-0.054099284
-0.18444963
-0.13971728
-0.15477172
0.028342828
0.038849432
0.18713142
-0.093860514
-0.12467021
0.15160169
0.090431564
-0.14640941
-0.18547228
0.060851455
0.013254646
-0.050591301
0.50474489
0.11122375
0.06795644
-0.18333928
0.069275022
-0.23997091
0.020989874
-0.11847183
-0.11977232
0.10257868
-0.014552798
-0.013752726
-0.0033251983
-0.047645725
0.051464539
-0.13765262
-0.099353313
-0.15503909
-0.0035946844
-0.0027272613
-0.012161724
0.060829673
-0.0051477584
-0.013909427
0.0090195648
0.043557826
-0.17604567
0.50449628
0.19202514
-0.16380838
-0.076114058
0.34553096
0.03477392
-0.0012442835
0.01976818
0.024301197
0.025162335
-0.0026950804
-0.1129185
0.13140707
-0.060237996
-0.10450862
-0.068536296
0.035771593
0.10168473
0.098483726
0.11828437
-0.0023486232
-0.046120666
-0.052618813
-0.081116945
-0.091443732
-0.17589596
-0.16775756
0.45642549
0.13184503
-0.030257817
-0.04356613
0.13681924
0.064035609
0.029357506
0.012483266
-0.060699772
-0.048367441
-0.14946413
0.050310288
0.015752031
0.073504835
0.14637379
-0.06658069
-0.031017961
-0.076538585
-0.044179007
0.0456241
0.058470562
0.19805144
-0.089549609
-0.057643168
-0.062674455
-0.12064431
-0.14421313
0.37718442
-0.096592039
0.027627988
0.080354474
0.24220714
-0.19348899
0.011162913
-0.015953803
-0.10002552
0.035717703
0.10364959
-0.17321169
-0.024648011
-5.1524548e-06
0.057412427
-0.16673748
-0.083073057
-0.0094351713
-0.014191752
-0.067760848
-0.11496582
0.052387457
0.11704358
0.075882323
0.02759118
-0.010273801
-0.088166825
0.24821173
0.0084411101
0.090902001
-0.11196057
-0.22178695
-0.10595234
-0.013379448
0.12878475
0.039474603
0.017283915
0.099991381
-0.1135745
-0.063241825
0.062403288
-0.21616563
-0.0560329
-0.20804864
-0.0031477329
0.083375633
-0.086034358
0.072707973
0.11386
-0.10634221
0.028003596
0.064984217
0.15684752
-0.10110515
0.40609911
0.098956019
-0.068272799
-0.058421977
-0.023420263
0.21336304
0.02619192
-0.1440258
0.040711284
0.0045583001
0.2053934
-0.013116492
-0.091124661
-0.055140767
-0.22957912
-0.032864537
-0.089143209
-0.024278738
-0.0019695014
-0.030111758
-0.029234283
0.16107942
-0.0026517161
0.05209443
-0.064205691
-0.056657024
-0.062319078
0.37076044
-0.0077401735
-0.13513854
0.14798743
-0.069651969
0.050301488
0.0024374921
-0.041476518
-0.13568792
-0.048751928
-0.13030891
0.024043012
-0.15332039
0.018722953
-0.25819963
-0.0083293719
0.11445231
0.23347063
0.1062884
0.040641919
0.0065823304
0.013448074
-0.19248842
-0.1724745
0.11014324
0.07307142
0.039788257
0.49414328
-0.22329281
0.042803735
0.17259681
-0.042749293
0.017892255
0.021266935
0.26353407
-0.1633756
-0.13306031
0.0047706272
0.85436791
-0.18966924
0.078464076
-0.15494552
-0.34958085
0.029218962
-0.05207517
0.035729434
0.060612362
-0.088461369
0.025148908
0.031060964
0.12199647
0.047456644
-0.10347162
0.10379366
0.49405381
-0.098050915
-0.18174882
0.21357144
1.2164813
0.62621999
-0.026724447
-0.041837484
-0.067866541
-0.010566465
-0.054403789
-0.1280826
-0.0097617293
0.15108259
-0.14412391
-0.12771955
-0.066672422
-0.17810006
0.05821383
-0.012075332
0.077470861
0.20362718
-0.037276246
-0.1524792
0.041053526
0.015181451
-0.079403542
0.53208923
-0.16546538
-0.044225052
0.034116991
0.34932238
0.095749408
0.19398041
-0.065625399
0.10781763
0.0021009541
0.077612743
-0.25690636
-0.027835054
0.04582835
-0.070758976
-0.0081962915
-0.11751743
-0.17567711
0.19108193
0.044826318
-0.092322551
-0.060994733
-0.09420938
0.038104057
-0.030591261
0.12787582
-0.1930543
0.4823359
-0.21364361
-0.054668024
-0.070192613
0.14159323
0.27459326
0.091752984
-0.012916987
-0.035379589
-0.035671011
-0.038431361
-0.075647675
-0.031504642
-0.056411594
-0.062073413
-0.14493811
-0.17001541
0.044005856
0.041679204
-0.00077443424
-0.095040411
0.08580891
-0.027924649
-0.042751916
-0.054709725
0.057354622
-0.057303689
0.44302538
-0.21322854
-0.096706271
-0.23054644
-0.014785873
0.10017073
0.18283831
-0.058968954
0.049060013
0.063499376
0.030334683
-0.083984926
0.0098467311
0.16126482
-0.16369215
-0.054759555
-0.099266946
-0.16018134
0.22676463
-0.070140474
-0.24731873
-0.013139704
-0.088833675
-0.0095952004
-0.18381706
-0.088507026
-0.094490528
0.4755646
0.051729962
-0.22023797
-0.32904047
0.29148167
0.18063639
0.15929952
0.11241615
-0.01127062
-0.015006482
-0.13981016
0.049814399
-0.056033015
-0.093489751
-0.035113193
-0.021841319
0.042224247
-0.027606646
-0.14352736
0.064751096
0.0074583436
0.12267964
0.15748401
-0.032711104
-0.0056680851
-0.17741841
-0.046459474
0.095261797
0.024930216
0.026132943
-0.063196547
-0.36191994
-0.29017118
-0.027539318
0.16813731
-0.074870065
-0.17221855
-0.26661032
-0.017126646
-0.0057412749
-0.097511552
-0.0027033561
0.092210099
0.010598673
0.038807221
-0.068672605
0.0649646
-0.0050943918
0.30816811
0.042995632
-0.027299631
-0.10502583
-0.023942847
-0.13910282
0.16381311
0.054462709
0.02773023
-0.065617643
-0.43305346
-0.086367711
-0.023495445
0.0019684092
0.02353818
-0.12700732
-0.25584057
-0.056231994
-0.0081636617
-0.098198235
-0.18464705
0.18802357
0.17663325
-0.040458612
0.0091080861
0.060562596
0.014248437
0.22234361
0.025795288
0.12342044
-0.32156599
0.01146216
0.12861824
0.031061228
0.049526989
-0.25130406
0.31867105
-0.57991743
-0.038261224
-0.029135752
0.12745678
0.072659366
-0.066980623
-0.12353319
-0.011352566
0.05982165
0.033940848
-0.3476311
-0.11517221
0.12347376
-0.054482419
-0.077773497
-0.019166214
0.012267538
0.28701234
-0.045412771
-0.0061795851
0.043126512
0.032725755
0.076035544
-0.015657501
0.022381788
-0.28711864
0.30860296
-0.64368004
0.013826436
0.0039683655
0.10168949
0.02130544
-0.075154625
-0.13608764
0.00347788
-0.065478057
-0.069558077
-0.30853474
-0.02869002
0.08265321
0.029139306
-0.037236601
0.10856253
0.10421006
0.30736691
0.069584332
0.024629319
-0.24212046
-0.068447523
0.07740818
-0.13530284
-0.040320355
0.0049229669
-0.079835869
-0.32204413
0.035880458
0.0010579993
-0.32162353
-0.31102949
0.744955
-0.89343399
-3.609288
-12.433456
-0.0050100666
-0.21850169
-0.4351975
-0.24683328
-0.23785917
-0.65654474
-0.025476456
-0.13004322
0.72619373
-0.18420966
-0.33182555
0.20733161
0.082903191
0.078645311
0.24671569
0.59511596
-0.037371624
0.078333028
0.033582356
0.12612547
-0.045031667
-0.086033113
0.13573076
-0.14640172
-0.088275902
0.12516236
0.107671
-0.014059808
0.021715505
0.032651674
-0.022171512
-0.16042028
-0.15711284
-0.0051004216
0.10098753
0.089048065
0.018667324
-0.18971005
-0.11248959
0.27026555
-0.43697649
-0.12620744
0.2670905
-0.076533996
-0.45286641
-0.014364707
0.13282828
0.07532303
-0.074640453
-0.61327332
0.046407778
0.21590614
0.13825975
0.32928818
0.00956605
0.21684726
-0.67806202
0.12567054
-0.044639111
-0.26299849
-0.25172397
0.024232332
-0.26785854
-0.021233542
0.030606385
-0.55253619
-0.38288525
0.049898021
0.22755456
0.28226879
-0.51854473
-0.64617747
0.24422567
0.13451612
0.10388464
0.15998101
-0.59641123
0.026980957
-0.095236987
-0.2196219
-0.23109752
-0.18461193
0.058395714
-0.0039716503
0.1592911
0.047921743
0.034672268
-0.70987487
-0.27380413
0.016831372
0.061861072
0.021846158
-0.3622359
-0.25569504
0.16437347
-0.14728425
0.20664473
-0.44553924
0.75922382
0.13280629
0.13347484
-0.21028602
0.17683093
-0.07800784
0.0022037728
0.1493482
0.13010673
0.15420514
-0.26011917
0.03149591
-0.16617961
-0.20735991
0.012006056
0.027328122
-0.075652078
-0.11415583
0.22084352
-0.038564533
-0.31282932
-0.208487
-0.0038740647
0.053400233
-0.0075612743
-0.017287616
-0.40710366
-0.4185037
0.25601485
0.33733922
0.18646584
0.0063829278
-0.026898777
-0.047810514
0.18890895
-0.23655939
0.055783235
0.09522789
-0.069043547
0.046234161
0.0093738632
0.039638277
-0.1404525
-0.47276637
-0.34254584
0.056467034
-0.099030733
0.05108415
-0.82581091
-0.22321826
0.28079161
0.035949048
0.19494134
-0.21227683
-0.51812059
0.67409933
0.23729298
-0.10578538
-0.15504584
-0.080522932
-0.17281167
0.26720563
-2.6666481
-0.29359329
-1.3436941
-0.9700473
0.036574669
0.1732177
-0.23179215
-0.67109942
0.4285174
0.26282719
0.058287784
-0.76388335
0.055023871
-4.0681562
-0.55055612
-0.14373061
0.51847988
0.99751443
2.0045166
0.021721417
0.018922089
0.12943777
0.12159531
0.21544631
0.23800005
-0.097463511
0.0056887879
-0.74237931
-0.17831436
0.093186915
0.18543136
0.12768114
-0.27931482
-0.030873189
-0.33194008
-0.16736397
-0.2487236
-0.64680481
0.61660683
0.23265591
-2.8662283
-0.286127
0.052404072
0.033947386
-0.040511802
-0.34992871
-0.02274861
0.11872455
0.50802368
0.098076388
0.020152364
-0.39796406
-0.20096213
0.5091089
-0.16872305
-0.1203515
-0.19265769
0.09159717
0.20501564
0.063331455
-0.12913167
0.0029882176
-0.18579747
-0.057642803
0.096974738
0.10284575
-0.61798692
-0.86370218
-0.5028019
0.3307305
0.046920393
0.21605375
-0.056636013
-0.016501961
-0.20964336
0.11884423
0.1860743
0.13579717
-0.38516095
-0.50914264
0.010669833
0.14308289
-0.04619462
0.043132216
-0.082636289
-0.20113544
0.0086677969
-0.17088141
-0.045274824
0.036625769
0.074234098
-0.42418149
-0.048430659
0.15661342
-0.45998904
-0.17945598
-0.036027156
0.026553644
0.086385369
-0.40648288
-0.0048507564
0.24720268
0.11203933
-0.017468352
-0.050813325
-0.60271621
0.025939861
0.12756164
0.22866954
-0.075277001
-0.1228031
0.012463608
0.036826991
0.1584052
0.073056169
0.12979223
-1.185979
-0.042455032
-1.4837681
0.026495161
0.039440397
-0.17484188
0.026078105
-0.20972209
0.024092076
0.43706754
-0.46708742
0.01757583
-0.10098843
0.13270293
0.11020825
0.20897301
-0.042056613
-0.031508125
0.29213113
-0.00031930488
-0.38403535
-0.11011861
-0.11005886
0.073363878
-0.030029612
-0.60067677
-0.18832827
0.25106379
-0.019262044
0.012576519
-0.033905193
-0.15143137
-2.3476939
-0.53447163
0.1871244
0.11470111
0.0077610947
-0.24791364
-0.0043822122
-0.1765077
0.50907791
0.1721189
-0.068137467
-0.20120797
0.18343459
0.16245185
0.10082811
-0.11409882
-0.49463648
-0.47017547
0.14492935
-0.2707594
-0.15291972
-0.44213018
0.11811027
0.056480013
0.32245392
0.012376864
-0.72408134
-0.53056592
-0.14869484
-0.029589044
-0.16315342
0.29645917
-0.3030358
-0.020228807
-0.07905028
0.22679198
0.019093312
-0.56302357
-0.053418577
-0.078059301
0.14616528
0.10533836
0.36978149
0.001726361
-0.42118171
0.016138209
0.0042550149
0.0029509328
0.089496516
-0.13157395
0.044687428
0.060622603
0.071003795
-0.149928
-2.5072589
-0.093063548
-0.15642732
-0.040169667
-0.086524449
-0.32571641
0.021405963
-0.26343188
0.23013698
0.12823166
0.50331163
-0.42055479
0.014261786
0.18891837
0.038142815
0.76253349
-0.33386776
-0.11110969
0.15004945
-0.21512696
-0.11412156
-0.62571955
-0.16306585
0.091712043
-0.11449094
0.018876186
-0.52273148
-3.0637536
-0.11805328
0.07094951
-0.19097738
-0.068390362
-0.36693212
-0.01781759
1.2729199
0.081750616
1.668613
-0.34911004
2.1363354
0.12987247
0.12137578
-1.5756783
-0.077531137
-0.97478342
-0.17522381
0.035176441
0.11172089
-0.42484456
-1.7325304
0.24633747
0.2533437
-1.1744442
-1.6289923
0.011776034
-4.1226392
-0.41184616
-0.087459818
0.26753297
0.97009659
2.0012972
-0.025031785
-0.19987249
0.39742616
-0.053119034
-0.49751362
-0.6835376
-0.013522074
0.21628627
0.055148944
-0.017949261
-0.031005712
-0.0031019254
0.12252203
-0.48796406
-0.04677774
-0.081420593
-0.20013492
-0.075135462
0.089803696
0.21936221
0.31162065
-1.7434647
-0.37324873
0.091298625
0.10659595
0.17116511
-0.45181572
-3.4069316
0.085479982
0.23194852
0.067459598
0.18631215
-0.51522166
0.0054189283
0.27656609
-0.10078122
-0.08645723
-0.0018188846
-0.027122809
0.12451366
-0.006590663
-0.10022237
-0.026350927
-0.47682434
-0.055818237
0.057714216
-0.057866387
-0.064444304
-0.48954812
-0.2658208
0.10329609
0.058131821
0.045579247
-0.56036031
-0.18917826
0.1732167
0.27838385
-0.088280931
-0.05993437
-0.072938226
-0.075037703
-0.047113456
0.080244526
0.023676721
-0.14399466
0.12751837
0.056546897
-0.014877519
-0.073914677
-0.10174254
-0.018768523
-0.20705287
-0.00589805
-0.041337065
0.064699642
-0.26938474
-0.039015435
-0.0091361534
-0.28210679
-0.0010137237
-0.89714056
0.48960257
-0.12424894
-0.090496004
0.040763997
-0.0013000979
-0.29106683
0.00044404634
0.49809778
0.14852583
0.24361099
-0.068204433
0.0024306034
-0.24122897
-0.039119788
-0.18647701
-0.10991824
-0.19531104
0.055140875
0.064568624
0.17989056
-0.16950195
-0.72381914
-0.1248616
-0.24896567
-0.18637766
0.19570409
-0.77739304
0.64649367
0.05495441
0.24904774
-0.52728367
0.069320381
-0.34895262
-0.38468826
0.0018668972
-0.17549168
1.3697629
-0.0046153963
0.18542561
-0.012393104
0.15950318
-0.36839107
0.010464273
-0.15957075
0.13937345
-0.72433412
0.2060162
-0.42400587
0.025496107
0.13188224
-0.16309217
-0.16051659
0.04224924
-0.47667003
0.029258011
0.020591302
0.11882447
-0.38148484
0.31146383
0.032649297
-0.13123976
0.014679726
0.11725134
0.10544498
-0.047914796
0.16439283
-0.041387964
0.03987566
-0.035355903
-0.062131662
-0.094494037
-0.32657826
-0.6243273
-0.095148534
-0.15762851
-0.065382645
0.017324239
-0.24762958
0.15860352
0.19984926
-0.39366016
0.027313843
0.32528421
0.019796964
-0.074844405
0.0092303026
-0.038643017
0.040251188
-0.23860763
0.065155521
1.8141832
-0.3295173
0.25271121
-0.12486024
0.011128984
0.071018614
0.025789678
-0.37055933
-0.25721705
-1.5988437
0.11953015
-0.37521571
-0.18998636
-0.32680538
0.19537222
0.21128616
-0.23378839
-0.32101369
-0.010538719
0.25059256
0.014232807
-0.98216891
-0.91848445
-0.34989226
-0.03825324
-0.10745518
0.22229534
0.10382812
0.062540941
0.18633589
-0.06041396
-0.014625757
0.068206452
0.1280416
-0.10698873
-0.0041994122
-0.12110415
-0.065842099
-0.052591912
-0.034920447
-0.2320012
0.13958456
0.096692488
0.043950804
-0.37705138
0.024343535
0.24990335
0.18593602
-0.50492728
-0.37822008
-0.66107452
-0.18428087
-0.029906401
0.022401197
-0.058579944
0.092966601
0.0041455496
-0.28824008
0.065594286
0.19369997
0.089328378
-0.073553562
-0.043716539
-0.27573761
0.12551111
-0.068419069
-0.14405604
-0.24109505
0.1382771
-0.08987885
-0.15402286
-0.37903622
0.0057270289
11.00211
0.90318936
1.9288448
-0.10826368
-2.3752999
-12.562853
0.0073928772
-1.2157266
-0.066114485
-0.37793159
-0.072634652
-0.46788689
-1.6073031
-0.065456264
-0.15542936
-0.45592678
-0.93234277
-0.4995946
-0.30007482
0.10278952
0.49303371
0.57784039
0.18937865
0.14725462
-0.12065461
0.055912621
-0.25205728
-0.10003572
0.12508185
0.094362646
0.054473579
0.023145553
0.00035307644
-0.17726383
-0.023655804
-0.054337218
-0.080224864
-0.22883657
-0.10708316
0.0093405955
-0.01248551
0.051420309
-0.093174994
-0.29560459
-0.18722065
0.26944378
-0.38990012
-1.6007948
0.99915731
1.392296
-0.62737489
0.020358808
0.016372075
0.0091242315
0.034820896
-0.11691372
0.014114269
-0.020242605
0.013578781
-0.0026000983
-0.041441239
-0.044087749
0.027900955
-0.03099834
0.0028030279
0.066314854
0.021815341
-0.041336033
-0.04416614
-0.090119138
-0.070695832
-0.029744685
0.021285025
0.11322924
-0.093167841
0.097093105
0.012894016
0.019010002
0.0066410438
-0.056895979
0.048698459
-0.065159023
-0.0085634999
-0.084125414
-0.016854431
-0.042981382
0.023297504
0.039686747
0.028263051
-0.070807733
0.025800059
0.028281977
-0.014520572
-0.055180814
0.018323433
0.014780132
-0.0015898166
0.0036426021
-0.024335844
0.065669537
0.13701783
-0.06756331
-0.0050882688
0.041355375
-0.027401492
0.0045749596
-0.045206893
0.026756605
0.025805956
-0.017738324
0.028150661
-0.0018185327
0.024089711
0.014683226
0.0033006351
-0.031344466
-0.012719935
-0.013820646
0.028189961
-0.073265746
-0.010914188
0.0089670513
-0.020550016
0.032794144
-0.10134745
-0.027505578
0.058837328
0.064387493
-0.16049643
0.028410692
-0.047635686
0.31060526
0.054897942
0.025127269
-0.018361898
0.018675258
-0.014355011
0.073258124
-0.019536272
0.075883061
-0.087856606
-0.27707958
-0.063674241
0.088683672
0.0061372169
-0.080579087
-0.041608281
0.0421567
0.020308327
-0.063415177
-0.094261624
-0.12161751
-0.081199758
0.02908106
0.07651116
-0.1599161
0.1582226
-0.019549226
0.85056859
-0.070842497
-0.082411334
-0.049846135
-0.10058718
-0.091170006
-0.0043949056
-0.070740439
-0.014108088
0.017605247
0.071039669
0.064288616
-0.033983894
0.0018727113
0.046221219
0.37620467
-0.27809221
-0.10813133
-0.02592871
0.027583776
0.037508555
0.00096006307
0.085906744
0.13328038
-0.14835712
-0.16230017
-0.06576024
0.0084263142
0.28514981
-0.016423739
0.022070009
-0.1069077
-0.011655692
-0.016075529
0.027370386
0.021744696
0.0047684209
-0.040831868
-0.019304512
0.011194832
0.023732563
-0.055629853
0.017410548
0.023348374
0.04871989
-0.080870621
0.0064506675
-0.0355612
-0.069910541
0.012891474
0.084322646
-0.15698034
0.0033359055
-0.041174281
-0.017721102
0.057476282
-0.059046622
-0.024516722
0.0076465653
-0.04018081
0.029297018
-0.019823011
0.014249069
-0.012536248
-0.042934217
-0.037377171
0.008693249
0.030870756
-0.0069675352
-0.023363149
0.038314369
0.035790116
-0.0064247255
-0.082483783
-0.046200655
-0.067125387
-0.00033288798
0.095777705
-0.097013719
0.090577148
-0.0086435229
-0.0032912667
0.083622016
-0.068401143
0.0039306092
-0.02191101
0.0074799424
0.0048442883
0.015356883
0.017441552
-0.015971351
0.043089841
-0.042595297
0.025115736
-0.021473296
-0.039487511
-0.0078952471
0.033559911
0.030100955
-0.0015841877
-0.024999719
0.008304283
-0.093190439
-0.10192654
0.16539785
-0.048284318
0.031031478
-0.018681504
-0.00047637714
0.078902684
-0.061844934
-0.1062728
-0.085116893
-0.0079935547
0.034049645
0.023145622
-0.11572179
-0.064629771
0.010777717
0.094367333
-0.014270198
-0.027445089
0.021256948
0.0021743614
0.010660755
0.0059486642
-0.066142462
0.035117269
0.019907895
-0.060825959
-0.11054217
0.13129698
-0.063338682
-0.085641369
0.061862867
0.024810996
0.03959091
0.027256288
-0.026963132
-0.021355784
0.026814589
0.015327503
0.0079535693
-0.017764298
0.019880457
-0.045703985
-0.05175478
0.027274596
0.033243682
-0.023466887
-0.039004929
0.023906672
0.0056880959
0.0066325245
0.0077806604
-0.10482261
-0.020091288
-0.095299169
0.14995457
-0.060934834
-0.0079225367
0.031198904
-0.014469955
0.023351626
-0.0052590771
-0.025968719
-0.048340656
0.0041779336
0.051885992
0.0047935052
-0.05682829
-0.023413757
0.053542688
-0.051496729
-0.0048963721
0.39472231
-0.00081571325
-0.00046270702
-0.024845352
0.010406854
-0.016447071
0.0004368372
-0.012746173
-0.086252533
-0.12329522
0.16397895
-0.14245966
-0.069996133
-0.036162917
-0.0014801858
-0.0077293506
0.001720223
0.017940424
-0.0074267401
-0.019185288
0.03221355
-0.012491738
0.0069187549
-0.028409762
-0.059727363
0.016431991
0.0014585978
0.021636989
0.0057373825
-0.033784539
0.010333421
-0.0052238544
0.0034470332
0.021835385
0.013941134
-0.095170975
-0.055572677
0.14182486
-0.11113558
-0.011216849
-0.012324801
-0.027728228
0.024273008
0.016406855
-0.015443627
0.050917961
0.030613741
0.056820162
-0.0070664831
-0.010839174
0.024309015
-0.1563773
-0.12286159
-0.0061253444
-0.022745542
-0.09477254
-0.0072358707
0.044893842
0.049385808
-0.029129006
-0.012310307
-0.15646647
-0.057411678
-0.090309009
0.16669197
-0.13625018
0.1075282
0.0087338164
-0.0092557156
-0.21138924
0.018172598
0.064443201
-0.040603161
-0.047294136
0.03007408
0.15488519
0.005073451
-0.063713223
0.0039689941
-0.0045214691
0.041345496
0.0042648753
0.020949779
0.065419473
-0.011869444
-0.010676974
0.010214401
0.016384976
-0.086634181
-0.069492929
-0.1133814
0.14506237
-0.094664447
-0.039014913
-0.032965865
0.0052494956
-0.028152032
-0.057514362
-0.051371869
-0.022164896
0.052942619
-0.034381784
-0.049578436
0.050108023
-0.12344578
-0.044876456
0.053190917
-0.014851403
0.051256441
0.032681964
0.019574067
-0.076914117
-0.0090132328
0.0082967943
0.022873318
0.02132163
-0.054513507
-0.088093728
0.11793506
-0.058503535
0.0094430335
-0.033833701
0.17060515
0.029334802
-0.0051326165
0.043128893
-0.075992495
0.032240786
-0.025300626
-0.0077788383
0.034794413
0.015423571
-0.074736252
-0.038615935
0.0062522222
0.013743201
-0.021368699
0.04575697
0.029952385
0.01126058
-0.0045216768
-0.041411139
-0.034199797
-0.083324678
-0.074030153
0.094190761
-0.04605487
-7.2458017e-05
-0.049314361
0.045794617
0.0025466802
-0.084386334
0.023329716
-0.0033942456
-0.086806148
-0.001946462
-0.00095203263
0.034860142
-0.012085041
-0.013536072
-0.0036280856
0.023866093
0.02042645
0.022662407
-0.021891031
-0.045537602
-0.025624836
-0.0072221505
-0.086887136
0.01724199
-0.084229879
-0.081108525
0.11234926
-0.085725896
0.057388522
0.030277126
0.19945844
-0.013002081
-0.092470087
-0.13303897
-0.068791099
-0.084967256
-0.02005288
-0.088101491
0.014800401
-0.047737218
0.025216982
0.040025022
0.010991006
0.049128972
-0.036419164
-0.029390927
-0.037485249
-0.065745138
0.041332692
-0.24468471
0.045360945
-0.0052102925
-0.11244667
0.11481924
-0.040266264
-0.10300806
-0.0011690088
0.13929544
-0.037783135
0.041036159
-0.10045366
-0.043222535
0.024285134
0.04720141
-0.007682221
-0.087167807
-0.022390557
-0.003581688
0.052900348
0.020619445
-0.0053132577
-0.083825678
-0.0074995668
-0.04079099
-0.001557531
0.0026417491
-0.078948572
0.0019159777
-0.041253906
0.10751963
-0.037353467
0.050402995
0.084797896
0.01103624
0.023139788
-0.10552175
0.027706895
0.021829773
0.0040649576
-0.017630702
0.012645208
0.01241506
0.01557004
0.0066655725
-0.057982728
-0.040846467
0.020417647
-0.0052078548
-0.13208
-0.032454643
0.03491573
0.03117759
0.030703289
-0.057902858
-0.050116867
-0.01547843
-0.025787238
-0.11518761
0.16461383
-0.020703781
0.011860885
-0.028141139
-0.052814364
0.024278264
0.010993789
-0.040384315
-0.018142441
0.010933795
-0.11726978
-0.044408668
0.016536713
-0.047586955
0.010320221
0.0078448746
0.017559186
-0.029111201
0.1158888
0.030665586
0.030530078
0.0015525729
-0.0057012704
-0.046459787
-0.020391716
-0.11214102
0.035735589
0.18058191
-0.064998686
-0.037374351
0.0068886885
-0.017059173
-0.030610953
0.0050111758
0.067291081
0.028093765
-0.027843632
-0.071726985
-0.057039149
-0.012292909
0.032868396
-0.026247369
-0.039194424
0.013488654
0.063782349
-0.048569977
-0.01169017
-0.01969108
0.0519122
-0.031677514
0.033526961
-0.030337926
-0.10019731
0.07155966
0.16619621
-0.089076132
-0.022046469
-0.0047629992
0.010139587
-0.00012178083
-0.0095809549
0.010148558
-0.049169138
0.048315547
0.0058249673
-0.071850464
0.0085363332
0.041129764
0.065000981
-0.089144267
0.02014634
-0.042107563
-0.044842351
-0.025738383
0.0014281262
0.045005433
-0.053836424
0.033734366
-0.0089668296
-0.095523372
0.097493224
0.04430832
-0.10474409
-0.061547447
-0.024785111
0.0035424351
-0.7721799
0.08255095
-0.54410601
-0.2366695
-0.095818467
-0.012184122
-0.12715505
-0.027197419
-0.08747413
0.012826076
0.1621798
-0.52389169
-0.074109472
0.21418697
0.0031556471
0.39015549
-0.029345101
-0.042532586
0.091826543
0.094231561
0.13913092
0.0040161433
-0.094914332
-0.012433026
-0.020951025
-0.08632578
0.025235062
0.0098103313
0.040092155
0.014927194
-0.074394792
-0.014572409
0.0054807989
0.017677635
-0.018258132
-0.034227051
0.019417781
0.027354354
-0.013440854
-0.048959102
-0.050527845
-0.017964216
0.059026491
-0.035264395
-0.022913778
0.082408905
-0.37333417
-0.12586291
-0.19310789
0.059084911
-0.044931315
-0.087115109
-0.0038509124
-0.030463643
0.27620974
-0.024339467
0.055352595
0.0012808868
-0.0013761244
-0.020238442
0.033385389
-0.025592647
0.042047914
0.091386706
-0.14231531
-0.0050227526
0.16429576
0.068050593
-0.018649822
0.14740059
-0.026203746
-0.020240597
0.095702611
-0.046482328
-0.057246644
0.24895796
-0.0053956206
-0.25031805
-0.049103413
-0.081063926
0.099828422
0.086799622
0.032604475
0.082723536
0.25350955
0.011391729
-0.020461012
0.14294623
-0.044752885
-0.0090072434
-0.081597403
-0.066161573
0.041202448
0.035727661
0.0804355
0.019897783
0.080153279
0.025978113
0.072201476
-0.066506796
0.0088467449
-0.02719049
0.058671448
0.12507597
-0.078761555
-0.066073984
0.16168731
-0.02611596
0.0077255061
0.0025406836
-0.04299828
-0.31770429
0.016306432
-0.046856433
0.01991016
0.0035140531
-0.04423314
0.07911545
0.047017369
0.043059263
-0.042693432
0.1778371
0.063790262
0.16768391
0.20115761
-0.029137563
0.086743511
-0.076322809
0.22471178
0.16500549
0.5562799
-0.075810477
-0.083674133
0.075719044
0.17616238
-0.088040918
0.024916535
6.837619e-05
0.1037707
0.013392377
-0.13777567
-0.21172619
-0.058666211
0.096055537
-0.12463123
-0.067588709
0.19200495
0.062221445
0.07294251
0.12501049
0.026210967
0.56267846
0.1643057
0.092439689
0.050951235
0.59301692
0.29562148
-0.3408266
-0.041434541
-0.43378705
-0.40986466
-0.25372991
-0.96631682
-0.11912248
-0.42342874
-0.14975616
-0.1209591
0.2103653
0.54117733
-0.29693845
0.10402152
0.37816533
1.1371756
-0.29201812
-0.22720742
0.41475731
0.22008277
0.30620065
0.48640379
0.20193747
-0.14282486
0.11169025
0.32757726
-0.46863809
0.02561981
0.0023584515
0.081903681
-0.043134902
0.081013411
0.021736093
0.11713918
0.28839201
-0.12351274
-0.0068000043
-0.19705985
-0.11363447
0.16088173
-0.09430588
-0.1337644
0.24404381
-0.02547179
-0.16875957
0.17735553
0.021681296
-0.23594792
0.52330756
-0.080557823
0.12624675
0.18830259
0.46369275
0.14934105
0.023153799
-0.18443562
-0.12894087
-0.064215615
0.16062421
0.083482072
-0.0049745287
0.063623577
-0.080863357
0.018426415
-0.10546868
-0.0023678849
0.022314643
-0.064171992
0.25066996
0.11060566
-0.018085355
-0.022983706
0.11760022
-0.041780699
0.096338376
0.24269406
-0.11314291
0.017675506
0.3378247
0.013913613
-0.032623485
-0.02136573
0.052638579
0.1078406
-0.044326395
-0.00080890901
0.15696701
0.14735156
0.055530977
-0.031119963
0.10079935
-0.24837954
0.10611925
0.15946394
0.10360979
-0.020818923
-0.067090213
-0.11001843
0.0075225392
0.255041
0.12079396
-0.30243513
0.048539869
0.23131497
-0.1389851
0.14299567
-0.10364631
0.29562455
0.02081541
-0.0060006226
-0.057674434
-0.051303271
0.14061026
0.11086567
0.0037356166
0.097630039
0.29629442
-0.010749985
-0.12504111
-0.17221107
-0.037982512
-0.024685001
-0.011457016
0.062377736
0.065200321
0.22263151
0.22025399
0.13594958
-0.12191343
-0.17342745
0.12105411
-0.23176676
0.27805507
-0.0019191984
-0.030295892
0.026362117
-0.18769446
-0.042617984
-0.0013954648
0.1503807
-0.15865485
-0.039068568
-0.10030641
-0.0074230139
-0.020305831
-0.17756565
0.21909496
0.090287611
0.0085926512
0.24225971
0.083145604
-0.0020883027
0.1333034
0.056689356
0.20494851
-0.053076897
0.041507035
0.226583
-0.087246269
-0.060873687
-0.082724661
0.27729282
0.010576259
-0.019301822
-0.19070135
-0.0060175271
0.12604707
0.41573957
-0.060037356
0.016423132
0.099335499
-0.059824433
-0.1544233
0.2108012
0.11392726
-0.024572773
0.23294447
0.22471684
-0.12972486
-0.21348725
-0.038068835
0.13363165
0.011684393
0.1148916
0.085901543
0.025405195
0.044255156
0.048468854
0.3224313
-0.01716144
0.045441408
-0.15353605
0.0076275603
0.43235201
0.0030317977
0.049054932
0.065570667
0.17511506
-0.33769235
-0.13214558
-0.092323288
0.21043843
-0.078689247
0.024448013
0.10591813
0.05602603
0.067095913
0.041988809
0.03588615
-0.22888651
0.22188766
0.22862348
-0.040230852
0.0930214
0.32232231
0.34000397
0.029036393
0.0060981517
0.0049408362
0.0035918024
-0.16440572
0.079153121
-0.0032948896
0.032184143
0.41280326
-0.057983007
0.012614172
0.11925571
0.25045988
-0.0087537682
-0.16017507
0.13261652
-0.13487308
0.0094056996
-0.075782783
-0.041377615
-0.18547642
0.34468791
0.15396516
-0.069347635
0.12041564
0.26210585
0.35283986
-0.022967234
-0.10498855
-0.41012838
-0.9515819
0.082990348
-0.0082585728
-0.50003451
-0.32428321
0.093227707
-0.55402124
0.19306158
0.3628194
-0.16987875
0.042672034
0.26223212
0.19690442
-0.29255587
-0.05048098
0.28041136
0.32974586
0.27716255
0.48491386
0.075420879
-0.21346878
0.33720815
0.17775898
-0.30729556
-0.0090477429
0.0274262
-0.094175071
-0.0058317031
0.060691722
-0.015006356
-0.037947629
0.042889059
0.12160549
-0.15195002
-0.062545612
0.0018661257
-0.026769325
-0.035865087
-0.069499716
0.24366294
-0.03547658
0.14642906
-0.16505706
0.077125192
-0.23135783
0.43935844
0.070850261
-0.050613392
0.15751807
0.17440127
0.30020353
0.2744334
-0.0068104365
-0.092666499
0.045630228
0.037953261
-0.069024771
0.087645888
0.020236192
-0.022498015
0.21157753
-0.025296874
-0.22288907
0.0081191892
0.042192318
-0.063810192
-0.049724329
0.07395675
0.058160298
-0.039035749
0.1793922
-0.0097106732
0.084787548
-0.11126873
0.07645914
0.023496402
0.041753381
0.16231327
0.21205677
-0.12556273
-0.078560553
0.074825019
0.022432467
-0.04837798
0.076869205
-0.053731184
0.16869594
-0.0026669875
0.0056768642
-0.032449663
-0.10642104
0.029731622
-0.089864969
-0.0072971578
-0.0084940456
0.11978622
-0.0080703851
0.17759804
0.011805136
0.14366417
-0.025087228
-0.068289474
0.081280492
-0.11934862
0.078047335
0.15035845
-0.015606424
-0.034757968
0.18052489
-0.0087108156
-0.018512093
-0.022796074
-0.066916421
0.26973206
0.14649042
-0.00024512311
0.088196814
0.073748142
-0.095746204
0.0098385103
-0.056190591
0.019574542
0.064496115
-0.23557205
-0.12790179
-0.014461262
0.24241652
0.21200725
-0.061713733
-0.18998154
-0.20662415
0.28327802
0.1129676
0.13026458
-0.10312867
-0.07280305
-0.047441062
0.008834973
0.2358053
0.0031029091
-0.40984166
-0.047276702
0.24560851
0.20204413
-0.049660061
0.015884098
0.080258146
0.17904684
0.16100729
-0.14658956
0.16249633
-0.14316376
0.21933937
-0.082325086
-0.15717147
-0.44829267
0.52738184
-0.0037247995
-0.061998475
0.015233692
0.27258778
-0.0055326456
-0.45962211
-0.17682414
-0.06309998
0.047882199
0.19587445
0.10275304
0.088628009
0.23233262
-0.10498921
0.041589022
0.17053917
-0.027629836
0.28725144
0.0014969372
-0.18550681
0.077108592
0.12611693
0.056034178
-0.14696725
0.14060725
-0.22463442
0.16796039
-0.38179559
-0.012917696
0.018191436
0.14511669
0.18733034
-0.19308458
-0.091349453
-0.11866215
0.022111317
0.033758882
-0.28040206
0.18460843
0.0094245831
-0.0016142968
0.31449404
0.097979054
0.2036182
0.28370956
-0.13643704
0.090258047
0.081716798
0.088580057
0.049720772
-0.28751904
0.092016444
-0.13013461
0.36447895
-0.41583911
-0.17342257
0.0081464117
-0.0017964006
0.044402022
0.19267768
0.25266075
0.13921416
0.047861449
0.19683072
-0.090596497
-0.11224541
0.10743238
-0.1544383
0.0049886391
-0.037676159
0.15882778
0.021495957
-0.11438477
-0.013401162
0.20677306
0.14204241
-0.018803721
-0.44878218
-0.14126162
-0.0020811707
0.42882341
-0.61715031
-0.37041077
0.024717377
0.027778769
-0.03696404
-0.019123212
0.1153978
0.11541609
0.10221823
0.14769755
0.023130989
-0.11088763
0.040661577
-0.2127362
-0.10087004
0.0016985792
0.21284117
0.18080308
-0.032954462
0.31961575
-0.11569737
0.02484446
0.27656725
-0.33114424
-0.29069728
0.32353467
0.11395788
-0.52737236
-0.47910899
0.011983629
0.083146386
-0.42471886
1.08454
-0.057491269
1.0442239
-8.5379534
0.013147613
-0.19694799
0.1313448
-0.62434369
-0.089184426
-0.36277866
-0.17657457
-0.054460257
-0.48091215
0.061441734
0.16443454
0.23664741
0.21084724
0.21468374
-0.092264839
0.13431801
-0.0033043919
0.025385354
-0.015264357
0.010503152
0.19726798
-0.02308549
0.06468875
-0.0090081282
-0.035398927
-0.020825775
0.016394423
0.019182649
-0.042092752
-0.013349565
0.026417738
-0.060947955
-0.026035717
-0.012438448
0.040253054
0.01374001
0.13006216
0.24629322
-0.15990618
0.24750544
-0.072621696
-0.032681037
-0.643951
-0.059381153
-0.25248536
0.096400559
0.0017281889
0.049126163
0.071320899
0.26532701
-0.013163432
0.082975872
0.10191205
-0.0465305
-0.063580282
-0.033884652
-0.01585645
0.15979241
-0.0069681378
-0.020274254
-0.044259049
0.018686483
-0.15109263
-0.032433465
-0.034952149
-0.061670426
0.14183955
0.051693186
-0.2384941
-0.009787282
-0.059380986
-0.53902656
0.15040591
0.034612752
0.060656056
0.2688275
-0.068063229
0.021726554
-0.023734855
0.051653929
-0.030652484
-0.042538043
-0.035261586
-0.019202316
-0.025774501
0.10733242
-0.097055145
0.012279227
0.011554651
-0.029807761
-0.011100356
-0.057231635
-0.032781906
0.23075424
-0.074621998
-0.21220665
0.094874106
-0.22950915
-0.21252656
0.0015985327
0.080733098
-0.025272662
0.065786049
-0.010068331
0.047745727
0.05502978
0.11603527
0.33381432
-0.087780759
-0.0014944088
0.010162298
0.032252256
0.032666299
-0.17192672
-0.053436622
-0.016481102
0.017899113
0.013894701
-0.17111723
-0.032725934
0.079975255
-0.070702359
-0.13754417
-0.022970283
-0.15317029
0.039046783
0.035094298
0.032226846
0.081266753
0.038381226
0.0078080548
0.0093211401
0.083921067
0.063119985
-0.13327098
0.041318625
0.033375993
-0.079183228
-0.017730445
-0.08470311
0.083203688
-0.049256265
-0.007987598
-0.021276833
0.01442872
-0.013227018
0.11419684
0.16360626
-0.062118486
-0.18345512
0.10497522
-0.29425916
0.74360728
-0.059044436
0.21950574
-0.036912039
0.11634377
0.27736744
0.063241944
0.18804474
0.10157517
0.085435092
-0.12875247
-0.095193841
0.11360764
0.071463197
0.092487007
-0.090065867
-0.24665017
-0.18154772
-0.10066752
-0.013197774
-0.21632345
-0.10301835
0.21423173
-0.17674772
-0.19765769
1.0925944
-0.15382737
-0.0046531879
0.026470946
-0.038324587
-0.02066672
-0.12370872
-0.04900872
-0.023012063
0.018636202
0.076088235
0.028054906
-0.042035494
0.0093817059
-0.012338381
-0.033705369
0.022654152
0.13195029
-0.063828796
0.059319582
0.1493101
0.0098177083
0.029169463
-0.013912059
0.075002246
-0.059214991
-0.18867193
0.11553712
-0.26296917
0.0036565217
-0.041333646
0.052541003
-0.044433579
-0.049253449
-0.052561834
-0.072418191
-0.070947208
0.19096506
-0.0078368792
0.012753339
0.018690692
-0.096832857
-0.038067088
0.043951742
-0.0023344341
-0.087749787
-0.012570325
0.14576221
-0.0074127163
0.11537104
0.060980052
-0.15439171
-0.072162919
0.0021130343
0.0018911151
-0.34495002
0.012071422
0.055129588
0.055813432
-0.016838182
-0.035035297
0.046444632
-0.11648206
-0.027990459
-0.00043526714
-0.024273893
-0.011500657
0.0063959039
-0.086633563
0.1329588
0.026285704
-0.11340536
0.14695737
0.089021854
0.035211205
-0.0023636646
0.035732642
0.13642552
-0.12273575
-0.069959842
0.0057314425
0.073158033
-0.29813975
-0.009041829
0.034073308
0.068637975
-0.0021332479
0.03788209
0.0026905441
-0.040904053
-0.0086551085
0.21492578
0.041912727
-0.050030068
0.080329508
0.0059640124
0.0021036186
-0.044643767
-0.00064100215
-0.10907755
-0.078250833
-0.093537524
-0.023234943
-0.0031493623
0.036277466
0.046503391
-0.066658445
-0.018134536
0.10715773
-0.2971029
0.023157528
0.066485398
0.083124116
-0.025267655
0.014345456
-0.010496818
-0.081704788
0.18128721
-0.036554106
-0.052507378
-0.034290068
-0.093110673
0.10753711
0.06187563
-0.0091101676
0.053046763
0.033155199
0.014946068
0.02316333
-0.051477164
0.058497328
-0.010166174
-0.14904666
0.056142777
-0.035723895
-0.21678263
-0.35887468
0.0043819817
0.036320325
0.090430841
0.06999293
-0.0057789111
-0.050408572
-0.0044684452
-0.054440621
-0.084641084
-1.0263596
0.053697303
0.0015845707
-0.058780335
0.02899503
-0.035671465
0.070298493
-0.029724935
0.020387884
0.03320805
-0.036032088
0.083449841
0.13608353
-0.19790879
0.0019153559
-0.034246296
-0.14206029
-0.43189335
-0.022390159
-0.027787587
0.054365482
-0.011447306
0.11308695
-0.0089488737
-0.052970201
-0.036579497
-0.079090908
0.049327809
-0.032692429
-0.065861955
0.001970995
-0.0076431413
0.0084383441
-0.0062725008
-0.044803828
0.020787425
0.017882919
0.043782633
-0.0030916671
0.054143153
-0.16392231
-0.086776026
0.05497421
0.013046323
-0.37202492
-0.010261565
0.0069438983
-0.060514309
-0.057014942
0.19313006
-0.048043646
0.019983463
0.0071665812
-0.15465645
0.081321426
0.072089307
0.098247215
-0.018963
0.011124674
0.010763718
-0.061473832
-0.12357497
-0.051054224
0.054551743
-0.11706932
0.10897636
0.0092360843
-0.10541088
-0.080203146
0.024057936
-0.042551432
-0.29438552
0.00073519681
0.20939724
0.17472185
-0.10598188
0.042177148
0.077557653
-0.0013067067
0.17139792
-0.090993784
0.10592882
-0.17619026
-0.10481098
0.022473989
0.058933184
0.070234433
-0.055999011
-0.11305165
-0.055785757
0.16529067
0.11673995
-0.43837419
-0.088619724
0.041746076
-0.1792191
-0.056055207
0.95840204
0.081470698
0.015825175
-0.066677563
0.032029521
-0.072958298
0.084461138
0.084357709
0.10394517
0.071988836
-0.110677
0.31046745
0.01109447
-0.029291445
0.12187834
-0.003232016
-0.072337024
-0.94039148
-0.040817626
-0.07238277
0.041370198
0.032066755
0.00019492397
-0.002948876
-0.028732592
-0.1072076
-0.11048693
0.1547772
-0.026874566
0.068275064
-0.072040983
0.073167995
-0.022425691
0.0098879673
-0.0065467572
-0.04517585
0.12660897
-0.046824023
0.015322978
-0.10411863
0.053164896
0.019693378
0.069700629
0.07951808
-0.041323766
-0.03256005
0.0031563255
0.0054012286
0.1318851
-0.014177993
-3.1617052e-05
0.011764044
-0.16847017
-0.062314406
0.030548632
-0.11106081
-0.060012963
0.046222851
0.051559947
-0.061509259
-0.035047501
0.024616512
-0.029026972
0.050008751
-0.0099185351
-0.021084039
-0.030510982
-0.086207949
0.0012757828
-0.010832705
0.18078361
-0.064990193
0.0024108284
-0.047491491
0.050215028
0.054595791
0.059723631
0.07200098
-0.13183983
-0.1848205
0.1449753
-0.12171666
-0.22656922
-0.095110148
-0.056474149
0.017255859
0.080191314
-0.05040428
-0.037520356
0.0090204421
-0.016975462
0.087730207
-0.0033635634
0.053177744
-0.093184002
-0.0024259039
-0.018129509
-0.034560099
-0.080851838
0.0030036878
0.014488565
0.096845664
0.070023343
0.0012452111
0.10637895
-0.16394119
-0.22843334
0.19772834
-0.10988395
-0.20979439
-0.32388824
0.1864357
0.084670849
-0.015374633
0.032193314
0.031071335
-0.0070222388
-0.048671745
0.01981879
0.020200731
-0.04241892
0.04768993
0.0038771487
0.12423793
-0.0068997121
-0.28628215
-0.037738852
0.065031379
-0.54655921
0.00060997426
-0.075560622
-0.034509838
-0.04500895
-0.065740727
0.039086506
-0.039172299
-0.30358943
-0.020706806
0.09678445
-0.012461912
-0.082556598
-0.021550274
0.17678888
-0.024577444
-0.017776787
-0.022792941
0.074468635
0.028687116
0.06469021
0.014160901
0.07804621
-0.089443065
-0.0024264923
-0.0076224455
-0.019983198
-0.99556452
-0.008677247
0.021913059
-0.0097339312
-0.03362418
-0.076357752
0.040647388
-0.13830636
-0.31861278
-0.010388613
0.032952789
0.080861084
-0.016987517
0.029271623
0.060957365
0.029121293
-0.032981958
-0.028480481
0.1687305
0.046499185
0.098768868
-0.073817365
0.076726764
0.0068604075
0.07993079
-0.073866896
0.029957702
-0.56865817
-0.41685206
-0.032084964
0.021092081
0.18186967
-0.085789405
-0.10238408
-0.076882809
-0.32719153
0.0060100756
0.074730396
-0.080247365
-0.10646116
0.0064350306
-0.085062392
-0.048273996
-0.024106329
0.086338483
0.010214889
0.075650118
-0.013490888
-0.090849884
-0.0054339878
-0.015080674
0.070981264
0.060749613
0.058798842
-0.335594
-0.044803575
0.18732505
0.1688232
0.39449742
-0.23862445
-0.20252332
-0.0095361341
-0.48738864
-0.0088695455
0.14512742
-0.002712986
-0.08411707
0.058958482
-0.068774484
0.064391054
-0.081873037
-0.029345328
0.043559954
-0.077781633
-0.017074989
-0.029624769
0.10288412
-0.030649485
0.09657982
-0.0033673607
0.029661115
-0.75769806
-0.0068165385
0.01592074
0.06874311
0.066192895
-0.19169369
0.029398683
-0.22343864
-0.25678542
0.016564295
5.0500579
0.13061439
0.058701366
-0.40613246
-0.32124841
-4.7121353
-0.0051869815
0.42686743
0.12605347
-0.028618902
0.48223951
-0.053630203
0.41776907
-0.10055356
-0.20784944
0.12656841
0.18026662
-0.1588638
-0.40425283
-0.13466272
-0.28387958
-0.30273914
0.058652584
0.13069832
-0.042414106
0.063670978
-0.00011308304
-0.064792059
0.091887929
0.0066496176
0.033630975
0.040322121
0.011531029
-0.070462666
0.011577077
-0.060997106
-0.062698662
-0.10844847
-0.069588207
-0.01964342
-0.053521536
0.022608154
0.081534602
-0.09777379
0.011303777
0.050877243
-0.11397102
-1.1986752
1.0652721
0.57615858
-0.48980066
0.063706316
0.043439932
0.11928749
-0.067826167
0.16263698
-0.023438001
0.036967538
0.010333903
0.069739684
-0.031274706
-0.044022128
-0.0048442115
0.080736928
-0.028035285
-0.02314117
0.076927453
0.15003338
-0.026282435
0.027498057
0.0044323164
-0.092907399
0.0083496654
0.076838315
0.24633199
-0.04052332
0.11469832
-0.67738593
0.018127752
-0.068929762
0.079472497
0.12040392
0.10099155
-0.016584562
-0.065683886
0.12930872
0.03421542
-0.013897184
0.032804202
-0.040127926
0.048524372
0.048707314
-0.090748601
0.087413318
0.052787371
-0.0046377326
0.028993793
0.063276447
-0.067471765
0.14181919
-0.039893646
0.17561525
-0.07420709
-0.20738086
-0.46808061
-0.058792204
0.048942756
0.046131
0.064819835
0.059594192
0.035032284
-0.043982029
0.045290448
0.099081777
-0.10036628
0.0035632767
0.026178282
0.0080617005
0.046169452
-0.12985268
0.0028121448
0.056588452
0.057321068
-0.0019865592
-0.097744986
-0.033953629
0.14161168
0.0083987517
0.07299421
-0.025615359
-0.072487846
0.05050417
0.036618683
0.047667403
0.099256851
-0.015316412
0.063718989
0.014904039
0.055251244
0.015545806
-0.015308926
-0.037889823
-0.11723054
-0.057638247
0.025987726
-0.058039099
0.068076
0.062251747
0.13569018
0.03782215
-0.042952064
0.0020535288
0.11954589
0.35234171
0.0016801202
-0.1014348
0.12167322
0.011812527
-0.44721177
-0.36291835
0.18797426
0.10434038
-0.018769516
0.15793417
0.052545883
0.052222379
0.19626631
0.15856691
-0.30669618
-0.3131218
0.091016077
0.074796453
0.16772358
0.10417939
-0.16527148
-0.071755342
0.13190882
0.10304898
-0.49508017
-0.084076144
0.55390638
-0.23454912
-0.11384478
0.99798232
0.0060763005
0.0068991324
-0.064392224
-0.046444017
-0.048537858
-0.036245026
-0.050693713
0.022299871
-0.066571005
0.20679943
0.0035094067
-0.016772928
0.12026145
-0.072440304
-0.021602111
0.083135664
0.10138888
-0.05357457
0.09957464
0.11575001
0.039885007
0.014714701
0.072260983
0.29142106
-0.0044150841
-0.04300778
-0.045513172
-0.11261383
0.02606638
-0.14149109
0.060432039
-0.066320568
0.11073067
-0.039825141
-0.0018057836
-0.08943446
0.12061689
-0.032567482
0.061873011
0.09526363
-0.026494969
-0.0041141785
0.16213901
-0.040503636
-0.069177799
0.098167293
0.12360104
0.040163282
0.036526863
0.083367728
-0.052168824
0.1152564
0.093720876
0.13311024
-0.10178789
-0.019660909
-0.022711389
0.11658277
0.0036545678
0.03856406
0.038945068
0.0083916504
0.0028311792
0.019947423
0.015508526
-0.042676501
-0.016247971
-0.023512576
0.086382352
-0.059800319
-0.046217311
0.11635476
0.17750643
0.10604783
-0.032438938
-0.067588717
0.098275483
0.015775058
0.18428478
0.00027266733
0.15930247
-0.096501984
0.024846759
-0.04387185
0.10349996
-0.0035688402
-0.0082892617
-0.030739911
0.043828558
0.010282964
0.10516529
0.04255835
-0.010861685
0.13393594
-0.029445674
0.13039033
-0.0013922
-0.058655299
-0.066022806
0.01423328
0.11287358
-0.095846415
-0.027674736
0.091415867
-0.10973147
0.28787351
0.082394242
0.10051623
-0.10816855
-0.014448211
-0.0890579
0.027600482
-0.034130149
0.037122574
-0.0026041549
-0.036287177
0.040192518
0.019955089
0.062479347
0.022611475
-0.025375316
0.019943058
0.052487228
0.029286018
0.078083396
0.047007322
0.06479983
0.026230782
-0.018086413
0.099037759
0.034094013
0.039868262
-0.20617446
0.3551631
-0.16774932
-0.26462933
0.023827257
-0.0035634798
0.059873853
0.026543502
0.020416401
-0.0068180519
0.019605843
-0.028161278
0.025827754
-0.45598483
-0.013758546
-0.12390726
0.0079722041
-0.037543245
0.021694856
0.078157492
0.049779225
0.076099992
-0.01554274
-0.011705859
0.040933482
0.17426468
0.084967703
-0.15378058
0.24726616
0.038823724
-0.20724232
-0.026716083
-0.021397794
0.018334832
-0.0022932708
0.088318706
0.11039728
-0.037215065
-0.010009615
0.022756916
0.0013024643
0.015047874
-0.028724277
-0.028618813
0.025950911
0.06277141
0.053635292
-0.086050011
-0.003408497
0.066001996
0.053859074
0.014676083
0.086765833
0.12260386
-0.072092511
0.15136556
-0.0644999
-0.29140398
0.011715522
-0.029171513
-0.014250189
-0.024709534
0.092095874
0.010204569
-0.021728538
-0.036900099
0.081785291
0.048789851
0.016340882
0.0095519684
-0.03454119
0.0083850911
0.029726502
-0.08766596
-0.014634646
0.045285255
0.065748416
-0.053643145
0.095896967
0.16244118
0.24768858
0.058546171
-0.096862122
-0.092788927
-0.13406762
0.011425181
0.016993944
0.19441785
-0.067312136
-0.050388481
0.069175929
-0.057932269
0.10901286
0.17336848
0.18564315
-0.306541
-0.17929706
0.045288756
0.031324085
0.17217079
0.0032952966
-0.21397841
-0.10870448
0.1686243
0.1455636
-0.43731332
0.019903494
0.45682934
-0.1108183
-0.13735579
0.99227571
-0.090181507
0.004784341
-0.0685018
0.10597684
0.11827797
-0.042521
0.025946904
0.077847756
-0.057517461
0.12802036
0.16644388
-0.062137093
-0.068545997
0.12885712
-0.031836774
-0.061790939
0.044294529
-0.05844149
-0.047537945
0.025743825
0.015163998
0.039128635
0.097778715
0.3370057
0.13069551
-0.37009034
0.21395105
0.10669807
-1.250877
-0.014706099
0.027451871
0.0024186128
-0.026291138
0.0041894703
-0.0028678409
0.0038152921
0.17328314
0.05911269
-0.11308027
0.003343252
-0.058907062
0.020801546
0.074956127
-0.014793417
0.022564935
-0.0069472524
0.029938802
0.018367048
-0.080156319
0.11186633
0.28916934
0.07535658
-0.31368399
-0.066359594
-0.18964818
0.087538779
0.02554301
0.064028911
0.10957959
-0.0068632243
0.054900572
0.025231456
-0.036069196
-0.093779705
0.15264888
-0.01170378
0.033338547
-0.007274101
0.029887578
0.16937496
-0.071711354
-0.037845425
-0.026564149
0.02907992
0.037329845
0.0031986053
0.058086336
0.20834224
0.012452047
-0.22560619
0.03078934
-0.069787204
0.14951412
-0.02559313
0.11581238
0.12414195
-0.0091611352
-0.1037268
0.065802984
0.035266072
0.18124196
0.20695622
-0.042363178
-0.16962469
0.025253335
-0.053517718
0.015181128
-0.074127488
0.056258276
-0.009151727
0.10407957
0.01398077
-0.059702564
-0.0098053068
0.17277627
-0.0018756299
-0.16691047
0.14129187
-0.0033110389
0.13854933
0.15749474
0.0979091
-0.065593965
-0.034383349
-0.0094009191
0.043040164
0.017119264
0.096398212
0.11651514
-0.020189743
0.12823367
-0.004208623
0.028139001
-0.0034368087
-0.046319708
0.02470547
-0.011358842
0.039544288
0.012331755
0.04928913
-0.097096369
0.21475272
0.082895279
-0.059450954
0.0094848815
-0.17895348
0.019779067
0.11694927
0.074287787
-0.18399015
-0.060424872
0.06564948
0.027456252
0.013537347
0.042955376
0.1426345
0.0075811916
-0.012238756
0.037498347
0.02971584
-0.016799398
0.14151672
0.060023785
0.005632373
-0.080555305
-0.012030492
0.016159553
0.0097479261
0.18126507
0.16302098
-0.074728504
0.0073488257
-0.15761469
0.021193935
0.06755539
0.086928166
-0.014635573
-0.050627477
0.040238913
0.057073064
0.064186938
-0.098788276
0.13722053
-0.20578812
-0.002955246
0.024145162
0.041646332
-0.048315562
0.18779366
0.043670584
0.046162158
0.073028319
-0.010368992
0.030103838
-0.023708962
0.1555308
0.085061282
0.11122462
0.0030508793
-0.12865043
0.0282983
0.17445537
-0.011517355
-0.060008466
-0.071534872
-0.039500382
0.067305505
0.0073093046
0.041334428
0.13852654
0.11804469
0.056360666
-0.10123616
-0.037560798
0.03453416
0.028695736
0.052660786
0.091338858
-0.019451054
-0.031502347
0.18340154
-0.06257616
0.05975087
0.057680503
0.13706598
-0.060092807
-0.28265807
0.019431191
0.18209514
0.10759642
-0.052837744
0.015802387
0.0037286647
0.10739563
0.018187225
0.031657718
0.0040412573
-0.017455392
-0.044525251
-0.040985025
0.016440909
-0.049407467
0.081629574
0.070099361
0.089400783
-0.23383214
-0.043666791
0.10364391
-0.071639784
-0.24276949
0.093102731
0.43908221
-0.079358593
0.056699626
-0.025455235
-2.6287663
-0.025583377
0.7260046
-0.45863718
-0.92307812
-5.62358
0.012780818
0.29483575
-0.0034747652
0.059482273
1.0530877
0.074596599
0.19913457
-0.032866519
-0.33138984
-0.12004341
0.13845293
0.096316263
-0.28065008
-0.15894428
-0.51013798
0.021729913
0.067258768
0.10263506
-0.040475864
0.094945416
0.011204442
-0.056369402
0.081462786
-0.077779405
-0.016766431
0.087070577
0.11816074
-0.020809768
-0.017421531
-0.027599713
-0.038754843
-0.094288282
-0.033806987
-0.03103685
-0.03162517
0.11548319
0.094476499
-0.046711013
0.0021542704
0.38781485
-0.027582135
-0.9281919
0.7904532
0.14581659
-0.16587469
-0.2248566
0.03465797
0.04175039
-0.077664018
0.043579839
-0.0043165954
0.03290382
0.047390264
0.00135621
-0.084890336
-0.0023921095
0.036970329
-0.059371695
-0.057021063
-0.12587862
0.0017824116
0.0012508793
0.022931548
-0.13716076
0.037436023
0.029245488
0.0073986729
0.024774205
-0.4266561
0.041437007
0.01425497
-0.13111193
-0.00087027112
0.04593385
-0.011285115
-0.0024228953
0.0032090945
0.036545366
-0.17830203
0.011788568
0.046553236
-0.0074023921
-0.1004225
-0.07596755
0.031469028
0.046898842
-0.11745803
-0.006788536
-0.17191659
0.031292453
0.033310857
0.0012153423
0.019517621
0.0085739624
0.017713312
-0.26042324
0.039091013
0.0008477153
0.042885672
-0.0046024285
-0.05328384
0.0013617849
0.0013150362
-0.082747377
0.00033750205
-0.16542475
0.028369147
-0.088019565
-0.12813967
0.03731437
-0.059037186
-0.0030294664
-0.10476521
0.060230337
-0.18798639
0.037418138
-0.0088535454
-0.0719053
0.043012753
0.036420159
0.052476268
0.0053954083
-0.3012785
0.019696267
0.022642421
-0.090575993
-0.13626148
-0.097728431
-0.00012848593
-0.010065987
-0.00064734346
-0.10447095
0.030037435
0.041231349
-0.029921502
0.046921801
0.005390408
-0.00043540151
-0.060797855
-0.12160647
-0.058347292
0.038750749
0.036870044
0.042994499
-0.068820924
-0.17054346
0.028210083
0.062136326
-0.0084767919
-0.46098471
0.010341788
0.00070019613
0.075081266
-0.26199412
0.027417531
-0.069321357
0.038180295
0.041705251
-0.0046818103
0.011370265
-0.24468257
-0.011182752
0.036180243
-0.014939908
-0.082746483
0.020868257
0.0046042097
-0.13759641
-0.20564966
0.031587426
1.2315946
0.05010866
-0.16082971
0.014553946
0.039584883
-0.0078258729
-0.4001264
0.10145945
-0.0066470136
0.0018047316
-0.010839084
-0.0004338625
0.0034179969
-0.13743825
-0.023933332
-0.11378059
0.035974778
0.004836366
0.039883304
-0.16154055
0.041894127
0.031238968
0.033633076
-0.031373188
0.026739763
0.0035425408
4.0866234e-05
0.05955191
-0.1006979
-0.21355236
0.039161548
0.032949768
0.016684733
-0.30186972
0.042663731
0.041932322
-0.026344592
-0.0056042899
-0.065273739
0.039210413
-0.12983298
0.043038305
-0.12205687
0.00083293987
-0.14734112
0.040687744
-0.15004244
0.0076879049
-0.011298392
0.033482175
0.053373914
0.046399612
0.033763021
-0.0067884284
-0.024495021
0.039501112
-0.0094553111
0.025036065
0.035294842
-0.0087793767
-0.24404679
-0.0086009717
0.032592006
0.023054942
-0.26044858
0.046694905
0.046400163
-0.13593897
-0.11325245
-0.083988234
0.036878157
-0.028672431
-0.086387381
0.0061622453
-0.16090032
-0.10642207
0.033725068
-0.078746594
0.037593141
0.040693734
-0.17036904
0.036485564
0.037635308
0.0057592168
0.045379095
0.0015952893
0.016032528
-0.00061081036
0.037035085
0.003619045
0.0017180871
-0.0096712951
0.045940183
-0.0088179428
0.035380635
0.042990372
-0.00034035524
-0.087220155
0.0044909217
-0.082789727
-0.010334653
0.0021373522
-0.00045726524
0.032553609
0.034747016
0.036762577
0.029735968
3.4668254e-05
-0.034130808
0.024593158
0.004024636
0.030950457
-0.0064608934
0.008495234
-0.01715355
0.029913826
0.033618998
-0.015154419
-0.017869152
-0.10084056
0.037239544
0.049936388
-0.0016917664
0.024135847
0.034552991
-0.1616192
-0.063413844
-0.014101178
-0.017667372
-0.078296989
0.033610933
0.050210919
0.037445229
-0.13236199
-0.12298056
-0.066632114
-0.14896463
0.075686343
-0.27427503
0.022268666
-0.018700141
0.0034042255
-0.0042794161
0.0034786258
0.0016275444
-0.013683468
-0.12358725
0.02848595
0.042864319
0.034080617
8.9621055e-05
-0.12209634
-0.14594193
-0.016269308
0.063919514
0.068674102
-0.00035813884
-0.0044193175
0.030750187
-0.11583993
-0.17750792
-0.1823421
0.038783114
-0.12788159
-0.10792775
-0.017110266
0.013013601
-0.023458619
-0.05457608
-0.024162732
0.034624636
-0.0028674526
-0.19983684
0.047494128
0.046373975
0.049071364
-0.033737097
-0.15853946
-0.14248495
-0.27486753
0.034018178
0.0020814287
-0.18464161
-0.13580646
-0.077664182
0.00033874827
-0.11612375
0.049194664
0.049730536
0.02999413
0.00020411008
-0.18777736
0.036417745
0.035932027
-0.3622002
0.0041592158
0.043461736
-0.010589559
-0.012909132
0.0080083786
0.033284023
-0.16035946
-0.014358345
0.04675179
-0.15454687
-0.089878649
-0.010658729
-0.0049184328
0.06637679
0.020963352
-0.014843771
-0.085075721
0.069936685
0.041031498
-0.15937226
-0.0029691614
0.039701845
-0.092065774
0.067776844
0.026729867
0.035584867
-0.0022883548
-0.010371081
-0.0023211834
-0.016309461
-0.0039419881
-0.28591406
-0.11576664
-0.004028949
0.057188317
-0.087661736
-0.014742494
0.0014395773
-0.11967809
0.036738217
-0.0051661064
0.0077665448
0.037237495
-0.058976445
0.0087583931
-0.0033734383
-0.0060690381
-0.07010746
0.043020103
0.037591774
-0.14803006
0.021660484
0.018110216
0.048397828
0.041445579
0.092787161
0.041384742
-0.008366975
0.038340513
0.0051944
0.027647596
-0.17363159
-0.088787571
0.044318855
-0.00036207741
0.034584336
5.6121415e-05
-0.10643036
-0.20845942
-0.15192468
0.03715172
-0.15090653
-0.00032610228
0.034779873
-0.1736697
-0.069900572
-0.06403593
0.056693476
0.048532084
0.0042557591
0.032319438
-0.01423472
-0.02096523
0.0048281178
0.073146515
0.0066129221
0.035646588
-0.00073605217
-0.12533142
-0.111941
0.045934409
0.099117473
-0.17683698
0.038749244
0.024475474
-0.095279761
-0.077568695
-0.001383372
0.040249158
-0.0057931785
-0.1972128
-0.1361779
0.039854892
0.046858542
0.033259925
0.051003121
-0.024460524
0.081766903
0.033581398
0.0012921045
0.029811986
-0.10991763
-0.011907098
0.043615777
-0.070002757
0.0016983533
0.00017765199
0.0016830043
0.02721894
-0.16186868
0.044005089
-0.21041384
-0.2373784
-0.10829798
0.040499512
0.039305195
-0.0014871525
-0.10171296
0.027100315
-0.081432611
0.046374884
-0.016228352
-0.08779072
-0.0098736621
0.041880749
0.03353006
-0.012511579
0.035751704
-0.022487929
-0.19563408
0.0021626411
0.042624138
-0.0058610062
-0.032131687
-0.011056621
0.049147189
-0.15347631
-0.10153759
-0.046359926
0.018577842
-0.004676824
-0.051514499
0.036164492
0.042502206
0.054251764
0.049122307
-0.10669904
-0.10023886
0.034792054
0.034522485
0.025017608
0.046125084
-0.0065357233
0.038092047
0.0070991484
-0.11436729
-0.20193954
0.037490599
-0.10326765
0.086247474
-0.093557432
-0.091765083
-0.089506939
-0.024406092
0.0010097366
-0.00032313509
-0.22222655
-0.003172809
0.036760982
0.033080429
-0.039350692
-0.13177583
0.00059658568
0.034848515
0.039979935
0.040823217
-0.0099014631
0.043234572
0.0037313318
-0.22944748
-0.029238973
-0.057967763
-0.029659288
-0.015504282
0.046178725
-0.12471758
0.004873917
-0.00060652604
0.038234096
-0.2018242
0.034910511
-0.087459259
0.023848742
0.044847861
-0.063772202
0.040122014
0.035626676
0.046674244
0.038809944
-0.14165173
0.035234656
-0.1013067
0.03722259
-0.0055570742
0.032149926
-0.0041099214
-0.022169258
-0.0015592916
-0.024374207
-0.023347648
0.0073366896
0.040523544
-0.11260838
0.062102936
0.042518053
0.041754533
-0.19214675
-0.14967991
0.042785686
-0.12487704
0.031669911
-0.17875083
-0.08577098
0.035048798
0.0016855075
-0.013742184
-0.0018862638
-0.068305671
0.035822168
0.047621671
-0.015732756
0.010945928
-0.0064881551
0.0042578196
-0.65125179
0.0060022408
-0.0072789541
0.0042222315
-0.12987614
0.036657803
0.040248588
0.041905019
-0.11580732
0.053264648
-0.20511214
0.045138884
0.042679179
0.046842072
-0.13050918
-0.091681078
0.032090373
0.034307268
0.032139413
0.051343791
0.030223899
-0.10215999
0.042284351
-0.0067261518
-0.059004344
-0.011842803
0.023598835
-0.032174561
0.03047614
0.013372961
0.043628559
-0.12877002
-0.14888744
-0.17283316
0.078121558
-0.10721613
0.041702263
-0.24108516
-0.074577734
0.034086987
-0.018290076
0.038278457
0.038153354
-0.10670772
0.041547641
0.056715321
0.039953992
0.03206227
0.046891056
0.041893631
0.039332241
-0.040391531
0.021407096
0.055133104
-0.019109456
0.0010747848
-0.016815027
-0.39780426
-0.096980073
0.17478639
-0.087804139
-0.51801145
-0.47183454
-0.01699879
0.12904252
-0.089355983
-0.11428364
0.065468118
0.045877673
0.082973659
0.03131311
-0.14326845
0.012264309
-0.063749172
-0.14644833
-0.062061381
-0.19464685
0.035417434
0.093354337
0.045279138
0.050749868
0.0014717266
0.030600006
0.04306877
0.00054567261
0.037839875
-0.23615162
-0.0011667267
0.050640769
0.037976161
-0.13617375
-0.0043146685
0.025866104
0.02693384
-0.0012724925
-0.010362472
0.031882621
-0.065431841
0.040208422
-0.020343473
-0.04209451
0.023828421
-0.02139432
-0.0032239214
-0.08171849
-0.061310235
-0.06740649
-0.0086329523
-0.016142061
0.086929128
0.047844756
-0.016028011
-0.14779267
-0.023422128
-0.0092865098
0.092095248
-0.0053214249
0.092516661
0.0088109113
0.0037129675
0.037702728
-0.03640743
-0.030690001
-0.0019706909
0.04086221
-0.10914385
-0.027886095
0.039475162
-0.2295073
-0.0067714681
-0.11035237
0.19779612
-0.091000073
0.05074618
-0.32705697
0.074209884
0.034371093
0.079362169
0.10556708
0.021405248
-0.022751553
-0.081119068
-0.15130167
0.026801145
-0.11021128
0.022652796
-0.081674516
-0.087320738
0.057013799
-0.53547609
0.0097004939
0.094575696
1.4595512
0.1789324
0.06405548
-0.16845734
-0.08289212
-0.10586119
0.21698162
-0.044377513
-0.023907153
-0.28287363
0.10478169
0.058600396
0.0094582979
0.037551112
-0.094674632
-0.050621163
-0.0061497828
-0.026809422
-0.11913146
-0.080807805
0.1148572
-0.10863107
0.009747033
0.23924996
-5.5799761
-0.20530543
-0.013883041
1.2840909
0.012761801
0.056786809
-0.11794935
-0.14515799
0.0079390341
0.094263911
-0.13832648
-0.065075643
-1.2030536
0.17786278
0.074119098
-0.02492624
-0.089125611
-1.2961061
0.048552822
0.10092819
0.021026397
-0.030266752
-0.10781975
-0.038729701
0.021391833
-0.14965446
-0.57253659
-0.042870764
0.092284463
0.047867097
-0.57040119
0.057925999
-0.43543711
-0.02606374
-0.12901132
0.15497933
-0.043284632
0.12935275
-0.039590705
0.12267134
-1.8000582
0.0054572062
-0.035762556
0.1646744
-0.48119667
-0.11151311
0.15366244
-1.28548
1.2729478
-0.035960943
-0.003107131
-1.3567894
0.055783283
0.22967324
-0.3881686
-0.77139193
-0.66907221
0.050120972
0.60663056
-0.79442173
-0.44853842
-0.097022973
0.028025741
-0.055865042
0.59466988
-0.060988314
-0.0029680675
-0.026821462
0.091357984
0.028479245
-0.18151718
-0.27359217
0.074352793
0.10770599
0.091799192
-0.074088708
-0.55128044
-0.19426203
0.093042277
-0.084709898
-0.5046674
0.081931479
0.26208827
0.19161569
0.11320379
-0.087279662
-0.3238256
-0.014368366
0.0028836168
0.010703356
-0.17764753
0.27241135
0.12770532
0.0041963151
0.11902074
-0.36946151
-0.072313979
0.030814452
-0.15016748
-0.045221027
-0.057032235
0.65034997
-0.13028708
-0.034522988
0.040747434
-0.52751821
0.028777704
0.093557432
-0.12172452
-0.00075341429
-0.085149802
0.052141178
-0.035144407
0.007893851
0.01595103
-0.080296107
-0.050234616
-0.071177512
-0.12128936
-0.15906917
-0.029147509
-0.024665827
0.035052333
-0.024595536
-0.3174383
-0.13348004
-0.16490459
-0.023255352
0.1260601
0.12133505
-0.073236078
-0.015643414
-0.28480282
-0.00097196636
0.014699821
-1.6285496
0.2099683
0.065469183
0.0029851631
0.0019455656
-0.045108452
0.24186637
-0.1484828
-0.0729727
-0.0033985388
-0.068798281
-0.14767773
-0.028192693
0.0057867747
0.055477098
0.017729439
0.24265352
-0.064290613
-0.047629189
0.032350603
-0.076626524
-0.052371524
-0.43352863
0.037516095
0.048724227
0.041758113
0.014256135
-0.20443255
-0.12694703
-0.081693597
0.10065498
-0.32791561
-0.018377924
0.25673109
-0.094813071
-0.12709251
0.041886762
0.1378123
0.066953883
-0.029050315
0.073072061
0.055237815
-0.050006296
0.026643073
0.067428164
-0.0073925611
0.06409476
0.011273332
0.024244575
-0.17409398
-0.10439742
0.03810782
0.060266793
-0.30685404
-0.27286685
0.040224291
-0.043137625
0.015674382
-0.23226152
0.076441675
-0.036119834
-0.11813481
-0.0061392896
-0.071852878
-0.16058531
-0.029270189
0.007556932
0.072458945
0.034388769
2.2130063
-0.2705594
-0.065035515
0.0015142126
-1.400481
0.0016149452
-0.059070449
0.024756206
0.037348516
0.075081818
0.43865311
-0.011300497
-0.46149513
0.047982268
-0.06475506
0.84173554
-0.0079682609
0.0035908867
-0.01315355
0.0052857301
-0.11855551
-0.10903823
-0.11515281
-0.11558267
0.018578408
0.010546286
0.060361572
0.023525594
0.11263014
0.0043138289
0.0065020318
0.024530288
-0.096336253
0.024219429
-0.556499
-1.4540489
-0.055402834
0.055245686
-0.0071668099
0.010290054
-0.1011114
-0.065621257
0.095351115
0.010054288
-0.06484358
-0.033541135
-0.088342592
-0.014374644
-0.061568387
-0.04983636
-0.076127246
-0.022151813
0.13940124
-0.070334241
-0.1272544
-0.14653152
-0.42901102
0.052106574
0.081897445
-0.099417903
0.88182229
-0.037343681
0.024214739
0.03515736
-0.11180831
-0.15396629
0.03285319
-0.15387514
0.050016232
0.024976205
-0.28177994
0.029919729
-0.060208961
-0.22509301
0.036869537
0.0093643554
-0.014144158
0.037594978
-0.0023282638
-1.8643821
0.047027372
-0.66430593
0.22905836
-5.5103588
0.035163496
0.18357088
-1.1035
1.5246524
-0.3532235
0.01646095
0.14658834
0.091710679
1.7422805
-2.24824
-0.79869175
-0.8052153
1.6332083
0.94695961
-1.4018153
-0.21642584
-0.17046645
-0.09219452
0.033519022
0.59488106
0.049627095
-0.021004023
-0.019045593
-0.065040216
-0.039216161
0.056342997
-0.18600726
-0.05953002
0.038073801
0.0071144802
0.022823567
-0.0522274
-0.042127315
0.071640752
0.052059136
-0.084708996
0.053401336
-0.01575396
-0.085896537
0.024747347
-0.036360696
-0.035231106
-0.11947281
-0.015103953
-0.0042840554
-0.14247711
0.057552617
0.04743208
0.071010754
-0.04186419
0.058754116
0.068322979
0.02133986
0.083362915
0.047752619
0.0050197532
0.070832498
0.075893283
-1.3429425
0.022981608
-0.056999452
-0.049157545
0.046793837
-0.12534301
0.013184892
-0.06580478
0.00068318751
-0.064923868
-0.084239036
-0.052682713
0.13832608
-0.11112433
-0.24009624
-0.053573214
-0.18462701
0.039153203
0.017740719
0.073118739
-0.086497314
0.032319915
0.85190272
0.00098289398
0.0099714072
0.011255009
0.072926469
-0.48944306
-0.072777815
-0.084738784
-0.069468632
0.050480712
-0.33876744
-0.02048515
-0.01099239
0.26924467
-0.00065133185
-0.19432054
-0.0078810602
0.103863
-0.094812572
-0.22657679
0.013619354
0.015257807
0.38473406
-0.23242709
-0.0089231422
0.056116726
-0.034504775
-0.061740093
-0.040557183
-0.10074146
0.59455502
0.042526234
-0.030238895
-0.0029267473
-0.054288596
0.038753595
-0.054644693
-0.15779874
0.11233813
-0.04128252
-0.26854816
0.084470145
-0.19680357
-0.044282533
0.22794087
-0.24577753
-0.24830762
-0.028173169
-0.24452871
-0.096820004
0.089606009
0.086818524
-0.16249613
-0.098010838
0.42878231
-0.064460889
-0.33893368
-0.035078015
-0.0057665026
-0.10898417
0.15801346
-0.018453112
0.035851918
0.0022345206
0.016883545
-0.062139805
0.063205726
-0.062408499
-0.10360825
-0.18348894
0.070252776
0.013382457
-0.27329245
0.11510618
-0.1106815
-0.021292003
-0.0021074575
0.0054073394
0.095961578
-0.26459992
0.087439828
-0.0022070813
0.052974783
0.045831062
0.079614542
-0.022520216
-0.029907702
0.028223315
-0.10938832
0.12092829
-0.19945094
-0.038388122
-0.020945698
-0.043650873
0.023926368
-0.0028557358
-0.1392708
-0.013578959
-0.19608141
-0.15233836
0.22384512
-0.16942358
-0.11640207
-0.005307253
0.121901
-0.24335773
-0.0073598968
0.011540545
0.020918444
-0.01156747
-0.046591055
-0.35316947
0.042482849
-0.43671262
0.036164522
-0.13029562
0.0037135568
0.070451669
0.039125998
-0.12584943
0.03683348
-0.2440545
0.029135671
0.01601392
0.00059353979
-0.092245147
-0.22837701
0.18631133
-0.11126459
-0.16572167
-0.000601871
0.14286859
-0.28728953
-0.34059161
-0.0013511619
0.10475496
-0.074465066
-0.065574668
-0.17637174
0.15469804
0.01141734
0.11477452
-0.13176841
0.025737984
0.11880452
-0.055759817
0.096186094
0.11917903
-0.30429915
-0.29443088
0.078253239
-0.037784934
-0.10399109
-0.068905555
0.033577994
-0.081115335
-0.072599433
-0.0012416216
0.15913188
-0.15289807
-0.081878684
0.046957575
-0.21785219
0.029511681
0.046492498
-0.23511918
0.05612402
-0.14675578
-0.053910367
-0.17849757
0.079588674
0.04724706
0.014061131
-0.079890877
-0.05299617
-0.89355427
0.044790454
0.13321304
-0.061809819
-0.24344817
-0.071219809
0.15872183
-0.27518803
-0.096910164
0.0077052671
4.9760818
0.017470673
-0.57878888
0.19114673
-0.15027665
-0.26981705
0.0072069513
-0.48793054
0.086212128
-0.00042335675
-2.1569481
-0.036835805
-0.18466589
-0.37400559
-0.07138975
-0.1819316
-0.46142545
-0.71146214
-0.31066933
-0.050875064
-0.10942149
0.67153239
0.057370573
0.092296503
-0.094675764
0.032509692
-0.054963525
-0.080603041
0.036767121
-0.033274114
0.046328008
0.016048748
0.00017448085
-0.11098045
-0.044249576
-0.042094223
-0.056537148
-0.12643878
-0.11536352
-0.010058546
-0.091178045
0.047717631
0.14499953
-0.13780116
-0.19193305
0.21252173
-0.12475658
-1.0072738
0.51587826
0.25955132
-0.32918203
0.067210041
0.018192664
0.045306489
0.070815027
-0.49535403
-0.065095112
0.034060776
0.081995212
0.19411249
0.058176324
0.048062593
0.0013981265
0.0018120281
-0.030694203
-0.078805067
-0.025326999
0.0093218908
-0.072773941
-0.04409568
0.027120288
-0.24347858
0.091285877
0.061296068
-0.1147807
-0.0064794109
-0.14002916
-0.2677511
0.13235408
0.061271105
0.031871218
0.11879923
-0.94598347
0.025538323
-0.066926621
0.15973113
0.047554493
-0.32086724
0.025672141
0.01954825
-0.16161163
0.017091623
-0.088731773
-0.046046417
0.050089147
0.17630039
0.29420477
-0.0055385479
-0.19652469
0.04371706
0.054534655
-0.03876609
0.080235302
-0.16255508
-0.80353159
0.069300868
0.040529426
0.056324061
0.015734553
-1.4356713
0.01552208
0.069362558
0.0016003744
-0.060598485
-0.17745069
0.064537354
-0.006179092
0.019930106
0.36322761
-0.62877601
-0.10914314
-0.0093051875
1.3666493
0.040154982
0.058539174
-0.14833599
-0.11128984
0.058440238
0.10041463
0.049659256
-0.1143261
-0.92085618
0.12991805
0.084877685
0.04305242
-0.015922748
-0.41680923
0.0069964961
0.18602227
0.059327379
-0.18912701
0.022246055
0.052472007
-0.0040922547
-0.020207606
-0.0747566
-0.42200008
-0.023706311
-0.018305538
-0.082230553
-0.016244467
-0.02506643
-0.012747813
-0.25479358
0.19778319
0.011121091
0.039908469
-0.22832386
0.90339005
-1.5578699
0.18181492
-0.044567659
0.15833285
-0.35847855
0.053170089
0.20266993
-1.0946556
0.11708242
-0.09468849
-0.069824368
0.039416276
0.066283576
0.93457121
-1.1221462
-1.150725
-0.91113347
-0.067754515
0.11087494
-0.68662173
-1.2458855
-0.30920589
0.11476754
0.1058729
0.56123567
-0.0099778241
-0.028029574
-0.0062937322
0.070638068
-0.036371723
0.021098901
-1.067771
0.16000549
0.18644436
0.080832534
-0.071077578
-0.47761643
-0.045496497
0.11661393
-0.020254666
-0.47215205
0.11705431
0.0054870509
0.021006605
-0.36508563
-0.25549984
-0.03264688
-0.021093953
-0.20314454
0.11706421
-0.014603157
0.42260957
0.1057618
0.005133911
0.057437621
0.028711228
-0.055209599
-0.033552472
-0.38836205
-0.057411719
-0.0025764056
0.12037864
-0.0046769637
0.038435325
0.077671446
-0.29639503
0.0047494867
0.10904475
-1.0328283
-0.17532092
-0.040666033
0.087568335
-0.019851224
-0.028327521
0.077989779
-0.25251794
0.06154608
0.02578716
0.082310893
-0.1658963
0.013830547
0.023630001
0.050161965
-0.0462186
-0.22751644
0.052160099
-0.25829533
0.055233713
-0.024478672
-0.007446799
0.12738582
0.066125549
-0.052885041
0.082964122
-0.042457491
-0.45193237
0.011560885
0.086260505
0.011711673
-0.56728137
0.20107795
0.11999916
-0.31460053
0.016494228
0.14993171
0.039891284
-0.19713455
0.0050971392
0.031670857
0.1137186
0.031800251
0.1106511
-0.27099201
0.023650553
0.052112579
-0.076146848
-0.0036823789
-0.21119297
0.13072687
0.067707889
0.058819808
0.014815183
-0.065017544
-0.45391369
-0.040031221
-0.067023478
-0.15154949
-0.075904571
0.11373775
-0.11159755
-0.15881437
0.17647165
0.20039682
-3.1051419e-05
-0.0080563957
0.076554902
0.12801035
0.035074502
0.063565619
0.11487968
-0.10180298
0.1210188
-0.095904343
-0.0030291132
0.0017171198
-0.12652156
0.053316768
0.12855406
-0.061261896
-0.35341263
0.032812517
-0.015935358
0.012879213
-0.20602176
0.1592098
-0.12219106
0.0027357335
-0.23149382
0.12266145
-0.19056761
-0.068138756
-0.024461735
0.024906892
0.13203508
0.098062754
0.096099354
-0.3306523
-0.0064776628
-0.020953927
-0.03717009
-0.30411422
0.042317998
-0.009448424
0.016354308
0.072301298
-0.039540939
0.022857161
0.02922987
-0.040566653
0.19085598
-0.01807441
0.093000695
-0.024047272
0.040053584
-0.070127629
-0.079470702
0.002419648
-0.18660295
0.001875866
-0.022402216
0.077322461
-0.0069096345
0.15559117
0.11819661
-0.020693677
0.10343657
0.0060781864
0.15956701
-0.066168234
-0.12472828
-0.029074538
0.045032322
0.024320407
0.034444429
-0.060113274
-0.025995718
-0.020365942
0.32255375
-0.077790394
-0.14113013
0.023589114
-0.088191412
-0.079411365
0.014122809
-0.1389768
0.005690584
0.13377477
-0.11954837
-0.061008606
0.16632624
0.066701442
0.12248766
0.15407349
-0.56191343
0.32318556
0.010865675
-0.048396934
0.0010504569
-0.032117445
-0.26697144
0.070832968
-0.12298565
0.025479592
0.18777832
-0.44497338
0.10908032
-0.24378902
-0.10548998
0.08083082
-0.0201219
0.024350883
-0.01290436
0.018174157
-1.9870651
0.067144282
-0.32609439
-0.071766369
-0.55315948
0.12403274
0.22746743
-0.99966943
0.68480158
-0.077759527
0.026329167
0.11705561
0.13588265
0.14881995
-1.412908
-0.77248967
-0.69487369
1.3327138
0.26900306
-1.6150005
-1.6666347
-0.025456218
-0.061321121
-0.063960277
1.3505206
0.19690278
-0.010489803
0.021687381
0.040355869
0.051759124
0.059187382
-0.0018949752
0.1080694
-0.039311159
0.0695576
0.91158539
0.027711092
0.025340181
0.060819313
0.020056492
-0.060552303
-0.35676762
0.064355083
-0.10165843
0.038523827
-0.045348357
-0.036585074
-0.32917884
-0.088924378
0.081166185
-0.14214872
0.054293111
0.10292935
-0.18311822
-0.0052721058
0.1505381
0.0032166417
-0.022807149
0.27168494
0.12922637
0.073685952
-0.089268379
0.01935955
-0.051226854
0.13238788
-0.10952256
0.011612771
0.062011845
-0.12326683
-0.0025813214
-0.16809955
0.029198205
-0.076043077
0.072833732
-0.32361582
-0.0010689283
0.0454957
-0.21522492
-0.13415922
-0.18404111
0.14152835
0.11160768
0.21393301
-0.0064060288
0.065079197
0.063410111
0.03125117
0.053903628
0.062074803
0.32202756
-0.35697132
-0.29907995
-0.032527439
-0.016359227
0.098540515
-0.4571864
0.022961672
-1.4323941e-05
1.7946532
0.065664366
-0.32553503
-0.17915124
-0.048314054
0.041877653
-0.10413241
-0.096090473
-0.0021675248
-0.051522262
-0.055430729
-0.055286959
0.058610369
-0.0079848301
-0.062084746
0.034453515
-0.0077204066
0.12646328
0.10090325
0.025051245
0.029120656
-0.074372873
-0.011268754
-0.00079856376
-0.17798996
0.067452915
0.035729714
0.069419853
0.15241055
-0.054201547
-0.17865281
-0.081991293
0.036552921
-0.079083152
-0.060115632
-0.2933071
-0.24152391
-0.017438373
0.17178287
-0.045887794
0.37571293
0.038114116
-0.059573278
0.030664945
0.15999229
0.026709553
-0.48578349
0.10692111
0.049699932
0.034964699
0.032549053
-0.16435251
-0.23367734
0.13159911
-2.4170651
-0.033461057
-0.23919398
0.010541793
-0.046463948
0.073040187
-0.036210541
0.13146356
-0.08074408
-0.0027167359
0.0043161325
0.14586984
-0.20000124
0.18695654
0.28216082
0.070291162
-0.009073792
0.049703281
0.019805854
-0.0064571691
0.060034502
-0.16952318
0.15347044
-0.27405339
-0.32315856
-0.073127322
-0.024198003
-0.24171424
-0.011408731
-0.023194075
-0.046707194
-0.13588424
0.17494939
0.040082596
-0.11696906
-0.16588971
-0.018052619
0.10433191
0.018611509
-0.037305675
0.23266833
0.027770938
0.028477833
0.048230235
-0.35029683
0.064334415
-0.17010948
0.065461703
-0.039275151
-0.0092992354
-0.23679687
0.025846303
-0.050243717
0.023275172
0.035997014
-0.27136523
-0.025688302
0.016274223
-0.001537738
0.074029364
-0.057802331
0.16673523
-0.081467338
-0.0015938359
0.1821299
-0.027462961
-0.16209537
0.0041526137
-0.60413897
-0.011189058
0.022875594
-0.28416961
0.32361418
-0.03868508
0.11865341
-0.13324687
-0.0070689414
-0.28752688
-0.0016590519
0.11272348
0.09441217
-1.2791363
-0.2804639
0.1346972
0.064346656
0.11363781
0.097418688
-0.2772271
0.17232139
-0.09847597
0.022667374
0.18450777
0.029806728
-0.045016456
0.065351285
-0.37926337
-0.0037426571
-0.0024742677
-0.16181406
0.10934734
-0.31669563
0.066402502
-0.0670719
0.089193188
-0.26173544
0.032685909
0.00086765492
-0.027304368
-1.5949546
0.051370956
0.072585605
0.03446912
-0.13342637
0.066144846
0.048124935
-0.11601631
-0.018223932
-0.011587768
2.7301686
-0.07638263
-0.87465233
0.14390668
-0.094419897
0.40788496
-8.5260857e-05
-0.16548754
-0.058771256
0.032964058
0.42063335
0.068847016
-0.10386853
0.012021003
-0.10535087
-0.049226288
-0.12728906
-0.64698285
0.11682237
-0.29234889
-0.31554601
0.43938255
0.06569463
0.17561729
-0.025596933
0.085219912
-0.0062566227
-0.051213317
0.088704214
-0.022626027
0.037247501
-0.0081152041
0.012797355
-0.047102839
-0.058674529
-0.0058501111
-0.035942398
-0.10534734
-0.086864896
-0.020043628
-0.04295928
0.030157119
0.065270424
-0.1974339
-0.088112526
0.21606646
-0.12466419
-1.7875098
0.78004313
0.64466739
-0.3739537
0.23000184
0.048447493
-0.11504531
-0.033518814
0.087736554
0.15176691
-0.037528727
-0.20140789
-0.098140635
-0.021119311
0.30140597
0.014047609
0.00039001674
-0.001418563
0.093465328
-0.072321132
-0.051166818
-0.099182643
-0.05086768
0.042062085
0.080773361
-0.20657247
0.39217243
0.043211218
-0.14224282
0.19339025
-0.10422736
0.13338561
-0.03193469
0.046995115
-0.095739879
0.11759997
0.004427467
0.20617054
-0.066574097
-0.072748125
-0.034450587
0.13570675
0.1165864
0.022971675
-0.11402366
-0.0041738539
0.10263894
0.063086882
-0.094207764
-0.013020657
-0.28681976
0.067784213
-0.12893993
0.27530271
0.16115209
0.47930965
0.47994965
-0.12006313
0.0677763
-0.16199547
-0.055185352
0.058428589
-0.13537307
-0.041166659
-0.060361344
0.27827498
-0.039892033
0.10968198
0.1358974
-0.033385996
-0.042041641
-0.066151291
-0.10474684
-0.012298579
-0.092009746
-0.01305724
0.10321245
0.10820003
0.24213448
0.041829836
0.10918386
0.063590862
0.079079688
-0.077283531
-0.057235725
-0.059470415
-0.057110351
0.028570376
0.020756971
-0.10877881
0.17364122
0.084349297
-0.0056640459
-0.091460101
-0.22787674
0.11679924
0.11807506
-0.035062671
-0.14721797
-0.062678114
0.12378164
0.36016449
-0.15538071
-0.13101335
-0.30648768
0.22388081
-0.23806146
0.049100988
0.1345675
0.6580801
0.24920061
-0.0024755048
-0.30989197
0.22993092
-0.14233035
-0.30852687
-0.092048101
0.26692498
-0.16052623
-0.11114848
0.063607141
0.074715525
0.40987343
0.22356756
-0.015629672
0.1844811
0.22555164
-0.24731068
-0.31048828
-0.038370918
0.76459879
-0.19909833
0.35583776
-0.26801625
0.25226218
0.080644891
-1.0383298
-0.22060212
-0.0047894577
-0.077654362
0.14156468
0.11131536
-0.037457447
-0.14098388
0.16573168
0.53360134
-0.16356419
0.095125906
-0.31154686
-0.51153719
0.27337888
-0.12571618
-0.20119159
-0.05285418
0.1412013
0.46766165
-0.15754457
-0.14736453
-0.3119874
0.30211002
-0.11915953
0.2404017
-0.034829505
1.0725104
0.5835616
-0.019913809
0.06810458
-0.24152225
-0.23020744
-0.1559234
-0.12113352
0.0062675616
-0.24878475
-0.083933912
-0.14959669
0.21682641
0.31091052
0.0051212362
0.041132059
0.26241782
-0.14241561
-0.10851438
-0.090640768
-0.048801459
0.27418378
0.17027244
0.16466753
-0.12879969
0.36311576
-0.15726188
0.18717149
-0.018687233
-0.018051144
0.063632451
0.010898399
0.060930941
-0.011295046
0.073594801
0.013426617
0.04158153
-0.30408132
-0.015767373
-0.028382007
-0.059470341
0.25177327
-0.17462362
0.032942507
-0.095236368
-0.10249199
0.06588994
-0.086748071
-0.031924397
-0.01644065
0.16649027
0.10968394
0.075030781
-0.039179087
0.30725524
0.11765589
-0.021839691
0.11792933
0.13893448
-0.026280385
-0.13152203
0.22354276
0.021270525
0.012331738
-0.29510042
-0.07690566
-0.026179116
-0.01559278
0.29803362
-0.17088373
0.041104592
0.075449526
0.029996134
-0.05184095
-0.17494066
0.05004843
0.010800783
0.15648732
-0.24245577
0.23603934
0.19350374
0.03505097
0.39800629
0.0093006752
0.075503469
-0.0054000574
-0.08642219
-0.022219768
0.077847637
-0.087439507
-0.04031821
-0.06828206
0.11236721
-0.040063672
0.019134557
-0.077042297
0.032717299
-0.051512763
0.044200774
-0.058820296
0.098873526
-0.061776958
0.12150767
-0.18354113
0.1068375
0.033803817
0.29612824
-0.35092807
-0.15082601
0.10593684
-0.027985176
-0.040969592
-0.054167308
0.020415071
0.070718333
-0.0050611105
-0.089678861
-0.085280441
-0.036081649
-0.16080731
0.005292912
0.10588028
-0.033860635
0.30970469
0.02992779
0.16240044
-0.119976
0.0033201105
-0.043249074
0.00073355658
-0.06654989
0.13301837
-0.20075859
0.41006944
-0.27892613
0.12636288
0.07476376
0.027436765
0.026025815
-0.14487149
-0.061612997
-0.15573502
0.0025930621
-0.14433473
-0.056804519
-0.16288425
-0.036972132
0.12684189
0.16588415
0.014284912
-0.0023807883
0.07759802
-0.20641972
-0.034830779
-0.1474915
0.046884015
0.042880956
0.1333089
0.25253087
-0.13456695
0.44059041
-0.29140896
-0.01484417
0.089176074
0.0037653206
-0.022355337
0.15285055
0.025216538
0.014486925
-0.022472681
0.12254477
0.30049455
-0.1869369
0.024087738
-0.31119186
-0.32383871
0.14255895
-0.00037738981
-0.28340107
0.12868015
0.28492689
0.45581412
-0.18544377
-0.1287508
-0.3326717
0.33589563
-0.50482851
0.20980251
0.25084713
0.73988158
0.40978518
0.0224282
-0.34411633
-0.10927846
-0.12442774
-0.23191439
-0.2639133
-0.012286568
-0.089191608
-0.21902972
0.04435328
0.38289165
0.31550637
0.034232892
-0.047603112
0.35053042
-0.13737172
-0.23891218
-0.24365491
0.552818
0.72115624
0.13989364
0.38237724
-0.28936112
0.018175293
0.15971744
-1.0908729
-0.25015369
-0.026044499
-0.054101765
-0.010591118
0.077478915
-0.10270698
0.12569743
-0.0042134668
0.070117913
0.55359185
-0.070972674
-0.31112391
-0.13400744
0.07446757
-0.017947424
-0.010332406
-0.13680662
0.19343817
0.13078439
-0.067878321
0.047222558
-0.31666219
0.29297176
0.0092341155
-0.2746698
0.060933728
0.62011135
0.29955551
0.38104919
0.08847294
-0.067524105
-0.18856032
-0.11507077
0.053684495
-0.089555234
-0.11636578
-0.040422216
0.074174955
0.12944393
0.058317602
-0.04930168
0.031264484
0.095642462
0.11087156
-0.10330097
-0.16166224
-0.083137177
-0.099818088
0.12019418
0.09975177
0.080576152
-0.19836366
-0.10387764
-0.078443654
-0.11357015
0.21418202
-0.034143843
-0.031123577
0.02584854
0.12235207
0.010397319
0.02214643
0.25243074
-0.20308118
-0.10252877
-0.074489444
-0.17041527
0.12973967
-0.0546044
-0.097370483
-0.090658993
0.0842354
0.15173592
-0.025056148
-0.078118294
-0.13609421
0.21665387
-0.20830554
0.031488441
0.17089541
0.4959079
0.28497738
-0.0084217461
-0.037923399
0.036021069
-0.19931115
-0.0090430239
-0.16517131
0.013584281
0.069318667
-0.076200753
0.0032551221
0.041785795
0.017496869
0.054777
-0.016923692
-0.052686557
0.068942897
-0.10206225
-0.12832688
-0.15029518
-0.0910566
0.070116907
0.43054029
-0.080178067
-0.18547484
0.33145678
0.27700669
0.1897521
0.023340059
-0.21242516
0.056193095
0.05390846
-0.077726744
0.035602357
0.077608451
-0.012299298
-0.043042473
0.023290815
-0.058281194
-0.081901185
0.048892904
0.037749365
-0.092196614
-0.11630202
0.080236591
0.13614081
0.083789572
0.074884683
-0.14152919
0.13888331
-0.13378702
0.094229922
0.18134265
0.27978018
-0.22000569
-0.0077019203
-0.063994586
-0.1183603
0.032297432
0.067261033
-0.062348109
-0.011171713
0.064161323
-0.058627788
0.076309614
-0.030255493
-0.029940132
0.096028663
0.0033093693
-0.086211205
0.10681519
0.14957461
0.088778213
-0.045370076
-0.10721897
-0.16145122
-0.055777587
-0.049595468
-0.1400732
0.26169628
-0.073872335
0.092214346
-0.029711956
-0.1231534
0.085753113
-0.005211825
0.04427008
0.11587057
-0.10913227
-0.053711928
0.17704339
0.030839661
-0.18285742
-0.13377199
0.027059251
-0.053203717
0.025942083
0.15821062
0.12240441
-0.11489451
0.011173333
-0.023014182
-0.19645475
0.12154377
0.28056493
-0.041236065
-0.17999621
0.070395641
-0.19471252
0.012215392
-0.25378776
0.0057220212
0.12588488
0.19590385
0.12106907
-0.088380188
-0.23025437
0.1742733
0.076505058
-0.28198463
-0.1325953
-0.033723429
0.030797971
0.19714965
-0.21443249
0.13810319
-0.041721046
0.34635451
0.09601903
-0.25914475
0.10522591
0.58382326
-0.27087381
-0.27367726
-0.068707407
-0.30095112
-0.02464311
-0.19373186
0.025709059
0.033882666
-0.1120442
-0.0011059562
-0.0010831555
-0.23911561
-0.083338872
0.32144713
0.031845197
0.27677986
-0.166574
-0.0097926399
0.092403501
-0.094836615
-0.0038228123
-0.03501793
0.037292346
0.094660968
0.1057995
0.11607183
-0.058148041
0.20504367
0.08015205
-0.3103348
-0.078623772
-0.022612978
0.51425308
0.1161407
-0.56244445
-0.11705457
-1.06047
-0.59773064
-0.026454277
1.2537453
0.76524425
0.62519479
0.43678552
0.26183152
-0.026011085
0.091442369
0.21188819
-0.14998831
-0.092870891
-0.45723331
-0.2521168
-0.0012010451
-0.16791372
-0.16854765
-0.053940382
-0.092485532
0.013171859
-0.089503355
0.0018197355
0.091602504
-0.055982079
0.023446575
0.046661064
-0.14130354
-0.061656311
0.075633422
-0.0033172064
0.040686063
0.0034553879
0.10282128
0.11679657
0.004521105
-0.037332151
-0.095633909
0.055960927
-0.029630017
0.019480566
0.053955175
0.34104449
-1.060149
0.18157929
-0.15367404
0.22087991
-0.020134153
-0.00433467
0.029353453
0.013336653
0.010545805
-0.01372024
0.00820708
0.014942898
-0.011633186
-0.017195757
-0.014398517
0.0098390039
0.019355457
-0.021159846
-0.0056557679
0.0074715824
0.027932595
0.023366859
-0.01623101
0.0023550172
0.026030211
-0.0067406534
0.04169127
-0.067197368
0.011297543
0.005515269
-0.20205931
-0.013055574
0.017851941
-0.0073226416
0.010853686
0.0025791728
0.067361504
-0.014924869
0.018815061
-0.00095067144
-0.012940656
0.029751441
0.018691771
-0.021306545
-0.023615785
0.022345459
0.047667179
0.00037794033
0.0022736795
-0.025268663
-0.039001815
0.039611623
-0.01063038
0.0067012892
-0.052355368
0.013845536
-0.016263736
0.045734148
-0.034485474
-0.026796395
-0.013722965
-0.0022559946
0.017016787
-0.02371417
-0.027662111
-0.047155242
-8.6775253e-05
-0.044727273
0.0059323772
-0.031483069
0.0053324243
0.006796476
0.0051330859
-0.036605231
0.010162807
-0.013518917
-0.010997601
0.037920061
0.08653909
-0.048554402
0.030049972
0.0006022295
0.044007353
-0.014633365
0.022373641
-0.02900634
-0.026326127
0.034944329
0.020051099
-0.017937042
0.018506244
-0.01294569
-0.049797643
0.021306796
-0.012815579
-0.055707932
-0.016909175
-0.01935938
-0.0073707872
-0.0031168312
-0.01898526
0.017704878
0.059104908
0.062321931
0.023536339
0.15209669
-0.051808629
0.016203815
0.027308512
0.035227563
0.038286027
0.011968778
-1.0282462
-0.037794519
-0.018828897
-0.02462789
-0.5687747
0.014017901
-0.16370888
-0.046636719
-0.00050101412
0.08302775
0.013156153
-0.049357075
0.022860372
0.061601363
-0.018676193
-0.47014892
0.0012991873
0.096259326
0.062573314
0.035798885
0.058556233
-0.025175629
-0.024346178
0.015374705
0.23660474
0.012255289
0.014964221
-0.018053321
-0.0040400689
-0.013810266
-0.0085071865
-0.031423744
-0.010578523
0.021223592
-0.042861488
-0.024292044
0.016008638
0.0017426594
-0.010796699
-0.034008756
0.020797759
0.056168202
-0.036384638
-0.028540704
0.062124744
0.023885423
-0.0031174717
0.085159525
-0.0059542707
0.022619279
-0.02031412
0.054541368
0.010559791
-0.020408474
-0.062933348
-0.032792553
-0.026312642
0.068330064
0.051863018
0.0198985
-0.02913807
-0.038920831
-0.018147863
0.00052831136
-0.026199909
0.057273883
0.014265478
0.075642429
0.0037845711
-0.0052340492
-0.03560942
-0.021728737
0.027518105
0.0061446843
0.073838726
-0.037787516
-0.030499347
-0.043699112
-0.028541578
0.012045087
-0.025394298
-0.014285367
0.042297471
-0.023781123
-0.016700096
0.018536402
-0.006217618
-0.018000096
-0.010264415
0.020944864
-0.039282829
0.0020088586
-0.0068284213
-0.0040036021
-0.022885833
0.023207674
-0.039223764
-0.020943314
0.011647894
0.011034152
-0.02122532
0.031533096
0.030846233
-0.044505816
-0.07292226
0.019012589
0.0047609839
0.011239574
-0.020278933
0.015912585
-0.0050574397
0.078077435
0.0014460604
-0.0047552637
0.069034994
-0.017922185
-0.01417266
-0.037942976
0.0021702091
-0.022468338
-0.016914703
-0.031402767
-0.023126354
0.032137971
-0.01010207
0.063006803
0.051336017
-0.00079070864
-0.014076971
-0.033242796
-0.015458561
0.018995659
0.032889035
-0.010951125
0.028488033
-0.049581505
-0.02593453
-0.019210363
0.025716329
-0.0018362979
-0.026458398
-0.014668625
-0.02588596
0.0042993394
-0.0042689331
-0.0081581371
0.011460919
-0.016347837
0.040054578
0.041262895
0.0039518899
-0.0091084819
-0.0013784453
0.0029752457
-0.020867432
-0.023263447
-0.071956664
0.0014401822
0.018353201
-0.025599711
-0.034459885
0.004974185
-0.030329382
-0.017010849
-0.014842159
0.034141835
0.035031781
-0.0078347912
0.030489925
-0.037890088
0.014058696
-0.015108313
0.045183502
0.059450623
-0.027963068
0.0059311287
0.054418486
0.028379979
-0.042765487
-0.025039468
0.013127848
-0.012338119
0.036742546
-0.026227787
0.0014362204
0.025790807
0.015279985
0.029594855
0.025015617
-0.012517069
-0.038549352
0.015920058
0.059034187
0.02039066
-0.0013506652
-0.021553323
-0.033344708
-0.048449736
0.011218703
0.027544718
-0.0088097733
0.018859833
0.023154065
0.0087994291
0.01126655
-0.019114584
-0.017987793
-0.019776544
-0.0088859694
0.0027187152
-0.033437543
0.053762667
-0.017479807
-0.024442282
-0.054592092
0.027660415
0.0050145099
-0.033281982
-0.0096091209
-0.020441964
0.013336757
0.0029260356
0.0031219772
0.037021194
-0.0055589587
0.017915456
-0.018130757
0.055264864
-0.028195765
0.016527114
0.035411492
0.048425075
0.023429586
-0.00081389851
-0.020859171
-0.015562668
0.1145081
-0.052613363
0.058240429
-0.035315596
-0.043836866
0.01479462
-0.0039136545
-1.105355
-0.0080876015
-0.19649439
0.033879995
-0.035165563
-0.0200557
-0.068610445
-0.056332253
0.016888048
0.0076777106
0.011686319
-0.041359607
0.0026552544
0.088381067
0.057463456
-0.069684476
-0.055699375
0.070024416
0.094560772
0.02136852
0.11833654
-0.026524469
-0.0085915476
-0.055370819
0.085886024
-0.0060395566
0.0077122166
0.00024030061
0.020046186
-0.017790742
-0.007720415
-0.15386383
0.063868031
-0.0067470861
-0.002467731
-0.021004949
-0.0054936567
-0.039427958
-0.0037796905
-0.022865718
-0.022141149
0.064646468
0.055857886
-0.039592806
-0.022530682
0.0048616501
-0.062450811
0.072977208
0.0072297649
0.079456605
-0.062300906
0.041802514
0.028375158
-0.33194596
-0.0009068111
0.026836053
-0.023358423
-0.013554711
-0.023380678
0.060117457
0.00660122
-0.018012976
0.063233219
0.027556555
0.020940853
0.035595898
-0.0089295711
0.023161581
-0.028289344
-0.0070261406
-0.028369812
-0.019998297
0.06131418
-0.028435035
0.047031868
-0.021792829
0.081613444
-0.043177236
-0.065576121
-0.0088658128
-0.14348027
-0.044100653
0.024490146
0.021052683
0.022946345
-0.019943107
-0.022941675
0.007991042
0.013951271
-0.0029756974
-0.022662451
-0.039844342
0.018427694
-0.0041242582
0.0080080554
-0.012309075
-0.025948588
-0.012515925
0.052626912
0.065441661
-0.003512006
0.059426177
-0.021086071
0.040133543
-0.021218404
-0.02393074
0.0036035054
-0.11738729
-0.04160291
0.022321675
0.044469427
0.044598125
0.0019515965
-0.020865407
-0.00039196407
0.023536742
0.035678875
-0.013143807
-0.036507085
-0.016208179
-0.040579643
0.0047852946
-0.015943414
-0.010566047
0.013627064
-0.034370299
-0.0231824
-0.051671404
0.062801488
-0.044196088
0.025910784
0.0084700268
0.0023460975
0.020244941
-0.16700165
0.0093724327
0.0011546066
-0.035324112
0.015094687
-0.0233129
0.051235337
0.047518823
0.0096268961
-0.0073211608
0.030261237
0.040901717
-0.03431752
-0.023347329
0.0057781767
0.036267273
0.0036006833
-0.014601473
0.038885437
-0.0093379701
-0.02090296
-0.027107034
-0.044623472
-0.025483645
-0.054319777
-0.017912164
-0.044269916
-0.0198124
0.022665527
0.037649836
-0.0088059772
-0.039844368
-0.0023518493
0.015126588
-0.025630824
-0.034556646
-0.0036457961
0.054538019
0.0092649357
0.008145255
0.015366496
0.056780513
0.026330635
0.035726313
-0.010571535
-0.029259702
0.021008113
-0.028305462
0.01506604
-0.010700114
0.020863254
-0.022733795
-0.044632886
-0.037614595
-0.0094657494
-0.012707285
0.0036641993
-0.0048103891
-0.032350417
-0.043438736
0.029646276
-0.0041964296
0.0096439002
0.011508679
-0.0004673427
0.023968143
0.018579589
0.013470397
-0.015443686
0.023890242
-0.031034816
-0.0077682356
0.0248709
0.025350844
0.085907444
-0.040934589
-0.037849445
-0.057240792
0.051582642
-0.096974492
-0.021692881
0.024881566
-0.014013121
0.029182307
0.039813925
0.048372354
-0.037831482
-0.019532889
0.019450005
-0.11033732
-0.014559645
0.0061699748
0.0015024689
0.022701072
-0.0010486559
0.0068878355
-0.010853884
0.021730315
-0.026621031
0.024821125
0.062459156
0.011058223
-0.041282866
-0.088294879
-0.0020046318
0.071181528
-0.10596955
-0.068140909
-0.00020847913
0.033039693
-0.022980366
-0.01335339
0.00076125632
0.0078198342
-0.0325174
0.031577956
-0.075701937
-0.029408975
-0.0025711749
-0.017874125
0.0070810756
0.02088402
0.01238656
0.093419909
0.052719105
0.05695302
-0.35273808
-0.020268319
0.04024474
-0.050222177
-0.063635729
-0.014897419
-0.00051585422
-0.007337295
-0.040548634
-0.0047283839
-0.083217435
-0.057414729
0.075881332
-0.036734622
0.2125992
-1.6653931
-0.028703079
-0.067983821
-0.10771953
-0.32426131
-0.02775141
0.014600334
-0.18238288
-0.035443559
-0.1347528
-0.062945038
-0.17176728
-0.11159026
0.0091435881
0.071579754
-0.020397654
0.20568597
-0.018181041
0.0037343749
-0.023967568
0.040830668
0.043830227
0.0071068332
0.039224084
-0.11793522
-0.23422994
0.041327152
0.059586864
0.051442925
-0.020963946
0.024039136
0.004598402
-0.050646286
-0.26534972
-0.012518663
0.030570868
0.058926445
-0.013793729
-0.11026619
0.038833801
0.081875414
-0.080166131
-0.01515638
-0.20089412
-0.28648949
-0.076617032
0.024229832
0.016882183
-0.0011685907
0.019985333
-0.01849157
0.020154443
0.03516753
-0.008759723
-0.021107864
-0.058836747
-0.10000071
0.015123541
-0.011458235
-0.08046747
-0.015266861
-0.055477526
0.024613367
-0.0092437631
-0.0058713546
-0.033289425
-0.090730719
-0.090773001
0.0032632805
-0.25637531
-0.087179229
0.018133646
-0.038818456
-0.07371179
-0.023776691
0.023242865
0.10462944
-0.074014142
-0.031660132
0.040444948
0.0051883417
-0.028478611
-0.023780204
0.037063308
0.00089421874
-0.0029403758
-0.074852176
-0.019258101
-0.043169387
0.01985018
-0.010844012
-0.041485079
0.0080940071
-0.13902345
-0.052551996
-0.11329851
-0.22605143
-0.078899875
-0.045439221
0.022407638
-0.075384669
0.021774005
-0.026295677
0.037296534
-0.025673561
-0.02997208
-0.002197871
-0.027695961
0.0069595804
-0.069821782
-0.097372793
0.016439864
0.025138203
-0.070662096
0.052823499
-0.02904856
-0.001454765
0.015066191
-0.034224421
-0.039236985
-0.05334159
-0.11620158
-0.064675681
-0.089497179
0.18252638
0.05172338
-0.028802728
-0.054145608
-0.057120483
0.1005487
0.043162931
-0.044095844
-0.082339711
0.024197545
0.037779979
-0.028674683
-0.031261202
-0.029715627
-0.019628581
-0.038349494
-0.080424309
-0.046244852
-0.059902783
0.013279825
0.052056748
0.0051599736
0.0020750107
-0.042457331
-0.039036244
-0.086464807
-0.092620924
0.12920325
-0.036494628
5.345284
0.066512205
-0.077597469
-0.16023959
-0.054454274
-0.0067490782
-0.06418246
-0.01870754
-0.0222139
-0.20191097
0.0037742991
0.1136796
-0.085171193
0.064296983
-0.11368807
-0.0084727975
-0.21902108
-0.019790102
0.070294425
-0.076076522
0.090353757
-0.024383796
0.0065074638
-0.15265666
-0.016305581
0.53558719
0.028926719
-0.0039550895
-0.052970722
-0.069195658
0.058351573
0.030508894
-0.041222591
-0.074535325
-0.011417499
-0.069093287
-0.045625906
-0.041401781
0.053066362
0.026388302
-0.051448613
0.0033203252
0.070290267
-0.045724649
-0.076098122
0.059701547
-0.020105682
-0.018097684
-0.010332127
-0.013915868
-0.085154399
-0.16916208
0.10766314
-0.069369674
0.020477643
-0.063080505
-0.036350168
0.022843502
0.042271659
0.013557377
-0.027443685
0.021590732
0.0073291035
-0.034728166
-0.062009975
-0.013053779
0.0087945592
0.00065621187
-0.028758485
0.070902899
-0.02948093
-0.0088668223
0.041768767
0.053793449
-0.084889859
-0.040974241
-0.041412015
-0.12408131
-0.056666058
0.10669906
-0.0092623094
0.0016937805
0.029089537
-0.010703904
-0.021328306
0.023849115
-0.047550265
0.058013413
-0.053127896
-0.027248152
-0.02547547
0.035024326
0.060323901
0.00046847633
0.059574898
-0.014540199
-0.027985856
-0.05865908
-0.0073375972
0.0027102584
-0.0076669781
-0.088763893
-0.17263666
-0.05501581
-0.10338937
-0.086041026
-0.017514765
-0.0082509751
-0.0063502239
0.0077542262
-0.027291048
-0.0033670031
-0.01163099
0.013152192
-0.012604541
-0.012544602
0.1205433
-0.0247817
-0.0033552474
-0.083869353
-0.019327359
0.052101191
-0.019458022
0.094509229
-0.041574739
-0.0074663046
0.0037952117
-0.033407915
-0.041313551
-0.13829944
-0.080445848
-0.057230171
-0.082805656
0.039331779
-0.11079341
0.003939413
-0.081606023
-0.00024200574
0.001074401
-0.00079659239
-0.2273463
-0.0048337043
0.029974174
-0.017147899
-0.13238317
-0.019598611
-0.063184641
-0.034424514
-0.043174632
-0.062305123
-0.0010396745
0.038796417
0.06290219
0.011883912
0.0020343007
-0.07097701
-0.099306069
-0.1171888
-0.038808711
-0.033877909
-0.10930973
-0.079146445
-3.3401325e-06
0.011388066
0.0050818152
-0.011599157
0.02905337
-0.043372449
-0.040693454
-0.0036263491
-0.09884017
-0.055378716
-0.10140939
-0.030066989
0.035861786
-0.053670175
0.010813475
0.037244964
-0.06979768
-0.034446001
0.013543961
0.03922125
-0.028560219
-0.037908368
-0.066147931
-0.0493965
-0.031322308
-0.029235456
-0.042161457
-0.018118346
-0.063893057
-0.016062699
0.013385586
0.1209781
-0.012855099
-0.057684783
0.00085041701
-0.054735363
-0.019960951
-0.070706919
-0.089584455
0.012085229
0.021638297
-0.044298001
0.10403228
0.02734391
0.016636673
-0.074071638
-0.029191192
-0.055667918
-0.021134522
0.0029551771
-0.13964026
-0.032124765
-0.030912081
-0.05739497
-0.0036205433
-0.047873318
0.0022604205
-0.016494786
0.0038160002
-0.010612634
-0.048769087
0.0081136618
-0.038238823
-0.017873285
0.035146233
-0.030840041
0.10044704
0.0056570186
-0.024071082
-0.047830291
-0.084127322
-0.058295924
0.036166091
0.0094319023
-0.00056834187
-0.039736725
-0.040275723
-0.10532039
-0.051946707
0.031685401
-0.021906491
0.00018233864
0.095995158
-0.039153814
-0.12649676
-0.036340583
0.45917124
-0.11567239
-0.025812684
-0.095542014
-0.11453034
0.037237056
0.03203509
-0.026826613
0.048773397
-0.041509826
-0.010089595
-0.041425306
0.031915221
0.058013771
0.013009815
0.041462433
-0.018569065
-0.094903916
-0.20154527
0.063197993
0.51027036
0.18834138
0.0056577283
-0.034214772
-0.020081833
0.013615518
-0.031131694
-0.2351892
0.0090362672
0.096970931
-0.10819219
-0.061419412
-0.042994149
-0.098311245
0.089227974
-0.027701546
-0.0096031958
0.022092294
-0.046409123
-0.087556273
0.012448451
0.070130125
-0.024959799
0.14810166
-0.1474378
-0.055906937
0.017006731
0.13194156
0.049144302
-0.34412733
-0.065320052
0.036103658
-0.033181153
0.11293044
-0.27730939
0.0047288849
0.01375316
-0.079060212
0.0497257
-0.022627825
-0.10740482
0.036170799
-0.005795694
-0.012162095
-0.093940243
-0.048795156
0.034781031
0.036407508
0.073827609
-0.073129736
0.096322231
-0.20455216
-0.0043920539
-0.043559771
0.071937218
0.045774776
-1.1742628
-0.014707331
-0.017532159
-0.012415873
-0.0698874
-0.082745455
-0.013419283
-0.040372446
-0.014610507
-0.092985258
-0.042680204
-0.013850234
0.020930875
0.0037239543
-0.020078989
-0.03222264
-0.0021039303
-0.0080420366
0.013444434
0.028647469
0.010250673
0.044497371
-0.16608045
-0.069397599
-0.073582157
-0.060109921
-0.029412713
-0.019395782
-0.10537361
0.0033672878
0.11811443
0.078689881
-0.016261671
0.026253302
0.022014275
-0.070167042
0.0066158371
-0.065024205
-0.086279906
0.10303293
-0.051129922
-0.11382995
-0.052323151
0.0075661736
0.039513975
-0.092828907
0.006601973
-0.036386304
0.045562085
-0.0083361324
-0.11739871
-0.15660876
0.013835142
0.075890556
-0.14140141
0.14263344
0.026247583
-0.055168416
-0.086950406
0.027011786
0.022962961
-0.082586177
-0.027364474
-0.032889023
0.05810402
0.019458195
-0.030155979
0.01391673
0.018019291
0.075174496
0.034402043
-0.022272419
-0.065718412
-0.036955651
-0.049417354
-0.16624145
0.061658211
-0.21582729
-0.10912952
-0.16107804
-0.075372115
-0.025158124
0.038485304
-0.059877351
-0.32517225
-0.095901221
0.00074292411
-0.020197617
-0.057636619
-0.019156948
0.032139454
0.063155793
-0.0058922758
-0.045931607
0.010840954
0.001201892
0.13800007
0.034020144
-0.003832208
-0.019430099
-0.026049927
-0.025054988
-0.14621857
0.027111383
-0.20373362
-0.025961777
-0.22577554
-0.029933117
-0.0080166748
0.0099954484
0.027729798
-0.30154231
-0.10431397
-0.0086256796
-0.032790385
-0.044634484
-0.077853262
0.082326099
0.13289817
-0.040058166
0.034595758
0.019601922
0.025041576
0.11502866
9.6161239e-05
0.053205527
-0.15956713
0.007528103
0.023182992
-0.51736236
-0.0097934157
-0.23987056
0.1838465
-0.31319615
-0.0049255365
0.0026551399
0.094751939
-0.0074129412
-0.01957085
-0.023120727
-0.041340116
0.020526376
0.03889367
-0.20148976
-0.077427901
0.13070127
-0.049921419
-0.08305341
-0.004313014
0.040053368
0.1056565
-0.027388278
-0.029427201
0.023966826
0.029128719
0.11515193
-0.50743747
-0.050135672
-0.23436697
0.1423039
-0.30178943
-0.015349559
-0.01219638
0.053753659
-0.025917444
-0.041677929
-0.01089982
0.0047342898
-0.04319321
-0.031800941
-0.088588893
-0.034279428
0.097222432
-0.016420096
-0.060608745
0.069421336
0.070306301
0.12618023
0.015200472
0.020331435
-0.27233711
-0.021835577
0.027268002
-0.5681594
-0.06095029
-0.095626593
-0.034176461
-0.22848341
-0.083642915
0.026095673
-0.23264816
-0.27088886
0.83885777
-0.96524245
-6.5063615
-5.8105211
-0.029612768
-0.010594469
-0.19265804
-0.50471711
-0.12266015
-0.12897013
-0.007277275
-0.28090778
0.76713425
-0.14595436
-0.52763945
-0.3954168
-0.18352382
-0.084174402
0.039105028
0.76436269
-0.040532485
0.0059249839
0.0090715382
0.046688516
0.02379426
-0.082043789
0.037470594
-0.12963831
-0.072109647
0.059180934
0.065018095
-0.048584532
-0.017327052
-0.019387025
-0.0013285666
-0.13154124
-0.13605507
0.010596824
0.01683352
-0.002595162
-0.033215828
-0.13228109
-0.072623655
0.0286764
-0.27807587
0.28487509
0.052621804
-0.077938147
-0.31822017
-0.059838817
-0.14358129
0.0072642337
-0.00073395949
0.050690908
-0.19747299
0.0036814352
-0.032243673
-0.14184712
-0.015830424
-0.020794049
-0.11139172
0.033265192
0.0003416434
-0.064653948
0.001525293
-0.060272861
-0.019083705
0.0042810128
0.0050801546
0.044122364
0.023985129
0.028679591
-0.037338175
-0.0075577879
-0.0035906476
-0.10560454
0.0012666545
0.010845743
0.0053094863
0.005185198
-0.14834355
0.010916848
-0.12569369
0.0053837653
0.055210598
-0.16418567
-0.11737097
-0.14110741
-0.063321508
0.0044155843
0.039731819
-0.0025551643
-0.19029288
-0.13270088
0.00073283946
0.001169199
-0.010378389
-0.014852496
-0.0060223443
-0.051182613
0.036979273
-0.02208117
0.015644277
-0.0096992552
0.0032329615
0.0013784509
0.0032892486
-0.1357097
-0.0028273484
-0.013449579
0.0037289478
0.008970567
-0.032356367
0.012292321
-0.0023843904
-0.10631786
-0.17390537
0.054351874
-0.010656876
-0.0080204746
-0.15827058
-0.17121643
-0.24769661
-0.025533646
-0.01791323
0.026416587
-0.010735905
0.03202945
-0.031382535
-0.022681173
0.0087742917
-0.19738984
0.0062532988
0.0086642625
-0.008410316
-0.030511128
0.011016916
-0.22129178
-0.0028706747
-0.17321901
-0.019681424
-0.017486196
0.046732072
0.0039235326
-0.081128865
-0.11272447
-0.21797867
-0.017281171
0.0059171114
0.0013350308
0.025930267
0.01335163
0.019071436
-0.011675205
0.053396165
0.019326136
0.0087327352
-0.095077775
0.043649301
0.0011484976
0.0076588565
0.039181713
-0.021530703
0.0032950838
-0.0046868958
-0.024457864
-0.25194615
-0.11553356
0.029435882
0.0001794103
-0.009263698
0.011790462
0.011921253
-0.24399139
