0.048696302
0.25798851
0.018982714
-0.23808901
0.097461268
0.031982224
-0.035185196
-0.36694175
0.08456181
-0.067756325
0.057959419
0.0063607371
-0.019811293
0.17351803
0.31945279
-0.1414953
0.13090499
0.099895127
-0.21856868
-0.15698312
0.085407823
0.76752108
0.33419973
-1.3812466
0.67332393
0.28276449
0.46581775
0.18289398
0.35928559
-0.11362519
-0.039382994
0.25233063
0.16745917
0.0081373882
-0.28010461
0.16578311
-0.39922085
-0.27675831
0.25231621
0.021777004
-0.029967399
0.18755341
0.042646233
0.083569139
0.082566656
-0.13293181
-0.33187756
-0.025539013
0.33490819
-0.049981639
-0.65397555
0.17855869
0.21423133
0.4699997
-0.012763835
0.30285844
-0.041612767
-0.049793817
-0.041485164
0.17675447
-0.16425617
0.020875731
0.10832549
-0.27002388
-0.13755669
0.17110786
-0.034244668
-0.073668569
0.13148715
-0.0041837445
0.053209081
-0.037425097
-0.11465899
-0.056010175
0.19243895
0.050750677
0.12987129
-0.28962582
0.46841836
0.26761425
0.74615395
-0.17535168
0.17264591
0.081949696
-0.4236719
-0.069271781
0.15502203
0.2209262
0.19083647
0.036081165
-0.0346766
-0.10384367
0.12599228
-0.016385777
0.031191571
-0.0028631873
-0.12141909
-0.051721327
0.14990351
0.12219075
-0.028688159
0.26534277
0.082942083
0.21217826
-0.19985187
0.91542101
0.29617509
1.0882443
-0.3685571
0.2714771
-0.049961429
-0.25399292
0.082288004
-0.044243015
0.21351643
-0.051312119
-0.088458024
-0.25983843
-0.11788301
-0.073751725
0.16866535
0.70723522
0.0068510133
-0.35685447
-0.15162985
0.52759659
0.54594266
-0.20307115
0.1321366
0.32621822
-0.12772936
0.28821841
1.80878
0.096924484
0.022327602
0.052631129
0.22705366
-0.15124424
-0.49855873
-0.16114724
-0.052884948
0.37217963
0.12810718
-0.39863399
-0.030488111
0.73588294
-0.081824526
0.074726887
0.21424215
0.11098001
-0.067163341
0.029143734
0.05796805
0.18680048
0.029924722
0.19108132
0.1008274
-0.031251378
0.38956094
0.090504535
0.30453062
0.020989874
0.24695159
0.16819233
-0.049498707
-0.0873463
-0.01916487
-0.10592631
0.13812542
-0.026090691
-0.093302421
0.016162099
0.50341409
0.072651833
0.1535932
0.17428423
-0.16269866
0.067846231
-0.032008786
-0.28798306
-0.0056807264
-0.088260747
0.041285757
0.30189231
-0.22964792
0.40991512
0.34438869
0.14945708
-0.0012442835
-0.27446863
0.098516099
-0.038090367
-0.11251603
-0.057135642
0.29083246
0.14388029
0.073221087
0.089841962
-0.062803388
0.10350922
0.089923635
0.16270354
-0.062337492
0.019926932
0.21839744
-0.046188664
-0.081594259
0.13644831
0.072376326
0.13004997
0.070354275
-0.1735592
0.63222605
0.44683668
0.035408139
0.029357506
-0.33358049
0.1439966
-0.07596308
-0.16576853
-0.13298574
-0.010648663
0.15733108
0.16052271
0.095280163
-0.088043407
0.18113451
0.053518213
0.13788861
0.23633158
0.12670319
-0.070918143
-0.007958659
0.0095960181
0.25413796
0.0055881627
0.085947715
-0.052320547
-0.42433685
1.0570016
0.092098802
0.060018804
0.011162913
0.068017229
0.35509849
-0.25992283
0.063229233
0.15879248
-0.081822418
-0.10736379
0.31541401
-0.036090598
-0.071006671
0.19355975
-0.13139838
0.13775612
0.13271037
-0.059187274
0.40573671
0.14319979
-0.010163329
0.099467076
0.069137745
-0.45375538
-0.22194526
-0.087984011
0.93494767
-0.94546902
-0.61134601
-0.013379448
0.085273586
0.28797114
-0.34078676
0.066528
0.09522514
0.097777791
0.095851533
-0.10620251
-0.18985641
-0.017054254
0.1732294
-0.032399595
-0.050278142
0.30896124
-0.094773516
0.29530126
0.21562985
0.090795688
0.12859851
0.19831303
-0.25797987
-0.22294742
-0.0074436786
0.70842707
-0.26771829
-0.38728973
0.02619192
0.097006895
0.038853619
-0.039958511
0.0021429544
0.24165775
-0.03651398
0.1093356
-0.25798663
-0.08789558
-0.017488053
0.16482222
-0.11210544
0.03352521
0.2038423
-0.1837194
0.12049249
0.21635525
0.23684411
0.22686051
0.15505692
-0.22687918
-0.26378414
0.17508319
0.45970225
-0.29425928
0.043605257
0.0024374921
0.034745347
0.061725084
-0.049797781
0.0092440592
0.044938762
0.030233148
-0.051003173
0.11378303
0.16657183
-0.058877323
0.11619529
0.041865826
0.0056401817
0.31918213
-0.089472368
0.11723314
0.16312389
0.10490178
-0.14858878
0.089384571
0.014679516
-0.10354985
0.076726265
0.47276595
0.082840987
0.17800632
0.021266935
-0.65134937
0.11540294
-0.30813232
-0.21321833
0.31003585
-0.14599012
0.30926117
-0.15525033
0.049451251
-0.2871362
0.15473212
0.099675298
0.15196079
0.8021037
-0.031141803
-0.031221146
0.047223885
0.5292666
0.38075581
-0.35799176
-0.032526188
0.061795145
-0.13957895
0.47392192
1.6118304
-0.16976857
-0.026724447
-0.15582643
0.10904499
-0.017534724
0.23641981
-0.068976253
0.1812553
0.042080827
-0.033192724
-0.02420738
0.010902097
0.069626547
0.16676052
-0.13459486
0.17344116
-0.12077513
0.01587238
-0.081922829
0.26552337
0.11130077
-0.11583448
0.1327139
-0.16077954
0.07264898
0.26207864
0.61346
0.27177507
0.15775001
-0.1432893
0.16905746
0.014852778
-0.012041066
-0.046617057
0.16740543
0.22824216
0.07340315
0.057100728
-0.28085294
-0.060340028
0.24733572
-0.071488164
0.073245138
0.06531211
-0.0029064133
0.014643285
0.016914068
0.15724523
-0.19748999
0.11571486
-0.097051866
0.063718386
-0.040812835
0.66374308
0.42049178
0.22547477
0.0054643983
0.19636764
0.031647399
0.14086349
0.043064024
-0.06350217
-0.13901252
-0.15126859
0.10319541
-0.18519242
-0.07024435
0.071959317
-0.1015588
-0.14529464
0.1594061
-0.062070791
-0.094394393
0.15145978
-0.062153615
0.040984422
0.38613355
-0.066333972
0.090044886
-0.15555675
0.079216324
-0.31551421
0.2540158
0.16281441
0.070613861
0.066074654
-0.23578574
-0.070082009
0.081616685
-0.013772497
-0.25912946
0.22693443
0.14456514
0.22441325
0.12345655
-0.0030041577
-0.22392191
-0.042616673
-0.24052846
-0.31885609
-0.08385431
-0.10724438
0.022997266
0.44414413
-0.022533875
-0.040244821
-0.31090656
0.45099482
-0.36299267
0.39292982
0.17315727
-0.056777772
0.090853468
0.19290611
0.1378721
0.10135124
0.2799831
-0.24819043
0.064572379
-0.04680692
-0.13556075
-0.15299904
0.1132592
-0.024434915
-0.00061682868
0.057364948
0.0019692576
0.12332357
-0.055635843
0.062417537
0.17737097
-0.015423366
0.16618139
0.2745873
-0.07850147
0.0045403778
-0.027539318
0.18370581
-0.057932544
-0.040236432
-0.095729522
0.19078197
0.1680681
0.26408562
-0.1193707
0.13883315
-0.078109756
-0.031068875
-0.20913503
0.18198137
0.0052640149
0.042118952
0.11584005
0.13000283
-0.00084773143
-0.14349414
0.090832219
0.17907871
0.35193926
0.078459471
0.0072373953
0.10411996
0.12756537
-0.023495445
-0.069375172
0.090333395
0.098600313
0.069352567
0.033806521
0.16800627
0.10004288
-0.22081144
0.13599336
0.055419724
0.090873465
0.017676923
0.10408059
0.1308853
0.012672408
-0.03425274
0.029931648
0.015328476
0.0061105387
-0.012599363
0.15995033
0.35957211
0.068293959
-0.0053444365
0.090500429
0.35467786
-0.029135752
0.062490802
0.22752558
-0.011570847
-0.01001545
0.020600833
0.010512033
0.24263112
-0.31492457
0.088818319
0.10300816
0.18105307
0.12481102
0.044528324
-0.1166028
0.12259202
-0.06652867
0.06841132
-0.054022614
-0.074073754
0.084879808
0.061967745
0.55974305
-0.054432388
-0.14129744
-0.2139083
0.13426697
0.0039683655
0.10897566
0.15919068
0.11705859
0.028389102
0.18199594
0.022885555
0.012894036
0.30301371
0.091595583
0.064429313
-0.17451446
0.043342851
0.061890252
-0.062204544
0.18004373
0.049841132
-0.1686627
0.0038705715
-0.029724685
-0.0073796227
-0.16468087
0.72104549
-0.70683271
0.26743513
0.12052879
0.11210257
0.0010579993
0.86473924
-0.053835139
-0.17948392
0.040656865
-0.093307152
-4.3721194
-0.0050100666
-1.4260066
-1.2220265
-0.39709213
-0.30794549
0.57411951
0.34802401
0.44363102
0.22452316
0.68593341
0.52062005
0.42107713
0.24920146
-0.3130559
-0.063194729
0.43035811
0.17169639
0.30379713
-0.067871951
0.083887629
0.10872718
-0.092085473
0.25417864
0.051780727
0.049775388
0.10701601
0.25057793
-0.013669559
-0.026643805
0.034963917
0.010280623
-0.083659448
-0.074428029
0.0055966987
-0.030728599
0.21636038
-0.38437408
-0.01858289
0.17147149
0.62134844
-0.30866429
-1.213143
0.25161967
-0.061491795
-0.34001648
-0.42114162
0.12143441
0.35655695
0.31021681
-0.12068296
-0.085368097
-0.0039173476
-0.05974108
0.49080783
-0.19800253
-0.41407704
-0.004318079
0.035370242
-0.21841449
-0.14215134
-0.028152691
-0.029190158
0.52494442
0.017163286
0.17317685
-0.28982353
0.073049054
-0.55625808
-0.077684499
-0.49161065
0.04575095
-0.93105888
-0.11859371
-0.14895329
0.21484382
0.1768467
-0.086693101
-0.094899558
-0.56258619
0.17082343
0.20513383
0.12678798
-0.28700027
-0.1921145
-0.037004046
-0.065058097
-0.12456687
0.08691597
-0.38030463
0.10584018
-0.021799855
0.29132289
-0.036695197
-0.31771195
-0.27374721
-0.13889419
-0.70253086
-0.2369511
-1.0109042
-0.24512547
-0.1172649
0.072219126
0.020527339
0.24490516
0.094529159
-0.18117344
0.52437639
0.61817366
-0.030605208
-0.36109
-0.055055816
-0.062743209
-0.25922912
0.15237188
0.073355898
-0.46881726
-0.098934039
-0.20405878
0.025190834
-0.10350659
-0.22944205
0.019633109
-0.34813365
-0.51807362
-0.15751436
-0.47876817
0.095427856
-0.095470056
0.043988634
-0.0060241232
0.30158538
-0.047061868
0.11796043
0.38095254
0.13230687
-0.26684198
-0.1652125
-0.16441724
0.090786971
-0.21641833
0.10860995
-0.075812005
-0.42564631
0.011396209
-0.14698628
0.049357213
-0.30246592
-0.11868995
-0.065362453
-0.30508032
-0.63682812
-0.62678832
-2.3824019
0.39466262
-0.39506283
0.14299175
0.16191654
0.8326298
0.087299839
-0.0093139913
-0.37830862
0.42124557
0.026449414
-0.53689718
-0.26420215
0.38993517
-0.40279877
-0.53406686
0.5844599
0.081451826
-0.055024594
-0.093942404
-0.0021844266
-0.70993805
-0.21686977
-0.15779229
-0.50438821
-1.6760986
-0.83680642
0.021721417
0.2622467
-0.056189593
0.084122136
-0.025246747
0.74155426
-0.2068878
-0.77509642
0.21999
0.84328443
-0.28168774
-0.26620743
-0.31610563
-0.034878556
-0.26696682
-0.074917234
0.39793918
-0.043597274
-0.20068936
0.0068691303
-0.28678876
-0.50605369
-0.012519036
-0.32227907
-0.48437309
-1.185998
-0.7944538
-0.02274861
0.056793153
0.035500947
0.11128325
-0.0213903
0.35753044
0.0014693534
0.10723589
0.33171391
-0.09441898
-0.3730334
-0.3548255
0.012722379
0.088295691
-0.45126009
-0.41944242
0.37271577
-0.19399233
-0.048179068
-0.1207404
-0.27645379
-0.23495306
-0.26544744
0.16339538
-0.69657815
-0.21735179
-0.13900498
-0.016501961
-0.069862448
0.13981569
0.037681419
-0.30564272
0.20789799
0.11517777
0.12239653
0.25065759
-0.066659354
-0.23447186
-0.31872994
-0.21681781
0.064708792
-0.031834088
-0.35396099
0.16129801
-0.063825004
0.17376868
0.052630328
-0.50869662
-0.18611951
-0.27335322
-0.28757036
-0.31551597
-0.4939189
-0.3389256
-0.0048507564
-0.31939706
0.061145451
0.20639278
-0.16428614
-0.024515422
0.0015532967
-0.030472079
0.43618184
-0.11841491
-0.010101748
-0.30023667
-0.34682402
0.10462218
0.025204517
-0.44644818
-0.1379451
-0.25570285
0.22812642
0.11518659
0.017263157
-0.12651397
-0.085279882
-0.41325995
-0.38573512
-0.08140783
-0.2220743
0.01757583
0.13339449
0.022366391
0.22388585
-0.10311688
0.11624724
0.1464745
0.085678555
-0.012483816
-0.33963957
-0.36960754
0.3229138
0.21914279
-0.21877398
-0.12891944
-0.50818276
0.088886902
0.087410845
-0.095511772
0.073587969
-0.37166697
-0.38680184
-0.67938608
0.11907022
-0.2382319
1.0698739
-0.05004577
-0.0043822122
-0.24363738
0.1532758
0.22829758
0.095182762
-0.30226639
-0.14542729
0.057941221
0.23842326
-0.019734768
-0.35400587
0.22585997
0.3406029
-0.27204964
-0.084266581
-0.39724913
-0.16682927
-0.20005354
0.094050124
-0.013850043
-0.33647653
0.051464409
-0.36647391
0.10832293
-0.54613471
1.2534152
0.17004485
-0.020228807
-0.34844342
0.12163284
-0.095723182
-0.32905778
-0.22962362
-0.25622293
0.20735797
-0.083899163
-0.22846135
-0.42640114
-0.0013185727
0.60106432
-0.088775977
-0.0019664338
-0.096567534
-0.12434699
-0.020317508
0.34763449
0.050204743
-0.24301943
0.13534705
-0.45461896
-0.240821
-0.080639802
0.82812536
0.16389763
0.021405963
-0.60924846
0.10244926
0.11947471
-0.061151311
-0.16780433
-0.0343774
0.1292453
-0.25711736
-0.043442164
-0.17364821
0.0031114677
0.73265707
-0.11936983
-0.049254511
-0.38886207
-0.42548776
0.12224676
-0.13518354
0.36233452
-0.1168492
-0.055222165
-0.32860592
-0.38702664
0.32370019
0.71611613
0.42211184
-0.01781759
-0.29914185
0.19150609
0.099496432
0.45131817
-0.33639491
-0.28175947
0.18978067
-0.33351469
-0.3225078
-0.18184768
0.32978803
0.51485783
-0.35357007
-0.29427814
-0.10076239
-0.40902749
0.0017421113
-0.10845511
-0.22449207
0.12759419
-0.060687311
-0.52661574
-0.27134672
0.23803949
2.1915498
1.4832159
-0.025031785
-0.51354611
0.15051261
0.23984052
0.38489869
-0.25267604
-0.21565297
0.30391699
-0.34850386
-0.41329637
-0.013328716
0.1738093
0.60295683
-0.22233902
-0.23624051
0.23908035
-0.49245903
-0.48908812
-0.036559869
-0.057972431
-0.043412324
0.091921739
-0.56977743
-0.20366004
0.059512153
1.2143133
0.66769332
0.20948607
-0.38447601
0.099281006
0.26938036
0.25995839
-0.0070297234
-0.30138224
-0.11843065
-0.14275463
0.024445323
-0.048740182
0.34844601
0.30358449
0.039927632
-0.32692418
-0.51626724
-0.67453891
-0.097387686
0.019817632
0.078157753
-0.042029191
0.15849212
-0.45246419
-0.32709849
-0.0011129855
0.69030935
0.28033257
-0.037102126
-0.33662874
-0.10688942
0.25402912
0.14403275
-0.087413631
-0.068945125
0.030382764
-0.18770073
-0.17168035
0.089767225
0.18265782
0.038550306
-0.061716754
-0.25805768
-0.15692239
-0.48779881
-0.26230058
-0.043905661
0.17593925
0.017177185
-0.14546043
-0.58310813
-0.64007509
-0.057794303
0.98295194
0.3307817
0.45023543
0.053100504
-0.15991068
-0.081859864
0.23271048
0.029839572
-0.27349234
0.11087603
0.080537289
-0.26598081
-0.06052696
0.11714838
0.33945838
-0.081518292
-0.30569702
-0.32574525
-0.41318676
-0.065680519
0.031894598
-0.029573776
-0.0084158285
-0.23205942
-0.48217309
-0.50862616
-0.36114341
0.74578214
0.21259116
0.1149231
0.039327424
-0.33028138
-0.39052597
-0.26011205
0.07190989
-0.22026831
-0.088128343
-0.18189532
-0.11141167
0.36875418
-0.32136545
0.26125863
0.018815007
0.16933022
-0.085477576
0.052632626
-0.21774191
-0.14207639
0.17226683
0.14628682
-0.10658627
-0.24566928
-0.2087108
-0.2619226
0.1811237
-0.007826074
0.029258011
-0.17625251
0.0078679416
-0.32819241
-0.00086447172
0.022550626
-0.34858385
-0.49697599
0.050798737
-0.26261285
0.30516163
-0.42857414
0.27751082
-0.032768201
-0.11708181
0.075147174
0.17345683
0.025270883
-0.047067672
0.11260235
0.097435862
-0.030368585
-0.025418028
-0.2919161
-0.1485405
0.24155928
-0.13979684
0.027313843
-0.53261024
0.071236223
-0.042084124
0.19131082
0.17580388
-0.18063296
-0.1633485
0.30288291
-0.044737689
0.040551107
-0.29572135
-0.061076418
0.043261293
-0.19068356
-0.21811587
-0.17964031
0.073695652
-0.24682757
0.42055413
0.086625487
-0.20317908
0.051327914
-0.062839344
-0.12560835
0.21539401
-0.28153068
-0.010538719
-0.35963744
0.081695944
0.01979883
0.1482342
0.30712622
0.034528397
-0.10108618
0.26519942
-0.22822735
0.11522938
-0.09624663
-0.30391335
-0.011152625
-0.27262256
-0.14484669
-0.24678172
0.1009548
-0.017274491
0.14053375
-0.035175975
-0.23781821
0.13438888
0.21076559
-0.41407159
0.043634564
-0.15742315
0.024343535
-0.25196683
-0.018315913
-0.16153753
0.27476421
-0.035668127
0.12780353
-0.28998113
0.34428847
-0.067176059
0.2178854
-0.12339296
-0.091038503
0.021214435
-0.55898345
-0.064800426
-0.48273784
0.057400137
-0.02985925
0.26548886
0.13949865
-0.45348036
-0.1560661
-0.18112822
-0.11263266
-0.4433392
-0.341427
0.0057270289
-0.30506015
-0.067019388
0.09904027
-0.0079086367
-1.7414576
-6.2377739
0.0073928772
-2.0223901
-3.9102008
-1.1135143
-0.60592258
-0.42628542
-0.27485046
-0.35486415
-0.14258398
-0.5211426
-0.033206634
0.23459566
0.52993923
0.6083287
0.86290878
1.8858751
-0.13441679
0.049609285
-0.13771103
0.040546119
0.080871277
-0.22984859
0.16886595
0.17255418
-0.040836263
0.0084617985
0.076248586
0.12316493
0.007644848
-0.28623444
-0.31173983
-0.37155405
-0.20367061
0.053040948
0.041071124
-0.0096161114
-0.20593753
-0.66198027
-0.74657905
0.53967088
-1.2027441
0.91286755
0.20260444
-0.072665587
-1.3455651
0.0070329057
0.00032034301
0.0212813
0.046597317
0.003825275
-0.0068009691
-0.06371402
0.0061273826
0.02572198
0.0093234535
-0.017063323
-0.0078288373
-0.0065851388
0.056300435
0.0083426433
-0.0023520964
-0.050357427
-0.0011640926
-0.0066651842
-0.0068569509
-0.010484748
0.0060989298
0.058326792
-0.051214319
-0.020959536
0.0026869974
-0.083955899
0.012325643
0.0068724216
0.044752777
-0.014538127
0.024089446
-0.00037323195
-0.026838703
0.022570536
0.017634636
0.014191892
-0.023928694
0.014722995
0.039799441
0.0038967561
0.04528708
-0.011038508
-0.00094032142
-0.0095981862
-0.026933871
-0.015772158
-0.0055101835
-0.0017819603
0.10618813
-0.0053544189
0.0107726
0.048862264
-0.07699053
0.0016824505
-0.0010067911
0.0082179774
0.031550732
0.017988548
-0.0068841148
-0.0070199184
0.038149867
0.046829045
0.025550706
-0.0058686044
-0.047297768
-0.028651975
0.047069624
-0.030429419
-0.036584929
-0.0031316571
-0.0047231349
0.057002276
-0.032774296
-0.011668617
-0.022206238
0.040113185
-0.05559022
-0.067147911
-0.057171073
-0.038695063
0.069222219
0.00031071928
-0.019242084
0.025457973
-0.022843299
0.03849579
-0.052219458
0.0628874
0.036304537
0.008500685
-0.027317701
0.015677735
0.0011701009
-0.0092321727
0.030035689
0.011271842
0.01169687
-0.024132594
-0.033019759
0.0041331276
-0.056230508
-0.037261117
0.059201762
-0.063376002
-0.016268361
-0.035326436
-0.0071952362
0.011923689
-0.034857623
0.0021815398
-0.043944839
-0.029036345
0.041381478
-0.036132555
0.058733307
0.023947688
0.036393821
0.025987567
0.036510948
0.025627656
-0.0051215142
0.044902075
0.015918503
-0.018135475
-0.064299308
-0.046336297
0.021422647
0.0086836116
-0.027950663
0.10107464
-0.023666564
-0.17080037
-0.075407699
0.0084263142
0.01611842
0.017736387
0.04553223
-0.045219656
0.0083174258
-0.00077961443
0.041827876
-0.015177394
-0.012714393
-0.030395035
-0.035892908
0.046980236
0.0076712035
-0.024462489
-0.014533053
-0.0038199348
0.058371469
-0.028253358
0.046510167
-0.014847049
-0.032833703
-0.065309808
0.047303908
-0.029571908
-0.066019848
-0.025513435
-0.017721102
0.022680221
0.0033186851
-0.036049418
-0.013535202
-0.00062516105
0.014968403
-0.012984258
0.0072124321
-0.022823237
0.039995175
0.026956413
-0.009576573
0.060229231
-0.0030597481
-0.048758511
0.017063856
-0.0056029055
0.046938807
-0.02401034
0.04658195
-0.020849414
-0.064837135
0.082488425
0.0046424922
-0.019047499
-0.03255723
-0.0032912667
0.026624335
-0.022020813
-0.015683008
-0.044145092
0.036582734
-0.032106496
-0.014166325
0.013647628
0.012753727
0.025270699
0.0052277935
-0.019665791
0.044192024
0.018499849
-0.04547143
0.021083683
0.042053781
0.0053688544
-0.027009387
0.054547653
-0.024799414
-0.077817261
0.08060278
0.045596942
-0.045803722
-0.050360367
-0.00047637714
0.062251851
-0.044472963
-0.043412499
-0.046800636
-0.028647065
0.025045132
0.034784585
0.027542735
-0.033413548
-0.026559474
0.028440254
-0.017834764
-0.036573529
0.012354969
-0.020188782
-0.012195119
-0.031905308
-0.026489478
0.019676087
0.034870673
0.017595259
-0.08034645
0.038832456
0.0077293827
-0.034266707
0.031002572
0.024810996
0.017613046
0.0053037084
-0.041060045
-0.08035104
-0.0013450974
-0.026120307
-0.042383626
0.045786496
0.026143061
0.015521972
0.051384971
-0.0065581212
0.082781732
0.020292742
-0.0056133983
0.011664595
0.0059197126
0.059941769
0.16196299
-0.0019255916
0.01774569
-0.067971088
0.21203016
0.023184946
-0.045457631
0.0089242626
-0.014469955
0.049210697
-0.014152314
-0.05024546
-0.02236628
0.0050102919
0.014984278
-0.011282956
-0.026215412
0.037827726
0.029829865
0.0047599883
0.013341029
0.047219098
-0.015725927
-0.039660525
0.016156608
0.007929014
-0.018787915
0.0085542882
-0.027002005
-0.018577117
-0.10610073
0.092254788
-0.028070327
-0.051775251
-0.024434173
-0.0014801858
0.0042461259
-0.018209493
0.012670004
-0.0041043595
0.013943837
0.015089547
-0.014400313
-0.0037486658
-0.038094025
-0.0040831808
-0.011052916
0.014644342
0.04929892
-0.020122921
0.0059113069
-0.014348365
-0.017642032
0.034249753
0.0078283362
-0.0022825256
-0.010350262
-0.034903578
0.056807131
-0.008884199
-0.013543645
-0.0008664045
-0.027728228
0.02712038
-0.0028079203
0.00018570798
0.034113031
0.010306487
0.00033671895
0.0046334267
0.021670491
0.046618648
-0.062457133
-0.029772503
-0.017388633
0.028076267
0.0058062728
0.011209088
-0.016251367
0.046882909
-0.029310657
0.014357452
-0.045787014
-0.0013190892
-0.013690231
0.078232929
-0.049896404
0.010649865
0.015959268
-0.0092557156
0.026794666
-0.050286759
0.013996834
-0.036524639
-0.01192125
-0.0081288004
0.0027262184
0.016150989
-0.037636213
-0.0072910213
0.0014174563
-0.0021727686
0.038938507
0.0093853027
0.076006882
-0.014841919
0.0051324242
-0.0067207809
-0.017408838
0.027457941
-0.020441225
-0.074920446
0.060926568
-0.028891465
-0.19871895
-0.0683088
0.0052494956
0.025302937
0.014573868
-0.011868408
0.012384772
0.0087948265
0.019975744
-0.022086171
0.02317295
-0.0053442377
-0.012359296
-0.020816565
0.016250646
0.046859007
-0.0093100984
0.0092269275
0.00252882
0.016910296
0.016361199
0.042705171
-0.020535637
0.010164592
-0.056964114
0.064089067
0.0091465348
0.022414152
-0.0059516849
-0.040009562
0.0040374883
0.009452791
0.042944446
-0.022402013
0.008215772
-0.03735853
-0.0081412364
-0.013491651
0.0018148224
-0.026297366
-0.018889146
0.031912461
0.0096681882
-0.037059728
0.065364003
0.012900398
0.048298992
-0.023541287
0.032480065
0.0097977202
-0.013159374
-0.068614088
0.08118698
0.012734577
-0.016443444
-0.0089228097
-0.034692857
0.019347614
-0.047620386
0.0069346549
-0.038561683
0.00038231004
-0.034640793
-0.052253757
0.013575083
0.021993181
0.0083955619
0.0011882054
-0.00079801236
0.042399779
0.0017489353
-0.023028435
-0.014876076
-0.009125052
0.0165266
0.0084277745
0.008355896
-0.026734866
-0.0076297377
0.08138299
-0.071503855
-0.036559384
0.02637952
0.0299874
-0.016737482
-0.00041164673
-0.018379955
0.0060724206
-0.032855291
-0.041893974
-0.033359896
0.018936988
-0.0018951894
-0.0014182122
0.046587851
0.019134192
0.046827093
-0.012347367
-0.036157865
-0.010919218
-0.027296452
0.04848592
0.0017367187
0.0078290785
0.024376374
-0.023865765
0.095317274
-0.047950901
-0.0416677
-0.01663385
-0.012575863
-0.038234025
0.055225387
-0.033029187
-0.026098715
0.01708792
0.054731399
-0.037357673
-0.018466914
-0.034392793
0.0063332366
0.039156117
0.00011515949
0.0041867755
-0.02994973
0.030006802
0.010977306
0.010253012
0.030435512
-0.025953015
-0.0051192557
-0.0074379016
-0.049915716
0.0085740481
0.090104334
-0.021682514
0.025790917
0.023139788
-0.04199791
0.048150979
0.0051932498
-0.0059356815
0.046368927
-0.01362883
-0.017730398
-0.020478433
0.021752242
0.016059313
0.039548427
-0.001172872
0.01503818
-0.054577339
-0.025127372
0.0164658
0.019600973
0.25532699
-0.0091914777
0.0022792716
0.01162026
-0.071525827
-0.019688826
0.10046113
0.013397014
0.010492869
-0.028141139
-0.012111097
-0.014071858
0.052502763
0.012595558
0.012689412
0.025591081
-0.0462275
0.0073918533
0.040641263
-0.015527643
0.011292374
-0.02354716
0.0073942146
-0.023193156
0.03461457
0.013239098
0.019026469
-0.014267923
-0.02686777
-0.024371423
-0.011036971
-0.035729267
0.058566473
-0.0012620299
0.031470079
-0.0061718719
0.0068886885
-0.049579181
0.012363769
0.045162737
-0.019285591
0.05873188
-0.038638905
-0.0044185165
0.035506602
0.041357532
-0.019258497
-0.017016346
-0.050988778
0.020930134
0.067840211
-0.013844651
0.010793066
0.0086262347
0.019613596
0.0084197372
-0.01933899
0.00014216808
-0.0006549416
0.049433019
-0.0036241172
0.037994578
0.016802842
-0.0047629992
-0.016234746
-0.0070678038
0.03806049
0.0042181648
-0.016116483
0.040226497
-0.0047076801
0.047425576
0.012714907
0.033212643
0.0021559952
0.026563117
-0.0039936011
0.010458966
-0.0029911832
-0.0061745541
-0.017147074
0.028506869
-0.017736247
-0.017953755
0.02268465
-0.032949004
0.0033944335
-0.0078016357
-0.0032425676
-0.024508869
-0.024785111
0.2964637
0.0014763139
-0.02935715
-0.39063182
-0.16355969
0.53880262
-0.012184122
0.083633475
0.05689656
0.0048247967
-0.093892001
-0.032306157
0.004889586
-0.015759043
0.031822398
0.063201971
0.020358646
-0.025883544
-0.039803036
0.042481676
0.037238143
0.076811828
0.014035283
-0.017552869
-0.031458791
-0.027708484
-0.026674282
0.025995864
0.00073078024
-0.005406742
0.023245299
-0.040647864
-0.029672528
0.012092686
0.036189895
-0.031976305
-0.0087105334
0.022149043
0.072425388
-0.00064356695
-0.03988963
-0.010403899
0.0072169648
-0.0025027161
0.021284932
-0.045242716
0.012012634
-0.11837418
-0.22254047
-0.1554502
0.051482171
-0.093058608
-0.10729316
0.085105278
0.10907451
-0.16549523
0.053891018
0.0699182
0.29529929
0.018873336
0.83961993
-0.26996511
-1.0670599
0.18808728
0.093498699
0.076760277
0.13397159
0.059003141
-0.85112995
0.094242938
-0.18084978
0.028315801
-0.19852419
0.027159765
1.7378379
-0.88374275
0.072812147
-0.24046063
-0.097135834
-0.32825243
0.15120916
1.2630949
-0.029992757
0.096801139
0.28326535
0.45900869
0.16456069
0.066974573
-0.7065801
-1.1828524
0.19752005
-1.0371799
-0.079358153
0.136897
0.16934954
-1.3856776
0.15468147
-0.65966743
-0.034358323
-0.17970423
0.35047242
0.62877214
-0.24118881
0.18042837
-0.2125448
0.077946387
-0.47157949
0.24701922
-0.77897525
0.12535872
0.07545843
1.1778075
0.55383897
2.1426005
-0.49734083
-0.39642584
-1.3858533
0.14304276
0.098865546
-0.010505082
0.14510569
0.074151903
0.11875843
0.04499111
-0.67134631
-0.051817931
-0.18111064
0.45705622
0.54593736
-0.04547016
0.0014354027
-0.23655115
0.030040735
-0.23019552
0.52025414
-0.39386287
0.12589109
0.1840944
1.1552155
0.26148981
0.17032348
0.074249953
-0.46328947
-1.2805597
0.093344577
0.13666818
0.062987968
0.11490909
-0.082147516
0.056288172
0.081107564
-0.55278164
-0.10756253
0.22821721
0.60887045
0.29848266
-0.034497194
-0.36051023
0.044643804
0.11266893
0.060213532
0.13486063
-0.34040093
0.18281814
2.0639651
1.6323528
-0.12984432
0.18863012
-0.68810534
0.098063402
-1.1586438
-0.13038515
0.13705979
0.80157596
-0.040139012
0.04660064
-0.41038704
-0.02557111
-0.85764724
-0.61777437
0.37784335
0.61658525
0.072934777
-1.8286027
0.30302453
0.02561981
0.01793292
0.17762861
-0.56947327
0.25740039
1.38577
0.10026129
0.92670554
-0.20934626
0.36053556
-0.97142416
-0.066737212
-0.30994579
-0.46020353
0.20755848
0.74193442
0.0086141117
-0.29457387
-0.32687798
-0.10565551
-0.60824698
0.054630276
0.48065934
0.40071744
-0.036914099
0.51649767
0.47175646
0.023153799
0.055539284
0.35071585
-0.91503215
-0.15950616
0.10871302
0.70572215
0.06428685
-0.16843905
-0.79399216
-0.55542755
-0.47807157
-0.087546796
-0.91164351
0.044953819
0.12105504
-0.011001144
0.064186893
0.11327648
0.080791175
-0.5953306
0.22209375
0.58195704
0.37173826
-0.061108872
2.2950113
0.59051508
-0.02136573
0.28489026
0.34807962
-0.21611959
-0.37449247
-0.16607834
0.18749282
-0.42655569
0.11839804
-0.42972136
-0.41085219
-0.66257161
0.68332672
-0.25759998
0.052931134
-0.45711631
-0.28831285
-0.19472818
-0.41054985
0.044348191
-0.62529641
0.40614933
0.47285742
0.50467867
0.10415788
1.5378228
0.67779464
0.02081541
0.24846356
1.1681951
-1.0407891
-0.14395265
0.096495956
0.40870792
-0.19032098
-0.20736057
-0.7464264
-0.41395867
-0.075794213
1.0392148
-0.85002798
0.09822832
0.031264633
-0.74235523
0.23060063
-1.2145485
0.18845977
-0.29029539
0.27998671
0.25403443
0.52719718
0.27052781
1.3836955
0.52715838
0.026362117
-0.037251767
-0.12233356
-0.03986679
0.29131979
3.1444163
0.083809197
1.4513133
-0.53552222
-0.11720686
-0.23917907
-0.93953621
-0.18859793
-0.0090722069
0.069858983
0.21990496
0.28666404
0.11589444
-1.6867619
-0.36653602
0.13790202
0.023053505
-0.094703175
-0.83477592
1.2953391
-0.67024672
0.18370767
0.010576259
0.023105931
0.053156264
0.12006166
0.31192076
0.70797974
0.10773563
0.2163167
0.049673654
0.10711179
-0.60745168
-0.42605564
-0.29444385
-1.49798
0.062459432
0.15117571
0.24158879
0.12153859
-1.4855152
0.079811886
-0.62993777
-0.031767976
-0.11561005
0.014825123
1.3591466
-0.63098043
0.11604523
-0.01716144
0.13448723
-0.36611199
-0.44843316
0.88565516
0.79682738
0.017462555
0.15411998
0.44763038
-0.22636449
-0.14243929
-0.39908376
-0.42548245
-0.012094334
-0.29304761
-0.13984619
0.20152272
0.071707077
-0.6003359
-0.41446275
0.26959094
0.12760788
-0.37044185
0.014908102
0.66463214
-0.21628474
-0.1434554
0.029036393
0.015118716
0.082899585
-0.093111373
-0.30770338
2.1278625
-0.040169258
0.61047584
0.15094851
0.11186347
-0.43037784
-0.23840101
-0.17613018
0.043512423
-1.1592318
0.5594815
0.27046645
0.11894182
0.027247459
0.10615578
-1.2029202
0.25124478
-0.33006102
0.33658475
0.41788298
0.0692458
0.22108389
-0.022967234
0.30203426
0.045251224
-0.36616683
-0.29606324
0.15091899
0.01478909
-0.35112473
0.33941504
-0.58596367
-0.48331416
0.10630522
-0.92735904
0.073252685
-0.37758708
0.8422479
0.29636654
-0.28151119
0.074976079
-0.73577833
-0.53267717
0.2483771
0.20258249
0.3863655
0.13916582
-0.68977755
-0.69606012
-0.0090477429
0.20878358
0.059876833
0.0082225865
-0.44586501
0.13804409
0.0049840366
-0.086307876
0.81218493
-1.9243234e-05
-0.59602028
-0.36287397
-0.39253423
0.10527415
-0.42604393
-0.43826938
0.25519127
-0.05662794
-0.036970794
0.036896437
-0.5931623
0.27133015
0.0053233327
0.4873873
0.23426664
0.070431739
-0.45446169
-4.117979
0.24413978
0.070862174
1.5200499
-0.78678906
0.045238473
-0.39682728
-0.39184302
-0.14949714
-0.42099491
-0.19871813
-0.79741639
0.076206438
0.13987702
-0.15696158
1.8165572
0.33782399
-0.54507846
1.3534698
-0.31217492
-0.75934577
0.23112756
0.41622636
0.53841394
-1.5515968
0.39391184
-0.030157004
1.7114775
0.25371376
0.35736582
-0.53100812
0.16306409
-0.72242463
-0.57311404
-0.18537165
-0.21247405
-0.43116528
-0.40438554
-0.70327127
0.48834369
0.058182694
-0.019621886
0.56745404
0.98627627
-0.50309896
0.10578092
-0.18686536
-0.66159785
-0.27558956
0.2477444
0.98714441
-0.17959298
0.28173786
0.19792925
6.0992527
0.17496613
0.088433333
-0.3101477
-0.13013001
-0.72154659
-0.026762359
0.12552287
0.12410086
-0.20176317
-0.079252422
-0.23138334
0.13652509
-0.68759733
0.053842161
0.8382597
0.9423582
-0.40799826
0.736422
-0.87616557
-0.032412272
0.41602558
0.078552857
0.512941
0.29549444
0.30979261
0.28147012
19.405729
0.10916055
-0.51633823
0.081590421
-0.18645026
-0.8318553
0.090986364
0.087354638
-0.010007443
0.3344512
0.11863959
0.078893818
0.057678435
0.10342925
0.031216731
-0.23099078
0.042760331
0.32690361
-0.3240416
0.081907123
0.25223294
-0.76160026
0.36363173
0.1105716
0.46509787
0.31514353
-0.28833395
0.015233692
0.08876691
-0.37938952
-0.17128275
0.23422194
-1.0690274
0.15873349
0.18141912
-0.089593649
0.14032923
0.18031865
0.29384241
0.22045319
0.12142488
-0.12404807
-0.14686295
-0.092140161
-0.0038494549
-0.14195918
-0.26627329
0.065614827
-0.25254035
0.33737522
0.48431712
0.25353852
0.47213551
-0.022223402
0.018191436
0.11282272
-0.48358178
-0.79644376
0.30242896
-0.54682821
0.0073657199
0.14582168
0.022805382
0.074117474
-0.019181581
0.20071875
0.16470486
-0.027294686
0.059712823
-0.25004673
0.17500608
0.16462988
-0.13953315
-0.36368033
0.016369184
0.15675756
-0.12890202
0.32854098
0.34937876
0.39443657
-0.015946602
0.0081464117
0.014616327
-0.1779523
-0.74470294
0.61324102
0.8191753
-0.84475118
-0.05659524
-0.14361991
0.11333945
0.067104727
0.070619233
0.17402783
0.070632897
-0.30872884
0.15003836
0.56481075
-0.030029235
-0.09121938
-0.34549195
-0.011639465
0.089810096
0.29248849
0.023596704
0.40974775
0.311391
-0.011689417
0.024717377
-0.21206458
-0.074683435
0.044530611
0.24366099
0.10638355
-0.80576235
0.083092406
0.10188626
0.15299243
0.11511285
0.089691006
0.11775752
0.083630338
-0.0022792697
0.013883719
0.080454133
0.081812352
-0.063527048
-0.67527515
0.076000206
0.20082623
0.63104981
-0.30174875
0.36372042
0.52778697
-0.047786061
0.011983629
1.3042434
0.09557797
-0.25421801
0.176562
0.13597706
-0.65139532
0.013147613
0.46495593
4.5657072
21.143784
3.1494243
1.11361
17.766277
-0.12728824
21.441231
20.577129
0.09231028
-0.72322363
-0.52947801
-0.51704586
-0.27285087
1.0208273
0.033548184
0.097241394
0.051606972
-0.00081431889
0.1007153
0.079114676
0.1793198
0.05712964
0.072826251
0.24656066
0.14334673
0.13728006
0.043082535
0.070842884
0.14018564
0.12372081
0.095087342
-1.2388943
-0.0026442711
0.29767954
-0.94260192
0.21923496
-3.7556973
1.8413951
0.31525737
-0.270724
0.10188865
0.27284396
0.22608574
0.028653488
0.0036564993
0.0601504
0.032168832
-0.28425631
0.043596312
-0.060890436
-0.12683536
-0.0028942199
-0.046511151
0.023235602
0.062064223
0.093312278
0.018758811
0.0071472595
-0.051731609
-0.036223724
-0.026401814
0.032056548
-0.069790646
-0.0040955078
-0.04073406
0.01602836
-0.29600063
-0.11471649
-0.071866304
-0.25467634
0.10634945
-0.023037393
0.031554621
0.20571566
0.0070174532
0.055012513
-0.046353597
-0.17206739
-0.20745435
0.031025194
-0.0083987573
0.040236954
-0.010204474
0.089042738
-0.097345419
0.0022539115
0.062585227
0.022955889
-0.075993076
-0.042498901
-0.011584747
-0.095603935
-0.16569661
-0.013922177
0.13518253
-0.15865485
-0.22860728
-0.015118611
-0.025023017
-0.14180249
0.083633244
-0.018514054
0.093253925
0.094575025
0.0072426759
-0.048612371
0.066567443
0.0008499464
0.053243984
0.089568943
-0.14678989
-0.017889673
0.023655957
-0.056961574
-0.72494262
-0.32703513
-0.023226822
0.0049460609
-0.16083378
-0.21343978
0.041095112
-0.13038975
-0.053346414
-0.084678374
-0.11690516
-0.051114384
0.055849954
0.035351582
0.12612215
0.076803863
0.015306072
0.15179117
-0.11495469
0.17782673
0.14146434
-0.062632591
0.010210357
-0.028722974
-0.050717823
-0.063918695
-0.2048517
-0.008325818
-0.11139628
-0.028593011
0.021091996
-0.11615498
-0.21157829
-0.040302508
-0.2003554
-0.43211204
0.18745302
-0.42378873
0.22125384
-0.0023892592
0.81806117
-0.0095828027
0.21532099
0.25717977
0.089350253
0.77315325
-0.67498302
-0.38346055
0.17134428
0.022592973
0.12012088
-0.086148448
-0.13779905
-0.42895404
0.17800258
0.15427606
-0.48157102
-0.17713517
-0.074550875
-0.233896
-0.097375125
0.65064436
-0.17897499
-0.0046531879
0.013101409
-0.06037825
-0.0011989558
-0.10283957
-0.10519905
-0.002331252
0.081341043
0.070998594
-0.010129302
0.051955976
-0.040257331
-0.030011378
-0.017336467
-0.0040928819
0.11313826
-0.098850384
0.04117078
0.4966439
-0.04837301
-0.033551764
-0.18930769
-0.12581351
-0.1132256
-0.086229593
0.045893814
-0.20059305
0.0036565217
-0.0041095004
-0.10120662
0.047536571
-0.099510953
-0.066806212
-0.057219189
-0.077461831
0.15091003
0.083758309
0.062960617
0.0078337174
-0.13915339
-0.079891428
0.042925902
0.073847264
-0.16995122
-0.049048413
0.063831158
-0.012975524
0.0029406392
-0.027236825
-0.14430556
-0.1522481
-0.092967443
-0.17727157
-0.459777
0.012071422
0.061651405
-0.0048484812
0.015615558
-0.076150797
-0.10354344
0.011757471
-0.10186611
0.069726676
-0.10519789
0.053343147
-0.012007657
-0.055354986
0.03234439
0.048893228
-0.030756677
0.0092976708
-0.079966232
-0.041180562
-0.063193902
0.18514495
0.059333865
0.017852908
-0.15925093
-0.21427178
-0.22102274
-0.37755701
-0.009041829
0.0060152085
-0.036904093
-0.014082883
0.014749943
-0.10020529
-0.061166406
-0.073636964
0.14137353
-0.049717378
-0.081878044
-0.050190758
-0.0046727774
-0.077443942
-0.035420116
0.031563379
-0.019903243
0.032195281
-0.085465111
0.071965776
0.044982336
-0.0028801106
0.18650502
-0.093861304
-0.27354378
0.18528132
-0.17966296
0.023157528
0.13624342
0.051592678
-0.039088707
-0.07866919
0.022358583
-0.13566631
0.013767041
0.049071737
-0.035180144
-0.029184759
-0.09337455
0.13188128
0.04772288
0.094380528
-0.068513662
0.06104935
-0.068334736
-0.44764391
-0.0028016842
-0.0704512
-0.084752589
-0.30149117
0.1376546
-0.12877764
-0.18111213
-0.49000144
0.0043819817
0.0046516317
0.03431255
-0.12708372
-0.13026917
-0.290216
-0.024189809
-0.15379667
0.14839405
-0.026056267
0.13283625
0.023948122
-0.074266113
-0.021376597
-0.081491537
-0.091752253
0.03409164
-0.0086238328
0.0083923684
0.030265447
0.13416429
0.034472145
-0.22194865
-0.10468818
-0.10034008
-0.28029892
-0.70010269
-0.022390159
0.037366997
0.04573448
-0.090408772
-0.010205634
-0.055622157
-0.15548262
-0.12064616
-0.060533527
0.010622263
0.048735548
0.094278641
-0.0045915456
0.067498073
0.039123643
-0.13691099
-0.07643465
-0.086385936
0.12170538
0.028453939
0.075439066
-0.058281854
-0.14304906
-0.20154877
-0.15316048
-0.23717019
-0.54493493
-0.010261565
0.1354035
-0.041055594
-0.031142237
0.13243672
-0.11300744
-0.010868565
-0.071952954
-0.053282216
0.11815761
0.037618853
-0.037306588
-0.068394043
0.062865481
-0.06258247
-0.027849207
0.070934646
-0.10593255
0.030801037
-0.094352603
0.052072968
-0.14431331
-0.03949796
-0.18959409
-0.2438738
-0.17162789
-0.4685145
0.00073519681
-0.059975527
0.22681032
-0.085968822
0.18371041
-0.0024766868
-0.030119207
0.27816418
0.012378737
0.42669636
-0.29980993
-0.28719932
0.11130518
0.022229088
0.16884959
-0.048209667
-0.07409443
-0.39290351
0.41164774
0.028391695
-0.30842599
-0.41145775
-0.129761
-0.17213275
-0.13743079
0.39817983
-0.18890879
0.015825175
-0.0065091522
0.052990913
-0.081592903
-0.014405546
-0.11674292
-0.044412903
0.0052890708
0.022880465
0.10505773
0.13938323
-0.079534426
-0.014649863
-0.054096319
-0.022543492
0.041078448
0.04358203
-0.10426633
0.079091072
0.056975745
0.051682334
-0.27692845
-0.017344417
-0.18920641
-0.25245544
-0.1396853
-0.25698727
0.13731685
0.0078823213
0.06196766
0.018611124
0.034439471
0.02029763
-0.10847874
-0.13718751
0.1715866
-0.014058999
-0.041410957
0.033324175
-0.06073603
0.082640573
-0.097752288
0.074502468
0.038703185
-0.12115482
0.09209913
0.13774934
0.013459333
-0.23198277
-0.054234456
-0.18893121
-0.16130489
-0.215214
-0.15100802
-0.1650586
0.18244801
0.0060800062
-0.072830118
-0.070658341
-0.019501515
-0.16822274
-0.051960893
0.043035954
-0.4203704
0.027266052
-0.024812475
0.088970743
-0.0017929893
-0.0094189113
0.004367223
0.056159195
-0.046659693
-0.0027506284
0.049963169
0.24227653
-0.086821288
-0.24225004
-0.010062521
-0.05895444
-0.20571057
-0.24076462
-0.234635
0.084283024
-0.042857483
0.076824367
-0.038708292
-0.060246624
-0.067262039
-0.061017334
0.045994308
-0.18021053
0.077812262
-0.078467585
0.014870971
0.041782517
0.0033806649
-0.071976788
-0.023314262
-0.011936857
0.049179781
0.10685879
0.0072424957
0.02022383
-0.23161018
-0.074681923
-0.011559517
-0.14509477
-0.25080618
-0.1507275
0.032144547
0.13378267
0.028660405
0.049551498
-0.018049207
0.056469478
-0.087390766
0.068948001
0.017523201
-0.075076848
-0.011224993
-0.029212588
0.081133783
-0.036051657
-0.17671466
0.037771527
-0.063782774
-0.086822197
0.14104199
-0.27404696
-0.019358115
-0.14727905
-0.037570253
-0.049841154
-0.012398068
-0.3364681
-0.020706806
-0.022512397
0.002288851
-0.081118844
-0.15980762
0.028814767
0.052659534
-0.071930125
-0.1614002
0.037894905
0.013815993
0.12955071
-0.0085106296
0.071665585
-0.012422929
-0.11099471
0.046684813
0.044994481
-0.14886571
0.013312753
-0.079288609
0.091425911
0.037813332
-0.098483309
-0.19511198
0.029355882
-0.2546744
-0.010388613
0.016736824
0.043503299
0.021977618
-0.10061651
-0.038147803
0.069190085
-0.11041315
-0.1646402
0.11667096
0.14648873
0.21226807
-0.1421714
-0.015589884
-0.048393741
-0.051599398
-0.088582024
0.023993038
-0.18336731
-0.31163836
0.096315145
0.13175152
0.33516768
-0.21932006
-0.29478869
0.21438217
-0.13516213
0.0060100756
-0.0055617983
0.0083788801
-0.085729495
-0.024509558
-1.121647
-0.12172223
-0.1418687
-0.06610097
0.023650406
0.11597734
0.16839699
-0.054615907
0.0026574179
0.058874201
-0.014925518
-0.013975662
-0.003091421
-1.1166478
0.04143953
0.086854771
0.21610722
0.48817801
-0.42369708
-0.35188782
-0.03842349
-0.26065969
-0.0088695455
0.0043017068
0.025561823
-0.15873358
-0.036881868
-0.96577138
-0.018124478
-0.22035488
-0.16917656
0.092182934
0.087658778
0.04888308
0.039553843
0.094099209
0.14522038
0.11991244
0.033143573
-0.06581299
-2.8055036
0.15012875
0.0067285239
0.0064275027
0.17200637
-0.36722448
-0.11537075
-0.27690634
-0.027414106
0.016564295
0.79420733
0.33097607
0.39259425
-0.34570795
0.0023534298
-1.4553925
-0.0051869815
0.72498888
0.2000411
0.23805058
0.98517036
-0.041296475
0.095561333
0.46182525
-0.11271271
-0.067936547
-0.091996953
-0.39634261
-0.5196259
-0.45691568
0.29016185
-0.65556079
0.10437979
0.114848
-0.059059847
0.07508713
-0.012397842
-0.11178593
0.08493118
0.045563791
0.013944288
0.057175823
0.008429233
-0.086231694
-0.0060060387
-0.11275697
-0.12919232
-0.13891686
-0.10372946
-0.045469616
-0.074521586
0.038587201
0.036013298
-0.21482022
0.12733176
-0.10835732
-0.3235631
-1.1821966
1.2845285
0.77339661
-0.74369383
-0.088555418
0.15000306
0.079008207
-0.21148656
0.026229899
0.05552059
-0.13772015
0.084689744
0.045082886
0.13305488
-0.25248167
-0.0050199502
-0.079062223
0.032275748
0.09668199
0.027915716
0.14741309
0.13210468
-0.14359865
-0.052881226
0.55188191
-0.48693278
0.10559033
0.68149382
0.26821214
-0.043661904
-0.30823144
-0.097736485
0.027364388
0.15304308
-0.058148887
0.11447313
0.1197551
-0.59401023
0.061598565
0.067282654
0.17765307
0.00922387
0.017739983
0.071699619
0.026563544
-0.18819103
0.043979775
0.094343215
-0.13813064
-0.034582946
0.17420909
0.29613584
0.011596698
-0.009915052
0.3288461
0.13248783
-0.16156654
0.095083162
0.013564542
0.081803091
0.023420012
-0.12808332
-0.17314622
-0.021375855
-0.21079719
-0.010232434
0.10487168
-0.080653891
0.018041059
0.072836086
0.11794981
0.0099172555
0.18547748
0.0045840149
0.092288949
-0.16226816
0.085062206
-0.21775633
0.47332093
0.099672146
0.21672304
0.17015435
-0.089754239
0.10981993
0.11859893
-0.0098584034
-0.093586102
0.18055767
0.067325614
-0.0040227664
0.043876301
-0.2484239
-0.20449564
-0.099337861
0.060217027
0.35662428
-0.053872939
-0.043522853
0.18562947
0.17718628
0.020891072
-0.0056295292
0.11447898
-0.12493458
-0.19868486
0.34754485
0.23453462
0.36106446
-0.19419624
0.064537548
-0.090166301
0.014510465
-0.55047238
0.2806733
0.13919513
-0.19387497
0.22226374
0.031286459
-0.1399134
0.070415534
0.22572535
-0.3590107
-0.20759264
0.26148751
0.0063234186
0.31710044
0.17397743
-0.18468885
-0.17093486
0.36150137
0.1881924
-0.4646945
0.086673886
0.35457191
0.38470605
-0.22571416
1.0156556
0.24929814
0.0068991324
0.2776407
-0.051831033
0.10069619
-0.08749532
0.031209003
0.0088885836
-0.22625735
0.28762069
0.009121472
-0.0043364605
0.15129438
-0.089621812
-0.069865189
0.18495451
-0.16492929
0.16731249
0.24213222
0.12480678
-0.30603841
-0.081363328
0.083644189
0.009395645
0.59339219
-0.12167386
-0.21195826
-0.20180623
0.02606638
0.16602316
0.014424256
-0.045600232
-0.12247521
0.1001754
0.097810924
-0.27594882
-0.096277118
-0.098767899
0.26585951
0.25011927
0.025825946
0.11341658
0.35087389
0.15481794
-0.044553194
0.11380317
0.011505313
-0.27542838
-0.035205022
-0.057161942
0.22365235
0.063315488
0.16044055
-0.21145052
-0.089272991
-0.019660909
-0.011511073
0.21057352
0.068882376
0.091526806
0.068727039
0.28872421
-0.12395249
-0.23520456
-0.18770179
0.27583003
0.046984706
0.058564376
0.14355035
0.042717595
-0.10607435
0.11236253
0.27162954
-0.11135378
-0.25982156
0.14455563
-0.11779711
0.37244737
-0.03884824
0.080027379
0.22062464
-0.22264726
0.024846759
-0.38871843
0.070589587
0.06257724
-0.14940448
0.086762927
0.026577594
-0.2162493
0.12622583
-0.23830613
0.39532623
0.52783418
-0.13442072
0.18874487
0.14662094
-0.081965655
-0.051408496
0.0031358085
0.10486718
-0.098125026
0.24837112
-0.26989791
-0.31204084
0.11269886
0.76890624
0.15834545
-0.13200052
-0.014448211
-0.012803288
-0.049034465
-0.051969167
0.014539189
-0.039222892
-0.016497545
0.10661236
-0.21583952
-0.062297877
0.25868851
0.44634104
0.026188876
0.1368067
0.068742953
0.10209191
-0.11215771
-0.028256467
-0.029326171
-0.11013962
0.35121214
-0.096648604
-0.76164836
0.79389489
0.60178065
-0.060858365
-0.047113735
0.023827257
-0.074122086
-0.2899887
0.023523157
0.03117186
0.095987402
0.037681829
0.27206272
-0.28356907
-0.032785006
0.19980225
0.097608715
-0.00084902422
0.080587775
-0.11931001
0.067830637
0.15320949
0.20376106
-0.07065405
-0.17407529
0.14464025
-0.027066968
0.079496086
0.14051382
0.371903
0.15238193
0.086891413
-0.026716083
-0.095378622
-0.039820287
0.20168968
0.19049551
0.17416807
-0.14869845
-0.16768114
-0.011370349
-0.14236423
0.23625584
0.090944253
-0.059272084
0.12702818
0.02338575
0.035517141
0.041107688
0.088195883
-0.044017192
0.07803487
0.15175883
-0.079262093
0.13690175
0.035837565
0.27342716
-0.076245859
-0.21022989
0.011715522
-0.52616274
0.025063736
-0.070364743
0.28200933
0.14160031
-0.032563411
-0.18394284
0.00061296311
-0.13157693
0.17753656
0.047608238
0.1258736
-0.10759352
-0.089289024
0.16798171
0.35394198
0.1805799
-0.048436638
-0.34008223
0.061671361
0.17394596
0.27340814
0.40979704
-0.20578757
0.24384704
0.1242376
0.011425181
-0.46584263
0.016646877
-0.13638042
0.071358204
0.20069396
-0.38871592
0.15091743
0.0092423819
-0.77469099
-0.28796571
0.068356171
-0.051898982
-0.016601779
0.28198564
0.59975696
-0.18675882
-0.15396449
0.23344558
0.18170077
-0.091874972
0.19046539
0.44522148
0.27445939
-0.11049443
0.82595646
-0.076220334
0.004784341
0.042887684
-0.1962775
-0.040349264
0.17298
0.07906463
-0.030943984
-0.27806211
0.033556934
0.040227491
-0.056129772
0.055887569
-0.045262236
-0.041308995
0.00065265893
-0.15142801
0.21958658
-0.075663693
-0.038369063
-0.089852646
0.40522489
0.43584341
0.36492351
0.19403763
-0.20639499
0.24884577
-0.20504473
0.051715933
0.062888563
-0.02867382
0.047480997
-0.065660626
-0.042755876
0.067782842
-0.0064165606
0.2128462
-0.14153682
-0.0033365707
-0.052975342
-0.087662846
-0.047985192
-0.0285479
-0.06089874
0.30921015
-0.064926125
-0.20845744
-0.1163744
0.0092826337
0.5175072
0.29137701
0.15450729
-0.13334322
0.1337366
-0.16674869
0.34464717
0.10665453
-0.18186101
-0.19989562
0.059126761
0.064423501
-0.04457124
-0.052576449
-0.10517938
-0.079306543
0.11633255
-0.091885328
-0.01703883
0.02250153
-0.11185998
0.061360344
0.20820291
-0.18839929
-0.12069546
-0.055595633
0.25445178
0.66958696
-0.10331222
0.020408414
0.36617702
0.49995324
-0.24218963
0.34399864
-0.016087549
-0.10155088
-0.050857145
-0.068111077
-0.071281552
0.12020613
-0.19692349
0.037772853
-0.033394124
0.088451765
-0.15630531
-0.1756219
-0.053124029
-0.0052871099
0.075006343
0.16887255
-0.0040962202
-0.027026299
-0.0038189879
0.17207938
0.76967353
-0.027850991
-0.23971613
0.67951393
0.31087643
-0.079674214
-0.25790396
0.33859366
-0.14082488
-0.087859668
-0.029742155
-0.08989545
0.19694358
-0.18679604
-0.029518276
0.073196359
0.039128918
0.11089498
-0.090135857
0.16454987
0.067266263
0.16258429
0.052014012
0.029385753
0.23208542
-0.004455124
0.20639479
-0.4199979
-0.076164372
0.36119872
0.087932892
-0.38268444
-0.2548759
0.019779067
0.27529013
0.013820255
-0.43711051
-0.29133204
-0.0083684139
0.16738532
0.011141259
-0.38371614
0.060479965
0.26049525
0.36751556
0.1406772
0.18570201
0.21523942
0.34448799
-0.13846773
-0.1485157
0.027200939
0.10115419
0.32196483
-0.50329041
0.079589099
0.60415661
-0.42313027
-0.52288407
-0.23682012
0.021193935
0.07446377
0.17810255
-0.11123508
-0.2369552
-0.26280144
0.040229123
-0.18917309
-0.24759893
0.078017876
0.308617
0.27380028
0.19489813
0.17602332
0.1550819
0.048155714
-0.086374246
0.13661508
0.08766339
0.084935963
0.34787378
-0.36483622
0.22119147
0.14393069
0.43088618
-0.52961999
-0.25202751
0.0282983
0.22902326
0.12156618
-0.16777578
-0.43159553
0.0040522679
0.16411433
-0.06262514
-0.098320715
0.021779515
0.35276064
0.18313581
0.15194634
0.050069939
0.010475967
0.096843675
0.2858291
0.1127837
-0.093798846
-0.069118053
0.35573736
-0.46694112
-0.029366096
-0.10874192
0.68953872
-0.42516947
-0.10299718
0.019431191
0.066447392
0.087024271
-0.082017109
-0.30745113
0.17608854
0.050422054
0.063977517
-0.042671055
0.025459684
0.2507993
0.14357986
0.030927898
0.02701344
-0.011387251
0.19599147
0.33535981
0.015139882
0.12000494
-0.43256545
-0.0036218553
-0.46530309
0.0022223052
-0.26973364
0.72977442
-0.20326492
-0.15682481
-0.025455235
-0.22508793
-0.082244866
0.07964775
-0.090139002
-0.40828282
-0.9745118
0.012780818
-0.31668979
-0.49695075
-0.49074522
-0.9268319
-0.64998662
-0.62352622
-0.66082513
-0.69983125
-0.52412647
-1.1230907
-0.10028244
0.47040814
0.84450537
0.8313126
1.9177083
-0.10546131
0.050902139
0.13342716
0.18326542
0.043491185
-0.060256403
0.1716373
-0.2242789
-0.11715953
0.24782196
0.27939594
0.083959341
0.028562428
0.13559026
0.064071283
-0.032423489
-0.22552723
-0.06884107
0.080259368
0.24372979
-0.16524042
0.15178859
-0.31704465
1.0054362
-0.014034506
-0.45893201
0.16103815
0.26836595
-0.14245531
-0.055357389
0.038769055
0.014977787
-0.15739703
0.11608071
0.098251805
-0.023009254
-0.056109928
0.83244997
-0.0073221177
-0.036488157
0.1400775
-0.063640937
0.85442871
0.29118207
0.10118388
0.031334415
-0.088974901
0.049444135
0.016185252
-0.17361923
0.22483285
0.02278835
-0.16479808
0.247866
0.20117831
0.25641224
0.024521643
-0.013882497
-0.068026491
-0.10891448
0.85008246
0.13372289
-0.058690581
0.051988259
0.065614991
0.019717852
-0.034807146
0.17218806
-0.050313953
0.082746111
0.30311427
0.074409343
-0.026586022
-0.076925568
-0.040910285
0.0037186767
-0.1726824
0.1217724
0.16716343
-0.23006374
0.22423269
0.05435985
0.39196134
0.003258694
-0.043452878
0.079051636
0.28290021
0.083265148
0.12890944
0.0026910636
0.098547198
0.043266233
-0.0692783
-0.029104128
-0.004153592
0.027979977
-0.079729162
0.12536174
0.05644374
0.13152485
-0.1069678
-0.070940174
-0.065799586
-0.084053881
0.26575765
0.12217959
-0.29841131
0.053206261
0.02303749
0.33983439
0.14865504
-0.045555331
0.072077222
0.039903559
0.17949711
0.037782468
-0.022197915
0.16690074
-0.060066562
-0.014198426
-0.16356139
0.16784933
-0.033766039
-0.0023288352
0.019133687
0.10013336
0.076429054
-0.075187936
0.051692188
-0.11926155
-0.072876163
0.22690853
0.10260363
-0.20200823
0.35300943
0.090094857
0.70369214
0.1467123
-0.047177926
0.79442352
0.10275485
0.23615205
-0.022474226
-0.086912207
0.21224673
0.076634943
-0.032959476
-0.1671157
0.22154543
-0.089956619
0.0050807763
-0.067237906
0.06295725
-0.038794015
-0.13369788
0.14804734
-0.026834659
-0.14924844
0.046720982
0.3085666
-0.10471785
0.046665926
-0.2796542
0.0018047316
0.1185481
0.01856555
0.02029711
-0.19910723
0.27925247
-0.036581513
-0.11440568
0.43023878
-0.052345358
0.1622563
0.1241504
0.014776793
0.094173893
-0.012970014
-0.15042257
0.0818955
0.1320122
-0.061714739
-0.10077629
0.11042403
-0.22733562
-0.09308289
0.23177601
0.1419545
-0.12676938
-0.026469447
-0.026344592
0.18716195
-0.031272464
-0.10143337
-0.048546273
0.023890538
0.045372512
0.077090792
0.28859872
-0.12960953
0.085834749
0.2604304
0.027260505
0.1265384
0.13084413
-0.062405739
0.044131786
0.0236859
-0.14212595
-0.078194961
-0.0068840031
-0.22425377
-0.009540963
0.29050091
0.023249669
0.035780776
0.017439492
0.023054942
0.12017912
-0.033899203
-0.031887319
-0.12641203
-0.10781781
0.079545759
-0.024488566
0.020304335
-0.11019538
0.12839031
0.088615783
0.15573159
0.069006495
0.031489111
-0.071327098
0.047689073
0.12381845
-0.036627296
0.31706247
0.21936204
-0.24285005
-0.36921063
0.30318037
0.38009536
-0.32165325
-0.0061533726
0.0017180871
0.22233786
-0.081160784
-0.060853079
-0.24445145
-0.072355889
0.022354173
-0.098808005
-0.046417668
-0.052339993
0.086051837
0.33951515
-0.070786238
0.062886894
0.11811575
0.020862265
-0.083911359
0.12216335
-0.022592904
0.38047138
0.33745423
-0.25776508
-0.91233331
0.3025814
0.85804808
-0.66419256
-0.029331431
-0.015154419
0.22196156
-0.14393932
-0.091179661
-0.085962623
-0.4358601
-0.057833262
-0.1207421
-0.66776013
0.002981079
0.099534437
0.26001164
-0.14094412
0.14085132
0.14695013
-0.092301048
0.38055584
0.34645069
-0.10225507
0.14302741
0.20315439
-0.14853781
-0.39770091
-0.20872965
0.6870237
-0.37061563
-0.14488155
0.0016275444
-0.044079214
-0.15470082
-0.11046994
-0.067961603
-0.0055947704
0.019337485
0.56501794
-0.10060264
-0.047914926
0.12209971
0.1110822
0.0088244639
0.57778472
0.19472907
-0.11185243
0.14621258
0.2875379
-0.063486114
-0.0870298
0.045026228
-0.12541936
-0.063039809
-0.10928497
0.24251291
0.060960975
0.022639316
-0.0028674526
0.023811422
-0.07531698
0.039801374
-2.171211
0.12559961
-0.053661425
0.019551629
-0.12890707
-0.12664671
0.2856167
0.14214319
-0.058375783
-0.0028721367
0.25252777
-3.0198069
0.072356805
0.19620474
-0.05275451
0.0098746438
0.28558809
-0.090879381
0.21485448
-0.20201096
0.13382661
0.024946157
-0.018175855
-0.012909132
0.03481441
0.08881411
0.089165628
-0.059897874
0.0061250948
-0.032028798
0.0082599362
0.077304535
-0.050095055
-0.16231802
-0.1941573
0.067665204
-0.046296235
0.042147856
0.50083548
0.21792266
0.77659208
-0.031708051
-0.035360318
-0.072143413
-0.095420554
0.27216688
-0.14754914
-0.0072849696
0.40418488
0.10538374
-0.0039419881
0.13440612
-0.11137933
-0.091936179
-0.13932081
0.0043221912
-0.056666695
-0.085243843
-0.26462871
-0.15522385
0.13330828
0.19414213
0.064187579
-0.068809696
0.29263565
0.50305915
0.095893107
0.1303722
-0.069895804
0.037672348
0.11463601
-0.058939286
0.11084832
0.1370728
-0.03773018
-0.21112451
-0.43741477
-0.008366975
-0.054461461
0.23399888
0.026356252
0.10765699
-0.073008217
0.057885084
0.078132562
-0.14102697
-0.11282664
-0.1637114
-0.11523487
0.085025646
-0.015988071
0.024683924
0.082505196
0.15758426
0.20321345
-0.028141188
0.076941893
-0.0078381337
0.0025145099
0.16515058
0.045770936
-0.12565733
0.46038136
0.083611116
0.35576808
0.0075285085
0.087508276
0.06566529
-0.0013859754
-0.031353068
0.013566989
0.04690136
-0.0057067559
-0.052266374
-0.63219303
-0.087325789
0.048002288
-0.048375744
0.044025976
0.34598073
0.026639288
0.078152232
-0.043506648
-0.041780204
-0.12326303
0.035017859
0.19365484
0.10703593
-0.21063115
0.22678886
0.079649732
0.31396133
0.12361088
-0.025715368
0.0016920103
-0.042814024
-0.0090919426
-0.036670893
-0.074689858
-0.06547524
0.01467706
-0.043515243
0.16939488
-0.0071175508
-0.018724758
-0.084614359
0.089618452
0.054580171
-0.0094166594
-0.03130164
-0.071330711
-0.0014516345
0.15616077
0.21253309
0.22186688
-0.38568807
0.0060067526
-0.031553086
0.43525374
-0.053636301
-0.0039148619
-0.051792033
0.080756024
0.025896927
-0.053133592
0.058503892
0.095612951
0.021987155
-0.022290548
0.047972638
0.040491238
-0.046395227
-0.090025969
0.020599803
-0.031219615
-0.027894737
-0.076169863
-0.073080264
0.031088237
0.36642477
0.2292168
0.25260898
-0.24666756
0.32957369
-0.038825464
0.21203111
-0.073461331
-0.016471086
0.080301903
0.011105314
-0.082558915
0.13258703
-0.019463221
-0.015487977
0.078803584
-0.14379668
-0.066611931
-0.060743265
-0.018042274
0.042157482
0.45426401
-0.003746222
0.09323886
0.098720327
0.31692466
-0.090840444
0.013769625
0.35509646
0.15497585
-0.21105464
0.097107738
0.23388907
-0.029659288
-0.1267454
-0.057199575
0.062776037
0.057284288
0.1442806
0.11406162
0.15738811
0.11174788
-0.0094765397
-0.16823034
-0.018901477
-0.073391721
-0.022176722
0.036028884
0.03766986
0.09554109
0.089501977
0.024743661
0.024575667
-0.0357702
-0.064820878
0.19177076
0.043076653
0.036662973
0.028278261
0.28322789
-0.023347648
-0.088173613
-0.045262054
0.12639332
0.087532744
0.30747405
0.068004102
-0.058714341
-0.018501492
-0.053702608
-0.15863253
0.092900157
-0.026823215
-0.085898809
0.11263438
0.18355484
0.080097765
0.0087749828
0.071707785
0.0053800214
-0.18791853
0.15987751
0.11380402
0.08619336
0.0024947023
-0.22992027
0.24011521
-0.0072789541
-0.076194838
-0.027039232
-0.015422883
-0.019820804
0.10207587
0.057093505
-0.052144635
-1.173489
0.08502613
-0.010540394
0.15787646
-0.024053371
0.071278542
0.3469817
0.15197268
0.055115148
-0.036460362
0.067569017
0.036819085
-0.075652152
0.27859166
0.064352758
0.097982049
0.058367621
-0.2194905
0.22467269
0.013372961
-0.0585289
-0.068474062
-0.11140209
0.050906867
-0.0045769028
-0.0080963867
-0.02958269
-0.25972384
0.3040643
0.043025222
0.12419487
-0.0021163712
-0.0214993
0.30630773
0.14162835
0.099022508
-0.10279232
1.1799675
0.048332065
0.011775587
0.18285944
0.043660816
0.21944365
0.10288152
-0.069096632
0.086143203
-0.016815027
-0.082721263
0.062599644
0.13214251
0.00066865655
-0.11849762
0.29976031
-0.01699879
-0.40971372
-25.976561
-25.817694
-0.5574885
-26.717035
-0.079752713
1.6515912
1.0937985
0.92382163
0.33355603
0.44719189
0.30233142
0.12843189
0.10920678
0.99189228
0.090976611
-0.0062483056
0.0099290423
-0.10144678
0.0052667568
0.1110736
-0.061458543
0.030961746
0.12326378
-0.046631075
-0.076775506
0.091921553
-0.005543333
0.0055435309
0.10425592
0.16590247
0.21875431
-0.034214273
-0.021577731
-0.038281649
-0.20319533
0.18008555
0.092004374
-0.063262545
0.35995203
-1.3933754
-0.041094672
-0.13494842
0.45801172
0.082459904
0.067369282
-0.047016833
-0.085548721
0.56914085
0.0073678684
-0.0162366
0.00013770118
0.0091659576
-0.096156642
0.027199494
0.087941393
0.0064546294
-0.024112014
-0.0099718738
0.057196889
-0.012900909
-0.021810364
0.03940735
0.0090917563
0.035413049
-0.39813885
0.25630027
0.07863313
-0.16322622
-0.11382067
0.055965301
0.015296835
0.020469746
-0.086395279
-0.075267412
0.13588937
-0.0065151136
-0.049643669
-0.0054888125
-0.12835607
0.16982445
0.19839747
0.0063318163
0.015207393
0.027070427
-0.11002225
0.0040796967
0.014823813
-0.032978181
0.0022692622
0.22588994
0.10668928
-0.17256249
-0.052033503
0.12553401
-0.13785084
-0.21791008
0.02066482
-0.037370831
0.069890097
0.0042443927
-0.015332185
-0.053428896
-0.0003670546
-0.01548063
-0.019857122
-0.05157676
-0.0030209734
-0.06332092
0.050007846
0.031676259
-0.075507812
-0.0095989723
-0.010130065
0.039527185
0.064972416
0.019569734
0.047318012
0.1465451
0.037333734
-0.19331072
0.062714286
0.11666866
-0.049630079
0.065222807
-0.10344065
-0.043187767
-0.015843315
-0.076904073
-0.0045275716
-0.035339504
-0.051414613
0.058825884
-0.073086537
0.037950173
0.13289513
-0.072309025
0.096344486
0.081526071
-0.0054140426
-0.048013926
-0.02667064
0.028954897
-0.0034362501
0.099659085
0.12723328
0.31524852
-0.26075238
0.0047639972
-0.020263363
-0.24941038
0.027830847
-0.088043056
0.16981952
0.14386319
0.15090765
0.021563971
0.13062443
0.19817382
0.063614048
0.07233426
-0.16760638
-0.26945046
0.62304378
-0.023769075
-0.062799335
-0.095212005
0.13149081
0.038158722
0.15673223
-0.034789462
-0.063303463
0.060969893
0.36717066
-0.30865467
-0.02001752
0.62548167
0.0089865327
-0.0029680675
-0.050146081
-0.078837529
-0.092525236
-0.024334449
-0.07623601
-0.022823092
-0.037694789
0.015166198
-0.12496898
0.094020166
0.10569465
-0.009767619
0.0090051983
0.14331238
0.034004111
-0.010031791
-0.011494091
0.044896573
0.02607332
0.075862773
0.023608685
0.2166919
-0.17518258
-0.049245294
0.061763875
-0.089299187
0.0041963151
-0.10458449
-0.0057805795
0.022162408
0.022668427
-0.046157848
-0.026475396
0.032951172
0.0083017601
0.11931234
0.013455885
0.060413506
0.017105196
0.026416922
0.12622589
0.046051029
-0.055956244
0.028361363
0.022135509
0.016075986
0.02832417
-0.082881093
0.075530328
-0.28284442
0.18377572
0.1271086
-0.048795667
-0.029147509
-0.005760381
-0.03673913
0.020363456
-0.037612054
0.12343222
-0.051604714
-0.13105491
-0.041146427
-0.028325861
0.09580227
0.18798359
-0.006378917
-0.0097147021
0.015114576
-0.075806387
-0.067940772
-0.011425545
-0.0053224023
0.045562182
0.25905249
-0.093153462
-0.029334493
-0.31441358
0.26525712
-0.30963457
-0.30051547
-0.028192693
-0.0083259391
-0.057115603
-0.012796929
-0.0070838407
0.53816968
-0.073060267
-0.052862521
0.027635248
0.03928265
0.070918567
0.071598358
0.049117949
0.014504638
-0.00021746337
-0.050659087
-0.019378873
-0.030015653
0.039153911
-0.062536262
0.11167825
-0.13884786
-0.24983439
-0.094483599
0.27334538
-0.15530437
-0.17074002
-0.029050315
-0.084268287
-0.019411283
-0.035758685
0.016276715
-0.03168565
-0.059937667
-0.078723378
0.020022076
-0.06409099
-0.025819058
0.18873146
0.017779557
0.015683403
0.16402802
0.046855524
-0.038428064
0.01157428
0.015338692
0.046823595
0.01489725
-0.085789882
0.16210732
0.086335927
-0.34092659
-0.069240212
0.025943788
0.007556932
0.048908588
-0.026047865
0.03500874
0.096844785
0.0080104731
0.0061082356
0.036666509
-0.063326679
-0.036122728
-0.020338194
0.073863469
-0.029829117
0.023668805
0.053638205
0.082102604
-0.078996755
-0.011049787
0.024731735
0.15785113
0.0059087658
-0.067920908
0.15860108
0.021204092
-0.27243739
0.048816651
0.019343967
0.018578408
0.105042
-0.01854947
-0.0086668422
0.19581299
-0.011185173
-0.0094203409
-0.031984951
-0.039372504
0.029214334
0.029713759
0.012041452
0.011363724
0.0103654
0.024818996
-0.066163473
-0.04903217
0.0089884466
-0.0017328722
0.029989436
-0.03275669
-0.11982179
0.030386336
0.090506867
-0.22850528
-0.14951569
-0.074812159
-0.022151813
0.0058812797
-0.0032524178
0.0035165732
-0.077132262
0.12607501
-0.018585375
0.024545269
-0.015156914
0.048338521
0.035858583
0.036767576
0.084380418
-0.010938143
0.01465356
0.059060976
-0.021527128
-0.063465968
0.03984575
0.060003463
-0.034311164
-0.08386118
-0.17895342
0.15047903
-0.083726972
0.014552586
0.074892446
-0.0023282638
-0.053459033
-0.16385433
-0.28130338
0.016042106
-0.015619952
-0.14077939
0.023106312
-0.15878125
0.023454154
0.51549995
0.59118241
-0.068431221
-0.015852366
0.17393181
0.47838464
-0.19127688
-0.17281896
0.20639254
0.22722222
0.13766824
-0.072191305
-0.23291755
0.20832999
-0.045312658
0.074587546
0.068384215
-0.021004023
0.014683533
0.011991626
-0.053957868
0.077621698
-0.03070057
0.00046678807
0.12882504
-0.084986463
0.026467806
-0.055089355
0.056813732
0.081841946
-0.044707622
-0.0026533853
-0.01256554
-0.023294432
0.020476678
0.0065838019
0.045105755
-0.0065779015
-0.042351365
-0.078614503
0.18045002
-0.11308666
0.1873228
0.16212127
-0.68755591
0.096248962
0.054186881
-0.064998604
0.014636017
0.0044676578
-0.034511901
-0.069462925
0.027275017
0.051836845
0.026734455
0.057650972
0.0096954592
-0.045110472
0.10443251
-0.0085996417
-0.056447718
0.016373599
0.11623788
0.034472179
0.024808779
-0.067388065
0.048164777
0.14473036
-0.23723049
-0.05803467
0.033998597
-0.19964489
-0.04029296
0.025115196
0.071329482
0.048700131
0.019210873
0.0050284918
-0.034969229
-0.060997292
0.014403297
-0.00065447623
0.076161325
0.16801392
0.050616257
-0.040246401
0.030576954
-0.049887881
0.0045718178
-0.053635862
-0.022477169
0.042438269
0.0062643974
0.13246012
0.13747443
-0.35733035
0.070994377
0.2063846
-0.15148224
-0.088379137
0.10672541
-0.017555537
0.092645325
0.030524693
-0.053131528
0.021619091
0.037698448
0.063031979
-0.035911094
-0.0057550818
0.1220364
-0.030181009
-0.032646339
0.057421435
0.0084515009
-0.064507559
-0.0089577083
0.040230293
-0.1142542
0.014310887
0.32261586
0.080052361
-0.48576486
0.23882014
0.2679714
-0.12594253
0.051843934
0.031077813
0.12304175
0.020126285
0.015861413
0.028248878
-0.024057304
0.07093586
-0.016449781
0.044082399
-0.015196713
-0.051762294
-0.004057704
-0.045266319
0.039903384
0.0088968445
-0.052859597
0.035451911
-0.01965907
-0.0068243993
-0.079307035
0.22848853
-0.24263388
-0.1309831
-0.040589247
-0.012383422
-0.0021074575
0.071436405
0.021124939
-0.029563319
-0.013052776
0.11686083
0.009336439
0.028663734
-0.1245933
-0.016919104
0.081479296
0.063211113
0.0048631392
0.066457942
0.024069926
0.029917778
-0.015029121
-0.077385895
-0.0020688684
-0.034458213
0.057600442
-0.057586569
0.062356126
-0.10672696
-0.018404659
-0.19000159
-0.005463386
-0.005307253
0.017723838
0.0045249481
-0.019840317
0.038786292
0.046127569
-0.012281813
-0.022019187
0.095733479
0.011942562
0.062792577
-0.028439937
-0.03070431
0.023883389
0.025504662
-0.022358468
-0.091615573
-0.025073139
-0.0061170263
-0.010818636
0.082975902
-0.072860152
0.057096656
-0.18020579
0.078204408
-0.10798411
-0.10622454
-0.000601871
0.016308168
0.0038161946
0.0082863038
0.44897762
0.048102576
-0.038562384
0.027154516
-0.023134314
-0.024837611
0.069041289
-0.063417897
-0.015217299
0.011586614
0.0041794041
-0.013661545
-0.011903932
0.021525003
0.026826715
0.04464516
0.076221965
-0.13504717
-0.007668538
-0.026800435
0.0023211292
-0.1165446
-0.10172789
-0.0012416216
-0.090632237
0.040366407
0.056400236
0.051551748
0.0062040249
-0.043807574
0.006759325
-0.076434441
-0.061149392
0.036916554
-0.018339993
0.021746125
0.046540938
0.078241989
0.02426235
0.052270461
-0.074078761
-0.0088102669
0.16819124
-0.011404382
-0.15382303
-0.14775038
0.19921607
-0.19896071
-0.17330304
-0.070230424
0.0077052671
-0.14843541
0.10387062
0.21732788
-0.093512535
-0.097581215
-0.97003949
0.0072069513
0.18781035
-0.10464533
-0.050891977
0.13873307
0.23545751
0.24779348
0.02265854
0.1690447
0.06243002
-0.014287583
-0.0077779111
-0.3510277
0.38139358
-0.14087471
-0.34483254
0.013815572
0.055027466
-0.021495095
0.018489363
0.019454408
-0.044892527
0.052754384
-0.019353764
0.025828438
0.044658441
0.041966021
-0.025296925
0.011089958
0.015764026
0.021935428
-0.094050676
-0.1024089
0.027588675
-0.0089000892
0.056637317
0.017955566
-0.049367525
0.12883794
-0.13644934
-0.18655589
-0.11504981
-0.012708584
-0.062507734
-0.27364254
-0.027873825
0.017993728
-0.00038516623
-0.03142339
0.01681312
-0.025732918
0.020008495
0.025197728
0.03491962
-0.066863537
-0.011954332
0.02153079
-0.02646734
0.016281102
-0.019668801
0.0017056565
0.025609275
-0.011282167
-0.0029194097
-0.033636823
-0.011698223
-0.027958507
0.016035045
-0.10557026
0.020505799
-0.054366086
0.053376283
0.039356116
0.041878894
0.0066991835
-0.010854771
0.037232447
0.042664576
-0.015247986
0.021316936
-0.054153122
-0.014487355
0.0090238648
0.043347158
-0.032139692
0.025615746
0.0024268446
0.021532821
-0.042019051
-0.00040637376
0.0093523338
0.019590929
-0.058324724
0.023891112
-0.023439856
-0.066119656
-0.0373016
-0.080005094
0.071851291
-0.023539683
-0.00060256472
-0.03985149
-0.01303526
-0.020920811
-0.01211099
0.016368572
-0.029111948
-0.046008602
-0.0019784786
0.023931822
0.037400022
0.042733468
-0.022969717
0.020097686
0.026336325
0.046917178
-0.0028732952
-0.015760222
0.017096007
0.020092338
-0.0040285038
-0.039257314
0.015714807
0.0094029102
0.0073209377
-0.0083744898
-0.07220313
0.046799589
0.040967237
-0.021355547
0.0068275258
-0.025468258
-0.033610288
-0.03566324
-0.049157068
0.028452342
0.011767184
-0.016172927
0.023954552
0.049447909
-0.048899159
-0.011824784
-0.0071716113
0.0025211161
0.037153192
0.042854063
0.048895583
-0.039021902
-0.0052888943
0.013885332
-0.038846742
-0.048566461
0.030517051
-0.074889563
0.093260974
0.026591582
0.09396892
-0.025412561
0.036537286
0.064506903
-0.049079269
0.042673759
-0.070002876
-0.1294103
0.055216674
0.028142026
0.020248178
-0.051667262
0.0027013379
-0.024145531
0.20123897
0.053557906
-0.0057640155
-0.079248808
0.0037198979
-0.042828124
0.021652369
0.39898729
0.010933267
-0.028029574
-0.042702787
-0.0017132758
-0.054012496
0.044166837
-0.021148747
0.0014124165
0.01126094
-0.0097072097
-0.017975438
0.018214552
0.043262541
0.0039627482
0.033782884
0.04863672
0.031167122
-0.046255346
0.00027035511
0.046295751
-0.043907005
0.016858788
-0.0089346757
-0.04091341
0.040836729
0.00028182985
0.00079042447
-0.0051841806
0.005133911
-0.058971535
0.044916391
0.0187767
-0.016170727
0.016877871
-0.024902591
0.0027969913
-0.01890235
0.063426495
0.018596368
0.026064271
0.029801777
0.037619479
0.011570754
0.010735074
-0.043501042
-0.0042072223
0.041344531
0.02305592
-0.016003968
0.0043535721
0.0093937851
-0.048076484
0.016442517
0.045204472
-0.043184444
0.013830547
-0.0088821845
0.068178445
0.023968522
-0.014271631
0.0065208003
-0.029888785
-0.007949505
-0.023688702
-0.048364483
0.029252654
-0.015266765
0.045344651
0.031689018
-0.014754004
0.0028469472
-0.02027013
-0.069004342
0.057732727
-0.0098038828
0.0087334849
-0.015114495
0.013992718
-0.058608539
-0.0029432983
0.043804701
-0.10744092
0.0050971392
-0.02198437
0.0099617671
0.048880164
0.043505494
-0.055695977
0.029126683
0.042166784
-0.024287956
0.025693333
-0.010709597
-0.021144088
0.042541515
-0.010229348
0.042435925
-0.039035354
-0.053245671
0.023571635
0.0080559617
-0.014752956
-0.022899
-0.027949156
-0.0011768531
-0.0018450138
-0.035490777
0.035402786
-0.09206301
-0.0080563957
-0.00050283049
0.026387375
-0.0026217732
0.016697172
-0.013257061
-0.062809587
-0.050569762
0.018587558
-0.020763185
0.014508556
0.049910896
0.023576988
-0.021850837
0.054821245
0.033792056
-0.022673126
-0.051108934
0.03605989
-0.036265727
0.0056477282
-0.013985449
-0.011879801
0.12419409
-0.10664415
0.0063800649
-0.07756789
-0.024461735
0.02246739
0.0041136518
0.0054905494
-0.025976419
-0.0057099755
0.015253352
0.062342476
-3.6535755e-05
-0.047722548
-0.054387428
0.036177751
0.014329834
-0.045753147
0.0042773234
0.035739336
0.034928977
-0.044662997
0.03258672
0.011749482
-0.0039315606
0.01848565
0.0058231568
0.099180013
-0.10528762
0.06353642
-0.040422741
0.001875866
0.021803072
0.035852835
-0.026396358
0.019671349
0.011627186
0.006271197
-0.0064597386
-0.0061837705
-0.035594996
0.045874014
0.028447909
0.020070611
0.0016591866
-0.033203647
-0.012531969
0.00096885912
0.019586129
-0.0048937495
0.019824367
0.0012656365
-0.038186871
-0.066525407
0.083444417
-0.10288999
-0.048708532
-0.072178811
0.005690584
0.041821346
-0.010308791
-0.0055208169
-0.020571155
0.010965133
-0.023722693
-0.019941099
-0.065598413
0.00032052014
0.039147694
-0.0033647176
-0.016338067
-0.0017285122
0.024642849
0.0033167782
0.021311188
-0.039736055
0.023943337
-0.010691014
0.019880114
-0.022495246
-0.092320517
0.17463745
-0.089900844
-0.0012497166
-0.019351875
0.018174157
-0.036348894
0.00050765043
-0.081020691
-0.020626171
-0.12265193
-0.017177293
0.052967928
-0.064302772
0.063077018
0.012057874
0.06717176
0.040670037
-0.027734423
0.072166748
0.029166294
-0.066013008
-0.061929487
0.13763158
0.19318923
-0.027106389
-0.082534686
-0.056981251
0.1117959
-0.092630915
0.26612473
0.0293369
-0.010489803
0.018103875
0.05571932
-0.028573858
-0.022629835
-0.0087567978
0.056840781
0.041494265
0.003604919
-0.028981347
0.04189657
0.0042481879
0.058445707
-0.031611137
0.016535947
0.044916119
0.0084884213
-0.021946555
0.0073500127
-0.059948269
-0.012161951
0.016378729
-0.0061158757
0.066157438
-0.11409505
0.032483604
-0.0035777907
-0.031727698
0.023827791
-0.0063242144
-0.017450804
0.016346205
-0.012595622
-0.011475324
-0.03105812
-0.026723631
0.028890399
-0.01691559
0.060518131
-0.0088257715
-0.030597771
0.019425644
0.011253828
-0.0085898917
-0.046022464
0.023731863
-0.043373398
0.053516146
0.0095093027
-4.3491833e-05
0.092252113
-0.16129455
-0.032805987
-0.028339887
-0.13519347
-0.010425682
0.037360851
0.022695227
0.013472784
-0.014277795
0.00035999331
-0.0038980376
0.028844863
-0.023655059
0.032601126
0.0070149302
0.042488273
0.020289235
-0.0070330375
-0.014690772
-0.020000074
0.0052540889
-0.020454386
-0.0082123922
0.0061984668
0.031230712
0.0062961071
0.030832948
-0.073141426
-0.0022768886
-0.0017202169
-0.058081239
-0.052092277
0.034824993
-0.028864004
-0.013602866
0.00093886384
0.0065908972
0.025811875
-0.026597898
0.049696594
0.016921509
0.016677901
0.042932641
-0.0066819717
0.0095410645
0.03362418
-0.021377018
-0.043896988
-0.018226167
0.0035889568
-0.0097687002
-0.024056453
0.007434065
0.0037895506
-0.10795239
0.086317368
-0.0061266986
0.01085094
-0.022024177
0.035332024
0.027715573
-0.013774561
-0.047109727
-0.022706093
0.043612923
0.022979608
-0.0040788264
0.0041849478
0.013388034
-0.033635683
-0.011878322
-0.0049324469
0.00435436
-0.04461088
-0.032048989
-0.01177804
-0.019906936
0.037240308
0.032132138
0.049923424
-0.059776876
-0.092715576
0.001060274
-0.12076309
-0.0027167359
0.0063771838
0.039526664
-0.012836393
0.011990106
-0.011835665
0.00023223368
0.00062770513
-0.059590638
0.0067628874
-0.015843486
-0.0068402244
-0.026740819
0.059877444
0.036415588
-0.021395026
-0.01668272
-0.054427169
0.015008805
0.027058622
0.033549223
0.032315809
0.0064726216
0.048184175
-0.068655923
-0.06047485
-0.10251188
-0.018052619
-0.015904583
0.038916465
-0.017189121
-0.017753463
0.014331218
-0.041074548
-0.049654879
-0.032883793
-0.019949583
0.0058943825
0.0092422226
0.014491065
0.032862075
0.032546774
-0.01235242
-0.034029666
-0.013298884
0.0089519843
0.0071058655
0.0060618254
0.03841253
-0.048000805
0.027202489
0.011305063
-0.043776359
-0.080564111
-0.0015938359
-0.0099260891
0.068378493
0.017631115
0.044889133
-0.021436326
0.0021880383
-0.030829595
-0.016118344
-0.04334062
-0.025027892
0.039958112
-0.0014802803
-0.01080736
-0.051666919
0.01955843
-0.020626048
0.023938447
0.033490423
0.042549796
0.039656807
0.013770881
-0.085664101
0.056032311
0.034634225
-0.078118838
-0.1179205
0.022667374
-0.0040443861
0.023971055
0.01371052
-0.03383426
0.0096536493
-0.039030921
-0.0077149868
-0.030384056
-0.014131521
-0.011412942
-0.007686357
0.030196045
0.015754245
-0.012824108
0.02317958
0.033670906
-0.032683305
0.019462755
0.038602911
-0.013531339
0.00052279024
-0.10659452
0.041771322
-0.021725863
-0.064455017
-0.048924457
-0.011587768
2.5284967
-0.060479965
0.14717765
0.10816151
-0.086779945
-0.95563608
-8.5260857e-05
-0.06956809
-0.040596262
0.040512811
0.064850353
0.041257467
0.011649129
-0.010932657
-0.015894268
0.0081239222
0.03229291
0.055428043
-0.091405503
0.022063594
-0.082799375
-0.092369445
0.0094432747
0.057487953
0.030850047
0.043931607
0.012610523
-0.049792215
0.0079758316
-0.037202206
0.014958756
-0.0026456055
0.018512689
0.020841703
-0.045922384
0.03424979
0.030632243
-0.054076582
-0.084772006
-0.035403721
-0.021355797
0.021467639
0.018494062
-0.068996742
0.048902143
-0.010871476
-0.10416257
-0.29234821
-0.042191852
-0.023505652
-0.20734467
0.17558043
0.071611851
-0.03068242
0.070078358
-0.044305578
0.10459656
0.16423589
0.010576259
0.08351855
-0.13133058
0.22822504
-0.0022412366
-0.10937893
-0.065283127
0.17807409
-0.27000409
0.046933345
-0.021281766
-0.15089066
-0.25725195
-0.15914644
0.014277025
-0.045379788
0.058650978
0.31721714
0.035308536
0.19669706
0.023775348
0.074105754
0.012118046
-0.047025964
-0.011066744
-0.014052301
-0.0025374969
-0.3524974
0.16397783
-0.0099054752
-0.066385366
0.034627631
0.062644579
0.15413389
0.072802901
-0.19194286
0.047359474
0.018845307
0.091697946
-0.10048469
-0.096705429
0.29305798
0.058736794
-0.31538308
-0.040221199
-0.082685545
0.18093129
0.024224406
-0.036954347
0.0003898326
-0.047489021
-0.0095643317
-0.0039817896
-0.089339986
0.030514559
0.30069798
-0.37159759
-0.10116466
0.076775521
-0.080152221
-0.006472548
0.11158027
-0.0085412255
-0.080611333
0.31729913
0.30700755
-0.11555901
-0.23217344
0.22981036
0.0025514357
-0.1026752
-0.20849282
-0.21005385
-0.051717021
0.26068014
0.066126831
-0.10246075
0.1222591
0.057797197
0.098281071
-0.11720539
-0.16364621
0.038425561
-0.039950259
-0.1378016
0.15948083
-0.14067936
-0.20775495
0.35359108
-0.085274197
0.045465864
0.14196934
0.16869731
-0.20726465
-0.39578685
-0.042713258
0.025179803
0.007100089
0.18370527
-0.031062542
0.07598611
0.45436695
0.27625915
0.061196253
-0.14731047
-0.099062264
0.206229
-0.11855211
-0.0036845491
-0.1321917
-0.12808226
-0.14345574
0.26951906
-0.060812771
-0.34738076
0.49662524
-0.098090127
0.34868544
-0.29667801
-0.23880711
0.11016278
-0.20458545
0.18902333
0.13073933
-0.052436247
-0.051617961
2.1892292
-0.0047894577
0.18257238
0.10292545
0.037456051
-0.23895444
0.14402659
-0.21013288
-0.19689588
-0.16260529
0.01019822
-0.17547317
0.050658226
-0.02131363
-0.024096016
0.030553866
0.011234918
-0.028645055
0.075409591
0.12804054
0.14529143
0.15555385
-0.046898142
0.073264614
-0.036551002
0.18813851
-0.098730989
-0.53058392
-0.019913809
-0.13801742
-0.1334185
0.018522929
0.068231858
-0.016407503
0.15547512
-0.25763136
-0.059607733
-0.041226074
-0.03977434
0.059785809
0.084049836
-0.088118374
0.094371378
0.16962919
-0.24105863
0.0025790187
0.023289289
0.035944164
-0.050082136
0.07217893
0.141067
-0.13241567
0.24865948
0.067373507
-0.15616556
-0.018051144
0.11454488
-0.083572254
-0.057840984
0.11945546
0.129737
0.12937337
-0.20987968
0.17176999
-0.24011046
-0.055136859
0.068564311
0.22674659
-0.12301847
-0.075721338
-0.043270387
0.0034367675
0.1103971
-0.26075172
0.032878015
-0.041223608
0.029000903
0.16464993
0.061887965
0.12368893
0.34839964
-0.14659947
-0.021839691
0.064336285
0.053521767
-0.035811447
-0.10051189
-0.03222518
-0.10133
-0.26666087
-0.12038951
-0.015365547
-0.11341218
0.27351031
0.22134438
-0.0326989
0.12454417
0.076116666
-0.019598743
0.01417333
-0.23510008
0.13846269
-0.054554112
0.077691793
-0.031329222
0.25457436
0.13955109
0.18946168
0.090595916
0.0093006752
0.2003485
-0.052787915
-0.16536972
-0.25967473
0.064276598
-0.11951676
-0.13841121
0.026172791
-0.042609382
0.4254778
0.45240825
0.064706706
0.116905
-0.10324282
-0.088095874
-0.081739686
-0.25241992
-0.12297005
0.082593679
0.10037567
-0.34262061
-0.068407424
0.014316349
0.16970678
-0.33228561
-0.14054197
-0.027985176
0.06873396
0.23214561
0.0011804835
0.032360092
0.20483996
-0.030443102
0.066064842
0.023449833
-0.065252088
0.16649291
-0.18550605
0.062033217
0.12338847
-0.12970291
-0.14111216
0.04165436
-0.17514096
0.011292295
-0.11566675
-0.0082126912
-0.35187209
-0.27001682
0.0032126619
0.3517935
0.023759589
-0.32768589
0.027436765
-0.17268723
0.13159703
0.097647011
-0.4448829
0.22472665
0.03661903
0.12776911
0.42375273
-0.10627353
-0.33811909
-0.26353148
0.18265578
0.13096279
-0.097127758
0.041173413
0.26550606
0.15445797
-0.047848046
-0.15627389
-0.053956222
-0.39489391
0.436115
-0.34408289
0.18269993
0.14882548
-0.17506883
0.0037653206
0.059506897
-0.11778022
-0.059029706
0.35803604
-0.014075737
0.057639156
0.12230805
0.48162842
0.04543905
-0.20446846
-0.0048275939
-0.021802081
0.036376722
-0.098224089
0.14758489
0.14363961
-0.020681567
-0.068565227
0.14843713
-0.29438835
-0.69864833
0.17024747
-0.041555878
0.11070758
-0.16766265
-0.38037416
0.0224282
0.68650258
-1.052371
0.24201266
-0.20634624
0.64379704
0.21837288
-0.062270109
-0.047269169
0.10128001
0.41394943
0.40756992
-0.25791278
0.19648683
-0.10820055
-0.58060175
0.25044593
0.31625476
-0.34427366
-0.85563004
0.58441728
-1.1703249
-0.3930887
0.34744257
0.27919555
-2.0803535
0.6044082
-0.026044499
0.0062023532
-0.0062735491
0.034685701
0.19826248
0.73242474
-0.12812708
0.14976287
0.2495174
0.037039109
-0.19961873
0.001961906
-0.12868875
0.1564658
0.047713879
-0.111875
0.2312454
0.040025778
-0.072844215
0.21758807
0.12591539
-1.0055618
0.014765096
-0.13338865
0.40639696
-0.21348688
-0.69583625
-0.0080366014
-0.12134712
-0.018402992
0.13741365
0.14911315
-0.064629138
0.160283
0.16806881
0.17097196
0.20222288
-0.10006639
-0.29006708
0.017946994
0.061533701
-0.13242087
0.027577506
0.26563665
0.14011854
-0.084702209
0.15241407
-0.17016868
-0.4299899
0.30431926
0.0038595733
0.22244047
0.14583436
-0.098788075
-0.14549313
0.30198008
-0.27177089
-0.041896638
-0.14583904
-0.15649317
-0.09265776
0.14125519
-0.067913868
0.1619004
0.14420296
0.21762
-0.20935434
0.01117851
0.14473021
0.18673265
0.11878811
-0.16375718
0.037639745
0.078805447
0.11414406
-0.31097111
0.14814021
0.27705157
0.14944611
-0.30714971
-0.25979233
-0.16489989
0.23326673
-0.24403015
-0.14857775
-0.10127009
-0.061708946
-0.055269308
0.059235036
-0.69434839
-0.15592118
0.014018983
0.19613147
-0.088100947
0.010926904
0.14270662
-0.079814769
-0.056624107
0.26899004
0.011135326
0.12070478
0.11413903
-0.092085637
-0.0048546055
0.077802122
0.26327178
-0.14543551
-0.06060984
0.12573858
0.1776462
-0.13589929
-0.47552508
-0.2619741
0.089521319
-0.0057876217
-0.046955846
-0.15528749
0.17007786
-0.040621608
0.15526439
0.057444312
0.0018328794
0.087928101
0.042160772
0.31485945
0.16175275
-0.14318457
-0.11575329
-0.11352357
0.15942574
0.012950953
0.37975934
0.032864425
0.24218224
-0.83077002
-0.0077019203
0.29698205
-0.23073621
-0.36869258
-0.15757746
-0.14011192
0.031783607
-0.14881353
-0.022041971
-0.052861545
0.13657743
0.13351755
0.073124297
-0.017156143
0.089874066
0.11214705
0.11652133
0.093352921
-0.0040767002
-0.2783303
0.071061596
0.14991304
-0.03491896
0.040943816
0.29731271
0.051379051
-0.65722781
-0.029711956
0.23184213
-0.18880405
-0.16925415
-0.067294434
0.037960172
0.10960363
-0.11990067
0.049737394
0.088002115
-0.013759444
0.063421987
0.12075522
-0.033404402
0.24721093
0.12440398
0.3310501
-0.086024217
-0.14450879
-0.26690415
-0.30641687
0.052479967
0.099172913
-0.14660196
0.37079468
0.062610939
-0.39801171
0.012215392
0.37292203
-0.13791148
-0.24795558
-0.10567904
0.0049688327
0.00977589
-0.18716398
-0.040083397
-0.18580867
0.028801538
0.010924805
0.019510411
0.035724066
0.40187311
0.13060069
0.24020959
-0.022786969
-0.051004894
-0.023693254
-0.17916885
-0.01198185
0.34963328
-0.090993106
0.17289568
-0.16684812
-0.17031893
-0.02464311
0.39435509
-0.051131465
-0.36206499
-0.090379357
-0.1824998
-0.09722203
-0.20486574
0.10925296
-0.035808325
-0.17005396
0.11184292
-0.24002646
0.04316945
0.51477039
-0.0032100824
0.0099520115
0.19453804
0.2515983
-0.10863113
0.079773851
0.066096857
-0.12671821
0.25580409
0.49512851
-0.47732171
-0.31775302
-0.022612978
-0.6770438
0.12109192
-0.69970101
0.29984137
-1.6476623
1.3401036
-0.026454277
1.5699265
1.0423067
0.80237281
0.95488113
0.26509753
0.29874784
0.55161464
0.43063417
0.2423214
-0.032957297
-0.28548849
-0.68479693
-0.80287164
-0.96466076
-0.76042646
0.060294751
-0.26954353
0.037708819
-0.041750174
-0.13073795
0.10239982
-0.12559375
0.28066212
0.012711176
-0.081873208
-0.18889353
0.059933126
-0.044306058
0.0078984853
0.048786722
0.18347996
0.21561712
-0.022335952
-0.051332064
-0.056386046
-0.25872844
0.25211444
-0.40363121
0.17322427
0.59795547
0.39099556
0.29550108
-0.14487442
0.88344854
-0.019038731
0.012682119
0.034592796
0.018477475
0.021393171
0.0082655642
0.014151851
0.038234383
-0.00066600362
-0.074435592
0.0068641813
0.023889035
-0.0088396594
-0.024786817
0.021314537
0.021483529
0.027175287
0.033121411
-0.0034647221
-0.029161578
0.0051857806
0.062610261
-0.021223685
-0.070045963
0.046652827
-0.013412464
-0.13956073
-0.024669202
0.036490642
0.0077546681
0.010720067
0.0058253468
0.041898664
-0.0049559735
-0.0019448012
0.0061269673
-0.0055034924
0.015171376
-0.0029743938
-0.0035636015
0.0057373028
0.001729348
0.032732606
0.0023503751
0.015789814
0.015602873
-0.0070997556
0.0070401067
0.0430937
-0.050663278
-0.038532156
0.020926757
-0.038056571
-0.0052573783
-0.045627356
-0.0057796463
-0.0065878918
0.0050421162
0.024307558
-0.012598284
-0.020498889
-0.049279105
-0.018839978
-0.027074812
0.020913223
-0.013792465
0.020619744
0.005168586
0.019473495
-0.018749744
-0.0092589902
-0.0094242934
-0.0042867926
0.047447603
0.044025593
-0.044793632
-0.025554515
0.037170138
0.021233434
-0.01933576
0.0097915493
-0.026635749
-0.015179319
0.033016808
-0.0083977655
-0.0067293542
0.028628457
0.0016939038
-0.077011563
0.022161072
0.0067335945
-0.016401811
-0.0072397105
-0.010483632
-0.010447457
-0.021314418
-0.023853173
0.020089336
0.03239568
0.031782437
0.059652016
0.06109925
-0.089790769
-0.03822301
0.075705029
0.012600126
0.0088424291
-0.0029509638
-0.045821793
-0.02022681
-0.029082235
0.0032475092
-0.034589879
-0.014056703
-0.052031249
-0.049327698
-0.044688389
0.033096712
-0.032383636
0.0024392428
0.031314429
0.044834763
-0.03653349
-0.038315702
0.0007072243
0.17069049
0.030373204
0.041113134
0.010030643
-0.096998684
-0.04347099
0.06696526
0.18391238
0.034582566
0.014964221
0.0088216905
0.0074430327
-0.0148487
0.0019384848
-0.045910455
-0.00053288741
-0.010275325
-0.024992904
-0.018505866
0.039959051
0.036549911
-0.005187897
-0.017540472
0.013573255
0.011833342
-0.021893192
-0.015511815
0.027529674
0.036543965
0.030343125
0.025057919
-0.063189812
0.011523447
0.0067971959
0.034671213
-0.028653366
-0.020408474
-0.073274747
-0.018451488
-0.0093521867
0.031431139
0.016833292
0.02102899
-0.0084786583
-0.05855564
-0.0047764448
0.009173993
-0.00024990193
0.038089953
0.028407117
0.044839691
0.014716364
-0.030423721
-0.018621659
-0.017690672
0.011273349
-0.01789234
0.014847893
-0.025427075
-0.048956268
-0.02770344
0.022930564
0.0048258426
-0.025394298
0.0010136376
0.038394019
-0.010018267
-0.0066504427
0.033382494
0.0039155586
-0.033952821
0.028781509
-0.052608386
-0.027795628
-0.03695311
-0.00021208025
0.0034101144
0.001772309
0.0046233218
-0.015582847
-0.04807752
0.022332612
0.026234537
0.0068195444
0.015912876
0.053338841
-0.063071258
-0.08009389
0.042443279
-0.043482836
0.011239574
-0.0044686073
0.029819256
0.019763034
0.041139122
0.020976232
0.0060457559
0.039333794
-0.017250115
-0.0059179338
-0.017903978
0.028887959
-0.0036419425
-0.0065239309
-0.021153858
-0.014077775
0.012277732
0.00058223977
0.026945969
0.013938919
0.0095090307
-0.021336624
0.013268949
0.021984311
-0.052823905
0.055565432
-0.043266457
0.028488033
-0.039296273
-0.017175777
-0.0095823947
0.041289255
0.011591579
-0.021273868
0.010653757
-0.0015516488
0.014740166
0.025310751
0.0021441327
0.022750547
-0.043698877
0.0050963913
0.017872445
0.01235505
0.0089316964
0.019958394
0.006277469
0.00014383688
-0.031767428
-0.037930589
0.010651745
0.0025256604
0.00040671491
-0.029463189
0.004974185
0.00417687
0.0041467124
-0.0043049427
0.022946252
0.004694338
-0.0016336766
0.041825738
-0.05028611
-0.056561574
-0.0041935868
0.022337487
0.02043636
0.0082318224
0.016816741
0.037249312
-0.0098100444
-0.057792548
-0.014308536
0.028496219
0.0056790728
0.021374453
0.017152015
0.0036580057
-0.03531896
0.02750602
-0.0068245213
0.025015617
0.012314692
-0.013641309
0.0011199831
-0.00756709
0.020067025
0.020980453
0.0025485433
-0.011316181
-0.039018389
0.018034386
0.027855705
0.0091801994
0.022261972
0.017773518
0.011266561
-0.0034260929
0.0072656171
-0.011537287
-0.014322136
0.012552657
-0.020096468
-0.048374619
0.045474403
-0.048178963
0.04354639
-0.028029
0.027660415
-0.023923738
-0.025708159
0.0083895419
-0.014023531
0.014841781
0.017812589
-0.055670571
0.016835719
-0.022172485
0.033767454
0.010914057
0.02610107
-0.047602437
-0.0010941362
0.011146909
0.028196044
0.02788992
0.0063549075
-0.0056214267
0.001894027
0.040082861
-0.027794762
0.046022095
-0.065230317
-0.0056778155
-0.0055288896
-0.0039136545
-0.043046352
0.0057305698
-0.031213554
-0.0058379713
-0.00052503723
-0.021587703
-0.033409849
-0.075723998
0.0041378103
0.010205306
-0.019485982
0.0096083106
-0.030920764
0.070723966
-0.011429398
-0.032169022
-0.025242604
0.19376323
0.055328224
0.023411954
0.039580133
0.012711065
-0.0218434
-0.087509543
0.13056625
0.035092074
0.0077122166
0.027775159
-0.011595352
-0.015972754
0.0016699687
-0.029662101
0.030870933
0.0046026288
0.0086898692
-0.053833239
0.02766305
0.014062714
-0.0022408939
-0.043286242
0.0025714869
0.0027873153
0.023236921
-0.028537825
-0.013875272
-0.01687582
-0.02627424
0.003307499
0.039655544
0.038950469
-0.11914393
0.048988722
0.00028169388
-0.030890757
0.032703098
0.0030268191
-0.013091911
0.0020581095
-0.04089535
0.026115192
0.02759889
0.0089745177
0.043997966
-0.028769379
-0.0036375495
0.012745593
-0.03225917
0.024073811
-0.009913547
0.0080562308
-0.0093126372
-0.01019262
0.027086757
-0.0052521708
-0.0027579165
0.027704483
0.03565282
-0.093839645
-0.023119358
-0.011082275
-0.028469546
-0.030312965
-0.0040891333
0.02434334
0.023367619
-0.010278441
-0.0099390019
0.033310831
0.015612722
7.5206539e-05
0.007911142
-0.0038822654
-0.00065371447
0.011198737
0.026790172
-0.025881538
-0.017062517
0.0069898949
-0.0084929587
0.023556234
0.042924561
-0.0058687297
-0.001981535
0.011012319
-0.037195522
-0.032763209
-0.016959349
-0.058524095
-0.013587721
0.0063084168
0.012303721
0.013397226
0.026703186
-0.0051080901
0.016862104
-0.018988553
0.0045231539
0.0088067669
-0.0088623092
-0.0091227517
-0.023565019
-0.025497876
0.0051121558
-0.0049040667
0.012380395
-0.013506413
0.0036128522
-0.030481059
0.030306425
-0.04749449
0.012812812
0.0052169757
-0.044998325
0.016121065
-0.049331337
0.022340717
0.023260182
-0.020485887
0.012079643
0.00018264292
0.015380471
0.019190913
-0.0022386743
-0.00094647688
0.041270219
0.033113658
-0.01854171
-0.012934048
0.014813555
0.014565941
-0.020631036
-0.036273554
0.015752446
0.0032885096
1.1540418e-05
-0.022219544
-0.061792586
-0.046049427
-0.053115163
-0.04483832
-0.057689968
-0.0198124
0.026121847
0.031561609
0.013483847
-0.021426531
-0.0010905496
0.030388813
-0.0047674095
-0.0088616777
-0.001558664
0.052460313
0.024449779
0.023925563
0.024359444
0.032468516
0.034347452
0.0053366092
-0.029856568
-0.018656677
-0.007559116
-0.010075415
0.015390686
-0.02966959
-0.012298093
0.014794076
-0.038510092
-0.048067939
-0.0094657494
-0.0010051277
0.020235935
0.019531192
-0.0086082928
-0.015532236
0.029238759
0.010682184
-0.034964826
-0.029240673
0.011157881
0.01133781
0.022978088
0.032766137
0.010475418
0.021026254
-0.013927249
-0.046592593
-0.0022267683
-0.0073637571
0.044259023
-0.047577903
-0.073178276
-0.074138448
0.042271771
-0.091762424
-0.045550574
0.024881566
-0.0084575834
0.04080759
0.0090267034
0.021692278
-0.025717678
-0.017438335
0.028790521
-0.04763753
0.0022173787
0.01435364
-0.026055453
0.031241592
0.022160819
-0.051459394
0.0067645144
-0.012434112
-0.023341918
-0.0026014834
0.046541438
0.026135849
-0.038441576
-0.090226382
-0.031132495
0.043642785
-0.080782443
-0.09528131
-0.00020847913
0.025052415
0.0036836995
-0.0023890417
0.021530915
0.033148982
-0.061110698
0.0097334329
-0.026472459
-0.049533881
-0.022406952
0.014398106
0.023181325
0.030673441
-0.050298192
0.036766998
0.021847317
0.043657016
-0.02115882
-0.0052858628
-0.00013956326
-0.055832386
-0.061605547
-0.046215285
0.017452952
-0.021150799
-0.060545135
-0.0047283839
0.016211351
0.055322524
0.025891185
0.055324242
-0.012322669
-1.2191563
-0.028703079
-0.0615214
-0.048348427
-0.061255835
0.054009441
0.079246677
-0.067851491
-0.0089084506
0.01473292
-0.02216986
-0.041101813
-0.13683575
-0.061698303
0.004870208
-0.017972523
0.12450985
0.009712806
0.0093684625
-0.013335531
0.0065551912
0.026620669
-0.015584541
0.006427018
-0.036525298
-0.040003657
0.0057185949
0.029243885
0.021870555
-0.015737504
-0.0028979557
0.021398908
-0.05305044
-0.069086462
-9.8886812e-05
-0.0059454469
0.027522545
-0.0067788861
-0.047757056
0.019511476
0.023389801
-0.070654854
-0.046705429
-0.11845625
-0.16617137
-0.1025359
-0.071132071
-0.033264127
0.054039147
0.048440881
0.066710323
0.0058606435
0.024055628
-0.042098857
-0.13227519
-0.12671356
-0.12191679
0.052865431
0.0054027191
-0.125605
0.019761322
0.017942009
-0.0017203791
0.022696756
-0.081429042
-0.044596341
0.35698023
-0.042038269
0.25807068
-0.35759616
0.020290526
0.024261786
-0.18826975
-0.037055589
-0.1388043
-0.090951197
-0.03308202
0.076898403
-0.12804803
-0.13625658
-0.049894035
-0.14093554
-0.037498355
0.021807777
-0.024121244
0.0022274498
0.019339373
-0.084490515
0.051117439
0.022055013
0.0088403597
-0.021423267
0.088402972
0.34957159
0.0073883799
-0.026133375
-0.14174519
-0.30927688
-0.23826516
-0.039409064
-0.17844835
-0.012733378
0.018031774
0.053995475
-0.049359515
0.012738567
-0.10423583
0.016762333
-0.20195904
-0.044904567
-0.11675869
0.031766575
0.033326738
-0.11030904
0.0098332334
0.023558261
0.0043186769
0.037400611
-0.050974745
0.029840685
0.38316843
0.089327857
-0.053836789
-0.18776211
0.19085285
-0.090846449
0.10728054
-0.26684079
-0.16101837
0.11407582
0.048910089
0.035240505
0.011319894
-0.0085988557
0.10014387
-0.10935432
-0.086771265
-0.14670914
-0.06751819
-0.0095103569
-0.092088684
-0.087925792
-0.098582692
-0.014076752
-0.015623277
0.064901359
0.0041861469
0.36878935
0.1574733
-0.19696134
-0.19876249
0.22022799
-0.1728069
0.20454499
-0.08211045
-0.13705875
-0.077926196
-0.013532332
-0.0049385251
-0.0039620069
-0.0064106155
0.14656173
-0.12546781
-0.06190126
-0.1656557
0.035539661
-0.0060704965
-0.1119779
-0.022146212
-0.22042844
-0.077696308
0.25923607
-0.018756153
0.047527429
0.35280168
0.37697932
-0.30892888
-0.13949166
0.72309351
-0.17723444
-0.0039550895
-0.053930536
-0.10222347
0.028379409
-0.078364581
-0.065219365
0.043242268
-0.033804853
0.03223677
-0.034778047
-0.0363473
0.022548988
-0.061839912
-0.044280902
-0.010159841
0.0022707644
-0.098259322
-0.083555132
0.11061344
0.02707582
-0.022775689
0.38186723
0.3260439
-0.22840706
-0.23158836
0.11497502
-0.21721298
0.020477643
-0.20891318
-0.14181377
0.035153534
0.0030575297
-0.043073893
-0.076421462
-0.077946633
0.045958977
-0.047251556
-0.065757789
0.076779008
-0.21979262
0.016308863
0.058899906
-0.044140976
-0.0090579214
0.03253296
0.083805829
0.079894736
-0.030110594
0.30425394
0.26449859
-0.37318164
-0.013429587
0.18851452
-0.25093558
0.0016937805
-0.026156187
-0.051794324
-0.071610257
-0.064745627
-0.059590742
0.11369053
-0.086177059
-0.047829412
-0.072623126
0.001883568
0.033986475
-0.0073274602
0.064204261
0.013577215
-0.11196851
-0.028633764
-0.028974842
0.048887141
0.013763632
0.022452278
0.23501053
0.049880307
-0.19732495
0.017198989
-0.044643331
-0.22256161
-0.0063502239
0.079826534
-0.081026278
0.0031690255
-0.0014674121
0.064611845
-0.082577281
-0.10240542
0.0043400154
-0.12375084
0.036481354
0.038160697
-0.032813393
0.045234691
-0.0012915351
0.035256471
0.02359847
0.014064496
-0.027315348
-0.15863349
-0.020349706
0.19347273
-0.13335103
-0.01433182
0.089874931
-0.22996697
-0.30257231
0.003939413
-0.080291376
-0.013185844
0.023923747
0.10645579
-0.080163889
0.027542088
-0.015105724
-0.10304892
-0.12938032
-0.020271784
-0.023423279
-0.056341823
-0.075791955
-0.048254635
0.0033229128
0.027439347
0.020579025
0.049792215
0.059535984
-0.031156229
0.062897429
0.04214159
0.1174373
-0.26308173
-0.12846863
-0.014586998
-3.3401325e-06
-0.001884431
-0.043714613
0.064392343
0.075889841
-0.062574334
-0.050780438
0.063989751
-0.1126079
-0.0028484282
-0.14763904
-0.087616481
-0.056072202
-0.063294552
-0.022749731
0.042714678
-0.051737104
-0.092052162
0.065391995
0.10682996
-0.042383794
0.2041361
0.10899398
0.046673905
-0.18442062
0.11911895
0.0028369916
-0.018118346
-0.0155589
-0.059964728
0.051184189
0.055835623
-0.016435253
-0.039030764
-0.035196405
0.025043441
-0.00064094423
-0.12214525
-0.042390544
-0.03491655
0.044052441
-0.041433901
-0.02902652
0.066307567
0.023105128
-0.035792042
-0.012202377
-0.089837097
0.2554222
0.066600613
-0.03963865
-0.10502835
-0.13237652
-0.021454288
-0.0036205433
-0.085208774
-0.069873758
-0.016932731
-0.1054021
0.016237376
-0.063668169
-0.0047324551
-0.15528063
0.04836804
-0.05056769
0.11040793
0.031356372
0.021338621
0.023149313
-0.062849224
-0.0053860741
-0.082705915
0.050264101
0.062331367
-0.039322224
0.35093415
-0.06928315
-0.0056439536
-0.030716743
-0.049781527
0.066109881
0.00018233864
-0.059893608
-2.0377855
-0.33128822
0.069518082
-0.011832652
-0.53674895
0.12158541
-0.19367762
-0.19946399
0.006302726
0.07578335
-0.42723423
-0.45129627
-0.013557654
0.10977178
-0.076102816
-0.11493264
0.19809587
0.061926384
0.066653773
0.39080805
0.03384427
-0.1127561
-0.074150108
0.79822898
0.25245717
0.0056577283
-0.055226061
-0.057655793
0.0069744848
0.0096506141
-0.033229832
0.052286014
0.15827967
-0.038432844
-0.057517018
-0.15022731
-0.20521167
0.069172405
-0.10666073
-0.072921373
0.041509926
0.0085124411
-0.046989337
-0.054399919
0.072356775
-0.11958277
0.426018
0.084777996
-0.11872617
-0.1771777
0.39300698
0.18992305
0.059651263
-0.11229468
-0.072067447
-0.0046697697
-0.047718752
-0.068835132
-0.0027445287
0.011846855
-0.025552651
0.033462603
-0.03270356
-0.078160316
-0.082824267
-0.097729214
0.066059031
-0.043059573
-0.017363334
0.019071959
-0.01670474
0.13801715
-0.0094124023
0.30245566
-0.068458304
-0.16382009
-0.13246492
-0.0197715
0.037124023
0.048733983
-0.13270104
-0.063213028
0.074171677
-0.08059974
-0.0095473565
-0.040289804
0.040576808
-0.02215372
-0.12201258
-0.042804874
0.017312782
-0.0083601521
-0.029365608
-0.033583313
-0.064112075
-0.029649133
0.0026906666
-0.0069672544
0.044386879
-0.047897439
0.26973686
-0.23674105
-0.11841577
-0.047278874
-0.17534338
-0.016253535
0.092328027
-0.12148309
-0.023505189
0.026158126
-0.034818806
0.040099893
-0.011162035
-0.017109936
0.029404931
-0.12668067
-0.089502916
-0.058293447
0.10720123
-0.093366452
-0.073371962
-0.056389522
0.061215494
0.035518456
-0.036539551
0.053524997
-0.08092647
0.29161823
0.058953602
-0.20585389
-0.16497026
-0.060502112
0.14768408
0.044457797
0.1025557
-0.059502736
-0.0017262794
-0.076040916
0.050993506
0.050020155
-0.091001324
-0.08269681
0.0016093696
-0.018219354
-0.012137678
-0.10070828
0.036367446
-0.00045894884
0.099887788
0.12511611
-0.1429611
0.02272458
-0.032537419
-0.098549508
0.098386772
-0.21963334
-0.073585436
0.16511984
-0.4669489
-0.33580512
-0.025158124
0.040702604
-0.03296297
-0.23136967
-0.05739978
-0.027559889
0.078893892
0.017270567
-0.010549523
0.018943196
-0.071665987
-0.054432672
-0.071257152
0.074455015
0.017351678
0.13626848
0.028076664
-0.12975416
0.026190573
-0.050111007
-0.10575165
0.084295943
-0.17461976
-0.00089761772
0.1182778
-0.42667869
-0.23439828
-0.0080166748
-0.039033316
0.037024006
-0.081243724
-0.037657887
-0.050208267
0.043562565
0.10923034
-0.078682557
0.072806083
0.095461972
-0.025340034
-0.046205837
0.054745432
0.041055836
-0.043014389
0.022419835
-0.023351567
-0.067400895
-0.037445202
-0.031698413
-0.012442141
-0.032281585
-0.16060415
0.26621073
-0.4163813
-0.20770387
0.0026551399
0.049715839
0.07228785
-0.01130848
0.0080311894
-0.077484496
-0.040444918
0.036988698
-0.28657731
-0.061414365
0.10215289
-0.022542397
-0.093069069
-0.040826064
-0.043497164
-0.0032356237
0.042803545
0.048804663
-0.019349335
0.043093596
0.1147129
0.0050885291
-0.12356845
-0.11375585
0.29209563
-0.47799671
-0.1521434
-0.01219638
0.011582294
0.084776781
-0.12883306
0.045355704
0.058724653
-0.085348971
-0.0023123985
-0.28870785
-0.015490349
0.04621673
0.011149726
-0.0016495991
0.092147142
-0.020635314
0.069568992
0.051430054
-0.056603532
-0.084878303
-0.013279896
0.089803718
-0.074343652
-0.13883211
-0.045502674
0.12176449
-0.2973226
-0.035362616
0.026095673
0.44126302
0.10317362
0.33538961
-0.13403045
-1.2011683
-5.0094867
-0.029612768
0.12433712
0.15325382
0.17001143
0.098502517
0.025946066
0.14109115
0.028285116
0.067723952
0.02387749
-0.38018912
-1.0872308
-0.95132166
-0.4593665
-0.065238148
0.54300511
-0.016461439
0.033967879
0.034249373
0.071723953
0.061236456
-0.068038657
0.067199297
-0.055615328
-0.050340638
0.079938568
0.13495028
-0.045288995
-0.039186656
-0.011227734
0.015502134
-0.13996403
-0.23388623
0.030937515
0.028639268
0.045174778
-0.058612056
0.031542294
-0.084698737
0.13885227
-0.3571057
0.52170664
0.4178499
-0.5311026
-0.49096364
-0.006140701
-0.0099540139
0.012983507
0.0094066504
-0.0051193554
-0.020712063
0.013173196
-0.0079334313
-0.045209263
-0.0037915765
-0.0082287127
-0.0053637163
-0.026401456
0.0065444997
-0.0055693882
0.014370611
-0.0088540297
0.0029711635
0.027640821
0.013914455
0.021627996
0.006188035
0.027158046
-0.064857706
-0.010801157
-0.0077969898
-0.11718599
0.010561392
0.035439335
-0.005833148
0.013398644
-0.089003615
0.036954995
-0.011024125
0.014369441
0.026899351
-0.013062517
-0.013891962
-0.0093387291
-0.02604402
0.010396726
0.013022251
0.0079857446
-0.019679731
-0.005998048
0.026106803
0.016383404
0.0031399212
-0.033223715
-0.0079919836
-0.044727288
-0.011777684
-0.030902965
0.033037219
0.00051709125
0.017355161
-0.01378799
0.007849535
-0.077791177
0.0087783765
-0.0014910451
-0.016405554
-0.011174217
-0.0027767397
0.036474355
0.0043026162
-0.0026364105
-0.021392046
0.013165616
0.002565413
0.0048630112
-0.1304979
-0.051449612
-0.027683796
-0.0092739472
-0.024739781
0.016292574
-0.0084134582
0.023568736
-0.03874851
-0.0025633227
-0.0059327488
-0.016448706
0.029528001
0.034867436
0.0040183323
-0.0016155904
0.018626539
-0.066419661
0.0087415464
-0.017556859
0.00050526828
-0.0024082658
0.02499547
0.021834077
-0.038423184
-0.013969763
-0.039024837
0.0013153094
0.020026604
0.0096814223
0.043100543
0.0046790754
0.002972943
-0.0080644013
0.046116821
0.015657874
0.025133297
-0.0032626037
0.026715899
-0.013977809
0.042452473
0.013358413
-0.0090673771
-0.0018675789
0.0013632214
-0.035184581
-0.037579056
-0.020122377
-0.0023842368
0.015509572
0.0026942512
-0.0088577336
0.022569103
-0.042005565
0.13263118
-0.0025990584
-0.012934543
0.011477957
0.002787947
0.0088756932
-0.053298458
0.069276795
0.0099793524
0.009820235
-0.010564335
0.0063827708
0.01434055
0.042106178
-0.11889625
0.0012757273
0.022937274
-0.015767325
-0.076776855
-0.021029687
0.04003657
0.016725089
0.024482032
0.032478198
0.03255415
-0.031368122
-0.0055665192
-0.14208823
0.028284894
0.0023209953
-0.010863285
-0.012767142
0.0051587494
-0.047790296
0.029969165
-0.036219306
-0.009272106
0.02452836
0.017084168
-0.011604492
0.011220109
0.023853457
0.016706372
-0.008662737
0.027884429
0.029274268
-0.017677
0.013999878
-0.015245846
-0.012428361
-0.014070015
0.0041157622
-0.0076933266
0.028249608
0.022065558
-0.010621904
-0.027597005
-0.031030543
-0.046843696
