-0.97798878
-0.0944831
0.2463619
0.11579331
-0.81380975
0.074417077
0.24202912
0.39435002
0.20199469
0.15951191
0.18192504
-1.3547617
-0.044104461
0.076443724
0.10351571
-0.073127173
0.019618573
-0.13032477
0.22793777
-0.24054642
0.11546832
-0.004602774
-0.40580317
1.2628797
-0.36583462
0.2194445
0.10662593
-0.45437744
-0.95058411
0.33296382
0.10330247
-0.21448198
0.15266897
0.52506489
0.2289166
0.32548332
0.22235098
-0.8183164
-1.3708088
0.20669095
0.092338629
-0.43877304
0.07650549
0.14937344
0.12602295
0.25948092
-0.92900056
-0.22081165
0.093479678
0.33290112
0.88884437
-0.36765426
0.36789489
-0.04916795
-0.15373538
-0.7703318
0.25108388
-0.76473999
0.21367946
0.26859808
0.31274027
0.6108759
0.46841931
-0.23314278
-0.20166603
-0.99320745
0.12514386
0.21689342
0.061151326
0.062689893
-0.05821301
0.080487184
0.11635786
-0.596892
-0.19307709
0.29583877
0.48674905
0.59497869
-0.14386928
-0.27988687
-0.29165062
-0.27083585
-0.2982426
0.23409754
0.07356929
-0.67615759
0.24196178
0.24495672
0.34040463
0.35453397
-0.00071266905
-0.36098093
-1.3949236
-0.083763324
0.15188652
0.14588338
0.24455257
-0.0074495184
0.075719759
-0.85465854
-0.63243568
-0.036302354
0.21779706
0.51840061
0.23567909
0.49603522
0.0048860284
-0.28758281
0.24921927
0.31395668
-0.44428721
-0.5024749
-0.27242827
0.077435859
0.36440641
-0.082374305
0.27972168
-0.053600889
0.13048235
-1.6621065
0.082652055
0.22358797
0.19992061
-0.24390648
0.12091447
0.1007873
-0.37470692
-0.45538303
-0.64897764
0.44848666
0.71315044
-0.56058675
-0.70083117
0.60613149
0.022327602
-0.13237716
0.25338924
-0.4114373
-0.60726273
0.12039988
0.10154407
0.30769008
0.047895141
0.47804093
-0.75755876
-0.030053282
-0.92587143
0.006965939
0.12547652
0.26084366
0.21460181
-0.21711086
0.054746993
0.039914772
-1.4165188
0.17273751
1.0071179
-0.11941641
-0.23801923
0.010017965
0.25097954
0.020989874
0.11963832
0.54182696
0.071259677
-0.72461993
0.054383725
0.23452893
-0.094559379
0.11421213
0.086631589
-1.208387
-0.39824706
-0.062972307
-0.28606245
0.17213933
0.2507475
0.19949926
-0.10630134
0.062935069
0.087109312
-1.1809554
0.25829849
0.99907821
-0.20650694
0.21406853
0.51828301
0.30748072
-0.0012442835
0.26063102
0.59027576
-0.38723868
-0.67411917
0.030723525
0.24050444
-0.033721436
-0.41116229
-0.86733949
-0.050003015
-0.91370326
0.50282282
0.07535354
-0.049781956
0.35963035
-0.032018077
-0.80630934
-0.19989692
0.15724117
-0.85375834
0.4627049
0.34086052
0.53652972
0.50020611
0.99703735
0.8577919
0.029357506
0.1536829
0.50424379
-0.6521402
0.1219745
0.3907901
0.3433665
0.14040466
-1.2111878
-0.91220248
-0.56738418
-0.17795701
0.34732634
-0.14898536
-0.055997748
0.24829064
-0.34343752
0.070865892
-0.6824041
0.20671345
-0.23118153
0.27685934
-0.12073811
1.0048862
-0.15398373
0.95838404
0.80964297
0.011162913
-0.039532069
0.19726083
0.061753422
0.48784494
0.13906334
0.22833624
0.25582901
-0.024650933
-0.090820663
-0.13088809
-1.7176493
-0.21368666
-0.006797656
0.15172911
0.16935733
0.56894147
0.010853109
-0.30224973
-0.89326578
-0.025283864
-0.046193309
-0.58544987
-3.0558274
0.88141519
-0.77426291
-0.1358362
-0.013379448
-0.023143241
-0.086233102
0.12478257
0.52832592
0.054372698
0.22605011
0.24686445
0.28815275
0.20891766
-0.43484601
-0.19827443
0.032648083
-0.042495094
-0.028166136
0.24975808
0.49287528
-0.041291125
-0.82270795
0.073537081
-0.71771199
-0.084301472
-0.72764021
0.14978123
0.9866668
-1.4293935
-0.17492245
0.02619192
0.2076643
-0.25750589
0.1890686
0.51473999
0.065818503
0.027218299
0.24667421
0.52924013
-0.082625397
-0.67910266
-0.97784901
-0.41602609
0.12283675
-0.17424791
0.22127931
0.28163117
-0.84847409
-0.4467214
-0.18038082
-0.72923797
0.05631708
-0.32104245
0.48708564
0.25497293
-0.31543866
-0.17372443
0.0024374921
-0.2178538
0.10751624
-0.16489531
0.18278949
0.043537989
0.033285491
0.3550362
0.11324941
0.086487032
-0.93307346
-1.0377927
-0.41952461
0.11670449
-0.41227743
0.13045819
0.6370945
0.27632201
0.13058473
0.13026321
-2.0830905
0.20194155
-0.92008305
1.0447346
-0.63726532
-0.95922184
0.10398088
0.021266935
-0.54762805
0.071164839
0.21973343
-0.72317499
0.31032175
-0.12412374
-0.4773517
0.49797037
-0.082353093
-0.45955053
-0.78033221
-1.1321635
0.11204303
-0.39986229
0.76520044
0.53606951
0.057285294
0.20974562
-0.12062133
-1.3183132
0.032073941
-0.10439541
0.80276865
-0.06901557
-0.010202445
-0.64190108
-0.026724447
0.22186665
-0.2351522
0.16528113
-0.69580483
0.11919041
0.19401005
-0.11398734
0.50630194
0.014974638
-0.56544858
-0.46746159
-0.073390007
0.22108582
0.099165164
0.14798418
0.2441753
-0.11661508
-0.16780449
-0.039154001
-0.24552757
-0.10761959
0.43904769
0.50056213
0.068931215
-0.67433256
-0.5775817
0.04933415
0.16511273
0.24041054
0.17444794
-0.24888889
-0.83237481
0.11290481
0.094464369
0.10095567
-0.18801604
0.04140792
-0.19016589
0.022387655
0.011936518
0.21399431
0.49948281
0.24737744
-0.92486197
0.096375011
-0.48037815
-0.41179961
-0.012664118
0.7154147
0.45413813
-0.56397951
0.13040577
0.20841531
0.43684667
0.087790258
0.21976325
-0.13339435
0.097449824
-0.55974466
-0.072795145
0.13859002
0.12914214
-0.19438095
-0.60531902
-0.11923315
-0.068757989
0.079023175
0.14864323
0.57053101
0.2407905
-0.36091685
0.21943977
0.056271944
-0.42171162
0.042541414
0.29709467
0.50610161
0.24187872
0.16587268
0.44387865
0.27852502
-0.13251032
0.10993316
-0.39007363
0.088663481
-0.2860221
0.12068257
0.015672496
0.23583587
0.090986915
-0.1125138
-0.00242372
0.064094067
-0.31686917
0.30015343
0.40735397
-0.016664123
0.019294066
0.037575919
-1.3306432
-0.15688831
0.36970848
-0.069251679
0.51133657
0.54179847
-0.0010340223
0.24899673
0.36490744
0.029186143
-0.17628489
-0.17146017
-0.2394675
-0.9202072
0.11331221
0.09730605
-0.091005571
0.044210389
0.59410298
0.21958388
0.12212298
0.032993279
-0.24108531
-0.013808985
-0.40534401
0.086853765
0.11844163
-0.18424295
0.56642914
-0.56380534
0.49774182
0.19269376
0.30400336
0.40856689
-0.37415412
-0.027539318
-0.066733278
-0.31662506
0.32799315
0.58632767
-0.39441627
0.12228785
0.12146112
0.13377503
0.03007526
0.32844597
0.26244855
0.081528045
0.043786176
0.060182765
-0.42480978
0.097276434
-0.014805482
0.072646789
-0.18670078
0.20762527
-0.45275772
0.29541418
0.25049517
0.39163727
-0.055137664
-0.42154065
-0.023495445
0.091880113
-0.058519103
-0.93178165
0.37209314
-0.40364963
0.17598376
0.043718666
0.30499578
0.049330108
0.23916094
0.059010904
0.40203482
-0.22007017
0.026517155
-0.034640878
0.31140327
-0.79213226
-0.24153002
-0.13243361
0.17081852
0.055373576
0.040042117
-0.40882877
0.58633816
0.27457339
-0.16414456
-0.029135752
0.46978256
0.14715202
-1.0067471
0.14459898
0.17812899
-0.021883043
0.1013874
-0.85469085
0.046420299
0.23273192
-0.095072918
0.33105046
-0.059595563
-0.2293347
0.091706686
0.46136272
-1.6803464
0.020161221
-0.4190096
0.14349027
-0.14936966
0.65204507
0.082857169
0.36457443
-0.13257182
-0.051277198
0.0039683655
0.24872185
-0.28272927
-0.37697279
0.42561725
0.28578657
0.0039714994
-0.039960351
-1.4286608
0.13217299
-0.21389472
-0.40941441
0.082045071
-7.0482711e-05
-0.047632337
0.15788682
0.47241265
0.18068248
0.070306696
-0.41047072
-0.17486729
-0.44922912
0.55843204
0.062301535
0.25533971
0.36872
-0.45496574
0.0010579993
0.079335831
0.28794539
-0.22210279
0.070416644
0.16550335
-0.71272677
-0.0050100666
-2.2594929
-3.2769239
-1.3175353
-0.39586183
-1.219488
-1.0539486
-1.4242603
-0.10396507
2.830189
0.81542921
0.062343035
0.033644464
-0.097930901
0.24850212
1.792801
0.13430439
0.17604268
0.23651928
0.013216839
-0.12927791
0.075136438
0.1557437
0.1306807
0.065641813
0.25134853
0.22866113
0.0070441063
0.059740119
0.21854335
0.17842163
0.11599581
0.040662579
-0.10684686
0.10750719
0.26999494
-1.4728141
0.30778891
-1.5866702
1.9615401
0.14517114
0.040768441
0.14315049
0.1164827
0.10106862
-0.31266475
0.15469983
0.20337304
0.34146103
0.052567251
-0.14250731
-0.099120326
0.11026857
0.33030769
-0.27827242
-0.55998725
0.068358593
-0.25816762
-0.44570869
-0.63989723
-0.30173153
-0.31290454
0.49547434
0.0029814325
0.23458807
-0.61853772
-0.13437617
-0.656757
-0.88933873
-0.36750013
0.093860306
-1.6852045
-0.15880659
-0.27126783
0.23887467
0.19760035
-0.23278835
0.053815741
-0.28769851
-0.0020791087
0.25665376
-0.097879313
-0.34520093
-0.067129634
-0.3032192
-0.10262664
-0.43773666
0.0014208277
-0.64143944
0.13918972
-0.10949918
0.067775555
-0.1255198
-0.81871843
-0.6196866
-0.52571756
0.028922686
0.013871021
-0.98419559
-0.38182405
-0.10234547
0.067125581
-0.00082131068
-0.016272591
0.25989607
0.024214139
0.43353277
0.29999951
-0.033854455
-0.58369839
-0.093427159
-0.2646023
-0.43118235
-0.24152085
-0.27743682
-0.6826368
-0.096000083
-0.27439284
0.25937325
-0.19868425
-0.31053233
-0.42684862
-0.45255607
-0.058937486
0.0010264351
-0.68704104
0.0028024209
-0.0088928277
0.032894451
0.097836234
0.21219052
-0.074190907
0.35403824
0.31566188
0.02848565
-0.2274587
-0.34913403
0.0011194019
-0.0622898
-0.56132495
-0.38599768
-0.38690272
-0.42007834
-0.064092495
-0.060433041
-0.17791764
-0.35962605
-0.35113245
-0.36523423
-0.27322751
-0.00023595479
-0.15321773
-0.70417464
0.15063995
-0.18024057
0.23028818
0.13029556
0.434818
0.34673268
0.29940808
-0.42368215
0.1783109
-0.35257551
-1.0686557
-0.055559434
0.11742782
-1.0616661
-0.62398797
0.42386398
0.022195803
-0.25966051
-0.12858275
0.078793205
-0.55331814
-0.64485532
-0.36081365
-0.4300091
-0.49558669
-0.37068263
0.021721417
0.15758763
-0.059244834
-0.061223201
0.166262
0.39345413
-0.14133589
-0.0020640679
0.003694593
0.21372521
-0.23855744
-0.91502267
-0.13416407
-0.32676893
-0.84070128
0.021582903
0.15292051
-0.090628833
-0.29892057
0.24405274
-0.44845697
-0.41398978
-0.51701283
-0.40432677
-0.4321976
-0.084204905
-0.12466676
-0.02274861
-0.13393904
-0.045048498
-0.011087359
0.033245191
0.10006192
0.070735067
0.16269584
0.0596385
-0.16949642
-0.37495843
-0.58801657
0.075492263
-0.094846226
-0.8585465
-0.17626366
0.061348408
-0.31219172
0.054911286
-0.052555576
-0.36249474
-0.19182342
-0.42801765
-0.17572622
-0.66303051
-0.095053725
0.23994562
-0.016501961
-0.22739972
-0.084557638
0.15490448
-0.14137425
0.12974733
-0.11025252
0.25463167
0.21331172
-0.25375828
-0.32256943
-0.46930575
-0.13079475
-0.0013121624
-0.3459633
-0.38022238
-0.022736782
-0.19653171
0.1563049
0.073124535
-0.73090339
-0.20789772
-0.49796641
-0.61236185
-0.29885858
-0.41531441
-0.025173312
-0.0048507564
-0.28982005
0.14115973
0.13631675
-0.21175146
-0.028813079
0.15713812
0.25759202
0.35034856
-0.41103983
-0.23498665
-0.63727272
-0.24429268
-0.18334392
-0.29929322
-0.43442142
-0.070187785
-0.29655534
0.10264308
0.18056317
-0.25549808
-0.22138515
-0.33964485
-0.41042009
-0.95555472
0.076648988
-0.16532785
0.01757583
0.15064529
-0.065459713
0.060761981
-0.12923919
-0.2466116
0.022182371
-0.0931217
-0.11498871
-0.52480489
-0.38204658
0.48722497
0.34215346
-0.38336152
-0.15137339
-0.75416005
-0.29483551
0.3017123
-0.25185469
0.11024747
-0.20406608
-0.52389181
-0.67640078
-0.52106076
-0.48052344
0.66664034
-0.20282438
-0.0043822122
-0.12477555
-0.056431092
0.15595849
-0.072525494
-0.25584784
-0.49432403
-0.042454608
0.23299132
0.036945611
-0.59163332
0.27702975
0.50674236
-0.45701084
-0.37151858
-0.49460411
-0.31959829
0.042029001
0.23198113
-0.11210126
-0.48186833
-0.14441168
-0.68063623
-0.24493378
-0.47380117
1.0122322
-0.14914337
-0.020228807
-0.41498956
-0.0014790257
-0.19120932
-0.42400333
-0.38580108
-0.27445769
0.033542179
-0.12161865
-0.22073174
-0.28211862
0.094037555
0.59737289
-0.45023102
0.078394562
-0.28784102
-0.21834703
-0.1394341
-0.11697731
0.2821925
-0.005713854
-0.046905078
-0.61435473
-0.34018096
-0.54041684
1.2442441
0.18305355
0.021405963
-0.58361286
-0.070417456
0.18248582
-0.035779182
-0.31073532
0.05162001
0.31752571
-0.22113658
0.011889441
-0.49163052
-0.068514489
0.84791476
-0.32792661
-0.31959051
-0.46285293
-0.4304257
-0.12148669
-0.095826566
0.42951536
-0.48877957
-0.24234843
-0.37726754
-0.49282393
0.042741757
1.0842098
0.24119529
-0.01781759
0.13308991
-0.21143062
0.010308038
0.48106995
-0.35042575
-0.046750277
0.29696241
-0.75080937
-0.57839459
-0.31678876
0.49786618
0.70796257
-0.55359644
-0.42069605
-0.21462967
-0.45672032
0.051002424
-0.49292812
-0.44084549
0.25944597
-0.12640376
-0.53376782
-0.32866785
-0.099913239
1.2614248
0.92171443
-0.025031785
-0.39847997
0.11995737
0.10143228
0.33232418
-0.0099618239
-0.37977788
0.44107047
-0.5993157
-0.46962696
-0.30271122
-0.0098999552
0.71430719
-0.33629698
-0.39029497
-0.093113251
-0.37707135
-0.34531093
-0.18918331
-0.08241602
-0.051361084
-0.046517164
-0.6243977
-0.40599847
-0.013202458
1.0430002
0.29452074
-0.18457697
-0.37802574
0.11836036
0.074963607
0.33405268
0.29077026
-0.60755116
0.059244212
-0.41085768
-0.31373662
-0.032559365
-0.21775794
0.32756132
-0.048661429
-0.35578313
-0.28660926
-0.44978178
-0.13430682
-0.19789799
0.016748765
0.026755288
-0.22064701
-0.72017902
-0.29097834
-0.31126085
0.89180195
0.24473208
-0.35940695
0.060042761
-0.23862901
0.037177186
0.16670674
-0.053729117
-0.28439212
-0.073086493
-0.49226668
-0.42298102
0.14555956
0.11659474
-0.14843926
-0.27064303
-0.25718185
-0.24135329
-0.33852643
-0.14487886
0.033490993
0.25095654
-0.29494315
-0.027020151
-0.68700141
-0.58219427
-0.40223005
0.7721498
0.14902243
-0.28965569
0.038416535
-0.11643451
-0.16417766
0.086713187
0.050131429
-0.5104754
0.12929115
-0.24888003
-0.30253127
-0.064773567
0.30274162
0.34495294
-0.25685719
-0.28049555
-0.48042643
-0.27769873
-0.24622646
0.010592025
-0.067240089
0.080450855
-0.26251167
-0.72953665
-0.61835599
-0.32571054
0.46814939
0.18121171
-0.89905369
-0.049242366
-0.15795264
-0.31508061
-0.49735558
0.34914738
-0.42287907
-0.27540085
-0.22634104
-0.24198613
0.16865079
-0.30735362
0.26336145
-0.14645375
-0.210007
0.020879906
0.12756331
-0.1430463
-0.24000229
0.35974091
-0.072194763
-0.4533416
-0.46869597
-0.22060196
-0.68138802
0.41260692
-0.078314118
0.029258011
-0.25321522
-0.12250143
-0.31312886
-0.29234782
0.31855243
-0.34761617
-0.57803142
0.20017762
-0.27491117
0.46145737
-0.36106399
0.17140447
-0.16580591
-0.45092198
-0.072006568
0.19874248
-0.15246379
-0.17515297
0.40721458
-0.14471199
-0.43820634
-0.20330456
-0.43884763
-0.34977227
0.36040688
-0.28842589
0.027313843
-0.67299271
-0.021061206
-0.041623123
0.11051816
0.23578478
-0.12656012
-0.298329
0.26429889
-0.31556344
-0.0062994636
-0.24778822
-0.49648938
-0.074410535
-0.41967502
-0.18580543
-0.092776902
-0.00015616578
-0.27998567
0.61155033
-0.017079214
-0.24278864
-0.039269321
-0.15308473
-0.2093619
0.13177554
-0.11391721
-0.010538719
-0.59843862
-0.008339853
-0.039751224
-0.051236048
0.30839533
0.10202413
-0.36429545
0.43946287
-0.26559678
0.067883335
0.025765572
-0.60528213
-0.1367792
-0.48848975
-0.090215273
-0.17006567
-0.25395599
-0.099962078
0.35228238
-0.21941832
-0.3335616
-0.14805079
0.1214541
-0.32280827
-0.018652342
-0.1009355
0.024343535
-0.36542165
-0.016609773
-0.25555298
0.22566125
-0.22118881
0.34811121
-0.67702365
0.30653742
-0.003236989
0.2144049
0.089591138
-0.3436406
-0.037813284
-0.71990335
-0.11320189
-0.46887326
-0.13834146
-0.15451665
0.21831758
-0.18205279
-0.35889035
-0.12453976
-0.21914142
-0.4226622
-0.17395617
-0.18911192
0.0057270289
-0.86406356
0.19112808
-0.5443176
-0.16032831
-2.0552247
-7.8858695
0.0073928772
-1.7180784
-2.7615173
-1.6750971
-1.7364993
-1.1666903
-1.5189438
-0.98541516
-1.0195057
-0.77557868
-0.90398204
-0.018250063
0.59710658
0.78039932
1.0086567
3.0600028
0.11311559
0.091549426
-0.36580259
0.0082370285
0.2334228
-0.35998529
0.053436872
0.30055737
-0.15558156
-0.043490563
0.23365945
0.14263546
-0.13381594
-0.757927
-0.65765977
-0.50474417
-0.26019323
0.057064876
-0.13017073
0.0044883541
-0.44327468
-1.2163564
-1.1090434
0.37698174
-2.4447792
1.61114
0.22422448
0.28626317
-1.5159363
0.36680067
-0.077587225
0.025657095
-0.059882674
-0.57542312
-0.030240441
-0.023077268
-0.16014844
-0.056271195
0.24565552
0.23363531
0.098869734
0.028944682
0.039662391
0.22650692
-0.10699858
-0.17863615
-0.095900811
0.10610994
-0.21978575
0.11076052
-0.019332798
-0.08022134
-0.10124549
-0.032381993
-0.16564894
0.22224922
0.33447948
-0.17638382
0.21755987
0.059925333
-0.16884916
0.079525627
-0.17265825
-0.21804266
0.10075546
0.17936887
-0.30606875
0.29980206
-0.019135281
0.0030734641
0.21768606
-0.080499031
-0.081803285
0.06863194
-0.0082772328
-0.25140256
0.084446244
-0.07139241
-0.035001513
0.081483163
0.085199751
-0.1720376
0.039911948
0.14755262
-0.02284877
0.053066932
0.22245389
-0.043586768
-0.0086919228
-0.049548563
-0.12955692
0.10150667
0.16898905
0.044523228
0.05868962
-0.046049647
0.31763405
0.062058043
-0.0094419895
-0.055735189
-0.1801576
-0.071778938
-0.1512994
-0.04304827
-0.074058838
-0.14869484
0.20127551
-0.10894358
0.067051627
-0.26814452
0.46831012
0.055670731
0.15250918
0.025358755
0.06993828
0.10920615
-0.10910475
-0.13894957
0.017797334
0.18995874
0.0082346126
0.29184693
-0.10473019
-0.16971798
0.19445825
0.061921176
-0.12251141
-0.22491619
-0.11377864
-0.15519281
-0.22417502
-0.089488007
-0.022450531
0.15216003
-0.41330105
-0.15221161
-0.11085986
0.63464493
0.25244015
0.16727543
0.29591116
-0.45506391
0.023917951
-0.14999394
-0.079119451
0.20019406
-0.011301702
-0.18756597
0.10945592
-0.021081291
0.038358491
0.13137576
0.058839906
-0.24234024
-0.48348394
-0.01750372
-0.18261209
-0.23534887
-0.12026729
0.35841835
-0.091807254
-0.54678959
-0.12839638
0.0084263142
0.37955874
0.061545998
0.062660493
-0.1195928
0.32628846
-0.093633763
-0.28516465
0.14667015
0.20572248
0.12346918
-0.21180338
0.01440322
-0.0013572493
0.12207461
-0.35238761
0.095865369
0.097898461
-0.29866862
-0.11134165
0.1833705
-0.356778
-0.058826134
0.028241066
0.031304024
-0.25320795
-0.39124304
-0.017721102
0.46912801
0.31159392
-0.18040621
-0.13195811
-0.0098770242
0.11811907
-0.14449291
-0.13561872
0.13123757
-0.010751282
-0.16694137
0.00083147571
0.015625356
-0.10318444
-0.021305451
0.091486357
0.18871054
-0.18644959
-0.10567979
0.0027988346
0.044660367
-0.047747642
0.043250319
0.0096133733
-0.43118909
-0.29416847
-0.0032912667
0.34166521
0.010235472
0.042917173
0.086486541
-0.2940082
-0.093444102
-0.004594313
-0.0063522882
0.12444963
0.070582226
0.0081767384
-0.0085961744
-0.083879389
-0.027850322
-0.14773287
0.26877546
0.13374156
-0.32608476
-0.18257061
0.18850669
0.04739923
-0.088979565
0.12519591
-0.019072995
-0.0078876466
-0.055933803
-0.00047637714
0.38235992
0.097063996
0.084837012
-0.034001067
-0.42819121
-0.0039974134
-0.056306161
-0.09829165
0.063368306
-0.094448589
0.07294821
-0.15402409
-0.077431671
0.054037865
0.048385944
0.11465683
0.13254178
-0.40998837
-0.31845993
0.22803445
0.42740345
-0.17589803
0.2795881
0.057478365
-0.050778482
0.062587053
0.024810996
0.52291262
0.13802509
-0.038355425
-0.25982556
-0.27786171
0.23904863
0.043770205
0.10862939
0.057318952
0.14174902
-0.14915188
0.076274283
-0.023491342
-0.053183056
-0.02574466
0.097279504
-0.18326546
0.060781773
-0.16974698
-0.04444591
-0.072722442
0.014710208
-0.032961909
-0.18155715
0.022487702
-0.033162005
-0.014469955
0.083801053
0.45390943
-0.0084195798
-0.51657194
-0.44385591
0.16396451
-0.30347377
-0.071364388
-0.0023879572
0.37576154
0.039348099
-0.15306455
0.01921271
-0.15886319
-0.17666374
0.16955763
0.18188685
0.11601938
-0.11142255
0.27387404
0.071499385
0.037414543
-0.37781364
-0.13858487
-0.34989002
-0.36744869
-0.0014801858
0.087960415
0.38070983
0.034495071
-0.57757711
-0.036689937
0.076245658
-0.23231454
0.057227135
0.19799626
0.04050323
-0.033944674
-0.011036662
0.14609095
-0.21096633
-0.14006941
-0.036875587
0.079529472
0.26532319
-0.10461178
0.090157598
-0.13174254
-0.2204657
0.15194076
-0.061707325
-0.60563707
-0.36495015
-0.027728228
0.41311842
0.13533781
-0.073304228
-0.035933584
-0.18897104
0.18620476
-0.099529408
0.078323901
0.06814187
-0.061533552
0.037485201
-0.27207199
0.068360783
-0.068586923
0.11061124
-0.09473379
-0.062395651
0.1552062
-0.1815756
0.060309488
-0.13881943
-0.12698883
-0.091778964
0.0080601405
-0.087995321
-0.26321724
-0.0092557156
0.22873753
0.53618068
0.33669645
-0.017628917
-0.7729677
0.57358557
0.050978184
-0.1095045
0.38273919
-0.088439025
-0.0057511786
0.092799939
0.21013424
-0.35714313
0.00017839913
-0.085478872
-0.24578248
-0.14179364
-0.056862347
-0.21846625
-0.48522449
0.14504693
-0.20909904
-0.21756145
-0.24626209
-0.13533852
0.0052494956
-0.21605639
0.03511025
-0.0115603
-0.22627273
0.0048017874
0.028663784
-0.20829111
0.074675605
-0.040976163
0.32839778
0.31522933
-0.11651697
0.16274041
-0.045322798
-0.10472558
-0.043837536
0.0092324689
0.23078024
0.067163892
0.35676649
-0.24628048
0.083372757
-0.07508634
0.15251078
-0.45956045
-0.66257674
-0.29633418
-0.050169226
-0.018470367
0.006922137
-0.029508358
-0.087838002
-0.019212879
0.042864922
0.24358934
0.075533703
0.043738015
0.044088084
0.045735117
0.055056486
-0.037353732
0.050404344
-0.024083858
-0.10621879
0.16742665
-0.0367474
0.10899016
-0.030798394
0.044417243
0.070793286
0.027065123
-0.30075756
-0.30594647
-0.25506756
0.150646
0.2999526
0.03889446
-0.053525459
-0.1135175
0.04010547
0.022664482
-0.10596409
-0.10322359
0.02896709
-0.015796361
-0.13352327
-0.023213962
0.0067561441
-0.10350855
0.30911556
-0.15393999
0.065276168
-0.13125816
-0.075442322
-0.018649124
0.0079688849
0.0057691904
-0.17690732
0.12092347
-0.19960395
0.051808376
0.0096066212
-0.034595829
-0.17922781
-0.14277659
0.1005548
0.017618703
-0.10795261
-0.10148931
-0.065503255
0.30539754
0.11953858
-0.2462038
0.1903609
-0.02627106
-0.25855973
-0.069941558
-0.020012513
0.15580979
0.17199919
0.16492291
-0.023937549
-0.059781265
-0.29124895
0.12625164
-0.073327459
-0.59364569
0.14205469
-0.13269256
0.077284418
-0.22195393
-0.26117092
0.095493473
-0.0025114282
-0.13520414
0.022410994
0.070774384
-0.0726441
0.1116365
-0.078956865
-0.04908216
0.015398156
-0.15022464
0.069031663
0.46595824
-0.14513917
0.21793798
-0.4083018
0.48397344
-0.24582191
0.6641826
0.12233707
-0.19392069
0.1482881
0.023139788
-0.099965312
0.017198313
-0.08238297
-0.33140534
0.20572783
-0.12927639
-0.10152612
-0.23781617
0.011320852
-0.13733704
0.23552749
-0.2224624
-0.17802887
0.035289411
-0.0095852008
0.094800524
0.29677382
-0.089699738
0.021884719
-0.23276564
0.96695083
-0.0090345927
0.096987225
0.14327158
0.12797359
0.17218497
-0.028141139
-0.019737296
-0.13935585
-0.095410839
-0.56513321
0.020175535
-0.077630423
-0.31442678
-0.095520981
0.12555274
0.055285465
0.38816091
-0.2866838
-0.19755526
0.071872152
0.085614942
0.33755317
-0.13298339
-0.28549129
-0.17488348
-0.060668606
1.7792217
0.086069949
0.095394142
0.023511535
0.35742059
0.34568694
0.0068886885
-0.13436483
0.13521583
-0.18392491
-0.64269865
-0.17110395
0.0063278228
-0.35813877
0.045543082
0.14714715
0.032595973
0.31680864
-0.37579936
-0.027636403
0.080217049
0.071812667
0.36936817
-0.17692186
-0.31752327
-0.14730452
0.06124879
1.8381416
0.16540115
0.034230422
0.013007105
0.3820343
0.68722028
-0.0047629992
-0.036061004
0.046222601
-0.36284477
-0.33365932
-0.51009387
0.13463527
-0.36626506
0.26522055
0.35581115
0.1356155
-0.023149345
-0.0403498
0.092388652
-0.28369603
0.10958175
0.055623006
-0.39709631
0.19474943
-0.25784314
0.090253651
1.5522712
-0.15060167
0.11459164
0.02713185
0.17781505
0.60352558
-0.024785111
0.24329334
0.40024763
-0.28799927
0.14918531
-0.96629119
1.4683057
-0.012184122
1.2882642
0.89133561
0.62854302
0.071674354
0.30800354
0.23043562
0.20116678
0.037534315
0.13580979
0.023199221
-0.58837247
-0.44406185
-0.54169774
-0.516954
-0.21325056
0.39975956
0.085248031
-0.17449458
0.099080406
-0.49900368
0.061403219
-0.053712178
-0.085429631
0.016560242
0.0092301816
-0.068076916
-0.064640358
0.005567933
-0.11777703
0.11911119
0.21958202
0.11988
0.020658948
-0.035900652
0.097307153
-0.44535992
-0.3442471
0.60225481
-0.16887286
0.25089303
-0.043481201
0.63397777
0.22151811
0.38939226
-0.33328331
0.12172227
0.17347431
-0.1521439
-0.21319346
-0.013184772
0.16711712
-0.21927913
0.11303872
0.25802737
-0.40264565
0.24889094
-0.34233731
-0.063511014
0.0024758847
-0.150379
-0.22953881
0.2543391
-0.61006898
-0.22450422
0.65191662
-0.043758966
-0.37356287
-0.21190178
0.99738431
-0.35090777
1.1669151
-0.48467782
-0.084581777
0.23328401
-0.081737958
-0.13660032
0.1021176
-0.18765062
-0.87150884
0.027167352
0.46792603
-0.085269883
0.24156836
0.071840614
0.25520098
-0.4785226
-0.17745948
-0.15382551
0.064979903
-0.90967798
0.50901073
0.46415165
0.01496853
-0.20933941
-0.14175004
0.60744536
0.16398869
0.86569005
-0.15635513
0.071751356
0.20865369
-0.10278583
-0.024167296
0.14179081
-0.40175033
-0.057306595
0.13059503
0.10464573
0.27043414
0.13498624
0.13183381
-0.11885859
-0.10690673
-0.062922895
0.25883219
-0.070934035
-0.80995071
-0.15404978
0.48784134
-0.083613425
-0.26919904
0.24821766
0.41545615
0.16298892
0.35504857
-0.29147559
0.12325606
0.067855269
-0.015534214
-0.045546893
-0.4768863
-0.43299785
-0.26029468
0.012327715
0.28159383
0.22816311
0.030786153
0.061970819
0.29629514
-0.0019286092
-0.0066550947
0.35005015
-0.19660197
-0.77804142
0.28449741
0.38953874
0.23231673
-0.002538824
-0.055293445
0.57887387
0.31510952
0.38130721
-0.16260429
-0.16560993
-0.17374596
0.11708248
-0.46404475
-0.47612399
-0.087297708
0.24107331
0.25098881
0.38921329
0.13356087
0.1110023
-0.10604305
0.036468606
0.14492938
0.064563334
0.13459504
0.20566644
-0.055045851
0.32969528
0.11604934
0.39085165
0.24375652
-0.033752065
1.0201195
0.72984201
0.02561981
-0.15176953
-0.25475094
0.069173567
-0.20240046
0.094217323
-0.12548156
-0.11978757
0.069394946
-0.10592774
0.29662362
0.29694575
-0.76305228
0.087980807
0.25363204
-0.55995888
0.27386034
0.5068661
0.12526514
-0.55018729
0.47886965
-0.087349899
0.61760855
-0.18729238
0.056857459
0.41018361
0.633816
0.023153799
0.32697806
-0.70995921
0.03390795
-0.56745398
-0.038908955
0.14977795
-0.41566953
0.68825096
0.053537391
0.2556867
0.26997176
-0.2240328
-0.07122279
0.24921194
0.13651261
0.1703442
0.24249855
-0.10206833
-0.44714239
-0.056416713
-0.2798076
-0.075821102
0.051569276
0.36566666
-0.19006927
-0.30700383
-0.02136573
-0.12189099
0.01876289
-0.22269817
-0.92873132
-0.062366121
0.52416223
0.16334221
-0.092106715
-0.084343299
0.84226346
-0.31794459
0.042148907
0.11964732
-0.0519288
0.11083645
0.090695336
-0.33210155
-0.0015569052
-0.029294025
0.58490264
-0.32746053
-0.65960938
0.46195424
0.50906581
-0.028476078
0.19623016
0.02081541
-0.13157767
0.2882919
-0.052497238
-0.43683791
0.10467028
0.27533811
0.25523886
-0.1938028
-0.081765056
0.50418264
0.18028016
-0.24493015
0.041542277
-0.060891736
-0.18501407
-0.034684725
0.080315433
0.079896949
-0.06000378
0.40848589
-0.30706203
-0.23766354
0.23881795
0.44058627
-0.36902237
0.14407085
0.026362117
-0.15338832
0.0059811794
-0.13732991
0.18574837
-0.010405711
0.26934463
0.19300857
-0.16529617
0.0092798276
0.62098658
0.26815149
-0.053858384
-0.022914886
0.081929117
-0.25438663
0.12563631
0.068220675
-0.20055108
-0.28016075
0.52089268
-0.42389232
-0.29239804
-0.1150306
0.77150953
0.19131827
-0.21570772
0.010576259
-0.0039992831
-0.11310223
-0.21816814
-0.8367067
0.11334038
0.27093908
0.51113725
-1.487205
-0.091873072
0.51909769
0.49867672
-0.17633665
0.096341863
-0.0103568
-0.034219868
0.16177928
0.18443954
-0.29349187
-0.25038284
0.37057525
-0.20926446
-0.5722062
-0.43056124
1.0101819
-0.075546242
-0.12775292
-0.01716144
0.36874726
0.075384051
0.29750851
-0.04800446
0.2379564
0.13778989
0.029001283
-0.25311035
-0.078436553
0.1978094
0.25155225
0.031676359
0.081235185
0.061087791
-0.3390424
-0.011438941
0.12348224
-0.029518105
0.035892852
0.25551012
-0.67132121
0.19342344
-0.86859244
0.70523524
-0.40944278
-0.58903927
0.029036393
-0.21679124
-0.10298467
-0.49351081
0.26128647
0.12908119
0.1618053
-0.26344493
-1.4701201
-0.20653233
0.40424588
0.14084575
0.10375525
-0.050497655
0.028868262
-0.039655995
0.46402442
0.50585389
-0.14427832
-0.46046829
0.50791442
-0.2334033
0.22079551
0.48984987
-0.20009382
-0.18885161
-0.16452445
-0.022967234
-1.7028382
-0.16928633
2.2406464e-05
0.36560309
0.24516535
-0.20556526
-0.037493158
0.11393376
0.19962935
0.019580442
-0.11001559
-0.19739315
-0.15980577
0.21767364
0.51751101
-0.14615259
0.25379673
0.47075534
0.12222616
-0.31680447
-0.5831489
0.3068338
0.47851118
-0.16604553
1.0125411
0.74234146
-0.0090477429
0.013178519
-0.11723233
-0.38011608
0.13085862
0.041666113
0.0086220047
-0.20894793
0.044339471
0.047876745
0.24492934
0.047102921
-0.46231043
0.060240678
0.25878543
0.041713897
0.19465011
0.39103761
0.20317148
-0.047272082
0.36850625
-0.33554173
0.25626266
0.28666919
-0.011571259
-0.48717844
-0.12718572
-0.51756477
-0.23309498
-0.076699205
-0.12554747
-0.059002917
-0.053835627
-0.031415127
-0.17827287
-0.079140767
-0.037366278
0.41654879
0.34848848
-0.0078473985
-0.029511906
0.28831953
0.066354342
0.15332362
0.15811339
0.11297238
-0.072732024
0.31986409
-0.11912743
0.16258508
-0.081512243
0.24080639
-0.31541425
-0.58045101
0.072785273
-0.43347076
0.054895543
0.12513123
0.24222624
-0.15797572
-0.023058789
-0.10797356
-0.02718642
0.026056174
0.22639221
-0.083748832
-0.004221194
0.020788733
0.13997184
0.13233444
0.11695912
-0.10969622
0.16327721
-0.051097021
0.18564998
0.19496989
-0.0094678095
-0.034581244
0.25095469
0.40843499
-0.23725389
0.34230524
-0.1181882
0.088993877
0.12022644
-0.1927049
-0.3893978
0.027610758
-0.16683345
-0.14599431
0.35256964
0.35040528
0.034848947
-0.022104563
-0.013947471
0.17904094
-0.1137292
-0.35934162
-0.20305105
0.076254509
-0.22360793
0.26010719
0.25142634
0.41996166
-0.29258022
-0.27500045
0.27851698
0.029013326
0.6152209
-0.04528001
-0.15186274
-0.002945116
-0.28769153
-0.82371765
0.1449756
0.13187398
-0.16547883
-0.092534184
0.36337963
-0.11268657
-0.12129797
-0.059730865
-0.022916835
0.25098532
0.086171903
0.10524028
0.17528467
0.17185651
0.55660009
-0.11630721
0.31119901
-0.57128817
0.4261938
0.096419938
0.047173988
0.015233692
0.027859818
0.17002216
-0.073694654
-0.28282636
-0.026029054
0.27055272
-0.0086167632
-0.37301508
0.12194863
0.4408482
0.20360208
-0.27731597
0.027483471
-0.0010835568
0.18683322
0.017055955
0.15584883
-0.37887865
0.16073379
0.34088764
-0.35557348
-0.53487796
0.15642755
0.78542727
-0.6409871
-0.2839146
0.018191436
0.31983665
0.17986992
-0.12514746
-0.43467787
0.16916683
0.17691979
0.084763773
-0.94536644
-0.21848969
0.62008423
0.24121536
0.1015829
-0.040273461
0.03040071
0.070831947
-0.43403515
-0.3041907
-0.39500704
0.11611506
0.50999117
-0.087348416
-0.28625023
0.18176408
0.52479893
-0.68218237
-0.033011477
0.0081464117
0.59226495
0.15620755
-0.78412288
-0.5595386
0.019514559
0.25336459
0.5099811
-1.303735
-0.23239557
0.57444143
0.24065785
0.12142769
-0.047934324
-0.23612179
-0.43113247
0.1626564
-0.18525997
-0.33912504
-0.093555078
0.50681698
-0.32569391
-0.12322543
0.50342983
0.18847613
-0.58048773
-0.094161153
0.024717377
0.70300847
-0.23892185
-0.56725901
-0.22750622
0.13368957
0.044105452
0.10221975
-0.6466648
-0.047698755
0.22238286
0.28856227
0.16534767
-0.040638052
-0.42730284
0.17728144
0.41573927
0.34493908
0.16432247
0.024801498
0.036688164
-0.9053576
-0.46122387
0.18139368
0.2907649
-0.60828102
0.048144642
0.011983629
-0.52873749
-0.036026634
-0.15523849
0.18331446
-0.091975719
-0.55045682
0.013147613
-1.3150043
-2.6110425
-2.0358064
-0.84120524
-0.81819826
-0.73102105
-0.69913739
-0.95847613
-0.74662942
-0.74900335
-0.18177269
0.72949249
1.3740335
1.2525949
1.670469
0.16273412
0.10965022
0.13602425
0.070966616
0.0086467266
-0.074750364
0.0089601623
0.41563252
-0.019219939
0.33681783
0.098495454
-0.12480786
0.012411906
0.1315134
0.11843508
-0.0089967391
-0.059585623
-0.11499517
-0.04045381
0.34455168
-0.30973765
0.78198636
0.4251841
-0.021249918
-0.13092695
0.18769361
0.037264928
0.1949971
-0.30126649
-0.24687374
-0.023587298
0.05071757
0.43329477
-0.49301234
0.10570915
-0.12935367
-0.033710711
0.2422546
0.16713874
0.034362949
-0.28136042
0.10968289
0.070783563
-0.3093107
-0.12467139
-0.021918487
0.069755033
-0.17235142
0.039057605
-0.83181959
-0.33242279
-0.092795774
0.22744498
-0.078539103
-0.13995303
-0.4370257
0.027707661
0.25804973
0.22964257
0.19555099
-0.099554516
0.089446761
-0.21359439
-0.041001402
0.7398268
-0.17407957
-0.042947408
0.11669858
0.083186999
-0.36314511
-0.26153058
-0.21115878
-0.062669583
0.066091359
-0.15286586
-0.19087167
-0.41464916
-0.12564956
0.087216914
-0.24027854
0.47210392
0.26959118
-0.23888731
-0.084077477
0.045711711
0.033916157
0.26225528
-0.11073967
0.16296303
0.088605061
0.11138434
0.7899704
-0.11354052
-0.038333002
-0.4725394
0.10271693
0.070898093
-0.99249798
-0.091398619
-0.14053038
0.19421458
0.047291934
-0.29581118
-0.43672386
-0.061948404
-0.10036756
-0.066816255
0.10921276
0.21586946
0.27087808
0.46560156
0.26624015
0.15987174
-0.088962749
-0.80520499
0.27059618
-0.15688354
0.26624772
0.12434572
-0.34086701
-0.242236
-0.2389251
0.13512097
-0.20674005
-0.37011939
0.29150108
-0.32176939
0.18887064
-0.24426678
-0.68223685
-0.17176549
-0.52228624
0.13192321
0.07676547
0.22593541
0.233069
0.1141244
-0.55490494
0.13692918
0.23189527
0.05377597
-0.72720528
0.25892305
0.36232278
-0.82714814
0.30997944
-0.42950815
-0.00098686712
-0.8587476
0.2439616
0.26631394
-0.34001499
-0.17285228
-0.204667
0.62848866
0.1603847
-0.77256346
-1.6228018
-0.46739104
-0.043276642
0.011353372
0.7950514
1.9518213
-0.0046531879
-0.04359759
0.28768238
0.097003937
-0.11364102
0.3535561
0.17059991
0.23764205
-0.016227646
-0.12761207
-0.42771792
0.1843345
-0.069532454
-0.059389144
-0.45854652
-0.25337139
0.19176482
0.14074662
0.14823014
-0.011000931
-0.62879652
-0.18821055
-0.41936567
-0.09467046
-0.022681337
0.41160035
0.43363017
0.0036565217
0.20206441
0.33882535
-0.21845922
-0.2327347
-0.44328412
0.096621454
0.032099642
-0.13906756
0.30658957
-0.13587315
0.087540656
-0.5670507
0.069984816
-0.5533433
0.13421281
0.02371677
-0.026217187
0.19778498
-0.21121758
-0.48972356
0.18426071
-0.72395134
-0.034107801
0.1061729
0.12395765
0.47428423
0.012071422
0.42745543
-0.11675591
-0.18057576
0.010714932
-0.084065512
-0.14939754
-0.3332743
0.17002334
0.086249605
-0.0517621
-0.0023929721
-1.187593
-0.033244386
-0.33811581
-0.27759859
0.52610266
0.27000335
-0.5764854
-0.27396661
-0.26192293
0.30025992
-0.32116207
-0.18944094
0.051064037
-0.18263596
0.2060239
-0.009041829
0.32109636
-0.058930479
-0.2056427
-0.040255357
-0.18648008
-0.0029829335
0.005695262
0.10676941
0.10107392
-0.28343907
0.19527191
-0.10656785
-0.024048692
0.018729178
0.091210082
-0.08380904
-0.07992553
-0.23765288
0.046974007
-0.5408842
0.19416079
-0.10807745
-0.13879257
-0.20387569
0.086781234
0.4828907
0.023157528
0.26129958
0.23888837
-0.0028490261
0.024005964
-0.0014683215
-0.044621971
0.12705201
0.066394702
0.0013278294
-0.26709709
-0.025496475
0.18409535
0.12233589
-0.64098966
-0.33633479
0.25869161
-0.33949155
0.28571075
-0.21837825
-0.22577898
-0.23523968
-0.435206
0.16236667
-0.20190942
-0.22455804
-0.16376945
0.0043819817
-0.12878957
0.15050083
0.35666305
0.33253226
0.023666603
-0.19162472
-0.43666658
-0.08696647
-0.014745696
-0.3906703
-0.22536381
0.10550089
0.15256758
0.11393321
-0.80252588
0.39919886
-0.14899923
0.30904937
0.083369203
-0.47476742
-0.18029918
-0.017123697
-0.31230089
-0.17895833
-0.14719088
-0.3598448
-0.022390159
-0.16275087
0.26111248
0.26600111
0.28558004
0.027029887
-0.14404362
0.039745852
0.26508793
0.20488678
-0.49343088
0.27071899
-0.11177453
-0.02688483
-0.55354685
-0.083050527
-0.10321361
-0.34921843
0.07841444
-0.95854187
-0.0026638682
-0.16097005
-0.10791922
-0.27220243
-0.14137217
0.040224385
-0.21328703
-0.010261565
0.040353838
0.19328929
-0.13372877
0.36055705
-0.43245316
0.15151842
-0.01011752
0.26046753
0.22415799
-0.2616047
0.22578233
0.096466027
-0.24384503
-0.12976776
-0.5014447
-0.45093623
-0.12926154
0.077599481
-0.46079275
-0.18313935
-0.1154719
-0.14479081
-0.24315937
-0.28625858
0.060202848
-0.1948629
0.00073519681
-0.45327425
0.20323409
0.32122901
0.31137583
-0.27565914
0.30210742
0.2457069
-0.16916405
0.32290623
-1.6781099
-0.85256821
-0.5650785
0.14586426
0.1814595
-1.4461771
0.26026165
0.024643548
0.18509845
-0.1913953
-1.3095474
-0.95604801
-0.39819202
-0.1842002
-0.052058019
1.0793933
1.0689186
0.015825175
-0.22662775
0.18205932
-0.12835252
0.23137456
-0.29717687
0.034808129
-0.18960114
0.46036759
0.24254812
-0.49059868
-0.055488262
0.14915165
-0.022647869
-0.020935887
-0.17366618
-0.10941941
-0.17139335
0.74545562
-0.17422824
-0.32819846
-0.27365723
-0.26945701
-0.030042075
0.10404573
0.10479131
0.13333631
-0.30610013
-0.50351399
0.25549659
0.20010515
0.35771188
-0.75896597
0.030853787
0.26856038
-0.0052906028
0.1358941
0.058524311
-0.20229782
0.12421359
-0.098218746
-0.43839049
0.10031734
-0.28840885
-0.32921672
-0.077607334
-0.050286368
-0.15339386
0.37692216
-0.22307344
-0.1572534
-0.036526367
0.20801419
-0.52620453
-0.1536264
0.39320254
0.093658678
0.074997589
0.21743089
-0.17776008
0.0037125743
-0.084192649
0.26942375
-0.096082404
-0.93152863
-0.90178835
-0.069816209
-0.46883145
0.063328959
-0.1388943
0.16263989
0.0023709354
0.73373055
0.081974499
-0.1665756
0.0091025317
-0.093161173
-0.23599306
0.02294833
-0.067527644
-0.54691678
-0.59614247
0.15551233
0.022961024
0.4225738
0.13562854
-0.065247953
0.018287694
-0.001907842
0.47332406
0.13748533
-0.55515152
-0.35022387
-0.68347061
-0.029787295
-0.15623794
-0.52970701
0.089919336
-0.37476465
0.0081967562
0.2155695
-0.56409109
0.1628067
-0.050978009
-0.51119053
0.033952788
0.031346861
-0.56015378
-0.52676016
0.51496983
0.15708753
-0.79932773
0.012701203
-0.081217043
-0.11153873
-0.075372681
-0.6665948
0.26005584
-0.13354079
0.41079602
0.014849812
0.0095292348
-0.55030382
0.2645798
0.069159292
0.44531679
-1.0975887
-0.46055174
-0.76350427
-0.06516692
0.0073691858
-0.47866189
-0.0277946
0.22588828
0.038630437
-0.020706806
0.393457
0.0091787381
-0.35434243
-0.1823341
0.53847563
-0.01478199
-0.029552706
-0.13832299
0.29264048
-0.22600563
0.42320785
-0.15639442
0.016988836
-0.34301883
0.083472081
-0.10424417
0.309486
-0.88743979
-0.55346477
-0.33530146
-0.027076725
-0.16599354
-0.10280278
-0.19805859
-0.39983919
-0.026152421
-0.010388613
0.51587093
-0.15631284
-0.49681157
0.016132977
0.47675705
0.16584326
-0.017784232
-0.9215011
0.74471736
-0.1194455
0.015278994
-0.60725343
-0.26072443
0.13552612
0.13881366
0.087782487
0.391864
-0.87084484
-0.33317852
-0.16237529
-0.1116849
-0.04473836
-0.1228183
-0.25306568
-0.069592297
0.19906673
0.0060100756
0.69019681
-0.26885313
-0.37530786
-0.45612177
0.57748216
0.064283945
0.063931189
-1.9593759
0.36057788
-0.083474323
-0.078074925
-1.1964598
0.0066972994
0.094713815
0.1130425
0.098981529
0.40546969
-1.4008576
-0.34549743
-0.12748249
0.094556548
-0.12136561
-0.29081437
-0.089935526
-0.22293819
0.56927049
-0.0088695455
0.57328695
-0.1429866
-0.24061488
-0.020664042
0.53918672
0.094829738
-0.16408862
-1.4656236
0.36203808
0.012524802
-0.15478806
-0.52582455
-0.074655823
0.029472452
-0.0209301
0.18120126
0.012016789
-1.6184174
0.059713271
0.033188283
0.047041159
-0.55656254
0.16945885
-0.23583961
-0.19706701
0.11145519
0.016564295
3.0585394
1.1756626
-1.4005135
0.076956525
-0.065636978
0.63852173
-0.0051869815
-0.089489229
-0.79750353
-0.44647926
-0.20374487
-0.65013307
-0.99263948
-0.89487886
-0.95701736
-0.82521027
-0.76028973
-0.50374174
-0.037786983
0.32649267
0.60354424
0.6759274
0.091024607
0.25859371
-0.16108072
0.12481777
-0.072145812
-0.13195975
0.02272336
-0.038510118
0.13643755
-0.048469793
-0.05541924
-0.3173621
-0.019330829
-0.15307152
-0.30685368
-0.13519149
-0.095381469
0.075893253
-0.3442961
-0.0086411899
0.56902695
-0.53553766
-1.0212766
1.0855404
-0.53659207
-1.516928
-0.057211373
1.1340718
-0.76050782
-0.026937641
-0.063249007
-0.0040052137
0.28313908
0.024545992
-0.062676266
0.24735545
-0.052557282
-0.025116308
-0.083146513
0.054814134
0.075098351
-0.076852761
-0.075729497
0.032693401
-0.18646717
-0.028600333
0.01565489
-0.016209496
0.062873848
-0.25249177
-0.4148922
-0.05219993
0.35300839
-0.20807189
0.03617033
-0.14066806
-0.01291422
-0.013687569
-0.14445809
0.14813715
0.56813979
-0.046242315
0.2330879
0.016527075
-0.049487453
-0.13361327
0.0031773064
0.02996818
-0.059038106
-0.074393369
-0.20147094
0.0055836146
-0.073462829
0.013957686
-0.0064329505
0.027072601
-0.11982392
-0.40636116
-0.2479436
0.44529703
-0.074124806
-0.018992364
-0.18951581
-0.075618796
0.019468533
-0.073031008
0.22936153
-0.020219093
-0.020737413
0.062307578
0.018633552
-0.021131177
-0.1119955
-0.16889317
0.016459828
-0.068321846
-0.14007851
-0.094110049
-0.084912367
-0.069608353
0.38368312
0.087133393
-0.14205752
-0.14239742
-0.11267447
-0.21774594
0.074258007
0.38547996
-0.033989307
0.14416184
-0.019981381
-0.14644645
-0.036386814
0.39982632
0.097854108
-0.092322722
0.052464969
0.13330157
0.12367851
-0.18247032
-0.012491408
-0.12314472
0.025352042
-0.20754066
-0.22011311
-0.10105596
0.06294366
0.0030759298
0.027783338
-0.10279083
-0.017975666
0.34247768
-0.30769649
-0.19641516
0.26278123
-0.21597825
0.058482371
-0.19474138
-0.22755283
-0.17651764
0.049448393
-0.003817304
-0.11281235
0.11894383
0.38360468
-0.15429045
-0.15229931
0.23151983
-0.1486261
-0.085233308
-0.068862662
0.12495843
-0.28891861
0.21214928
0.38908768
0.19783311
-0.086433299
0.084979236
0.4804005
-0.34613666
-0.30077171
0.61482722
-0.27228829
0.0068991324
-0.1685473
0.026483709
0.0549802
0.16754442
0.030708037
-0.025181955
0.19343743
0.16692175
-0.01691049
-0.18850403
0.023608744
-0.13007396
-0.081343897
-0.086625777
-0.075692594
-0.32240665
-0.036494587
0.30171713
-0.014291454
-0.2338254
0.029678844
0.26188833
-0.15875575
-0.27030027
0.16015184
-0.1663086
0.02606638
-0.23267728
-0.16734667
0.098860666
0.0209451
-0.0078224679
0.019804895
0.10199596
0.17045616
-0.01623942
-0.22140902
0.23737645
-0.11382475
-0.12636325
0.082569972
0.10407942
-0.25401106
-0.077143446
0.15724157
0.048922636
-0.12057409
-0.077159591
0.15366882
-0.1317497
-0.27136412
0.25405559
-0.059561875
-0.019660909
-0.12062801
-0.15073352
-0.0064445515
0.058724847
0.083785012
0.076185837
0.028199403
-0.17802586
0.12459964
-0.074275881
0.12480243
-0.037239064
0.062010109
-0.12203602
-0.018375218
-0.052915391
0.004881056
0.079880178
0.064931571
-0.045022309
-0.11478914
0.069146074
-0.0089964084
-0.26862967
0.077214263
0.027170805
0.024846759
-0.0097037992
-0.18278052
-0.16381004
0.040826261
-0.14309104
0.016961077
0.09229777
-0.050619874
0.049302001
-0.0001716127
0.15509546
0.017583733
-0.0019411317
-0.035490859
0.12372322
-0.14631596
-0.13999221
0.058709744
0.041010361
0.013990243
-0.18199596
-0.098133653
0.070267074
-0.25932205
-0.019878302
0.079675578
-0.014448211
0.093948819
0.13519803
-0.075842686
-0.016208375
-0.048842348
-0.021814568
-0.015061663
-0.14235437
0.0047460999
-0.027542772
-0.11679394
0.12309523
0.0629014
-0.11302394
-0.20062788
-0.013993963
-0.04684877
0.17996317
0.067515269
-0.066648237
-0.046110705
-0.27919626
-0.0093384441
-0.12834461
-0.21413434
-0.13595262
0.023827257
0.19357857
-0.083333604
-0.13890672
0.11511791
-0.018519422
-0.12073161
-0.14415237
-0.24549231
0.0045439983
-0.081053548
0.055114146
0.055666123
-0.019407213
0.089296892
-0.040996283
-0.14018956
-0.10966366
0.086307906
0.10453825
-0.031217285
-0.056830458
-0.32828626
-0.090777703
0.11092693
-0.30203986
-0.27885094
-0.026716083
-0.016363103
-0.11399158
-0.059525345
0.12908031
-0.10881723
-0.04012816
0.078398146
-0.2043094
0.12943728
-0.13286579
-0.11287273
0.099948898
0.033950578
0.0027943684
0.012468797
0.031990908
-0.074557565
0.029209649
0.1512101
-0.11239534
-0.041487925
-0.21521421
-0.31897107
0.11482067
0.080336668
-0.037648145
0.011715522
-0.038161285
0.053200062
0.059226479
-0.064273514
-0.055007733
-0.042929973
0.0020985838
-0.22464924
0.22426108
0.055714462
0.024968119
0.16419151
0.053191386
-0.084259391
-0.1331692
-0.26010907
-0.1503973
0.036997713
0.18934324
-0.080731772
0.0054430999
-0.25609073
-0.25754294
0.23339106
0.2273369
0.10653462
0.011425181
-0.08217103
-0.20063125
-0.036632176
0.030680116
-0.16191642
-0.15864357
-0.019184524
0.17567846
-0.082663178
0.050304223
0.11427526
-0.034153324
-0.026242942
0.062778346
-0.074122816
-0.18419667
-0.046535697
0.14726439
0.060789492
-0.051397197
0.083560497
-0.13399316
-0.44384351
0.31553602
0.1069793
-0.18235144
0.004784341
-0.054849312
-0.027232297
-0.071320973
-0.0029582952
-0.032614734
0.025051288
-0.0088943401
0.039408032
-0.031768832
0.00023824275
-0.085401148
0.12207225
-0.10588926
-0.10649281
0.098353401
-0.11042415
-0.031261716
0.034204189
0.097837411
-0.051344439
-0.049140342
-0.20470445
-0.45676303
0.23536737
0.16443932
-0.058554467
0.076819241
-0.20928326
0.0072472179
0.029480262
-0.029129906
-0.061469104
-0.058494516
-0.045928195
-0.15631528
0.048604976
-0.029493658
-0.030014405
0.044220455
-0.0099078929
0.023026729
0.032773059
-0.25057045
-0.026609488
0.094939232
0.15290937
0.070922203
0.045234323
-0.059655163
-0.39385214
0.047150947
0.10391308
-0.00039824398
-0.099372789
-0.070827477
-0.070632309
0.081895828
0.01427593
0.012773515
-0.079970412
0.070286691
-0.097095601
0.029866131
-0.11035861
-0.10034878
0.056034777
-0.015151897
-0.049492065
0.050297435
-0.083293565
0.030628379
0.027751444
0.1034647
-0.0012686724
0.0029404794
0.0096372487
-0.38470173
-0.052135184
-0.077629767
0.045259047
-0.038569801
0.013526994
-0.070835404
0.070442073
0.052043889
0.023184111
-0.076615997
-0.092993058
-0.010246259
-0.07817477
-0.12708123
-0.0044966759
0.001821878
-0.05933281
-0.17310393
0.045569893
0.063541934
0.059213933
0.024219628
0.023563752
-0.059344497
-0.031957202
0.3981649
-0.44159591
-0.48849332
-0.025735248
0.052089352
0.049881201
-0.016727112
0.079071313
-0.074350394
-0.21531245
0.035703938
0.043349896
-0.1782548
-0.092830084
-0.039754868
0.19700593
0.13366118
0.19860235
0.025851771
-0.012258653
0.21454206
-0.051028315
0.0054237959
-0.070221007
-0.17522655
-0.079447113
-0.1433925
0.29239199
-0.55812037
-0.051152766
-0.15561672
-0.031288147
0.019779067
-0.010806467
-0.082655124
-0.15307505
-0.021898158
-0.019776575
0.054565776
-0.18057889
-0.17278072
0.035931561
0.23643866
0.13124886
-0.10069374
0.062890388
0.038184881
0.11392798
0.013304764
0.020960363
-0.039866701
-0.091666959
-0.036218751
-0.21240169
0.1277568
-0.36239049
0.0073965318
-0.25158843
0.014311721
0.021193935
-0.034451842
-0.097886525
-0.016220408
0.030213492
0.0050541284
0.098459885
-0.039772164
-0.23522355
0.17970854
0.22098255
0.059633799
-0.13388459
0.078976691
0.026111549
0.033239335
0.056987319
0.065357476
-0.042979889
-0.10215006
-0.056228194
-0.31461433
0.00083974085
-0.13675833
0.085570745
-0.20590255
-0.08177451
0.0282983
0.12733109
-0.034916181
0.020560127
-0.098408692
-0.020136213
-0.047901701
-0.023315508
-0.21895421
0.07571917
0.19966222
-0.025395835
-0.1277723
0.022320829
0.029286442
0.16726372
-0.040838968
0.15084441
-0.12839
-0.069218494
0.016129328
-0.36889783
-0.075090781
-0.043735422
-0.040362984
-0.3388474
-0.096416958
0.019431191
0.17445554
-0.038251471
-0.035070453
-0.017238915
-0.041448392
-0.037152063
-0.029370647
-0.34364232
0.010891901
0.17326108
0.039595492
-0.12404125
0.0057970858
0.081532218
0.059118357
-0.08315257
0.13388765
-0.065573499
-0.020043774
0.070848562
-0.44896704
-0.2803894
0.14046536
-0.06504333
-0.50466579
-0.048211079
-0.025455235
4.8324451
0.18640518
0.41562575
-0.20714365
0.080420502
-1.4792495
0.012780818
-0.46910194
-0.18115436
0.13515332
-0.12108816
0.16767433
0.10410548
0.055722363
0.086114623
0.24933276
-0.13516474
-0.64538461
-1.9130816
-1.08689
-0.018989606
1.1892078
0.023852792
-0.0044639488
-0.045988731
0.092158593
0.025608866
-0.12924036
0.059812818
-0.0065732608
-0.066196196
0.032017477
0.075455785
-0.066494405
-0.033368185
-0.095714547
-0.08658696
-0.17676747
-0.10240571
0.0042637838
-0.039061751
0.059565935
0.017993608
-0.19837129
-0.18162978
0.021145377
-0.61635691
-0.1446519
0.24653901
-0.0028802226
-0.48655406
0.32195887
-0.23289873
-0.088210799
0.18312813
-0.04706119
-0.11164929
-0.070670731
0.30198437
-0.042822897
-0.18512778
-0.038993675
-0.0092979744
-0.20378755
0.026929643
-0.057075489
0.026860774
0.073023014
0.0030831345
0.14003161
-0.13568608
0.090213865
0.028975366
0.22202311
-0.47305918
-0.086630665
0.28245652
0.10591136
0.206845
-0.16987501
-0.038234755
-0.24250363
0.75862414
-0.061927866
0.16929778
0.10497626
-0.17795728
0.18993877
0.13476235
-0.17132685
-0.055975311
-0.13430667
-0.0067487424
-0.19797401
-0.093999214
-0.059066076
-0.1337329
-0.030715464
0.051636226
0.014975366
0.07798548
-0.47443688
0.31441161
0.23263912
0.32000712
-0.12147608
0.00069330074
0.19597769
0.09293732
-0.21106495
0.18179657
0.37588078
0.41977572
-0.047182404
-0.19091055
-0.1758526
0.033660691
0.14567104
-0.11447978
-0.15323855
-0.092643976
-0.0047151707
-0.1841574
0.068267211
-0.3067022
-0.02659646
0.1751053
-0.049420759
-0.45568702
0.24693988
-0.15459357
0.11492775
0.45459077
-0.329501
0.058398329
0.24796495
-0.086120293
0.070030503
-0.14402246
-0.038786508
-0.33656737
-0.10811616
0.19391371
0.048702721
-0.11231239
-0.22368801
0.0017025903
0.14614026
0.54585308
-0.25275046
-0.068619616
-0.15934172
-0.019052222
0.085622139
-0.050112896
-0.27146211
0.46374786
0.18997951
0.37341052
1.1494918
-0.13426444
-0.24126679
-0.11979998
-0.12235108
-0.038298
0.31996471
-0.12681621
-0.21865219
0.23127657
-0.0028137723
0.3150554
-0.16001932
-0.13155521
0.21943915
-0.26586199
0.084078558
-0.29806045
-0.2885178
0.1590645
0.12039366
-0.26236337
0.54210734
-0.47090942
-0.67225152
-0.22161557
0.0018047316
0.38782647
-0.0049921698
-0.24759455
0.2235181
0.075477868
0.031437334
0.3555851
-0.22559975
-0.028720986
0.071631871
-0.21494013
0.11756339
-0.067548931
-0.17030378
-0.16039288
-0.023968844
-0.097141832
-0.1731849
0.044120837
0.12605503
-0.088984318
-0.02989787
0.20536022
-0.46438655
0.80284357
0.62098879
-0.026344592
0.18793279
-0.40096274
-0.055113982
0.28278127
-0.020455511
0.14064291
-0.058227573
-0.10272893
-0.14765722
-0.057595924
0.48227993
0.083306313
0.0014920947
0.021711482
-0.080563225
-0.10651362
-0.017926542
-0.10405507
-0.088025339
0.048249088
-0.015055258
0.39688757
-0.19746135
-0.49460486
0.61908364
0.17179011
0.023054942
1.2756658
-0.55561984
-0.10993161
-0.15572931
0.08651533
0.03521321
-0.41424483
-0.23085794
-0.24791975
0.49460697
0.39501527
0.054180291
-0.085779011
-0.16295338
-0.13611451
-0.054726042
0.17820406
-0.33596811
0.020027535
0.82854331
-0.19746614
0.17728183
-0.21044521
-0.33175653
-0.03579966
-0.16131237
0.0017180871
0.70342976
0.041438241
-0.3169345
0.1853918
-0.028546629
-0.044580046
-0.0796085
-0.71451783
-0.12796152
0.51363772
0.41030687
0.4612928
-0.061170328
-0.24758999
-0.10426027
-0.17542645
0.045914609
-0.2300635
-0.09720102
0.67276102
-0.20777155
-0.44676316
0.34382251
-0.27862221
0.37845656
0.680197
-0.015154419
0.092796132
-0.07331264
-0.11536945
-0.15944438
-0.14440402
0.16037433
-0.20050877
0.23489188
-0.22271957
0.081196085
0.76283908
-0.29610553
-0.058043774
0.013233321
-0.18580523
-0.081307277
0.17611304
-0.075655118
0.14887507
-0.095505394
0.26835874
-0.56075364
0.45296067
-0.1953447
-0.038316235
0.47593462
0.0016275444
0.029988503
-0.24873832
0.071855061
0.14683031
0.070250161
-0.11707068
0.17890708
-0.13965927
-0.18595631
0.33389682
0.45746627
-0.024450803
0.10281482
-0.12432268
-0.29024616
-0.20483579
0.5844692
-0.18552293
-0.13377351
0.046747774
-0.2010837
-0.68411082
0.2291908
-0.092527144
-0.44885698
0.09689559
-0.0028674526
0.37315708
-0.22047552
0.14816163
-0.093559943
0.026932266
-0.15851636
-0.54143375
-0.037783068
-0.032408625
0.43938884
0.28254488
0.11940724
0.066820346
-0.15187162
-0.15171911
0.024587102
-0.2210172
0.14299193
-0.11664155
0.22696742
-0.18938132
-0.6611405
0.20165569
0.071609847
0.2699329
-0.21980537
-0.012909132
0.18892974
-0.078859605
-0.29635313
0.1514215
-0.1574177
-0.21612248
0.19319811
0.095197685
0.058529083
-0.19067894
-0.30354616
0.082655586
0.014079764
-0.17786123
0.10191291
0.14595442
0.17495406
-0.11111473
0.13526258
-0.12344012
0.049915995
-0.59628075
0.13327515
0.026722038
1.2134228
0.21935958
-0.0039419881
0.49784082
-0.12907612
-0.29016271
0.17829278
-0.045757573
-0.27383181
0.085387863
0.87472934
-0.29788145
-0.0099982498
0.25336546
-0.03854464
-0.24653198
-0.033215195
0.71363735
-0.29999301
-0.24775708
-0.22720176
0.15176766
-0.018015066
0.025473757
-0.21508676
-0.29388842
0.076369368
-0.18260589
0.16308278
-0.008366975
0.23895729
-0.0063915658
-0.10988505
0.058602776
0.12169068
-0.13815653
-0.1769722
0.43899968
-0.14142068
-0.40753904
0.098609895
-0.086805008
-0.053570822
-0.15344931
-0.18764393
-0.023424624
0.28926083
0.0028094188
0.097916
0.055525269
-0.066829078
-0.13051835
-0.39922771
0.099047929
-0.27397716
-0.57050276
-0.0053484174
0.16046184
-0.048325978
-0.13315447
0.19615397
0.43014324
0.016840309
-0.27455989
0.47824088
-0.096050628
-0.10493666
-0.32805821
0.071532831
-0.0033217361
0.18088804
0.14049383
-0.053346902
-0.14390728
0.34501681
0.01467739
0.01610942
-0.42087674
-0.1027099
-0.24521451
0.028090963
0.41431966
-0.2091184
0.17653842
0.32932547
0.19595438
-0.17677781
0.26536053
-0.042418361
-0.041063599
0.31938753
-0.57666749
0.040185411
-0.11611428
-0.17040277
0.37883911
-0.08285968
-0.29983303
0.61018741
-0.1259713
0.073617712
-0.17573701
0.01150511
-0.18535976
-0.18264067
-0.57957715
0.097513728
0.26610816
0.82396233
0.56177604
0.36199471
0.0087957885
0.08455386
-0.060255762
0.17906395
0.097925298
-0.14357843
-0.17325224
0.29487926
0.15168369
-0.2773951
-0.016488979
0.16239461
-0.10993275
-0.27846143
0.2398632
-0.077244684
0.022071211
0.051374335
-0.12729247
-0.16271736
-0.079988159
0.072920986
-0.419871
0.32266483
0.54896355
0.046893846
0.16193691
0.058883402
0.14141512
-0.032248393
0.53893608
-0.084220178
0.08833117
-0.037112352
-0.078204662
-0.17260765
-0.024415094
-0.16718407
0.19457899
0.0074597895
-0.24769183
-0.17256737
0.22458637
0.13803156
0.23047848
-0.077040836
-0.093905665
-0.3955155
-0.19157952
-0.37164271
0.25595543
-0.38281348
-0.33696976
-0.029659288
0.14826351
0.30333504
-0.15698776
0.32069486
0.059228387
0.0211547
0.068851233
-0.3340562
-0.01370247
0.067601442
-0.10247516
0.19352046
-0.0051156799
-0.22493941
-0.14596967
0.1607924
0.079979762
0.086836822
-0.17946048
-0.18177719
-0.22242025
0.13678901
-0.58003318
0.15973476
-0.74690223
-0.46506763
-0.023347648
-0.2233023
0.056358479
-0.18695237
-0.012045183
-0.29213211
0.054130655
-0.21580563
-0.23932174
0.008984156
0.14740077
-0.053557899
-0.12060073
-0.17363705
-0.096432604
-0.21342868
0.49400824
0.065753996
0.29204345
0.12689355
0.06564866
0.20340838
0.061991893
-0.47735596
0.096917719
-0.77682024
-0.42913908
-0.0072789541
-0.11559974
0.11642712
0.075086765
0.1892269
-0.15568875
-0.14070539
-0.021128574
-0.37263286
0.013437975
0.90726638
0.081808344
-0.18978108
-0.0083793262
-0.1801558
-0.075624682
0.16405092
-0.16184938
0.36666244
-0.15389214
0.034192275
-0.033066127
0.16503336
-0.52608162
0.035706364
-0.54009384
0.022002283
0.013372961
-0.079600364
-0.022623135
-0.029755032
-0.041465085
-0.058686461
-0.026519526
0.031447474
-0.26586047
0.25495979
0.26434767
0.27404666
-0.27121398
-0.036954463
-0.21286933
0.1036858
0.10438734
-0.11724264
0.093614362
-0.0014469634
-0.079929732
-0.0014627943
-0.30551881
0.22659396
0.026762424
-0.1359819
-0.42288899
-0.016815027
0.69970095
0.24332388
0.41535178
-0.052242275
0.084212288
-0.017094607
-0.01699879
-0.98853707
-1.2054101
-0.68021142
-0.64983106
-0.086473696
-0.09605255
0.1461475
0.45581979
0.15329985
0.8564828
0.87755555
1.2420694
0.98419273
0.90668696
-0.55612475
0.22208072
-0.062500827
-0.018635659
-0.083746418
0.0020474128
0.11046869
-0.20416273
0.20070761
0.072100818
-0.17395751
-0.37854883
0.096293196
0.028666003
-0.28500953
-0.13840674
0.2754496
0.47948939
-0.047158811
-0.012418219
-0.19929813
-0.090637825
0.012407509
-0.69919431
0.27192318
0.34224606
-0.43897787
-0.019967943
-0.26124373
0.20210092
0.18987703
0.016591156
-0.14468685
-0.23514953
0.13074572
0.103663
0.017851373
-0.040587761
-0.128708
0.061623648
0.20133117
0.0059825997
0.12137026
-0.039574672
-0.1452035
-0.13377993
-0.069559991
-0.09074527
0.10849804
0.21513443
0.018036406
-0.5488075
0.42849723
0.111079
0.018811822
0.11171798
0.071953066
0.23154168
-0.11922249
-0.025669724
0.10516248
0.10708366
-0.052530602
0.19725884
0.06879615
-0.37638837
0.080636561
0.32668966
-0.051884703
0.14408734
-0.066599607
-0.16345392
-0.2373056
-0.091531105
-0.0036660186
0.013691231
0.17233244
0.0016106067
-0.57523227
0.020160832
0.52504575
0.43709582
0.13257089
0.0056921868
-0.088103607
0.0055070138
-0.022206379
0.079761006
-0.017087786
0.40112227
0.19204944
-0.34371015
-0.26091161
0.25878051
0.099018514
0.0045250296
0.06605649
0.078724131
-0.37063473
-0.12930974
-0.031666059
0.088221431
-0.011557649
0.17865215
0.10580559
-0.27182859
-0.4091107
0.76231194
0.45630887
0.15337354
0.016596779
-0.12526216
-0.1417442
0.07103648
0.1645
-0.011421276
0.12891169
0.27427238
-0.45548046
-0.26790664
0.32655197
0.40292832
-0.14511684
-0.030396277
0.022412002
-0.12850201
-0.073509879
0.007302931
-0.14260577
-0.074878454
0.20326659
0.069436744
-0.12662472
-0.62693691
0.848571
0.65051025
0.014007701
-0.012027664
-0.17161448
0.16572051
0.023338528
0.5986051
-0.1167632
0.22033918
0.74371874
-0.20309913
0.086159095
-0.070560418
-0.030460598
0.099076048
-0.1426319
-0.13902794
-0.1778625
0.21017307
0.011632532
-0.095345296
-0.38347554
-0.12392604
0.11741105
-0.14377967
-0.66238362
0.82187641
0.8543492
0.17710224
-0.0029680675
-0.26394194
0.065804258
-0.20778419
0.076628566
-0.1722531
-0.005907129
0.27203739
-0.3573257
-0.23580502
0.65744036
0.34061539
0.0577434
-0.099654578
0.10411578
-0.11864492
-0.015194631
-0.035886027
-0.1158246
-0.031628732
0.18069747
-0.073844813
-0.033446364
-0.62781048
0.65931791
0.69200003
0.48842424
0.0041963151
-0.14457002
-0.073046155
-0.14458421
0.01982753
-0.15848245
-0.10071033
0.23874433
-0.34407344
0.18152466
0.13962604
0.23283859
0.0054189661
-0.0084544318
0.17889732
0.1046712
-0.035180926
-0.0095799975
0.055585895
-0.0435909
0.097367674
-0.092338756
-0.13784167
-0.57672274
0.6649546
0.82117921
0.13229311
-0.029147509
0.22688387
-0.21634474
-0.13353109
0.040064827
0.17568475
-0.0028801358
-0.068416953
0.21137045
-0.12900931
0.046691418
0.29815295
-0.098801397
-0.14922003
-0.015642075
0.11643706
-0.28092286
-0.056999993
-0.0013114896
0.0089841997
0.36003372
-0.20276642
-0.18364456
-0.55052972
0.62016559
-0.11039635
-0.24662346
-0.028192693
0.13791925
-0.076732665
-0.10297222
0.29800588
0.15023729
0.022016238
0.0030561704
0.10208995
0.09780997
-0.094505101
-0.063754655
-0.039212648
-0.1192277
-0.054458905
0.011909154
-0.12637623
-0.063008763
0.071642794
-0.11743753
0.15882093
-0.12337811
-0.38922325
-0.26881531
0.37374413
0.12485391
-0.054095216
-0.029050315
-0.27493572
0.16272479
0.038595878
-0.072620839
0.24466892
0.035433177
0.03619102
-0.13948038
-0.059474863
0.010062251
0.090257972
-0.086658105
0.052721698
0.30181918
0.11930805
-0.12024079
-0.16506734
0.02338835
0.47557491
-0.31596038
-0.040186904
-0.23500268
0.57359219
-0.64656061
-0.054527871
-0.2136887
0.007556932
-0.13942045
0.0040426808
0.42990923
-0.017518967
-0.12461945
0.043833215
0.026226468
-0.073511407
-0.081940264
-0.015012237
0.085374989
-0.1497989
0.1478751
0.29902729
0.10455122
-0.32020462
-0.1060237
0.024447994
0.53846925
-0.20935225
0.088507861
0.024061797
0.1421545
-0.44939151
-0.19508377
-0.26678875
0.018578408
0.21549055
0.12012253
-0.012435091
0.13802992
0.11130811
-0.050841957
-0.067072749
-0.34573594
-0.053396221
0.027827429
0.03689795
-0.081987418
0.059973236
0.12387834
-0.05590095
-0.27968499
0.045023967
0.044220399
0.098011374
-0.085995123
0.047417499
0.19416855
0.011435819
-0.57575923
-0.41781157
-0.64973646
-0.022151813
0.033177532
0.010338617
0.076244466
-0.10301901
0.043950655
0.031136444
-0.11869507
-0.0093524968
0.046686139
0.12872045
0.077710882
-0.03187957
0.095844261
0.12523077
0.1439932
-0.22911903
-0.29836041
-0.001067174
0.11123557
-0.25797057
0.13008581
0.31354877
-0.085706674
-0.67143077
-0.052856132
-0.33907539
-0.0023282638
-0.056944884
0.23058885
-0.2273699
0.15059446
-0.011360642
0.00029841351
0.071373053
0.047061015
0.3748486
-0.13211504
-0.3933312
-0.095731094
-0.051790696
0.068855256
0.62440985
-0.16064008
-0.44267818
0.368774
0.30941379
-0.47088349
0.19648539
0.11207408
-0.11422056
-0.52410358
-0.0057175322
-0.32517213
-0.021004023
-0.021175938
0.099766903
-0.23077163
-0.16269577
-0.090044133
-0.021348629
0.0066459929
-0.17120479
0.30371356
-0.044765804
0.1950268
-0.079361349
-0.049992241
0.082663424
-0.21717918
-0.10724178
-0.0076804366
0.39584231
0.19338113
-0.060324863
0.31679076
0.24279064
0.11228261
-0.67894602
-0.3890737
-0.46464351
-0.19920148
0.1541779
0.40431064
-0.063394293
-0.0068448908
0.35237408
-0.0094196089
-0.30490988
-0.033651732
0.056349043
-0.039208364
-0.14161709
0.038943671
-0.051236488
0.038911451
0.042068593
-0.15912578
-0.20797336
0.35568428
0.10841897
-0.088556334
0.080948345
0.46074951
-0.06672474
-0.94625115
-0.27683824
-0.67615038
0.083216868
-0.14200348
0.36882609
0.084396705
0.070925832
0.017512893
-0.0086167715
-0.10350384
-0.15146583
-0.011692901
0.068644769
-0.15073882
0.15803882
-0.030861691
-0.008172607
0.42053545
-0.069459498
-0.046464406
0.080083348
-0.16151723
-0.11969374
0.086978577
0.11983158
0.21187018
-0.80022383
-0.22348784
-0.26664168
-0.068455562
-0.20683652
0.30145234
0.061198175
0.044285715
-0.010020984
-0.18155846
-0.11655916
-0.073800296
0.23693591
-0.057562128
0.03411651
0.076209851
-0.079684272
0.12443391
-0.029529838
-0.13993466
-0.12324519
0.31625375
0.26849511
-0.012693294
0.33016095
-0.014642254
0.42549568
-0.57251549
-0.20460255
0.081637993
-0.46482915
0.14833736
0.18200165
0.29089308
-0.017102212
0.055358555
0.060131393
-0.071504869
-0.10640583
-0.059273116
-0.19782707
0.031161018
0.068099193
0.061527267
-0.091663375
0.08145947
0.066706769
0.091181524
0.0024928129
-0.074214585
-0.3164503
-0.040431879
-0.29288885
-0.19409375
0.22861432
-0.12993592
0.26814049
-0.0021074575
0.18739367
0.12348791
0.097943999
-0.23606673
0.037875012
0.12429249
0.11830128
-0.24575892
-0.070546173
-0.024900731
0.055251811
0.098622404
0.13050249
-0.12537776
0.030900624
0.14340059
0.060196664
0.023752553
-0.27228123
-0.13696876
0.01517174
0.0032692691
-0.17227282
-0.0034767676
-0.11299776
0.24953392
-0.005307253
-0.084585473
-0.023852199
-0.0099134911
0.052471232
-0.24086182
0.056533802
0.00043532936
0.35209775
-0.10616796
0.16527626
-0.087716915
-0.021124799
-0.025357433
-0.036354713
-0.02851532
0.037695028
-0.081594944
-0.019524187
-0.082601801
0.11799673
-0.0033870519
0.21604404
-0.19612946
-0.14836451
0.2183187
0.086937554
-0.000601871
0.089201331
-0.1849578
0.0078292852
0.17451276
-0.14540046
-0.096579134
0.029348714
0.62408382
-0.14508611
0.22721301
-0.14717752
0.023865098
-0.057474885
-0.1169381
-0.033762217
-0.12981078
-0.11952531
0.074220262
-0.051104426
0.1461542
-0.11068282
0.18436792
-0.0092624845
-0.43967795
0.27101287
0.11435143
-0.0012416216
-0.078041509
-0.056230508
0.18768838
0.026936984
0.16643912
-0.094619989
-0.084358558
0.78648138
0.016275432
0.095968649
-0.15709424
0.0064050923
0.23882392
-0.092680424
-0.07955572
-0.054220244
-0.21219391
-0.3123306
-0.083099492
0.14429644
-0.20220506
-0.071129575
0.62455595
-1.0341744
0.33997604
0.078566186
0.0077052671
-0.56603569
-0.032150276
0.82431757
-0.44386408
0.70329332
-1.3131515
0.0072069513
-0.22980766
0.1695471
0.073353417
0.08659333
-0.012144669
0.16031913
-0.13829647
0.16680086
-0.10449327
-0.8714425
-0.48879507
-0.63329661
0.029576484
0.55060071
-0.063436575
0.21608666
0.076591343
-0.0054586022
0.038366295
0.02785443
-0.10531773
0.10988254
0.09085878
-0.02197919
0.12244412
-0.01528517
-0.055675324
-0.0015230159
-0.1153594
-0.083686605
-0.2213299
-0.098256677
-0.02895382
-0.059636682
0.11151157
-0.13519961
-0.15469939
0.2362359
-0.21558723
-0.39329782
-0.22636312
-0.22857964
0.3387759
-0.61497116
-0.013000357
0.022184199
-0.011444564
0.019913357
-0.028967965
0.0097047193
0.06310755
-0.049162909
0.0053688036
-0.037525222
-0.018993666
0.023348173
0.013832188
0.017029319
-0.012754747
-0.0013149625
0.027254563
-0.040403314
-0.024303408
-0.031056786
-0.023291482
0.035264753
0.026332328
-0.13782088
0.062680319
-0.024702376
0.060328398
0.073611662
0.064733386
0.0027635647
0.0097071864
0.013934261
0.034491032
0.02743981
-0.046008669
-0.035237417
-0.049877804
-0.010029788
0.056575455
0.0036838506
-0.0042078509
0.04858873
0.026095759
-0.011683389
0.0027060651
-0.0045391312
-0.029456694
-0.063170291
-2.8494123e-05
0.042355847
-0.06500639
-0.0072152941
-0.008700558
0.024959987
0.04382281
-0.0022910596
-0.056900948
-0.039680213
0.0092629055
-0.019101495
0.022607962
-0.015874658
-0.010169039
-0.014002634
0.030947536
0.057028711
0.033875085
0.0050042528
0.029197695
-0.0093928324
0.013453313
0.059208702
-0.031463321
0.025426222
-0.028285688
-0.091431804
0.077332236
-0.006432421
-0.0060315328
0.057632662
0.037452362
-0.025517508
0.05887913
0.036226984
0.028092312
0.013113748
-0.0053990902
0.017557554
-0.052388526
-0.010804296
-0.0091694463
-0.034910515
0.072578602
0.012751091
0.008290194
-0.019151775
0.0353043
-0.035818696
-0.010204931
0.019351693
0.0030995365
0.004944392
-0.11940851
0.11357382
-0.018653195
0.074120924
-0.014572405
-0.051424526
-0.023567779
0.075791299
0.00078341516
0.10937072
-0.10992349
-0.0024016895
0.027983716
-0.049518593
0.04630306
-0.010210716
0.0045537874
0.10930195
0.033912323
0.044108652
0.017048905
-0.021712294
-0.057551585
0.23357999
0.038112707
0.0086057587
-0.11161
-0.10541589
0.09617091
-0.011610693
0.2856524
0.090415739
-0.028029574
-0.014956085
0.027236341
0.010551726
0.12026262
-0.071942963
0.0064399121
0.027983867
-0.022643618
-0.020190727
-0.039672565
0.0024125304
0.0177595
0.01970879
0.015900882
0.042953417
-0.055157244
-0.023951977
0.036425404
-0.0423139
-0.035395753
-0.046612773
-0.08000382
0.13201292
-0.032008413
0.033503093
-0.027485473
0.005133911
0.002097155
0.035207085
0.00057903002
-0.035461351
0.0055444534
-0.047303535
-0.0041599115
-0.011953504
0.083927147
0.022000978
0.029326852
0.012335524
0.025209809
-0.0014648454
0.06492421
-0.062304918
-0.03682439
0.013190961
0.0071920226
0.015180174
0.031366903
-0.0473447
0.099329762
-0.050653342
0.012335182
-0.079462923
0.013830547
0.02389745
0.076410711
0.022583283
0.038243141
-0.0059813466
-0.016419843
0.043522347
-0.023414042
-0.010067167
0.010344026
-0.03354761
0.049670447
0.019132975
-0.034896348
-0.011359315
-0.017427454
-0.067077883
0.025244631
-0.04857295
-0.042055458
0.030415595
-0.011534143
0.064451016
-0.044145413
0.15094253
-0.048749853
0.0050971392
0.02754451
0.013944308
0.04707231
0.066133909
-0.070268773
0.028404821
0.057137169
-0.00077454175
0.017913172
-0.038820781
-0.054097027
0.049527042
-0.029829694
0.02054066
-0.024797374
-0.027880944
-0.010907066
-0.011788854
-0.039127201
-0.052614175
-0.016899347
0.0049074059
0.019489227
-0.063606314
0.087930068
-0.027086372
-0.0080563957
0.028761692
0.041359805
0.039793715
-0.006964487
-0.013571546
-0.02025817
-0.026918804
0.06405101
-0.0095487041
0.012969126
0.014721031
0.020061405
0.0029472092
-0.0029012414
0.0021736952
0.036778621
-0.046981912
0.0087342635
-0.045988187
-0.018147813
0.011498057
-0.16009362
0.10761761
0.054698102
-0.068466134
-0.097510271
-0.024461735
0.024927728
0.063451782
0.018451303
-0.060338404
-0.0044251001
0.019376401
0.011651138
0.018338185
-0.024386963
-0.063752696
0.022616636
0.027932337
-0.023836002
-0.015202692
-0.015712075
0.050205946
-0.016487109
0.042724259
-0.0018177303
0.02616776
0.050877366
-0.098461695
0.06492991
0.041425399
-0.011718689
-0.076011844
0.001875866
-0.0062965183
0.075139984
-0.018186906
0.00092446618
0.034316123
-0.013307904
-0.0063112769
0.0031372299
0.039161351
0.033077419
0.061527453
0.0056136474
0.02570748
-0.023269787
-0.01659577
0.020831101
0.021156892
-0.015661951
-0.0053803748
-0.015044845
-0.039828647
-0.11781836
0.011734938
0.015002239
-0.11113317
-0.093919076
0.005690584
0.037176561
0.0039499612
-0.031964008
-0.040977284
0.024798874
-0.023301527
-0.05629079
-0.064132079
0.054703824
0.042530753
0.043296073
-0.040935472
0.029801235
0.026147118
-0.0095207682
0.0048308428
-0.0095852083
0.0081481123
-0.029744744
0.031245762
-0.038574785
-0.034295861
0.055273429
-0.04612118
-0.094886601
-0.092399858
0.018174157
-0.011153108
0.13996206
0.09076336
0.0047965264
-0.049624629
0.15332671
0.020940032
0.043097347
0.20979357
-0.07452742
-0.030682877
0.14510719
0.0041177506
-0.0025561708
-0.033671342
0.01708211
0.0019189909
0.30263287
-0.0081468308
-0.096364647
-0.083843678
0.024949577
-0.0050808806
-0.076531291
0.31780016
0.050685536
-0.010489803
-0.0097355405
0.077455088
0.028995624
0.008120005
0.030620972
0.05354055
0.0042150356
0.043738253
0.051652696
0.026457056
-0.031855837
0.061310861
-0.0012549867
-0.03913701
0.033435047
-0.0054580462
-0.026521076
-0.00065953378
-0.058377519
-0.0337497
-0.014060057
0.0865933
-0.022072641
-0.070109509
0.045862962
-0.031801526
0.0035644057
-0.015396398
-0.0031450798
-0.0150297
-0.0023936746
-0.0021562339
-0.025967592
0.026183158
0.00012909064
0.037963651
-0.0095184734
0.044766158
0.0071224673
0.00064379734
-0.024635198
-0.010738959
-0.01907037
-0.022773918
0.018229119
-0.015464546
0.037537605
-0.016696351
0.065485314
-0.0088469572
-0.076166011
-0.03241751
-0.027918907
-0.082092382
0.01241593
0.082977459
0.028134987
0.02452518
0.017922414
0.027348028
0.0080004372
0.12458282
-0.00061240821
-0.032640118
-0.065112956
0.021128029
0.01240192
3.5335543e-05
-0.03140381
-0.0079156226
0.0040318328
-0.01469221
-0.0016137827
-0.019818602
-0.016054153
0.068448804
-0.09317296
-0.003158604
-0.022233175
-0.053949226
-0.084163271
0.010641259
0.020695975
0.02723318
-0.023479916
0.057695523
0.069181159
0.029988393
0.021763742
0.023918694
0.00047414104
-0.0022886195
0.0029340154
-0.007575368
-0.017640607
0.014732152
-0.057611059
-0.035845757
-0.018034074
-0.0031226033
0.00034589419
-0.047377039
-0.0085690999
-0.12032028
0.025051704
0.023745447
-0.082408138
0.01378285
-0.039800193
0.044483222
0.026175627
0.090102792
-0.017428188
-0.02689283
0.03626461
-0.011616792
-0.0081295893
0.026320111
0.023068346
-0.033547506
0.008105536
-0.0068206154
-0.039134718
-0.04803618
0.0018191275
-0.038961153
-0.03147053
0.040700674
0.070218772
-0.061856642
-0.046388514
0.010029478
0.030827766
-0.12348642
-0.0027167359
0.023417646
0.023473199
-0.0023735261
0.031759728
-0.030381629
0.0040297401
-0.013707467
-0.082055524
0.022207074
-0.014107186
0.0064087426
-0.05904071
0.039815165
0.015775556
-0.022602789
-0.011378177
-0.00056859304
-0.001532758
0.01080394
0.029495718
0.093334317
-0.10468537
0.097122781
0.00067180925
-0.057815403
-0.12112049
-0.018052619
0.048325684
0.011001554
-0.0059857154
0.00028698074
0.028532371
-0.025872599
-0.041957244
-0.039073374
0.050311841
-0.014228427
0.038936622
-0.010680485
0.01966279
-0.0018363541
0.011863646
0.010042681
-0.0085980864
0.026713282
-0.010409257
-0.017161397
0.070487916
-0.11664095
0.08702182
0.021523295
-0.042058658
-0.10221229
-0.0015938359
0.044027966
0.054351971
0.030879306
0.035048909
-0.030012004
-0.011072512
-0.039828323
0.28939655
0.034114107
-0.042688854
0.042731758
-0.018854434
0.012833646
-0.055014409
0.01517703
-0.040272966
0.015382219
0.0071884436
0.020195639
-0.0050976053
0.056143325
-0.10676946
0.08647985
0.020316157
-0.10774779
-0.18248843
0.022667374
0.041190591
0.016791115
0.01724435
-0.048474431
-0.030232493
-0.010114537
-0.019662745
0.20838216
0.031889103
-0.013273052
-0.026941542
0.042575389
0.0094650546
-0.012345988
0.018815244
0.04869245
5.1079929e-05
-0.00037039138
0.033582907
-0.016854214
-0.0048862644
-0.170724
0.047995634
0.027004195
-0.097263217
-0.058901604
-0.011587768
8.8554144
-0.10365783
0.14358312
0.095957115
0.092350103
-0.051135715
-8.5260857e-05
-0.032698706
0.14707893
0.47492355
0.078547217
0.017118592
-0.06004088
-0.070218824
-0.15229765
-0.025243768
0.39438093
0.1156022
-0.2412978
-0.33921766
0.018311419
-0.34232542
0.027115233
0.064007133
0.019528551
0.034509379
-0.0062196897
-0.033351704
-0.00058575731
-0.035818256
0.0081442622
-0.0063434606
0.011961046
-0.0022256188
-0.02902519
0.023981139
0.020045392
-0.042088177
-0.065135293
-0.024018129
-0.01892841
0.035566851
0.0032446175
-0.054831598
-0.043079302
0.067805946
-0.14334828
-0.49232242
0.14205898
-0.05526175
-0.24681683
-0.00060926465
-0.020865681
-0.067276224
0.056010518
0.14808582
0.1283354
-0.44172212
0.12883653
0.13839552
0.13184346
0.41965154
0.048163138
0.086253561
0.13699266
0.050668024
-0.046266533
-0.12785664
-0.041652132
-0.17012073
0.072837986
-0.27937716
-0.088894263
-0.2571758
0.40850541
0.27565846
-0.55115283
-0.17918862
0.35520831
-0.11105255
-0.040394645
0.044598348
-0.049379416
-0.16444398
-0.30870864
-0.065140955
-0.05723789
0.36691308
0.25821412
0.15347476
-0.015113311
0.26000822
-0.13156761
-0.049851276
-0.12896872
-0.14223127
0.033175278
0.1579953
-0.13332629
-0.01125796
-0.070699647
0.2510736
-0.044036426
-0.66398805
-0.28218314
0.21742004
0.042191774
-0.14409685
0.094946578
0.19317642
0.068170823
-0.24583147
0.068177924
0.12807274
0.032887567
-0.098451197
-0.094452068
0.023288243
0.17871366
-0.15082671
0.2286413
-0.063527659
0.04911999
0.090864845
-0.19316129
-0.12786061
0.21834917
-0.091613412
-0.051945943
-0.17217661
-0.69324744
-0.49288362
0.32570434
-0.094521858
-0.10371583
0.029168399
0.21805397
-0.17698391
-0.42026013
0.1660355
-0.15532286
0.23525052
0.37598914
0.094754897
0.021302793
-0.055715576
0.1853359
-0.055199184
0.07861571
-0.098039933
0.020515617
-0.17314377
-0.34022561
0.034474663
0.1410394
-0.12523219
-0.061247036
-0.80278075
-0.16209647
0.47909403
0.63587576
0.0063960087
0.16194622
-0.079054393
0.21770038
0.27537179
0.007685909
-0.098549969
-0.15629807
-0.050379317
0.48694971
-0.0060504028
-0.35296413
0.01942366
0.02754461
0.13077791
-0.49029112
-0.083917476
-0.59966803
-0.44409287
-0.1804025
0.32508522
-0.17515418
0.069046564
0.83898258
-0.0047894577
0.2543543
0.007493264
0.048227411
-0.24611826
0.16631761
-0.43318671
-0.15631473
0.25937769
-0.0021626703
-0.024436353
0.053170308
-0.054207567
-0.079981126
0.18262626
-0.28082743
0.10149277
0.31949323
-0.1527074
0.062944748
-0.0067484397
-0.21134543
0.39052835
-0.31871879
-0.12194125
-0.15075034
-0.85856664
-0.019913809
0.11210768
-0.15907629
-0.087653361
-0.26501423
-0.089624621
-0.03930258
-0.19971956
0.1787001
0.033194538
0.12639657
0.39089081
-0.12419299
0.011543701
0.023246111
-0.080041088
-0.18674561
0.21688469
-0.090686172
-0.020980684
-0.19305559
0.20380497
-0.041639205
-0.037031576
0.012376534
0.06280873
-0.63048542
-0.018051144
0.14736836
-0.13232976
0.032491531
-0.35675409
0.023023037
-0.19535796
-0.28462094
-0.021269927
-0.17000501
0.25353432
0.45337287
0.06327574
-0.12051947
0.084505893
-0.12982875
0.093241625
0.088897884
-0.45201433
0.017329505
0.15630397
0.28350759
0.30044913
-0.29572883
-0.023476791
-0.12737426
-0.54088825
-0.021839691
0.16250917
-0.16293021
0.11066759
-0.50139141
0.04796743
-0.12848537
-0.23163636
0.59159476
0.032460157
-0.098299183
0.23014103
-0.035851706
-0.14835475
-0.07995265
0.18210126
-0.0045290254
-0.10429323
-0.31190151
0.10198871
-0.042489108
0.26754749
0.40973577
0.029910063
-0.20480014
-0.078451492
-0.4053058
0.0093006752
-0.096219055
-0.080918275
-0.16783015
-0.17508367
0.09347745
-0.10537999
-0.1488391
0.40314487
-0.026072204
0.20572679
0.1254517
-0.031070242
0.14272106
0.016040996
0.18535402
-0.12482729
0.2400129
-0.041315895
0.068281226
-0.038332768
-0.73448741
0.19974501
-0.13630468
-0.15293862
-0.25533688
0.082700349
-0.027985176
-0.16875756
0.19203202
-0.14553021
-0.39141005
-0.16670139
-0.19441241
-0.23241092
0.45632884
0.017521756
0.41525096
0.07964617
0.036890004
0.29852241
0.26610476
0.10562735
-0.25608262
-0.20760062
0.11669381
0.057847619
0.16145907
-0.66237736
-0.21610549
0.0055910707
-0.042768173
-0.15912366
-0.017564734
0.027436765
-0.088664092
0.0005258462
0.028521162
-0.2181644
-0.0044241459
-0.42423505
-0.20641732
0.16358988
0.081720844
0.19606695
0.14746635
0.14464329
0.26969779
0.095850393
0.15462783
-0.21470177
0.022357771
0.13288236
-0.15006337
0.1822056
-0.65275276
0.44491437
-0.38733059
-0.12448823
-0.50406653
-0.070848443
0.0037653206
0.14904077
-0.17311691
-0.13863836
0.038888782
0.046431687
-0.11071239
-0.017154565
0.20643349
0.052786011
0.12343468
-0.08376772
-0.03907989
0.1830608
-0.062852614
0.10998548
-0.054678056
0.033442937
0.11657713
0.11449527
0.018017597
-0.53635597
0.25251999
-0.36416301
-0.014536505
-0.42564467
0.043367554
0.0224282
0.26920226
-0.077501468
0.27460703
0.17937498
-0.32158148
-0.043606311
0.19930585
-0.41785783
0.012800392
0.19295497
0.14854488
0.1279323
0.089071199
-0.090844013
0.3322849
0.013721334
-0.11273559
-0.29740658
-0.042867132
0.14958228
-0.69298196
0.013700447
0.16038722
-0.47410128
-0.96903032
1.2097727
-0.026044499
-0.10399882
0.13644116
-0.028608589
-0.16216201
0.28725877
-0.041354235
0.013461925
-0.021591861
-0.13357162
0.16083695
0.20353223
-0.24152833
0.11566401
0.16921492
-0.12092488
-0.14662464
-0.15808429
0.09375862
0.19730331
0.42524108
-0.53868866
-0.047363978
-0.016847853
-0.082625397
0.45432422
0.21538672
-0.070924595
0.15577529
0.20440541
0.15305154
0.040530846
0.062101793
-0.01198824
-0.10115919
0.041517604
-0.11072532
0.031711578
0.11578472
0.046368904
0.0081795817
0.020729538
0.17618454
-0.43879482
-0.17997551
-0.062100124
-0.023058027
0.0067801862
-0.15545663
-0.079636082
-0.32353052
0.18240573
0.18098137
0.022639992
-0.039408006
0.16650049
-0.042822957
0.19035521
-0.049040202
-0.026608398
-0.040675525
-0.14125586
0.099692971
-0.029520558
0.33555454
0.19749123
0.0085584754
-0.069007941
-0.11919659
-0.053983316
-0.5519293
-0.23218302
0.096344963
0.0011359093
0.10384848
-0.12224883
-0.3290548
0.057771254
-0.033480227
0.21764436
0.020737423
0.39907381
0.31207889
-0.26181102
-0.12078495
-0.15861779
0.13580488
-0.21769564
-0.21853812
-0.0082538184
-0.17583103
0.0080187777
0.11766592
0.016207704
0.12347943
-0.071200155
-0.24572635
-0.32370621
0.019024866
0.22719005
0.096533105
0.1648332
0.12742348
-0.063274272
-0.043121528
-0.35435805
0.4321326
-0.01075232
0.54045814
0.39934361
-0.25117293
-0.4486841
-0.17908145
0.16857384
-0.074565731
0.048652649
0.1191388
0.052316025
-0.068798073
0.32886171
-0.11224629
-0.0078161741
-0.25795513
0.18558758
0.083564065
0.51875854
-0.19641502
0.15601622
-0.26534104
-0.33318573
0.83274645
-0.3419337
-0.069816537
0.49912879
-0.58817238
-0.0077019203
0.18801326
-0.11798961
-0.21280895
-0.25376245
0.15906785
0.025309436
0.15499949
-0.070081495
0.070783027
-0.11214765
0.25658837
-0.23443405
0.018596562
0.036260597
-0.24351139
0.069699205
0.37134844
-0.28656781
0.075586028
0.12945279
-0.20262296
0.2751137
-0.223735
0.39754167
0.49756464
-0.29934633
-0.029711956
0.18192908
0.045340963
-0.15351817
-0.2722837
0.13430203
0.32949352
0.08650212
0.075893506
0.083227195
-0.01963768
0.13081136
-0.26783034
-0.11239396
0.19787532
0.028743764
0.39547613
-0.049116552
-0.36804894
-0.35687736
-0.14783892
0.030955896
0.36669967
-0.12381995
0.19350557
0.84012055
-0.06253317
0.012215392
0.2105155
0.032180097
-0.48061606
-0.14874034
0.0023662874
0.023073854
-0.10955352
0.50000238
-0.13936047
0.025305713
0.20029685
-0.14878523
0.026385292
0.44346306
-0.090565704
0.2117054
-0.21234572
-0.30251139
-0.096039452
0.034279853
-0.087269537
0.54050678
-0.10111023
0.0035427522
0.34431469
-0.19008654
-0.02464311
0.0062621548
-0.13114163
-0.46901348
-0.12673062
0.049283478
0.044036835
-0.14520213
0.61169517
-0.064315163
-0.066959493
0.078551508
-0.026705185
0.10465222
0.44264361
-0.1039521
0.02115608
-0.1014412
0.044460785
-0.029004989
0.1771256
-0.48365957
-0.12525031
0.11893693
0.5089767
-0.29700121
-0.19666141
-0.022612978
0.60155129
0.44160312
-0.67792875
0.049894556
-0.99174726
1.8835173
-0.026454277
0.80037677
-0.24063942
0.33086619
-0.0076610981
-0.17402005
-0.37693939
-0.020590711
-0.029358847
-0.04723211
-0.28943205
0.52643007
0.39811587
0.44458213
0.84151709
0.22688206
0.30505276
-0.025942745
-0.12391993
-0.095560275
0.010663543
0.058828957
-0.19134738
0.39381114
0.19251764
-0.25194582
-0.40806779
-0.0072095688
-0.056285426
-0.1436051
-0.036890414
0.30326617
0.5716055
-0.014394213
-0.09931884
-0.25006559
-0.32025489
0.73424453
0.010334878
-0.83376807
0.77485424
0.062770605
0.09170723
0.64917618
0.30597726
0.0018780279
0.012381635
0.015218411
0.011061979
0.0062271655
0.00097406056
0.018087225
0.0020338269
-0.018056111
-0.059209105
-0.0045116022
0.032402068
0.027459588
-0.037835199
0.019998863
0.017792771
0.018124852
0.015586941
-0.012646171
-0.042074446
-0.022642957
0.075390518
0.00029540274
-0.13722147
0.058037113
-0.038022716
-0.066253729
0.016047299
0.043051321
0.0030062022
0.0090901963
-0.0018896047
0.033229392
0.0074545671
-0.034107704
-0.015933406
-0.011653019
-0.023637265
0.0037822232
-0.0039846781
-0.021010747
0.0099972812
0.042583469
-0.0016017392
0.019624554
-0.0014288466
-0.023666266
-0.02868689
-0.0053824652
0.0024243009
-0.081389964
0.059667792
-0.024107706
0.060790565
0.0029969709
-0.012811606
-0.03551469
-0.028800756
0.0079645663
-0.029834358
-0.015564586
-0.044427242
-0.0016326263
-0.035289586
0.043621834
0.0011647406
0.021788701
-0.0069205542
0.015477151
-0.04737151
-0.029767392
-0.0064216536
-0.02140001
0.058489434
0.006055214
-0.1202998
0.061924923
-0.0002712975
-0.021291945
0.0078953356
0.052520115
-0.011294117
-0.017471422
0.016994102
0.0091404896
-0.020214124
0.023265226
0.0050237449
-0.083697319
0.020753251
0.0088731945
-0.0080256695
0.016934663
-0.021238726
-0.033506349
-0.037930828
-0.038883727
0.0049228193
0.028742803
0.023102587
0.073305972
0.021034356
-0.16481018
0.063922875
0.030588422
0.026607376
0.011786228
-0.12542687
-0.040707871
-0.039315354
-0.0020737322
-0.0057449476
-0.059180524
-0.005560128
-0.027729046
-0.048707016
-0.0305105
0.044860523
0.011211853
-0.0093355002
0.026267469
0.016521564
-0.0093762064
-0.04510076
-0.0094734877
0.068564557
-0.0020064341
0.055359077
-0.034621608
-0.18593608
0.078782231
0.020381358
0.24067703
0.067085832
0.014964221
-0.0075693168
0.021210471
-0.0064780409
0.015996108
-0.051792376
-0.0030427848
0.00046546836
-0.04597431
-0.03265813
0.025082316
0.020165967
0.0079109082
-0.020731855
-0.015355338
0.0082144374
-0.036937054
-0.024723034
0.021952847
0.011283104
0.013197737
-0.0099906819
-0.12294244
0.10624623
-0.041772932
0.055784151
-0.029041737
-0.020408474
-0.029928004
-0.026340524
-0.017782528
0.006433602
0.0084437337
-0.0065780873
-0.0234791
-0.054936945
-0.0025179107
0.012533094
0.012655505
0.029028671
0.02036917
0.033998396
0.023163926
-0.056316182
-0.047194649
-0.025145402
0.0070978813
0.013836157
-0.015627149
-0.07110133
0.045542184
-0.090005219
-0.039219487
-0.018078241
-0.025394298
0.0056013344
0.033470273
-0.01738354
-0.0088598281
0.004424179
-0.017639849
-0.0081382655
0.010644573
-0.021196989
-0.027898762
-0.025183316
-0.0058333683
-0.010271664
-0.0062948279
-0.006907769
-0.026769612
-0.042845678
0.018682569
-0.001919168
-0.010266327
0.0013926566
0.0080237743
0.015394112
-0.11265362
0.061938114
-0.048226852
0.011239574
-0.005009775
0.042313777
0.029089341
0.059105128
-0.0037227944
0.0065967459
0.055575382
-0.024039874
-0.019020569
-0.03653162
-0.011596209
0.0080947857
-0.026459517
-0.045174528
-0.026323512
0.01426231
-0.017944416
0.024105622
-0.0089763394
-0.0092698233
-0.030454887
-0.016753407
0.041319929
-0.091168314
0.099790931
-0.036352742
0.028488033
-0.015915692
-0.015061241
-0.01804555
0.020247482
-0.0037184963
-0.027560256
-0.0039959466
-0.0074203531
0.010376774
0.023939317
-0.024614992
0.003931873
-0.023331178
-0.019497793
0.0059581832
0.015557372
-0.0015258022
0.013716985
-0.012465697
-0.0010511606
-0.059804305
-0.15216784
-0.0058086687
0.089461952
-0.040560428
-0.07858786
0.004974185
0.00060061528
0.022572661
-0.019105172
-0.014372308
-0.0085560037
0.0033370748
0.021396525
-0.042922303
-0.025367349
-0.013278869
0.011055001
0.0018515285
-0.0069488529
-0.001394363
0.01328517
-0.0046631834
-0.025560729
-0.010555386
0.023445085
0.0067177303
-0.010464536
-0.09438701
-0.00060657092
0.061317015
-0.0048220567
-0.051546801
0.025015617
0.00043468256
-0.0014763149
-0.029621605
-0.020134604
0.029858418
0.0097208666
-0.0091637801
-0.037596989
-0.0041856542
0.019700544
0.044079382
-0.0066410024
0.011704866
0.016056826
-0.02157845
-0.018746482
0.0099590365
-0.014145797
-0.022094553
0.025326656
-0.055959508
-0.12317905
0.050460964
0.013053447
-0.033783201
-0.062758379
0.027660415
0.0061335522
-0.014169346
-0.0065413937
-0.012013886
0.00429748
0.0099983318
-0.038584832
-0.00052693818
-0.0023805501
0.033374477
0.0087081846
0.0093232626
-0.027448824
0.010653884
-0.0014977253
0.01358471
0.025974484
-0.0029605674
-0.015976025
0.013487273
-0.012337572
-0.053561226
0.045672841
-0.059162345
-0.037097089
-0.0444264
-0.0039136545
-0.040855005
0.03423233
0.032250412
-0.00022305903
-0.020859646
0.034764711
-0.021047471
-0.079835422
0.019957241
-0.019588806
-0.046885088
0.017946571
-0.005176764
0.029573552
0.0021681027
-0.014577815
-0.0086937016
0.069080554
0.008751953
0.014794762
-0.01703348
0.0028681904
0.0053109182
-0.10487512
0.21979111
0.021610197
0.0077122166
0.021757914
0.037640754
-0.011008085
-0.009166522
-0.031207088
0.032984465
-0.011252054
0.0026020599
-0.011498959
0.034300696
-0.0032777374
-0.00474056
-0.020477846
-0.03479125
-0.0099415155
0.0077150431
-0.032051574
-0.023936216
0.0003097342
-0.03434759
-0.057182007
0.047712982
0.072372787
-0.15002492
0.037492312
-0.018213887
0.05959402
0.023716606
-0.0020704956
-0.024602581
-0.0072932802
-0.018875258
0.014434799
0.032946706
0.0047176899
0.036995716
-0.005852229
0.031782165
0.021994447
-0.0083509265
0.0080157835
-0.031876467
-0.0061901361
-0.017283574
-0.013942838
0.017089026
-0.0060748016
-0.053709801
0.02923606
0.062446717
-0.1081145
-0.034102503
-0.012092602
-0.057722569
-0.026413273
0.018720608
0.024839144
0.0257973
-0.012243751
-0.014787734
0.029501956
0.021079594
-0.0096699856
-0.031915136
-0.039084826
0.0021667311
0.0054127472
0.020702796
-0.042944532
-0.0062085697
-0.005982148
0.009955233
0.006835666
0.022577982
-0.06244887
0.025310941
0.01180917
-0.067144953
0.014635925
-0.03709795
-0.11261746
-0.00079850532
0.040535044
0.045118362
0.016753523
0.015190233
0.0035110812
0.019813066
0.016166538
-0.014206553
-0.0050415457
-0.036875039
-0.012870017
-0.03131992
-0.05732495
-0.0062421523
-0.029302446
-0.012084909
-0.016061196
-0.0036764126
-0.036723733
-0.0075386376
-0.05244875
0.015617708
-9.3157825e-05
0.010866027
-0.032923806
-0.061952043
-0.011966897
0.027021609
-0.024445739
0.026410762
0.012304691
0.010519037
0.013986349
-0.0025788718
-0.012541167
0.020714968
0.026278842
-0.039447438
-0.018626129
0.010746474
-0.020651277
-0.040008243
-0.015299377
-0.0017833033
0.0048938543
-0.0066675516
-0.026490519
-0.055505626
-0.01075639
-0.078361236
-0.0048866505
-0.076031372
-0.0198124
0.0084600253
0.025197212
0.009557928
-0.036982846
-0.011748511
0.03309815
-0.018124986
-0.030109931
-0.0047430214
0.029847832
0.029561389
-0.004329443
0.016273104
0.012475117
0.010012371
-0.0038798349
0.0014617916
-0.0283517
-0.0067137084
-0.019728191
0.066610247
-0.065125607
0.028887564
0.0033314116
-0.049357995
-0.06910412
-0.0094657494
0.012544123
0.0062417174
0.010609522
-0.036026377
0.011216511
0.020312907
0.0025366647
-0.039572991
-0.0049911947
-0.004206989
0.031119617
0.0091702593
0.031921394
-0.015846813
0.015772734
-0.023122311
-0.038357858
-0.0085144108
-0.011410792
0.028974362
-0.051645231
-0.10212136
-0.023359524
0.002399852
-0.10924213
-0.057742927
0.024881566
-0.0038495755
0.027405787
0.00033296694
-0.0027091615
-0.029924413
-0.026856776
0.014214637
-0.016241809
0.005953263
-0.012304638
-0.025634129
0.021185292
0.011670501
-0.036562577
0.0079341214
-0.027702471
-0.037066553
-0.015660247
0.037709225
-0.0038218754
0.015071115
-0.078010865
0.001701597
-0.016477611
-0.088611901
-0.1382011
-0.00020847913
0.026256697
-0.0057657058
-0.0084490003
-0.015219772
0.01275827
-0.039132211
0.0049833972
-0.052678648
-0.016382312
-0.013769751
0.0030037032
0.03032802
0.034074321
-0.041946515
0.041166063
0.02867808
0.035810646
-0.02691891
-0.0089331921
-0.035447553
-0.0055961697
-0.085607909
-0.027876461
-0.0073176767
-0.033603039
-0.076251224
-0.0047283839
-0.15521449
-0.15351643
0.099690691
-0.014403111
0.019940248
-0.73737603
-0.028703079
0.02734952
0.094808124
-0.0012910846
0.070868902
0.01618021
-0.09622898
-0.021067541
-0.084690459
-0.023962466
0.063756153
-0.10647999
-0.10193941
-0.16525181
-0.1148707
0.0052573658
0.019570068
0.011548155
-0.026229093
-0.0064477269
0.013904817
-0.0030778525
0.00019109041
-0.035117682
-0.023567114
0.0091935704
0.028500941
0.000675291
-0.030266684
-0.016358493
0.0064718956
-0.077580348
-0.046940088
-0.020577667
-0.028865324
0.039223675
-0.030109514
-0.06135162
0.050306175
0.0007467136
-0.12446591
-0.25463182
-0.010265987
-0.085897885
-0.16893826
-0.095489815
-0.081404187
0.06627854
0.12129565
0.072983861
0.005647677
0.033380862
-0.16058013
-0.053604472
-0.26894534
-0.1659032
0.11376361
-0.056983031
-0.083795205
-0.086451307
0.010197307
-0.041053291
0.0047437651
-0.02213279
-0.20766044
0.38238832
0.28088719
0.20581296
-1.0900367
0.13840802
-0.37940577
0.30694947
-0.083803445
-0.035192188
0.0081963828
0.089565791
-0.032159775
-0.032620721
-0.08497037
0.021955827
-0.11009105
-0.20424275
-0.21985063
0.017725464
-0.015432661
-0.076276645
-0.078274384
0.091254093
0.046687718
0.051806878
0.035036977
-0.1215619
0.34176233
0.27576634
-0.12186781
-0.71733904
-0.15823601
-0.50667012
0.31577045
-0.04310488
0.04108559
-0.090003379
-0.078689069
0.022312669
-0.024231471
-0.05835668
0.12534353
-0.07261008
-0.23031738
-0.21149781
0.083798736
-0.025719272
-0.1089602
-0.050166886
-0.044518914
0.027974268
0.048058592
0.012029014
-0.12106752
0.44644848
0.22502559
-0.12111
-0.46958569
0.32588893
-0.3247121
0.58323532
-0.24414612
-0.092760608
0.029021576
0.015031274
-0.022597747
0.075536691
0.092059374
0.14764383
0.12195295
-0.20534232
-0.35450849
0.088624358
-0.055211008
-0.034502942
0.0326089
-0.20993991
-0.16812029
0.10007506
0.0862808
-0.09016706
0.35764709
0.048911158
-0.19116811
-0.22854286
0.45286253
-0.48391554
0.67149484
-0.23843634
-0.15936548
-0.037149429
0.012594083
-0.24452278
0.1453222
-0.014417658
0.056766752
-0.026374122
-0.14204806
-0.27325368
0.024182348
0.058283132
0.058840577
0.09394642
-0.19182369
0.041518543
0.36264193
0.039327629
0.060888652
0.28211239
0.22961907
-0.22896655
-0.11484804
0.90896928
-0.01412911
-0.0039550895
-0.061228812
-0.049990889
0.043691721
-0.099218875
-0.12682679
0.058484171
-0.0063153803
0.12089147
0.034450073
-0.059886824
-0.072768614
0.038078327
-0.039240766
-0.040438503
0.070661411
-0.18584812
-0.077685945
0.076587386
0.026625203
0.0039344383
0.2840994
0.22470774
-0.23108955
-0.14706917
0.15099855
-0.56422412
0.020477643
-0.12892199
-0.0024202524
0.099055462
0.045879301
-0.12279224
0.076560579
0.23484835
0.0011002416
-0.02349307
-0.080414385
0.018142533
0.011834771
-0.032579876
-0.086267442
-0.0064964592
-0.13831264
0.024780087
0.023308437
-0.029169537
-0.03611533
0.23842724
0.19906896
-0.2814135
-0.047796953
0.4804675
-0.070198908
0.0016937805
-0.030189911
0.066473313
-0.026548872
-0.022241637
-0.17398921
0.13002083
0.17206883
-0.067077659
-0.062072843
-0.11049485
-0.13595726
0.16266441
0.029071435
-0.017116649
0.065505438
-0.10317151
0.12225734
-0.056661941
-0.056587275
-0.10500965
0.21139762
0.092168838
-0.10024826
-0.08856035
0.26903984
-0.052362949
-0.0063502239
-0.068892963
-0.089300714
0.0011420767
0.0092629883
-0.049351595
0.060642961
0.085146464
-0.050587855
-0.15738407
0.015350325
0.035093844
0.051054787
0.041427817
0.06681823
-0.010465223
-0.083677039
0.13240454
-0.056303468
-0.041522171
-0.046217978
0.12967648
-0.0074957688
-0.051624037
-0.032033619
0.084611431
-0.15317167
0.003939413
0.076907404
0.12305599
-0.081326321
0.16348363
-0.15126777
-0.083298832
0.036002021
0.051229488
-0.19803011
-0.03366505
-0.076580606
0.048469506
-0.017945515
-0.13592352
0.050827947
0.070322104
0.040410105
0.047017954
-0.012351321
0.070985205
-0.19741769
-0.42319977
0.21846119
0.19891149
-0.26607266
0.21887134
-3.3401325e-06
0.054831244
-0.03741464
-0.1057263
0.36777043
-0.085361004
-0.1972279
0.086925209
-0.13105896
-0.11056509
-0.073931292
-0.05371483
-0.022563059
-0.066349432
0.030673949
0.023930799
-0.13083155
-0.081664756
0.12221881
0.14372623
0.19109076
-0.10264448
-0.41148391
0.24736592
0.25247416
0.079242587
0.17239098
-0.018118346
-0.12528765
-0.016301429
0.035615992
0.15025875
-0.049730916
-0.13106842
0.096698441
0.057563189
-0.069825605
-0.089435063
-0.067877613
0.027193276
-0.033457372
-0.022712085
0.017819153
0.044747304
0.061032493
0.066386409
0.056880832
-0.021583755
0.027019853
-0.28801733
-0.046815183
0.24595784
-0.17025749
0.2879802
-0.0036205433
-0.039546918
-0.074772641
-0.11444868
0.012006479
-0.11465974
-0.10398629
0.0064935768
-0.30514246
0.073837109
0.037612222
0.12658443
0.025362069
0.019460129
-0.069883846
0.1571559
-0.084712207
-0.04381486
0.017806929
0.12515782
0.25377214
0.067027099
-0.25496113
0.047572989
0.17803809
-0.0065665971
0.26452905
0.00018233864
-0.03946466
-0.27609813
-0.11642984
0.1403117
-0.31825122
-0.10196245
0.27070826
0.019633921
-0.19508335
-0.03215329
0.20323497
0.035820603
-0.06227297
-0.010887454
0.12475125
-0.037885647
0.021201745
0.03584747
0.04789177
0.093100466
0.15321735
-0.15446626
0.041290786
0.16457471
1.4202327
0.84149826
0.0056577283
-0.0025079348
0.041149158
-0.023647824
0.065108627
-0.11730569
-0.0083916737
0.32580245
0.12143624
-0.092241406
-0.21989667
-0.10835423
0.17496572
-0.091891721
-0.11849113
0.07080926
-0.021765582
-0.23841649
-0.044007238
0.029431975
-0.26241013
0.25609365
0.033469714
-0.12836972
-0.04407819
0.75566393
0.28708529
0.18143161
-0.22139387
-0.079982817
-0.055335119
0.032327786
-0.18161607
-0.10024531
0.1377283
-0.070067793
0.029096888
-0.10449259
0.0021926265
-0.025409758
-0.040460087
0.022371808
-0.049044367
-0.023359964
-0.02656942
0.042604528
0.21076357
-0.109475
0.2966319
-0.28414491
-0.19878817
0.065309845
0.25905418
0.16991071
0.21933787
-0.054756284
-0.11377037
-0.093277909
-0.071714684
-0.13378479
-0.11678082
0.048635263
-0.023591718
-0.12849376
-0.0047807964
0.016616674
0.021329435
-0.024156107
0.10151839
-0.21851042
-0.03263738
-0.1486807
0.091556758
0.1269699
-0.026579669
0.3602975
-0.44635832
-0.32116798
0.30222517
0.041860022
-0.19445579
0.22363782
-0.05200788
0.0037184714
-0.024688423
-0.016819188
-0.065369964
-0.032426082
-0.020675147
-0.2655327
-0.18150406
-0.016014466
0.13962795
0.06482558
-0.09810099
-0.023817217
-0.21641052
-0.067540556
-0.07232818
-0.059838533
0.046896737
-0.095195487
0.57403988
-0.47597718
-0.39988804
0.36575252
0.11371018
-0.10416035
0.24808618
0.099874474
0.044155341
-0.042609192
-0.12563546
-0.01458545
0.063193202
0.07714045
-0.1169071
0.097911216
0.034176826
0.059300561
0.015809545
0.045822266
0.03149984
0.14418739
-0.022337746
-0.1726843
-0.06025013
-0.1228666
-0.012581286
-0.016349202
-0.30807129
0.26030239
-0.12041668
-0.26962361
-0.4601028
-0.025158124
0.05864786
0.057958223
-0.10431015
0.006553757
-0.07797756
0.082006149
0.056625236
-0.10846501
0.097011477
0.035341773
-0.011044818
-0.028336553
0.050104279
-0.018321441
0.11036015
0.015922945
-0.051188745
-0.044793919
-0.12382436
-0.099004343
-0.062747553
-0.17296122
0.18418801
-0.05995629
-0.27965844
-0.28509602
-0.0080166748
0.057817783
0.10353287
-0.065518372
-0.077355884
0.0034222181
0.021087361
0.072371304
-0.23798442
0.043583639
0.087781794
0.1275579
0.0074632908
0.062323067
0.053194612
0.032125402
-0.0035861933
-0.012523237
-0.038561322
-0.034053255
-0.090337485
-0.1115811
0.051490378
-0.015800724
0.084725052
-0.29713708
-0.16854058
0.0026551399
0.071856216
0.049582567
-0.098117337
-0.16912301
-0.078462929
-0.011108316
-0.034722012
-0.52878308
0.0060963035
0.053130582
0.075266369
-0.028529752
0.028843515
0.11221378
0.18624547
0.080542736
0.16767246
-0.054325689
-0.004540449
0.13603367
0.038655553
0.067589469
-0.18640038
0.17870519
-0.32406318
0.051520728
-0.01219638
0.073204271
-0.018651715
-0.17730205
0.025262358
-0.06164572
-0.063255027
0.029963607
-0.53533483
0.047540929
0.061897412
0.11702979
-0.053083178
0.10088472
0.044347204
0.18987897
0.093882412
0.05175373
-0.068268016
0.043614231
0.15614983
-0.14741941
0.15048131
-0.35105339
0.094703496
-0.17396685
0.040378556
0.026095673
0.20972748
0.028615674
0.54000914
0.037591875
-1.5565377
-2.7740932
-0.029612768
-1.3122798
-0.30314779
0.071498781
-0.084255107
0.045702435
-0.08277031
0.18245946
0.085876271
-0.054892778
-0.0015793163
-0.14403436
-0.00037997024
0.059047792
0.26205963
0.29097348
0.016340733
0.025739161
0.0041033109
0.076993346
0.0085226391
-0.095550403
0.084444992
-0.045313753
-0.053821053
0.096774794
0.15396105
-0.07470119
-0.021800233
-0.02317605
-0.034176692
-0.22163327
-0.20424588
0.035167787
0.0040219249
0.088199325
-0.048666943
-0.015639072
-0.26894593
0.33425677
-0.62133294
0.098216087
0.28954759
-0.14188893
-0.70045239
0.0019830423
-0.011221477
0.018492011
-0.0017512732
0.01481794
-0.015092967
-0.0042339177
-0.058255374
-0.014362591
0.0038285214
0.0085218977
-0.020934086
0.0060469797
0.021092409
0.00073732465
0.0074046287
-0.026315266
-0.012124355
0.030793892
0.0085550277
0.00038322672
0.1073349
0.069447629
-0.094822846
0.10962386
0.035715587
-0.1631708
0.024015894
0.041985534
0.027623838
-0.0038459504
-0.028209917
0.045188174
-0.029939355
-0.0044352137
0.018749386
-0.023075562
-0.030831704
0.010421833
-0.0095145945
0.012682793
0.013817196
0.0012457657
-0.045551371
-0.02342166
0.017417889
-0.0059854691
-0.0065231593
0.018529475
0.059080437
-0.11801618
0.13011466
-0.019360075
0.046704099
0.01507498
0.019621002
0.0070737018
0.012400447
-0.017861785
0.019800486
-0.016124606
0.020985803
0.010998827
-0.0094473204
0.024873473
0.0021272616
-0.014879258
-0.012504505
-0.0099794315
-0.0018058072
-0.013307245
-0.032700021
-0.015683338
-0.051029809
-0.021936424
0.067514241
0.061532125
-0.0957103
0.004880175
-0.044527434
-0.32261789
0.04992009
-0.0041608969
0.017363584
0.025938319
0.0064804661
0.0028791935
-0.0077630933
-0.046537858
-0.0013396877
-0.03174923
-0.013111796
0.023108428
0.01046159
0.010461462
-0.013688176
-0.016788548
-0.041566961
-0.027208079
0.013874412
-0.015165839
0.02303018
-0.015059036
0.04159575
-0.015913229
0.093466744
0.0010422331
-0.469603
0.035696708
0.03445188
0.030125458
0.046544768
0.019967278
0.029912867
0.0026524512
-0.00094279589
-0.00021339071
-0.038302604
-0.046358973
0.0081168208
0.0019032171
-0.024083786
0.0062698978
0.03365472
-0.056178384
-0.063050039
-0.032888386
-0.029287037
0.0020397394
-0.028427985
0.06037163
-0.0441337
0.029402681
-0.074211188
0.009820235
0.010733891
0.02666086
0.0049592271
0.0059083994
-0.010952547
0.006549303
-0.0065476303
-0.0058704033
-0.026916638
0.0050471011
0.015005408
0.019457085
0.018912343
0.014171219
0.0031618064
-0.013702729
0.0092119714
-0.057711799
0.0064452845
-0.0092209019
-0.035035178
-0.070394218
0.012022333
0.043666638
0.031911734
-0.069413193
-0.009272106
0.064055458
0.014841376
-0.04508438
-0.014282732
0.022175513
0.024862567
-0.020963363
0.017160043
0.026187457
0.032992281
0.00068456394
-0.02702426
0.019137649
-0.044668693
0.012670917
-0.0014841709
0.028847761
-0.0034154512
-0.046235301
-0.026075019
-0.010823108
-0.088946186
0.017682176
0.097886972
0.016129524
-0.075396307
-0.0081980508
0.038805518
-0.019663971
0.00077435852
-0.055260289
-0.036596604
-0.011954458
-0.033440728
-0.0034925484
-0.0078933779
0.035209473
0.01208515
-0.04089335
0.0061115301
-0.012010968
-0.0022873222
0.034603633
-0.0010021986
-0.018679475
0.0011523829
0.033393133
0.0071382234
-0.10729278
-0.00032516086
0.12096754
-0.0093522798
-0.073834263
-0.0041134972
0.023178574
-0.013316662
0.013831747
-0.010291657
-0.044050019
0.013286387
-0.01844047
0.0054090386
0.040481154
0.017622959
-0.014071324
-0.012125175
0.017731342
0.018218117
-0.0049570003
0.0084659569
0.0014797064
-0.00098661939
-0.01125705
0.03041962
-0.0039358097
-0.11472771
-0.051222958
0.15167867
-0.087861575
-0.032171622
0.0057315258
-0.015959267
-0.0091419499
-0.014786576
-0.017276201
0.0059294547
-0.026470736
-0.027985984
0.016068205
-0.011436339
-0.031952772
-0.019347237
-0.029848332
0.028489141
0.017055213
-0.044785243
0.0077216383
0.022582833
-0.021409908
0.023860972
-0.0051576206
0.010027532
-0.033114113
0.013957944
-0.04855695
-0.0074928571
-0.022305911
-0.0035998065
0.0090764258
0.015437044
