0.073163979
0.14363889
0.037760273
-0.10189324
0.18862043
0.083406977
0.025926037
-0.049583916
0.10132572
-0.17247897
-0.15828307
0.016869444
0.060226914
0.1135029
0.066914119
-0.10407308
0.1038614
0.12161347
-0.079683676
-0.13960625
0.0096676368
0.50530261
0.46674621
-1.0849651
0.37923053
0.20432124
0.57672668
0.03129464
0.273987
-0.034993555
-0.079188712
0.19458769
0.10127462
0.017196419
0.082273416
0.50943589
-0.48886856
-0.1993214
0.21996771
-0.026507279
0.020958716
0.16976871
0.063902833
0.066193409
0.087374523
-0.046504736
-0.31356519
0.060020469
0.36816463
0.14184988
-0.64117235
0.095368139
0.24141279
0.47523713
-0.005180852
0.23519655
-0.038069963
-0.14435843
0.023879727
0.14824665
-0.08722502
-0.097232744
0.21982509
-0.22959627
-0.27348363
0.076480962
-0.044350456
-0.03593953
0.10601495
0.0527642
0.077838689
0.023409013
0.020220445
0.088939346
0.33347854
0.12353119
0.32439309
-0.37687534
0.41275895
0.25647357
0.56760317
-0.15367885
0.09550678
0.074082509
-0.27661142
0.013651984
0.094572663
0.15288384
0.28067863
0.12367636
-0.044644862
-0.21981484
0.018349221
-0.089339048
-0.010887405
0.15093763
-0.084267236
0.062874891
0.10322294
0.068677656
-0.09505859
0.33721066
0.034537103
0.36355925
-0.15876146
0.8690533
0.55029416
0.64725041
-0.062136289
0.0014341597
-0.076691888
-0.21916373
0.11227055
-0.045649119
-0.024470231
-0.069344163
-0.13073093
0.093534321
0.19677362
-0.21865855
0.16148022
0.51626742
0.024025857
-0.4599807
-0.29699177
0.46345562
0.29118979
0.044416316
0.29003054
0.1826947
0.086401515
0.42119363
1.3480355
0.13620919
0.022327602
0.087510452
0.2224385
0.020536158
-0.22996618
0.057295971
0.0064688171
0.13850573
-0.0058507677
-0.16312167
0.032878798
0.51813489
-0.045729045
-0.039129857
0.11148211
-0.01578494
0.034629457
-0.13251357
0.07137239
0.12707771
-0.090132304
0.32912973
-0.17388846
0.11846133
0.67433071
0.54247361
0.71568441
0.020989874
0.073708445
0.084163979
0.026092399
-0.031017816
0.15045215
0.0030206025
0.28925383
-0.045144603
-0.16424519
0.023891246
0.28494748
0.0012117013
0.058782384
0.20801736
-0.066904262
0.14951544
-0.012629884
-0.0392063
0.0037060154
-0.20682035
0.23981832
-0.11479733
-0.053332638
0.81527668
0.43771368
0.2762453
-0.0012442835
-0.019989645
-0.0014861559
-0.12192283
0.020007182
-0.080248319
0.17427087
0.094555691
-0.25985995
0.15351327
0.00086240051
0.13765135
0.010500403
0.18028647
-0.031221105
0.0060562962
0.23237906
0.030652603
0.0014738892
0.027441051
0.16378663
0.32191497
0.027789194
0.020500656
0.66393471
0.48357823
0.42254907
0.029357506
-0.20056836
-0.018417845
-0.022815136
-0.010569211
-0.012569365
0.046902351
0.19281332
0.40217397
0.042960268
-0.094438337
-0.012772697
0.050428443
0.037649818
0.1051779
0.14294836
0.050566368
0.062418699
-0.019284505
0.079315409
-0.036836632
0.15857139
0.38128245
-0.45607924
0.84721649
0.49831244
0.18650487
0.011162913
0.050997481
0.16975321
-0.38413143
0.20642363
0.022976827
-0.008279399
-0.11037546
0.36675963
-0.065070763
-0.028861597
0.028471714
-0.11771135
0.14422718
0.078658938
0.16393244
0.42351186
0.12539521
-0.024421465
0.16533487
0.13836053
-0.27092767
0.25609618
-0.80701685
1.1194347
-0.93866163
-0.1219993
-0.013379448
-0.011806137
0.24262108
-0.09297695
0.38689959
0.069657594
-0.0061493209
0.059859995
-0.036381468
0.053292979
-0.050226957
-0.073773026
-0.13866031
-0.10182936
0.27100006
0.21305268
0.32712123
0.12829973
0.11286834
0.093139738
0.063880503
-0.18049476
-0.22405979
-0.26051369
1.0197982
-0.30601108
-0.22335932
0.02619192
0.10557498
-0.041330859
-0.0012083643
0.27083918
0.22950485
0.0084831966
0.11172298
-0.21543859
-0.026692742
-0.091370679
0.1154816
-0.160923
0.0053683752
0.063587084
0.11210322
0.23210604
0.18250291
0.29703835
0.19074018
-0.00010533096
-0.28999472
-0.27643383
0.051124223
0.82147151
-0.70109338
0.17772132
0.0024374921
0.070530139
-0.0059294738
-0.013701914
-0.044629227
-0.031947143
0.018094726
0.17594178
0.22618107
0.099110387
-0.066016711
0.087876692
-0.039597441
0.025583923
0.24577357
-0.17615752
0.14426121
0.20145859
0.2313118
-0.073773406
0.060976423
0.047034893
-0.30287343
0.035307296
0.87585354
-0.055349708
0.12883775
0.021266935
-0.10566984
-0.1893117
-0.6796326
-0.53422433
0.53638273
-0.12999089
0.074610226
0.15968551
-0.046099983
-0.024678862
0.3901394
-0.30787507
0.19635493
0.78520119
-0.30646625
-0.072386891
-0.15976518
0.94849175
0.42062321
-0.14830419
0.061512701
-0.035689976
0.010124587
0.61397308
0.86529034
-0.28881848
-0.026724447
0.033873852
0.285961
0.020768607
-0.0052775722
-0.011029229
0.2424743
0.25232333
0.24469219
0.08992552
-0.30046189
-0.30706459
0.13257055
-0.061289053
0.12236817
0.031419225
0.20409201
-0.023192909
0.25164068
0.13840665
-0.41525477
0.21259463
-0.087701142
0.26601875
0.31115696
0.59172392
0.31571814
0.1855742
0.082792461
0.086827181
0.043284841
-0.21694778
0.058928423
0.078451782
-0.055562045
-0.0095196059
0.026193568
-0.15710573
0.070020266
0.053902075
0.049402833
0.25179857
-0.073588416
0.047314137
0.086832248
0.1474077
0.21793298
-0.20815639
0.39785478
-0.041889191
0.21276413
0.16996783
0.33563727
0.54405469
0.16413246
-0.21209113
0.15575276
0.0061108195
0.08231122
0.18238826
-0.063170932
-0.10638752
0.0066978936
0.14941783
-0.20465262
-0.1593917
0.088707954
-0.052499749
0.01717506
0.021812176
0.045192957
0.06675598
0.17398857
0.18501408
-0.13506399
0.54767752
0.16568309
0.36430472
-0.2335974
0.26475757
0.0076468377
0.3525767
-0.0041870517
0.13748564
0.14246011
-0.068683557
-0.069024369
0.18814696
0.030713521
-0.040806416
-0.0028628337
-0.074758522
0.1189675
0.25047171
-0.0020272066
-0.1879362
-0.14364275
-0.01521756
-0.12597042
0.023675788
-0.04189451
-0.18109828
0.64571273
0.35667461
0.34332284
-0.53882033
0.67399621
-0.20234317
0.44694591
0.049715355
0.092813306
0.12057661
0.034105159
0.33992019
0.147494
0.29486799
0.035696443
-0.0093141943
-0.0030328254
-0.22859506
-0.18063895
0.0804419
-0.098980859
0.19377203
0.18478473
0.065125309
0.11820978
-0.12313993
-0.061174285
0.16263734
0.37551194
-0.19731086
0.545591
0.059006721
0.0025343983
-0.027539318
0.035001926
-0.078573212
-0.17525111
0.027260218
0.41902307
0.12336717
0.23820774
-0.10400542
0.087327383
-0.0089704776
-0.05156295
-0.089657567
0.081624769
-0.0099015245
0.26703659
0.19545056
0.088497117
0.0036698321
-0.063689619
-0.14354731
0.23537691
0.32761547
0.12000652
0.21163318
0.0035274643
0.25276592
-0.023495445
0.057211891
0.047593288
0.0070114615
0.034859911
0.054070435
0.12470055
0.24316902
-0.1512166
0.26608375
0.055157673
0.058912165
-0.058495916
0.10100885
0.10190789
0.16635372
0.060844533
-0.043069802
0.024236811
0.01205633
-0.085013911
-0.035023957
0.41361371
0.049613785
0.21829879
0.079145163
0.3887538
-0.029135752
0.0079288548
0.18666106
0.028373297
-0.074667536
0.060503252
0.11047705
0.2403677
-0.42209119
0.094471551
0.096255302
0.19894581
0.034498207
0.018792206
-0.032593578
0.26168483
0.17689468
0.10026808
-0.23866251
-0.11339162
0.068182759
0.035361364
0.65094441
-0.23475352
0.21188228
0.05470591
0.41861287
0.0039683655
0.014329954
0.12082034
0.022923794
0.064152978
0.16084112
0.028032778
0.10731494
0.23549038
0.18817945
-0.060769945
-0.056106187
0.16470705
0.09308064
-0.039790045
0.15151112
0.10921387
-0.065536477
-0.059179619
-0.0031127371
-0.053109951
-0.14460607
0.61532152
-0.66741151
0.63693345
-0.057663202
0.28129807
0.0010579993
-0.64026433
0.081112929
-0.35013562
0.065450981
-0.60769874
-11.849448
-0.0050100666
-1.5325365
-1.1330469
-0.98537177
-0.091823161
0.49873665
0.26570579
0.15146618
-0.03844941
0.13323395
0.45335817
0.48631179
0.30744076
-0.064147808
0.1556678
0.19639958
0.14673521
0.2627379
-0.027258402
0.10157775
0.14156842
-0.041966841
0.21307559
0.10635258
0.079543635
0.083782956
0.13066477
0.0095175589
-0.022693915
0.0046084304
-0.03329704
-0.05561316
-0.023569865
0.029150106
-0.004725988
0.21059819
-0.31995657
0.3151933
-0.28364694
0.84439796
-0.075236507
-2.0116713
0.53047538
-0.17964038
-0.14436707
-0.13913627
0.041759245
0.1240438
0.25599718
-0.19821972
-0.042812157
0.054789618
-0.0031645482
0.44993091
0.069945201
0.50387549
-0.30576193
0.091063336
-0.075308025
-0.3868016
-0.052952487
-0.20547536
-0.004455003
-0.023752097
0.19256109
-0.97791535
-0.36093423
-0.18951203
0.42825812
-0.10710287
-0.77072954
-0.86061662
0.19685541
0.23653781
0.19439974
0.30148721
-0.079288848
-0.062093113
-0.031558827
-0.12976685
-0.018618278
-0.44509459
0.10545079
0.17026886
0.0030919891
0.093894817
-0.13423142
-0.22256792
-0.23208088
0.062492866
0.073843583
-0.066327639
-0.48313349
-0.1589278
0.11690908
-0.24413483
0.28975445
-0.61983943
-0.32066
-0.0761071
0.22496158
-0.066889785
0.10627931
-0.050570022
0.12043715
0.24986404
-0.010365522
0.29056904
-0.05645084
0.15827823
-0.093569867
0.013580173
-0.05083159
-0.16725698
-0.21535408
-0.37232909
0.41845107
-0.19124274
-0.32155466
-0.33377981
-0.17771134
0.031655606
0.094594389
-0.04862716
-0.65101796
-0.55101156
0.054043934
0.22426179
0.22193827
-0.068924159
0.057329826
0.0027599442
0.19470644
-0.22638237
0.082113586
-0.015590181
0.25001124
0.14683966
0.06025039
0.019498147
-0.20865715
-0.1015083
-0.35590765
0.13578552
0.0078495387
-0.10626618
-0.88100541
-0.17696793
0.197017
-0.036580689
-0.05181941
-0.40633854
-11.955525
0.39982989
0.25367355
0.26261443
0.26147941
-0.60229063
0.11791071
0.49523813
-2.6528981
0.088601172
-0.90111887
-0.48541322
0.0033972822
0.17429169
0.015371568
-0.39697081
0.079699002
0.20002243
0.010375958
-0.086438172
0.037676916
-2.9375329
-0.40139702
-0.14476265
0.1075764
1.573846
2.4000306
0.021721417
-0.16444628
0.25497302
0.055104952
-0.014937897
0.0040710387
-0.03092319
0.046502963
-0.34603935
-0.56648141
0.032667674
0.082664348
0.25466165
-0.072932608
0.020797823
0.063737445
-0.051451404
-0.28769279
0.11402962
0.1782089
-0.20764169
-0.73661959
-0.17922242
0.010440826
-0.33248529
0.14415732
-0.25246894
-0.02274861
0.34190217
0.42989352
0.0066750762
-0.0022314729
-0.099471077
-0.12306845
0.15460132
-0.16361603
0.14586627
-0.35722357
-0.11918773
0.046832599
0.021352187
-0.42677471
-0.021412898
-0.0015997194
-0.067132935
-0.078084432
-0.13004853
-0.33672237
-0.2245958
-0.65717971
0.42273667
-0.3562111
0.014575944
0.12508363
-0.016501961
0.022905333
0.16349579
0.12876756
0.1905506
-0.13553974
-0.085642889
-0.085565165
-0.18968667
-0.1563165
-0.059667367
0.051521137
-0.16527478
-0.17700547
0.00055068359
-0.55021131
0.2468453
0.20806426
-0.37470537
0.033792734
0.026226996
-0.18807785
-0.27535301
0.0060441443
-0.24742444
-0.41431168
-0.34554374
-0.0048507564
0.32737955
0.077880129
0.081003122
0.085636489
-0.66316628
0.13823813
0.044556808
-0.16095507
0.060105268
-0.14594594
0.021065209
0.15110366
0.04058592
-0.068559267
-0.056502592
-0.26927638
-0.35279459
-1.0274308
0.05042538
-0.060130522
0.088152356
-0.21821055
-0.11257043
-0.13544846
0.30469301
-0.16416198
0.01757583
0.10386445
0.25617334
0.011538429
0.22913352
-0.041219905
-0.15576735
0.13449371
-0.026361084
0.28627509
-0.17496951
-0.10656318
0.13961644
-0.12686886
-0.32562739
-0.27874094
0.25243333
0.036437627
0.040470835
0.00095500605
0.0019735207
-1.4446613
-0.37762657
0.050768204
0.017695762
-0.11616171
-0.4034752
-0.0043822122
-0.26536241
0.42704463
0.26514444
-0.00025096349
-0.18997687
-0.013565837
-0.015864668
0.08474829
-0.0027664646
-0.21321423
-0.017300533
0.18201108
-0.11037085
-0.17486611
-0.1608683
0.18903598
-0.059199132
0.41089588
-0.013393858
-0.27777556
-1.0007267
-0.038211621
-0.099093556
-0.28389427
-0.010754447
-0.43879995
-0.020228807
-0.01050752
0.4125067
-0.014074456
-0.26722285
0.07875292
-0.073982395
0.3633883
-0.045816507
0.25125268
-0.58764869
-0.12457499
0.07460057
-0.069374584
-0.055575203
-0.025469685
-0.048536543
-0.049778435
0.11968223
-0.021554643
0.012624726
-1.5575392
0.17433847
-0.097365811
-0.40404555
-0.20027997
-0.58217269
0.021405963
-0.023107281
0.2559033
0.10263293
0.086006626
-0.19824927
0.081858933
0.23186369
-0.29319742
0.69019902
-0.037534937
0.051516436
0.25529647
-0.20382932
0.090234727
-0.38684034
-0.24475513
0.050613116
0.067747056
0.04741874
-0.30001396
-2.5768619
0.096978456
-0.002889225
-0.44355214
-0.31986275
-0.89128375
-0.01781759
0.51682281
0.47307146
0.23370028
0.049453288
-0.57480049
0.24962467
0.36333877
-2.3859494
0.23687662
-1.0173064
-0.3680754
0.295708
0.12053157
0.12180083
-1.8437687
0.26284319
0.33236998
0.018430393
-0.40106982
-0.20325442
-3.8710043
-0.23498249
0.032012295
-0.053728689
0.92858738
1.6486832
-0.025031785
-0.35979027
0.30267861
-0.30698186
-0.033111162
0.01440407
0.069170006
-0.059491854
0.064407632
0.019039772
0.21357499
0.19790599
0.14650688
-0.15572974
0.12435082
-0.072567493
-0.16780782
-0.10551844
0.141074
-0.10354961
0.19306763
-1.2022853
-0.094824165
0.22741029
-0.18029074
-0.1261635
-0.91217184
-0.21307027
-0.07991793
0.41048601
-0.10849603
-0.02075981
-0.51534522
0.12311445
0.26276258
0.034040619
-0.039166667
0.065418623
-0.1143617
0.25616077
-0.054474246
0.034888137
0.068851203
-0.36170837
-0.13866052
-0.1311029
-0.091201983
-0.046297394
-0.33012593
-0.1462781
0.039939158
-0.072489001
0.20548981
-0.78856307
0.011596579
0.31478563
0.052472893
0.033735223
-0.09558221
0.016132988
-0.28034428
-0.68348956
0.15943012
0.021100262
0.048374571
0.068891577
0.15497051
-0.079497062
-0.095907576
-0.54989392
0.10199662
-0.072537534
0.12584421
0.095565438
0.020975441
-0.18253201
-0.1477987
-0.10218347
-0.07039389
-0.24038529
-1.3372065
0.35162821
-0.014363136
-0.025056142
0.12621227
-0.14369795
-0.038401902
0.079810366
0.11482483
0.22987637
0.17658699
-0.05215057
-0.031194318
-0.0010458372
0.017922372
-0.064859703
-0.14977746
-0.20541416
-0.012629056
-0.13698605
-0.0047891708
-0.12808312
-0.46058077
-0.16233113
-0.21910277
-0.28540936
0.35254669
-1.1115239
0.39861426
0.069032297
0.13421315
-0.73087782
0.29901651
0.012758125
-0.051920835
0.24077761
-0.42254052
0.087323159
-0.075415201
0.39021251
-0.07974384
-0.010938466
-0.1717526
-0.35042042
-0.056505278
0.24150036
-0.63549763
0.10644676
-0.21398455
-0.10718034
0.28975525
-0.19401959
-0.60646921
0.31766218
-0.23038396
0.029258011
0.028648702
0.12622046
0.13715285
0.33652955
0.0019901639
-0.086276621
-0.21123496
-0.047295611
0.047315218
-0.26440281
0.49553901
-0.15321188
0.065203167
-0.026625045
-0.86789328
-0.11229926
0.2421385
-0.24201837
-0.22707158
-0.16657194
-0.045677695
-0.065570891
-0.30619612
0.11806818
0.17908686
-0.26768452
0.027313843
0.36704546
-0.075139664
-0.064815655
0.054689437
-0.0030713836
0.10066734
-0.11328004
0.18280372
0.25754169
-0.49005467
0.4022252
-0.17734024
0.0081121055
-0.12534401
-0.10075192
-0.0067480598
0.033270817
-0.43477947
-0.034078628
-0.38665548
-0.16237208
-0.40334108
0.0081914924
0.21154913
0.13995275
-0.34511065
-0.010538719
0.50314772
0.062720507
-0.44253269
-0.37079209
0.0027327626
-0.034718629
-0.092996821
0.001152114
0.53448391
-0.14358556
0.31757188
-0.088338777
-0.16026618
-0.1491372
-0.18184689
0.027489338
0.059484582
-0.74595064
-0.045896091
-0.20219444
0.068142749
-0.25902644
0.018788718
-0.028721048
0.15522742
0.046164487
0.024343535
0.25298586
-0.064006552
-0.19320971
-0.094734803
-0.4022322
-0.10778965
-0.25579911
0.11140351
0.26486602
-0.034122076
0.084742047
-0.070122093
0.010649458
-0.010902538
-0.015673384
0.17652349
0.094409704
-0.72995168
0.050567556
-0.30260268
-0.096893109
-0.35245514
0.25604329
-0.37644392
0.19455811
-0.29239571
0.0057270289
6.8517022
0.95092356
-1.0030674
0.031342436
-1.1370872
-9.8981209
0.0073928772
-0.72673559
-1.0078397
0.28780267
-0.79268366
-1.2741255
-0.7997089
-1.1228603
-1.0214169
-0.90638357
-0.82644159
-0.21739525
0.03947629
0.14672174
1.2729249
1.1175735
0.16822568
0.26603439
-0.1453132
0.041679859
-0.076442242
-0.14696375
0.067848966
0.09987931
0.076198451
0.059855245
0.082910337
-0.19292879
-0.034918848
-0.08476682
-0.12914282
-0.22999576
-0.1200735
0.05337682
-0.050364036
0.096512578
-0.21432516
-0.58038205
-0.51857847
0.77322453
-0.83525574
-1.0742242
0.85237342
1.1441263
-0.8992821
-0.018719355
0.28802294
-0.033785701
-0.1801233
-0.025447598
0.063443556
-0.11424433
-0.49743402
-0.11389964
-0.013209213
0.029502044
0.18158223
-0.077740654
0.11661269
0.14379691
-0.044098645
-0.25278482
0.042270396
-0.033053096
-0.089365147
0.77105778
0.42035371
0.22816685
-0.89399052
0.58373487
0.14049076
0.72120994
0.063269533
-0.11439022
-0.20690553
0.019181201
-0.0014199909
0.065710112
-0.12684029
-0.4204151
-0.10622565
0.10721865
0.16110231
0.18930475
0.02756932
0.11246108
0.26174614
-0.13467453
0.013767338
-0.086757891
0.08910647
-0.0089275902
0.54135007
0.1932715
0.22435881
-0.26218989
0.0050164321
0.12269674
0.27843177
-0.08131393
-0.21710075
0.082279503
0.13610439
-0.16913505
0.12630829
-0.10908501
0.049394272
-0.044809513
0.036891624
-0.034287896
0.077659413
-0.071321785
0.067386329
0.27869543
0.21935783
0.08168
-0.14694929
0.016432919
-0.20138346
0.39921483
-0.048738342
0.10431686
-0.018024037
0.46946493
0.23387481
0.085081793
0.041428875
-0.016380798
0.072901756
0.055182356
0.017388944
0.09606985
-0.046392206
0.21366015
-0.047224607
0.090184882
-0.13421422
0.12028681
-0.068988621
-0.12229639
0.13396773
0.026186677
-0.15333639
-0.177375
0.20430294
-0.039090574
0.28191975
-0.15301538
0.061565146
0.028823102
1.1933779
0.34272477
0.93865359
0.13403426
-0.16215034
-0.25363308
-0.41916868
-0.5375545
-0.10569931
-0.28771758
0.0054599084
0.0830888
0.62575179
0.58951163
-0.035930254
-0.10665353
0.32846919
0.58682257
-0.41815227
-0.27242073
-0.54248852
0.41753671
0.23909138
0.45825246
0.2340353
-0.0038584506
0.11055917
-1.4235003
-0.35765976
0.0084263142
0.053583413
-0.21176846
0.046768956
-0.42590293
-0.051309887
-0.066674322
-0.28319314
-0.10628995
0.015695645
0.024085198
0.30232707
-0.033249259
0.098287016
0.22003682
0.22438338
0.043525957
0.22769909
-0.058737285
-0.057254605
0.28186455
0.23763651
0.27056995
-0.27986589
0.27121797
0.24368587
0.084011808
-0.017721102
-0.0064734155
-0.25746402
-0.097516865
-0.22304697
-0.09771812
0.0089911595
-0.14658636
-0.059405126
-0.1595826
0.21720284
0.1885521
0.16853634
0.034394249
0.20559876
0.13763694
0.053882558
0.065895647
-0.13391359
0.063697197
0.16963984
0.43216133
-0.01814626
0.28856409
0.13664387
0.74427706
0.024837995
-0.0032912667
-0.072949052
-0.009132877
0.14184631
0.075014725
-0.15342398
0.14442307
0.3768864
-0.021753998
0.055125594
-0.05700596
-0.17822064
0.24839334
-0.074877247
0.0024251398
0.19813502
0.058560759
-0.1508618
-0.1210354
-0.16762292
-0.13014476
0.36006692
0.073185682
0.34136191
0.076874591
0.81384665
0.30948615
-0.00047637714
-0.020208512
-0.088562496
-0.0037506693
-0.12221278
0.024103526
0.060481068
0.1041204
-0.23595057
-0.11491033
-0.13587858
0.27817285
0.32232746
0.031640027
0.026721163
0.13151605
-0.0081045823
0.033268072
-0.093417041
-0.03904286
0.040175233
0.26082465
0.35725999
-0.16591647
0.17031686
0.26559463
0.32330573
0.024810996
0.031775512
0.084328838
0.14917295
0.16518185
0.14592105
0.19165072
0.19418091
-0.035079136
0.04817139
-0.013391383
-0.17786755
0.0059045888
0.030470913
0.027686881
0.18260029
0.261695
0.13318895
-0.10798347
0.059296321
-0.25391081
-0.30218458
0.1787885
-0.14062622
0.28846166
0.03765602
0.069705024
-0.014469955
-0.38846084
0.13304932
-0.060154099
0.25748351
0.088131115
0.17436968
-0.020811221
-0.31528527
0.016958343
0.077910453
-0.0072258301
0.048676815
0.16701216
0.10409376
0.025045354
0.27869028
-0.0016940166
0.090466715
0.055457171
-0.047681149
-0.20177148
-0.034650128
0.62972111
-0.34053412
-0.19315603
-0.043164905
-0.0014801858
-0.061517891
0.078189395
0.041254822
-0.15591322
-0.003644472
0.11839413
0.032587543
-0.11722621
-0.076590605
-0.002743274
0.11513701
0.16099852
0.23713899
0.13370572
0.043933582
0.042779129
-0.075983353
0.00041508986
0.11412026
-0.022543849
-0.12510179
-0.0067983791
0.30050007
0.03463576
-0.036470745
-0.18462196
-0.027728228
0.1767852
-0.14712922
-0.024942571
0.20174451
0.16217962
-0.034572642
-0.14130504
-0.042058751
-0.15941824
-0.10643008
0.092295423
0.40001479
0.0062993127
-0.02962401
-0.23186915
0.22669621
0.43598726
-0.1452556
-0.21282193
0.2088526
0.093547776
-0.13768351
0.15949072
0.19995932
-0.041072708
-0.35020304
-0.0092557156
-0.4534725
0.50219846
0.22577938
0.13073656
-0.12534176
0.018867129
0.12571312
0.017862627
-0.14137505
0.29625201
0.39036515
0.35884538
-0.092723325
0.17389414
0.0025255401
-0.30204803
-0.46496195
-0.13368154
0.22992925
-0.040558629
0.090319782
-0.11935137
-0.0013102362
0.25449297
-0.29201695
-0.056894217
0.0052494956
-0.21473098
0.025171701
0.052605364
-0.35251066
-0.0043135071
0.0024046274
-0.12459889
0.019829137
-0.15195756
0.33755004
0.29272386
0.099366613
0.16862032
0.063471064
0.097547099
-0.13835792
-0.20893182
0.078085631
0.0061130156
0.41033152
0.21134578
-0.12293594
0.024421975
0.29947317
0.33289701
0.032235995
-0.0021750024
-0.084084421
0.10041611
0.033945102
-0.19481763
0.21270892
-0.033581737
-0.11218142
-0.16224015
0.25212434
0.033893924
0.28204742
0.2828941
0.0031100572
0.064265281
0.1797169
-0.28625309
-0.32709584
-0.016359108
0.065380201
0.13437535
0.24530283
-0.15732037
0.0038304967
0.27905795
-0.10486967
0.077528343
0.16192649
-0.044779621
-0.043219343
0.093392923
-0.11563517
0.070299312
-0.045028597
-0.096409582
-0.11988305
0.2344352
0.0080298763
0.13639992
0.14166613
-0.030696005
0.053902421
-0.068608843
-0.043789186
-0.1804195
-0.085968964
-0.084770106
-0.042731885
0.47508004
0.088363387
0.10813677
-0.25714338
-0.024678007
-0.18517335
0.56325275
-0.3338733
-0.01707251
-0.02476771
-0.096766926
-0.022117708
0.038481586
0.016896827
-0.07290528
-0.038857564
-0.11288033
-0.01040163
0.18987501
0.021547057
0.029783364
0.089058116
-0.081327736
-0.042690441
-0.081441157
-0.015212246
-0.04780012
0.74939811
0.45606846
0.33487692
-0.79648137
0.25374174
0.1491981
0.77918971
0.23893473
-0.055492703
0.071216635
-0.13722144
-0.0030484542
-0.035549492
-0.028740093
-0.11883698
0.083213784
-0.081291713
-0.020479655
-0.024062365
0.098352537
-0.1530131
0.53012508
0.1877663
0.11767088
-0.025669072
-0.0042695315
0.15589732
-0.15135615
0.21987481
0.12951794
-0.040968094
-0.099108465
0.070101373
0.023139788
-0.092501283
-0.090470567
0.30982643
0.11373664
0.065251976
-0.078185767
0.018543037
0.0098974071
0.08165139
-0.23318414
-0.10991535
-0.045465466
-0.055132616
-0.1965559
0.11398526
0.29817259
0.41037306
0.060901083
0.10144173
-0.088798374
-0.079145178
0.28221726
-0.38256639
0.32706633
-0.048509311
0.19379051
-0.028141139
0.17012946
0.072442427
0.16333781
-0.07843902
0.26220554
0.010499984
-0.15456659
-0.20382544
0.18966302
-0.17265271
0.10429429
0.071830653
-0.093891665
-0.12530696
0.30969557
0.20522688
0.17490768
0.0079580983
0.048812538
-0.081154928
-0.087601759
-0.23174341
0.32550356
0.11972447
-0.30043006
0.101198
0.0068886885
0.065338492
0.24519585
0.077994712
-0.10098102
0.18137199
-0.015032883
-0.15407078
-0.35435998
0.10739148
-0.1059226
0.15558964
0.15096071
0.038001079
0.022994528
-0.085615426
0.21557516
0.043659903
0.12409047
0.17811961
-0.030863602
-0.15304735
-0.21711686
0.37810624
0.21024111
-0.36772457
0.27771893
-0.0047629992
0.08134453
0.14817794
0.041718643
-0.089651033
0.00068513153
0.098686963
-0.019443305
0.12658139
-0.09954986
-0.064026579
-0.15386321
0.097126596
0.1009439
-0.10197125
-0.21866192
0.21117222
0.20888442
0.31289694
0.092123851
0.11331328
-0.2342892
0.3016693
0.1955663
0.064567968
-0.18317057
0.082559481
-0.024785111
0.32745227
0.44828907
-0.68622619
0.084267765
-0.61609626
-0.057129752
-0.012184122
1.7364186
-0.1047807
-0.32896167
0.80992651
0.21823873
-0.4677121
-0.021522362
0.16198103
-0.097219974
-0.28210181
0.16562749
-0.23593681
-0.2799463
-0.15871818
1.4112893
-0.022253389
-0.088131323
0.081356153
-0.14974436
-0.038595997
0.16487908
-0.15515928
0.1183245
0.07136336
-0.10894993
-0.18332191
0.16896105
0.038659949
0.031158745
0.10897787
0.21223249
0.17623314
-0.023201391
-0.007089417
-0.092690147
0.0036592868
0.6385054
-0.21587111
-0.14421329
0.80432039
-1.5709996
-0.11804433
-0.046089176
0.60756904
-0.39369801
-0.054807853
0.12333892
-0.066451795
-0.7836141
0.07524094
0.13081978
0.22988984
0.14117675
0.15768068
0.026273141
-0.42829993
0.04546465
0.14313439
0.14439708
0.060550474
0.013230774
-0.040904485
0.032004401
-0.12862542
0.039062977
-0.76575857
-0.65014178
0.97694123
-0.1950061
0.10357943
-0.096661173
-0.28458771
-0.48265043
0.18132709
0.25279406
0.029189998
0.13022077
0.1470627
0.023444606
0.47123426
0.17035206
-0.7172575
-0.8058539
0.080762707
0.050290432
-0.63971424
0.12009441
0.11743715
0.13933061
0.047869857
-0.15566835
-0.013056379
0.13131613
-0.0098419208
0.49287716
-0.141323
0.057290535
-0.1021971
-0.076792449
-0.36041424
0.2059717
-0.46920335
0.068445623
0.1467924
0.53748059
0.32170442
0.53900009
-0.21752483
0.11174659
-0.6263575
0.086656019
-0.043050576
-0.18289497
-0.086714879
-0.083467774
-0.03057741
-0.18415096
-0.48770556
0.099053428
-0.021026609
0.2893241
0.40241888
0.024679564
-0.098590046
-0.24295904
0.0050699799
-0.028724166
0.19429453
0.062269419
-0.11299445
0.12037029
0.24150245
0.11143354
0.12599583
-0.081919491
-0.056625381
-0.17187817
0.05204789
-0.18301487
0.14748545
0.17537971
-0.051471129
0.05248588
-0.92055178
-0.78218544
0.19440983
0.33028394
0.32427183
0.10104647
0.66849673
0.16778286
-0.50481105
0.25115004
-0.1641255
-0.034910973
-0.29388577
0.080581203
-0.044713005
-0.012376533
-0.30112094
0.11775276
0.071528368
0.24288405
-0.62838012
0.15593119
0.12029892
0.20405932
-0.14664158
0.075537823
0.014644938
-0.8126334
-0.082384475
-0.076222867
0.65447909
0.44115579
-0.68330818
0.093313314
0.67443937
0.02561981
0.14021684
0.15644056
-0.12627816
-0.11182331
0.1399736
-0.040845256
0.1150391
0.038891252
0.11292712
-0.51027203
0.2456384
0.0023785473
-0.031617105
0.094592467
0.43189126
-0.0049695009
-0.05607919
-0.11595196
-0.11201043
-0.42413399
-0.021796267
0.89184958
0.066805407
-0.36847138
0.40681943
0.15302125
0.023153799
0.071640506
0.2478116
0.045184799
0.05804088
0.075826794
0.12654988
-0.13322835
0.067676373
0.040228859
-0.50391936
-0.1601433
0.029674605
-0.041279458
0.13472843
0.067170329
0.015934909
0.13136828
0.0326223
-0.016718861
-0.41908884
0.036823828
0.68384814
-0.41054827
0.32279694
0.45966041
0.38992864
-0.02136573
0.262467
0.11857756
-0.31404239
-0.1505684
-0.021738479
0.1117085
0.017445225
0.138265
-1.3162396
0.24676034
-0.40533364
0.22499649
0.02215617
-0.11532978
-0.067330718
-0.018059649
-0.24211821
-0.12849218
-0.067957655
0.21548475
0.068171665
0.097257905
0.50815362
0.052998915
0.89410597
0.33954063
0.02081541
0.2426912
0.17033617
-0.48808143
-0.093232892
0.040555838
0.077481821
-0.050557926
-0.94240499
-1.2084695
0.087645181
0.22901075
0.12046901
0.043498453
0.010365465
0.037408881
-0.15753891
0.22017422
-0.27512836
0.19133553
0.090085045
-0.18112265
-0.77806622
0.48453903
0.55154008
0.0038600622
0.19494671
0.026362117
0.028427819
-0.23009314
0.037557732
0.42529339
0.074250691
0.15041497
0.16346122
-0.41198066
0.10276273
0.078536324
-1.0716146
0.11599249
0.049383324
-0.12288498
0.1310063
0.16771504
-0.10853976
-0.24540997
-0.66628021
0.17392841
-0.045703728
-0.23409981
-2.0817766
0.76213866
-0.012516618
0.066373087
0.010576259
-0.10911901
0.057934254
0.14366117
-0.35664725
-0.013398483
0.12895453
0.065369241
0.50105178
0.039310552
-0.12710844
-0.19916175
0.048058443
0.0017118182
-0.061723907
0.2209378
0.16903315
-0.0033727817
-0.24880433
-0.18829729
-0.67782605
0.17221655
-0.90621406
0.10422568
0.70629555
-0.20349218
-0.066895954
-0.01716144
0.072986506
-0.092087142
0.14063762
0.25464776
0.13607927
0.060528573
0.090040289
0.29102606
-0.60301203
-0.025351504
-0.64953035
0.14397511
0.035435364
-0.11540721
-0.030789901
0.14895679
-0.15057632
-0.18275522
-0.040939398
0.15202096
0.1307655
-0.37051439
0.49436539
0.26004523
-0.12931825
0.026602881
0.029036393
-0.094362162
0.068191245
0.0055180392
0.25153285
0.16242248
0.069342479
0.25364119
0.20481592
0.067131437
-0.74678004
-0.83796757
-0.36540937
0.045287788
-0.44302446
-0.058548838
0.25296044
0.24704415
0.029011169
0.14555256
-1.624359
0.078242801
-0.65117252
0.69085968
-0.31952813
-0.46775815
0.19390492
-0.022967234
-0.052936334
0.093858808
0.13021651
-0.30870962
0.14117496
-0.097666189
-0.38907373
0.78943288
-0.020414904
-0.78537184
-0.47794682
-0.85134166
0.03817375
-0.30451345
0.21777713
0.2179714
0.15026756
0.081352934
-0.0026053453
-1.0795069
-0.51002252
0.12031838
0.56373703
-0.78444016
0.12911034
-0.30806416
-0.0090477429
0.19915271
-0.64632785
0.02081383
-0.18246198
0.12967162
0.049862698
-0.44383916
0.33343861
0.1041444
-0.19527863
-0.38612768
-0.3469778
0.13894045
0.037513897
0.0016433479
0.14245288
0.11546814
0.047520604
0.066893697
0.058786035
-0.32585606
0.038204309
0.49525505
-0.27510849
-0.82651347
-0.47574687
-0.037139416
0.15434507
0.10687824
0.14188412
-0.046181653
-0.1934596
-0.048048645
-0.0014936207
0.18459848
-0.17091428
0.0039996719
-0.24704923
-0.12408347
0.050045997
0.11890344
0.24381687
0.25290161
-0.15111436
-0.052548375
0.030752782
-0.39687365
-0.25922713
0.67615074
0.30341965
-0.5240562
-0.036739759
0.19069785
0.31518579
0.063117012
0.16682918
-0.24826312
0.12038064
-0.73759586
-0.017495325
0.11112374
0.26963171
0.048963368
-0.028244033
0.0059921425
-0.091095395
0.079031043
0.062746316
0.32432058
0.089542657
-0.10410714
0.068995789
-0.087498255
-0.23787008
-0.28102574
0.17565294
0.25277129
0.41865143
0.035593815
0.2251792
0.14995736
-0.013976454
0.01658378
-0.091834269
-0.35882998
-0.27021456
0.11150557
0.0087886397
0.34364212
0.42396337
0.10826997
-0.06609761
-0.35254374
-0.026525354
0.20026688
0.20474702
-0.17791703
-0.13653542
0.32018161
-0.67952907
0.07391423
0.17068607
-0.32675987
0.23597026
0.79753935
-0.0037737456
0.21210346
-0.21917354
0.073502176
-0.012523382
-0.45103943
-0.23755267
-0.56325346
0.20118335
0.14469336
-0.36028674
0.098649003
0.12915477
0.23158003
0.25939822
0.032017887
-0.20835376
0.03438393
-0.62959743
0.140191
0.06945309
0.059406202
0.25021702
-0.28730568
-0.42631921
-0.40731448
0.78221905
0.16788161
-0.13781987
0.015233692
-0.13746406
-0.46440592
0.092783205
0.27240261
-0.1899378
0.039047271
-0.050768085
0.14753167
0.14261837
0.15416782
0.16392398
0.059210856
0.055230394
0.055712175
-0.055109747
0.083542794
0.043999515
-0.097440816
0.053662173
0.12282392
-0.20041464
0.14213593
-0.15593325
0.48304021
-0.20399642
-0.087394007
0.018191436
0.070274249
-0.024417322
-0.030173028
0.25972933
-0.39566383
0.057258639
-0.51427317
0.40912417
0.13778512
0.06713707
0.19385578
0.051271189
-0.0025314027
0.013722815
0.083294548
0.088242255
-0.41501552
-0.13404405
-0.12578836
0.13267487
0.022478053
1.0164338
-0.12663615
-0.33475167
0.33126682
-0.38160902
0.0081464117
0.19812965
0.064109094
-0.61787885
0.10285946
-0.02110382
0.052450985
0.020292558
-0.099982172
0.034361202
0.17356159
-0.017030379
0.1902696
0.087092757
-0.63956743
-0.07382407
0.26588315
-0.48919788
0.0079759294
-0.42025524
0.11463501
0.10986266
0.34344697
0.1126388
0.28708386
0.23791103
0.016815931
0.024717377
0.10206094
-0.26358211
-0.060895815
0.24722125
0.085808724
0.026649565
0.019826209
-0.59421319
0.078656554
0.041164976
-0.053391814
-0.0045821141
-0.12168186
-0.041402623
0.26747593
0.2572678
0.099265635
-0.089267023
-0.74869138
-0.0050731497
-0.16715755
-0.60890645
0.39965463
0.5337652
0.30691928
-0.18239167
0.011983629
-2.265929
0.16682103
0.1128548
0.063358672
0.31309149
-0.52504998
0.013147613
-1.8525456
-1.4766736
-1.9586568
-0.28027514
-0.2014945
-0.69075596
-0.51860189
0.11239184
0.18370064
0.35273531
-0.20990098
-0.01345204
0.1629497
0.46209782
1.7550317
0.090866216
0.11620744
0.025774674
0.072379313
0.0090461634
-0.017138207
0.18978535
0.12637427
0.028351689
0.18932365
0.15277207
0.083964892
0.018629901
0.065942742
0.13211095
0.0061675296
0.041569699
-0.134873
0.040798765
0.20630777
-0.77373493
0.20593055
-0.36532712
0.99829793
0.10430903
0.05328881
0.19165696
0.046632003
0.24632266
0.060569569
-0.049944825
0.050019171
-0.067081995
-0.046235826
-0.043455806
-0.067657351
0.0037504502
0.0071108807
0.019411488
0.05759111
0.045144673
0.11656751
0.04276026
0.059762497
-0.072260208
0.0088358317
0.0076428335
0.0069749542
-0.026219811
-0.015561068
0.17457403
-0.036214869
-0.31096631
-0.17491862
-0.17705497
-0.46729749
0.15001953
0.018517403
0.038697165
0.27508613
-0.0057208585
0.029105498
-0.012563972
-0.13533422
-0.1360947
0.00621014
-0.055492498
0.054453727
-0.03119811
0.011382559
0.028104957
0.082604676
0.070140287
-0.030656425
-0.034484021
-0.038131371
-0.13899846
0.0055679646
-0.1742512
-0.041825514
0.074520841
-0.18799138
-0.25398016
-0.018851554
-0.0072423471
-0.087253504
0.53844321
0.0029859126
0.065396644
0.16912286
0.054618739
0.015297153
0.11606735
-0.041905969
0.041838355
0.058395982
-0.037765559
-0.005073416
-0.050563961
-0.059570659
-0.19054696
-0.17728634
0.01149401
-0.092909992
-0.095081002
-0.1522731
0.017956777
-0.21421532
-0.088360623
-0.1415613
-0.023043338
-0.094704233
0.091545567
-0.029253403
0.078925118
0.0085551953
0.042656109
0.081107184
-0.092898749
0.19319411
0.20105647
-0.12584892
0.029267525
-0.066003315
0.052753199
-0.039695725
-0.096802101
-0.0025835107
-0.031726893
0.094203062
-0.072954766
-0.15577383
-0.10842301
0.0081889201
-0.32451612
-0.55495512
0.7888298
-0.32504296
0.15603255
-0.032074634
0.58655596
0.037425313
0.14468427
0.27371523
0.0060300487
0.53666377
-0.53722936
-0.39611426
0.40881777
0.032811835
0.22800191
-0.036476497
-0.1821804
-0.21422234
0.17041895
0.14734574
-0.599038
-0.16889462
-0.061913718
-0.17730603
-0.05491057
0.67782301
-0.35117599
-0.0046531879
-0.00370158
-0.11150968
0.02399626
-0.051849462
-0.040441439
-0.047730953
0.036967631
0.048977025
0.082970783
0.087064348
-0.074067049
-0.12276188
-0.053178053
0.055018559
0.064296402
-0.062692091
0.13150921
0.082334884
-0.040600583
0.029764205
-0.090593107
-0.18755151
-0.066315994
-0.015887015
-0.081095912
-0.42622527
0.0036565217
0.06077271
-0.029741362
0.018106295
-0.19418333
-0.085073225
-0.10309871
-0.11638851
0.16776974
0.17631097
-0.0070723998
-0.0031587929
-0.10149201
-0.058243383
0.13570403
0.079328164
-0.19082434
0.018705301
0.043870099
0.0076745809
0.077718854
0.063680016
-0.17959778
-0.15541022
-0.019541472
-0.24894638
-0.54669583
0.012071422
0.19259259
-0.025225913
-0.038877804
-0.058908075
-0.049350169
-0.055088129
-0.11359548
0.030441852
0.028925583
-0.049441025
-0.061193913
-0.125534
0.010436642
0.090123743
-0.033930335
0.093414128
-0.013492498
-0.023974963
-0.023277216
0.14141074
0.15585113
0.057928044
-0.1477028
-0.19107328
-0.26242617
-0.54415315
-0.009041829
0.070068948
-0.027201541
-0.029562831
0.0027586406
-0.016657192
-0.057277683
-0.13257885
0.12159387
0.022953318
-0.095483921
-0.056177594
-0.043098714
-0.060072791
-0.015006956
0.046425577
-0.021827238
0.057541557
-0.035571799
0.016791543
0.055899046
0.13192695
0.14576842
-0.053932641
-0.26180145
0.14549756
-0.32528296
0.023157528
0.19852583
0.090608068
-0.057520371
-0.10459358
-0.048226845
-0.090807654
0.16083179
0.11448127
-0.021764968
-0.078475423
-0.10574322
0.17321475
0.04198515
0.019107373
-0.068121202
0.040027164
0.0050103622
-0.040991858
-0.013920029
-0.071524538
-0.02684843
-0.20659693
0.24275595
-0.22670333
-0.20592263
-0.4034895
0.0043819817
0.036742732
0.080073021
0.0026359868
-0.049496453
-0.035720918
-0.041480724
-0.12007108
0.038274556
-0.0016859325
0.1613996
0.096976414
-0.067837447
0.015434601
-0.10939128
-0.10584666
-0.039606865
-0.025742624
0.04031558
0.0079324013
0.18747735
0.025112743
-0.27780393
-0.016413495
-0.038574263
-0.31310028
-0.68140745
-0.022390159
0.024107711
0.10054412
-0.060492098
-0.0025648803
-0.050730858
-0.14717713
-0.092802726
-0.048985414
0.026402185
0.030831525
0.061763588
0.021441132
0.046323061
0.051401727
-0.074394569
-0.06348148
-0.094355769
0.054226451
0.12418348
0.12149576
-0.071725324
-0.23101214
-0.067209274
-0.052067798
-0.21265346
-0.42210856
-0.010261565
0.14344376
0.0011366056
-0.058284357
0.2044384
-0.18078309
-0.0057817893
0.003314232
0.067438684
0.19095279
0.019116236
-0.038175136
-0.044174526
0.015984166
-0.055989452
-0.12910822
0.0093893278
-0.14126849
0.015398682
-0.10407449
0.067878604
-0.063594505
-0.23041871
-0.090776801
-0.065284841
-0.19430971
-0.58587581
0.00073519681
-0.17355098
0.21788667
-0.15450861
0.19602679
-0.082392126
0.014738183
0.33242193
0.035938308
0.53662032
-0.23980784
-0.35517469
0.18217506
0.068673886
0.25692236
-0.10392904
-0.15987302
-0.24149765
0.34051239
0.16557811
-0.39217219
-0.26098707
-0.13415003
-0.21031262
-0.024192039
0.5414328
-0.2318107
0.015825175
-0.14117411
0.032237817
-0.095999822
0.046905782
-0.0022892449
0.017798437
0.057718381
0.027960505
0.13752288
0.12545946
-0.035148561
-0.060961071
0.0029173768
0.038819253
-0.0087641757
-0.044588137
-0.13757578
0.074192874
0.070428632
0.071607836
-0.21493164
-0.060789462
-0.19032383
-0.18602695
-0.16160561
-0.31819651
0.054797798
-0.00050537632
0.075394303
0.066118427
0.02601332
0.027787372
-0.073730603
-0.051483259
0.12630594
0.030008707
-0.00061714475
0.030714151
-0.034216005
0.09668152
-0.012365804
-0.026562801
0.016559975
-0.1028716
-0.028220197
0.13028
0.075534873
-0.26070845
-0.045401499
-0.21069093
-0.17379066
-0.26184461
-0.19866894
-0.0095305946
0.08227165
0.09174341
-0.068174817
-0.16604412
-0.03982722
-0.1425122
0.028074041
0.071725421
-0.18312283
0.071953811
-0.015727289
0.024858501
0.025603781
0.1115873
0.35774398
0.030977998
-0.050578352
0.010825489
0.13739516
0.16508827
-0.13658687
-0.17110062
-0.10220458
-0.00028162586
-0.33367902
-0.23035915
-0.1106054
0.11085096
-0.031260919
0.095553577
-0.12681983
-0.062381011
-0.00029701105
-0.11654411
0.10193158
-0.10467529
0.10735485
-0.085010134
-0.0038713431
0.033539504
0.058559015
-0.08575432
0.04624087
-0.03587063
-0.0013470473
0.14639102
-0.008476139
0.031205742
-0.19713569
-0.17008203
0.080490261
-0.25595963
-0.24479185
-0.18286504
0.1571134
0.11105554
0.060655698
0.11192268
-0.16640127
0.014238317
-0.02214789
0.09326233
-0.027606873
-0.024173316
0.0076135406
-0.04574405
0.045321457
-0.058404557
-0.1021147
0.014834774
-0.057512794
-0.32268733
0.098185904
-0.22124192
0.053639583
-0.1953042
0.032245684
0.033886746
0.13980204
-0.39012223
-0.020706806
0.060087815
-0.020009587
-0.15807006
-0.058466323
0.024266515
0.067889407
-0.062174767
-0.22515406
0.03371932
0.012083467
0.10760515
0.024217507
-0.0029797112
0.016727176
0.045304265
0.076344274
0.038541723
-0.16117121
-0.047589589
-0.09973558
0.25857124
-0.14328763
0.076259203
-0.086477794
-0.0039988449
-0.33934334
-0.010388613
0.037885625
0.036683939
-0.042228352
-0.025954079
0.00093601085
0.059587229
-0.039740603
-0.12170409
0.15110056
0.10274403
0.12792091
-0.13741174
-0.029799804
-0.022138489
-0.0016643537
-0.089909203
0.056671828
-0.23612978
-0.069600716
0.0048039742
0.25838876
0.20077601
-0.083355509
-0.18743169
0.17573583
-0.18438081
0.0060100756
0.025315583
0.019822765
-0.096649118
0.016388975
-0.33630288
-0.095012613
-0.017859409
-0.019835401
-0.0035911056
0.13084152
0.12275173
-0.062447112
0.021368604
0.062488262
-0.044127915
-0.064786874
-0.070187986
-0.24007885
0.077460237
0.078456581
0.28991541
0.46143886
-0.25424081
-0.28096226
0.075906195
-0.33472636
-0.0088695455
0.086417548
-0.060154766
-0.14891393
0.0071975077
-0.31859207
0.0042835986
-0.15513687
-0.035051838
0.072312392
0.034689657
0.033507846
0.04284779
0.055801295
0.092911124
0.085151352
0.026659224
-0.048583511
-0.48706332
0.07189244
-0.033048861
0.10663609
0.04536663
-0.28685182
0.035645992
-0.33034799
-0.12243934
0.016564295
1.1094246
0.32044229
0.40977919
-0.40709153
-0.68710071
-2.4409153
-0.0051869815
0.28048989
0.23581433
0.0042820787
0.31592062
-0.13711412
-0.0067538209
0.022125881
-0.0056761047
0.42305857
0.094906919
-0.44185057
-0.45301893
-0.41848442
0.079636484
-0.68621272
0.12648904
0.13339439
-0.063713826
0.069392882
-0.029212853
-0.1006769
0.10336385
0.048512869
0.030692104
0.07093735
0.017031984
-0.090548322
0.0079504931
-0.1003519
-0.10498751
-0.16262889
-0.11522307
-0.021778762
-0.063126788
0.056010336
0.10162809
-0.1484839
0.19097768
-0.10656369
-0.30427033
-1.0335262
1.4086881
0.657058
-0.79473752
0.021006202
0.11296199
-0.029046146
0.069491722
-0.022830298
-0.024045458
-0.42004231
-0.17631762
0.046298098
0.18830822
-0.31969035
0.11433993
-0.14518097
0.038181532
0.014023177
-0.075238116
0.048207022
0.072708748
-0.12887007
-0.025057517
0.44515473
0.044494398
-0.16380222
0.083389774
0.35837746
0.035941724
0.29793417
-0.10167205
0.06999138
0.076177575
-0.055636972
0.096778333
-0.084963493
-0.38948238
-0.21452872
0.025248121
0.15581724
-0.074648358
-0.016557259
0.060376097
0.057623204
-0.096345283
0.00011694765
0.21534406
0.046426229
-0.013355458
0.063820459
0.28663746
0.16176385
-0.18958607
0.16445211
0.020447481
0.36496928
0.22941838
0.069789961
-0.078651719
-0.059961516
-0.32229349
-0.12494988
-0.06203099
-0.62361193
0.023871923
0.014608143
0.12375697
0.14507037
0.13264534
0.069919668
0.064603984
-0.08122763
0.012648029
0.15173589
-0.13642757
-0.026976597
0.051878538
0.40200603
0.088435799
-0.013673387
0.24461889
0.001143239
0.13248008
0.24575107
-0.080413066
-0.068061642
0.070445262
-0.0043032537
-0.018035384
-0.19832239
-0.18812352
-0.06590417
0.042940475
0.19798209
-0.048935596
-0.23431411
0.059986271
0.11252657
0.060509127
0.011662291
0.19559862
0.068319879
-0.026433244
0.044525549
0.24394138
-0.050539125
0.14908659
0.21720263
0.10418671
0.049035825
1.2836602
-0.47708976
-0.026975647
-0.51546395
-0.38595101
-0.41348895
-0.039373126
-0.14435735
-0.098235339
0.060920186
0.25898582
0.23565295
-0.062469788
0.098755978
0.30675015
0.23419301
-0.63956839
-0.18006995
0.26516464
0.12562147
0.018580385
0.24555205
0.15902479
0.16321974
0.22234474
0.14360692
0.46358559
0.0068991324
0.12494886
-0.49035662
0.26514453
-0.065250412
-0.046438862
0.025205823
-0.069148019
0.12958965
0.050732411
-0.008433966
0.14807642
-0.17614485
-0.03785412
0.15005291
0.074460752
0.096814841
0.1242935
0.13512386
-0.40681881
-0.16800952
0.21463576
0.52644491
0.10335581
-0.021135302
-0.068869703
0.028418548
0.02606638
-0.043011207
-0.54545653
0.12785856
-0.11801475
0.090476818
0.013527656
-0.52704316
0.24211606
0.11175935
0.25100443
0.22934094
-0.25461689
0.027956061
0.2658087
0.18751647
-0.17328423
0.10673385
0.038789265
-0.16290276
-0.14625019
0.16952945
0.32531065
0.093359366
0.02149462
-0.60615444
-0.31466943
-0.019660909
0.095539689
0.026127338
-0.016329974
-0.3066678
0.090203129
0.13431661
-0.11513562
-0.0098125171
0.12083147
0.25447497
0.0067721624
0.039586116
0.085816227
0.12624462
0.18077874
-0.081721745
-0.20728198
0.033252724
-0.064465769
-0.050946631
-0.012624152
-0.36437222
0.50665087
0.079546347
-0.16648744
-0.056830555
0.024846759
0.035729945
-0.063427158
-0.099695556
-0.24085052
0.15295939
0.1261986
-0.037286222
-0.28065148
-0.1074101
0.24973892
0.25087318
-0.051910639
0.12421479
0.054446027
-0.043900523
0.05805847
0.12663738
0.071045749
-0.030339235
0.11470024
-0.18284491
-0.32258946
0.46817669
0.29346946
-0.84573418
0.037035588
-0.014448211
-0.12720591
-0.11578225
0.098902352
0.13559069
-0.22608098
0.12460088
0.14934561
-0.19602737
0.016439427
0.21196479
0.078005381
-0.13997442
0.075080045
0.12287202
0.18209641
0.028711462
0.056275651
-0.041265216
0.04425402
0.24878651
-0.30207744
0.11034317
0.11707937
0.5006246
-0.25275642
-0.0055517233
0.023827257
0.055720504
-0.23351608
-0.18461865
-0.19674659
0.13943939
-0.020753838
0.064874947
-0.35475394
-0.16653435
0.24946415
0.21912751
-0.058311909
0.02011559
0.12596558
0.17528102
0.16836421
0.12540293
-0.065123387
-0.10303954
0.24660221
-0.069560222
0.21276064
0.079845235
0.25856289
-0.3944864
-0.18326926
-0.026716083
0.13776304
-0.11731718
0.2410153
0.37698272
0.083523348
-0.066944294
-0.18631883
-0.24256013
-0.071568914
0.15388454
0.049810767
-0.32276475
0.080213144
0.093032233
0.11351497
0.027694033
0.027757997
0.010522245
-0.03753202
0.07565593
-0.19033575
0.0017659712
0.3554177
0.12848359
-0.1454016
-0.14969605
0.011715522
0.059647616
-0.12215502
-0.10016952
0.2779386
0.062088512
0.00022694803
-0.10307904
-0.24420412
0.0035003698
0.22388646
0.018543584
0.083615392
0.088413812
-0.033743899
-0.47274604
0.17777467
0.075369336
-0.023319332
-0.36847141
0.26405835
0.22283936
-0.29452965
0.50893402
-0.1091992
-0.45656106
-0.033410322
0.011425181
-1.3614383
0.027339716
-0.066363215
0.25157493
0.1440631
-0.53563839
0.1435433
-0.099318422
0.082454756
-0.23728186
-0.26516339
-0.17374894
-0.19005224
0.23881875
0.2485465
-0.033925164
-0.062841289
0.26660165
0.27229199
-0.49984977
0.18561548
0.049488738
0.47598314
0.046653017
0.44725284
-0.017486352
0.004784341
0.10016612
-0.18785457
-0.0044689053
-0.040587921
0.13092385
-0.061483074
-0.33101597
0.21448696
-0.15972833
0.064002268
0.032704923
-0.2414906
0.023593493
0.037870124
-0.081638522
0.080456324
0.053731453
0.11925132
-0.0098415697
0.20099778
0.30940911
-0.0064221909
0.19167405
0.17859533
-0.17375499
-0.3275362
-0.66163009
-0.048504673
-0.075801365
0.015157088
-0.12222502
0.0098277144
-0.020425707
-0.096217506
-0.24127281
0.089924999
0.071243159
0.13489847
-0.073080204
-0.013785722
0.081383832
0.067975342
-0.012493698
-0.15292262
-0.03224783
0.087180488
0.085883074
0.4047727
0.13298863
-0.015376107
0.046074636
-0.070844658
-0.41542447
0.15169868
-0.20190315
-0.11649635
-0.004188159
0.097357213
0.096686974
0.017083278
0.0048094103
-0.071316592
0.069332168
0.038537946
-0.14592683
-0.0091116484
0.055638567
0.091042921
-0.056317676
-0.074332632
0.045366295
-0.016991291
0.036503553
0.0082142064
0.4816235
-0.038605906
-0.15275198
0.29131374
0.15461592
0.0059659467
0.35919192
-0.18612716
-0.019719532
0.027814791
-0.24253736
-0.099099129
0.067255236
-0.11967772
0.092795372
0.029419167
0.18579613
-0.22943261
0.028400913
-0.047399197
0.041887488
0.12257306
-0.13921943
0.018045839
-0.12408438
-0.11328918
0.17198762
0.49138597
0.32231179
-0.37743956
0.14422762
0.013099685
-0.13800278
0.44451508
0.21117932
-0.13664745
-0.077077307
-0.67894518
-0.10346039
0.11522358
-0.086525522
-0.29079863
-0.10210931
0.23205884
0.21223524
-0.13706848
0.056194626
0.18684341
0.24892341
-0.42035222
-0.23846847
0.12279249
0.063504465
0.41320741
-0.28267649
-0.42055589
-0.17408299
0.59374577
-0.059555899
0.061431043
0.019779067
-0.27955413
0.014281346
0.031796291
0.052622754
0.13923232
0.15651359
-0.067726366
-0.14002229
0.067984618
0.08992701
-0.1369497
-0.054170981
0.032901451
0.095152713
0.19430481
-0.0040696808
-0.00030807019
0.0074398932
0.26387605
0.098145865
-0.18074207
-0.059324693
-0.044553731
0.50429088
-0.53774142
-0.13514425
0.021193935
0.12232628
0.14521965
-0.33024973
-0.47329819
0.010129056
0.13448478
-0.056815907
-0.66616821
0.11465327
0.24096675
0.10716111
0.18035412
0.043571047
-0.11097076
0.30360776
-0.10301485
-0.17603546
0.037652068
0.11827631
0.24926805
-0.13008426
0.052472789
0.010530139
0.38295257
-0.50860298
0.046849731
0.0282983
0.32911256
0.063925929
-0.76733065
-0.1790151
0.090834677
0.17576
0.21440162
-1.8587778
-0.26330879
0.30822873
0.093951218
0.1615158
0.059105646
-0.09363284
0.11084872
0.11605308
-0.21741804
0.068653584
-0.066130795
0.27165061
-0.64144874
-0.50461805
0.3343479
0.48912519
-0.24875136
0.25966167
0.019431191
0.24587819
-0.10143242
-0.52424914
0.24942577
0.15946053
0.056517776
0.20304099
-0.97963321
-0.12157146
0.11240964
-0.08849442
-0.18736409
-0.0072047985
0.042678103
0.11257803
0.25070363
0.25123432
0.15009998
-0.074659854
0.12450974
-0.80715787
-0.22656862
0.11845458
0.47464988
-0.43523365
-0.026251659
-0.025455235
-0.33334726
-0.10485183
-0.49137443
0.050509755
-0.54621476
-1.2009389
0.012780818
0.28955644
-0.2037594
-0.78317249
-0.47420478
-0.52921391
-0.73494834
-0.64337462
-0.89717048
-0.59500378
-1.5034996
-1.2609892
-0.20356299
0.68503815
0.66575718
1.0859361
-0.16241081
-0.074492119
0.176056
0.17513379
0.019642338
-0.059909966
0.13207905
-0.28788394
-0.13842651
0.26899824
0.22837274
0.062107511
0.021197774
0.15146302
0.12095953
-0.12372202
-0.28500369
-0.047454134
0.11040952
0.24846265
-0.019798417
0.22584045
0.17001031
0.42040545
-0.091456003
-0.20779386
0.24856676
0.4461835
0.25997579
-0.020328842
-0.00050681958
0.03116098
-0.023738636
-0.0021414785
0.011857515
-0.0087602036
-0.0024971529
0.028231943
0.014080072
0.044712007
0.02086197
-0.008342661
0.029874146
0.00083868264
0.01467316
0.0098780459
-0.01100451
-0.017490381
0.025670759
-0.0071272482
0.023213362
-0.064871199
0.022625284
0.033271123
0.041757856
0.019114999
0.029297227
0.014544254
0.0079571689
-0.0052458337
0.015137416
0.04730102
-0.038435783
0.031479165
0.0038178449
0.012820273
-0.014156709
0.013186077
-0.0024053988
0.018210893
-0.018849811
0.00036791989
-0.029116718
-0.0045349118
0.0035107972
0.018836731
-0.016789295
0.019375371
-0.023159947
0.0031735939
0.046344709
0.02407101
0.48074347
0.043366171
-0.006220656
0.022827381
0.02402175
-0.024973055
0.019073432
-0.016821044
0.0205631
-0.00091953104
-0.0018541553
0.028122077
-0.017171515
0.015598643
-0.021060215
0.020045212
-0.024914986
0.00057070068
-0.0045192228
-0.0087982034
0.019863777
-0.018048685
0.093004435
-0.039307173
-0.025944719
-0.051747531
-0.012395076
0.019158756
0.019855643
-0.0019827292
0.040174108
-0.010675538
0.029211355
0.016241297
-0.020289524
0.028291801
0.0065814317
0.026461301
0.02229725
0.053201497
-0.016652644
-0.030056341
0.00065488537
0.016634854
0.017122807
-0.0042939801
-0.018381676
-0.036139324
-0.034911964
0.10177162
-0.045636546
-0.074249052
0.038450122
-0.033684675
0.073220581
0.091938511
0.0008621309
0.013640375
0.0072485404
0.020295337
0.026941579
0.0029976922
-0.015537727
0.034500055
0.023423014
-0.030241454
-0.00037470795
-0.014285829
-0.0091550937
-0.0096347453
0.008440855
-0.0018427649
-0.037721328
0.0085778385
-0.019234451
-0.025346413
0.11991569
0.0083242627
-0.11853461
0.038691446
-0.043415744
0.0018047316
0.03470695
0.039013222
0.017641218
-0.031660862
-0.0036528395
-0.010117274
-0.012042829
0.057531826
0.032079052
-0.024906063
-0.015259602
0.041708417
0.014484081
-0.0048048315
-0.029975595
0.046540949
0.050401278
-0.011150326
-0.030077135
-0.036709987
-0.032898456
0.10651246
0.0062006535
-0.080404542
0.017958771
0.016888453
-0.026344592
0.055152237
-0.0015253217
-0.019925507
-0.020569766
0.031450666
0.014341918
0.027724978
-0.015589679
0.011684779
-0.015347036
0.011882984
0.00071998092
0.025654966
0.014207696
0.022861181
0.027108686
0.013011767
-0.022736898
-6.7098263e-06
0.0054032602
-0.021153534
0.088007741
0.0044583604
-0.067392491
0.030169562
0.014044624
0.023054942
0.0097950874
0.0082777049
0.010626091
-0.043699902
-0.020528244
-0.011169763
0.0060896315
0.0084230853
-0.026807936
0.029227125
-0.010523262
-0.011643689
-0.0055351094
-0.010501314
0.019973006
0.039165314
-5.7220917e-05
0.0018846288
0.013885297
0.036610737
-0.0017857222
0.011884185
0.012144942
0.043145653
-0.007259836
-0.012896668
0.0017180871
0.039310217
0.032053608
0.0030501436
-0.022284715
0.0079885926
0.033018667
-0.025357356
0.041912504
-0.024016779
0.0084066754
0.014979846
0.0046359389
0.00082639849
-0.007300531
0.032285932
0.004404115
0.028367054
-0.02795233
-0.0054574385
0.049381122
0.012488752
-0.069496572
0.0037227403
0.078816094
-0.026000721
0.028674042
-0.015154419
0.01287084
-0.01230043
-0.0063999835
0.018172616
0.008983355
-0.0046891347
-0.0054231398
-0.025551291
-0.0018504979
0.0075906813
0.010462292
-0.014738087
0.016678808
0.027210182
0.0096299322
-0.011582466
-0.0011575397
-0.018464321
-0.0182839
0.023704071
-0.008971056
-0.091884993
0.0034113671
0.10227072
-0.039911233
-0.004614606
0.0016275444
-0.0024586304
-0.017850583
-0.013449783
-0.019882239
3.0634248e-05
0.020842439
-0.0047664903
0.017506368
-0.00091930182
0.019211022
0.037223939
0.0055178436
0.048840176
-0.0034482996
-0.038068738
0.0019159957
0.0071748262
0.024013223
-0.029011177
-0.024425415
-0.0028289726
-0.078296825
0.024902586
0.0096795717
0.011481657
0.02762674
-0.0028674526
-0.0032284586
0.029240357
0.03810193
-0.0052022189
-0.0070075183
-0.019518593
-0.01305083
-0.053197656
0.00211176
0.025423324
-0.014085527
-0.016486323
-0.013535593
0.025576407
-0.030309556
0.028489299
0.018115183
0.0047931341
0.034768745
-0.018058648
0.020398235
0.017110527
-0.0072060344
0.0078935558
0.036747791
-0.024630247
-0.012909132
0.056084312
0.021110157
-0.007742763
0.0040860297
0.014442517
0.0019882675
-0.0069828159
0.031697426
-0.00033121402
-0.018971484
0.0014215951
-0.0077618496
-0.018887471
0.0015595753
0.04181245
-0.0060005984
0.052386828
-0.0042210594
-0.027720017
-0.00085765746
-0.0024746861
0.11404619
-0.0045132255
-0.11110065
0.11992993
-0.028467873
-0.0039419881
0.006272011
-0.010329161
0.059696242
-0.014253943
-0.02850127
0.026552454
0.018858127
0.014656054
0.0071102427
0.021220671
0.01887653
0.02980271
-0.020588186
-0.0030886934
0.031641133
0.013979396
-0.0030439226
-0.028172957
-0.011879608
-0.0039624833
-0.030873355
0.14416651
0.017165184
-0.10552493
0.12404039
-0.047850262
-0.008366975
0.0034788586
0.040245287
0.0037032061
-0.023088137
-0.0098934993
0.0069111423
0.014894649
0.021136815
0.023204353
-0.014120838
-0.012601081
-0.02924672
0.013429951
-0.019373702
0.024096841
0.015376832
0.018840238
-0.01205066
-0.012801373
0.030625084
0.0033466946
0.12794408
-0.0096366256
-0.11766427
0.033652596
-0.032638591
0.29517254
0.046746459
0.014634927
0.024160484
-0.0054627298
-0.0095902681
0.012794364
0.014164316
0.012256753
0.015917454
-0.0039303242
-0.015976762
0.0019749443
0.028928233
0.010391321
0.012207665
-0.014720647
-0.021728652
0.023179464
0.022140412
0.0051365928
0.016373191
0.10719523
0.008511072
-0.041578535
0.030039947
0.045225207
-0.02739783
0.020216474
0.029109178
-0.0045243744
0.0042642942
0.02706451
0.012831547
-0.0040423744
-0.017007614
0.046099301
-0.01448849
-0.012302896
-0.0041546547
0.027053567
0.00096696551
0.00055560534
0.013612931
0.0073734573
-0.027502658
0.013163851
-0.00053423148
-0.030829605
0.094996087
-0.016389849
-0.082779907
0.076753557
0.045779664
0.028849235
-0.011204848
0.013684525
-0.0032935676
-0.01415619
0.00039668372
-0.0063618333
0.011128329
-0.0094116889
-0.018414522
0.010905575
0.019357899
-0.0053445697
0.0064341873
0.023894681
-0.014115545
0.019336155
0.0011870104
-0.017618863
-0.018324846
0.044586059
0.00418306
0.049684729
-0.018363001
0.026392793
0.013786986
-0.018483249
0.012691168
-0.041610241
0.041240633
-0.018473947
-0.0013264582
-0.029453835
-0.0039809588
-0.018150581
0.0043094414
0.01867952
0.0059654936
-0.0051973765
0.0085235545
0.02636903
0.0067504477
-0.0046605193
-0.018050434
0.056425653
0.038067024
0.030418245
-0.0091455337
0.006487722
0.079816893
-0.010381793
0.011696239
0.042457975
-0.010113116
-0.029659288
-0.027640808
0.014644057
-0.01508474
0.0069445246
0.020286556
0.033641543
-0.029280977
0.00058501988
-0.023834439
-0.015757995
0.052504659
-0.013578355
0.02101058
-0.0031179718
-0.0096132634
0.017623456
0.0047534369
0.026489897
-0.025380164
0.0027720367
0.020000122
0.042715743
-0.051125564
0.04100845
-0.003559449
-0.017131655
-0.023347648
0.016072644
-0.0009505105
-0.01006116
-0.0044224779
0.046566032
0.022632329
-0.041959111
-0.018404642
-0.00043264718
-0.034246534
0.048049934
-0.039149299
-0.029970249
0.046791401
0.023160445
0.017304709
0.02899663
-0.0035589517
0.021262024
0.00010834048
0.031380169
0.0045165932
-0.023759812
0.020980768
-0.064105548
0.010275934
-0.0072789541
0.00028483922
-0.024367152
-0.010568435
-0.015442016
0.039059617
-0.023206688
0.0092142839
-0.0093353242
0.020989697
0.016008718
0.062161274
-0.018648075
-0.0087523162
0.048539836
0.054867573
0.0078111244
0.039550416
0.012360184
-0.030186696
-0.0079023317
0.058609255
-0.016233264
-0.020921938
0.0388483
-0.0016837046
0.041662294
0.013372961
0.027962239
-0.017168732
-0.027990947
-0.025055172
0.00039463461
0.012517606
-0.0025625336
-0.023646768
-0.0068203411
0.02576332
0.020726932
0.021985369
0.0054493924
-0.004627428
0.035197325
0.027904075
-0.012675583
0.034320138
0.0028065692
0.036546562
0.059596095
0.0064901751
0.026873596
0.062753111
-0.05687996
0.016938398
-0.016815027
0.025578786
0.069877803
0.68464476
-0.15720499
-0.21486963
0.058292132
-0.01699879
-0.22931837
-0.11993495
-0.099813908
0.056348518
0.24621406
-0.72549355
0.045485724
-0.030382663
0.058989193
-0.0066269585
0.072455756
0.28490505
0.11116584
0.020829687
0.11530147
0.21211919
0.10521265
0.002659579
-0.051854778
0.013487983
0.050482526
-0.052311037
0.060872868
0.20144457
-0.02507833
-0.05372462
-0.036181904
-0.0044793044
-0.035620827
-0.0091313561
0.075117975
0.22862542
-0.0026424441
-0.045739286
-0.016288547
-0.048382666
0.058070637
-0.081043102
-0.012885754
0.066364393
-0.28359517
-0.48458275
-0.23453024
0.074212044
-0.02201191
0.032827299
-0.042675603
0.044079743
0.081273645
0.012347138
0.064923748
-0.082633749
0.012347711
-0.028136117
0.098808557
0.037880927
0.025410911
-0.032550767
0.0014860909
-0.020578051
0.01932537
6.025839e-06
0.0032889002
0.064688817
-0.14687164
-0.6202507
0.20011786
0.46476254
-0.15559494
-0.070436962
0.031284127
0.0098745283
0.060121398
-0.037428431
4.4236258e-05
0.056478661
-0.02701289
0.059806515
-0.014010047
-0.082825258
0.028134806
0.1383816
0.0075403634
-0.015640894
0.0011077102
-0.0905426
-0.021188978
0.010382711
0.028005201
-0.028537683
0.084659532
-0.020214431
-0.44094416
-0.017064255
0.44646484
-0.14287817
-0.13715033
-0.013811564
0.0050183441
0.061503779
0.01374754
0.087421671
-0.049411263
-0.00089839369
0.019837843
-0.1309108
-0.03622872
-0.061885107
-0.053149804
0.019073632
-0.015373241
0.023501854
-0.056438725
-0.026824461
0.017856222
0.4101209
0.017614519
0.011392155
0.046088904
-0.14002901
-0.091632567
0.20125706
0.027712483
-0.037617974
0.025522245
-0.024093689
0.021422265
0.011745349
0.032371648
0.018085212
0.015177486
0.0029055635
0.011319757
0.020833172
-0.082155973
0.014229237
-0.055111025
-0.014998914
-0.078588918
-0.03167158
0.014890465
-0.0069447011
0.034112219
0.00081424695
-0.041974839
0.073174663
0.16378014
-0.078822196
-0.024380311
0.13805363
-0.14098077
-0.0015893396
-0.19110331
0.12194416
-0.0019252298
0.1337166
0.006760342
0.012171119
0.096287921
-0.045319438
0.064997695
-0.15204483
-0.087783165
0.066266581
-0.019269168
0.1115948
0.12872827
-0.069130227
-0.043745995
0.14332822
0.11634557
-0.18353213
-0.0046176743
0.34697714
-0.14633079
-0.17295188
0.61155123
-0.070658661
-0.0029680675
-0.08292149
0.055148829
0.016831322
0.12223896
-0.014371295
-0.032879289
0.077169396
0.03257871
-0.077446252
-0.080090307
-0.047125161
0.046209272
-0.036298428
0.018587714
0.04568154
0.0093477555
0.046256326
0.078603931
0.033464391
-0.15877348
-0.034798406
0.30597138
-0.073920831
-0.21891533
0.19147916
-0.055502422
0.0041963151
-0.054489784
-0.034333184
-0.0062556532
-0.052001853
-0.019889744
-0.056200061
0.010365418
0.13769367
-9.1835012e-05
-0.017760945
0.095072679
-0.017167162
-0.00036956288
0.057090435
0.099864259
-0.047745191
0.030548705
0.012786329
-0.047179583
-0.00081402052
-0.08118996
0.080316164
-0.099846236
0.023105694
0.15538464
-0.048382606
-0.029147509
-0.021249726
0.0088383909
-0.014038857
0.056905851
0.096959621
-0.040152427
-0.063101925
-0.01192174
0.070097812
0.024756277
0.077889971
-0.016388535
-0.017888781
-0.065096736
-0.047866594
-0.0078574764
0.018219678
-0.039557558
-0.029134328
0.074016951
-0.049318112
-0.05097561
-0.24125271
0.22972271
-0.083909333
-0.17304926
-0.028192693
0.024220804
-0.099190652
-0.084488094
-0.076056965
0.024935892
-0.071312889
-0.011061741
0.15461887
0.11554801
-0.00046449446
0.10326378
0.032785174
0.001963645
-0.022388227
-0.0041040238
-0.03416317
-0.084947981
0.030580513
-0.074380316
0.096336462
-0.10620098
-0.23941088
-0.15816356
0.37904429
-0.10054103
-0.10944001
-0.029050315
-0.0090744309
0.020592121
-0.031274699
-0.051020198
-0.00017200317
-0.027598977
-0.035464808
0.2477501
-0.038993377
-0.1023325
-0.014416877
0.060133759
0.020280436
-0.023577018
-0.065423734
0.096310228
-0.004680885
0.039369773
-0.052390531
-0.07562986
-0.07746432
0.16247103
-0.016758228
-0.25103831
-0.17433952
0.039625648
0.007556932
0.05718182
0.056170996
0.010783212
0.026456419
0.027783643
0.0068285661
-0.054990895
0.047104716
-0.027393226
-0.060355477
0.034682196
0.042408559
0.048734281
0.035988111
3.6937119e-05
0.022834092
-0.057925284
0.05575214
0.066220343
-0.091951117
-0.085774191
0.060267117
-0.096395075
-0.057930253
-0.080087468
0.043022063
0.018578408
0.028725753
-0.006237193
-0.01238912
0.076337613
-0.029751554
-0.0082698008
0.027986383
0.0029826681
0.030458886
-0.073603451
-0.075314812
0.019910323
0.027111921
-0.01828235
-0.014111105
0.024485676
-0.019849652
0.063162386
0.02604696
-0.14365794
-0.078725681
-0.11756032
-0.0033269711
0.047721624
-0.099263556
0.021959476
-0.022151813
0.031154623
0.005169142
-0.020726657
-0.055032931
0.050876867
0.015335749
0.037458025
0.063130356
0.064417668
-0.023868544
-0.0031972926
0.046900108
-0.01942838
-0.010700624
-0.096456468
-0.02995283
-0.020887457
0.076742239
0.034239825
-0.090600193
-0.070165284
-0.28552267
0.02713155
0.18904582
-0.10263754
0.096911564
-0.0023282638
-0.051055968
-0.072023824
-0.17621982
-0.0039069066
-0.021558646
-0.097362243
0.015569762
-0.0074655614
0.088674739
0.05893115
0.045835413
0.00068732095
0.011633527
0.28608152
-0.039344627
-0.17471379
-0.12964061
0.45459455
0.21612735
-0.11748897
-0.11251431
-0.38692409
0.051393807
0.28888053
0.11509342
0.054123942
-0.021004023
-0.040791433
0.075645573
-0.046950806
0.081946157
-0.049725015
0.0027795748
0.040525466
-0.062883839
0.062934071
-0.032592338
0.0052055106
0.028051693
-0.012734819
-0.021463158
0.0063879406
-0.040242508
-0.0016219035
0.01712789
0.039203536
0.030420652
-0.0798169
-0.27718142
0.079213843
0.19442956
0.074219316
0.19216122
-0.081240103
-0.042332161
0.023701923
0.058086123
0.073129691
-0.027329529
0.0015026376
-0.025909087
0.04473076
0.084347025
0.018568644
0.036013771
-0.0020978192
-0.033574346
0.15350899
-0.033677973
-0.14546025
-0.024629323
0.018797955
0.068952277
0.036030635
-0.077127539
-0.00023572345
0.061099663
-0.070407212
-0.012107141
0.097594231
-0.79414946
-0.078984044
-0.029912623
0.07668072
0.06795074
0.0052832686
-0.019505437
-0.016930962
-0.0496324
0.040082436
-0.073171489
0.0304872
0.056317542
0.015684623
-0.014815053
0.051260363
-0.071037725
0.051280249
0.059396766
0.055166245
0.020596797
-0.024957269
0.29015121
0.0065442203
-0.30067879
0.038966537
0.19656588
-0.16721915
-0.05767718
0.030239535
0.072687879
0.11651193
0.00023083908
-0.020860085
-0.01064811
0.10848887
0.052958217
-0.064703554
-0.024075309
0.095804796
-0.042667791
-0.035458162
0.0067506898
0.029036248
-0.089738958
0.012650919
0.071781591
-0.11215325
-0.046836574
0.47886032
-0.11572552
-0.43226048
0.17166872
0.22499301
-0.1557738
0.035313141
0.053575817
-0.048000891
0.1035182
0.045670781
0.024159294
-0.10971162
-0.0207578
-0.011129808
0.029321201
0.089804277
-0.051091492
-0.012223077
-0.019070603
0.073173404
0.04212939
0.035752188
0.0056585614
-0.082229972
-0.1242856
-0.061907776
0.39849606
-0.52183247
0.014129377
-0.040917601
-0.02340146
-0.0021074575
0.086147621
-0.0057658008
-0.1687901
-0.041613873
0.030677848
-0.021644983
-0.065874368
0.033507805
0.022649541
0.10386701
0.094766699
-0.039290942
0.11194812
0.063162021
0.058686815
0.051794443
-0.058384784
0.0028290148
-0.12914072
-0.016091047
-0.078075655
0.04953216
-0.36150956
0.23524441
-0.2287202
-0.1115111
-0.005307253
0.02822235
-0.02638422
-0.067536868
-0.029172756
0.019535027
-0.0052622207
-0.052168597
-0.032578163
0.18991178
0.060278371
-0.027454501
-0.069499858
0.035038326
0.051761791
0.011949796
-0.01457226
0.04939127
-0.044333965
-0.082679346
0.033881031
-0.081783719
-0.14855
-0.2761122
0.41993144
-0.17162925
-0.13311546
-0.000601871
0.050863534
-0.030919664
-0.064743087
-0.013056175
0.014833417
-0.08530616
0.0098857125
0.074926279
-0.0014966408
0.097220063
-0.0015191545
-0.096309714
0.021931084
0.12198392
0.041132599
0.0059977598
0.078968577
-0.032803338
0.0044452599
0.053352986
-0.17032255
-0.19368386
-0.099015586
0.29353786
-0.25533351
-0.24189936
-0.0012416216
0.038806036
-0.0088193985
0.011248988
-0.0087647969
-0.037574098
-0.041857328
0.012273349
0.079394057
-0.065280221
0.0051929895
-0.053633817
-0.047698151
0.044243935
0.14278094
0.014538049
0.017008871
7.0360725e-06
-0.011998191
0.069307253
-0.032191396
-0.21392645
-0.36319214
0.14120477
0.15651673
-0.39555281
-0.24817313
0.0077052671
-0.36185533
0.058584895
0.30142236
-0.22794749
0.11108186
-0.81711793
0.0072069513
0.21396838
-0.26261464
0.13051157
0.44739223
0.18635565
-0.041493468
-0.039164335
-0.038084425
-0.013886861
-0.067577422
-0.15114227
-0.24065518
-0.17263474
-0.3619194
0.034707867
0.0038287723
0.060461599
-0.046027552
0.026944978
-0.0041778446
-0.056512903
0.072262928
-0.034279168
0.025184413
0.026415
0.03339218
-0.031216998
-0.0095755011
-0.0057293759
-0.015982307
-0.10918239
-0.094444968
0.023069274
-0.036852095
0.052635539
0.054282822
-0.074103318
-0.0099886479
0.07732565
-0.15410583
-0.33871314
0.14314564
-0.11376376
-0.23970537
-0.010433496
0.023992145
-0.00039187883
-0.0083128223
0.022918262
-0.0013826366
0.049224481
-0.006784854
0.044646136
-0.0380961
-0.025553592
0.024133552
0.012363066
0.02830027
-0.046262335
0.064883702
0.023841275
0.015866054
0.018458214
-0.019520724
-0.025765408
0.061882392
0.099995822
-0.25050399
0.0047935508
0.010480516
0.051926166
0.034836195
0.037107907
-0.00080939627
0.013008723
0.059069343
0.053456303
0.025332753
0.011143574
0.0075798514
-0.033624139
0.028590906
0.049473539
0.0011244603
0.011593829
0.011617753
0.037249159
-0.0058812853
0.0059509948
0.017701073
-0.015235547
-0.043998647
0.075397082
0.061480243
-0.18269883
-0.044216093
0.0080362242
0.12764996
-0.0077558355
-0.0048356643
0.0041622822
0.009217198
-0.020437792
-0.019942245
0.027504828
-0.049717501
-0.011876022
-0.023903746
0.023833819
0.062561341
0.039708592
0.019765692
0.04209796
0.021730859
0.07578107
0.0003465428
-0.016610803
0.0091094142
0.013679655
0.0012731327
0.045992382
-0.065093324
0.041360389
0.079926789
0.078444436
-0.046312202
0.035580188
0.044682514
-0.024337865
0.0074401489
-0.02669213
0.0011288663
-0.039892059
-0.012298804
0.071407109
-0.0023547059
0.03666909
0.027492059
0.048009537
0.009127425
0.0042457096
-0.0074158972
-0.0021323615
0.046712041
0.043397792
0.058559246
-0.072907977
0.083437808
-0.034383364
-0.031740248
0.021591939
0.58717793
-0.10673251
0.033558641
-0.011584156
0.074647993
-0.19899073
-0.012804586
-0.25551689
-0.057591464
0.10502653
0.009400662
0.0052645071
0.01066668
0.052876625
0.17994565
-0.017976213
-0.069589883
-0.084417656
0.21783462
0.16664451
-0.0090676975
-0.042207994
-0.02402751
0.040548641
-0.011535426
0.33249336
0.0082433885
-0.028029574
-0.012255555
0.011131357
0.0050501432
0.10132568
0.012703402
0.012961502
0.034461327
-0.071132585
-2.4625915e-05
-0.021427942
0.019333096
0.033535946
0.018208418
0.022044273
0.022387004
-0.019259788
-0.02312346
0.04668295
-0.0066210707
-0.021841263
0.01125523
-0.05238178
0.11950279
-0.010858753
0.073049225
0.13355236
0.005133911
-0.034629591
0.03999766
0.048012558
0.00052672089
0.015563006
-0.021924723
0.0022577737
-0.0020709164
0.092257217
0.01423941
0.012917386
0.035296962
0.041149229
0.0057344991
0.020620933
-0.032199133
-0.030056752
0.018015839
0.028910868
0.017274089
0.02397915
0.016828418
0.051108927
-0.032350436
0.036183633
0.0074940417
0.013830547
-0.010609632
0.055641308
0.021621242
0.064915717
0.051881939
-0.0079519469
0.027538223
-0.043108173
0.00065714266
0.078205585
-0.0003183934
0.034934089
0.052338056
-0.0084585715
-0.027657311
-0.042493716
-0.065525696
0.081801221
-0.016452149
0.039902512
0.00048222081
0.031252287
0.064959094
-0.07785175
0.077377751
-0.014308603
0.0050971392
0.0070565045
0.027238308
0.041703299
0.091484711
-0.01877379
0.027360044
0.054100502
-0.047623269
0.023522226
-0.016553588
-0.029201627
0.045844078
-0.0020989606
0.071483649
-0.033117305
-0.025152275
0.013764448
0.0066157496
-0.015903991
-0.059409071
-0.017393149
0.015344298
0.074734159
-0.099203251
0.097090259
0.012304204
-0.0080563957
-0.00040104697
0.019810926
0.019331826
0.0092373425
-0.0057410486
-0.011899035
-0.055389587
0.13103431
0.004029002
0.0034981754
0.042991184
0.015876578
0.0071794484
0.11074124
-0.0046587307
0.010618849
-0.062208813
0.041697282
-0.026857689
0.030421983
-0.012066404
-0.09725859
0.20747045
-0.059085667
-0.058970004
-0.030868135
-0.024461735
0.016796634
0.031398032
0.047353759
-0.01792568
0.016654383
0.019656498
0.019989558
0.047010772
0.0063279215
-0.061875813
0.046119094
0.041116133
-0.028351685
0.02889684
0.024665881
0.092388846
-0.027949793
0.040443547
-0.020229993
-0.0026188856
0.022605624
-0.0023910496
0.091981217
-0.0073771812
-0.040858373
-0.013654345
0.001875866
-0.0084188115
0.035135806
0.018828833
0.020985017
0.06790705
0.0083055664
-0.03470166
0.11580461
0.0023326103
0.030246532
0.02789795
-0.0016664197
0.024817578
-0.02233028
0.019706968
0.06325341
-0.022148792
-0.000102194
0.041154001
-0.019211305
-0.029107649
-0.012177399
0.048777483
-0.036153313
-0.067237116
-0.058934394
0.005690584
0.025473265
-0.0032315871
0.0099723181
-0.02504239
0.03034455
-0.027505472
-0.012613415
-0.04956485
0.042103786
0.013773179
0.0049224175
-0.027933732
0.030128567
0.082444474
-0.031384815
0.083869226
-0.013782211
0.032513279
-0.005240282
0.012265714
-0.01377469
0.012551993
0.095609426
-0.073385201
-0.047407266
-0.046535235
0.018174157
-0.067959867
0.0061387382
-0.048052672
0.006014443
-0.041658431
-0.0092235161
0.054896388
-0.05411401
0.097747058
-0.057271611
0.0037835569
-0.1626668
0.010623647
0.32892302
0.023514004
-0.04974677
-0.038010743
0.79904324
0.14433058
-0.093032286
-0.043477803
0.082072198
-0.00730645
-0.083570674
0.26110345
-0.049342118
-0.010489803
0.025106259
0.045966547
-0.0065751122
-0.035528403
0.0043717031
0.039260142
0.0077487431
0.10176557
0.0067065656
0.050332911
-0.026415493
0.056340322
0.0034931053
0.030995442
0.033842936
0.0074979956
-0.026988113
0.015064635
-0.045237612
-0.017640658
0.0058950391
0.10254259
-0.00036461791
-0.10212691
-0.090341181
-0.06472788
0.08768709
0.0086253742
-0.024898212
-0.032863744
-0.012516049
-0.006648601
-0.006057126
0.031851716
-0.022003617
0.039289452
0.0066086738
0.023752941
-0.0063770176
-0.0083010988
0.014882837
0.0044140154
0.078989334
0.024147077
0.033931904
-0.17580193
0.047813907
-0.014979947
0.02732137
0.087827504
-0.14436956
-0.040244568
-0.029183423
-0.031875007
-0.0149163
0.043309852
0.028499208
0.0024940523
-0.0026534235
0.047574498
0.030740473
0.034775998
0.026498139
0.0023681361
-0.067438342
0.045432568
0.025392793
0.012419901
-0.034065027
-0.02540285
0.053225014
0.015937969
0.042470332
-0.0020143953
0.019836947
-0.0019483275
0.048054364
-0.061743245
-0.01122978
-0.008417204
0.05349626
-0.027771886
0.018796099
0.020044459
0.029230308
0.012864564
0.065150842
0.04779771
-0.01414762
0.04291746
0.021616876
0.0054362114
0.035242248
0.00032971788
0.016521437
0.10646643
0.0066023758
-0.027701765
-0.030427225
-0.0029503899
-0.0090092644
-0.050656535
0.0050747655
0.02083754
-0.089886755
0.0026128911
-0.016351502
0.021473685
0.002238777
0.040807635
0.05111805
0.068207644
-0.0022033977
-0.010809625
0.075020522
0.037012633
-0.011191413
0.026869768
0.00071833527
0.019199211
0.0040903524
0.0015440377
-0.032223154
-0.011173384
-0.04614624
0.0032599841
-0.020020921
0.060318563
0.009929101
-0.15008338
0.20661883
-0.15740642
0.048959538
-0.02271001
-0.0027167359
0.023943963
0.048637938
-0.0043169083
0.04800228
0.011175173
-0.00015394116
-0.041802492
-0.018024828
0.02063795
0.005585352
-0.027256882
-0.021309368
0.054043174
0.10415604
-0.017723283
-0.01110474
-0.076579064
0.030074984
0.10818277
0.00090922148
0.010578733
-0.14005239
0.25499067
-0.1216184
-0.076554656
-0.042267017
-0.018052619
0.0042554489
0.030705051
0.0039934772
0.0051911394
0.024874229
-0.0030874501
-0.018709581
0.038774613
0.022376511
-0.018079899
0.017352324
0.015570238
0.041433319
0.014514764
0.01901269
-0.027854986
-0.015370787
0.045521494
0.082577057
0.023998711
0.0016096822
-0.19738638
0.20249252
-0.011507177
-0.087423541
-0.025215615
-0.0015938359
-0.0056400541
0.11323914
0.047262974
0.042628743
-0.010877187
0.010999113
-0.0022682669
0.031854387
-0.0012237614
-0.024287332
0.040279072
0.018892543
0.022953603
-0.066726923
0.024432151
0.0036914644
0.041705631
0.04281855
0.046287157
0.010413747
-0.014043395
-0.21420458
0.18706883
0.040996511
-0.090911441
-0.04337059
0.022667374
0.0089634731
0.046326704
0.059294056
-0.011278104
0.022396583
-0.0053250175
0.0078292424
0.17863917
0.022162851
0.02181631
-0.019707009
0.058067463
0.0099681495
-0.047490858
-0.0072308807
0.030186024
-0.018331269
0.046622623
0.045285895
-0.015765291
-0.015729303
-0.23645362
0.15463278
0.012112464
-0.05944822
0.0081240386
-0.011587768
-0.28599879
-0.058245651
-0.13838007
0.10575317
0.12145294
-1.9420613
-8.5260857e-05
-0.19163424
-0.069025956
0.56331372
-0.16891229
-0.06502708
-0.18969235
-0.13147135
-0.82915634
-0.01364489
0.031507641
0.18727173
0.058281638
0.0044183596
-0.29399329
-0.0060079773
-0.0022170802
0.069745541
0.035801098
0.058116488
0.027295101
-0.023456462
0.029906556
-0.092518255
0.014154832
0.012173799
0.042997289
0.035148852
-0.010416453
0.052406583
0.04531303
-0.03110439
-0.10273193
0.0028315934
0.023022544
0.046530038
0.011585674
-0.11404071
0.12731041
-0.027341614
-0.10714121
-0.12068596
-0.11467842
-0.18763892
-0.17952153
0.69725078
-0.06953384
-0.11762677
-0.11353958
0.11703849
0.13729617
0.08077614
0.26511663
0.11491523
-0.38705495
-0.10164907
-0.1373962
-0.044447776
-0.049521092
0.12378675
0.07602185
-0.050754391
-0.0055232216
0.38039199
-0.14145337
-0.48244426
-0.11290535
0.046815764
-0.13120121
-0.69184649
0.49740496
-0.12802413
0.54998899
0.11445025
-0.23496184
0.18795526
-0.02600182
-0.14894794
0.34023455
0.53601766
-0.13404112
-0.12479214
-0.072619773
-0.14845964
-0.073157705
-0.10623978
0.028523525
-0.018811774
-0.10331467
0.0032519184
0.36879387
-0.34037039
-0.32371768
-0.062557049
0.1452117
-0.23666973
0.13174702
0.35229319
-0.25018081
0.1895044
-0.1071862
0.030535879
0.23569526
-0.12328583
-0.27106312
0.35958505
0.15196799
-0.089742377
-0.25735724
-0.11877663
-0.28400153
-0.065992743
-0.019298045
0.20276539
0.16182944
-0.17127565
0.19548208
0.57487684
-0.29369792
-0.04080154
0.039027195
0.042130761
-0.23440784
-0.10001097
0.093350887
-0.19587149
0.23170176
-0.27796966
-0.031465247
-0.24915777
0.01281187
-0.030702857
0.34844956
0.20786667
-0.26453418
-0.23603047
0.71061695
-0.25075957
0.016322285
-0.087817296
-0.087417148
-0.25595805
-0.17816763
-0.069701791
0.72504818
-0.21549423
0.16466147
-0.11322647
-0.073770076
-0.17290105
0.46290314
-0.22632207
0.20507714
0.30154732
0.14017753
-0.18309774
-0.34917188
-0.23155859
0.097076833
0.54017317
-0.24338548
-0.058119979
-0.31165177
0.33555964
0.32885066
-0.1158068
0.11247226
-0.11488128
-0.13144973
-0.13440481
-0.1881768
1.3029501
-0.4904474
0.46173099
-0.69796652
-0.0070234295
0.10082254
-1.0039674
-0.099022895
-0.0047894577
-0.36815777
0.3009668
-0.068869144
0.48493654
-0.20769702
-0.037192743
0.26067695
-0.25163293
0.11899564
-0.25373843
-0.48434082
0.34950835
-0.16202201
-0.15065937
0.52782845
0.17834304
0.11338271
-0.064024165
0.21293551
-0.3391158
0.1870397
-0.26996359
0.010714358
-0.3110573
1.2018266
0.49440959
-0.019913809
-0.086904503
0.055445332
0.1623688
0.58729416
-0.11521924
-0.043090109
-0.13041146
-0.51681018
-0.18963858
-0.24721827
-0.022272697
0.21157345
0.02108212
-0.23003753
-0.31032783
0.38728189
0.21556196
-0.0094971545
0.11033034
-0.13031441
0.31161731
-0.58740842
0.55912012
-0.3332049
0.64614344
0.53308445
-0.018051144
0.30747887
-0.12935495
0.35947025
0.96917593
0.057782967
-0.26817232
0.092437148
-0.29938966
-0.13350128
-0.34999952
0.25591916
0.13861758
-0.2196618
0.017419785
-0.48349547
-0.1441765
0.06524545
-0.13855876
-0.069340818
-0.22843125
0.34522519
0.10912874
0.10815756
-0.36257422
0.1488577
0.08900857
-0.021839691
0.17100382
-0.11484401
0.14384459
0.45314202
-0.097232066
-0.01842702
0.16018657
0.16338989
-0.05205949
-0.2319328
-0.19707046
0.58177358
-0.22474319
-0.21773106
0.10642631
-0.27082753
-0.12103432
-0.18084608
-0.22266179
-0.24260533
0.15258729
0.30957699
0.56223828
-0.79171789
0.81473547
0.31716284
0.0093006752
0.06710539
0.079437234
0.035208974
0.30684021
0.0049811229
-0.13793927
-0.11246447
-0.24815072
-0.12199156
-0.24937271
-0.061679028
-0.092108674
-0.041549992
-0.20959686
-0.11013638
-0.04440463
0.58184397
0.24733528
-0.17611559
-0.50052661
0.44596481
-0.23534164
-0.18362436
-0.30842292
-0.36697635
0.58100021
-0.027985176
-0.24681413
0.25141275
0.56745678
0.82682157
-0.16414467
-0.23852746
-0.39651993
0.74904329
-0.16672073
-0.28220296
0.30158007
0.15791465
0.11510709
0.039558809
-0.19357431
-0.14721316
0.032415509
0.033464294
0.025242893
-0.34909725
-0.059634034
0.085767701
0.66488475
-0.98348087
-0.083475776
0.36350775
0.027436765
-0.19149627
-0.058157913
-0.25401318
-0.13405488
-0.12384918
-0.20982908
-0.12288209
0.2011684
-0.055341858
-0.031892668
-0.062639929
0.43052086
-0.056106213
-0.12470438
-0.23474742
-0.017574262
0.10370277
0.016358184
-0.13574244
-0.11916357
0.40591961
-0.36626875
0.79305512
-0.69900918
0.54096758
0.32785955
0.0037653206
-0.031626325
0.54690748
0.19524948
-0.25049061
-0.11201125
0.020965779
1.3340133
-0.11219155
0.012988713
-0.4604834
-0.11129169
0.2482018
-0.0053777094
-0.24826992
0.15790306
-0.076120466
0.15334943
0.099384129
0.16303065
-0.5613122
0.29465792
-0.67857963
-0.4328995
0.71552777
0.71918207
0.56892121
0.0224282
0.22500139
0.46755117
-0.26487559
-0.41293198
-0.23898222
0.015038924
-0.26103839
-0.082787782
-0.06108541
-0.026330097
0.67657858
0.24162245
-0.12125805
-0.021505188
-0.34454274
-0.091064818
-0.24700816
0.050090436
1.3363043
0.05236375
0.48230299
-0.57381421
-0.64250988
0.35371009
-1.2310286
-0.23098433
-0.026044499
0.26695058
0.72275317
-0.13623466
-0.24606231
0.014392558
-0.13153648
0.015101251
0.44582233
0.24532984
-0.54197752
-0.014068903
0.20652001
-0.057992369
-0.2583513
-0.19918332
0.14146069
-0.24764101
-0.074102663
0.23236278
-0.50123793
0.39193684
-0.21965773
-0.53438932
-0.11774707
0.86051685
0.13285431
0.76519442
0.24343534
0.065994695
-0.043304052
0.00026264013
0.00813659
-0.20272043
-0.21303275
-0.12608607
-0.013974132
-0.13796696
0.2886807
-0.12698412
0.13018917
-0.095258474
-0.19752108
0.0027975449
-0.18353494
-0.0288643
0.030457843
-0.18322234
-0.090022653
-0.18647289
-0.26671767
-0.44297203
0.49692121
0.1958362
0.1440699
0.17001022
0.21529754
-0.08614932
0.018316654
-0.060472663
0.0091091841
0.022470996
0.023498699
0.14357528
-0.22035992
-0.036383722
0.57597727
-0.13352437
-0.29541242
0.07843931
-0.12251619
-0.0046494328
-0.1629484
-0.1657995
-0.2177659
-0.22016126
-0.56837255
0.11577375
-0.09147428
0.49459422
0.45824474
-0.09505035
-0.0013986527
-0.044405822
-0.1235376
0.008368928
-0.16939461
0.11210783
0.11310293
0.17745563
-0.011711753
-0.30903774
-0.030724984
-0.017282153
-0.10297307
-0.039978217
0.15003146
-0.019686673
-0.0029245166
-0.046514403
0.096240394
-0.21860436
0.064719915
-0.059769563
-0.57720095
0.319693
0.36237699
0.18429479
-0.18195912
-0.17543046
-0.17268965
0.094293483
0.64003187
0.46622816
-0.049826171
-0.20431468
-0.047774736
-0.086432904
-0.20690753
-0.00024240933
-0.12367242
-0.004456332
0.016626151
-0.12171532
0.284042
-0.15169573
-0.16684319
0.065112278
-0.40096051
0.22605443
-0.77130002
-0.16691594
0.71224535
-0.078522332
-0.54063404
-0.0077019203
-0.16588087
-0.15085541
0.050162841
1.3631988
-0.21521769
-0.25113633
-0.16001178
-0.068935238
0.054093536
-0.23602515
-0.025432207
0.030569883
-0.12338774
-0.19586825
0.056198511
0.74140167
0.23693915
-0.045519061
-0.25314379
-0.24414805
0.04669873
0.31718582
-0.73224038
0.0077506606
0.011804138
0.1147463
-0.029711956
-0.33585513
-0.095738493
0.36996737
0.52326369
0.06055437
-0.13479324
0.016650062
0.98469126
0.39624807
-0.23813263
-0.45305672
-0.18406831
-0.12757112
0.2450031
-0.13257889
0.18961798
-0.13724144
-0.033864584
0.0386361
-0.32623827
0.053686012
0.07041271
-0.061043188
-0.39968923
0.43451619
-0.14171028
0.012215392
-0.4999814
0.027036075
0.37496978
0.91598278
-0.13433038
-0.19752902
-0.21773924
0.28186935
-0.0041816561
-0.39407408
-0.14596352
-0.089425065
-0.049829923
0.48606688
-0.083761007
0.1045675
0.22070782
0.64193445
0.11830917
-0.40067786
0.12694451
0.23990488
-0.34732965
-0.16477986
0.22821523
-0.21321979
-0.02464311
-0.50054866
0.16527772
0.43514964
0.1544553
-0.23679501
-0.10655186
-0.11640801
0.887604
0.53467739
-0.17359467
0.11084843
-0.088401414
0.0075802561
0.093429163
-0.24839431
-0.27071604
0.028397005
-0.21161096
0.047384221
-0.12804019
0.21356237
-0.20335139
0.1243458
0.045203473
-0.03849642
-0.01044629
-0.022612978
0.25562531
0.051105838
-0.38024017
-0.083097905
-0.12543626
-0.92786467
-0.026454277
2.0701182
1.9564242
1.4325863
1.4414401
1.12339
0.38984492
0.031829122
0.38160601
0.34613273
-0.065256111
-0.50859964
-0.44222412
-0.58094585
-0.69983923
-1.4999524
-0.0075764218
-0.11886183
-0.12227921
-0.19351682
0.0029773237
0.18325195
-0.12536541
-0.040596317
0.023673942
-0.28731373
-0.1933365
0.072146043
-0.035844967
-0.070172265
-0.11630238
0.15996888
0.23007944
0.011188559
-0.056190867
-0.30459651
0.11700309
-0.62514263
-0.79948819
0.62020862
0.2680642
-0.76627207
0.096850641
-0.075248413
0.14372143
-0.039220814
0.011211663
0.026040794
0.035485219
0.0083105769
-0.018334614
0.011511371
0.024365816
-0.012048027
-0.090800665
-0.08773993
0.047587182
-0.0034671007
-0.061613746
0.0083802463
0.046431575
0.030435702
0.037506398
-0.023209887
-0.051540259
0.032350656
0.046791177
0.045582704
-0.14902148
0.12364444
-0.026079487
-0.082671098
-0.073919386
0.014456863
-0.0022480981
-0.0022275734
0.01971985
0.015400058
-0.025680376
0.00085185718
0.03075479
-0.019239154
-0.022297699
-0.026328664
-0.030832149
-0.037402086
0.01564369
0.03451271
-0.00042370439
0.017661572
0.0028245798
-0.041781295
0.046273898
0.089838117
-0.0080252402
-0.17607521
0.036291674
-0.080325581
-0.023099689
-0.083964542
-0.055438537
-0.015428791
-0.021925665
0.017574012
-0.057291482
-0.060365595
-0.094498724
-0.012067479
-0.022775693
0.0052644121
-0.03979199
-0.0018944909
-0.0085504819
-0.0060153482
-0.033857632
0.026710905
0.015116532
-0.012808717
0.08750587
0.10472427
-0.071435384
0.055875164
-0.026314406
-0.019669138
-0.056510996
-0.04241652
-0.060202524
-0.039009873
0.0081970207
-0.028744038
-0.022731967
0.004275504
-0.029817341
-0.097904332
0.0091466792
-0.0064206268
-0.062396407
0.00082994939
-0.026282411
-0.032389794
-0.01098113
-0.033067625
0.031570893
0.053779479
0.030740581
0.05898663
0.13814263
-0.17683296
0.044243895
0.060787469
0.030928982
0.026488807
-0.017146803
-0.16876541
-0.03616951
-0.033632498
-0.014033102
-0.053641248
-0.031463537
-0.045864452
-0.075134598
-0.0076075001
0.076173529
-0.033505153
-0.0083151245
0.018916493
0.095166825
0.0053492021
-0.10430757
-0.041832704
0.35216019
0.086010188
0.024448121
0.081742302
-0.16958264
-0.0062580835
0.076063909
0.27512434
0.020393888
0.014964221
-0.038716178
-0.033110354
-0.031252962
-0.014106715
-0.037633915
-0.025038878
-0.027729779
-0.079145439
-0.036556605
0.022092018
0.015592267
-0.01727663
-0.049883131
0.0019890836
0.0013632312
-0.030831316
-0.028759666
0.054142911
0.042814825
0.012060951
0.10918804
-0.11908337
0.064104609
-0.0026022827
0.022585941
0.015769634
-0.020408474
-0.10527851
-0.065560348
-0.022701059
0.0070985164
0.0009469823
-0.0168641
-0.060044914
-0.033894602
-0.050105657
0.034477185
-0.013913712
0.013738717
0.0069213975
0.062153164
0.028542597
-0.056657787
-0.037707832
-0.0056117661
0.050210152
0.010935119
0.077630609
-0.044483729
0.026616622
-0.10820048
-0.051820762
-0.032982793
-0.025394298
-0.052818008
0.023868067
-0.027584767
0.038331371
0.022914583
-0.01653742
-0.023999438
0.061303955
-0.034125458
-0.041314427
-0.075349346
-0.028484488
-0.013788571
-0.036659759
0.011963113
-0.036878224
-0.054826926
0.04975773
-0.013944996
-0.038977716
0.076844648
0.059935343
0.012063905
-0.15636975
0.10783678
-0.04358178
0.011239574
-0.054938015
0.023465697
0.024777647
0.037471056
0.024180798
-0.021679275
0.033913765
-0.0022864093
-0.03530075
-0.03894705
-0.012054948
-0.026743289
-0.024530172
-0.047973517
-0.033781242
0.041713502
0.00092018757
0.043231737
-0.0084306477
-0.04059023
0.0073656379
0.026960306
0.0087919282
-0.07478448
0.12064164
-0.064414881
0.028488033
-0.088314474
-0.050680485
-0.044610638
0.011730974
0.029447004
-0.032598045
-0.03948969
0.014112421
0.0046189311
0.033228923
0.00051409227
-0.0092174876
-0.045353051
0.016266219
-0.0053748591
0.010258303
-0.0017743661
-7.3818155e-05
0.018801132
0.05646899
-0.087846078
-0.063955002
-0.025573153
0.059728328
-0.088422053
-0.10128142
0.004974185
-0.038792327
-0.0014549765
0.027196884
0.02047614
-0.0010942154
-0.013578977
0.020055363
-0.041030724
-0.040474039
-0.013543025
-0.0022694387
0.0077924039
-0.024779154
0.0044676419
0.018964171
0.015474244
-0.035702836
-0.031128731
-0.0026867047
0.013597022
-0.040115383
-0.019834924
-0.034088407
0.050122958
-0.042288203
-0.037601646
0.025015617
-0.027301366
-0.050938878
-0.005631987
0.0090434263
0.046527434
0.0059178146
-0.036285322
0.024853077
-0.028468052
0.026142891
0.036032137
-0.049169298
-0.0080996491
0.011848046
-0.003050881
-0.01757383
-0.0058878036
-0.025049219
0.025824971
0.019796388
-0.086119957
-0.099552065
0.044696823
0.015103941
-0.051098838
-0.094676316
0.027660415
-0.039286837
-0.067831621
-0.012593017
-0.049306583
0.047925506
-0.014253025
-0.052151319
0.04683229
-0.0051768729
0.031533163
0.01769934
0.0043107271
-0.046727039
0.026910096
-0.016371727
0.060177159
0.045665409
0.0063462271
0.001573111
0.0037344291
-0.019524584
-0.085285105
0.071144797
-0.0080994172
-0.18927227
-0.057288703
-0.0039136545
-0.11469626
-0.0089941109
-0.038104538
0.0066907783
0.010253132
-0.034994129
-0.039003387
-0.061829656
-0.012699503
-0.0039298665
-0.06573955
-0.015741181
-0.0070753032
0.15387081
0.012838666
-0.057879101
-0.030340582
0.13549799
0.12787084
0.049184464
-0.0089417873
-0.058916334
0.02794815
-0.022693545
-0.022503104
-0.078656286
0.0077122166
0.019981312
0.011330878
-0.0060178838
-0.003913749
-0.01488204
0.0097332327
-0.019368049
-0.0015215749
-0.023959054
-0.0041124998
-0.032005128
-0.020404819
-0.024034949
-0.028217865
0.010267361
0.052073773
-0.031663995
-0.019096175
0.0098685334
-0.067094497
-0.057865176
-0.036376309
0.094250485
-0.076434493
-0.12232449
-0.0396864
-0.061020471
-0.00050178124
-0.040314946
-0.010046921
-0.030906729
-0.022814991
0.0080763716
0.024190957
-0.025358418
0.042909894
-0.01995758
0.0055948817
-0.02425459
-0.017422894
0.016819376
-0.0081038466
0.059968863
-0.0024636434
-0.012091584
0.027720893
-0.033089396
-0.055466849
-0.06707532
0.096993946
-0.073952369
-0.17611636
-0.10807637
0.016421409
-0.089654714
-0.019918863
0.046604801
0.024812492
-0.017090792
-0.011888614
0.006186028
0.022639476
-0.01048323
-0.042869564
-0.046192739
-0.009151441
-0.0052964818
0.0053801145
-0.01463524
-0.01881355
0.0089132115
0.038689319
0.023697566
0.0087465513
-0.048546735
-0.088574618
0.049556255
0.026969332
-0.16659296
-0.090707459
-0.077489465
-0.062611021
0.036324423
0.04952566
0.046320263
0.0053378688
-0.024019185
-0.0029390289
0.010274994
0.0022453812
-0.009505555
-0.060271386
-0.013054495
-0.047332112
-0.052964766
0.017025646
0.019742336
0.035128344
-0.014893762
-0.0045780069
-0.062390879
-0.0080481265
-0.16115345
0.078167669
0.10355727
-0.087413475
-0.006792489
-0.14423987
0.017535657
-0.016561242
-0.021761796
0.032846037
-0.035121031
-0.0042124726
0.014714356
-0.031796899
-0.037144247
0.045664977
0.0036931098
-0.022354946
-0.042409364
0.0054411888
0.056426842
-0.022300597
-0.059854273
0.022861691
-0.018042246
0.050018277
-0.09835048
-0.029463934
-0.022791853
-0.15599632
-0.066184901
-0.098066375
-0.0198124
0.018729998
-0.011004569
-0.019212274
-0.041486692
-0.019467967
-0.0059919041
-0.041651163
0.044901937
-0.017616218
0.058099005
-0.018968837
0.0049847374
0.0075605805
0.042230416
0.049917098
0.030335056
-0.044464059
-0.039578453
0.022892743
0.0099169314
-0.059587892
0.033888098
-0.035507485
-0.067525722
-0.09781082
-0.091435812
-0.0094657494
-0.025169725
-0.0040425723
0.020477969
-0.038014341
-0.041789871
0.019692928
-0.0052453396
0.039776787
-0.011250389
0.0052862456
-0.012155375
0.029876238
0.044947412
-0.026368501
0.012270638
-0.079176314
-0.021438723
-0.010375593
0.0047455588
0.054710727
-0.1533566
0.00060186523
-0.15144366
0.0079592001
-0.12374831
-0.094858937
0.024881566
-0.023038423
0.01939428
0.012397088
0.010674943
-0.03799371
-0.030743433
0.025159396
-0.041813564
-0.01515007
0.0096350024
-0.059024561
0.033839654
0.0047734855
-0.056038838
-0.007168354
-0.016251577
-0.027148267
0.029906586
0.040219408
0.032873727
-0.14612894
0.0022686278
-0.16986962
0.048791904
-0.12244846
-0.14694127
-0.00020847913
0.025493205
-0.020928187
0.0026403549
0.0058524488
0.055230264
-0.064774796
0.029325705
-0.060803548
-0.037841093
-0.018227333
-0.0040768506
-0.0029248148
0.0017471655
-0.041652489
0.032724131
0.0085332422
0.083307594
0.0065482352
-0.012655247
0.00079912122
-0.14434358
0.12280408
-0.30180293
-0.0023153694
-0.0056618885
-0.14924276
-0.0047283839
-0.24605545
-0.12748022
-0.35645333
-0.22887635
0.55501401
-2.2173924
-0.028703079
-0.10142846
-0.11959805
0.11638752
-0.027807876
0.042031001
-0.015133461
-0.14875914
-0.0064248135
-0.085531518
-0.098551616
-0.20291927
-0.011912164
0.072221123
0.099256068
0.30607113
-0.077808678
-0.012465042
-0.013183753
0.015496356
0.0012365741
-0.030727036
0.02569483
-0.12324039
-0.056926578
0.039931208
0.060907114
0.02221361
-0.033640627
0.031579979
0.015371667
-0.097563952
-0.12146243
-0.013817322
0.025879905
0.065905601
0.013957084
-0.15639554
0.081268445
0.095268317
-0.17112835
0.43003371
-0.22629447
-0.54141957
-0.18814406
-0.052897695
0.11799983
0.067549683
-0.047604971
0.12598316
0.11707614
0.082201354
-0.11870455
-0.22540617
-0.062101807
0.084034622
0.14014097
0.0163812
0.0022341006
0.032351229
-0.11827485
-0.018324809
0.12717392
-0.010661685
0.040903654
0.24234524
0.11830349
0.43448153
-0.29904544
0.3082712
-0.1387352
0.17777506
-0.073828429
0.12330473
0.12374675
0.072548352
0.03320903
0.042364661
-0.10457256
-0.13705815
-0.09053237
0.00022918648
0.18975435
0.052896228
-0.014470034
0.05910961
0.060908105
-0.065375485
0.039541256
-0.027625632
0.015234097
0.11690208
0.1795589
0.035817172
0.20554633
-0.047575716
0.17793998
-0.074116066
0.16436104
-0.0067377645
0.14363147
0.043747779
0.10985032
-0.024778204
0.050329
-0.06591548
-0.15025516
-0.068760283
0.024339108
0.082622327
0.10343537
-0.033919424
-0.065784268
0.07943894
-0.048398625
-0.055211037
-0.0045309486
-0.0047705648
0.14471355
0.31578729
-0.034432396
0.29139435
0.15004538
0.56855118
0.057908852
0.14401297
-0.098581061
-0.0022215147
-0.0030775215
-0.087120734
0.064074196
0.057205833
0.11681295
-0.090923689
-0.023751112
0.09162318
0.15879086
0.029817637
-0.031576328
-0.04200504
-0.052716415
-0.093314469
0.023149127
0.01758834
0.059654798
0.19670489
0.28554356
-0.10121028
0.16445123
0.41754362
0.66395187
-0.021339301
0.12339709
0.16300179
-0.066497773
-0.22610922
0.037993513
0.217563
-0.047299825
0.023940409
0.11672392
-0.32816768
0.47933027
0.11294903
0.039545085
-0.025644574
-0.087175116
0.1499598
-0.31669062
-0.12196365
0.12221085
-0.49567002
0.46398345
0.336548
0.10278947
0.091061324
0.52995771
1.0239973
0.2123844
-0.0039550895
0.087464288
-0.077602386
0.072096445
0.066160373
-0.053060699
-0.050707318
-0.062089033
-0.18698958
0.063754961
0.044651613
0.33519724
0.027374329
-0.044293117
0.22951658
-0.027823437
0.028706241
0.049133461
-0.026847266
0.041036759
0.038712621
0.24454892
0.16594829
0.12465908
0.3237505
0.38696679
-0.19555067
0.020477643
-0.25528601
0.066699564
0.18113188
0.074873291
0.17919138
-0.036736794
0.12217341
-0.12734161
-0.031569477
0.12416353
0.034589183
0.16314766
-0.0013541983
0.11853494
-0.036853477
0.070190296
0.21285035
0.024302334
-0.015868574
-0.010351477
0.15292966
0.16081081
0.14124985
0.34499636
0.59663576
-0.16744408
0.0016937805
-0.0057810615
-0.12732331
-0.0433986
-0.011758811
-0.050292205
-0.030300565
0.067233264
-0.049587447
0.15554927
0.20639904
0.21065773
0.09699697
0.048096318
0.11746565
-0.025534868
-0.0035895852
-0.0048634466
-0.15867996
0.025117753
0.23194267
0.13693213
0.031831559
0.36251485
0.21540754
0.38775313
-0.20738739
-0.0063502239
0.10399097
-0.0079596546
0.10475908
0.048420917
0.11043792
-0.00652909
0.20110385
0.098279141
-0.054607473
0.058466312
0.11342929
0.10182672
0.031394549
0.038305741
0.10491046
0.079064243
0.020693112
-0.29506353
-0.1254389
0.022918554
-0.033379946
0.15847555
0.23809282
0.30330572
0.13076372
-0.33167496
0.003939413
-0.010243729
0.067114376
0.12031508
0.2031776
-0.071222261
0.05011975
0.11991401
0.061280012
-0.068014719
-0.023920652
0.098526008
0.044212587
-0.014395302
-0.03618874
0.060533326
0.01358315
0.044143986
-0.016977485
0.06920255
0.040176101
-0.11350477
0.06559784
0.46974671
0.11362195
0.21715787
-0.1338771
-3.3401325e-06
-0.014194431
0.07643912
0.050398704
0.050201051
-0.078609496
0.045183327
0.062347885
0.19777413
0.022528393
-0.10732175
-0.068059474
0.011478544
-0.065916307
0.14566343
0.022974554
0.056166086
-0.05812915
0.082763381
0.17749368
0.035783332
0.048320271
0.25907525
0.21878007
0.12341166
0.3817499
-0.071762778
-0.018118346
-0.1907057
0.15541114
0.10687101
0.17175472
0.067179367
-0.074559838
0.10186324
0.077907659
-0.11149365
-0.11951426
0.094459549
0.16497104
0.0057570552
-0.039906219
0.04548933
0.097952075
0.0894944
0.02371401
-0.00090286508
0.0021112454
0.20225312
0.21974538
0.14861578
0.16214122
0.39476758
-0.18234515
-0.0036205433
-0.052575491
0.021101505
-0.071275465
0.063395761
0.20882279
-0.048977066
0.1180929
-0.13767296
0.01707598
0.062688589
0.16371875
0.12337756
-0.03895646
-0.024380431
-0.088954702
0.011065419
-0.010328845
0.04559692
0.025498774
0.1237502
0.37975243
0.029347796
0.10561521
0.33501363
0.23961768
-0.18526819
0.00018233864
0.21299668
-0.24775788
-0.24499823
-0.16300632
0.098891675
-0.25755405
-0.0031557337
0.1426844
-0.32427347
0.35610422
0.4002772
-0.021460406
-0.055656772
-0.13308771
0.3638579
-0.017334951
-0.034130875
0.12436394
-0.20131856
0.41102961
0.33856776
0.09166503
0.05857278
0.40885153
1.182685
0.41342244
0.0056577283
-0.073442377
0.0010031213
0.0489926
-0.027995549
0.012269816
0.1029356
0.12987617
0.05810469
-0.050469521
-0.086235553
-0.10263272
0.034217175
-0.091670416
0.14596705
0.14721861
-0.035219781
-0.11599103
0.095887639
0.13451831
0.014417006
0.31677523
0.063868828
0.2241645
0.1064599
0.30687436
-0.30018252
0.11518695
-0.10159575
0.14149813
0.16749661
0.17174901
-0.072857372
0.032306332
0.09118747
-0.035159323
0.036873754
0.071763977
-0.049418356
0.047603682
-0.060611084
-0.03633903
-0.063898087
-0.016136833
-0.071682699
0.034327596
0.18980683
0.11909988
0.12683967
0.061879892
0.13594541
0.096356563
0.39269292
0.15418836
-0.0810095
-0.048981126
-0.021811172
0.0081985481
-0.18937644
0.0019996171
-0.0067288298
-0.0090601398
0.11099475
-0.063595228
0.07180462
0.30786547
0.066467956
0.035648528
-0.062241755
0.079677872
0.039392326
0.0026059642
0.053372156
0.081450813
0.13605586
-0.0017376258
0.014857012
0.18270579
0.16576444
0.080388941
-0.06355007
-0.20665435
-0.087220125
-0.07251858
0.16444288
0.18301405
0.056731571
0.111702
0.025260076
0.12468397
-0.09095867
0.031000897
-0.050045565
0.13759927
-0.082270727
-0.12471628
-0.16334967
0.076203518
0.16060093
0.0098936735
-0.018081531
0.14737946
0.14064771
0.15434366
0.13847199
0.0860551
0.11863404
0.052838441
0.079091564
0.15739574
0.11332114
0.0021002695
-0.10399874
0.090939701
0.08260107
0.05367988
0.0056994436
0.12132124
-0.13208304
0.056885466
0.017695837
0.017374739
0.045258131
0.25462711
0.15415443
0.06569244
-0.074245863
0.071255036
-0.16803952
0.034450088
0.27212253
0.20813306
0.22297293
0.021163646
-0.45739964
-0.025158124
0.12442574
0.015091639
-0.1515917
-0.13795199
0.087860525
0.096474759
0.11826801
0.045757938
0.028255826
0.016610719
0.075814769
0.087952994
0.029169884
-0.0080494769
0.24645813
0.12664331
0.0093504423
-0.047966335
0.0078341924
-0.064948969
0.021709606
0.24943326
0.36086696
0.22169413
-0.059712183
-0.02998523
-0.0080166748
0.12939259
0.065517582
-0.087616958
-0.11850183
-0.0013883876
0.085593782
0.060203638
-0.15472907
0.12573852
0.22366415
0.024958367
0.099533558
0.056885626
-0.057249021
0.27886912
0.21832548
-0.039522186
-0.076834291
-0.071485594
0.045695115
0.0041375407
0.34397015
0.29168892
0.22407871
-0.15103051
0.029746983
0.0026551399
0.15978324
0.033901691
-0.084491767
-0.22487336
-0.037914153
0.033982202
-0.059513092
0.014788399
0.075267591
0.080155253
0.0074603828
-0.0095249582
0.029897757
0.074660182
0.25616312
0.20354864
0.096882097
-0.036094427
-0.0112369
0.1451633
0.082497358
0.18149814
0.20905592
0.33239868
-0.13529709
-0.2070654
-0.01219638
0.14279485
-0.033364147
-0.086314201
-0.22839478
0.028290823
-0.027406644
-0.080676578
0.24316035
0.041075673
0.089382924
0.12346966
-0.063383594
0.12898797
0.16807187
0.11833833
0.088225618
0.036833398
-0.1751613
0.090289503
0.092673525
-0.021875972
0.224483
0.22771403
0.097330645
-0.26288497
-0.27874362
0.026095673
0.30234993
0.059538472
1.207232
-0.4195036
-5.6464624
-7.671526
-0.029612768
-0.58130819
0.27599293
0.16893663
0.034328673
0.1716647
-0.0036240646
-0.1121643
-0.085018486
-0.026656097
-0.045292057
-0.062791958
0.039320946
0.31795248
0.18879777
-0.23863663
0.073247649
0.12839215
0.016233493
0.065070137
0.10855768
-0.044462726
0.16587108
0.00180795
0.012706484
0.13911103
0.21102305
-0.016941292
-0.0046344288
-0.0056276657
0.010335547
-0.13392606
-0.11225945
-0.021061642
0.01030041
0.15550385
-0.13415459
0.23019807
0.43536216
0.21207896
-0.067370638
-0.18160301
0.21562226
-0.49824342
-0.5237087
-0.023524765
-0.033073675
-0.0061815679
-0.011030864
0.012628308
-0.04476333
-0.007786667
-0.018455496
-0.029552722
-0.024615865
-0.030392077
-0.023292681
-0.013040953
-0.013180929
-0.01865779
-0.0032905049
-0.031461228
-0.010765797
0.012886419
-0.006534378
-0.0033214251
0.0197274
0.05960051
-0.062014773
-0.021972267
-0.032003932
-0.14445184
-0.011931871
0.014991914
0.0048624617
-0.0062946333
-0.063746296
0.019469919
-0.026247727
0.0010867222
0.01731145
-0.035210129
-0.034070391
-0.025546586
-0.01930633
-0.014944778
-0.0014494749
-0.01138862
-0.035116937
-0.03340888
0.0089078471
-0.0078819515
-0.021095769
-0.032561895
0.027986584
-0.063701428
0.0071005346
-0.045678534
0.023659512
-0.021624738
-0.0029670424
-0.0017037151
-0.0049580499
-0.038371105
-0.012534617
-0.016653854
-0.0077018151
0.0034661533
-0.015148193
0.011188827
-0.0070406683
-0.025762035
-0.030398009
-0.0097189881
-0.019389361
-0.010567429
-0.24191986
-0.044212077
-0.02895008
-0.033002112
-0.031422127
0.062450599
-0.022186929
0.0093674697
-0.04839506
-0.011857399
-0.00014920585
-0.040635321
0.0076605724
0.010430547
-0.011315878
-0.024666701
-0.00013548021
-0.047602527
-0.011575901
-0.018615501
-0.011357246
-0.018482903
0.0089321239
0.0032061813
-0.026371988
-0.037915248
-0.035831373
-0.017234042
0.0067468947
0.0074116727
0.01244047
-0.020695558
0.054882672
-0.020972945
0.025964709
0.0022560714
-0.0037085202
-0.021770902
0.0048056683
-0.0051190499
0.032511011
-0.012171311
-0.0036054926
-0.082706906
-0.012246118
-0.020027647
-0.043763999
-0.034175485
-0.020892097
-0.0023466679
-0.0073248325
0.0026848332
-0.010071034
-0.060821701
0.13421319
-0.012025411
-0.023387374
-0.020106623
-0.023267575
0.059966192
-0.059265383
0.10315298
-0.0040805726
0.009820235
-0.034929991
-0.013136371
-0.00011643754
0.036285874
-0.059433129
-0.019321477
0.0067611164
-0.040413957
-0.056701127
0.0026081284
0.015922271
0.0035912439
0.000773801
0.021618636
0.017390203
-0.044287924
-0.012006594
-0.24899623
0.01202392
-0.006637801
-0.038337439
-0.0476822
0.060178198
-0.042426366
0.018664284
-0.034947053
-0.009272106
0.0043851496
0.00016328882
-0.025152035
-0.010474104
0.0040036775
-0.010204812
-0.030869126
0.010421145
0.015517641
0.0090434784
0.0010010637
-0.036453865
-0.001464738
-0.019501803
0.016044136
-0.032719363
0.0073414082
0.0057614134
-0.022942722
-0.0246686
-0.040189497
-0.05976681
0.063898884
-0.009952222
-0.041432995
-0.057316601
-0.0081980508
-0.014811763
-0.02612335
-0.0060022487
-0.011821719
-0.23615423
-0.025498826
-0.033441622
0.0074087288
-0.027678516
0.0096909851
0.014049565
-0.041535001
0.0082454495
-0.013772541
-0.0066144639
-0.0015121192
-0.026161443
0.0039760927
-0.0065933065
0.0095257405
-0.030530738
-0.04348845
0.071975529
-0.036471639
0.017676862
