-0.16522315
-0.042961676
0.37742314
-0.55391157
-0.52181137
-0.76090699
-0.25679559
-0.41606385
-0.19752017
0.68426263
0.20336638
0.083300911
-0.36453354
0.16863915
-0.044465791
-0.4481425
-0.33447105
0.060245186
0.033918556
-0.20703313
0.9538973
0.25117984
-0.29681379
0.45852613
0.95459157
-0.1049223
1.001052
0.053202815
-0.19609201
0.11150365
-0.3259111
-0.38160282
-0.047384456
-0.12487312
-0.59586692
0.17593831
0.59717709
0.10038219
0.40704089
-0.22782652
0.18052813
-0.30243969
-0.069748297
-0.80396664
0.014104851
-0.6986748
0.30151629
0.48091948
0.61993563
-0.056292336
0.43741977
0.58483815
0.026769409
0.80256927
0.17673083
-0.80711782
0.3026627
-0.3881382
-0.65999335
0.24128571
-0.16663691
-0.22386062
0.18836288
0.42839554
0.19322088
0.25709036
-0.049341965
0.21244811
-0.31153187
0.12242948
0.029309386
0.030548703
-0.22858883
-0.20424339
0.55834734
0.15868795
0.032800149
0.14020203
0.71797317
0.46154851
0.59133518
-0.16096112
0.13428769
0.23521711
-0.042490069
-0.92272377
-0.093911685
-0.73304701
-0.25081462
0.17503889
0.65402579
-0.11743543
0.25947532
-0.39074272
0.35725182
0.12308243
-0.016452391
-0.084971443
-0.42977461
-0.36045167
0.2623142
0.35740814
-0.07937745
0.18264012
0.0067475075
0.97977638
0.30684474
0.73579073
0.079962581
-0.36288363
0.096824192
-0.2148159
-1.1914676
-0.047605157
-0.010314846
-0.57020539
0.31012455
0.95143622
0.52642238
-0.41309872
-0.22717917
0.066742361
0.48816949
-0.43284953
0.27214429
-0.21456707
-0.48520917
0.49381942
0.0087513328
0.57888478
0.46847475
0.03454569
0.77106237
0.88990223
0.022327602
0.10935339
-0.45885772
0.50064301
-0.71941692
-0.29031891
-0.029290199
-0.023086017
-0.17012608
0.24116589
0.48206627
0.16515973
-0.48561111
0.10919712
0.40430453
-0.40820014
0.26790982
0.49752921
0.093988635
-0.83342379
0.24427576
-0.17553385
0.72239161
-0.24701983
0.042520173
-0.22059044
0.78187597
0.020989874
0.40933737
-0.92572069
0.29252717
-1.8349082
-0.42550901
0.28545603
-0.9864797
0.71824741
0.2548317
0.34127629
0.1341207
-0.27026567
-0.21978793
0.3373915
0.54738855
0.13103947
0.25187805
-0.34995905
-0.96823347
-0.23497941
-0.11903687
0.69545817
-0.76379859
0.12761845
0.055969525
-0.65194762
-0.0012442835
-0.020531932
0.046881385
-0.72254181
-2.6703835
-0.28429109
0.49094838
-0.14124735
-0.1493001
0.12085969
0.92459118
-0.40782443
0.32100785
0.085038714
-0.49634054
0.54696012
0.30668387
-0.5467025
-0.16879381
-0.19822864
0.51367605
-0.31092629
-0.39885736
0.63129491
0.1070172
0.22200918
-0.027568536
0.029357506
0.084356323
0.25667921
-0.023758328
-0.87405849
0.25001952
0.27295557
0.12237561
-0.22621994
-0.52194315
0.48931596
0.13470748
-0.10316258
0.23957114
-0.59257501
-0.25922161
0.0940184
0.24423818
0.098007612
-0.16796942
0.49031866
-0.20893462
-1.1217046
0.47688508
0.94990021
-0.094527818
0.27188042
0.011162913
0.4906196
0.20582999
-0.21103163
0.2230715
-0.012075963
0.5001815
0.45478961
-0.33343646
-0.162681
0.47824851
-0.33526
0.090179048
-0.09852758
0.040712249
-0.0088832304
0.65959376
-0.38924924
-0.32775813
-0.91802138
0.30607399
-0.75012076
-0.45887727
0.18486413
0.73173577
-0.23154207
-0.51928747
-0.013379448
0.28926164
-0.95613456
-0.9419961
-0.19251803
0.16876717
0.27527109
0.29870614
-0.55223888
-0.38861591
0.46698409
0.064699292
-0.74984896
0.091360107
-0.092442833
0.17587519
0.82278621
0.65758431
-0.10201415
-0.26506644
0.13074902
-0.51795369
0.098003909
0.22003871
0.50868243
-0.53254235
-0.717188
0.02619192
0.62737089
-0.055627782
0.4954516
0.057165116
0.25177518
0.23709399
-0.98705256
-0.15009235
-0.60439855
0.39305857
-0.40551457
-0.49370593
0.053348769
0.27933407
0.3554768
0.48884407
-0.062091507
-0.12509532
0.16620584
-0.27523351
-0.60668415
0.014600274
-0.42393753
0.68272412
-0.21302412
-0.80403769
0.0024374921
-0.30593303
-0.11451816
-1.5477321
1.0440522
0.21734886
0.39056849
-0.65057486
-1.5809355
-0.25317243
0.35226473
-0.63255513
-0.39706466
0.095580436
-0.21270172
-0.7301802
0.96343297
0.57394516
-0.42596352
-0.5985707
0.48514357
-0.011594708
0.14471044
0.64296776
-0.10546643
-0.37803271
-0.53490895
0.021266935
-1.6628963
-0.44904262
0.21529673
0.49385133
0.060076077
-0.34166527
-0.0036077304
0.22711836
-0.11525054
0.43708637
-0.040542152
-1.2408186
-0.26393262
0.29585972
0.523579
-0.26256692
0.27236947
0.52930951
-0.26487714
-0.20597726
-0.49147093
0.77890807
0.72879118
-0.28260165
0.9049049
0.028304189
-0.026724447
-0.36009178
-0.16942646
-0.039525811
-0.01065183
0.055609606
0.072321594
0.068974741
0.2216823
-0.46033168
0.4870877
0.12102062
-0.56692666
0.12940262
0.19506364
-0.18035172
0.24004343
0.5813458
0.30202588
-0.27529314
0.46840629
-0.079422519
0.21375675
0.84983742
-0.17973466
-0.704427
-0.39855835
0.19324635
-0.23657468
-0.43745536
-0.21842775
0.17197864
-0.56999463
-0.18739055
0.31334892
0.25735497
0.1112031
0.50689101
-0.0014198693
-0.43110204
0.06135026
0.36365888
0.30219361
0.2819899
0.40345618
0.21046746
-0.27871892
0.25898278
0.18686023
0.20253965
0.32191625
0.12550412
-0.5843789
-0.44002041
0.19707905
-0.65795404
-0.29452288
0.25368741
0.34563982
-0.23569827
-0.62789255
0.44634688
0.2573891
0.13692759
-0.018450625
0.041404955
-0.55355752
-0.27663419
0.34430397
0.26353449
-0.011116611
-0.15900986
0.1220201
-0.36040539
0.065109342
0.48682964
0.51551747
-0.051358245
0.040554062
0.14874186
0.25714478
0.66022366
-0.23313256
0.033841189
0.034725487
-0.092968285
-0.74301875
-0.38447776
0.089330658
0.18416782
0.18371534
0.49631521
0.067417882
0.081344187
0.0075885491
0.081255838
-0.011147639
-0.94859719
-0.17958832
-0.30283803
-1.3587233
0.4694747
0.63161373
0.12902249
-0.25606781
0.52555943
-0.0099610016
0.36085576
0.96475202
-0.29963565
-0.078577727
0.19699742
-0.69155115
-1.4126213
0.21818724
0.11331057
0.24564384
-0.0042917039
0.48540419
-0.11574988
-0.92865223
0.10757101
0.025433078
0.54022139
-0.49652356
-0.16052254
0.53734404
0.2475123
0.79036754
-0.84313029
0.71329838
-0.35668334
-0.21979697
0.29813895
0.079454139
-0.027539318
-0.63368481
0.32411176
0.32328212
-0.57094073
0.19138655
0.38160846
0.050138071
-0.071975112
0.045296855
0.23103376
-0.069574773
-0.21809812
-0.012423672
0.19377464
0.53278613
-0.27503189
0.035810485
-0.09426038
0.2337238
0.42585036
-0.6300227
0.3754231
-0.18665883
0.24064891
-0.69652057
-0.18397823
-0.023495445
0.3366693
0.18687057
-0.94324946
-0.75458694
0.00099009671
0.25176901
0.15282473
-1.0221633
0.12347563
0.46592772
-0.10056798
0.23175554
-0.26964352
-0.24015936
0.53309864
0.22626129
0.025485137
-0.43101835
0.17847806
0.40166232
-0.24366342
0.35384873
-0.035822265
0.39671841
-1.0466099
0.057232682
-0.029135752
1.0556607
0.13451232
-2.3068421
-1.4335533
-0.073447272
0.24166878
0.49337348
-2.9263387
0.0046784636
0.46364388
-0.41460368
-0.25319865
-0.38654807
-0.76196569
0.1973896
0.70148861
-1.0236367
-0.070664398
-0.26173642
0.42334259
-0.42767635
-0.75678468
-0.12253666
1.1434944
-0.853576
0.024264416
0.0039683655
1.0774479
-0.85308206
-2.074924
-0.061415173
0.1475514
0.32002881
0.23959784
-1.9769093
-0.31686807
0.092436887
0.075650498
0.03672193
0.067690179
-0.23972188
0.23573239
0.7984643
0.21563172
0.23747073
0.018198522
-0.43674555
-1.142913
-0.41249081
0.4558875
-0.015501397
-0.40321124
-0.15085852
0.0010579993
1.2531456
0.33193403
-0.20820406
0.055005182
-0.35533464
0.20986821
-0.0050100666
-1.2899109
-2.0560057
-2.0671644
-2.157438
-2.0802381
-1.8053756
-2.3906453
-1.9432621
-1.9932183
-0.9767648
-0.62586844
0.53369009
1.4100703
2.9357057
2.1997032
0.37692145
0.22756815
0.31590518
0.17902251
-0.18476567
-0.17622776
0.020575859
0.29767269
-0.055327896
0.4965027
0.16093609
-0.68099046
0.079098202
0.27020499
0.24488725
0.073729791
-0.36532006
-0.3365249
0.049532108
0.49524453
-0.28441858
1.5488034
0.43657023
0.46905234
-0.025721785
0.077642918
-0.093618184
0.21355848
0.18139978
-0.098382264
-0.28883392
-0.16589871
0.4465028
0.32814741
-0.30959517
0.18603164
0.12714255
0.19607691
-0.27832252
-0.30216262
-0.19184586
-0.53197783
-1.0641583
-0.60180956
-0.63827914
-0.032432653
0.19043216
-0.29847515
0.20271747
-0.23839624
-0.32908294
-0.41588897
-0.73101938
-0.085139088
0.06411355
-1.5109257
0.027632991
-0.47263968
-0.061663035
-0.05085668
-0.21291678
-0.61785126
0.34688762
0.15344863
-0.23164997
-0.17419115
0.078490101
0.076487273
-0.68927681
-0.78304702
-0.41370973
-0.12128232
-0.2392395
-0.2785919
-0.32922232
-0.046928916
0.31362233
-0.79620516
-0.77338815
-0.21022536
0.58026952
0.31847739
-0.20187266
-0.2765252
-0.20253187
-0.1796037
0.16689862
-0.32511753
-0.22580627
0.35885328
0.38181368
0.055323593
0.25836724
-0.029945077
-0.28054839
-0.60900843
-0.743788
-0.47175351
-0.66095716
-0.5217849
-0.41862181
-0.22603336
0.37340298
-0.2328009
-0.20610934
-0.18691425
-0.26720157
0.29465786
0.45934635
0.093232051
0.066328116
-0.18522012
-0.31665224
0.27657747
-0.12428771
-0.56184083
0.5515179
0.45626035
-0.34227517
-0.1730206
-0.059885677
-0.068793967
-0.36794859
-0.88206661
-0.49265507
-0.46785054
-0.063432708
-0.64277375
0.29985577
-0.17197499
-0.18162452
-0.23022817
-0.13527231
0.0029378007
-0.089257702
0.011895219
0.017134931
0.43922466
-0.76105225
-0.35318005
-0.059535142
0.29905063
-0.42293918
0.20649742
0.040905718
-1.1142787
0.1203055
0.048210297
-0.49856526
-0.79452944
-0.60458809
-0.22237229
-0.34438455
0.22737165
-0.1320955
0.10375474
0.39279032
-0.32418114
-0.33227563
-0.22997899
-0.4112142
-0.73986727
-0.93165219
0.021721417
0.052376617
0.11808624
-0.11243688
0.33931109
0.39956126
-0.23390472
0.54244053
0.14508392
-0.5721668
0.27345571
-0.67778093
-0.1010709
-0.72458339
-1.1890317
-0.38928398
-0.032201473
-0.43085241
-0.947303
0.087688237
-0.24273048
-0.16822532
-0.34773555
-0.4680697
-0.078183785
0.25429296
0.53162086
-0.02274861
-0.30946946
-0.17413539
-0.042830516
-0.10925139
0.3782458
-0.38545775
0.39749566
-0.15691316
-1.0108383
-0.010052276
-0.42020735
0.19735403
-0.58671314
-0.8556937
-0.21430002
-0.072299697
-0.45890456
0.1908365
0.2015015
0.18100718
-0.37276724
-0.27607915
-0.25162667
-0.49513605
0.28418067
0.50032574
-0.016501961
-0.28574038
-0.7412672
0.24441458
-0.16564102
0.3080121
-0.55165732
0.58483875
-0.31998268
-0.60915875
-0.0048611723
-0.23168167
-0.26292804
-0.30199867
-0.812572
-0.53698808
0.045715302
-0.30854997
0.14851752
0.045835737
0.28399915
-0.17934722
-0.40236932
-0.35847759
0.025149779
-0.12354554
0.2505329
-0.0048507564
-0.17853379
-0.23856743
-0.2234786
0.045504935
-0.013023407
-0.29194075
0.53644723
-0.12200248
-0.69864661
0.28331426
-0.54494667
-0.41806889
-0.4746097
-0.50369
-0.51039165
-0.042926285
-0.39709014
-0.20267263
0.58643001
0.30930832
-0.28656101
-0.44859368
-0.53402203
-0.80420977
0.45740843
0.43032441
0.01757583
-0.34778249
-0.13023545
-0.65172911
0.027212415
-0.32940179
0.21761796
0.0045548133
-0.53328997
-0.28527242
-0.46937409
0.083305657
0.31157053
-0.46780723
-0.32028449
-0.86050928
-0.27806109
0.32760787
-0.11222608
0.44116634
-0.27913645
0.023452116
-0.42560938
-0.91284549
-0.98452199
0.87049103
-0.11857617
-0.0043822122
-0.32688761
-0.39157468
0.30353823
-0.39166957
-0.40659168
-0.065659828
-0.22400178
0.18562075
0.49538696
-0.79001993
-0.0080384985
0.38247347
-0.57149953
-0.70719224
-0.3689661
-0.52930939
0.4265196
-0.096844174
0.085251756
-0.51906723
-0.07268855
-0.73570478
-0.64894873
-0.45378566
0.48741701
-0.076217294
-0.020228807
-0.21353295
0.0072815451
-0.21912798
-0.55330032
-0.24935836
0.28879461
-0.15007456
-0.0018506665
-0.046467692
-0.55316597
-0.1911006
0.32975945
-0.70015204
-0.24494292
-0.45530963
-0.15798195
-0.20208734
-0.21746245
0.28204766
-0.34399173
-0.002660457
-0.68125355
-0.40885547
-0.82816374
0.98307347
0.11550381
0.021405963
-0.38328624
0.05987148
0.061300345
-0.49067241
-0.11888953
0.39092857
0.29728782
-0.31732231
0.54205078
-0.46750069
-0.68090504
0.29973111
-0.49806035
-0.51941103
-0.62808335
-0.41811112
-0.1607997
-0.083178833
0.75852311
-0.99667495
-0.19686376
-0.28503138
-0.38870415
-0.22167447
0.85031581
0.3598671
-0.01781759
-0.26377746
-0.074651733
-0.11695097
0.6094377
0.45001152
0.495902
0.047388077
-0.42161956
-0.30592436
-0.65895212
-0.55082101
0.85799235
-0.72578406
-0.71873629
-0.8796795
-0.27580047
-0.14764996
-0.47653514
-0.022757012
-0.36059424
-0.28785789
-0.2999588
-0.91354299
-0.34058285
0.39274433
-0.11959836
-0.025031785
-0.65391117
0.38268983
-0.060356382
0.31941456
0.26835462
0.058649942
-0.08615315
-0.63828176
0.082557075
-0.24379855
-0.39090943
0.82553709
-0.59180826
-0.72459674
-0.50676727
-0.37516072
-0.18882011
-0.22263241
0.070761152
-0.48606297
-0.084111653
-0.51040006
-0.50825721
-0.23453869
0.25451243
0.31287643
-0.50440454
-0.69255531
0.15894371
0.10774681
0.089934796
0.27184153
-0.071545295
-0.016642818
-0.4962711
0.24756566
-0.51623416
-0.8333286
0.54455239
-0.05366781
-0.41126275
-0.69642395
-0.21293852
-0.358298
-0.066319831
0.057196923
-0.33810845
-0.15926474
-0.58829653
-0.26350665
-0.57481134
0.59653068
0.44770929
-0.45214465
-0.38409221
0.089410894
-0.17764229
0.14177108
0.32169583
-0.044672981
-0.19159973
-0.64505529
-0.04604955
-0.12934004
-0.63425046
0.17471401
-0.30445409
-0.38634518
-0.35883093
0.15089814
0.11730114
-0.20743996
0.063137978
-0.73638201
-0.18163671
-0.42276639
-0.53109848
-0.57269913
0.46227497
0.46461722
-0.71542323
-0.24629791
0.0024253638
-0.14363021
-0.37671322
0.48947453
-0.27518117
-0.26777717
-0.3372609
0.11589591
-0.29130918
-0.20933381
0.33464131
-0.27419263
-0.33933842
-0.082036823
-0.13009197
-0.21574116
-0.053112026
-0.097379833
-0.18877897
-0.75084245
-0.35573685
-0.8540566
-0.96432465
0.12040186
0.1301531
-1.8809367
-0.4175123
-0.013146969
0.077694148
-0.30489314
0.71952701
-0.08168336
-0.49640906
-0.14011142
-0.23731196
0.036622304
-0.57275808
0.51953626
-0.4968881
-0.62517047
0.035858382
-0.015799252
0.025346996
-0.48240241
-0.00802592
-0.21207039
-0.61427289
-0.33009318
0.076849349
-0.69408309
0.10536593
-0.22863191
0.029258011
-0.33892071
0.082188725
0.25826794
-0.4176414
0.77383852
-0.089429453
-0.86384255
-0.090562537
-0.40774485
0.16564806
-0.15689263
0.16982852
-0.450867
-0.6175319
-0.078550011
0.25328141
-0.47989708
-0.25433353
0.029295519
-0.32989347
-0.41053948
-0.25547183
-0.20220128
-0.60094345
0.1871178
-0.29441327
0.027313843
-0.82512969
-0.14370921
0.084112078
-0.0024589894
0.64849579
-0.19180197
-0.51726717
0.050802104
-0.41327077
0.14671507
0.04768917
-0.41257212
-0.24663652
-0.83384269
-0.14710659
0.23513651
-0.14962643
-0.24044235
0.0050721131
-0.068101093
-0.28163317
-0.15444954
-0.398002
-0.21404634
0.15165001
0.023664512
-0.010538719
-0.85907423
-0.052026909
0.028368829
0.075596109
0.35586074
-0.14046031
-0.34956604
0.2215313
-0.25175789
0.095361106
0.16538839
-0.33375192
-0.15112513
-0.96367389
-0.37619224
0.025952071
-0.40808478
-0.1859248
0.086260319
-0.24566722
-0.16631781
-0.25681898
-0.31960496
-0.13433798
0.23297933
-0.036070231
0.024343535
-0.45148307
0.10491771
0.21157613
0.010192405
-0.021886609
-0.12668091
-0.67362142
0.1679063
-0.21747667
0.34941417
0.23735881
-0.26128456
-0.099891633
-1.1465322
-0.36921078
-0.14470293
-0.25189736
-0.20929269
0.078673199
-0.41062701
-0.19836202
-0.3098298
-0.17474537
-0.59519958
0.029690819
0.076192744
0.0057270289
1.2744179
0.17043777
-0.2632778
-0.074739784
-1.62555
-7.6402192
0.0073928772
-2.6268978
-2.6176362
-2.1337411
-2.2039063
-1.5713099
-1.2751027
-0.38844672
-0.32552025
-0.076628365
-0.27643725
-0.10345488
0.1611165
0.1862732
0.60970324
4.7000322
0.32878757
0.30479011
-0.85383576
-0.12537585
0.86774778
-0.69548184
-0.011826337
0.44153333
-0.13946024
-0.11060596
0.41006452
0.017538305
-0.32044488
-1.2306275
-1.3964301
-0.45403206
0.22656845
0.062407523
-0.45598131
-0.22485647
0.059274964
-1.9425373
-0.67651135
0.14930077
-3.3793032
2.0935264
0.077211119
0.12609586
-2.0707092
0.11345558
-0.19129062
-0.27054355
0.68211347
0.54188132
0.40570921
-0.25035039
0.1249913
0.91784173
0.63307112
0.32391635
0.22483955
-0.20429061
-0.2621811
-0.48548943
0.016910324
-0.27677634
0.41751608
0.16187429
0.23697779
-0.52080452
0.42437986
0.41837087
0.050418422
-0.23438787
-0.41197219
-0.12804802
-0.28706434
-0.072943531
-0.033278685
0.34985331
0.53487557
-0.061399035
-0.30870682
0.14706036
0.8738659
-0.083097599
-0.013397466
0.19856846
-0.19933191
-0.014460813
-0.25060022
-0.27656311
-0.04022802
0.26148373
0.17114103
0.10708288
-0.11695625
-0.13750762
-0.18155584
0.22538044
-0.26442111
0.30235425
-0.15273167
-0.35704505
-0.56230837
-0.25956711
0.93077332
0.76112735
0.36113036
-0.0090617584
0.026426543
0.053031825
1.1672446
0.18535268
-0.018595671
-0.23555805
0.3551001
-0.37181541
-0.13968605
-0.01491106
-0.16686773
0.41623294
-0.039021041
-0.14327842
0.24433888
0.065403156
-0.1213266
-0.33706525
-0.097509317
-0.26952216
-0.043244585
-0.38446775
-0.10545328
0.061284106
0.22522523
-0.22560574
-0.13802446
0.63269496
-0.23581395
0.83570641
0.00038553818
0.37175313
-0.27140662
-0.26039091
-0.22349587
-0.098814361
0.44719857
-0.2659345
0.25295335
0.45098689
-0.17492838
-0.2837449
0.22202532
0.0033883657
0.53826463
-0.13681252
0.24236041
0.45415121
-0.054551393
-0.27637085
0.053649522
0.098421052
-0.227788
-0.39384568
0.29986507
-0.40688747
1.8943454
0.96684378
-0.36273655
-0.098488845
-0.2895377
1.2115866
-0.47933048
-0.49692255
0.10111767
0.41522813
0.83695424
0.62319237
-0.63761634
1.1941371
-0.40095434
-0.61185944
0.5043388
0.0084263142
0.393603
-0.29120407
0.22414795
-0.17279182
-0.16419955
-0.15588364
0.024052639
-0.041948795
0.24920471
-0.085759968
0.25224173
-0.22677897
-0.19316332
-0.17509407
-0.21697168
0.56058609
-0.069985807
-0.14637735
0.22871755
-0.30655912
0.22941706
0.75233692
-1.3107693
0.15795638
0.70885122
0.10290381
-0.017721102
0.10838813
-0.13884029
0.40638024
0.69709176
0.47582248
-0.50899184
-0.53428257
0.87365729
-0.11008763
0.33440796
-0.071906134
-0.27431327
-0.26344371
-0.23138233
-0.51875013
0.73774308
-0.086547956
0.021193055
0.26600999
0.3566927
0.61676508
-0.74009007
-0.29422003
0.54769015
-0.5208295
-0.37772977
-0.0032912667
0.42708126
0.053532034
0.11565733
0.17802589
0.12701823
-0.26498058
-0.24633507
0.081575908
-0.015541465
-0.080613106
0.43651757
0.18560319
-0.26261196
-0.25684917
-0.24151932
0.78395861
-0.36101723
0.1140514
-0.25571635
-0.51936346
0.36551148
-0.37174881
-0.38176134
0.60218191
-0.35346738
0.17123234
-0.00047637714
0.54390478
0.093705952
0.090150535
0.17597041
1.6466234
-0.15744464
-0.11608554
0.19213894
-0.27977058
-0.73011595
-0.30439433
0.15545088
-0.17705856
-0.23806515
-0.0065355208
1.6922976
-0.11819223
-0.054036304
0.36126333
-0.7171877
-0.19553845
0.11538491
-0.011149152
-0.53939748
0.01105289
-0.34256074
0.024810996
0.14199425
-0.23089023
-0.068186089
0.13942818
0.78279579
-0.13243072
0.66461664
3.7063777
-0.18310487
-0.51287806
-0.26260954
-0.3448768
-0.50072032
-0.23100452
-0.20819974
0.17258583
0.65488029
-0.10909174
-0.087810352
-0.064551227
0.36453268
0.21703634
-0.13684203
0.088590816
-0.45492521
-0.21329573
-0.014469955
-0.34937829
0.57947767
0.50606292
-0.13836685
0.84436458
0.0023863143
-0.52296692
1.8510149
0.030503349
-0.24029151
-0.28293836
-0.14969763
-0.13516665
0.2513091
-0.2582967
-0.16440648
0.65377885
-0.13216563
-0.28878
0.10930098
-0.18721907
-0.69918096
0.038985137
0.9709745
-0.48079816
-0.32679588
-0.0014801858
0.21958899
0.36830965
0.1015371
-0.53191221
0.059390042
-0.13939258
-0.37385917
1.7834979
-0.21413668
0.22237231
-0.061509293
-0.24831805
-0.15872878
0.32145974
-0.15243168
-0.32153004
-0.074559405
-0.15772265
0.34692693
0.39071557
-0.0094190277
-0.012007734
-0.12185002
1.4365374
-0.24731411
-0.14070809
-0.027728228
-0.10440129
0.47853827
-0.044266194
-0.61561894
0.78329116
0.08044035
0.24942009
0.61486727
-0.19756873
-0.46935365
-0.31471974
0.21637803
-0.18888861
0.14631075
-0.27564976
0.047641613
0.25284186
-0.16899036
0.19074717
-0.23832439
0.4261755
0.44309676
-0.5060277
0.71900249
0.36750484
-0.00021919888
-0.0092557156
-0.4067139
-0.01801694
0.14658681
-0.51890653
2.6476796
0.33036113
0.34692261
0.34898621
-0.062026888
-0.18984298
-0.37567058
0.09679468
0.049432319
0.45956707
-0.12945907
-0.0996309
0.096357442
-0.13934159
-0.29850847
-0.20897821
0.35499063
-0.26290184
0.18251429
0.40410158
-0.5042302
-0.43293878
0.0052494956
-0.31495965
-0.10705669
0.81996155
0.071658336
2.1967673
0.92244238
-0.17530574
-0.021075724
0.020266997
0.34137204
-0.19515049
-0.042211346
0.024491733
0.42957523
-0.20127159
-0.11823797
-0.50037646
0.1522952
-0.55593264
-0.32016882
-0.067951716
0.28560573
0.47048527
-0.18150406
-0.19856019
-0.40571767
-0.21570735
-0.22452632
0.42023674
0.010348317
0.68089271
0.96400803
0.43526375
0.48009875
-0.080877185
-0.099204801
-0.36732098
-0.16674504
0.40189371
-0.023773223
0.44277132
-0.36083838
0.24113591
0.19529755
-0.094604895
-0.36181048
-0.75741833
-0.26647368
0.03981144
0.18256807
0.065468341
0.19493239
-0.1534663
-0.01349822
-0.15270171
-0.046831354
0.051250935
-0.11113888
-0.042090978
0.14815085
0.17095086
-0.2040768
-0.014892742
-0.071221054
0.023552811
0.2130008
0.074115455
-0.018540792
-0.17027871
-0.059641238
0.21719098
1.6323991
-0.26796612
-0.41967675
-0.081173986
0.20895819
-0.0085280854
-0.012934483
0.25490636
-0.39986458
-0.15068869
-0.12748456
0.89206755
-0.020616308
0.03709279
-0.063246816
0.054953765
0.7179724
0.1766379
-0.026303537
0.28747848
-0.21856055
0.19500802
0.23061101
-0.17912421
-0.094707593
0.75659865
-0.025784399
-0.032778785
-0.42476946
-0.51791155
-0.56341302
-0.20248321
0.049659844
0.52887321
0.35174266
-0.39653108
-0.23946084
-0.25900671
0.089890756
-0.027017374
0.17241563
-0.11877126
-0.30428669
-0.62726617
1.6894778
-0.047924429
0.16534273
-0.20885573
0.15544811
-0.2627162
0.30777752
-0.21945788
0.089872345
-0.18636085
-0.11471014
0.30507261
0.063042358
0.40479106
1.1341822
0.14596818
-1.287716
0.87804735
-0.23416188
0.023139788
-0.04638274
-0.17715906
0.33067116
0.087928683
1.8397419
-0.42614967
-0.31367379
3.1877551
0.070857748
-0.18495689
0.38029623
-0.24521139
-0.26684672
0.26314756
-0.19225331
-0.24657279
-0.32192302
-0.20947291
0.062643766
-0.13325983
-0.23485936
-0.48379615
0.35586208
-0.30337307
0.4631274
-0.16063431
-0.028141139
-0.36119953
-0.12431829
-0.43904445
0.11812056
2.113817
0.4849816
0.1998
3.0621281
-0.11849716
0.10331615
-0.24731107
-0.38078198
-0.13175051
-0.39838675
0.009703137
-0.25386
-0.15953159
-0.29033193
0.22703673
0.0029236341
0.042327706
0.40261438
-0.25720528
-0.42416713
0.38111764
-0.2363086
0.0068886885
-0.19453765
0.2268704
-0.32821712
-0.0055371248
0.63834196
0.71711183
0.51017821
2.1065221
-0.37778142
-0.11264058
-0.12233974
-0.35175067
-0.011491075
-0.3798185
-0.17709509
-0.063446976
0.014340107
0.098740987
0.33459669
-0.27187207
-0.4219192
-0.049531396
0.305141
-0.16844307
0.20869128
0.017989937
-0.0047629992
-0.13075386
-0.18091936
-0.1485664
0.50538504
1.069543
0.41937605
0.24322897
3.5886018
-0.0046809819
-0.36945069
0.043443985
-0.12835334
-0.14437973
-0.52045554
0.96503842
0.075825959
0.25459555
-0.18905838
0.64739352
-0.61130035
-0.84437352
0.89432192
0.11315166
-0.37593082
-0.070973769
0.23406409
-0.024785111
-0.50874609
0.56644261
-0.40785578
-0.065331675
0.097179405
1.1218837
-0.012184122
3.4127479
5.1587257
0.63081485
-0.78570044
-0.99146712
-1.0543545
-1.053908
-1.1566954
-1.1571341
-1.123686
-0.21872464
2.385879
5.1362205
10.802326
7.1657429
-0.24917622
-0.055240124
-0.28741568
-0.053145804
0.21341063
-0.081867434
-0.20843177
0.31560969
-0.035203196
-0.085403331
0.38766855
0.16860054
-0.11737235
-0.32181996
-0.51913035
0.34106356
0.72592509
0.0064402348
-0.19231799
-0.40884933
0.11543091
-0.75736594
0.50891584
-0.14546815
-0.028002597
0.51663518
0.042772766
-0.071573794
0.32961223
0.2624383
-0.15318817
-2.8440112e-05
-0.42632428
-0.62972516
0.16765864
0.39576265
0.295744
0.5075348
-0.45173413
-0.058466606
-1.8194745
-0.056832958
0.10395142
0.31358689
0.28691527
0.28688103
-0.35356188
0.1658546
-0.43422332
-0.3838653
0.096781015
0.78491026
0.70500964
0.10592559
0.16063978
-0.69971281
0.21397215
-0.82422775
0.12435105
0.15583192
0.0010416538
0.26413295
0.51910859
0.11609049
0.29301476
0.22530378
-0.67497724
-0.95601815
0.13557173
0.15205576
0.015732585
0.2580457
-0.1004808
-0.20777854
0.21890804
-1.1749195
0.026843399
0.51552081
0.73192745
0.29296729
0.29046333
-0.17006128
-0.060735624
-0.37382779
0.076564051
0.14430173
-0.42356703
0.088880062
-0.047692098
0.13955683
0.079626426
0.29325029
-0.33808538
-0.22315192
0.12143261
0.092413291
0.25412899
0.451785
0.25829664
0.18299246
0.017480666
0.15145475
-0.96042609
-0.15900506
0.44706625
0.57191306
-0.094894171
-0.15779434
-0.015410299
0.3309505
-0.06824255
0.3587901
-0.045413435
0.3284598
0.12290931
0.12016477
0.13608588
0.018606303
0.12176193
-0.34344658
-0.57504195
0.21353094
0.14825231
-0.037482038
0.30094448
0.24587831
-0.019975213
-0.82179284
0.06505312
-0.9778446
0.20451766
0.6221742
0.51783741
-0.46221051
0.059457507
0.27083769
0.64349782
-0.011139354
0.52478862
-0.41749281
-0.66402042
0.25643209
0.24141869
-0.091378614
-0.12043171
-0.01671044
-0.10507824
-0.074017942
0.18957159
0.14251664
0.18106669
1.5164909
-0.29320842
0.033566348
-0.9671855
-0.060463525
-1.1361424
0.25428849
0.90117788
0.50655574
-0.11066604
-1.065973
0.70412469
0.02561981
0.15501595
0.55317003
0.1970927
-0.75795734
0.10828993
0.25237957
0.02247601
0.17432284
0.18980704
0.17965731
-0.12951912
0.23826647
0.10955665
0.12590703
0.26634392
-0.17038929
0.07965301
-1.5365046
-0.4461076
-0.75757933
0.015402088
0.66990453
0.50631011
0.10514322
0.014138889
0.35535684
0.023153799
0.22130452
0.33415028
-0.50563717
-0.28122577
0.017276267
0.13768469
0.25061747
-0.28975824
-0.7597928
0.24771251
0.12464444
0.28546938
-0.0027242168
0.19086385
0.46896723
-1.4618959
-0.012842603
-0.73295724
-0.68508875
0.048733823
0.24640985
0.44481289
0.53017825
0.10248521
0.99074471
0.50263196
-0.02136573
0.6241259
0.25472355
0.1579781
-0.42731234
0.25227514
0.12191371
0.15029036
-0.33949715
-0.78295225
-0.16572379
0.17972663
0.22070593
-0.25604567
0.40044728
-0.26206735
-0.93731213
0.46335614
-1.2472209
-0.021634327
0.25828812
-0.23524639
0.39196482
0.50474596
0.43514684
0.1860162
-0.4159188
0.02081541
0.47408661
-0.098721415
0.21548797
-0.4585484
0.16550905
-0.040250447
0.058520246
0.025570778
0.1078964
0.25210944
0.25896704
0.014517697
-0.72411364
0.20531009
0.17448162
-0.80698556
0.015290289
-0.62645072
-0.58414531
0.65279198
-0.19778562
0.28412443
0.46451735
0.57657987
0.62681681
-0.3393921
0.026362117
0.075616561
-0.85289645
-0.024583284
0.19110331
0.27869776
0.062634513
0.25692397
0.38713467
-0.0013404445
-0.46330053
0.22627117
0.052682936
0.11429749
-0.95645893
-0.35114437
0.68337154
-0.045041874
-0.15261546
-0.18733713
-0.49252298
0.49722967
0.09098839
0.49236232
1.0195768
0.094761804
0.2107877
0.010576259
0.078191541
-0.010723765
-0.72602057
0.1411397
0.11724676
0.42064837
0.41809994
0.37291968
0.074915275
-1.0192579
-0.30413452
0.25442541
0.25370583
-1.3244659
-0.28840742
0.58965218
0.063409626
-0.44525719
-0.54535103
-0.91487497
0.23089343
0.29179317
0.59405315
0.44718271
-0.39782825
-0.19706349
-0.01716144
0.037141636
-0.18552311
0.20336053
0.12033683
0.066508248
-0.26647571
0.12971836
0.38115746
-0.9156152
-0.43955621
-0.37006482
0.2606754
0.11845153
-0.14600199
0.43158177
0.72921729
0.1821921
-0.0092721079
-0.029862657
-0.3076635
0.10526217
0.59229726
0.51629549
0.36242992
-0.099262565
-0.16809629
0.029036393
-0.61886638
0.23761998
0.25485137
-0.51585865
0.13340998
-0.069861829
-0.060403936
0.52604198
0.095257729
-1.1975716
-0.85117811
0.11138128
-0.017840272
0.046563383
0.22189642
0.52622533
-0.050784592
0.20819975
-0.6620158
-0.062782452
0.058582861
0.87204218
0.86563081
-0.76076639
0.04481139
-0.19091363
-0.022967234
-0.024642572
-0.1038375
0.39296812
0.15723151
-0.39058807
-0.31841704
-0.72199017
0.020966554
-0.66502416
-0.25150931
-0.21049041
0.11512982
-0.015945958
0.14669012
0.69833267
0.5057714
-0.42918295
0.2267154
-0.32948381
0.22147816
-0.48442429
0.98100388
0.64005655
-0.53559178
-1.9953094
-0.24931525
-0.0090477429
-0.13572064
0.15467674
0.26811129
0.21047617
-0.049378939
0.061369181
-0.59042448
0.2278323
0.1425713
-0.49835294
-0.3326759
0.24596842
-0.030592469
-0.030417714
0.52166891
0.40815312
-0.44902909
0.089842573
-0.46396756
-0.083820194
0.11196813
0.74060827
0.5094505
0.060694288
-0.76199913
0.073151268
0.094173521
0.22864032
-0.1390404
0.1641897
0.22905098
-0.030481806
0.1726377
-0.67119902
0.49933314
-0.052847978
-0.57144272
-0.24604614
0.21859021
0.13268998
0.19815825
0.51492256
0.045414813
-0.80510718
-0.49102825
-1.1398818
-0.15767083
0.2462787
0.21776539
0.49608722
0.42179185
0.20124871
0.23599486
0.42937526
0.45273775
-0.016088683
-0.29104477
0.07452929
-0.7434364
0.054539006
-0.2703822
0.47603908
0.2604948
-0.18438192
-0.39804411
0.23111671
-0.23670135
-0.27169076
0.50356525
0.047510423
-0.051487051
-0.48156264
-1.4320321
0.20448664
0.49607354
0.39500859
0.52504414
0.41211647
0.47963461
0.17315994
0.33803451
0.12267733
-0.37571329
-0.13341945
0.041912269
0.23826152
0.12258753
-0.29101908
0.40110007
0.25431171
-0.0075916671
0.073840432
-0.063359901
-0.34144309
0.43703711
-0.14420576
-0.25529736
0.091187961
-0.88063437
-1.2813381
0.31446487
0.47136006
0.059049658
0.30522424
0.96960413
0.25471523
-0.18234743
0.12620278
0.50033361
-0.082691878
-1.1960194
0.27367827
0.20662604
-0.38280717
-0.091749974
-0.2509934
0.20606914
0.00042521089
0.28694957
0.27865392
0.25172594
0.053190351
-0.26266393
0.18064174
0.46631891
0.0031634571
-0.3590112
0.2565985
-1.47263
0.92381376
0.4505862
-0.79719013
-0.423951
-0.72571588
0.015233692
-0.0059941015
-0.13298889
-0.39605671
0.27222475
0.02426606
-0.58880419
-0.32676464
-0.23394836
0.26367375
0.0037038762
0.50822216
0.27060443
0.12318445
-0.1925464
0.52921718
0.11827277
0.46839997
-0.065519348
-0.20230408
0.16556917
-0.67022246
0.23775753
0.16039325
0.53344238
-0.7035287
-0.4732649
0.018191436
0.13175191
0.12780802
-0.1329722
-0.063123241
0.16992536
-0.18975578
-0.29841897
-0.018449472
0.34358636
0.17812936
-0.058924232
0.32720265
-0.10183703
-0.77510661
0.51023644
0.36095476
0.091840446
0.024530968
-0.65052742
0.14971687
0.053509191
-1.0510839
-0.52073085
1.7651733
-0.55620474
-0.22827132
0.0081464117
-0.029056475
-0.016581299
-0.24249355
-0.17837234
0.13339864
-0.11938269
-0.010323811
-0.73422694
0.25260556
0.25516331
-0.0073744417
-0.44090164
-0.30606899
-0.71515697
0.72907341
0.15544835
0.23726194
0.25888553
-0.60125375
0.25655237
0.21480656
0.83031726
-0.10939738
0.71931326
-0.10712561
-0.13467434
0.024717377
0.14190038
-0.39965051
0.078690492
0.51103652
0.080497839
0.25265598
0.24647485
-0.96352834
-0.033750214
0.24662395
-0.26165822
-0.19617544
-0.034151413
-0.83782542
0.40807915
0.22539531
-1.1981469
1.3360288
-0.51672512
0.42621464
0.17875972
1.2401056
-0.1259174
0.17259556
0.71100754
0.13565199
0.011983629
0.82478994
0.044974886
-0.40379956
0.032614574
-0.25560766
-0.81079018
0.013147613
-1.2253196
-1.7898948
-0.56761944
-1.2807394
-1.2932099
-1.2746593
-0.96552789
-0.93127817
-0.76052773
-0.80861616
-0.41945004
-0.038664587
0.32814705
0.60971838
2.0509379
0.1165242
0.036740921
0.25621849
-0.25391662
0.10839772
0.10950889
0.17617731
-0.056209315
0.12535569
0.51829761
0.24927665
-0.11562689
0.10779524
0.25513992
0.12839961
0.12212265
-0.0015963664
-0.29844323
0.232096
0.51083559
-0.86484718
-0.26696041
-2.3734128
2.0021255
-0.34319445
-0.50215888
-0.18008035
0.36245507
-0.5241648
0.065569557
0.2836194
-0.10369951
0.014975213
0.135491
0.066027068
-0.3272073
-0.17455114
-0.040129062
-0.36690173
0.073434345
0.14095601
0.13664864
-0.2313839
0.17877868
0.20199364
0.11794082
0.028051788
-0.0051974757
-0.32429433
0.0082077729
-0.065711431
0.42883918
-0.37708744
-0.060311463
-0.27408689
-0.70993119
0.0091405697
0.2044318
-0.018171862
-0.32432929
0.019548807
0.087302715
-0.096703149
-0.096396372
0.017344993
0.13193445
0.031513996
0.11356645
0.034287196
-0.073528223
0.0013578696
-0.3045322
0.26692796
-0.036633924
0.084431417
-0.034500014
0.1205407
0.21675304
0.058066778
-0.43274429
-0.41817042
-0.21594433
-0.5372476
0.08888825
0.14167503
-0.20504974
-0.10460582
-0.076628327
0.010562321
-0.33673051
0.33292902
0.011861939
0.015375412
-0.010679668
-0.025188802
-0.022479724
0.084019981
-0.35197532
-0.13905337
0.085805297
0.055257998
0.045695763
0.051411066
0.11644384
0.10800765
0.13763696
-0.65171653
-0.26503116
-0.30266812
-0.084120154
-0.01613709
0.088597111
0.11335932
-0.11415625
0.30226538
0.10412473
-0.47953799
0.20718472
0.10746776
-0.099296503
-0.013479451
0.14960405
-0.10020632
-0.1850816
-0.012964386
0.044669691
-0.02171855
0.11384905
0.1096563
-0.64376223
0.14525969
0.41181672
-0.22349781
-0.7691974
-0.43702203
-0.37056625
-0.01725409
-0.064054303
0.12316513
0.02533555
-0.14067037
-0.11531142
0.20032874
-0.10363594
0.59317559
-0.0093548931
-0.5744698
-0.72516775
0.25023365
-0.24743147
-0.086263828
0.019847494
-0.15747766
-0.01856363
0.70285583
0.16699141
-0.46724945
0.14982651
0.38225332
-0.3024233
-0.42924154
1.5138363
0.079450205
-0.0046531879
-0.054106399
-0.30343917
0.14676853
-0.085767373
0.021797642
0.042210106
-0.15294363
0.3503089
-0.072225675
-0.038971886
0.043973807
-0.01817848
-0.064267337
-0.093318038
0.23975915
-0.4492988
-0.11531094
0.0088000074
0.12607668
-0.043303665
0.24049814
0.3944031
-0.34235775
-0.30213758
-0.31267402
-0.42568699
0.0036565217
-0.16008867
-0.019886771
0.090014137
0.077995174
0.026780076
-0.059799314
-0.25692037
-0.044422623
-0.035301737
0.25107837
0.17515549
-0.083547376
-0.024980281
0.0204529
0.16944471
-0.42843512
-0.38624141
-0.045337535
0.13944258
0.21664953
0.17084499
0.057994571
-0.35731772
-0.10700435
-0.35791668
-0.47328159
0.012071422
-0.094093755
0.23684312
-0.0037830842
0.13896605
0.16140062
0.1155991
-0.33387715
0.11011995
0.19732767
0.2411312
-0.47050366
0.13689803
-0.0077485857
-0.10050494
0.10217061
-0.12351156
-0.41664773
-0.096215375
0.031745203
0.19832557
0.10952672
0.018639101
-0.42887133
0.028843567
-0.2791779
-0.58250934
-0.009041829
-0.051355697
-0.092531055
0.054091059
0.10810789
-0.11648826
-0.1430281
-0.35332692
0.27573761
0.072561577
0.072176687
-0.61015332
0.78247499
-0.030869463
-0.17028742
0.10235876
0.038301818
0.099756896
-0.11561716
-0.046663284
0.26645109
0.0067610159
-0.56194687
0.15650886
0.3135457
-0.39037198
-0.2389794
0.023157528
-0.18179148
-0.1791535
-0.29143777
0.29403856
-0.042175669
-0.23409174
-0.23291251
0.089998662
-0.19219352
0.39567879
-0.12027193
-0.10286234
0.011629717
0.17590185
0.22186103
-0.083655983
0.019563204
0.32887325
-0.052878529
0.32622769
-0.13501617
-0.026009841
0.19153218
-0.31757256
-0.49684587
-0.0037499536
0.0043819817
-0.18676643
-0.36691004
-0.22654217
0.24246046
0.16870855
-0.53720737
-0.042306002
-0.013506569
-0.28874388
0.59559608
0.27382952
-0.49094683
-0.088510439
-0.21827199
0.26135042
-0.042475048
0.080829516
0.071847431
-0.14938882
0.6058358
-0.35176882
-0.25313476
-0.16649249
0.20415613
-0.54261178
-0.054361101
-0.022390159
-0.14397873
-0.0591418
0.0025161379
0.088722073
-0.11805621
-0.38027617
-0.15583688
0.13875678
0.028288355
0.50592947
0.31789678
-0.21956883
0.014961535
0.0033664596
-0.10809213
0.13553499
-0.11659023
-0.14976107
0.024608657
0.34475896
-0.61990637
-0.25252917
-0.18143255
0.066367425
-0.6425311
-0.026656779
-0.010261565
-0.12410039
-0.32320461
-0.43285415
0.074939288
0.081189759
-0.15065546
-0.35549331
0.21379809
0.3299354
0.22894165
0.047358427
-0.37163946
0.11119045
-0.11707671
0.26614296
0.41904736
0.13408718
-0.056720767
0.033270326
-0.027641224
-0.47494712
-0.29828125
-0.13351049
0.15833563
-0.70042855
0.0040707989
0.00073519681
0.012358093
-0.66718936
-0.80905497
-0.48817715
0.31512061
-0.33671221
-0.034239389
-0.038987771
0.16873273
0.45306355
0.49476314
-0.97811252
0.1252632
0.26915157
0.32458469
-0.022536552
-0.15851577
1.1126301
0.1891138
0.051092993
-0.88221461
-0.33739239
0.029549967
0.10296647
-1.7039461
-0.45660985
0.015825175
0.23243088
-0.18969275
-0.090581216
-0.014472133
1.133255
-0.052290704
-0.32427457
-0.16341056
0.24583535
0.027900219
0.22160137
-0.44937474
0.16818438
0.079705246
-0.17981681
0.11930932
0.12860353
0.066834942
-0.0073487
-0.086607732
-0.39664468
0.050919417
-0.11507427
-0.1078491
-1.0731671
0.013839317
-0.083075553
0.23590222
-0.24651268
-0.24546857
-0.13587917
0.7707296
0.036286421
-0.033934806
0.22312705
0.25575489
-0.1861259
0.37122956
-0.49518874
0.11249623
0.095030114
0.28914458
0.091002107
-0.0019041417
0.15042292
0.13005602
-0.14555931
-0.53244156
-0.15023009
0.15934527
0.011168215
-0.98624611
-0.44528851
-0.45409578
0.22703336
-0.072837614
-0.15922715
-0.062667355
-0.043967109
-0.16149673
-0.079575136
-0.089570969
0.10907076
0.083919257
0.3320159
-0.19288021
0.12397429
-0.06318593
0.53115278
0.22054386
-0.077101409
0.091018036
0.037594672
0.10917619
-0.4773111
-0.15270431
0.38071945
0.049050611
-0.653032
-0.069500022
-0.64630777
0.27118793
-0.083324209
-0.10590181
-0.13523206
0.088745683
-0.10541976
-0.077624246
-0.01428476
0.05718625
-0.047108307
0.2612538
-0.27067399
0.083175637
-0.17652118
0.20368992
0.075211056
-0.0095153106
1.5471002
0.16495828
-0.13291173
-0.2894344
0.16443153
0.26820093
-0.37521008
-0.58838159
0.24019285
-0.085456587
0.010141251
-0.10149774
0.016637729
0.14347194
-0.034425724
0.076812968
0.019729473
-0.18890534
-0.1098741
0.16255145
0.043563761
-0.2582829
0.028673572
-0.045273282
-0.14182109
-0.11842246
0.015566106
-0.1363561
0.31749359
0.33498546
0.03725059
0.18170799
-0.058095202
-0.181694
-0.53022617
-0.23563416
-0.020706806
-0.046410654
-0.22792698
-0.036188997
0.18842027
-0.19097026
-0.092514649
-0.0787654
0.041441247
-0.31354323
0.22456469
0.038873136
-0.10228959
0.020345753
0.1199403
-0.23882945
0.042460881
-0.0076047471
-0.10573725
0.11846192
0.28705499
0.0010871787
0.286764
-0.12319785
-0.50766629
-0.24812312
-0.37606296
-0.010388613
0.1731237
-0.054715808
0.0047971639
0.26040173
0.53511226
0.066096827
0.042801999
0.001552269
-0.047812119
-0.027645094
-0.17093326
-0.057767645
1.8392242e-05
0.057286084
-0.14522929
-0.0035872187
-0.33120301
0.11601271
0.11457506
0.054313727
-0.060199618
0.0086662751
0.17592205
-0.38984713
-0.13556775
-0.27562109
0.0060100756
-0.061493091
-0.088419363
0.029863125
-0.091997266
0.065527886
-0.089760199
0.053923648
0.17160736
0.027821377
0.025674848
0.11363988
0.042283408
-0.018233275
-0.11785638
-0.059532158
0.026625004
-0.16090469
-0.11153202
-0.015869692
0.16698229
0.13384113
-0.03166059
0.049956512
-0.21012622
0.14563759
-0.00075608655
-0.0088695455
-0.26432401
-0.078473158
-0.10758912
0.14085253
0.015713707
-0.11310691
-0.047994379
-0.065314628
-0.20748533
0.11523607
0.13551539
0.011446178
0.20851147
-0.15390138
-0.015689081
0.036372259
0.11887126
-0.033126973
0.048432391
0.030354427
0.10524906
-0.13402408
-0.032187767
-0.12432677
0.13981475
0.090407878
0.016564295
-0.15385315
-0.13910286
0.19099881
0.064421996
0.16281514
-0.016821854
-0.0051869815
-0.47496429
0.088913664
0.44090042
0.28071836
0.1887632
-0.18192531
-0.13511579
-0.30935982
-0.52286667
-0.28728089
-0.43189469
-0.091722436
0.098172523
-0.12492724
-0.68046844
0.061969686
0.12287983
-0.070167787
0.025782766
0.037714139
-0.08376994
0.11667462
0.0038196181
0.051577535
0.086448297
0.055799078
-0.11477463
0.038198002
0.0013701934
-0.0029227228
-0.10547221
-0.062919885
-0.027226111
-0.059793931
0.14503719
-0.29412806
-0.08438687
-0.02644241
0.11849052
-0.35077301
-0.28511992
0.68006104
-0.24847434
-0.49062178
0.47316721
-0.38217101
-0.083192229
-0.22106279
-0.517573
-0.8640731
-0.127353
-0.48442468
-0.50726694
0.080827154
0.16108313
0.11431874
-0.17648122
0.15018298
0.2440912
-0.46151781
-1.085814
0.13992998
-0.10355479
-0.13223429
0.49150005
-0.38678479
0.25494343
-1.1818842
0.4674381
-0.078581788
0.37336433
0.51220894
-0.0037250891
-0.53114086
-0.40580511
0.16681629
-0.8835476
-0.46633026
-0.42243084
-0.24938376
-0.40126961
0.0094198557
0.10195554
-0.044969462
0.11306824
0.11469664
-0.14811024
-0.44268239
0.12583299
0.24468511
-0.041823056
0.24551484
-0.029920936
0.0010660908
-0.12546197
-0.46949217
0.04386422
0.52250534
0.36644045
-0.15866002
-0.63424087
0.057487771
-0.66730011
-0.72902936
-0.93173569
0.16982934
-0.13842858
0.06984885
0.019658329
0.16841772
0.12120217
0.23390587
-0.14494231
-0.69243711
-0.46916142
0.11396938
0.035268005
0.21677276
0.24756925
0.044458367
0.23899068
-0.10641699
-1.0149533
-0.080996498
-0.42069328
0.087246627
0.3044605
-0.2001802
-0.029397713
-0.90496778
-0.20214066
-0.18718025
0.35319003
-0.052724231
0.78773713
-0.52827477
0.24330239
-0.32467899
-0.07466913
0.079572074
-0.12136432
-0.34559298
-0.036157202
-0.48749417
-0.11737432
0.2591984
-0.54491448
0.88355535
-1.2142226
0.98585629
0.78573221
-0.5973174
-0.0083244881
0.33605167
-0.95002371
-0.13374563
-1.7265301
-2.0508041
-0.284275
0.43178824
-1.6587683
0.27404422
0.066102788
0.070980296
-0.10568023
0.28866068
0.12190489
-0.46728083
-0.79932964
1.5158874
0.2294829
0.1855448
-0.37305364
-0.27141845
0.83690876
-1.024079
0.97505593
0.41680741
0.0068991324
0.14669198
-0.20061418
-0.054289933
-0.0050543123
0.064607017
-1.2702746
-0.2660369
0.020267621
0.067170739
-0.82053638
0.47480515
-0.096184179
0.031704035
0.20372209
-0.21298611
-0.7059325
-0.16923137
0.26607856
0.14374441
0.14377576
-0.027902758
0.57605821
0.19321439
-2.158215
-0.95241892
-0.011588005
0.02606638
-0.12284984
-0.13722657
0.29149944
-0.061697211
-0.76616651
-0.091969937
-0.82814461
1.0822262
-0.0054329676
-0.065570287
-0.32941142
0.11876463
-0.11795746
0.12650153
-0.46228716
-0.57363176
-0.0072274236
-0.028422656
-0.11673114
0.074096859
-0.013637719
0.37236011
0.22458857
-2.2205658
0.018311212
-0.41481811
-0.019660909
0.38223004
0.24769823
-0.058480646
0.066929594
-1.1077925
0.10768052
-0.18012731
-0.328491
0.023228185
0.25183555
-0.58211553
0.32448891
-0.047319405
-0.0010794351
0.13521077
-0.14327766
-1.138451
0.065316945
-0.68777645
-0.18535447
0.23822697
-0.56174773
0.72097141
-0.43062505
1.098647
0.98462135
0.024846759
0.28901803
-0.53202915
-1.3699847
0.2199585
-0.22113347
0.016049076
-0.24031924
-3.722759
0.067837238
0.22248591
0.51765257
-0.0064992267
0.32579938
-0.066382572
-0.45983884
0.16096851
-0.1347658
0.12245512
-0.088342808
0.1020749
0.21947418
-0.12620682
-0.45355204
0.4380312
-0.00039168284
0.70882243
-0.014448211
0.10296864
-0.26649094
0.2476642
0.025445674
0.10223955
0.15804008
-0.27833623
-0.085592285
-0.0048653414
-0.1487153
-0.29269925
0.12651694
0.0046152668
-0.11014912
0.038848974
-0.074767068
-0.0049673668
0.046076383
-0.45724836
-0.089778617
0.21071431
-0.080106258
-1.1701959
0.35139561
-0.46953756
-0.14127061
0.023827257
-0.29131696
0.043866489
-1.0908439
-0.21811418
0.081229337
0.25840613
-0.20926993
-1.3061585
0.029738542
0.23829247
0.23736402
0.25077316
-0.18382405
-0.085534021
-1.4871807
0.11459579
0.12754895
0.28625551
-0.20149019
0.39817759
-0.078194395
0.20191783
0.061337613
-0.53289062
-0.32940495
0.23180924
-0.026716083
-0.90840983
0.22725284
0.25015318
-0.039069228
0.2082677
0.066834554
-0.21225843
-1.0145494
0.096537933
-0.4490467
0.10308187
0.08527115
-0.22199692
-0.47563207
0.22973064
-0.038876712
0.24709311
0.18351772
0.46272752
-0.88028294
-0.2997781
-0.47207209
-0.59426731
0.060539275
-0.11544863
0.19309965
0.011715522
-0.42080036
-0.0067127915
-0.25184426
0.12769815
0.14060144
0.030346643
-0.85257965
-0.58524787
0.079319395
0.075002477
0.22485085
-0.94872779
-0.0010482629
-0.030478008
0.14386679
-0.17479438
0.65883106
0.050021712
-0.082001612
0.37692097
-0.30806115
0.39441517
-1.394197
-0.31680712
-1.4117328
-0.19999212
0.011425181
-2.7057545
0.24613172
-0.02120363
0.35876945
-0.060643863
0.52860683
0.37101522
0.0092853317
0.099557087
-0.91015315
-2.2000952
-0.031778276
-0.11033997
-0.49160355
-1.4547555
0.15041919
0.23447694
0.23622242
0.15196379
-3.5735557
-0.23285523
0.25528261
-0.58585602
-0.048758157
1.5290974
0.31603912
0.004784341
-0.49179086
0.21781211
-0.051947981
0.14014374
0.13346775
0.1375532
0.087532245
0.051663812
-0.24147484
-0.39880407
-0.15802486
-0.16248851
0.12629013
-0.47411305
0.10795198
0.12075096
0.24126311
0.2409085
0.073205441
-0.35167849
-0.15195797
-0.2937628
-0.29424548
0.25723144
-0.24554311
-0.063170984
-0.8759886
-0.69490695
0.12496704
0.098694712
0.08241415
-0.4973397
-0.0489427
0.22651216
-0.12454364
0.094229542
-0.12040748
-0.87942338
0.25044635
0.02050175
-0.21405822
-1.5836021
0.14762028
0.29018596
0.52784503
0.18730102
-0.44874656
0.017727317
-0.18250822
0.029570458
-0.15326793
-0.15062945
-0.189693
-0.46380299
-0.046931602
0.16960783
-0.070949122
0.15855287
0.076720834
0.15390819
0.56947064
0.036793135
0.08213906
-1.4246393
-0.74062353
-0.42346376
0.025964521
-0.086344704
0.024266962
0.14302315
0.14257047
0.12487058
0.12624149
-0.23909575
-0.18992496
0.0705126
-0.04847654
0.11506118
-0.16600092
-0.071241863
-0.58544838
-0.090892449
0.16005823
-0.54309404
-0.08249291
0.051059082
0.22731981
0.12304313
-0.051033609
0.11823688
-0.40562734
-0.43018129
0.025929803
0.1243004
-0.30277169
0.046858709
0.19919379
0.47794756
0.10054349
-0.03364962
-0.42863676
-0.12448895
-0.17435433
0.15002123
0.21015003
-0.094846897
0.093909182
-0.45981544
0.15313542
0.056190453
-0.24314038
1.486019
-0.11674527
-0.1494831
-0.29559878
0.21460262
0.092718244
-0.26075244
-0.48236045
-0.076958485
-0.14707534
0.07122089
-0.051958457
-0.19987008
0.064173102
0.27073759
-0.25415853
0.033148229
-0.44555697
0.15709497
0.062257577
-0.40530947
-0.30501026
-0.22753419
0.019779067
0.37481439
-0.35450256
0.062647261
0.72317392
-0.1067924
-0.22968073
-0.25178584
0.046138644
0.038962007
-0.64097428
0.25028583
-0.44891691
0.1530728
0.026617777
-0.9459151
-0.41127333
0.024491271
0.13524312
-0.48007715
-0.19640063
-0.38036728
-0.013266108
-0.072440132
-0.11911165
-0.049034469
-0.11710407
0.021193935
0.047593944
-0.1810151
-0.077512018
0.49581191
0.016410712
0.12151156
-0.080835909
-0.18579377
0.24781649
0.15335445
-0.082762584
-0.4003337
0.058534969
-0.22877811
-0.33612323
-0.072557427
-0.038549062
0.12556168
-0.40924016
-0.059579067
0.041461568
-0.063706987
0.10739172
-0.15644437
0.65978825
-0.22861287
0.0282983
-0.12664126
-0.39343926
-0.10756814
0.40256706
-0.44744253
0.14221169
-0.48575521
-0.44382158
0.14384946
0.13783316
-0.09282206
0.051442698
0.1196536
-0.69434029
0.18359111
-0.097731501
0.081275225
-0.14635159
-0.058927707
0.02750591
0.27686661
-0.24340944
0.13444826
-0.07852035
0.050671451
-0.21077032
0.019431191
0.069727026
-0.13441887
-0.12486053
-0.15212412
-0.012131002
0.24552646
-0.036257602
-1.6955643
0.0098156845
-0.13045591
-0.42266899
0.26214489
0.056482963
-0.96432292
-0.44198552
0.048870776
0.23979251
0.090249367
0.14852493
0.18636374
0.053166348
-0.48352483
-0.79771292
0.69442266
-0.45932025
0.50060105
-0.025455235
0.15320741
-0.68736386
1.0692595
0.10525939
0.15458255
-1.614329
0.012780818
0.21696651
-0.060154226
0.61790979
0.27732882
0.3520782
0.69681859
0.66445744
0.15432179
0.11437177
-0.21602739
-0.86085743
-1.535339
-1.4486761
-1.2026086
-11.493193
0.18398114
0.088788867
-0.0715845
0.1829356
-0.10851544
-0.2241392
0.0083301924
-0.12642016
-0.10986739
-0.11106234
-0.15145965
-0.25660229
-0.026339399
0.13776046
0.07003285
-0.15260774
-0.088618666
0.077287786
-0.014715545
-0.0017721379
0.47772548
0.30621052
-0.30675215
-0.031427614
-0.33522284
-0.39249882
0.16996326
0.023746656
-0.020418087
0.50335622
0.083249547
-0.063535854
-0.59782302
-0.049454574
0.091191836
-0.28395849
-0.49849355
-0.42546082
0.1584626
0.38129836
0.13334139
0.16644661
0.36888176
0.29737604
-0.058165643
-0.34499395
0.099727064
0.10336956
0.26256558
0.96498203
0.27189997
0.037985347
0.1360424
0.60274875
0.39335111
-0.15844961
0.51631379
0.097853392
-0.19174826
0.078946702
-0.38252121
-0.076552682
-0.42030922
-0.20324448
-0.026611498
0.42212281
0.45073485
0.22247331
-0.0037861033
-0.060569208
0.28647116
-0.18119799
-0.11521044
-0.17839165
0.27456072
-0.036619376
0.60056353
0.21527144
0.17252471
-0.02644713
0.28592047
-0.048355062
-0.019562854
0.16343516
-0.063290268
-0.016934171
0.2268403
-0.30381048
-0.10783987
-0.18489553
-0.25029132
-0.030279366
0.42533287
0.15899137
0.1863071
-0.10237425
0.10124736
0.48317954
-0.11118124
-0.11827928
-0.20071568
0.0033159752
0.18641184
0.42961565
0.15472497
0.20999791
0.039887168
0.69752473
0.16760577
0.051610343
-0.031497188
0.30497497
0.15734413
-0.015792837
0.01959377
0.038265757
-0.19217205
-0.35491353
0.099567227
0.45721573
0.43550143
0.31600094
-0.06006499
-0.042632908
0.19055983
-0.47260743
-0.42953277
-0.035012465
-0.016700167
-0.082222752
0.40145609
-0.17763115
0.17894521
0.14493017
0.87412697
-0.15136915
0.55598807
-0.018333655
0.23443413
0.12552622
-0.60198325
-0.049634926
0.058408067
-0.45832402
-0.72449332
0.035535429
0.510548
1.026176
0.16567269
-0.13807896
0.35629454
0.3748315
-0.40656236
-0.5012607
-0.095750287
0.1666853
0.16759343
0.56937546
0.53178716
-0.18849771
-0.05604374
-1.5086955
-1.1664497
0.0018047316
0.11065917
0.17720118
0.25430098
-0.50275594
0.32113361
-0.32047996
-0.46073282
-0.3760348
0.13120608
0.25150996
0.26657477
0.49023366
-0.098192863
0.19248343
0.15299854
-0.11173036
0.1404058
-0.16889791
0.053393494
0.32475141
0.17342712
-0.096711032
0.46320432
-0.12280238
0.19483148
-0.026490444
-0.026344592
-0.031395331
0.00010508162
0.11779917
0.036525935
0.05284638
-0.019557595
0.039728452
-0.5901736
0.064092487
0.48132679
-0.039362483
0.58246726
-0.06824851
0.14486958
0.54089469
-0.090307184
-0.37357196
-0.27607688
-0.44632387
0.53957778
0.37894645
0.058808845
0.43559626
0.016683882
1.018548
0.14165159
0.023054942
-0.13670516
0.062739626
0.19865647
0.30977845
-0.097541198
-0.18668726
0.43738329
-0.028598048
0.37112334
-0.42371017
0.2361428
0.28061914
-0.16198407
0.069855303
0.46540341
0.0084596705
-0.14613922
-0.14577906
-0.1882419
-0.23234084
0.28352678
0.34108585
0.41050452
-0.1518248
1.1182389
0.43827662
0.0017180871
0.049966756
-0.064089909
0.2711845
0.13455556
-0.23088056
0.062347319
-0.1009489
0.37736589
0.49830285
-0.35583967
0.28946373
0.38061848
-0.21777105
0.21885727
0.13863045
-0.15986787
-0.098477751
0.15995996
-0.23415735
-0.02916123
0.017506665
0.74219948
-0.29008344
0.16105352
0.90117878
0.40052211
-0.015154419
-0.012659644
0.098471478
0.29698604
0.37870619
0.16104445
0.036182892
0.094232604
-0.30126932
0.0078340331
-0.043667622
0.48629624
0.39769742
0.26035705
0.2075087
-0.35300812
-0.16475764
-0.013911976
-0.083062649
-0.064408369
-0.15120634
-0.29564789
0.17723261
0.55964011
-0.25369185
-0.22373372
0.10042083
0.0016275444
-0.24831787
-0.23708567
-0.050929662
0.35031214
0.097027972
0.11774877
0.097847149
0.34418586
-0.0013763565
-0.15866524
0.23010381
0.040680427
0.35189036
0.12123279
-0.10720725
-0.037436355
-0.25316381
0.32812756
0.14837579
-0.22976668
-0.03203512
0.34965757
0.032842308
-0.21558844
-0.031657893
0.2280636
-0.0028674526
-0.019922655
-0.064061344
-0.077442385
0.37150738
-0.31680295
0.03396159
0.12403446
0.3014738
0.26706433
-0.13857551
-0.054278709
0.042247444
0.20115721
-0.20012063
0.10465783
-0.062317628
-0.28623039
0.13488173
0.44048008
-0.0071368869
0.14137366
0.042306352
0.66003412
-0.17121978
0.13969108
-0.44701391
-0.012909132
0.21373279
-0.071523376
0.13330586
0.27224436
-0.019220473
-0.26511261
-0.038650684
0.40447655
0.082583159
0.013109324
0.31908858
-0.12417614
0.019764787
0.21966051
-0.38726431
-0.32921177
-0.32381168
0.17638621
0.25768381
0.266256
0.17027426
-0.1833591
0.33730373
0.0022790574
-0.40345225
-0.2829524
-0.0039419881
0.11775868
0.20198502
0.17379525
0.51678181
-0.33179471
0.078601636
0.20540126
-0.34570074
-0.19626762
0.53382105
0.64660776
0.15839678
0.10077052
0.14946404
-0.75735188
-0.38488856
-0.78779554
-0.21182382
0.50488931
0.11100725
0.21391946
-0.26393214
-0.022907706
0.19604717
-0.88762027
-0.74998939
-0.008366975
0.057156842
0.19360222
0.26238382
-0.23427778
-0.12480267
-0.22897115
-0.054610178
0.0049398742
0.11548366
0.21925865
0.40724429
0.018846052
0.071939409
-0.11510038
-0.26485229
-0.055435315
-0.4039858
0.37974453
-0.033645369
0.3483212
0.32015455
-0.092696376
-0.0044644997
-0.066281028
0.050210558
-0.20843643
0.059134822
0.37776843
-0.15409192
-0.1407043
-0.20553079
-0.1517251
0.0046987603
0.079073846
0.16452995
0.28970721
0.44927567
0.30337796
0.023451731
0.038461976
0.024963135
-0.30508578
-0.39581764
-0.29897389
-0.021451211
0.032038637
0.50032032
0.2329855
0.085394599
-0.12571093
0.027068611
-0.15322159
-0.27463308
0.17277771
0.19921046
0.029509172
-0.021703739
0.19867426
-0.041011494
0.03194626
0.11051329
-0.2060919
0.21835539
0.11887309
0.35982767
0.38560334
-0.0028756883
0.17891012
-0.5072757
-0.098726653
-0.0027869202
-0.10978277
-0.13331138
0.059357688
0.23270293
0.27738878
0.02052157
0.057565033
0.15549177
-0.0021926672
-0.048899014
-0.17609754
-0.25239688
-0.16051283
0.24240462
0.099602737
0.0054885135
0.28281489
-0.30960208
0.036663819
0.44512033
0.11556347
0.15955955
-0.064348251
0.33398288
-0.21415649
0.11520496
0.01578271
-0.10272562
-0.069119141
0.13399552
0.39799544
0.12008385
-0.037042495
0.39702839
0.21124002
0.19418912
-0.077126913
-0.44720101
0.42009315
-0.0036063641
0.25905642
-0.031563319
-0.45345289
-0.17720792
-0.30667937
0.33181438
-0.13110213
-0.023181181
-0.1150031
0.062145811
0.022001959
0.5263204
0.74914151
0.31520048
-0.076346852
-0.13531241
-0.064049229
0.25315371
0.072481431
0.15806977
0.24541156
0.037599616
0.52192467
-0.029659288
-0.13116214
0.088498674
0.026493739
0.15213764
-0.017318645
-0.57420218
-0.29444382
-0.27341411
0.2302302
-0.18505974
-0.0028856911
0.088018894
0.18240476
-0.092227176
0.57717842
0.5870145
0.32541874
0.092312232
-0.018112959
-0.015066089
0.2383182
-0.35173729
0.31608012
0.39641836
-0.24408348
0.45677325
-0.023347648
-0.030093253
0.2316229
0.30416659
0.1940714
0.14467825
-0.36751804
-0.50492048
0.17969923
0.42505768
-0.42375517
-0.032110628
0.043305401
-0.2098808
0.05601776
0.21902575
0.25532925
0.38372478
0.1006434
0.20982358
-0.33018303
0.17456986
0.22606166
0.065416113
0.026476629
-0.0063894941
0.58564907
-0.0072789541
-0.70808685
0.53381556
0.15389286
0.28057936
-0.064489596
-0.22926772
-0.18732618
0.59604919
0.22883713
-0.31930858
0.05007137
-0.058003157
-0.012022668
0.20841244
-0.28000525
0.2520465
0.085552044
0.41029894
0.4319357
-0.24337733
-0.028969513
0.57535565
-0.18703407
-0.050842304
0.20712484
0.34226051
0.013372961
-0.49048162
0.84449303
0.36690599
0.017582864
-0.19734393
-0.13937481
-0.30123892
0.20940337
0.07287012
0.04607255
0.17332231
0.12905508
0.0046296022
0.32931468
-0.33731389
-0.14390254
-0.37425449
0.34080511
0.43884054
0.15240347
-0.053398922
0.069005691
0.37312773
0.36748022
-0.22285068
0.66117603
-0.016815027
0.66015917
-0.27992728
-0.23989528
-0.015322425
-1.4281852
0.091520682
-0.01699879
2.5795372
1.8195465
1.9791447
1.4509369
0.6181832
0.41656962
0.084696554
0.35668162
0.20551506
-0.17015466
-0.16387725
-1.2177505
-0.83340311
-0.83844233
1.1761862
0.5208351
0.11303365
-0.084889434
-0.35368454
-0.14445892
0.28111184
-0.31503534
0.51079196
0.25734311
-0.31549606
-0.4742496
0.11348068
-0.011029941
-0.13548867
0.23234056
0.4614248
0.78775984
0.049228195
-0.10822217
-0.13701937
-0.15934284
0.94977158
-0.52932876
0.15040885
1.7019041
-1.662414
-0.43420708
0.036902312
1.2062805
0.21664499
0.17644672
-0.07341408
0.04289028
0.049056929
0.1828886
-0.99698025
0.027515545
0.16767618
-0.1026398
-0.14835539
-0.5460844
0.15254806
-0.048307922
-0.27021751
0.068214148
0.52173334
-0.20506778
0.039826564
-0.32892624
-0.4189145
-0.13945369
-0.70400447
0.10799333
-0.37910733
-0.19162193
-0.42298123
0.19209103
0.1387832
0.16160774
-0.39259815
0.18419911
0.11402358
-0.56541127
0.20515701
0.056382064
-0.55445981
-0.11327758
-0.63767779
0.10853088
0.1262328
-0.33818132
0.26814803
0.40452287
-0.030151034
-0.21174879
-0.43811232
0.020754645
0.048105236
0.11217176
-0.14130023
-0.10412429
0.0053385627
0.031923313
0.13329303
0.14733613
0.05511247
-0.66800916
-0.66469598
0.016493255
-0.32684606
0.018022031
-0.65925449
-0.35795951
0.082329452
-0.62034625
0.074489497
-0.2346646
0.056474585
0.2633847
0.52254623
0.025012767
0.11688954
-0.04506702
0.022442507
-0.21156354
0.033666644
0.34616655
0.027223418
-0.20968455
-0.71471673
-0.25164524
0.11760052
-0.051259384
-0.62308216
-0.46537954
0.25948623
-0.27382335
0.26056373
0.11902349
-0.83605838
-0.044863086
-0.42559093
-0.034113534
0.064820066
-0.78478366
0.073701255
0.53006995
0.078499854
-0.54034311
0.13997506
-0.0065179826
0.23992135
-0.36983943
0.095303729
-0.016119331
0.2137652
-0.38400331
-0.39200181
0.071738437
-0.38097742
-1.3470372
0.11386039
0.25623012
-0.20283614
-0.080427788
0.1263829
-0.38711783
0.2598049
-0.95763457
-0.24001829
-0.16127077
0.52829629
0.15545493
0.60317534
0.13763706
0.029949374
-0.5250141
-0.67537117
-0.060012661
0.0022425088
-0.028016696
0.24983297
-0.081847489
-0.0029680675
-0.019023953
0.15177974
0.16397893
0.096697949
-0.27219215
0.29154128
0.047653511
0.02637828
-0.005423422
-1.2632824
0.020887077
-0.18327071
0.13611577
-0.61405557
0.13947079
-0.06304919
0.59466928
-0.014225833
-0.92371684
-0.88763487
-0.082360201
0.29521155
-0.13755292
-0.66023368
0.16401236
0.47047013
0.0041963151
-0.19249029
-0.036927558
0.27074236
-0.98930401
0.062857024
0.26369491
-0.14193216
-0.21779989
0.16027634
-0.32869732
-0.40072635
-0.026993625
-0.17442618
-0.2031547
0.5260976
-0.00922025
0.52447325
-0.092444755
-0.99661106
-1.2733481
-0.15060422
-0.1078662
-0.20457049
0.021744071
0.31402856
-0.03337552
-0.029147509
0.26346976
0.13056913
0.28008637
-0.72526735
0.13537358
0.25939396
-0.73565257
-0.70910734
-0.0023147576
0.03258004
-0.29419556
-0.24807553
0.066200018
-0.048880447
-0.013694342
-0.16396542
0.57694495
-0.96519476
-1.1237122
-0.29448125
0.077447958
0.33123115
-1.6359398
0.0020742759
-0.28182492
0.40269905
-0.028192693
0.12310992
0.11492986
-0.61634094
-0.77118558
0.060184382
0.27529293
-0.37527081
0.076829806
0.07443592
-0.45330584
-0.76774859
0.21878174
-0.081143044
-0.10017496
0.19696485
-0.20563684
0.26256034
0.12093364
-0.52315569
0.10629245
0.20726791
-0.34853077
0.54567891
-0.60646731
0.53536332
0.74433982
-0.029050315
0.17254111
-0.087476075
0.16190022
-0.25299636
0.063380994
-0.31171122
0.12227393
0.01502646
-1.3175929
0.1240079
-0.74636507
-0.30600753
-0.30352014
0.25113177
0.030653197
0.29994994
0.37454674
0.22171183
-0.077952392
0.28355482
-1.2792574
-0.98813796
-0.19341712
1.3657589
-0.73786622
-0.25482488
0.007556932
0.097216234
0.053482357
-1.1586318
0.24758939
0.15209462
-0.13933286
0.27577654
-0.46126571
-0.98828602
-0.043042626
-0.96665961
-0.0072146058
-0.22280584
0.1791763
0.091427907
0.69950396
0.35271859
-0.31614897
-0.14012963
0.25641218
-0.46484017
-0.14215566
-1.1633722
1.0798401
-1.3776085
0.20154558
0.018578408
-1.1588124
0.056428853
0.11392985
0.1137891
0.077397719
-0.74918419
0.1818203
-1.2708522
-1.5158992
0.2466232
-0.49315462
0.094326422
-0.54855287
0.15048543
0.26106685
-0.35027993
0.43825543
0.36908227
-0.31365296
0.33041114
-0.062172394
0.37126637
-3.5778067
1.3328626
-0.27321166
-0.065095022
-0.022151813
-0.76991665
0.45268688
-0.25830716
0.075796522
0.012029185
-0.06663347
0.13679208
-0.41429606
-0.59884346
-0.011615782
-0.46059206
0.61380416
-0.68540162
-0.013051914
0.13616236
-0.18838929
-0.31681359
0.13290733
-0.19650219
0.18902393
-0.0011398254
0.17229688
-0.13882241
0.23392576
0.24077471
0.19845605
-0.0023282638
-0.29292235
0.061547115
0.19632283
0.14512299
-0.83348858
-2.1665447
-0.12116544
-0.39311463
-0.9857524
-0.10278378
0.31641945
0.12782656
-0.64520562
0.07999178
0.60613149
-0.22695719
-0.44200408
0.30969521
-0.016391242
0.25616866
-0.20319384
-0.16109379
0.33072135
0.26193413
1.0032555
-0.32990426
-0.021004023
0.16403623
0.23821428
-0.15042052
0.33712775
-1.0226785
0.039229076
0.2745527
0.14655459
-0.41569799
-0.56257534
-0.01233557
0.17543942
-0.44054979
-0.53330767
-0.1324527
-0.16126245
-1.4317859
0.14220348
-0.17144148
0.26666141
0.08631096
0.1200569
0.2585963
0.17127256
0.32312921
-0.11417811
-0.21149229
0.090710923
0.17043595
0.18191093
0.37986371
-0.53263938
-0.16095282
0.03330332
-0.1992355
-0.96135706
-0.58391684
0.059124146
0.42388251
-0.35042751
-0.74193263
-0.11677869
0.055225398
0.07084731
-0.11317599
0.099029049
0.09556067
0.086724631
0.10653748
0.26060238
-0.089626826
0.41466185
0.33141249
-0.034678563
0.081594892
0.26098141
-0.10710862
0.12773179
0.064627625
-0.69819009
0.013794373
-0.27842784
-0.3103174
-0.18176834
0.065800548
0.061096631
-0.011662377
-0.087436788
0.089035816
-0.16451743
-0.90817612
0.14578219
0.090661332
5.929629e-05
0.25100964
-0.17108308
-0.072195344
0.28349784
0.3528266
0.19750609
0.14624278
0.12644321
0.26336899
-0.39548844
0.077124327
-0.052516438
-0.43607494
-0.73290575
-0.45577887
0.055659164
0.058025047
-0.10853918
-0.6140331
-0.087751217
0.0060243341
-0.64421833
0.064187065
-0.66753316
0.2878848
-0.40984392
-0.012474298
0.48760107
-0.34259591
-0.31936282
-0.6818732
0.52611041
-0.25635973
0.76871794
0.59825432
0.11189587
-2.5845001
-1.4174596
-0.29192179
-0.10294104
-0.76006734
0.38072178
-0.24428861
-0.052822918
0.034880176
0.24248976
-0.013864603
-0.26934314
-0.37821814
-0.53782964
-0.85815179
-0.16426016
-0.073656626
0.19504571
1.0690212
0.14020109
0.62562549
-3.7849035
1.0915334
0.15045637
-0.0021074575
0.2518189
0.20206705
-0.55649209
-3.0495906
-0.60813379
0.19906741
-1.7424376
-0.16214477
0.24091557
0.097197331
0.227621
0.33188123
-0.035722762
-0.1813028
0.22897448
-1.0784211
0.10288566
-0.38995627
0.025512209
0.24494183
0.42243546
-0.56497538
-0.83723462
0.49815133
0.60892934
0.42589933
-0.005307253
0.23042178
-0.34213132
-2.4942479
-1.8220026
-0.052077234
0.36339957
-0.2224696
-0.27715173
0.019273451
0.48912162
-0.003997121
0.046384439
0.051119458
-0.080306068
0.43780294
-0.46916592
-0.16458467
-0.38147643
0.068628035
0.20567508
0.089710109
0.3852106
-1.3039596
0.24755147
0.98596776
0.33529657
-0.000601871
0.48881873
0.22101587
-2.7170954
0.018970808
-0.95968419
0.39444971
0.27379012
-1.9886444
-0.52265745
0.10413479
-0.73258567
0.17563125
-0.46893519
-0.2005353
0.45968306
-0.51022786
0.59949589
-0.001365602
-0.34471568
0.025418935
-0.20599405
0.60468572
-2.775423
0.42153037
0.44108865
0.18875465
-0.0012416216
0.34090498
0.25633651
-0.76064533
-0.11101075
-0.49575621
-0.084745288
0.33342192
-0.87316549
-0.070078388
-0.64669108
-0.42665979
0.54759419
-0.65037417
-0.23443647
0.18067749
0.17193827
0.2583892
-0.18360761
0.12735805
-0.37012899
-0.87598866
-0.7984491
0.16232195
0.89832437
-1.275715
-0.0049792412
0.0077052671
0.26617956
-0.19713691
0.042025525
-0.019589586
0.14585292
-1.9239001
0.0072069513
2.5459495
0.73012799
1.3109742
0.5440774
0.82108456
-0.94535077
0.48331237
-0.84915608
0.44691759
-0.28943631
-0.97606051
-2.0490611
-4.2143497
-4.285378
-7.534224
-0.29097214
-0.47672397
0.41728771
0.12052306
-0.57169682
0.033539627
0.21577543
-0.4157933
-0.37230939
0.41845268
0.42818406
-0.90958804
-0.0091068977
0.23795043
0.25823021
-0.22191742
-1.3047724
0.091597654
0.2317217
0.26765874
-0.62217331
-0.13386111
-0.3825776
0.52910507
-1.3839517
-0.40429518
-0.045263387
0.070025705
0.052583959
-0.021840146
-0.0071859993
-0.03534434
0.005684705
0.010185528
-0.016573941
0.020345394
-0.013592676
0.00046065217
-0.021879734
-0.016085431
0.0028521433
0.035202425
0.010857622
-0.015509284
-0.022155929
0.0081661809
-0.047310416
-0.027431011
-0.016863551
-0.034304023
-0.010192321
-0.074054025
-0.034368616
0.029457409
-0.075772256
0.14149088
0.048552789
0.025701933
-0.013692481
-0.012012911
0.037881035
0.014273781
0.029288849
-0.033621959
-0.030805785
0.002107902
0.0064911656
0.019768713
0.034151051
0.00062698382
0.0036863675
-0.0030198945
-0.025567941
-0.026444269
-0.0017135779
-0.0017117292
-0.059455432
0.068022318
-0.047792945
-0.021562062
-0.073834404
-0.062751941
0.055902265
0.0083070202
-0.014673519
-0.017785542
-0.031302501
-0.05108925
-0.033958714
0.013463011
-0.01847614
-0.028127143
-0.0031942506
0.0064450051
0.021039983
0.023683423
0.004176328
0.0058783903
0.017549058
0.031754915
-0.026096707
-0.034734946
0.010720734
-0.033628561
0.073140144
-0.046816207
-0.014596163
-0.010339177
0.00066011341
-0.0062574768
-0.032560728
0.013472398
0.012397284
0.027984122
0.065032825
-0.037519548
-0.023307832
-0.0095057758
-0.031247459
0.015755298
-0.012956002
0.0052225254
0.013058722
0.00046856966
-0.019362448
-0.01145423
0.0074831476
-0.035471924
0.031952575
0.010166886
0.0027699755
0.045276683
0.025417423
-0.065432027
0.0025324838
-0.067556299
0.0081798173
0.037263781
0.025235238
0.00059683929
0.014220266
-0.046644617
-0.0088348584
0.032547832
0.024691505
0.019344732
-0.017386114
-0.047789797
-0.0055220616
0.019241534
-0.0097811874
0.016067602
0.013965962
-0.0077535235
0.013971444
0.0084120361
0.0021436603
-0.06638325
0.10113811
0.028835371
-0.083977789
0.15695317
0.036102854
-0.028029574
0.037906297
-0.0040567867
-0.0046479441
0.097245231
0.0041506891
-0.010586516
0.030505162
0.028781073
-0.0038480104
-0.027099643
0.0258235
-0.019330943
0.0186514
-0.0060028429
0.0143993
-0.03372591
-0.01835873
0.011332934
-0.044009354
-0.014231918
-0.051997647
-0.0031395461
0.13761346
-0.054931741
-0.03975033
-0.035887513
0.005133911
0.02206531
0.013889767
0.0077496516
-0.028114012
0.012123629
-0.040259361
0.0025402089
-0.016944528
0.043865878
0.0094217528
0.03002762
0.0088536935
0.03172227
-0.0075566727
0.070157655
-0.0046353205
-0.03271668
0.013239549
0.0068308413
0.026087616
-0.03535362
-0.035804141
0.1324324
-0.045509327
-0.03020745
-0.068157889
0.013830547
0.071861468
0.039706662
0.014943236
0.016342187
0.01311913
-0.012790096
0.036700074
-0.0023489525
-0.01293115
-0.014266868
-0.026595693
0.056172617
0.0081325853
-0.053414341
-0.0059770555
-0.014072838
-0.05677025
0.031105755
-0.026779465
-0.027471708
-0.058301289
-0.02271218
0.10790908
-0.010503266
0.073826008
-0.074152134
0.0050971392
0.036117382
0.013608612
0.039451957
0.065052852
-0.040627927
0.013421947
0.071895495
-0.041023646
0.0029080531
-0.052299879
-0.030885315
0.078170404
-0.035313886
0.015592121
-0.020128788
-0.013436005
-0.0031784244
-0.0083208811
-0.015099116
-0.054521561
-0.054394756
-0.023361616
0.066102862
-0.052688077
0.034699664
-0.036251612
-0.0080563957
-0.0028896665
0.0072537372
0.025143698
-0.0043480257
-0.0084574167
-0.01858273
-0.031811088
0.071350679
-0.0039407029
0.012512492
0.0049272678
-0.0072066556
-0.014005319
0.0065604337
-0.0046820175
-0.0040460778
-0.034643751
0.0066095022
-0.013638556
-0.026629534
0.046163589
-0.11367257
0.10536896
0.043989286
-0.053684149
-0.10007083
-0.024461735
0.025741693
0.0069611617
0.016577117
-0.032177601
0.0010954264
-0.0035217702
0.0019755503
0.012425959
-0.041133154
-0.034325246
0.024899485
0.023291938
-0.031926788
0.0060800994
-0.015905673
0.01711561
-0.031917136
-0.0018769767
0.0031221621
0.087694749
0.072160512
-0.094012953
0.092070416
0.08388336
-0.011710893
-0.074087605
0.001875866
-0.014115716
0.018152678
-0.019143859
0.0021277152
-0.0026820803
-0.018707711
-0.031180276
-0.022654466
-0.021190954
0.099156983
0.01762408
-0.0099642975
0.017259696
0.050427992
-0.020802218
0.017596589
-0.0015585658
-0.019993838
0.010435183
0.013778149
0.02385634
-0.099924855
0.033588931
0.05781189
-0.10959172
-0.099097542
0.005690584
0.02526469
-0.040141489
-0.018374389
-0.028593857
0.0099203987
-0.04033361
-0.032240078
-0.04062828
0.029054666
0.020073906
0.0047595794
-0.044898219
0.023135388
-0.00045775034
-0.0039828555
0.016426023
-0.017463773
0.00093251036
-0.032215491
-0.0027945274
0.029611921
-0.023449231
0.08074782
-0.019375451
-0.039012376
-0.079899624
0.018174157
0.0033317369
-0.026105745
-0.034143645
-0.021389171
-0.016136277
-0.02011781
-0.0074221953
0.016711032
0.033717029
-0.012118457
0.011261401
0.032257691
-0.02669034
-0.0068052025
0.06603127
-0.011622064
-0.018065853
0.041941758
-0.024472916
-0.037565425
0.026969204
0.059880715
0.015683101
-0.085691586
0.12510566
0.040943317
-0.010489803
0.011879792
0.069382168
0.045781851
0.006904142
-0.0080497488
0.022182044
-0.0061272667
0.07054428
0.0016546664
-0.010559367
-0.033324264
0.036572244
-0.012883942
-0.0090729147
0.034499779
0.0074205277
-0.026069948
-0.029439146
-0.05384374
-0.040706366
0.060239833
0.15532878
-0.01257397
-0.066988349
-0.011551674
-0.028926216
-0.022335542
-0.028186429
-0.027090397
-0.0081809927
-0.012037241
0.0032098559
-0.028067127
0.0022635784
-0.015707109
0.11038092
-0.025273817
0.01570035
-0.011825317
-0.016637765
-0.0048884419
0.23356053
-0.016764764
-0.022245256
-0.0065687252
-0.018659718
0.0024278681
0.026162444
0.094354905
0.022716481
-0.077503651
-0.041624051
-0.019714784
-0.088178024
-0.024932019
0.01972444
-0.010417865
-0.016537676
-0.033293292
0.010951744
0.013389425
0.021978771
0.017138015
0.0075192065
-0.023155417
0.011559254
0.010184626
0.0449671
-0.0048853001
-0.036508586
0.0059648124
-0.0074136439
0.026198391
-0.018215328
0.04543338
0.036241554
-0.020907864
0.010260765
-0.022387262
-0.020882994
-0.043585666
-0.015810529
-0.0018839868
-0.018331235
-0.018020008
-0.0097949971
0.020375906
0.035381325
-0.029108284
0.026494697
-0.0076459507
0.016657788
0.0077304728
-0.021537727
0.010142192
0.034201488
-0.043903105
-0.027771041
-0.038627118
-0.0093695652
-0.0058569685
-0.010247136
-0.022094857
-0.047543019
0.02775087
0.04679732
0.0023903085
0.028104607
-0.018345749
0.031041928
0.027638009
0.041706387
-0.018209713
-0.032862276
0.062286027
0.0027153182
-0.016259979
0.023337843
0.023026852
-0.015345229
0.014593844
0.00039585147
-0.054908864
-0.062328711
-0.026835473
-0.033034116
-0.022072984
0.046077657
-0.041602183
-0.15443622
0.12779985
-0.049004447
-0.035657261
-0.1119284
-0.0027167359
0.03157847
0.024376417
-0.009342866
0.054594286
-0.016159583
-0.024780564
0.019872731
-0.015906559
-0.016950622
-0.0055836211
-0.027449856
-0.038082078
0.036574356
0.017738473
-0.045333393
-0.038901355
-0.027460156
0.022136061
0.0084928656
0.010163942
-0.031326566
-0.12414541
0.14397116
-0.048188582
-0.073111378
-0.1401211
-0.018052619
-0.0044411793
0.019956443
-0.0071923067
0.02409756
0.0036804238
-0.027233951
-0.012908612
-0.024358029
0.0079371752
-0.0064005861
0.0046285912
0.012333543
0.019204965
-0.0026298489
-0.014905812
-0.0073063453
-0.0047216392
0.014564524
-0.0031869609
-0.010196188
-0.035256028
-0.1789569
0.15250361
-0.0097123887
-0.08858075
-0.11716503
-0.0015938359
0.011258375
0.048744462
0.032753069
0.047442149
-0.032104056
-0.016643705
-0.023769604
0.021226669
-0.013643182
-0.016735408
0.069528818
0.011635863
0.0084741907
-0.05271817
0.0062788459
-0.038391147
0.00089883961
0.019723428
0.027356751
0.025075991
-0.041663587
-0.14175455
0.1554781
0.031759046
-0.064676896
-0.13913986
0.022667374
0.0018611285
-0.0064177043
0.017069524
0.0062942263
-0.0082914932
-0.020817239
-0.0080892332
-0.020328209
0.016405927
0.014938972
0.025850112
0.0021225298
-0.00064426439
-0.0041517513
-0.00096357788
0.0061819996
-0.016382057
0.0041440609
0.013473919
-0.00014864064
-0.043928936
-0.13121699
0.076078206
0.0078061251
-0.044232041
-0.068040363
-0.011587768
-1.0342809
0.015761543
0.20704602
-0.028851334
0.032049049
0.44323632
-8.5260857e-05
-0.10559251
0.09008994
1.0959127
-0.0016520815
-0.0021778354
-0.03026686
-0.014602738
-0.085576601
-0.045892835
0.075520597
0.04913773
0.0473729
-0.12019853
-0.090887733
-0.047306661
-0.0083170813
0.070025519
0.025475986
0.023725232
-0.0070556677
-0.03014027
0.0046383021
-0.056507789
0.0031370032
-0.0054330621
0.0029299515
0.023665231
-0.022378433
0.035483021
0.011667384
-0.041414477
-0.078053303
-0.030463727
-0.0073757465
0.021532668
0.0087374188
-0.064781606
-0.0039177425
0.026001604
-0.10336347
-0.45158964
0.10141773
-0.057656646
-0.16187243
0.15433481
0.4115364
-0.042928614
-0.7308771
0.064819612
-0.011906235
-0.044741876
-0.11885919
0.33594406
-0.28556079
0.27022418
0.13080466
-0.1337148
-0.21670668
0.17240691
0.011912165
-0.08846797
0.046966501
0.070443451
-0.064825378
-0.15040296
-0.29609105
0.034531906
0.69225758
0.28547141
-0.65273565
-0.035476815
0.17908844
-0.07605058
-0.028774172
-0.7273367
0.056605469
-0.025778569
-0.043983176
-0.28030705
0.27892816
0.33943933
0.49922135
0.0067265928
-0.1332399
-0.0062357071
-0.26520795
-0.18362758
-0.017262258
-0.10898443
-0.043346547
0.40735847
-0.31831646
0.58516562
-0.098164752
-0.07858704
0.080582805
-0.53365707
0.19519515
-0.078819983
0.12936127
-0.057877228
-0.22754079
-0.016575821
0.13624476
-0.24410827
0.29093263
0.44313437
-0.18212776
-0.022005575
0.25533465
-0.21239847
-0.36517361
-0.041741557
0.001376864
-0.18726265
0.19996138
-0.025566751
0.03307239
-0.32751551
0.31774816
0.044136275
-0.10540386
0.0060466514
-0.71747833
-0.097456522
0.2995173
-0.13736603
-0.15632881
-0.29303521
0.031522781
0.19416167
-0.36535749
0.22993369
-0.06436266
0.14089127
0.37485817
0.2367655
-0.14552735
-0.30364054
0.34368417
-0.10721065
0.29742524
-0.26649392
-0.10799173
0.17779991
-0.90468669
-0.17923975
0.065644667
0.28459036
0.36449552
-0.64289927
-0.18621545
0.75306952
0.21548371
0.074552841
-0.54723614
0.065799274
0.53211319
-0.4855727
-0.60847652
-0.1033444
0.41901952
0.12560961
0.59439784
-0.16174877
-0.76228023
-0.41743064
-0.0025126133
0.49138045
-0.22627784
-0.052129131
0.47637898
-0.96142262
-0.14393696
0.46758339
-0.061342705
-1.1802641
1.0123665
-0.0047894577
0.0048092324
-0.514476
-0.20217581
-0.34834674
0.42044955
-0.10809109
-0.075791739
-0.46207854
0.058403615
0.01031377
0.32230294
0.24074715
-0.091726586
0.014929331
-0.49048147
0.19912727
0.55809605
-0.098342434
0.22150481
0.11447702
-0.30605319
0.4605045
-0.54916102
0.2972756
0.4058069
-1.5943404
-0.019913809
-0.042123925
-0.32490048
0.12822741
-0.13005418
0.14302215
0.34699529
-0.61926889
0.10266426
-0.24372204
-0.022279575
0.13100198
0.60244733
-0.17608723
-0.1259363
-0.28244501
0.21163009
0.23884599
-0.1138949
0.15175506
0.025246415
-0.67559797
0.11324792
-0.099360414
0.33816567
1.2560873
-0.44077212
-0.018051144
0.11359102
-0.53357816
0.062887214
-0.64427185
0.33050898
0.12907164
-0.26360843
0.28463751
-0.13451084
0.086991005
0.34640953
0.40991762
-0.2355042
-0.12879397
-0.03412158
-0.055027269
0.34631085
-0.1778688
0.42347467
0.21081908
-1.0733633
0.40936929
-0.26580855
0.31006977
0.089240551
-0.93290788
-0.021839691
-0.51908904
0.13588998
0.031611264
-0.22436899
0.19302459
-0.031421307
-0.26982456
0.65987015
0.020237815
0.12352949
0.42670634
0.21704638
-0.23529814
-0.26153004
0.035740066
-0.0067595458
0.04628887
-0.24597433
0.25272983
0.51403707
-1.3395414
-0.20438267
0.33342966
0.23470503
-0.12037946
-1.2345021
0.0093006752
-0.93664163
0.12768139
-0.19097075
-0.62974167
0.25703228
-0.11667331
-0.19905195
0.15767135
0.1537635
0.19319063
-0.13699804
-0.071359247
-0.0054494822
-0.014051331
0.03747011
-0.07966391
0.047487006
-0.24238563
0.18376075
0.17100146
0.61654305
0.15391189
-0.21484023
0.11863282
0.17566966
0.5313251
-0.027985176
-0.55329359
-0.18515372
0.22568859
0.01164162
0.36597919
0.05949061
0.23972282
0.098169997
0.04120158
0.32664716
-0.30781513
-0.40237805
0.18871623
0.10410409
-0.046046291
-0.074241035
-0.42111856
-0.081424467
-0.26571074
-0.15904263
0.24368353
-0.43000033
-0.13531436
0.33210453
-0.11910196
0.43433973
0.027436765
-0.25161326
-0.11386219
0.2857981
-0.2056511
0.098892741
0.064615093
0.060099911
0.48282239
-0.63391215
-0.40656257
-0.52468324
0.1824749
0.10498583
-0.0099393511
-0.11575274
0.14781623
0.079974316
-0.17728674
0.21765433
-0.19351125
0.080983602
0.45326754
-0.21004747
-0.13877945
-0.11237349
0.40224871
0.0037653206
-0.99342209
-0.21622771
-0.23548259
0.46843597
0.31827122
0.061852135
0.01873068
0.70932728
0.16654801
-0.050593294
-0.1493253
-0.0061656293
0.072946317
0.022339441
-0.01206127
0.27280256
-0.2165958
0.13788319
0.16088362
-0.76837295
-0.16645582
-0.087752268
0.29976711
0.055485036
-0.096392363
0.36641741
0.0224282
-0.53235775
-0.19698057
0.047690779
0.1317632
0.22425045
0.10120459
-0.0052674613
0.046782665
-0.010073007
0.23975381
0.22274791
-0.39535999
-0.13884725
-0.055786066
0.12335908
-0.46744919
0.050192859
0.11289866
0.22859672
0.55068445
-0.62160587
-0.24665248
0.21194999
-0.17360875
-1.7694349
2.6041842
-0.026044499
-0.18340792
-0.39668739
-0.067334004
0.16068716
0.93967569
-0.070698231
0.073156476
0.090531714
0.14660765
-0.55574757
0.088996381
-0.39073777
0.0093733585
0.34362012
0.089237422
-0.19870962
-0.11495795
-0.13581294
0.4834013
0.13928287
-0.40043536
0.041953396
-0.34853202
0.17390864
-0.45310774
0.26460996
0.092163369
-0.20095518
-0.038962588
-0.29193106
0.10449075
0.072689548
0.111107
0.21627115
0.16187927
0.47724205
-0.35509247
-0.31315407
-0.02484245
0.0068148877
-0.08109875
0.23953542
0.00069971016
0.1336989
-0.054680742
-0.28024182
-0.23744863
-0.22279042
0.33371899
-0.34313321
0.089257434
-0.1380513
-0.2196293
0.17992336
-0.21855275
-0.211073
0.1368259
0.037806552
-0.20912042
0.18900315
-0.20210275
-0.051881418
0.23793606
0.18702418
0.029126126
-0.016163448
0.019306187
0.00055029959
0.42894378
-0.066549636
-0.31276003
0.15194643
0.020254623
-0.36757153
-0.12122622
0.04908476
0.36681786
0.012514533
-0.11915299
0.40250134
-0.031761393
-0.56347054
0.096702576
-0.32230857
0.063167818
0.093775019
0.089421481
0.29104117
-0.20790705
-0.083486527
-0.60709959
0.093537547
0.089018896
-0.11783163
0.32697713
0.19936216
-0.24198857
0.13966374
0.3561922
0.22149727
-0.4494819
-0.085968532
-0.12958021
0.41036168
-0.12560819
-0.10470489
1.0290883
0.1597594
0.077971637
-0.79234153
-0.34543943
-0.03564382
0.13259144
-0.022276228
0.10292207
0.24958396
-0.073177353
-0.025185665
-0.058086537
0.16376336
-0.042696066
-0.38879627
0.3472617
0.59766245
0.10414255
-0.037039161
0.030358957
0.018496217
-0.45725229
-0.09331698
0.15608586
-0.20333207
0.095459454
-0.92056286
-0.0077019203
0.14089854
-0.48214182
-0.071472488
0.17881674
-0.01147667
-0.019872066
-0.12422317
0.42592394
-0.20436017
-0.057518926
-0.40424997
0.22805712
-0.035190739
-0.16961616
0.010427013
0.32310799
0.060887281
-0.035740264
0.049571387
0.31530714
-0.573636
0.042791992
-0.13533606
0.019696699
0.086736903
-0.594468
-0.029711956
-0.11465655
-0.058699213
-0.23692824
0.30786374
0.063192368
0.034357019
-0.23609504
0.32846862
-0.53155839
-0.1237829
-0.027272686
0.51363707
-0.041206241
0.059338443
0.02183851
0.28091398
0.07522472
-0.047363196
0.035231411
-0.25736097
-0.4156127
0.03373491
-0.099731334
0.19934097
0.08480899
-0.62140584
0.012215392
-0.30587557
0.15644874
0.028967235
0.31681859
-0.11511797
-0.25812
-0.27633929
0.96445769
-0.6822831
-0.15929329
-0.23676631
0.25120884
-0.021006493
0.12230764
-0.061539512
0.30696264
-0.030375076
0.32994589
0.2821022
-0.39379275
-0.60472018
0.19206353
-0.223892
0.25319356
-0.32455015
-0.37893313
-0.02464311
0.089785755
0.059402838
-0.2314961
0.51277405
-0.19900094
-0.46764061
-0.3356857
0.24670996
-0.47024554
-0.56569833
0.041791435
-0.25176948
-0.11023693
0.34443098
0.021582676
0.14056957
0.28455698
0.73216993
0.18206671
-0.33703643
0.0048008254
0.26705879
0.40629286
-0.30292895
-0.25435957
-0.42596054
-0.022612978
-4.1287293
0.12199134
-1.8553611
0.3472417
-1.8482505
0.28229418
-0.026454277
2.2834966
0.70618755
-0.25256413
-0.33686325
0.14859368
0.11613496
0.06924291
0.2115265
0.24139233
-0.16039625
-0.54651159
-0.41461059
0.01282905
-0.43297389
0.016092431
-0.24179474
-0.37822539
0.11353273
-0.14812601
0.048467778
0.17972341
-0.18812469
0.20918044
0.054218072
-0.10514341
-0.19209544
0.36145085
-0.070409216
-0.13253912
-0.042481236
0.3197917
0.31778336
0.024647884
0.047599673
-0.31354845
-0.37959355
0.12641145
-0.71305346
0.32561201
0.9915573
1.0443367
0.073181562
-0.19119942
1.162051
-0.32907677
0.15603253
-0.040482108
-0.38472971
-0.00085367518
-0.14386967
-0.12939784
0.38671267
0.13176318
0.24775542
-0.084629424
-0.19020486
0.20246957
0.13440229
-0.20100452
-0.036335737
0.012607185
-0.027884064
0.13583906
0.10985661
-0.22312991
0.033669237
-0.64754653
0.058779504
0.1601703
-0.31637478
0.092929445
-0.16830139
0.174362
0.13384195
0.10766397
-0.13868019
-0.023507699
-0.14564997
0.005918222
-0.17995968
0.039319802
-0.021945536
-0.15938051
0.016861452
0.23001015
0.039885454
0.12009631
-0.10789406
-0.034693409
0.14080942
0.14097324
-0.4407073
-0.06670507
-0.38997278
-0.16519982
0.039954379
-0.22382148
0.27100942
-0.23723261
0.20071696
-0.041214004
-0.33364505
-0.17117748
0.069522366
0.48724887
-0.30774274
-0.096319161
-0.23365469
0.17263564
0.069244429
0.29709575
-0.2799404
-0.27777895
0.050456166
0.26263967
0.16105922
0.13380797
0.13073699
-0.10500608
-0.56704128
0.053896267
0.35685855
-0.33448941
0.24925476
-0.31902656
0.058958922
0.18098046
-0.178754
-0.4125886
-0.24279462
-0.10396324
-0.34283149
0.040042147
-0.02721001
0.38707268
0.52603811
0.074610397
0.047275294
0.087125279
-0.28126016
-0.42678574
-0.10265558
0.43871498
-0.058371119
0.69892323
-0.17199661
-0.53081435
-0.026539959
0.56314933
-0.70077759
-0.009392336
-0.30915105
-0.76339316
0.56206727
0.45532453
0.23934397
-0.16366293
0.44334081
0.04085074
-0.29795381
0.31489474
0.034678649
-0.35195613
0.40260085
0.43588814
-0.23884839
-0.46880484
-0.039424587
0.052460719
0.21250558
-0.177866
-0.48758098
-0.29079095
-0.66936773
0.0047209626
0.39753026
0.71979487
0.67221057
0.014964221
0.14496443
-0.086011
-0.1440137
-0.244103
-0.26935661
0.15146933
-0.24977465
-0.21693034
-0.34910673
0.5391435
0.28186071
0.055837031
0.015188003
0.21324347
-0.25697514
0.10326438
0.0068464749
0.04772009
-0.14689662
0.13707176
-0.081766553
-0.086470753
-0.13974006
-0.082790256
-0.46128425
-0.21714172
-0.020408474
-0.083415262
-0.21443036
-0.1769789
-0.049049158
-0.097846836
-0.23332128
-0.033642024
-0.33289015
0.48542869
0.050718244
-0.10205767
0.4955768
0.13805072
0.40658477
-0.16389778
0.13246138
0.0084022442
0.4365491
0.10689719
-0.17560573
-0.013430639
-0.31453815
0.31194365
-0.38337672
-0.61004746
-0.25618574
-0.025394298
-0.19728766
0.082614399
0.23255044
-0.2639491
-0.026384836
0.065391093
-0.15568914
0.069823809
0.006541118
0.0014842905
0.099307917
0.079459555
-0.11688482
-0.095660284
-0.12530899
0.14903715
-0.28228214
0.50046343
-0.26754639
0.061849725
0.095737949
0.020782467
0.10081876
-0.38138893
0.16237551
-0.0058318586
0.011239574
-0.43522456
0.025740903
0.3490991
-0.0023741617
0.020329805
0.22960876
0.28030512
-0.5758484
0.21859908
0.022234224
-0.48867473
0.18564716
-0.083725639
-0.14217296
0.1379229
0.040377524
-0.19467123
0.24733843
-0.19083819
-0.093402147
0.30613512
-0.24642831
0.068878956
-0.098213352
0.67420274
0.2210421
0.028488033
-0.060774777
-0.10829049
-0.066758379
-0.26508293
-0.21474944
0.061946191
0.026315248
0.02029594
-0.054226007
0.083214067
-0.11622482
-0.29963315
-0.18154186
0.25190821
0.51361483
0.037483405
-0.14420356
0.083017737
-0.16830137
0.24480975
0.25681496
-0.14677893
-0.083161294
0.0073863417
0.35022581
0.011589878
0.004974185
-0.34647122
0.50026089
0.20546345
-0.34332657
-0.46213487
0.13169366
0.29071185
-0.32811099
-0.040532403
-0.24963178
0.011530309
0.028658388
0.03580365
0.17778258
-0.043380369
-0.027882194
-0.052124403
0.040670238
0.14777359
-0.087630086
0.058948647
0.32733399
-0.28274524
0.0034541932
0.40886024
0.33571956
0.025015617
-0.20111634
0.061522156
-0.068215117
-0.043610498
-0.023116779
0.22935355
-0.025642458
-0.47356156
0.00086362247
0.3627007
0.37686524
-0.12208582
-0.063683808
0.072731607
-0.25686565
-0.26622754
-0.023590257
0.035334371
0.087918267
0.29770628
-0.23174372
0.1472425
-0.28129169
-0.06801682
-0.4209998
-0.04698398
0.027660415
-0.1491629
0.22190033
0.11057704
-0.25667343
0.027936274
0.1296334
-0.25459629
-0.0026435629
-0.15345879
0.16499865
0.046036899
0.018363044
-0.17949525
0.050850693
-0.034856893
0.071770638
-0.072760001
0.25128332
0.16790684
0.021755451
-0.16596334
-0.019983336
0.2394979
-0.52516675
-0.27130446
0.0052516502
-0.0039136545
-0.43265194
0.58826935
0.2856769
-0.51304144
-0.079316743
0.30988938
-0.15987194
-0.65391755
-0.072772354
-0.19804114
0.125085
0.16421847
0.056320481
-0.11459163
0.19672818
0.18345024
-0.10211944
0.61379129
0.078208745
-0.16367072
-0.37189716
0.05136539
0.41391405
-0.76513946
1.0453885
0.10918042
0.0077122166
-0.42893913
0.47835305
-0.074968264
-0.073773593
-0.20204221
0.3826724
0.10044362
-0.62025851
0.39205891
-0.063280128
-0.10666577
0.060904346
0.035752457
0.092724785
-0.12241618
-0.049933881
-0.050493319
0.363489
0.55678952
-0.0038172144
-0.38344055
-0.15227096
0.99855143
-1.3333889
0.14012565
0.18058616
-0.052359872
0.22087234
-0.042519603
-0.23064648
-0.20603424
0.40992585
0.18990274
-0.18224835
-0.31240755
-0.1682314
0.37309271
0.34199297
-0.16344728
-0.15467615
0.30395132
-0.15841752
-0.01047585
-0.041950595
-0.096878365
-0.019396286
0.34122136
-0.4063054
0.017040661
0.58313084
-1.1061231
-1.2064276
-0.41811925
0.023761207
-0.30338216
0.64139366
0.63341075
-0.034868006
0.044603143
0.40107775
-0.0051962957
-0.24320374
-0.055423964
-0.21022189
-0.34299168
0.35680658
-0.10934515
-0.36193129
-0.059994146
0.04522742
0.048284285
0.0034054555
0.093830422
-0.22959866
-0.3454873
0.2222099
0.24906626
-0.60489243
0.40591195
0.1477751
-0.062064588
-0.53181762
0.5287801
0.23931846
0.08338134
-0.043279979
0.24931182
0.29356864
-0.099688813
0.096227065
-0.28460306
-0.79408705
0.22901514
-0.058091234
-0.068017378
0.55028301
0.19736545
-0.13768972
0.047285188
0.3058309
-0.18231167
-0.41025001
-0.046981331
0.39196357
-0.16826913
1.0512096
-0.20728265
-0.33295849
-0.073383607
-0.27241945
0.12375861
0.30773085
-0.16371457
-0.02331702
0.39259046
0.25105765
-0.046753686
-0.10772983
0.050910361
-0.17280224
-0.13727696
-0.11452365
-0.17454968
0.33771154
-0.34422916
0.40162003
0.26643759
0.228109
-0.62780458
-0.24905364
-0.2775715
-0.22741507
-0.059332401
0.09971603
-0.0198124
0.15445678
0.0022569082
0.060076531
0.23349012
-0.004848294
0.16803865
0.48123813
-0.13847587
-0.024265878
0.024096485
0.17536609
-0.21604849
-0.085230634
-0.38119417
-0.25046048
-0.087106392
-0.17302629
0.31021401
0.05179147
0.16929995
-0.37772641
-0.1608023
-0.11670508
-0.19167459
0.039228451
0.1030873
-0.0094657494
0.25237563
-0.034026284
-0.03350845
-0.07481207
0.0060442416
0.15571772
0.55221212
-0.0037143058
-0.25439686
-0.10314324
0.16414616
0.051023986
0.042462826
-0.17074797
-0.21066411
-0.3378458
-0.39341775
0.24440508
0.23107821
0.22076431
-0.43598333
-0.2137346
-0.14270028
-0.23980683
0.087609753
-0.018963318
0.024881566
0.023710454
-0.19253477
-0.099862024
0.18381923
-0.12632219
0.074305058
0.41687167
-0.051330723
-0.12211787
-0.071800172
-0.030883532
0.088316716
-0.043084502
-0.085980043
-0.22990978
-0.23010014
-0.1389416
0.40472785
0.1393664
0.12422676
-0.14236173
0.29880455
-0.5930776
-0.26752123
0.23812333
-0.02739141
-0.00020847913
-0.13230015
-0.22298659
-0.11224648
-0.39922762
-0.047234736
-0.11008009
0.42125109
0.11505445
-0.1452744
-0.052084211
0.25155124
0.22851987
0.14339741
0.23828891
0.10805431
-0.26808819
-0.056611799
0.036068112
0.0015051613
-0.14230274
-0.063610882
-0.33362749
-0.17381331
-0.15198289
0.1966913
-0.11436071
-0.0047283839
-0.04935566
-0.24215306
-0.020141425
0.0024516815
-0.37607884
-0.64553726
-0.028703079
0.016266139
0.19901611
-1.1618494
0.30560911
-0.031622518
0.13903575
0.088400275
-0.041717365
-0.26443413
-0.63039762
0.058665071
0.13915616
0.024177106
-0.23976602
0.076790787
-0.13440101
0.053758223
-0.010171847
-0.13042915
0.04066892
-0.027896039
0.057605695
-0.14290848
-0.02280377
0.13612516
0.25453675
-0.07316868
-0.05434059
0.02511367
-0.043128017
-0.26554
-0.22140993
-0.099540003
-0.006254042
0.14316481
0.089286976
-0.23917103
-0.028329119
0.036829226
-0.48430783
-0.15517865
-0.065876164
-0.071517125
-0.58191276
0.18049772
0.031030158
-0.11280832
-0.17416646
0.079918407
-0.077853657
-0.0083256969
-0.40524429
-0.16441254
-0.14931373
-0.4310436
-0.056371544
0.030513117
0.074726351
0.055925183
-0.24115004
-0.2729539
0.20263904
0.081937924
-0.059237331
0.56371713
0.26401982
0.0029508567
-1.046425
-0.020896407
0.081940159
0.077974729
-0.055334866
0.16519056
-0.013024095
0.011676513
-0.22005077
-0.096616045
-0.002188093
-0.14489257
-0.23143587
0.037704818
-0.28732023
0.19041282
-0.024562078
0.075815812
-0.13170876
0.084073149
-0.25272676
0.0026621884
-0.099280693
-0.053616337
0.2407376
0.1561044
-0.44831088
-0.45801243
-0.20687565
-0.021268213
-0.00541182
0.27961868
0.22710711
-0.063315719
-0.14284803
-0.16687237
-0.036935527
0.27300498
-0.12955204
-0.35270309
-0.16957669
-0.41599202
0.059557922
-0.080580704
-0.058989387
0.15371102
-0.0858493
-0.19373488
-0.01030033
-0.091543287
-0.053402416
0.22130069
-0.10974953
-0.073029831
-0.4358952
0.051745407
0.05438276
-0.4994584
-0.22733516
-0.0044683353
0.15655173
-0.11429629
-0.16745356
-0.030623602
0.3799549
-0.063075371
-0.22022088
0.0080477623
-0.25615314
0.24407692
-0.021823404
-0.090421855
0.010067422
-0.45187706
-0.13558428
0.12761079
0.090178594
-0.05797258
0.033331923
-0.22870882
-0.22261231
-0.13705699
0.4936296
-0.078764692
-0.15235414
0.23751666
-0.085111268
0.14466786
-0.020553654
-0.72349966
-0.024119055
0.11059149
-0.21550404
-0.26625785
0.037243165
-0.1562729
0.034462232
0.077259086
-0.22210102
-0.22535923
-0.17945123
0.084659614
0.14517762
-0.033519898
0.33156356
-0.026249209
-0.36596069
-0.23569734
0.13906139
0.29363853
-0.37330428
-0.0039550895
-0.11624049
-0.11615305
-0.13097025
-0.19513194
-0.15267393
-0.14137296
0.05893565
0.10142199
-0.14076561
0.13650987
-0.12203414
0.077060387
-0.053794757
0.061912358
0.26050329
-0.44876289
-0.12754686
0.059520796
0.11019819
0.11454189
-0.044247225
-0.006887259
-0.373647
-0.05593491
0.26727971
-0.68521535
0.020477643
-0.13347898
0.16300942
-0.11478429
0.1295438
-0.21288934
0.025877507
0.090246432
-0.072375052
-0.11159519
0.066851243
-0.042147849
0.036830433
0.084773816
0.044589791
0.13668759
-0.50617498
-0.27231637
0.095968254
0.082839981
-0.12078425
0.00052890833
-0.10963991
-0.23464116
-0.21811771
0.18452606
-0.48148617
0.0016937805
0.045143135
-0.046220329
-0.226193
0.028226506
-0.340978
0.016603857
0.10056416
-0.065139376
-0.16147839
0.087760761
0.069130927
0.094329201
0.16428657
0.12412619
0.149848
-0.381928
-0.12036967
-0.03654141
-0.027586401
-0.024324631
-0.10221688
0.018078061
-0.18493734
-0.44304496
-0.15131205
-0.45705545
-0.0063502239
0.018845528
-0.10691746
0.14323111
0.061206866
-0.082321115
0.057158012
0.020194421
0.059430234
-0.10507625
-0.10098974
-0.053119194
-0.16457523
-0.01820411
-0.017765934
-0.049275275
-0.20449825
-0.0068644076
-0.029626844
0.032893494
-0.26289833
0.037266973
0.27512071
-0.024335433
-0.90387154
-0.15653156
-0.63041604
0.003939413
0.12120384
-0.11393034
-0.29076633
0.31267715
-0.25983196
-0.21328554
0.10467222
-0.30368116
0.03434382
0.10999646
-0.27878278
-0.19940715
-0.11511894
-0.18659481
0.20474175
-0.1465435
0.2359385
0.017839469
0.064227298
0.076838948
-0.13100737
-0.14102069
-0.73354471
0.20185682
-0.57785469
-0.35662058
-3.3401325e-06
0.1481273
-0.086057231
-0.21570212
0.31267345
-0.22823946
-0.33097631
0.2468522
-0.19279619
-0.10947131
-0.22019929
-0.0065995925
-0.15005215
0.04268821
-0.1367663
0.21493365
-0.29413816
-0.096455276
0.2469667
0.084346958
-0.10009892
0.044679884
-0.46514192
-0.19086592
0.1553507
-0.19249651
-0.14726761
-0.018118346
-0.10545208
-0.24904984
-0.16304141
0.24796931
-0.28999168
-0.32686937
0.24184568
-0.1641787
0.15063035
-0.048549354
-0.18199047
-0.15978268
0.01767746
0.0018129908
0.063723013
-0.17942423
0.15868664
-0.14139067
0.086042233
0.08928851
0.30109516
0.048486672
-0.559578
-0.27395067
-0.34446165
0.20667551
-0.0036205433
0.081364587
-0.12668294
-0.0044914982
0.060963783
-0.31683704
-0.10047539
0.16622505
-0.49842396
0.047016062
-0.16817111
-0.18627591
-0.048825126
0.064329982
-0.22625718
0.45688745
-0.12046658
0.11635686
0.047618099
-0.03234715
-0.16741352
0.17933105
-0.027307346
-0.25730819
-0.33931854
0.091224283
0.44643503
0.00018233864
0.26739696
-0.49199951
-0.1515905
-0.16528177
-0.43590516
-0.37685397
0.24353777
-0.26912096
-0.048795633
-0.069274567
0.43962783
-0.19820508
0.058361188
-0.18786268
0.34830314
0.069665775
0.026952509
-0.19508731
-0.18748185
0.053828433
0.53110158
0.2334189
-0.17583227
-0.71532643
0.82233983
0.37959716
0.0056577283
0.1960877
-0.010919637
-0.093388319
-0.12023313
-0.28968808
-0.17226698
0.32127824
-0.23626375
0.065254681
-0.36721826
-0.20209295
-0.024057448
0.0081559271
-0.31816766
0.26328892
0.13880305
-0.082481548
0.066131026
0.064035073
-0.31661037
0.2433314
-0.098535493
-0.0089164684
-0.69334513
0.501113
0.52644622
0.048571832
0.13394982
-0.1401988
-0.25393826
0.12759286
0.028431259
-0.17859294
0.06273365
-0.20575523
0.022272617
-0.14924666
-0.10269746
-0.15762478
-0.062701143
-0.076254129
0.13951445
-0.27811927
-0.09321776
-0.0094693722
0.061305556
0.16870417
0.20991303
-0.39058357
-0.1679325
-0.1917159
-0.22313268
0.252621
-0.075575501
-0.039541367
-0.18814638
-0.13674223
-0.14967614
-0.071848221
-0.20535609
0.070987515
0.038211867
0.01418475
0.11641119
0.2056407
-0.12373996
-0.035563715
-0.015587685
0.037778303
-0.27588913
-0.24803196
0.021612871
0.014644474
-0.048008945
0.25647458
-0.42006838
0.051803097
-0.24894603
-0.53867668
-0.27758637
-0.018864062
0.033690758
-0.068740398
-0.018202053
0.029331362
-0.097329713
-0.23606534
-0.018877659
-0.34307688
0.039638333
-0.090928495
0.31877735
-0.079514958
-0.02397475
0.016679151
-0.1925154
-0.22680934
-0.19160524
0.064229988
0.030853545
0.020576712
0.33079341
-0.31661817
0.13396008
-0.41869879
0.00085146981
0.28440163
-0.080295801
-0.0077027637
0.048789293
0.15919216
-0.22453703
0.021611458
-0.035268422
-0.12587981
-0.14638734
0.096057117
0.062312968
-0.13872586
-0.22020811
-0.07451155
0.23260917
0.016050024
-0.022462903
0.059389487
-0.32464939
0.053686734
-0.11163513
-0.032239299
-0.10342517
-0.5918749
0.1180163
-0.41742125
-0.33259559
-0.025158124
0.16093256
-0.21569955
0.045691505
-0.15422572
0.0026595874
0.048123982
0.12366673
0.16645481
-0.024386594
0.041081291
-0.11346868
-0.39631727
0.10171589
0.057104066
-0.10434504
-0.11956683
0.020395657
-0.12930973
-0.094323397
-0.1210963
-0.17889333
-0.19944611
-0.38395381
0.10748561
-0.36593813
-0.30143055
-0.0080166748
0.12056894
0.045588359
-0.1485372
-0.045336336
0.041912679
0.030433362
0.071059525
-0.093353108
-0.093844779
0.022911526
-0.10939802
-0.179741
0.039564818
0.097670883
0.034679368
-0.13898586
-0.14693867
-0.084170148
0.025873492
-0.087484241
-0.21004248
-0.11596286
-0.31306943
0.085238941
-0.42397946
-0.020998633
0.0026551399
0.12854537
-0.039738595
-0.099533446
0.11165135
-0.077557884
-0.091057017
0.055120438
-0.1049249
-0.033082101
-0.16617729
-0.20043676
-0.14678556
-0.030873766
0.17769997
-0.036535606
-0.096500382
-0.11880948
-0.12680854
0.16428541
0.021523245
-0.10987701
-0.10777137
-0.038128793
-0.2662532
-0.39872697
0.022396518
-0.01219638
0.18623431
-0.086624593
-0.085290253
0.32422262
0.044781704
-0.13546103
-0.05271389
-0.73254758
0.064375281
-0.26274765
-0.11003615
-0.14960118
0.073930196
0.086581275
0.15557222
0.0026932557
-0.055788659
-0.10587302
0.15972795
-0.030261312
-0.16703068
-0.11642629
-0.14431553
-0.37854448
-0.38430965
0.13809311
0.026095673
-1.0137033
0.034746885
-0.27022082
-0.4271253
-1.5334041
-2.5470273
-0.029612768
-0.86407161
-0.37721762
-0.73405474
-0.62004852
-0.29365629
-0.49953115
-0.3432802
-0.15841283
-0.080224596
-0.4804796
-0.5363152
0.36168677
0.76971453
0.31577882
1.0754572
0.24835441
0.073475569
-0.10423378
0.05354619
0.0068321638
-0.20062067
0.10990058
0.02270177
-0.051009458
-0.012369084
0.011709348
-0.1840018
-0.018427733
-0.084511831
0.014976882
-0.35218221
-0.17245297
0.087134913
-0.0075830868
0.036867291
-0.48772171
0.035283115
0.22737816
-0.92283583
-1.2343405
0.8507216
0.15279722
0.16013177
-1.1229447
0.050572522
0.13449945
0.080986962
-0.017054353
-0.044780385
-0.021706518
0.20249715
0.17539874
0.011114741
-0.20065868
-0.097136803
0.050467324
0.0055768373
0.05046073
0.070198357
0.041448873
0.046463005
0.032779749
0.1335952
-0.15375826
-0.54553086
0.11053571
-0.35563776
0.21493894
-0.054768119
0.18215263
-0.01303322
0.045988008
0.055926301
0.18971576
0.29708448
-0.1197842
0.20749782
0.021155089
-0.017693548
-0.04178917
-0.16080531
-0.061652172
0.10678722
-0.043886982
-0.035724696
0.10046607
0.025066497
-0.0034703379
-0.031940591
0.035861991
-0.13829736
-0.49070525
0.023608403
-0.16757672
-0.14002529
0.29422331
0.042878177
0.1660133
0.04091011
0.086000867
0.12254653
0.02764282
-0.016856136
0.066080123
-0.0086115729
-0.029052101
0.091763712
-0.18740933
0.053821225
0.052237317
-0.0068509844
-0.020442028
0.26141155
0.011310097
-0.075151809
0.068765685
0.038101196
-0.15284497
-0.48176652
0.098298363
-0.075131096
-0.14574635
-0.34199724
-0.16203941
-0.10129595
0.09873496
0.15691981
-0.062348071
-0.046247378
-0.02619422
0.1550741
0.087016791
-0.11079304
0.0068740319
0.057308834
0.0019936587
0.045613509
-0.0038475525
-0.061704844
0.0040819277
0.057318237
-0.10774617
-0.0065594446
0.02487739
0.18143095
-0.35647756
0.16294049
-0.10260257
-0.049028475
-0.23610295
-0.11090752
-0.70685309
-0.051994231
0.49597639
0.33208805
0.34362683
0.25267929
0.20112063
0.16980973
-0.35571498
0.32165188
-0.29447046
-0.56865019
0.23665102
-0.01747966
-0.16388804
-0.25403091
0.24255957
-0.079346798
-0.14527515
-0.077120632
-0.20178026
-0.39541695
0.066804521
-0.002676083
-0.046239775
0.30689085
-0.40616697
0.009820235
0.039767444
0.18859035
0.034033448
-0.00099132652
0.028512619
0.093214855
-0.054631323
-0.13719529
0.063804902
0.092973918
-0.12330278
0.11834767
-0.019480031
-0.034225941
0.21937878
0.002300607
0.012833569
-0.20205067
0.04576239
0.042910919
-0.37713158
0.12738971
-0.018779742
0.037968744
-0.11271548
-0.20844689
-0.009272106
0.15131947
0.061280668
0.018952506
-0.011933757
0.087202787
0.10029652
-0.079152606
0.13852671
0.085048743
-0.06005387
-0.16608821
0.046045084
0.073299378
-0.029862776
0.14810282
0.061546873
-0.12677424
-0.010010886
-0.04168703
-0.23287044
-0.22637585
0.28954515
0.051713593
-0.13212876
-0.098625548
-0.087411873
-0.0081980508
0.033710472
0.14188573
-0.0068198447
-0.17745325
-0.059064914
0.034544203
-0.031489994
0.34115916
0.037578721
-0.016475067
-0.1814533
0.0066728839
0.0010820223
0.065618724
-0.029799717
0.022430182
-0.11697569
-0.055846039
-0.085279033
0.033727489
-0.094877131
0.13023518
0.056570809
-0.022051007
0.25291857
0.020829311
-0.0041134972
-0.15095167
0.13166696
0.12899299
0.0065963189
-0.26764995
0.099300779
0.1421527
-0.22061719
0.18453097
-0.037327509
-0.14920953
0.073287293
0.014739087
0.14153919
-0.060352717
-0.10727558
0.012696445
0.020876125
0.037581407
0.015033905
-0.010591509
-0.044362068
0.031972446
0.23580703
0.19113609
0.076252043
0.0057315258
-0.008288105
-0.12666026
-0.14141095
-0.17955539
-0.051506113
-0.14668357
0.019850669
0.11543644
-0.038219642
-0.071553752
0.078841329
-0.073207892
-0.0099087562
0.10275761
-0.036634844
0.07876908
-0.22485697
0.089160807
0.031888843
-0.024472959
0.3590045
0.42125317
-0.35608867
-0.21292473
0.14851135
-0.18893863
-0.0035998065
0.022254925
0.00065259839
-0.066314436
-0.10561171
-0.15809882
0.020074409
0.11980207
0.29821193
-0.052266899
-0.11578428
-0.11278486
-0.0027163045
-0.002206868
0.091291673
-0.46525407
0.23491323
0.014005739
0.075481653
0.054527167
-0.17282453
0.21160811
0.4027532
-0.45507613
-0.1228295
0.24148864
-0.033349551
0.022542022
0.051545855
0.012170765
-0.045552086
-0.27436349
-0.033596504
0.11728975
0.091887951
0.11824618
0.010003927
-0.076191679
0.0067611723
0.019463861
0.030756924
-0.028977703
-0.27235031
0.11758104
-0.035393726
-0.012741624
0.0084903203
-0.0043087522
0.11957295
0.34962243
-0.42280138
-0.056526721
-0.14183329
-0.2144196
-0.020737041
0.025862526
-0.042905666
0.022643333
0.0081439586
-0.13530065
0.065426365
-0.061325319
0.01217472
-0.024550995
0.05003345
-0.17316118
-0.08218617
-0.015811879
0.12389763
0.065629818
0.11596701
0.01986552
0.058762297
-0.11130524
0.16560721
-0.0057097017
0.24903035
-0.32122174
-0.063667171
-0.082958192
-0.049301341
-0.026339632
0.16931278
-0.1240921
0.080643982
-0.2255144
-0.051047299
0.17932382
-0.016431369
-0.050515871
0.15582214
0.15456825
-0.14201681
-0.12596507
0.11577244
-0.094688259
0.005115855
0.10000241
0.011568085
-0.028600564
-0.027568379
0.154009
-0.20605657
0.14441168
-0.2489737
-0.051505603
-0.3025896
-0.70679045
-0.027506676
-0.11400867
0.10275759
0.048725635
0.10563349
-0.20785958
0.081103489
0.065957323
0.018748658
0.12037437
0.029893009
-0.024419367
-0.016513022
0.027926303
0.004402502
0.063683763
0.087446697
0.12162866
-0.081420325
0.052470952
-0.096276432
-0.35098836
0.27036285
-0.20177114
-0.051140253
-0.28037229
-0.13936181
0.096213102
0.063145399
0.060613055
0.055696834
0.059113566
-0.20398344
0.082386628
0.064249896
0.038271058
-0.039856166
-0.038509164
0.033487145
-0.053181309
0.018896038
0.087898001
