0.073569052
0.02673085
0.047143929
-0.079405114
-0.033967271
-0.027908629
0.012229933
0.074783847
0.0041787038
0.059556637
0.032374326
-0.028705336
0.0068719042
-0.032743804
0.040996388
-0.017147047
-0.044185385
-0.013083057
0.054305255
0.081225909
-0.15579809
0.11764801
-0.18729654
0.1428427
0.030299021
0.15337649
-0.15530449
-0.028615337
0.084750384
-0.013583829
0.027574643
-0.033445738
0.017344862
0.026410514
0.05947696
-0.00010988237
-0.029535657
0.10772666
0.0023900499
-0.0065291976
0.018429264
-0.086642377
-0.016497312
0.030584568
0.049605217
-0.0037496146
-0.021521073
-0.086780049
0.14355665
-0.21895154
0.046834122
-0.035977062
0.087550625
-0.16536887
0.051145777
0.047041003
0.020450683
0.033648767
0.023094974
-0.018837951
-0.036846586
-0.064718835
-0.0019441422
-0.044935208
-0.035939924
0.01060648
0.0029507219
-0.032459505
-0.016841253
0.050126158
0.0042354814
0.010523061
0.031949118
-0.033217832
-0.031621195
0.23718716
-0.25861287
0.040068913
0.03666579
0.088986501
-0.18682088
0.1115985
0.0077504301
0.016070753
-0.059762303
-0.010231087
0.063666113
-0.097859807
-0.012892921
0.037071489
0.02480456
0.022121286
-0.011472711
-0.033705045
0.045108221
0.012038449
0.019930275
0.015319376
-0.034408454
0.01671958
0.013833945
-0.038718432
0.39482668
-0.22013667
-0.19212157
-0.035532176
0.12662448
-0.12188683
-0.018602083
-0.0089661842
-0.037545338
-0.023682041
0.025007602
0.022356933
-0.012461456
0.032584041
0.019926867
0.012282416
0.053467989
-0.072844848
-0.024417836
0.060375538
0.079645939
0.015934072
-0.033383343
0.021262499
-0.0097516365
-0.093791597
-0.061374798
0.27641979
-0.22010168
-0.26717442
-0.062923722
-0.19593011
0.0043365024
-0.00043356724
-0.0064457213
-0.02675174
0.018217675
-0.0014840714
0.0060812435
0.02631676
0.10088423
0.041329395
0.044768021
0.00070459594
-0.086256489
0.0018509493
0.007581071
0.038878314
0.050547402
-0.012308663
-0.0056554293
-0.050976913
-0.022969702
-0.0775811
0.17901422
-0.26902565
-0.17547071
-0.31558567
-0.22580387
0.062234875
0.0017830458
0.098196447
-0.016993869
0.015144055
0.069902554
0.03220012
0.018699676
0.025417609
0.0013932862
-0.066285804
-0.036477502
-0.0077342857
0.033596013
-0.016286166
0.11181758
-0.033340696
-0.031112116
-0.049209073
0.023917392
-0.063484602
-0.054257542
0.14341433
-0.30941698
-0.0038370339
-0.0076167318
-0.12438405
-0.039727852
0.15868515
-0.019579733
-0.053537786
-0.077393517
0.14956604
-0.085341573
-0.05088193
0.02709722
0.045211818
-0.034142494
-0.060889293
-0.085078247
0.015700862
-0.038561981
0.00056469016
0.12180141
-0.0044631679
-0.093077853
-0.057007421
0.038000487
0.037917159
-0.084272549
-0.33752373
0.21492848
-0.64375997
-0.36596438
0.0017127235
0.085065126
0.078493655
-0.041966658
-0.081498146
0.17356095
0.010335101
0.012785577
-0.086703561
-0.023165688
-0.1007311
-0.091595069
-0.011754088
0.069487922
-0.15316193
-0.030276014
0.10311559
-0.032695126
-0.061793055
0.054343987
-0.031776294
0.093740091
-0.032288145
-0.46440494
0.23044395
-0.24003869
-0.17303082
0.007735929
0.039049499
0.01909559
-0.016551169
-0.12245523
0.066095471
-0.054010257
-0.046004053
0.027990622
0.07442034
-0.024810031
-0.074417129
-0.031596534
0.027818136
-0.099798694
-0.028138265
0.15390229
0.05045753
-0.060118482
0.071637049
-0.092807248
0.18033738
0.28104192
-0.44078138
-0.027724661
-0.08383096
-0.15190844
0.019337406
-0.012576804
-0.058769062
0.016992737
-0.036481518
0.0174814
-0.07479354
-0.077597804
0.25180504
0.062848046
-0.054774251
-0.14021663
-0.02686731
-0.024016274
-0.056589492
-0.0062276796
0.13080128
0.0089780828
0.00032225126
-0.024441976
-0.040127046
0.11929287
0.27525645
-0.3991912
-0.027533548
-0.1137969
-0.1004866
-0.0097556571
-0.069005609
0.010803108
0.035869226
0.023356628
-0.020889012
-0.018094281
0.028635649
-0.041155469
0.061336029
-0.095941313
-0.081601322
-0.033108518
-0.063044228
-0.034888551
0.055871569
0.061765548
0.0040529328
-0.03815366
0.022661462
-0.076148979
0.23425232
0.19581454
-0.35564929
-0.006487926
-0.15955912
-0.13133557
0.013673309
-0.080728814
0.0073673511
0.025531299
-0.042758182
-0.033599265
0.032689661
-0.054262783
0.020555297
0.0402047
-0.015858596
-0.05568989
-0.10223647
-0.018385377
-0.037593193
-0.032990601
0.0073699597
0.0077266423
-0.0075389082
0.080994748
-0.00070895068
0.17399406
-0.046356574
-0.31242147
0.16916744
0.16625381
0.019437121
-0.011715895
-0.031924762
-0.024889516
-0.03022486
-0.04805702
-0.028768251
0.0078703305
0.0027318862
-0.027552081
-0.023915943
-0.020322654
-0.018489411
-0.076351173
0.031989343
-0.0815299
-0.038783453
0.058120925
-0.032706417
-0.0053631831
-0.033434715
0.0074387761
0.25497088
0.11083276
-0.34217227
0.091562636
-0.10955381
-0.044903055
0.0060990481
-0.011734241
0.0076802419
-0.0088204434
-0.022898318
0.058521975
0.052837387
-0.032035891
0.10381698
-0.044103689
-0.034156263
-0.03644665
-0.09222436
0.014693765
-0.037344053
-0.048850298
-0.048127264
-0.026085345
-0.031852815
-0.030353134
-0.032318626
0.19954337
0.45232391
-0.33599505
-0.20450482
-0.27711913
-0.11718488
-0.020587252
-0.037209436
-0.00086174678
0.0038849493
-0.041366566
0.13122168
-0.037595037
-0.080664217
0.14456978
-0.032625172
-0.053091004
-0.059427492
-0.030664803
-0.01774575
0.02319156
0.0094628306
0.0045592524
-0.066700473
0.020081449
-0.060599402
-0.045054242
0.061822735
0.54697472
-0.13107212
-0.53135425
0.043579634
-0.049020015
0.0041827457
0.0089145182
-0.024596084
-0.041658409
-0.048308235
0.11175353
-0.036951009
0.016970567
-0.090809189
0.024950549
-0.066405013
-0.077649832
-0.077091031
-0.015282962
-0.043749768
0.16874652
0.075938165
-0.023855342
0.021455096
-0.053360753
-0.05817274
0.13027011
0.31920725
-0.12171432
-0.34466967
0.095330395
-0.085892871
0.0095905298
-0.031284615
0.040492713
0.10594204
-0.013598025
-0.0031985247
-0.0025857738
-0.0069520739
0.14479037
-0.049699843
-0.025917087
-0.071495213
-0.029135281
-0.027457492
0.031444177
-0.062435787
0.046037894
-0.0027653479
-0.014354455
-0.064383902
-0.045635711
0.10125594
0.2988418
-0.28675377
-0.2085631
0.11421465
0.018867325
-0.017543221
0.016091119
-0.0059208749
-0.011745409
-0.076044224
0.033102848
-0.0044342247
-0.022410311
0.069543652
-0.038499266
0.00093439006
-0.047317579
-0.035772868
0.0018002096
0.015293079
-0.019410288
0.012795207
-0.012736176
0.040039074
-0.083516881
-0.01403946
0.11958561
0.074692786
-0.3124882
-0.019926675
-0.18191597
-0.090753809
-0.029294489
0.0078823967
0.03042173
0.091768503
-0.058811788
0.0205609
0.035986889
-0.033118978
0.071138941
-0.027345687
0.0073893401
-0.14818069
-0.033179838
-0.014380554
-0.072975904
-0.059845958
0.14329319
0.045139149
0.036387559
-0.063000709
-0.0025369301
-0.0021451735
0.050181113
-0.294999
-0.0021948433
-0.10360722
-0.0062326859
0.020252835
0.00017833742
0.020317642
0.0071750935
-0.05591324
-0.061120592
0.046046969
-0.017148362
0.058241725
0.011245541
0.022373538
-0.07171765
-0.038038962
0.0027596706
-0.046102658
-0.032617182
0.069913939
-0.029725743
0.046179023
-0.018481288
0.052336734
0.045839198
0.058783993
-0.23835695
-0.041612454
-0.27227733
-0.070375375
0.005751906
0.072098099
0.032322679
0.011084611
0.01897371
-0.027221953
-0.0072553623
-0.020675872
0.089157023
-0.050648026
-0.04326902
-0.072435223
-0.050887186
-0.0072229328
0.024541466
0.019095197
0.031908251
0.002202685
0.1136153
-0.025648868
-0.088523895
0.061369773
0.064522713
-0.30487907
0.070931397
-0.17368646
-0.15044691
0.015480373
-0.0033535701
0.0055189165
0.038666509
-0.012580777
0.046493355
0.051368657
-0.10046915
0.19823678
0.021277094
0.018180974
-0.048606887
-0.078703232
-0.025334649
0.046938013
-0.0079218699
0.024794361
0.035808712
-0.062087081
-0.00070825586
-0.1197919
0.013466082
-0.056010835
-0.28051412
0.11414908
-0.45518282
-0.29805082
-0.017480353
0.012109437
-0.0054069939
0.0024027501
-0.055623658
0.036842469
-0.0035940416
-0.088384621
-0.021412922
0.027784532
-0.015138291
0.016127467
-0.012270737
0.025252512
0.016524663
-0.095806494
0.043135311
0.063613899
0.017679915
-0.019408461
-0.018513883
0.033233177
-0.072607644
-0.23591991
0.21092884
-0.28373787
-0.013959922
-0.069567978
0.00087788427
0.057127129
-0.025156353
-0.019261939
0.13600725
0.0071988935
-0.0567872
0.1159119
0.015668891
-0.035249311
0.017315404
-0.059699774
-0.0356085
0.068374611
0.043447368
0.079894707
-0.070011139
-0.014507813
-0.0364771
-0.056629363
-0.033538122
-0.04058807
-0.31244096
0.23588601
-0.13744232
-0.029216819
-0.14658166
0.078205042
0.084916346
-0.050589956
0.058450975
-0.036274344
0.0024953869
-0.095346458
0.091037124
0.019542854
0.043307599
-0.07115636
-0.0050853975
0.01231819
0.040751174
-0.0055008563
0.074246719
-0.025230564
0.035363063
-0.047048319
0.01286669
-0.068593688
0.10241983
-0.26169187
0.11879162
-0.17253064
0.13468042
-0.090588652
0.06501092
-0.016770218
-0.013380903
0.12579922
0.017755635
-0.011761735
0.024859771
-0.032547042
0.11707295
-0.051641636
0.0031962369
0.015073735
-0.017686948
-0.038748562
-0.0092756022
0.047700237
-0.03783828
0.037791293
-0.10337265
0.0019060991
-0.091409102
-0.12921697
-0.10760346
0.18663026
-0.2332792
0.022770384
-0.10703559
0.038537588
-0.080598593
-0.029996272
0.080387592
0.11031391
0.019283487
0.078052081
-0.058056816
-0.032947555
0.020565065
0.14975545
-0.027844155
-0.013998325
-0.021230793
0.02082859
0.0039946693
-0.060353383
0.042590741
-0.034367185
0.008213168
-0.10223511
-0.054224428
-0.1139333
0.076633133
-0.22100681
0.12178027
-0.16169515
0.057893693
-0.069350883
0.090250947
0.09052214
-0.027922625
0.033197828
-0.023020742
0.016551262
0.030232634
-0.027041608
-0.029903395
-0.01004427
0.011930922
-0.024156842
0.0056687165
-0.018573333
-0.040423583
0.076975115
-0.022738116
0.021454684
-0.12951292
-0.07588616
0.084198169
-0.028412217
-0.061190519
0.22569518
-0.14525871
0.015960155
-0.028578741
-0.040756464
-0.0005108898
0.049784429
0.057498422
0.095296733
0.021007577
0.056231454
0.028677039
0.029050484
0.041438155
-0.0054744422
0.039278332
-0.050363462
0.070841752
-0.037152011
0.074302889
-0.029272581
-0.031608336
-0.067564495
-0.044966947
0.12921157
-0.012054706
0.07182128
0.20343313
-0.23963946
0.0059543308
-0.081627242
-0.029082594
-0.026740847
0.016063156
-0.00096978934
0.085004508
-0.016427614
-0.045299545
-0.0655111
-0.023301806
-0.023008514
-0.018310366
-0.050695386
0.16968063
0.024564452
-0.022942541
0.054645702
-0.0089855874
-0.021138886
0.030427193
0.1604839
-0.37266073
0.10568931
-0.10514366
0.068730935
-0.075268909
0.036843546
-0.083459057
0.036119781
0.047381207
-0.011320389
0.061406624
0.092684813
0.036057368
0.017613793
-0.097344056
-0.069422498
0.029225135
0.0010098569
0.00045503149
-0.038391564
0.021198751
0.020611219
-0.026741754
-0.030498497
-0.039110381
0.077424921
0.13370945
-0.29908106
-0.03125973
0.0019987486
0.05886618
-0.045451276
-0.051448919
-0.084154233
0.028810294
0.099312603
0.091318458
-0.020210678
0.0408937
-0.033044435
0.089471526
-0.047474071
-0.03514085
-0.076477751
-0.019090407
-0.035288528
-0.098990232
-0.014440313
0.032362286
0.03053185
0.025747826
-0.033556227
0.16487612
0.20496243
-0.19381523
-0.13367583
0.086913064
-0.0020710926
-0.015510318
-0.039517429
-0.024422299
-0.0026294561
0.013806134
0.050270606
-0.019636283
0.025735943
-0.024204277
0.10097511
-0.0092329262
-0.11255448
-0.008390002
-0.049966753
-0.060377508
-0.0815138
0.0024632458
-0.027548576
-0.03980701
0.084707834
-0.085178718
0.21300323
0.30279967
-0.13685678
-0.35255304
0.13524808
0.027987262
-0.026270082
-0.019360555
-0.0069230869
-0.013420467
0.020667892
0.08702711
-0.0096723093
-0.0039412756
0.10516931
-0.033802323
0.014954204
-0.029586358
-0.10174678
-0.026767515
-0.027946483
-0.060098011
0.002158033
-0.019427655
-0.011798314
0.018028749
-0.080447696
0.28758892
0.42022407
-0.070928738
-0.49727979
0.1191211
-0.12796205
0.014205614
-0.039792277
-0.02104638
0.05537219
0.0037154406
0.050572619
-0.017712777
-0.05762928
0.18928622
-0.073140055
-0.052888121
0.0048803897
-0.079823606
-0.015196929
0.025194574
-0.13653408
-0.04820535
-0.041923858
-0.021453515
0.01524255
-0.13544346
0.29167289
0.60708219
-0.14302626
-0.65665448
0.19012575
-0.12990066
0.017062275
-0.068823524
0.020781666
-0.039819412
-0.033999801
-0.016766524
0.011260354
-0.057628933
0.16995963
-0.0013444553
-0.10103092
-0.058799423
-0.037138574
0.010308214
0.040865168
-0.036753669
0.0024976968
-0.051993236
0.012784537
-0.040011559
-0.13926217
0.24722819
0.48058742
-0.18834521
-0.52740198
0.43138027
-0.033559706
0.026832838
-0.0071913553
-0.020577289
-0.012132755
-0.034245227
-0.028351285
0.033798493
0.025554528
0.066665746
-0.010184175
-0.03711145
-0.0021615105
-0.027022289
-0.03117485
-0.038135886
-0.0079982681
-0.066233635
-0.051881056
0.0097676301
-0.038465608
-0.059996791
0.22750171
0.40042111
-0.22756703
-0.33050698
0.13966015
-0.030904515
0.0171795
0.00054564286
-0.014054403
-0.01065775
-0.071266346
-0.000828224
0.0086470349
-0.070575967
0.032466326
0.048586845
-0.0040893694
-0.069688611
-0.024981691
0.017336126
-0.024201039
-0.032873422
-0.025283406
-0.025505235
-0.010391108
0.015105048
-0.068203159
0.27020606
0.15240544
-0.20562366
-0.23144522
-0.12186956
0.0026421146
0.010899815
0.018770872
0.0019900696
-0.018419618
0.02078131
0.11581235
-0.041842625
-0.075691767
0.046356801
0.027870385
0.023986064
-0.011367812
-0.094209693
-0.0082984129
-0.12970209
-0.032472808
-0.1158683
-0.028372345
0.023675371
-0.02756891
0.011409315
0.2531901
0.20442384
-0.32777128
-0.096399926
-0.39205337
0.01084882
-0.014469939
-0.026762662
0.072455935
-0.015314684
-0.032851528
-0.10851043
0.019282971
-0.066930674
-0.0079913493
0.021910554
-0.030912088
-0.0807276
-0.084408782
0.028489713
-0.049853019
0.13174358
0.0069908863
0.005333676
0.016093938
0.060163338
-0.11474808
0.19261834
0.44743246
-0.43904257
-0.15582503
-0.13878785
0.093374424
0.019281901
0.090023018
0.0054702377
0.053518418
-0.30635965
-0.20306754
-0.041946687
0.13889599
-0.015183065
-0.092068188
-0.17207399
-0.07482446
-0.038082208
0.15657182
-0.0070635141
0.31778434
0.018846564
-0.15476167
-0.047899738
0.13627324
-0.011843821
0.1918314
-0.09947636
-0.28322002
-0.015060763
0.13820894
0.021011619
-0.079964466
-0.19336887
-0.20738828
-0.01097066
0.17121212
0.047323395
0.10476456
-0.20916216
-0.21539378
0.00040680252
0.2774097
0.059010912
-0.19756636
-0.083807357
0.21702619
-0.035456479
0.22655495
0.060508613
-0.19073771
0.18411231
0.18657571
-0.035331175
0.24653406
0.078604408
-0.19530615
-0.2305306
0.10828092
-0.021546781
0.2017518
0.073052853
0.10223546
0.019479461
-0.070521995
-0.014612772
0.26920956
0.057887595
-0.037771456
0.01536379
0.16335364
0.012831242
0.050840911
-0.036195181
0.15485087
-0.20511429
0.0027623673
-0.04674378
0.11574262
-0.038267817
-0.00038519682
-0.081670627
-0.21212856
-0.037623432
0.12589622
-0.030829495
0.092021011
0.020319395
-0.094292209
-0.022101913
0.13877796
-0.0020671478
0.087029077
-0.26387787
-0.23378883
-0.0036877627
0.078544348
0.0097912932
0.07896775
-0.0074042398
0.12879707
-0.04424629
0.26057321
0.1156094
0.097860955
0.3856127
-0.014129196
-0.039440498
0.25155911
0.061361197
0.066646673
0.47208801
0.029244222
-0.033053439
0.087021686
0.0024343822
0.023063147
-0.12542751
0.16537763
0.012325012
0.25347912
0.053226814
0.052103586
0.046225093
0.24046576
-0.015067632
0.16432934
-0.027170198
0.12714103
0.083038017
0.13151118
-0.01700129
0.21886283
0.058023535
0.077778831
0.15132737
-0.13946055
-0.013776213
-0.052856423
-0.026488584
-0.0040786881
-0.13458335
-0.11906946
-0.031478718
0.046943661
-0.022447893
0.074768998
0.13068087
0.17804098
-0.0095651653
0.073861174
0.017499853
0.086371936
-0.45581797
0.017510403
-0.048789985
0.044122171
-0.022788066
-0.066143669
-0.42554557
0.042565782
-0.034467887
0.049993422
0.043565843
-0.043571059
-0.10654753
0.21308707
-0.030702328
0.20527498
0.10690936
0.15093262
0.064969204
0.0070722136
-0.027323786
0.10363284
0.032475997
0.069466822
-0.16417779
0.070319571
-0.035748906
0.088558637
0.028662169
-0.11256092
-0.33268571
0.30247399
-0.012613454
0.17976828
0.072790831
0.083457097
-0.39505419
0.017266447
-0.016981181
0.11090567
0.059851639
0.25312656
0.16226298
0.094545625
-0.03233311
0.12618917
0.082055755
-0.00076127093
-0.012549756
-0.00048887823
-0.024041807
0.00073496334
-0.039105948
0.12243642
-0.00099693018
-0.007844111
-0.017188242
-0.010138726
-0.055645086
-0.085371532
0.17054309
0.083131246
-0.047926027
0.069933079
-0.014074773
0.0020895654
-0.090226017
-0.11229397
-0.011351499
0.14783898
0.058434196
-0.15713868
0.033406708
-0.052249596
-0.027608993
0.097559512
0.015796026
-0.06596379
0.3800962
0.17715439
-0.041191783
0.15880041
0.090761364
-0.074069239
-0.44345444
0.0074146595
-0.016411843
0.14041117
0.074806951
0.099680528
0.18626614
0.17279695
0.015566265
0.20265201
0.1466953
-0.10746899
-0.016606741
0.49710673
-0.019816535
0.25895557
0.12779465
-0.0087105138
-0.090025313
0.36677673
0.026508382
0.22435014
0.11510495
0.20753986
0.014534681
-0.0056469743
0.031536918
0.19463992
0.094984815
-0.23692694
0.1540664
0.17655061
-0.0023130465
0.041111778
0.041763868
0.23077443
-0.08546447
0.21830678
-0.0039967489
0.029538481
-0.018823737
0.14512791
-0.02811487
-0.37892786
-0.037144743
0.089412242
-0.020657843
0.046462458
-0.16318458
0.021535112
-0.01331957
0.1024863
0.031908996
0.21677414
-0.0019339119
-0.038809903
-0.041210845
0.19261925
0.080977701
-0.10895179
-0.023925817
0.041375469
-0.036302499
0.18578975
0.081196517
0.19210573
-0.27877161
0.0016177818
-0.020040637
0.18066393
0.048742905
0.016601069
-0.0023930033
0.22819076
-0.031863462
0.23285511
0.12342308
-0.2992754
0.12243144
0.43391538
-0.0030258275
0.25936422
0.1107292
0.048616726
0.18581133
0.20090789
-0.021911869
0.11200467
0.0074349963
-0.085514836
0.14376806
0.042724557
-0.023952961
0.14824472
0.093136325
-0.15274291
0.12090648
-0.057650588
-0.028322466
-0.0046834541
-0.019961398
0.2364765
0.28076851
-0.19581203
-0.045261558
0.020180954
-0.0053748512
-0.13191397
-0.15212567
-0.29852653
-0.037966769
0.16773197
0.096924521
0.295203
0.212237
0.020535078
-0.033278313
0.15291831
0.071441285
0.035569731
-0.17994657
-0.10096664
-0.022029234
0.17193039
0.11280424
0.1884189
0.076918162
0.069030233
-0.012095794
0.39726052
0.29904896
-0.30313408
-0.59251696
-0.083989412
-0.019171853
0.28624952
0.19619676
-0.006322368
-0.033409908
0.14918658
0.0037625579
0.20330963
0.16773151
-0.11563809
0.16130459
0.0095113637
-0.01368822
0.242625
0.11256967
0.29132798
-0.41161516
0.051827814
-0.03335882
0.13450089
0.025733007
0.077911675
-0.47405097
-0.19835694
-0.0034612315
0.13573852
0.050860126
0.013362711
0.016670378
-0.091399074
-0.0061272788
0.0070374357
-0.013921963
0.020723091
-0.21938452
-0.0059175217
-0.023303552
0.097375266
0.076430462
-0.14531536
0.26389539
-0.2235034
-0.063331239
0.17522639
0.053613398
0.13370486
-0.17230392
0.060360894
-0.017049531
0.12238178
0.042451303
0.017478634
0.016216844
0.22641075
-0.027814351
0.17449655
0.11062156
-0.27549151
-0.206389
0.1838468
-0.0093501611
0.18710044
0.096374288
0.40567017
0.2402447
0.18076313
-0.018036151
0.27335307
0.15446101
-0.31200022
-0.22991613
-0.01081816
-0.02968522
0.12953657
0.054463498
0.028219171
-0.18153003
0.13675646
-0.051588621
0.22480759
0.10145248
0.020390263
-0.20182391
-0.13019897
-0.0045579006
0.12130101
0.022988204
0.07216607
-0.064859666
0.095235236
-0.036004741
0.073494092
0.004025436
0.26469859
0.31544188
-0.066080041
-0.03351723
0.13569503
0.050201315
0.19671461
-0.30587021
0.0212809
-0.0093300324
0.14271361
0.13526975
0.071779005
-0.021663126
-0.12823404
-0.026803348
0.2478563
0.15334311
-0.015779549
0.2777538
0.25990152
0.0057034651
0.19896473
0.12836961
-0.29025325
-0.042343911
0.22195289
-0.021867443
0.14088549
0.081751689
-0.078882188
-0.2862716
0.025890423
-0.0016265893
0.22412843
0.165681
0.0016617101
-0.25674593
0.49537116
-0.014811484
0.11862945
0.027366461
0.14717872
-0.013775748
0.074353442
-0.035423506
0.085887447
0.061698623
-0.22226042
0.015840322
0.13694867
-0.021178201
0.11978576
-0.011473975
0.13263078
-0.060844805
-0.052205507
-0.0023037847
0.0025705663
-0.060708378
0.29158589
-0.4354057
-0.1848619
-0.011684394
0.011878138
-0.025232149
0.086553343
0.19965567
-0.23016894
-0.028477188
0.1096952
0.051127296
0.15549101
0.060532991
0.290865
-0.03099435
0.19491284
0.067131974
-0.11083234
0.027834475
0.33912402
-0.016739722
0.17906563
0.12049641
0.0057795285
-0.31940079
-0.0048553837
-0.0070595616
0.14933123
0.056250662
-0.12285233
0.36212423
0.33250129
-0.020465
0.20874296
0.11059063
-0.038686559
0.052214224
0.46400064
0.02858405
0.14426526
0.1041551
0.3098858
-0.1172113
-0.096767008
-0.061491247
0.15023419
0.067997307
0.092697844
0.3335301
0.26934355
-0.051764518
0.035492491
0.021269023
-0.14885621
0.18074639
0.37538776
-0.00079979678
0.10705208
0.014134393
0.01248524
-0.2451953
0.10931572
-0.0089912685
0.019693347
-0.039572287
0.21456075
-0.096588433
0.22363621
-0.040374499
-0.024353737
-0.029295517
0.05215884
-0.1457632
0.33453944
-0.027801437
0.074402854
0.13307689
0.044391241
-0.027960125
-0.2051976
-0.022856202
0.17596264
0.091111891
-0.15670402
0.19714944
0.10005388
-0.029150136
0.24593286
0.12144177
0.064450942
-0.1896863
0.46334666
-0.044985015
0.067061216
0.071709737
-0.033793978
0.24360634
0.35563704
-0.021373127
0.11636125
0.045578536
-0.091495007
-0.087955959
-0.14587663
-0.036577858
0.036734551
0.037017182
0.05353355
-0.29431596
0.22557314
-0.012645878
0.045928571
0.010177399
0.12030447
-0.22710305
-0.051384717
-0.036486834
0.042884134
0.0050816871
0.14470053
0.187665
0.1077056
-0.048308928
0.073260427
0.005467522
0.20108615
-0.10178819
0.14198634
-0.037257463
0.064642362
0.023968695
0.14736305
0.04664655
0.06648314
-0.015640013
-0.016417414
-0.013217753
-0.022148993
-0.18751824
-0.21156947
-0.034371343
0.15729125
0.068107411
-0.021850452
-0.15073492
0.50727296
0.00030452406
0.12116129
0.11178167
0.0039314893
0.31864217
-0.13760504
-0.038446583
0.29259968
0.1438546
-0.06276641
0.50096667
0.47227046
0.023997582
0.30999359
0.11375254
0.19990461
0.12656212
0.43598214
-0.014878361
0.19404288
0.11990748
-0.052757468
0.64700258
0.094650052
-0.017456837
0.10684811
0.045670148
0.045830395
0.15769675
-0.068615019
-0.060947139
0.14899781
0.067500971
0.035481907
-0.21136555
-0.014952597
-0.041649986
0.12913591
0.095733739
-0.24083693
0.33411288
0.16986276
-0.0055356924
0.089286909
-0.037266742
-0.043696322
-0.16681039
0.162604
-0.018851688
0.054630652
-0.019724432
-0.21500379
0.085145466
0.21218713
-0.041269593
0.084650718
-0.022214904
0.068187833
-0.0357241
-0.23520501
0.0028275326
0.0063749412
-0.03774083
0.10277893
-0.26614359
-0.20241602
0.058339525
-0.037018787
0.036183164
0.26428309
0.10906354
0.99437338
1.2493135
0.58384949
-0.18146119
-0.87986636
-1.7228251
0.11444688
-0.016182041
-0.052866772
-0.060216978
-0.0043010293
0.0080979168
-0.051900432
0.1770665
0.052107867
-0.061614722
-0.06556613
-0.055550009
-0.021666404
-0.067828186
-0.038299203
0.024030415
0.1201025
-0.032354038
-0.08364404
0.033142623
-0.019804165
-0.0229699
0.00020994456
-0.092169337
0.010309693
-0.29880443
-0.8733384
-1.1350497
-0.05836419
-0.001775214
0.15901959
0.064961456
0.058006514
-0.037491396
-0.0031232806
0.18945006
0.044543941
-0.027436746
0.05619112
-0.076667383
0.020245049
-0.037054423
-0.027962482
-0.068773814
-0.049222544
-0.023547424
-0.018276121
-0.016395571
-0.030752685
-0.1523867
-0.1956615
-0.20065475
0.37253782
-0.08294569
0.037134252
0.12666079
0.06680318
0.0045852168
-0.041055653
-0.069311909
0.050885435
-0.0060562245
0.0035973873
-0.031532839
0.014480034
0.066986345
0.006707829
0.10180047
0.010652308
0.020223174
0.017539835
0.061080117
-0.037256058
0.028816383
-0.059474085
0.072418541
-0.052747056
-0.12695418
-0.19591928
0.45910355
0.13173762
0.083524823
0.0032657646
0.036949676
-0.017614294
0.038162366
-0.0081528677
0.037886579
0.027183993
-0.064638816
0.025349829
-0.010268006
-0.042181451
-0.0095929177
0.081510119
-0.0020001347
-0.0064671328
0.066920213
0.038388018
0.035293385
-0.013938217
-0.0051394817
-0.047315512
-0.061309621
-0.23294972
-0.19433093
0.45091224
0.2212719
0.019528059
0.088276327
-0.01153222
0.012127271
-0.0089199645
-0.053610392
-0.010858553
-0.0099292481
-0.039539535
-0.044106904
-0.047952984
0.032500271
0.095536619
0.11780398
0.019393433
-0.0027871253
-0.022628255
0.054718211
-0.021584947
0.015435647
-0.081447244
0.057954483
-0.12191064
-0.29569304
-0.13728808
0.34000763
0.15541853
-0.018061694
0.16989796
-0.01013549
-0.026270941
0.010491379
0.04704183
0.012001666
0.00069710781
0.039028734
-0.066947281
-0.021454632
-0.11328235
-0.0077385791
0.10367657
-0.03001292
-0.017991494
-0.011965853
0.05954393
-0.049297474
-0.060083471
-0.035164282
0.026823176
-0.099956572
-0.1228081
-0.10223444
-0.025638714
0.29783005
0.009046643
0.30096486
0.0270478
0.02723019
0.098490275
0.052756239
-0.013431328
-0.014964103
0.0073963385
0.013220761
-0.029694915
0.0029227654
0.0077442643
0.040836178
-0.032677844
-0.04880007
-0.010679266
0.067127377
-0.023159543
-0.058358476
-0.07645721
-0.0010939124
-0.0079481015
0.19328225
-0.14829934
-0.14006972
0.36382803
0.073136285
0.12534584
-0.014568447
-0.019815981
0.026009483
-0.024103699
0.14825365
-0.0045344597
0.0030418891
0.13979927
-0.01049369
-0.0055706901
0.036378559
0.042104941
0.0086882301
-0.10122394
0.068224348
-0.019653331
-0.051449224
-0.033959299
-0.05874316
-0.0039172117
0.037415911
0.49298772
-0.16422294
-0.30112407
0.26687527
-0.049697537
0.13468939
-0.02329904
-0.021695619
0.10209076
0.069386601
0.022251721
-0.020420415
-0.043028064
0.11328647
0.0031553297
-0.09853515
-0.12731798
-0.088828541
-0.028573712
0.025596382
0.1062635
-0.030116567
0.0058879685
-0.046529029
0.03479645
-0.0028205935
0.17807937
0.6684919
-0.13603014
-0.36458623
0.18894628
-0.013974302
-0.0067743715
0.0017589669
-0.017535308
0.030430054
-0.013530716
0.055511631
-0.016578721
-0.073924959
-0.030442314
0.10385809
0.034644958
0.041470356
0.0037966557
0.024374798
0.026715487
-0.090762042
0.059048489
0.013814483
-0.0047147777
0.017964911
-0.024955258
0.09309116
0.35986626
-0.13797113
-0.040761806
0.10936114
0.049223501
-0.0098360172
-0.0009686058
0.01252075
-0.030512601
-0.016606046
0.020051807
0.037712105
-0.004318696
-0.020361271
-0.021907644
0.039955173
0.012210567
0.025506685
0.0018735024
-0.0039756289
-0.021346506
-0.039800551
0.04118016
-0.025113732
-0.063601866
0.049328603
0.082908385
-0.053693954
-0.098336957
0.20939924
0.090821937
-0.01487059
-0.024652457
0.018154582
0.026100753
-0.0050796079
0.0017148976
0.065312847
-0.025833534
-0.039372079
-0.065384582
0.054483425
0.027107662
-0.083613925
-0.017874595
0.043625955
-0.023157515
0.078554608
-0.014979287
0.034372129
-0.013877468
-0.082308762
0.0018872998
0.11200002
-0.20544317
-0.055877574
0.34710237
0.064827584
-0.0067017791
0.019774003
0.042783711
0.050532904
-0.016574433
-0.016110215
0.078271136
0.028921178
-0.066408783
-0.069609769
-0.026089214
0.11858764
0.11022282
0.015038595
0.041122012
-0.06122705
-0.074025951
0.051794119
-0.048320603
-0.025120709
-0.014818295
0.023081547
0.11364168
-0.36114147
-0.022202412
0.51224631
-0.015606583
-0.05646605
0.0065921023
-0.092599116
0.034411013
0.01246487
-0.065186508
-0.018220076
0.016005134
-0.061690181
-0.018166976
-0.044597905
0.035161257
0.032512363
0.014566595
-0.0051083704
0.052991278
-0.022246258
-0.0089172181
0.081397235
-0.0025795242
0.045292053
0.04252173
0.029746033
-0.41287971
0.060551133
0.55558759
-0.043742448
-0.02486041
-0.028118104
-0.074696124
0.0087503809
0.016350906
-0.068623751
0.032383315
-0.034545396
-0.11911022
0.10493885
-0.083428048
0.10650279
0.15835245
-0.022176983
-0.0017409069
0.011681263
-0.038804092
0.051298335
0.0094624786
0.074056968
-0.10163636
0.072383031
-0.04307963
-0.42572457
-0.042455159
0.57947862
-0.1071556
-0.018821424
0.0026775661
-0.074714452
0.01559858
-0.005503241
0.064077243
-0.017222803
0.076434188
-0.0083210953
-0.14606802
-0.025417114
0.20821443
0.016230183
-0.055543404
0.044134334
0.014604935
0.058794964
-0.018477499
-0.024510071
-0.013655244
-0.012817735
0.096364275
-0.033589311
-0.19203107
0.0089738332
0.33724025
-0.12897839
0.027745353
-0.013818328
-0.013586283
-0.028740119
-0.043529727
-0.034284241
0.034106314
-0.02443466
-0.0037286936
-0.011690722
-0.034105092
0.15620475
0.14198653
0.025659697
0.0084790858
0.072678663
-0.0064567626
0.024428213
-0.049246274
-0.025721638
0.0041731028
0.081785142
0.037267819
-0.35805538
-0.10948947
0.70238107
-0.14009753
-0.04020023
-0.003786579
0.038622107
-0.074235946
-0.020772506
-0.095120281
-0.0067447182
-0.021359373
0.0055126529
0.028518962
0.091222934
0.048324637
0.10354705
0.0146342
-0.032987759
0.023457566
-0.010409021
-0.05767246
0.016154353
-0.028966535
-0.078025445
0.09740489
0.026617832
-0.28409594
-0.11662158
0.5561499
-0.20142698
-0.046179682
-0.015976235
0.086881816
-0.01346896
0.010731878
-0.066030078
0.054361209
0.028301708
-0.063824639
-0.11070157
-0.0039344411
-0.036545984
0.12689927
0.037908819
0.0066385651
0.0045617009
0.029867966
0.016667033
0.085809477
-0.066389911
-0.084557511
0.054704312
0.022660051
-0.30979684
-0.057663031
0.50104028
-0.094978333
-0.01153235
-0.025740739
0.048118319
-0.052433379
-0.01597169
0.070175961
-0.011726164
-0.032254446
0.019636437
-0.072680801
0.085124113
0.0095459521
-0.12939575
-0.033804778
-0.031385992
-0.07002937
0.059259783
0.0088027697
0.089234881
0.033433545
-0.031056808
0.039268814
0.07623022
-0.15480077
-0.058429275
0.25126514
0.019662565
-0.0051653241
0.01313551
0.0045958105
-0.060102064
0.045909278
-0.028140608
0.059606586
-0.029969238
0.019549796
-0.0065948819
-0.014087414
-0.032326933
-0.0047481037
-0.016180182
-0.041586496
0.0048684329
0.034286201
0.13103914
0.091809005
-0.033571679
-0.071031384
-0.13917093
0.26045161
0.059856895
-0.061564833
-0.013703115
0.10431047
0.058392141
0.011961871
-0.0072095715
-0.013436602
0.034093916
-0.057538748
-0.023760818
0.04216674
-0.026893282
0.14719456
-0.01933991
-0.051793758
0.084466688
-0.036347479
0.015080003
-0.082166009
-0.040602658
0.021980338
-0.06290184
-0.034272533
-0.0049764011
0.021246692
0.33574918
0.34288892
-0.049358938
-0.23985243
0.08357241
-0.043178793
-0.026146965
-0.045545533
0.084424518
0.014913678
0.022451997
-0.044038251
0.011938488
-0.068416633
1.5229733e-05
0.0077959127
-0.080945581
-0.016089909
-0.036284331
-0.01836146
-0.01895692
0.045049872
-0.0013594907
-0.0021094366
0.050759248
-0.0071707084
-0.11707433
0.41497344
0.58372504
-0.039040964
-0.39022505
0.18716614
-0.053894479
-0.029660897
0.056066301
0.023362143
0.023322649
-0.029230302
-0.013030409
-0.019250978
-0.067249633
0.15913999
-0.0073389858
-0.043899495
-0.038507394
-0.004513083
-0.0065400233
-0.023665711
-0.0065911151
0.00082007999
-0.060132843
-0.022367075
-0.077015549
-0.10673948
0.42587993
0.4469144
-0.05227178
-0.28357491
0.17134082
-0.16241935
-0.0059834677
-0.073327877
-0.091176942
-0.016930191
-0.0551318
-0.010607745
-0.032093152
-0.012362832
0.2019067
-0.0078245951
-0.053242341
0.070974015
-0.019726982
0.024293184
-0.02881084
-0.1057421
0.058769651
0.02515218
-0.01747263
-0.015267966
-0.071777098
0.22170122
0.15971169
-0.090554997
-0.23835012
0.14977762
-0.12371285
0.19560213
0.0078143189
-0.029898005
-0.024609903
-0.031818893
0.041305438
0.0071105715
-0.05653682
0.023656253
0.043637667
0.030350482
-0.045224421
-0.04185605
0.0074463552
0.028833885
-0.0048500602
-0.020184264
-0.084733747
-0.037491389
-0.10911248
0.058005106
0.29800552
0.090853229
-0.060263846
-0.050136626
0.084249094
-0.14197034
0.028064886
-0.082559109
-0.0091322809
0.020811588
-0.021295711
0.0096529368
0.017764397
-0.017182456
-0.019901454
0.024534628
-0.030680507
0.039599936
0.025019573
0.0031462407
-0.063440822
-0.062495872
-0.036479179
-0.021430679
-0.021067722
-0.0033109228
0.0079456978
0.22629438
-0.20279536
-0.096694581
0.24258518
0.041867666
-0.10104683
0.13792145
0.0086336955
0.018588638
0.0141009
0.0010791809
-0.013065518
0.067659333
0.019084491
-0.040886711
-0.026097395
-0.061788287
-0.14012736
0.0033715109
-0.019552585
-0.016351484
-0.042381
0.073383376
-0.0031706898
0.027296105
0.024284415
-0.054049943
0.27455449
-0.14546624
-0.17115264
0.26653051
-0.023403188
-0.16732189
0.10365074
-0.014976932
-0.010463352
0.009833633
0.063408047
-0.018408645
0.039747536
-0.0020158875
-0.057374269
-0.043390933
-0.014734597
-0.086774886
0.1616089
-0.013218712
-0.046730895
-0.020852759
-0.0019853665
-0.025537288
-0.045170695
-0.025732553
-0.00024639457
0.22480935
-0.18086657
-0.1281364
0.38665754
0.08731205
-0.040829469
0.046194732
-0.02333039
0.021509187
-0.0056445748
0.0045980536
0.0093970718
0.063536599
-0.056515083
0.00096433115
-0.053876922
-0.0073545161
-0.078415886
0.057853259
-0.020428484
-0.041941877
-0.047997378
0.02966514
0.05442182
-0.046143394
-0.043402165
-0.013736787
0.30588785
-0.36618933
-0.10739953
0.56122947
0.11238384
-0.078296199
0.073605701
-0.055458702
-0.0054466394
-0.053697884
-0.015348026
-0.013770006
0.002506244
0.014610621
-0.12548387
-0.049943332
0.15018809
-0.0032568008
0.040141117
-0.00020459527
0.041981131
-0.010469937
-0.085366309
-0.0030678704
-0.035194971
-0.01772552
0.050707925
0.27114812
-0.40666524
-0.15716162
0.68698817
-0.013858141
-0.019527648
0.065243796
0.039723057
-0.054719456
0.038319889
-0.10287343
0.008675334
-0.0016391027
0.01704954
0.016780002
0.030259755
0.066214859
0.088081397
-0.037327059
-0.011300933
-0.099053919
-0.030813273
0.16057031
-0.025365235
0.0060563972
-0.052443329
0.13546334
-0.076874815
-0.19411889
0.0070436378
0.17734417
0.090749063
0.12123013
-0.013728147
0.01350829
-0.0228577
0.029490052
0.073198862
0.054236852
-0.026535301
-0.052159891
-0.045181464
0.058051988
-0.02562511
0.011707825
-0.016377842
-0.035102397
-0.011173544
-0.063796699
-0.064473026
-0.023507485
0.052129064
0.09697137
-0.048808839
0.0095035536
0.047549181
-0.029149489
-0.05133342
0.092007749
-0.098835617
-0.018890321
-0.027930833
-0.018411975
0.064522319
0.071665071
-0.031574998
0.022009846
-0.0085753649
0.1269356
-0.014198453
-0.060879175
0.041026767
-0.0054802839
-0.021061998
0.14299957
0.097708106
-0.014112248
-0.062383085
-0.031557128
0.019097747
-0.077826016
0.0023842661
0.21659319
-0.092355624
-0.14030093
0.30093071
0.071233563
-0.019262178
-0.0017471592
-0.11963991
0.0071872119
0.093312979
0.032782238
-0.016041752
0.050580215
0.091538019
0.019595608
-0.11180328
0.039873745
-0.088907234
-0.016041033
0.11963217
0.020875404
-0.01797598
0.011904507
0.049232557
0.094954118
-0.043873686
-0.0027788363
0.16887569
-0.069003098
-0.11484308
0.10051332
-0.057521474
-0.001130839
0.064873457
0.045158923
-0.061085016
-0.016511368
0.028031388
0.0026411708
-0.032947008
0.0079669263
0.0086934026
0.056581143
-0.00081715715
0.0035289002
0.037115041
-0.015274093
-0.049906168
0.012720156
-0.037885558
0.032857202
0.15853463
-0.019633392
-0.014186816
0.042650722
-0.12137583
0.069704913
0.017666519
-0.093483925
-0.0016685867
-0.052914951
-0.044781186
0.083590463
-0.01214012
-0.0018417066
-0.019038444
-0.01555002
0.082828909
-0.019800829
0.0026160472
-0.022997689
0.027000794
0.030488459
-0.0015637601
0.043380193
0.056398552
-0.064601079
0.011694521
0.036614306
-0.0088101337
0.051698074
0.053229474
-0.23315081
0.24097309
-0.10553959
-0.13575262
0.0099438699
0.0027463108
0.015323273
0.16939375
-0.071560398
-0.010929111
-0.017126324
-0.031425588
0.022968566
0.016813856
0.015835764
0.067002453
0.0039095213
0.014100745
-0.005628902
0.064146273
0.060959402
-0.029051621
0.08486066
-0.065609306
-0.044111587
-0.039155412
-0.039732736
-0.12625535
0.16809204
0.09502583
-0.0367768
-0.025032839
0.095042519
-0.082593359
0.032965723
-0.096518822
0.034880288
-0.06364423
-0.066201091
0.020058177
-0.0015439197
0.0428004
0.068208858
-0.05584906
-0.00051013438
-0.0028400067
0.077537663
0.048723046
-0.015069689
0.07187558
-0.061333377
0.087882526
-0.005088117
-0.078433335
-0.083578907
0.20910366
-0.13291724
-0.074146092
0.029854422
0.022332802
0.040727738
0.081331879
0.052958291
-0.059828047
0.045178913
-0.13766277
0.033364899
0.020540608
0.016979732
-0.012253905
0.016157294
-0.013099541
0.0033184104
0.070244789
0.015146825
-0.021729333
-0.028631466
-0.033710018
0.035156049
-0.039111368
-0.036048956
0.011808705
0.087477975
-0.030168114
-0.054280899
-0.019455325
-0.069451392
0.032907482
0.011885687
0.04130834
-0.06923411
0.080053352
-0.0010231708
-0.026703453
0.021534832
-0.050656952
-0.085261457
-0.013891832
-0.035519991
-0.033806246
0.11142442
0.1484188
0.043649089
0.053501371
-0.043711998
-0.055904634
0.028650457
0.096854232
0.09921357
-0.088193588
0.17884165
-0.11993776
0.027055386
-0.018007731
0.064735368
0.029889468
-0.023607079
-0.0010144771
0.047648255
0.09515626
0.021784781
0.0093812868
-0.016513482
-0.14626549
-0.024275452
-0.00085808622
-0.037572868
-0.042831585
0.13071594
-0.0026364953
0.040462155
-0.023128796
0.096542209
-0.033807967
-0.14364003
0.21000084
-0.092340626
0.093601882
-0.10975073
0.011531537
-0.042949419
-0.028366789
0.052889436
0.11201069
0.017401585
-0.072988153
0.0021290996
-0.01088775
0.20037895
0.23648784
0.3604849
-0.088619642
0.063253425
0.00073124433
-0.0077530826
-0.5295378
0.062086325
-0.035689533
0.0085206591
0.023058416
0.10321691
-0.059598539
0.42397973
-0.054254964
0.023788132
0.053712934
0.0182104
0.23753947
0.23431031
-0.054771181
0.0078574922
0.07292366
0.085430704
0.052507706
0.37504339
-0.049257081
0.0048624612
0.086296029
0.032071721
0.76607376
0.33220479
-0.024271918
0.013243341
0.054621119
0.017637413
0.69258827
0.74079871
-0.015334021
-0.031096905
0.028192664
0.17516099
0.32464051
0.21408023
-0.045582678
0.034846481
0.030740844
0.0053256061
0.66744238
0.65991366
-0.0054635145
-0.021752575
0.010965238
0.11507856
0.14274614
0.11981467
-0.029039873
-0.033531968
-0.030522268
0.0033354913
0.27908894
0.056707915
-0.048413523
-0.044072956
-0.0035638975
0.053989787
-0.28085583
-0.20507634
-0.068133861
-0.076698557
-0.04185174
0.046516813
0.017676277
-0.055881403
-0.080419295
-0.028656447
-0.053978536
0.016159385
-0.12168695
-0.046008777
-0.078090906
-0.017562823
0.0068956506
0.022576179
-0.19142039
0.10669849
-0.035588004
-0.083451435
-0.035982899
0.095084384
-0.53183633
0.10195339
-0.034221731
-0.061778817
0.026433403
-0.029114695
-0.23956358
-0.031812195
-0.041497555
-0.11764932
-0.037718281
-0.054705519
0.065852873
-0.027600929
-0.039847683
-0.047807761
0.0036985506
-0.22437961
0.10683111
-0.014377627
0.0047129341
-0.11103658
-0.037356988
-0.032673042
-0.01530741
-0.10850594
-0.014413522
-0.071229443
-0.0060968786
0.051970851
-0.022851797
-0.22585417
-0.0052924659
0.026319012
0.014116145
0.070778675
0.056816116
0.10247083
-0.061545089
-0.056061972
-0.010934643
0.36595303
0.29672781
0.18991855
-0.039369144
-0.025536558
0.019250223
0.12998755
-0.087123848
-0.21009803
-0.073018
0.018346919
-0.0038781145
0.25572637
-0.30525693
0.081829868
-0.062451873
-0.025114924
0.019221731
0.16664322
0.22313842
0.01827015
-0.054882854
-0.028516412
0.0098729115
0.071072243
-0.11357929
-0.2426421
-0.036119085
-0.10784201
-0.045844346
-0.02583495
-0.28715572
0.13200095
-0.071929649
-0.10644995
0.02595311
0.12879398
0.73398018
0.39158663
-0.026177954
-0.11981501
-0.015957193
0.083160825
-0.21122153
0.10264213
-0.020673575
-0.11554074
-0.0068812496
-0.059556961
0.20395157
-0.07554426
-0.03729777
-0.086311042
-0.016716668
0.17204894
0.14493594
0.038724635
-0.032125458
0.0087489318
0.00017538555
0.05893993
0.10594157
0.13702917
-0.049038619
0.03247321
-0.033280607
0.080530182
0.28993902
-0.068530314
-0.048949361
-0.022984529
-0.031430013
0.051099759
0.28448161
0.28188288
-0.057859927
0.025220336
0.041268561
0.12207304
0.20383427
0.10270391
-0.038961053
-0.0090320697
-0.046463292
0.13713464
-0.39866948
0.047564495
-0.057907913
-0.063351505
-0.044986572
0.14043702
-0.37644443
-0.084142484
-0.032171041
0.023853136
0.036953803
-0.03176327
-0.39222866
-0.1150283
-0.015457354
-0.1005953
-0.025468942
0.1035831
-0.28828281
-0.14145091
0.0047074398
-0.12576443
-0.056504063
0.028962798
0.1544261
-0.090192474
-0.027086075
-0.088635594
-0.035646085
0.34681982
-0.26308763
-0.26330012
0.013352599
-0.069920368
-0.052274078
0.031541426
0.34790853
-0.21603964
-0.034500878
-0.013481093
-0.038709465
0.012824373
0.13639608
0.0010971368
-0.037629783
0.0051752236
0.010200977
0.2125541
0.097304694
0.3355003
-0.049096689
-0.03474167
-0.063498281
0.22958076
-0.23651177
0.011105197
-0.054579183
0.022249773
-0.035791628
0.02044509
0.23826979
0.35468665
-0.054329798
-0.030396083
-0.024848869
0.11053757
-0.27901736
0.048174582
-0.039173301
-0.059844002
-0.016607234
0.10053135
0.38478628
-0.11138967
-0.039873313
-0.026808698
-0.049604371
0.054082662
0.035209451
-0.11029511
-0.063933507
-0.097319745
-0.029350432
0.012677229
0.085350432
-0.058482639
-0.029153749
-0.072148733
-0.01485954
0.0080286451
0.21501268
-0.069011949
-0.0018053548
-0.12619872
-0.094788879
0.25594038
-0.21019036
-0.175832
-0.021917088
-0.032202654
0.00083067094
0.18905908
-0.033087399
0.085672073
-0.0024773371
0.011118732
-0.072337717
0.10085393
-0.15641412
0.081153341
-0.083128512
-0.03597134
-0.078519836
-0.011059078
0.080957487
-0.13651535
-0.08108101
-0.055801723
-0.040999182
-0.0061507844
0.43602628
0.23475561
-0.052664667
0.006888309
-0.054838251
-0.033833887
-0.37586728
-0.37148079
-0.026205709
-0.039805304
-0.051512659
0.036699113
-0.32765996
-0.15513392
-0.01293377
-0.076127641
-0.11909215
-0.055321455
-1.3989433
-1.6249533
-0.11681727
-0.023273299
-0.042726826
-0.012794188
-0.50240862
-0.33028597
-0.057308391
-0.07454697
-0.086695634
0.024216363
-0.089902587
-0.071500674
-0.061818752
-0.10733187
-0.069357142
-0.017630856
0.16143812
0.002322928
-0.019308649
-0.099921592
-0.065827206
0.061536502
-0.37477797
-0.3587198
-0.055560686
-0.060916204
0.00048503702
0.052002203
0.31441385
0.075141311
-0.022284333
0.097810701
-0.013327537
-0.026231335
1.0113097
-0.12055963
-0.074343935
0.018852562
-0.055513851
-0.027032137
0.20801057
-0.13442238
-0.025199665
-0.072575249
-0.090482987
-0.00024722517
-0.30975762
-0.34445724
-0.053304844
0.084394813
0.018166829
-0.012065736
0.23506121
-0.05023019
-0.012237896
-0.047125868
-0.08848881
0.074179687
-0.21126167
-0.46474236
-0.065610208
-0.10657537
-0.10421261
0.03477395
-0.60053211
-0.62992698
-0.060169712
-0.04038984
-0.055357344
-0.03952558
0.035552364
-0.14617062
-0.028883016
-0.11417297
-0.089234479
-0.020273367
-0.39602613
-0.22794323
-0.04533793
-0.079140715
-0.059624992
0.061298575
-0.061097231
-0.053361822
-0.0067351097
-0.087633602
-0.087392151
-0.016592067
-0.15485212
-0.10929822
-0.051160723
-0.067504741
-0.04710272
0.12673135
-0.18821868
-0.067246847
-0.019636728
0.0096016126
-0.027158782
-0.0636888
0.56387305
0.34945285
-0.031927612
0.01407136
0.020459991
-0.092084512
0.3418175
0.28590816
-0.059436001
0.0064244517
-0.069379024
0.095696211
0.26199669
-0.083717071
-0.0072605447
0.0077510769
-0.022159226
0.14228794
0.0034580498
0.24617204
-0.028949657
-0.0044680703
-0.0071954262
0.032122497
-0.26758242
-0.090564042
-0.031456739
-0.043002013
-0.049444936
-0.0700671
-0.17534427
-0.14315887
-0.064343549
-0.018685564
-0.068892315
0.035954125
-0.4031941
-0.0165502
-0.048905242
-0.053737585
-0.024617784
-0.14602587
-0.098274924
-0.27031276
-0.026806833
-0.048587602
-0.024134746
-0.035756204
-0.069330782
-0.30272365
-0.036979046
-0.042319689
-0.037349947
0.024509331
0.23471916
-0.42353094
-0.033377536
-0.017608456
-0.027061796
0.21364921
-0.13134177
-0.42244908
-0.049961451
0.077462167
0.031463053
-0.11291174
0.092722781
0.53293359
-0.0070569376
-0.017659385
-0.044398863
0.18932949
-0.15848111
-0.0015819899
-0.085465483
-0.022706885
-0.012901842
0.18590716
-0.40806818
0.028963747
-0.0008849391
0.044369049
-0.055217057
-0.028963929
-0.37212858
-0.15403956
-0.013971968
-0.040514991
-0.062403698
0.15711348
-0.30227062
-0.37644956
-0.036350828
-0.048872288
-0.08898294
0.018169718
-0.45541963
-0.26557022
-0.067111239
-0.047086049
-0.051401179
0.1204277
-0.2621223
0.096958071
-0.048804503
-0.083219469
-0.04589114
-0.061111003
0.36757734
0.0035660814
-0.019841429
-0.06653583
-0.051548626
0.0064443131
0.321587
-0.024799805
-0.039128579
-0.065354079
-0.070082545
0.14399682
-0.043816522
-0.20765254
-0.011324119
-0.065742835
-0.064757787
0.072250172
-0.20957939
-0.14656545
-0.036866996
-0.0044431072
-0.0041887267
-0.01348488
0.4839803
0.074854657
-0.048260793
-0.022340959
-0.09545739
0.051473852
-0.49983475
-0.0099732764
-0.039281178
-0.07861685
-0.080441043
0.10844615
0.065489613
0.23915799
-0.065728128
-0.022033416
-0.065659434
0.093696542
-0.10220287
-0.05370193
-0.054847285
-0.02078856
-0.029015126
0.061128136
-0.45628384
0.040870335
-0.043744538
-0.049432397
-0.05491304
0.086185686
-0.35071394
-0.2299107
-0.013687523
-0.018588575
0.02378617
-0.027487786
0.10464972
0.36174294
-0.011378699
-0.09383481
-0.053916622
0.046182558
-0.19659837
-0.19986941
-0.035071064
-0.084869318
-0.067713238
-0.19008671
-0.17724057
-0.13974495
-0.036375143
-0.022289306
0.026470626
0.023433112
-0.37178117
-0.072090544
-0.029607479
-0.067723699
-0.037701849
0.12755492
0.020650037
0.12203117
-0.029329164
0.025230162
-0.031763688
-0.024749963
-0.24829234
-0.13436572
-0.032491095
-0.0084105926
-0.020694908
0.043788396
0.25477821
0.010593564
-0.028373966
-0.027781481
-0.10115777
0.10824663
-0.16172084
-0.052815001
-0.015000808
-0.02189995
-0.072127573
0.013808794
0.030321384
0.00067832298
-0.033821497
-0.050447255
-0.1103928
0.099828966
0.18749699
0.14232723
-0.020242527
-0.011337871
-0.023722271
-0.14836431
-0.16654678
-0.14215842
-0.038166329
0.020969214
-0.026469568
-0.15747529
0.24540271
0.15426864
-0.024335021
-0.12362525
-0.080531791
-0.091018811
0.56030059
-0.045666277
0.017237892
-0.047924552
-0.083302654
-0.16520569
0.10292454
-0.16014086
-0.012171904
-0.019873004
-0.032181825
-0.21671575
0.055852238
-0.189642
-0.031393707
-0.040549506
-0.033312194
-0.028077872
0.2755447
-0.32081005
0.011807197
0.01568391
-0.039454341
-0.034600504
0.058942039
0.0042369636
-0.025326565
-0.059516095
-0.11868384
-0.14053774
-0.11204301
0.01970339
0.18297446
0.069266587
-0.27679297
-0.30570886
0.90042913
-0.028018238
-0.037549052
-0.0020846506
-0.018756812
-0.0013445824
0.006163598
0.015635662
0.018879795
-0.020915879
0.013550436
0.0092826448
0.04243204
-0.0091610746
0.013576968
0.0011434689
0.025365746
0.02034438
-0.015182621
-0.026304137
-0.018992562
-0.0082844403
-0.027004626
-0.079424731
0.23019139
0.021739852
-0.48580107
-0.51213568
-0.65070754
0.025584647
0.00037862061
-0.01099456
0.041172292
0.031179285
-0.086349458
-0.061426479
-0.066847987
0.025221474
-0.018319825
-0.074037664
-0.076036125
-0.0375623
-0.022986988
0.020778548
0.0096953148
-0.0098038865
-0.01826492
-0.015381772
0.038170818
0.0051714098
0.0001039592
0.45580265
-0.49688703
-0.19097495
0.57198501
-0.28931993
0.40796283
-0.036110237
-0.022652294
-0.069676392
-0.024835652
0.041661158
-0.037940584
-0.042644963
0.080000341
-0.014482006
0.0081008254
-0.079775207
-0.053178143
-0.0051753093
-0.04850103
-0.031415273
0.014466655
0.11040173
0.018638384
-0.063941032
-0.028060978
-0.020712564
0.34664878
-0.48941246
-0.19285001
0.10946436
-0.36045596
0.45151746
-0.078128852
-0.05706076
-0.023726884
-0.027675401
0.0029960189
-0.024536969
-0.033175796
-0.054076131
0.056130812
-0.061004773
-0.010425784
0.010734743
-0.055474538
-0.013951679
0.01641578
0.053848367
0.0039916188
-0.0070032524
-0.017133446
-0.021416394
-0.044498056
0.32672906
-0.32491401
-0.24857187
0.19725588
-0.28635943
0.40703472
0.064464621
-0.023558646
-0.042288594
0.018871941
-0.023687601
-0.0064115152
-0.0071460558
0.010212626
-0.0070184502
-0.014410103
0.017663591
-0.038295373
-0.011451444
0.016131325
-0.0087126866
0.040605213
0.012420155
-0.0098762196
-0.023455737
-0.017802671
-0.095280997
0.43526438
-0.31327915
-0.21236725
0.26656306
-0.055906128
0.1809267
-0.036993902
-0.077468611
0.00043449705
-0.0068082041
0.015497967
-0.029864168
-0.011725093
-0.015568691
0.020114772
-0.01501428
0.027348988
-0.034665287
-0.033035085
0.016978553
-0.099785902
0.080749847
-0.0069883838
-0.058986951
-0.02459497
-0.06276238
0.023644948
0.12245972
-0.30911645
-0.12774058
0.24954142
-0.34313622
0.3178007
0.038744476
-0.010962292
0.00013026898
-0.045803525
0.0039697508
-0.0017594695
0.015703222
0.022972591
-0.026858883
-0.021558361
0.034517288
-0.037567165
0.017597709
-0.027988786
0.020732062
0.038399752
-0.032556832
-0.0028955215
0.022629103
0.070377626
-0.071290195
0.44323841
-0.40663064
-0.17256059
-0.19861656
-0.093872078
0.124097
0.068134457
0.018992689
0.012711386
0.00344131
0.075648285
0.013200562
-0.077313803
-0.06670133
-0.012890683
-0.013209494
0.0048718131
-0.024576344
0.033624604
-0.028411677
0.069689095
0.051839489
0.040856369
-0.015614145
0.0024943906
0.052840609
-0.059436377
0.52324271
-0.31818002
-0.023255924
0.77379084
0.22126582
-0.15236549
0.094536625
0.07239899
-0.0036359783
-0.054329026
0.083069861
-0.077644832
-0.035013895
0.063343711
0.017559446
0.0546958
-0.042692073
-0.081261575
-0.0084965965
0.078938395
-0.021930199
-0.0079914778
0.0019757797
-0.02323823
0.00038472295
0.030746398
-0.012089001
0.098829031
-0.29083624
0.25059703
-0.19498746
-0.087320246
0.0017118327
0.031058259
0.021815402
-0.010080671
-0.054432504
0.079091243
-0.0046735965
-0.11095831
0.11577941
0.02210452
-0.020435406
0.045487944
-0.060966905
-0.0058895797
-0.019725043
-0.0088422494
0.058954049
0.044186674
-0.062410861
-0.0091625648
-0.00285256
0.030685861
0.1248497
-0.35065007
0.26918644
0.11493766
0.0068403198
-0.013172277
0.072231904
0.015054015
0.0051956922
-0.057052627
-0.052980963
-0.0038304096
-0.016922548
-0.036518656
0.0081347004
0.015127726
-0.0054662782
0.0073369788
0.021695923
-0.0005693101
0.024171997
0.057191722
0.019430125
-0.042849906
-0.085027382
0.018979348
0.023941984
0.077854276
-0.29160416
0.29109052
0.16701509
0.089950517
0.02012372
-0.0083364304
0.017564461
0.0079662846
-0.054841783
-0.023949614
-0.016736316
-0.051213473
0.10241273
0.02840079
0.016609091
-0.048221253
-0.051423926
-0.013331888
-0.027753238
-0.059465855
0.11027367
0.091030382
0.0053413273
-0.0027075727
-0.0064800065
0.03559304
0.050121237
-0.3251659
0.34477571
0.30780303
0.096883588
0.0092777582
0.012387872
0.0093806405
-0.022970468
-0.0013667629
0.017603774
0.050955858
0.016958388
0.081865355
-0.055669308
0.006552292
0.065997265
0.0062242984
-0.0047863885
-0.084662884
-0.051676452
0.028678091
0.062888563
-0.0026543532
-0.078022189
0.022616921
0.044702511
0.19961825
-0.30682835
0.19489393
0.081964642
0.14479166
0.0039624185
0.045098208
-0.023720924
-0.0054414147
-0.066349737
0.041812215
0.035128936
-0.015816102
0.0053288527
-0.0089526353
0.012451015
0.037412371
-0.02375233
-0.0054967492
-0.014475186
-0.029417867
0.0053598746
-0.0023721042
0.0052932058
-0.029228818
-0.012309977
0.069002122
0.26370686
-0.26845777
0.083050437
0.50381595
0.029025909
0.012578888
0.006492306
-0.024339583
-0.0068517388
0.014086409
0.0083244033
0.014373058
-0.018557508
-0.036041107
0.014923597
-0.055453621
0.012227838
-0.050064865
-0.03090311
-0.0010517569
-0.012563742
0.026320364
0.011232461
0.0086151985
0.014845598
-0.024118071
0.033282902
0.24387412
-0.24570782
0.068956286
0.14812355
0.11624076
0.021283852
0.0094418349
0.034131471
0.067678548
-0.036912423
-0.017455021
0.0070339995
-0.046103496
0.088790849
-0.0031053361
0.048311345
0.0011700251
0.020553166
0.0021859608
-0.043337405
-0.059634998
0.035860423
0.049357753
-0.018307151
-0.078950778
0.024623312
0.059914064
0.66355932
-0.15976439
-0.37676913
0.14029342
0.16666217
0.017410981
-0.022015087
0.05289802
-0.051896937
-0.076293118
0.048290249
-0.038425934
-0.0651365
-0.004721052
0.013362885
-0.048396569
0.084161326
0.034631971
-0.027598988
0.028635304
-0.10188342
0.065980464
0.049193259
0.023079207
-0.04521792
0.0273991
0.1364401
0.3842141
0.0098919859
-0.47404978
0.2953358
0.04127834
-0.023587337
0.011712277
0.018546034
-0.063954681
0.026206639
-0.0065232394
-0.037910294
-0.021566296
0.11888099
0.027421834
0.045154463
0.049132757
0.04368946
-0.0085864794
-0.057286028
-0.0070934775
-0.028595664
-0.0077063967
-0.011274965
-0.092259087
-0.033813335
0.02213979
0.30163822
-0.022175618
-0.40890923
0.14558581
0.10445565
0.00032234099
-0.01702187
-0.046810329
-0.0023310878
-0.028746719
0.091106117
0.014304099
-0.021166142
-0.039194398
-0.013464198
0.0389309
0.039282516
-0.020523703
0.017282009
-0.0021784056
0.055068824
0.043440968
0.065950617
-0.019459238
-0.083320826
-0.010080859
-0.022873683
0.29085988
-0.20660724
-0.23036267
0.062079951
-0.023168519
-0.023397041
0.043735046
0.03790288
0.016413517
-0.040468641
0.069985628
0.019896882
-0.018856103
0.10176934
0.012378595
-0.039811686
0.0098689608
0.013832013
-0.0020367464
-0.036312129
-0.055050619
-0.054597851
-0.0068646693
0.013076639
-0.050700288
-0.012759576
0.018677736
0.061584797
-0.14065363
-0.099727482
-0.10621636
-0.062001232
-0.024349609
-0.0054566553
-0.045413405
0.051855277
-0.034242716
-0.035810884
0.075035118
-0.057303049
-0.00095248246
-0.0081890337
0.032056794
0.089057669
-0.00038450441
-0.027469255
-0.02928385
-0.040509228
0.13552962
0.02750635
-0.0053445171
-0.047579825
-0.029303391
-0.012218787
0.11221711
-0.1271666
-0.10975403
-0.068546161
0.032426126
0.015332056
0.1186454
-0.037850384
0.0027432125
-0.088324338
-0.020406304
0.032706693
-0.019583087
0.006296359
-0.020425892
0.0093304599
-0.052782919
-0.0026830172
-0.0059769782
-0.070101939
-0.020753765
0.082458496
-0.030102767
0.039992779
-0.01420156
0.012759175
0.025634388
0.16832593
-0.066674061
-0.11721903
-0.090865031
0.027671941
-0.011966661
0.042233758
-0.030902989
-0.0072469721
-0.092707276
0.017230768
0.029760394
-0.036594898
-0.046575714
-0.028957777
0.024700316
0.010739837
-0.00092122029
0.039178945
-0.0079203891
-0.040868673
0.053237692
0.050258748
-0.030244879
0.022741338
0.062019095
0.040812336
0.15216418
-0.171968
0.0056894422
0.14230581
0.020918509
0.0069965781
0.12556836
-0.036411028
0.034653194
-0.085513465
0.13986923
-0.043066233
-0.084280737
0.10580344
0.016724125
0.033977255
-0.041532412
-0.030666994
-0.043565959
-0.065646738
-0.03261302
-0.0026981758
-0.031922437
-0.014343517
-0.010558348
0.039073948
0.03307661
0.19283955
-0.18708588
0.0054762606
-0.26779854
-0.14524744
-0.01568995
-0.066725872
0.019770842
-0.010370742
-0.098104306
0.06522119
0.004978308
0.00038686951
-0.0033694566
0.10116743
-0.012446892
0.021170039
-0.089722708
-0.0039720265
0.053769752
-0.024612257
-0.022293488
-0.0090067666
0.028452698
0.072484121
0.0015455605
0.0091368556
0.16399503
-0.15468326
0.018388333
0.10347635
-0.070178613
-0.022967154
0.0078891749
0.010937201
-0.056447051
-0.043860402
0.068928167
0.038453791
0.042669017
0.02796416
0.012296373
-0.023038777
-0.02791398
-0.022366591
0.00029406001
0.016598983
0.0098839719
0.053333949
0.046719607
0.0032818562
-0.0029723502
-0.017807286
-0.0054965396
0.41706738
-0.28245646
0.047025938
0.33899224
0.15122207
-0.13539307
0.029908471
-0.060106367
0.0039715413
-0.028852589
0.049458053
-0.0071318243
-0.018003525
0.038700316
-0.014371393
-0.021359269
-0.038474895
-0.014383301
0.01534477
0.039795648
-0.020189099
0.052095551
0.035661623
-0.008267195
-0.0082049519
-0.018888181
-0.0055605359
0.53100771
-0.30454019
-0.16314827
0.22854793
0.079208724
-0.10074355
0.04579851
-0.025055323
0.002373938
-0.066576041
0.048775882
-0.03636393
-0.066554517
-0.002844509
0.042469949
0.0095651057
-0.015616545
0.10567188
-0.028742662
-0.019501483
-0.095876098
0.081946008
0.008134583
-0.0020582662
-0.013405377
0.0093810223
-0.032617256
0.23797634
-0.17083958
-0.14295867
0.085801162
0.021727763
0.048402078
0.01291479
-0.016203878
-0.063289084
0.0039129783
0.12334133
-0.02323883
-0.025423564
-0.023071524
0.0014287566
0.0076906099
-0.020901725
-0.012689386
-0.014352379
-0.091277868
-0.01371961
0.062187549
0.017293798
0.0021203936
-0.052584644
-0.074937202
-0.030888418
0.26006716
-0.20608644
-0.21913347
0.10156888
-0.04822534
0.080781095
0.079999104
-0.0060705082
-0.083664156
0.014666048
-0.014692984
0.010667592
-0.005206957
0.10021961
0.033957109
-0.045919761
-0.023250271
-0.004606687
0.0051982775
-0.061731897
-0.094520226
0.11830123
-0.016779883
-0.036253009
-0.097963504
-0.02660599
-0.034562629
0.39188308
-0.24511246
-0.39701253
0.091288432
-0.16550848
0.19298488
0.038364034
0.027337622
-0.062741943
-0.027252225
0.066301577
-0.012282645
-0.05235897
-0.089819193
-0.035934642
0.0083481176
-0.062310085
-0.0037256714
0.0062266723
0.0031600837
-0.031719327
0.054203402
-0.01637659
0.023923269
-0.003262785
-0.02310076
0.048374332
0.33640191
-0.21185352
-0.41950479
0.18644862
-0.13872495
0.18934575
-0.024018226
0.01063862
0.011710427
-0.086547613
-0.035135571
0.022617815
0.049873162
-0.057205636
0.0036272197
0.092866942
-0.090237908
-0.013139057
-0.012545736
-0.0015554911
-0.042635676
0.028054601
-0.012382953
0.050368547
-0.043508727
0.21582453
0.023601588
-0.65625405
0.27443597
0.59948182
0.0083312383
0.070393294
-0.06287732
0.016200798
0.03767518
0.00097980653
-0.03712637
-0.016401095
0.070016943
0.017177066
-0.016786573
0.0029901671
-0.0044993763
-0.099366926
0.027306221
-0.023085779
-0.051536135
-0.049569864
0.11147038
0.010887522
-0.025848467
-0.059935465
0.12094159
-0.020342315
-0.58480966
0.20733753
0.50296378
0.32338664
0.10030475
-0.031240627
-0.074929878
0.052899815
0.074347213
0.066891924
0.087198123
0.065479144
-0.052991942
-0.013315317
-0.0090268347
-0.0053710421
-0.017488612
-0.047678083
-0.0058499905
-0.013340567
-0.073229671
-0.023623226
0.029998938
0.045002349
-0.11495591
-0.0068448321
0.012722812
-0.23282894
0.050874345
0.27691138
0.32388377
-0.014214505
-0.033404194
-0.040281303
0.048310459
0.064982384
-0.011812865
0.063245542
0.02346823
-0.011033746
0.071381435
-0.028744143
-0.011824344
0.015867807
-0.049682427
-0.047213621
-0.012396657
-0.059050974
0.037094839
-0.004510039
0.045489818
0.010225484
-0.05762817
-0.0010964349
0.083780847
-0.088265352
0.046195179
0.23850051
0.088147402
0.023879131
-0.1075349
-0.03208397
0.022942364
-0.045476057
0.068733819
0.0051178378
0.015062616
-0.020954972
-0.0033051348
-0.013720918
0.059754997
-0.062918566
-0.010616021
-0.064280421
-0.04689689
0.045152865
0.089436963
0.0054503442
-0.091194011
-0.033226378
0.099180929
0.036607064
-0.077450484
0.11139791
0.21972884
0.06773749
0.023843335
-0.068560094
-0.0061230976
0.041495118
-0.092666097
0.078174546
-0.032348018
-0.034054887
0.25781816
-0.051503077
-0.045662537
0.080950417
-0.040847447
-0.040338807
0.02821842
0.085354656
-0.070582509
-0.003914759
0.008915592
-0.043487418
-0.079737298
0.13210189
0.37487042
-0.12276032
-0.26558709
0.3745715
0.02520927
-0.023664474
-0.10942715
0.042929836
-0.045128081
-0.11764804
0.0060282317
0.053589031
-0.031733826
0.25610831
-0.0015899757
-0.027629746
0.053687934
-0.0078606494
0.038981423
-0.038642935
-0.019959109
0.073786452
-0.025378594
-0.012546094
-0.086158186
-0.032650132
0.17097934
0.85971159
-0.3754234
-0.3913933
0.37749127
0.030727053
-0.00027531327
-0.0078161461
-0.0090156095
-0.086932398
-0.061946705
0.080962792
0.0036339383
0.0015587591
0.19440374
0.012539838
-0.044118799
-0.036127869
0.035911959
0.03783372
-0.0075327768
-0.017671401
-0.024512164
-0.039348114
0.020188492
-0.10680056
-0.0089001413
0.08142595
0.6850974
-0.4350763
-0.035898417
0.0036724217
0.10832006
-0.0080055147
-0.0076861717
-0.044866554
-0.029811917
0.0075973002
0.02201627
-0.022057744
-0.097224064
-0.048837285
0.071563579
0.0049628229
-0.029512007
0.017280605
0.041973606
0.059957366
0.052621532
0.0036811582
-0.025676206
0.061461836
0.034023687
0.010387534
0.079653278
-0.113937
-0.27587169
0.45388368
-0.14108321
0.072878957
-0.016643828
0.0074433764
-0.047846187
-0.076469436
-0.043857578
0.071370065
0.023991505
-0.095327638
0.056374777
0.0090195583
0.078565143
0.10285174
-0.06527631
0.035493083
-0.022362743
0.041412096
-0.093370214
-0.0066406918
0.018673493
-0.017113486
0.060507048
0.039068338
-0.62732822
-0.22488362
0.91738224
-0.53873813
0.020515999
0.021392463
-0.065111332
0.053371478
0.02708623
-0.0078781201
-0.064126752
0.0072119269
-0.064074472
0.094268017
0.024779463
-0.051529132
0.091186807
0.0097223446
-0.014789135
-0.0205916
-0.049253147
0.016658193
0.10748172
0.026975485
0.0052385242
-0.042666145
0.057409391
-0.31217322
-0.16112383
0.61589658
0.32640725
0.085667007
0.0010096232
0.027025554
0.083655812
-0.18961735
0.28090376
0.2288038
-0.0088802781
-0.049066957
0.0049875402
-0.048203558
-0.036805306
0.32957816
-0.016098088
0.014499829
-0.01368974
0.12922485
-0.49199912
-0.28329736
-0.05015612
-0.044684641
0.0042397236
0.13656677
-0.44658977
-0.034562852
-0.061408587
-0.067503221
-0.034808867
-0.081242673
0.69544643
-0.1461041
-0.04221892
-0.077108726
-0.041469704
0.18716265
-0.10582238
0.079917207
-0.052207384
-0.036946889
-0.012418888
0.072590351
0.14066695
-0.10002153
-0.02503683
-0.023109874
0.00046195977
0.15798569
-0.20426448
0.21206695
-0.020689817
-0.05453635
0.0055914149
-0.0073705795
-0.034625702
-0.33343911
-0.064173922
0.025414398
0.033122566
-0.143105
-0.060156818
0.12702081
-0.018032907
-0.011743112
0.011073946
0.066561252
-0.4371295
0.14344981
-0.037608515
0.00031581844
-0.013920744
-0.16411144
0.12315588
0.13342001
-0.023487259
-0.021352801
-0.00019463952
-0.37964055
0.53856671
-0.076381706
-0.028417028
0.02763156
-0.030709786
0.28815037
-0.09441296
0.1404756
-0.029953849
0.0025611853
-0.019528799
-0.00061254622
0.1730369
-0.21005152
-0.018778078
0.023042435
0.01267566
0.35534385
-0.40321094
-0.12510253
-0.017463375
-0.022584463
-0.037948903
0.37932387
-0.38978612
-0.26848644
-0.037993375
-0.010900336
-0.021973612
-0.033626225
-0.62640238
-0.16339633
-0.07103508
0.025770443
-0.0076351482
-0.085027553
-0.49529034
-0.18871279
-0.010139416
0.069516636
0.022064224
0.17988418
0.53318906
0.33995232
-0.035681177
0.030379524
-0.0037609208
-0.019901158
-0.26389095
-0.060625426
-0.048432861
-0.020958213
0.0056184344
0.22899982
0.14160365
-0.046482641
-0.019839989
-0.069845244
-0.013372831
-0.12436242
-0.09961541
-0.064331949
-0.055434909
-0.087346338
-0.016647995
-0.087088905
-0.098498531
0.40678316
-0.02714516
-0.018877544
0.0049120872
-0.084758356
0.61111289
0.23372993
-0.044241905
-0.089323752
-0.048809823
0.011510886
-0.0053849425
0.25792849
-0.062435348
-0.085949011
0.0086539518
0.14918111
-0.63052934
-0.06622614
-0.008912879
-0.04108303
0.016729683
0.16410917
0.11767953
0.18900974
-0.0058366987
-0.044234466
-0.011540927
0.14080858
0.041143548
-0.40990487
-0.067098156
0.0049828757
0.013090304
-0.36313877
-0.22128369
0.43176293
-0.012862593
-0.091408767
0.00019897558
-0.15760024
-0.44524616
-0.25944477
-0.052317008
-0.030808898
0.038962536
-0.026055956
0.17124884
0.033044551
-0.060768526
-0.064833514
0.040657721
0.16503379
0.059126515
0.027654093
-0.050733794
-0.07371863
-0.042332958
-0.11336192
-0.77591854
0.080044433
-0.050031044
-0.042161822
-0.01093948
-0.26612574
-0.20428973
-0.094915494
-0.035046186
0.0050484305
-0.037869167
-0.48632878
-0.29596537
-0.020699747
-0.033977546
0.030252878
0.023901301
-0.31128576
0.13567188
0.056791138
-0.01310332
0.051839318
0.058153801
0.027853213
-0.61493105
-0.43440807
-0.065309986
0.042384077
0.030809913
-0.32118443
0.024892453
0.32328251
-0.054713901
0.05143794
0.0079190433
-0.18025276
-0.091659226
-0.064377047
-0.044100203
0.04470855
0.039351143
-0.23980103
-0.17938389
-0.011316269
-0.029740252
-0.044940345
0.0034343691
-0.14258091
-0.35821509
-0.077992149
-0.043931458
0.028859507
0.068471998
-0.10046942
0.9655112
-0.1843245
-0.01909747
-0.03609059
0.011919531
-0.049034826
-0.7824192
0.11445865
-0.041300062
0.016867137
0.018004397
-0.052502561
-0.24242269
0.25062883
-0.035091408
-0.0092502367
0.026157079
0.20348348
-0.15498018
0.058716815
-0.034819603
0.059418157
0.046197012
-0.013103586
-0.32067186
0.1316475
-0.006157252
0.041761175
0.024682974
0.091454096
0.06542176
0.020223986
-0.03193697
0.036914129
0.058260351
0.034324888
-0.67321163
-0.53970349
-0.03150811
0.015967982
-0.0031774906
0.0022878046
-0.3708764
0.21033028
-0.021156009
0.12153589
0.10715671
-0.063415229
0.23738866
-0.28699085
-0.0067702434
0.010291939
-0.030137787
0.019791389
0.15572329
0.056850877
-0.049131714
0.057769336
0.012480352
-0.24920331
-0.11188725
-0.10623799
-0.015856054
-0.027134551
-0.029771017
-0.038314071
-0.061676279
-0.20765816
-0.057137515
-0.019142168
-0.022108072
-0.049098786
0.020557528
-0.12023646
-0.059298635
-0.032416753
0.022085765
-0.18139614
0.24976787
0.15942702
-0.013276774
-0.0082911365
-0.0010547839
-0.074296221
0.21179247
0.13600361
-0.022658316
0.0083255144
0.0058946675
-0.10653476
-0.11262002
0.31354982
-0.0073800064
-0.015812185
0.048388474
-0.31532145
-0.14232157
-0.21876082
-0.01125641
-0.044671405
0.014801783
0.28848734
-0.38185012
-0.073737152
-0.044674583
0.1112723
0.13461551
-0.5451746
-0.022496046
-0.56628752
-0.013406799
0.026916754
0.042909153
0.19989924
-0.092572831
-0.1224541
-0.049236406
0.016509097
0.042429261
-0.083791472
-0.3063274
-0.28870547
-0.042140003
0.0090689166
-0.026677737
-0.093545064
-0.59931266
0.22068992
-0.017796868
-0.072522514
-0.027510606
-0.093929633
-0.57596326
-0.50937104
-0.057998858
-0.01645989
0.048093978
0.11788915
-0.059911765
-0.0063962187
-0.01439708
-0.04224037
0.044141218
-0.10785827
0.27935904
0.2912454
-0.029690469
-0.094178446
0.002368384
-0.075462289
0.11972371
-0.020635933
-0.010220667
-0.031020191
-0.0028074735
-0.06748613
-0.16755456
0.035818066
-0.059135307
-0.031504046
-0.019870006
-0.028918598
-0.2112534
0.15052964
-0.041875467
-0.022934128
0.017092083
-0.20418552
0.36127043
0.18434115
0.0093300613
-0.021684844
0.013622162
0.26267746
-0.11899517
-0.42444664
-0.055043366
-0.017058436
0.0011362269
-0.39988124
-0.38648328
-0.39563629
-0.049228232
0.012853896
-0.00080522883
0.23885459
0.52247733
-0.087262206
-0.031064158
-0.031334948
-0.023026463
-0.18576054
-0.749852
-0.353679
-0.047598623
-0.050700922
-0.018813912
0.24417889
0.18957813
0.10580003
-0.039891124
-0.041402183
0.058179546
0.026766075
-0.19919807
0.082690686
-0.024015823
-0.0035488307
0.038182367
0.23740122
-0.2480782
0.0019162465
-0.020942016
-0.0195219
0.032445487
-0.036706645
-0.72253287
-0.079015546
-0.0074400962
0.022504043
0.026517063
0.055701885
-0.68398428
-0.21561646
-0.032061081
0.012821745
0.054874737
-0.16243684
-0.041648481
-0.065401867
-0.0073454864
0.028935838
0.030110931
0.10135709
0.27065745
-0.03068853
0.0032945543
-0.0068483069
0.021522215
0.061606925
-0.51534671
-0.15905054
-0.055686414
-0.014883383
0.013842488
0.13009688
-0.35641688
-0.11329316
-0.034613505
0.010321307
0.013729869
-0.18544373
0.38422292
-0.26219338
-0.044926845
-0.015193081
-0.048130296
0.57519585
-0.23060273
0.18664286
-0.010540308
-0.060222518
-0.020880556
0.28224641
0.065510698
-0.43922174
-0.051365528
-0.033157878
0.020377692
0.43597347
-0.22324727
-0.34966382
-0.039291494
-0.017481923
-0.0069536134
0.16370378
0.34133956
0.095878765
-0.017839793
-0.067843027
0.044720739
0.094762124
-0.11640011
-0.02067153
-0.0091135856
-0.043090906
-0.019502494
-0.05027568
-0.12526682
-0.1275263
-0.0044568991
0.019119671
0.026755851
-0.092570156
0.18594675
-0.29741317
-0.025309149
-0.048147894
0.014414444
0.020961089
0.17222179
-0.45865518
-0.028877936
-0.036522944
0.020865755
0.10224686
-0.2765106
-0.36395663
-0.039123334
0.08359725
0.082576022
0.067233153
0.16916086
0.14182989
-0.020640949
0.0081579071
0.029606344
0.34108824
-0.033932585
-0.045659892
0.00020936861
0.00037781353
0.0054563149
-0.09337458
-0.16238043
-0.075219907
-0.039538067
-0.039991535
0.0067367777
0.24784446
-0.11793571
0.046271969
-0.027782409
-0.11495196
-0.021497937
-0.23096398
-0.38798586
0.022267656
-0.070121914
-0.046428878
-0.0058626099
-0.051899381
-0.2346269
0.098014094
-0.025877476
-0.035951782
0.041263968
-0.18605979
0.041163132
-0.17415874
-0.030942783
0.019841148
0.032999847
0.091083512
0.67363608
0.092415653
-0.039280124
0.060916167
0.070045985
-0.089072891
-0.40880179
0.28649127
-0.034449592
-0.033154536
0.0066576474
-0.29554802
0.06109241
0.084169917
-0.040514141
-0.010234794
-0.0081878416
0.13289411
-0.10683941
-0.058811013
-0.04633373
0.01643542
0.069842301
-0.081348278
-0.27216378
-0.00016456369
-0.04123082
-0.026097091
0.03423246
0.26376304
0.024352025
-0.074297272
-0.0075080143
-0.017995536
0.033644971
0.30425924
0.54601812
0.23908712
-0.0075973705
0.00017950402
0.037471391
0.23412168
0.040751524
0.24323836
-0.038500819
-0.072905734
0.0050855465
0.19328636
0.10395312
0.17975876
-0.016938951
0.039896112
0.034704838
0.0053988257
-0.21148284
0.19074327
-0.001410871
-0.037524711
0.062089216
-0.0070711132
0.020129252
0.10300791
-0.031462118
0.083497673
0.058754276
0.002568492
0.46996513
0.21534939
-0.026653562
-0.059191793
0.02146806
0.17774561
-0.23821361
-0.018437136
-0.035641648
-0.053259559
-0.024831435
-0.058017798
0.11785851
0.31403834
-0.036008049
-0.026101628
0.055611718
0.049517035
-0.23679014
-0.080223732
-0.042540394
-0.048347712
-0.0029250102
-0.21975794
0.53713644
0.16447201
-0.04626042
-0.056748979
-0.015355574
-0.051239513
0.087825112
0.067142598
-0.034534633
-0.016030254
0.054373175
-0.093172118
0.13277364
-0.16875738
-0.010986261
-0.083249681
-0.021376282
-0.20170723
0.37448561
-0.37042725
-0.029719252
-0.098678507
-0.022123428
-0.20110594
0.065108836
-0.34493771
-0.046479724
0.018509308
-0.13939665
-0.078188993
0.10063868
-0.061104562
0.028770454
-0.092690736
0.3118757
0.29072309
0.17392074
1.1809223
1.7315005
0.24639337
-0.42233312
-1.0141259
-2.1272194
0.36684293
0.027141929
-0.099484377
-0.18148562
0.065288015
0.066482022
-0.19862878
0.46542808
0.098846585
-0.14431794
-0.17750242
-0.07708592
-0.080856547
-0.093130775
-0.09691488
0.17780367
0.44008252
-0.024074962
-0.21648484
-0.010065162
-0.058784124
0.5315299
-0.13803068
-0.27715385
0.26058626
-1.0950078
-1.0567994
-1.5720743
0.021768006
-0.025295025
-0.024915027
0.00096245029
-0.0083828149
0.029231781
-0.0093672993
-0.00055589696
-0.00132674
0.0049134255
0.010477651
0.037110314
-0.00048967043
0.0082452921
0.028006764
0.023418963
0.0065206266
-0.023659648
-0.03013232
0.020304034
0.024734095
0.0048809461
-0.053706352
0.025271453
0.018032422
-0.015265648
-0.01910034
0.031301714
-0.0053484472
-0.011119943
-0.015477987
0.031966943
0.0014186295
0.0041156984
-0.0024085294
-0.023986699
-0.0083007291
0.029495211
-0.0046546031
0.022908762
-0.0046131029
-0.011806754
0.014317198
-0.026197823
0.027826717
0.01850226
0.028605385
-3.811744e-05
0.017711682
-0.041221656
0.0019059592
0.041529242
0.0084159598
-0.0041094203
0.010826823
-0.0096314773
-0.0034414106
-0.021391595
-0.021843184
-0.030863352
-0.0014532332
-0.0015731684
0.029933318
-0.02780197
-0.026017383
-0.0010238418
-0.034099296
-0.00014819938
-0.0042840755
0.0061054402
-0.006548686
0.0044447104
0.028441692
-0.00072278245
0.024178794
0.021520969
-0.081919841
0.041565519
0.015462466
-0.057320837
-0.025372375
0.024928501
0.025722805
0.0015171296
0.010718227
-0.014412927
0.019046314
-0.020120451
0.021301523
-0.036876757
-0.027614109
0.0012605386
0.0025035068
-0.032153014
-0.0100038
0.012012423
-0.0046666046
-0.0048506162
-0.029641598
0.0087146247
-0.02843464
0.012250867
-0.0027223337
-0.098996274
0.0093808109
0.010030129
-0.046320859
-0.031494427
-0.019827396
0.0083191097
-0.0092455214
0.016561706
-0.014804392
0.0022513228
-0.013038546
-0.020993633
0.026099192
-0.01106636
-0.017717816
0.015234138
-0.019006399
0.00042179279
-0.040070161
0.0065297829
0.0051357774
-0.013392962
-0.025423065
-0.035629902
0.0004316491
0.0030535522
5.0516468e-05
0.04144546
0.007841534
0.0015001791
-0.071978867
-0.037389521
0.011752622
-0.019720962
-0.01545186
0.0033742832
0.016324805
0.010474979
-0.0055402583
-0.00024033226
-0.025022348
0.01896506
-0.0032671285
-0.033733986
0.019852122
0.018915366
0.0096521145
-0.023762073
-0.013807851
0.018213728
0.012778216
0.019782389
-0.0097219134
0.043637499
0.037769411
-0.029815048
-0.031778242
-0.027697748
0.01462077
-0.041945387
0.027016323
0.028202454
-0.012359978
0.0039434289
0.035501096
-0.0027562031
0.021912957
-0.0017464256
-0.023396539
-0.018167946
0.022111561
-0.018258691
-0.017832
0.0030141508
-0.038208295
-0.032221731
-0.016888604
0.022302603
-0.05349369
-0.0041954336
0.058961246
0.010219037
-0.068371981
0.014702691
-0.048930321
-0.014075888
0.018383553
-0.0024432216
0.036866091
0.038843527
0.0074426332
0.020007014
0.0031890124
0.010065341
-0.011910771
0.00070607569
0.021685971
-0.020070145
-0.016899422
-0.061986897
-0.0074746748
-0.010188607
0.0020922502
-0.018815091
-0.011566262
0.0036832639
-0.0082275597
0.078022219
-0.0048085428
-0.071647681
0.006215923
-0.039583694
-0.026415249
0.012528783
-0.022648435
-0.010786721
-0.03453549
-0.027940851
-0.027402041
-0.040678132
-0.0041342601
0.0079826294
0.016247753
0.0082532419
-0.018267144
-0.0032581228
0.028287893
-0.00065823965
0.00043954927
-0.013486624
-0.00016632924
0.020379977
-0.0020875477
0.002864169
-0.010941331
-0.01799115
-0.056418046
-0.0093089109
-0.0065383483
0.01242879
0.013085783
-0.0064507574
0.027804466
0.021487705
-0.018428409
-0.021763695
-0.00053061196
-0.012402658
-0.015122653
-0.0035517125
-0.020689953
0.038839813
-0.010407059
-0.025642062
-0.02280315
-0.0015595047
0.0068954816
-0.028727859
0.021725928
-0.023369061
-0.015862375
0.0055823899
0.013818651
-0.025264425
0.028853051
0.013751008
0.02102928
-0.032547507
-0.0011588165
0.012010195
0.021498563
-0.0051711984
-0.022735493
0.01736494
-0.039917521
-0.0078230482
0.036628347
0.018183706
0.0077461712
-0.019174276
-0.027293239
0.034961518
-0.028369507
0.0030776393
0.013950769
-0.021886563
-0.017476754
-0.0089479098
0.031599198
0.018981073
-0.037169073
0.021058524
-0.027306411
-0.0033007648
0.0092264488
-0.023945887
-0.0043929638
0.017594123
-0.020148125
0.020148095
-0.013072132
0.02999525
-0.024759959
-0.0039013762
0.0068256776
-0.012344236
0.014468415
0.0063970271
-0.029850576
-0.0084909033
0.031463873
-0.019422933
-0.019917352
-0.02849799
0.0083312783
-0.013269205
-0.002456439
-0.015853327
0.028598642
0.0085844481
0.022531599
-0.029608909
0.021207839
-0.026037283
0.006644486
0.017762577
-0.025592081
-0.021610394
-0.014820467
-0.0057943305
0.015087943
-0.015376861
-0.012336159
-0.02793726
0.029586703
-0.021155709
0.0083430586
0.026197933
0.010979715
0.014512854
-0.037980452
0.010995213
0.037180331
-0.013615883
-0.029451385
0.0031869141
-0.034599777
-0.024783652
-0.00063167937
-0.024727728
-0.035458405
-0.0056676744
0.0002698818
-0.030963708
0.002782044
-0.023201469
0.0062869447
0.007562513
-0.020333298
0.021009251
-0.026868206
-0.014491334
-0.015351578
-0.0020448158
-0.022080373
-0.016777812
0.0065971701
0.011775218
-0.021680811
-0.010291728
-0.035439141
-0.020478679
0.0088028405
-0.07004372
0.0026371237
0.017768143
0.018458482
-0.041743033
0.0029201848
-0.0036481097
-0.027927715
0.0084276972
-0.05068903
0.0029494138
0.022682486
0.017751452
-0.0059222109
-0.0019093911
0.0018793447
0.01421704
-0.01645679
0.010470649
0.040337391
0.00384938
0.029700687
-0.011843135
-0.0090166805
-0.017404726
-0.01332988
-0.0092671914
-0.0059871064
-0.0098538445
-0.029686118
0.023185177
-0.0092606358
-8.995254e-05
-0.0047432934
-0.0086692302
0.0043507293
-0.043407023
0.027678017
0.018754715
-0.02070299
-0.02856591
-0.019010946
0.029878926
0.020178135
0.011598035
-0.023432614
-0.028505003
0.0095315604
-0.0050743218
0.0092064217
-0.014935771
0.032455038
-0.0018626536
0.015642205
-0.016674967
-0.02641838
0.02722349
0.0058756066
0.017498095
-0.0057206904
0.001131937
0.0080276346
0.012540103
-0.00088235253
-0.032451119
-0.011650862
0.0026502048
-0.0086263493
-0.021606088
-0.020396879
-0.015348044
-0.022217734
0.00059322064
-0.028697662
0.011514681
-0.00047598485
-0.020236982
-0.031892825
-0.025121013
-0.0050403606
0.02295188
-0.01471046
0.021683201
-0.028070625
0.0035494822
0.00021507556
-0.016920008
-0.0052276561
-0.02720307
-0.01704042
0.03293087
0.0023455275
0.0068581658
-0.0046896483
0.001384414
0.022389757
0.023591656
-0.002134776
-0.016848162
0.019702736
0.017621243
0.012323544
-0.023497198
-0.026704544
0.0032299676
-0.022667641
-0.013131585
0.014865458
-0.06862355
0.013059754
0.008701086
0.034635201
-5.3928474e-05
0.0077976775
0.026797192
0.023609614
-0.0054859272
-0.017757108
0.00068365195
-0.016943572
-0.022769839
-0.01184437
-0.027015885
-0.0044436608
0.0088737598
0.017703477
-0.004265829
-0.0093450723
-0.016712014
-0.032461308
-0.024413627
-0.0015024286
0.019454524
0.0031700144
-0.032493301
-0.025171669
0.012119897
0.021416726
-0.01966577
0.021564312
0.0056449841
-0.0061553367
0.0053426139
0.021956287
0.029284136
-0.0091832178
0.026915684
-0.0085326517
0.021188863
-0.0071447496
0.025554834
-0.023456817
-0.0029849596
0.025663827
-0.0044895485
-0.016814839
0.0099739265
-0.017861066
-0.044037595
0.012666035
0.053584181
-0.038537487
-0.025761057
0.0081882272
0.0019205463
0.027037479
0.023752563
-0.014924012
0.00043374349
-0.0065341583
-0.0063346331
-0.057014409
0.0070654075
0.026327785
-0.005874204
0.018677613
-0.0031582562
-0.028858885
0.019292677
-0.022512753
0.0021478592
0.0085503319
0.0063756146
-0.021280665
-0.013539687
-0.041232482
-0.016959624
0.013225081
0.0075290897
0.048328478
0.017630562
-0.0086401291
-0.030699149
-0.0042973976
-0.037331548
0.023338789
-0.021869693
-0.027641386
-0.018901631
0.023572529
-0.013153008
0.012095473
-0.012614756
0.022408135
-0.013035307
-0.0015647016
-0.011114669
0.0021067103
0.0099066962
-0.0074985055
0.020925008
-0.033877436
-0.0041554375
-0.023873176
-0.0024614844
-0.011196067
-0.07477212
0.0028777684
-0.0037891397
0.015783431
0.0091937184
-0.018491233
-0.012206422
0.010758894
0.0077719884
-0.011498288
-0.017419217
0.04286762
0.011190759
0.005425584
0.010208992
-0.0045783902
-0.023904545
0.012692463
0.012953568
-0.022203591
-0.011677331
0.039429221
-0.028115034
-0.0054511214
-0.031970724
-0.056322735
-0.014922814
-0.05745028
-0.0074177538
-0.00015000896
-0.0036064119
0.015455329
0.0020624341
0.018393574
-0.0024384402
0.020371865
0.0014895364
0.011284665
-0.014278632
0.00016767246
-0.023590917
0.012966658
-0.003774333
-0.0095429402
0.0068924734
-0.015369175
-0.030989015
-0.0067014582
-0.0073616458
-0.00064046489
0.017226255
-0.0016284614
-0.038656652
0.021968083
-0.053657655
0.020421084
-0.017738715
-0.0052952291
0.028385481
0.0038492191
0.024450677
-0.013761695
-0.0090323202
-0.028881531
-0.004795088
0.015906312
0.0082158949
-0.0049659759
0.0015003716
-0.032436773
-0.010638664
-0.0042885016
0.019317266
0.018806813
-0.031861067
-0.0053118928
-0.0065298742
0.025430253
-0.053519201
-0.023726746
0.017077861
-0.067874312
0.0089389868
-0.014074635
-0.0052808542
0.015612728
0.018151445
0.019246675
-0.024184294
0.019344134
0.012610027
-0.038567387
-0.01537534
0.0086588599
-0.026540508
-0.0047686636
0.0024292432
0.027229743
0.023785967
-0.042300135
0.022679044
-0.027631938
0.019296318
0.0030965367
-0.030726051
-0.00037310354
-0.03003676
-0.023318853
-0.014513048
-0.027641831
-0.010874703
0.00023186294
-0.022496212
0.017605087
0.036593139
0.012115113
0.02032857
0.013014892
-0.012057485
0.042402104
0.015216284
0.0091382312
-0.02401555
-0.017877553
-0.015863173
-0.025682025
-0.017265528
0.011998289
-0.024115397
-0.010773917
-0.037071455
-0.025871325
-0.011249012
0.044290856
0.010774886
-0.039009728
0.006263928
-0.0009142746
0.022828972
-0.0069331713
0.014655959
0.014519161
-0.017377485
0.03167839
0.0012174632
0.03245797
0.010326201
-0.0026518542
0.014414031
0.023653682
0.00097253476
-0.010569836
-0.0011332158
-0.0076823067
-0.0085797934
0.023767686
0.024877071
-0.0086880717
-0.06588123
0.036643345
0.0512251
0.027748726
0.019568264
0.027762704
-0.01902095
0.0072180843
-0.029597752
-0.022108549
-0.0086126216
0.012563645
0.014040173
-0.025223937
0.010413567
0.01733765
-0.019746626
0.0013291419
0.020065203
0.019142972
0.010292465
0.012921378
0.013678949
-0.0051735574
-0.027139321
-0.040989012
0.02553506
-0.071520433
-0.021609502
0.04853132
0.0042278315
0.018036632
0.012187685
-0.017069833
0.0019935865
0.0069779721
-0.012265975
-0.011404475
-0.020181436
-0.021293238
-0.022493143
0.00013166122
0.025029555
0.0049431887
-0.0045096804
0.0023249497
-0.0076912646
0.0041119587
0.021068808
-0.018376967
0.011603115
0.0063021267
0.019552432
-0.023204792
-0.069712073
0.022622004
0.007369298
-0.037245404
0.010377485
-0.026530944
0.014272023
0.021885561
-0.025275208
0.011819641
-0.024377974
0.020844426
-0.023895217
-0.0099831652
-0.032703508
-0.001599333
-0.0013968449
0.020711379
0.027183061
-0.0097608874
0.026281521
0.00584258
-0.02071807
-0.024327079
-0.016279766
0.020237928
-0.017342778
0.067960784
-0.011411097
-0.030451696
0.042740572
-0.0014820801
0.0044279592
-0.035620626
0.028633116
0.0060929302
-0.017794272
0.016848875
-0.016860314
-0.0055854446
0.0065838806
-0.015797077
-0.022049444
0.0081819063
-0.0025893918
-0.021306511
-0.028363695
-0.035910781
0.030348349
-0.012421449
-0.002487205
0.021444855
0.030934572
0.010305831
-0.011850473
-0.01924371
-0.033688191
-0.0063723675
-0.044704821
-0.022216663
-0.027764378
-0.031064913
0.01046922
0.023601949
-0.028922191
0.013658436
-0.00823907
0.0040898458
-0.0042627724
0.010940802
0.012443954
-0.016469987
0.020028623
0.011068988
0.021233741
-0.0096665937
-0.027364463
-0.011152049
-0.0009398738
0.042741571
-0.0152832
-0.042042755
0.016551262
-0.015363527
0.022029705
-0.020081274
0.007434872
-0.011459566
-0.016045749
0.0090076607
-0.0062556379
-0.0091425348
0.021213321
-0.014919424
-0.030592674
-0.02684046
-0.027569907
-0.019886715
0.0016262115
0.013345229
0.034050614
-0.029815724
0.012051239
0.03362688
-0.022165069
0.021227986
-0.0052334988
-0.035627712
-0.092712156
0.027005836
0.0031679785
-0.012553366
-0.01560193
0.023214838
0.017953843
-0.0014737786
0.016195562
-0.010324975
0.011224178
0.022368994
-0.0090883207
-0.040165208
-0.019813983
-0.026540536
0.0025496325
-0.0029401532
-0.020309163
0.016583284
-0.0072816424
0.010362271
0.0015369083
0.021251788
0.024080157
-0.015489491
-0.018134549
-0.066710696
0.0096849399
0.05049739
-0.063151449
-0.031964272
0.00042781141
-0.026359702
0.012235424
-0.016824849
-0.038318038
-0.0095921047
0.02843445
0.014080523
0.0041897167
0.0093895905
0.010845494
0.02389808
0.030192543
0.027235121
0.027007967
-0.013825102
-0.017814297
-0.014925642
0.031226208
-0.028052246
0.020677246
-0.022934357
-0.072618552
0.051272884
0.026153892
-0.018723546
-0.028245538
0.008482337
-0.02383101
-0.0031222194
0.015721168
0.011239215
0.016598856
-0.025192479
0.022064615
0.027836796
-0.0013171316
0.029116865
0.02341301
-0.015517004
0.0057281815
-0.003572097
-0.02153424
-0.017548472
-0.0057339631
-0.022912042
0.02008144
0.021180699
-0.028967109
-0.095086858
0.068256609
0.012344779
-0.044882074
-0.056575704
0.0096953036
0.01131473
0.021080876
-0.025918759
-0.025025951
-0.025805302
0.027316526
-0.026165551
0.0049294918
0.0079124123
-0.0033250195
0.013800372
0.013059227
0.021770362
0.0059658368
-0.022798056
-0.026162751
-0.028234288
0.015186789
-0.011868303
-0.0014265683
-0.033938635
-0.083397277
0.044915862
0.020628152
0.0092482548
-0.051285919
0.00750513
0.025337076
-0.016083561
-0.01594745
-0.0029881611
0.011875486
-0.020621829
0.017135222
-0.012989321
-0.02048352
-0.0096795959
-0.039430529
0.018704955
-0.020339994
-0.0091539472
0.0023176291
0.014652658
-0.013520882
-0.014858353
-0.020665405
-0.0033226809
-0.013162925
0.0060915551
0.066672571
-0.053068154
0.062590994
-0.04399367
0.023305329
0.021813881
-0.027708225
0.03281128
0.0019110548
0.023104027
-0.014273467
0.016975109
-0.0070360512
0.020287396
0.0055666422
-0.023348317
-0.011074212
0.026874328
-0.0021315175
-0.010751364
0.011865594
0.012195167
0.016474023
-0.0076891598
-0.017368799
-0.0065557649
0.019560289
0.057589833
-0.069949426
0.030694077
-0.040110074
0.014700712
-0.017292852
-0.0046659447
-0.018560972
-0.024284897
-0.01709494
-0.020625139
-0.020032104
0.026983848
-0.021034334
-0.025386179
-0.027654722
0.0094679529
-0.021655219
-0.045062665
0.01065917
-0.0060348185
-0.024882063
-0.021309121
0.003202158
0.0022292961
0.030831628
0.054364458
0.011621433
-0.092016667
0.075741798
-0.0091518639
-0.013771674
-0.0030300806
-0.005049868
0.011053444
0.024387678
-0.0024453609
-0.017432453
-0.002925778
0.020971496
-0.013660703
0.050415397
0.03934598
-0.021796517
-5.561941e-05
-0.030066174
-0.024335969
-0.075358875
-0.03982852
0.0077991937
0.0073519484
-0.0015196569
-0.0076462007
-0.073813885
-0.019053951
-0.0033925988
-0.050038222
0.017015507
-0.015207078
-0.1991739
-0.036481369
0.0069775586
0.0076606972
-0.0040661851
-0.025326213
0.031004239
0.022476848
0.015909255
-0.0026775955
-0.0096738646
0.012032119
-0.10435528
-0.03480367
-0.018101931
-0.015171899
-0.030315422
-0.00053843547
-0.23142509
-0.053540152
7.1843911e-05
-0.0048463647
-0.022566609
-0.0014340254
-0.079718858
-0.066235647
-0.017808106
-0.047295429
-0.013418091
-0.022487856
-0.0044209622
0.026377667
0.033218119
-0.0022937148
0.01873613
-0.0133124
-0.20007029
-0.060001969
-0.027292639
-0.027468616
-0.013104473
-0.007187326
0.045451507
0.00059711823
0.029891228
-0.027856875
-0.013260722
0.035698015
-0.026450232
-0.011207601
-0.014999147
-0.03455703
-0.026512163
-0.0003434497
-0.10427625
-0.031620145
0.012321337
0.014221965
0.01019263
-9.6715776e-05
-0.026510982
-0.030795272
0.014401512
-0.047272928
-0.011216111
-0.039783265
0.10509805
0.082851648
-0.019086413
-0.0096420227
-0.004168686
-0.018297577
0.048528936
-0.030705379
-0.027422169
-0.032819159
0.0041418313
0.014312821
-0.044746973
0.0010874283
0.016792847
-0.013728968
0.0044099269
0.047069501
-0.080197543
-0.033877399
-0.0070543014
0.0017478565
0.029868469
-0.023614436
0.097799197
0.075200498
0.017599888
-0.01827099
-0.024927517
0.03692922
0.096007064
0.0077297166
0.025483152
-0.027524287
0.027723204
-0.012332861
0.068260461
0.022468476
0.012967821
-0.0088401185
-0.0020145348
-0.030481707
-0.030947361
-0.020637253
-0.0087185036
-0.046926156
-0.0087512191
0.038263906
0.066152751
-0.035094008
0.017431285
-0.027841313
-0.026606249
0.023977719
0.11337803
0.042180173
0.019542752
-0.028372029
-0.015980596
0.032477025
0.078686714
0.025333682
-0.017151909
-0.044867814
0.012819331
-0.044929944
-0.017732855
0.02317917
-0.0029874402
-0.047909338
-0.017197041
-0.020286363
-0.025408449
-0.02379621
0.022498725
-0.0068389638
0.0031519104
0.030109609
-0.24050097
-0.073102169
-0.00071814092
-0.0094331019
0.029116603
0.020433366
0.013466583
-0.0016009324
0.0021312507
-0.037446167
0.012794047
0.0062761325
0.047813442
-0.039005589
-0.015843051
-0.031398628
-0.013088151
0.039312709
0.25377062
0.08597704
0.0089527089
0.0061046039
0.011281775
-0.010422874
-0.17191161
-0.025741089
-0.031270944
-0.00942594
0.0097433254
-0.0084329648
0.078245245
-0.066539541
-0.02472155
-0.013282456
-0.029602375
-0.034046475
-0.14113164
-0.043952957
-0.00052481494
-0.0023840948
0.014467099
-0.020755958
-0.099849045
0.0037675111
-0.021908237
0.0044786152
-0.025089772
-0.040739659
-0.044962808
-0.051715091
-0.02668382
-0.052200835
-0.0027940124
-0.023873739
0.00897313
-0.022022687
0.011490932
-0.010211474
-0.029996635
-0.031149905
0.015602218
0.021041553
0.034036048
-0.021177623
0.0038405936
0.046505831
-0.049768813
0.022941595
-0.011875859
0.0056528454
0.0074434956
-0.022115467
-0.051795583
-0.056727186
0.025014494
-0.020367485
0.030603638
-0.037294813
0.29186845
0.065842293
0.015161806
0.0059176404
0.016761797
-0.009428543
0.076032378
0.01569994
0.00071796722
-0.023878254
0.022338711
-0.020391934
-0.064856872
-0.031052174
-0.0018418346
-0.023085134
0.0022790227
0.041014031
-0.093721189
-0.039667163
0.0093067922
-0.0050761378
0.029435981
0.0028879587
0.2359665
-0.0016970128
0.0096851783
-0.0030016531
0.011230374
0.021318389
-0.047926933
-0.034347411
-0.021337368
-0.019498415
-0.009781668
0.032980364
-0.12355957
-0.079784825
-0.029732142
-0.00047726973
0.0034487657
-0.035699826
0.18102321
0.086503342
0.019723231
-0.013867202
0.026583556
0.047646761
-0.058698058
-0.025295326
0.020561244
-0.02974201
-0.0092373602
0.04097899
0.32278123
0.068660744
-0.0097224116
-0.041979879
0.030364824
0.038513329
0.34766379
0.10277337
0.0073646032
-0.056975182
-0.0048418702
0.027815774
-0.098973073
-0.04603108
0.012348359
-0.059081379
0.022338601
-0.0033334151
-0.18595575
-0.026616277
0.00098013063
-0.017845031
0.02228901
0.026629597
-0.19718815
-0.037486121
0.0086647766
-0.014621105
0.019197807
-0.0030450821
0.033510666
0.015380489
-0.0045517082
-0.013531527
0.010789522
0.033688646
-0.094042219
-0.086488038
-0.028714977
-0.01638368
-0.0031261081
0.045786954
-0.11009543
-0.032667264
-0.012269836
-0.038778119
0.0033590836
0.026022559
-0.018953325
0.0075287744
0.020589605
-0.064627238
0.0029304132
0.046791811
-0.00077665359
-0.050127182
-0.0084447172
-0.026491679
0.023066761
0.018026982
-0.0015515148
0.025692461
0.024929814
0.0045532249
-0.016315671
0.049837191
0.68370116
0.18997656
-0.0031593845
-0.045297403
-0.0093135051
0.027716754
-0.08855319
-0.016808856
0.00040790933
-0.039829705
-0.028845424
0.024605494
0.2740266
0.080311231
0.051924765
-0.022876538
-0.0012828758
0.022421699
-0.023338536
0.050822172
0.013706847
0.00073431135
-0.0067016715
0.033969108
-0.06923499
0.053852901
-0.031344734
-0.011758011
0.0039809202
-0.049008075
0.00089204207
-0.065952897
-0.0067198887
-0.021413695
0.010373873
0.045630693
-0.073738441
-0.036889259
0.018416008
-0.027509427
0.0010180243
-0.042738833
0.25001484
-0.0020465481
-0.023055758
-0.025984492
0.015890719
-0.008475299
0.014250796
-0.073423982
0.0045801937
-0.018877381
0.020393722
-0.059709515
0.11502794
-0.030984584
0.02195124
-0.021840658
0.012463941
-0.019962197
0.029944239
-0.032656901
-0.028678158
-0.045352168
-0.0060594082
0.038071357
-0.10666747
-0.069373637
-0.03204691
0.0044187135
-0.017525861
-0.020412205
-0.045794148
0.013689538
0.027403459
0.00077076419
-0.030829148
0.017981267
0.015717467
-0.022112397
0.030936228
-0.043353055
0.012305599
0.0066182571
-0.14353226
-0.046183746
0.017089646
-0.033217762
0.009429168
-0.011664082
0.10739007
-0.013983685
0.00093139737
-0.059888761
-0.004799657
0.034366064
0.1362737
-0.051022824
0.016704846
-0.048063125
0.0077955136
0.041830048
0.018127792
-0.0069481195
-0.0083078444
-0.0010378606
-0.0049936646
0.013566018
0.25653476
0.017959667
0.015830994
-0.012972062
-0.0047341278
-0.029563477
0.24422617
0.031360384
0.01548817
-0.057163749
-0.025792094
0.016342118
-0.045887638
-0.07722237
0.0076994724
-0.042385615
-0.013925857
-0.050834991
0.32103831
0.06376081
0.06076777
-0.019461568
-0.02228499
0.040815338
-0.115125
-0.065426804
-0.031627249
-0.014302663
0.011999874
0.034758244
-0.16120279
-0.088644348
0.0061821369
-0.01300892
0.02755031
-0.03004727
-0.018477788
-0.0045988061
-0.01042672
-0.024291564
0.016849874
0.0023843651
0.02335659
0.02979733
0.014426991
-0.024113629
-0.00021209157
0.032001622
0.13197312
0.0083237216
-0.024721785
-0.03179422
-0.031272124
-0.016758226
-0.10821389
0.0081950929
-0.0023661328
-0.033665761
-0.021260677
-0.0013626249
0.19660325
-0.030105332
0.0058294293
-0.019250093
0.01600324
-0.035519578
0.20642959
-0.0095205707
0.034742396
-0.035134092
-0.025983702
0.00080158171
-0.06703908
0.01387642
-0.023914384
-0.043741066
-0.031851105
0.0014424453
0.01939206
-0.079895549
-0.029979954
-0.026390258
-0.032316115
-0.01863656
-0.091798961
-0.030875914
-0.011266924
-0.05683925
-0.017988432
0.037018575
-0.13772568
-0.066350773
0.0096674021
-0.018267026
0.013509941
0.027035289
-0.13260427
-0.022913061
-0.014244788
-0.053020049
0.012859045
0.011423696
-0.15324503
-0.083458304
-0.020924291
-0.016962273
0.014611929
-0.010221963
-0.11133445
-0.036567543
-0.032509759
-0.028284242
0.0044947253
-0.03927429
-0.05416159
-0.0044333194
-0.021027785
-0.0029537089
-0.0030864738
0.0026848298
-0.046030376
0.015534321
0.0090859169
-0.036875058
-0.025416207
0.019847153
-0.24981824
-0.0092805279
-0.020520067
-0.034151416
-0.016410852
0.027272187
-0.0047375388
-0.01583284
-0.012931455
-0.047983509
-0.010061471
-0.0052576247
-0.016664604
-0.099142686
-0.0065934774
-0.018638756
-0.027106123
0.04468881
0.052599661
-0.051778913
-0.010100932
-0.014817703
-0.021958359
0.033335563
0.041061807
-0.038301006
-0.024746899
-0.066588752
-0.034596696
0.039909977
-0.060166191
-0.098005496
-0.0024324993
-0.021660281
0.0033116918
-0.014213735
-0.14451557
-0.046942588
-0.034078877
-0.053503171
0.025417941
0.016159335
-0.044444803
0.031106146
0.014272719
-0.024271784
-0.0047495496
0.024012191
0.058892522
-0.027504504
-0.018743165
-0.0028731057
-0.027561683
0.0070371716
0.093972288
-0.014319572
-0.01368234
-0.016516613
0.0036713677
0.0070543471
-0.13251634
0.035198271
0.029440172
-0.010566952
0.014675676
0.0068303002
0.0026806912
0.0028714885
0.042488415
-0.0034051382
-0.0002420128
0.030656908
0.11727706
0.094496146
0.033953983
-0.043558549
-0.014773528
-0.029773377
0.021777531
-0.052977372
-0.0048155226
-0.015496772
-0.0036421895
-0.01886539
-0.11948287
-0.1509493
0.011148458
-0.010844683
0.0094739404
-0.014423989
-0.040475957
0.00081760273
-0.00086835102
-0.011229355
-0.00043307804
0.010425388
0.06470836
-0.043587428
-0.00020022981
-0.055192932
-0.019470336
0.031415805
-0.1348976
-0.063189849
0.0063642738
-0.022570994
0.017883327
0.043071356
0.027835609
-0.016984846
0.010027231
-0.0080517288
0.0074602002
-0.000398759
0.042978995
-0.0085316617
-0.0029359784
0.0015555747
0.0091240723
-0.024559552
-0.14398436
-0.0030447177
0.01941576
0.001243926
-0.0310004
-0.009807555
0.0096884528
0.0012772845
0.033440828
-0.014241238
0.032739487
-0.0026343188
-0.025745101
-0.0048618242
0.026086718
0.012425435
0.047910742
0.042466953
-0.072604261
-0.026700595
-0.01007337
-0.00026606844
0.024654595
0.026997978
0.021294137
-0.026617168
0.02807082
-0.014874683
-0.031500846
0.010287833
-0.0052989437
-0.019935982
0.002614313
-0.013333724
0.013526905
-0.018756786
0.013149207
-0.011373168
0.02453311
-0.0055753705
-0.014733152
0.0082619246
0.00061903609
-0.00069724448
-0.18139641
-0.27482155
-0.17212021
-0.044229444
-0.013211241
-0.05663716
-0.021399248
-0.017408745
-0.0015684431
-0.026048366
-0.018080369
-0.003262498
-0.006158377
0.023602845
0.0087510385
-0.0399312
-0.029245052
-0.027758379
0.0065409755
0.006050928
-0.02024118
-0.021169854
0.025316169
-0.019055763
-0.015791208
-0.12071114
0.094002165
0.020244457
-0.057934925
-0.090349726
-0.0066011278
0.0018885306
0.0025896335
0.015946144
-0.0007435843
0.015523117
0.0072582425
-0.011941441
-0.089403249
-0.0084139239
0.014280202
0.049510431
0.011522161
0.027168468
0.046191607
0.0016893551
-0.032129928
0.033478033
0.012461596
0.021936236
-0.010734728
1.4758282e-05
-0.023896433
0.037809744
-0.044960119
-0.057056379
-0.060951475
-0.063835964
-0.016907794
0.015961276
-0.0052206418
0.0053704474
0.019254632
-0.016361978
0.023690451
0.0047824671
-0.0025721667
0.0045741331
-0.007668301
0.030999202
-0.02240671
-0.0094339801
-0.012929547
-0.016056443
-0.010377838
-0.012747328
-0.0043824776
-0.0091016013
-0.021604631
-0.034442317
-0.01580924
-0.019348081
0.016094027
-0.087563448
-0.023650071
-0.0016722229
-0.026917528
-0.0027184661
-0.0045945202
0.0044117281
-0.03300751
0.0029566889
0.028763106
0.021208581
0.0055544302
-0.031514551
-0.037449565
0.0075521953
0.0081606675
-0.020677125
0.037461817
0.033943169
0.0084732352
-0.019760497
0.0011936288
-0.030277042
-0.069814518
0.00081737211
-0.051341236
-0.02633287
-0.10196616
0.041319065
-0.00023736371
0.020052271
0.015146295
0.01850898
-0.03554916
-0.021069461
0.010181137
-0.022336915
0.019884247
-0.022836125
-0.026325012
-0.024221411
-0.026354039
-0.029227106
-0.0069315601
-0.0048453393
0.042208403
-0.020825485
0.012207545
-0.0087785209
0.0035779299
-0.013465728
-0.017922284
-0.011642528
0.012708232
-0.042451989
0.0048178118
-0.03818224
-0.066004157
0.017619688
0.030230587
0.020292176
-0.016498022
-0.04680616
-0.032461535
0.023018936
0.0025005499
0.055647753
-0.037363637
-0.034556624
-0.0072050639
0.02037021
-0.01921772
-0.0014578584
0.050652642
-0.010212896
-0.0062182881
0.016132256
-0.0028760131
-0.037710469
-0.017461685
-0.039083041
-0.095337212
-0.029791595
0.00073763914
-0.024843359
0.020726526
0.0036211307
-0.04655109
0.0027912606
-0.018627724
0.0046189381
-2.5518057e-05
-0.01074277
-0.018967927
-0.018999677
0.0038205679
-0.019248236
-0.042581134
-0.012554478
0.0022673525
-0.0043494687
0.029642183
-0.036089618
0.016245479
0.012780678
-0.025217546
0.0030109412
0.039756302
0.0010292681
-0.011850945
0.0065968935
-0.054217234
-0.0032817174
0.0014820728
-0.018221676
0.0024307244
-0.033867739
-0.015535846
0.013018682
0.0085327756
-0.023609687
-0.051036227
-0.027484883
0.022243787
-0.023095533
-0.0049909917
-0.032052837
-0.012101237
0.0048492108
-0.017785355
-0.014303994
0.038612358
-0.091635652
-0.037341125
0.019170124
-0.028162826
0.0053454773
0.021530479
0.0087505672
-0.013144761
0.04096926
0.0032133679
-0.019471664
0.0021962868
0.025253294
0.0037067789
-0.043555912
-0.045693915
0.015488454
0.005391404
-0.042980246
-0.0013408342
-0.042533997
-0.010280946
0.01275238
-0.036050864
-0.001290753
0.014662717
0.067280509
-0.10031898
-0.049304351
0.060405783
-0.016191537
0.017160486
0.0045513175
-0.020597329
0.0023958874
0.00071385229
-0.037148491
-0.040527467
-0.053937864
0.026925694
-0.019291837
-0.0088764969
0.012753329
-0.037381962
-0.022965804
0.024165198
-0.027712105
0.038132891
-0.023573138
-0.0052089323
-0.03427146
-0.01171687
0.038775753
0.088916071
-0.083782747
-0.072177283
-0.051267341
-0.096681938
0.0063562011
-0.0048082946
-0.0033654594
0.018676601
0.0042338357
0.0020768952
-0.021822993
0.027214767
0.017163554
-0.025795665
-0.014616979
-0.03528228
-0.010919297
-0.03059151
-0.011942641
-0.0090504223
0.018216586
0.023345666
0.033658974
-0.011971753
-0.009276472
-0.017422359
0.057345834
-0.072013475
-0.0690566
0.048333317
-0.015801197
-0.0085810497
-0.014173985
-0.036017902
0.017180804
0.031836502
-0.030926233
0.022678763
0.0085501876
-0.058459051
0.015515465
-0.016194446
0.0010025225
0.00040131353
0.0040926551
-0.010768885
-0.012300861
0.0048803734
0.025580525
-0.010761761
-0.026954385
-0.02166977
-0.011117028
0.019886779
-0.031793021
-0.08947815
-0.020596927
-0.10734768
-0.025969038
0.0019865143
-0.0097197145
0.024324765
-0.0047718752
0.0071105487
0.028696289
0.0012805553
0.043924358
-0.014854683
-0.012240615
-0.031636585
-0.0056267558
-0.02317361
-0.047116455
0.011942836
-0.015983053
0.042339336
-0.048743345
-0.014666905
-0.017325271
0.041673962
-0.063977778
0.024711726
-0.041906886
0.025120031
-0.08727213
-0.01104613
0.022281887
0.02001112
-0.011167352
0.0051653637
0.0012276149
-0.022048371
0.0082831653
-0.042099424
0.013826621
0.029356863
0.0047529172
-0.02365713
0.027475473
-0.042918015
-0.027959954
-0.015453335
-0.0099330423
-0.02070469
0.018533723
0.0077861189
-0.037753586
-0.063196532
0.040841948
-0.0096995784
-0.049721908
-0.076585203
-0.0062253196
-0.03359215
0.012883975
-0.038103439
0.024434047
-0.0039203903
0.039696831
0.038552903
-0.07088577
-0.0015794309
0.015180131
0.0030511257
-0.0093327425
0.020539638
-0.039109532
0.015057022
-0.038519051
-0.020550175
-0.032210797
-0.024118422
-0.0038671794
-0.057175774
-0.19830523
0.024856865
0.083276793
-0.064450175
-0.044484332
-1.7126515e-05
-0.011541396
-0.047023486
0.00073881785
-0.024766633
-0.032595497
-0.0044192513
-0.011817923
-0.0044060918
0.0032217493
-0.0079471311
-0.021000423
-0.010886049
-0.018150663
-0.02473662
-0.01999438
0.010287992
0.021912174
-0.011711748
-0.023627825
0.021497639
-0.036195029
0.020079242
-0.047914203
-0.068761013
-0.049129549
-0.049857881
0.029445121
0.012516128
0.037355609
-0.041887656
0.029925233
0.024505233
-0.013572835
-0.0022566689
-0.013345051
-0.010711297
-0.032368805
-0.013069944
0.026443701
0.021014925
-0.023909491
0.0390586
0.011851577
0.001290628
-0.0317287
-0.009706012
-0.042302862
0.0076446999
-0.0013449522
-0.013020709
-0.026152946
-0.015603595
-0.056166571
0.022507299
0.059013814
0.0092767673
-0.0235781
0.04070339
-0.022152556
-0.028672265
0.025416089
-0.027606381
-0.030095628
-0.023294955
-0.036144752
-0.010136026
-0.0097902697
0.010905502
-0.032238655
-0.0076552243
0.016091153
0.025909401
0.0041852687
-0.031038092
-0.015995944
-0.052463617
-0.015871283
-0.015442825
-0.029800488
-0.083025306
-0.0064287116
-1.054841e-05
-0.018173911
0.010404645
0.054351304
-0.0176432
-0.0053457897
-0.040209245
-0.024224278
0.0051426566
-0.0073500378
0.0057068649
0.0015227601
0.00729609
-0.01675678
0.011918684
-0.031506091
0.015338582
0.015965216
0.012015387
-0.010107102
-0.036607206
-0.099717587
-0.02815631
0.038295347
-0.051534284
-0.085061207
0.017034549
-0.0015762124
0.013578539
-0.020336533
-0.044824012
0.010743154
0.0099511473
-0.014843154
-0.037283845
0.011946451
0.00104748
0.021111498
0.012669997
-0.0251933
-0.041883435
-0.00014998649
-0.00070859003
