0.0065035759
-0.016057367
0.023114845
-0.02740977
-0.018987153
-0.016140861
-0.0050467644
0.017722966
-0.0088989204
0.011367528
-0.0083159423
-0.029520979
0.0081623858
-0.012709411
-0.0012804718
0.0041251732
0.015036426
-0.015568524
0.024108652
0.018705774
-0.02072186
-0.05828004
0.062985942
0.00076481898
-0.03668654
-0.026833065
0.040936939
-0.0062275194
0.00079359656
0.0090926951
0.023013534
-0.023809699
0.023147509
0.019755155
-0.021632459
-0.023844952
-0.027374266
0.0053807255
-0.026704518
-0.0025528299
-0.017694719
0.00023254674
-0.0065496499
0.024251936
0.016067594
0.024667293
-0.0063607688
0.0043748291
-0.079029404
0.033271126
-0.010451643
-0.016404308
0.0068176771
0.020506863
0.021565566
-0.025687594
0.0054176813
0.016797464
0.0026555043
-0.022538815
0.0040517817
-0.0049906685
-0.013431309
-0.0050914618
-0.014574976
-0.0034731366
0.004450154
-0.011481462
-0.029304238
0.0072531011
0.016977692
-0.013407058
-0.021532431
-0.020250255
-0.018708121
-0.017506175
0.024657838
-0.0058668703
-0.0022068536
-0.016053317
-0.006542956
0.027900444
0.019159626
0.017914467
-0.011126426
0.014200567
0.024670679
-0.02858389
0.0014148384
-0.004253848
-0.022175584
-0.027378393
0.026348798
-0.0038348378
-0.00076205592
-0.022862798
0.015012247
-0.02751793
0.0047050109
0.023461238
0.0092154015
-0.011761708
-0.060779519
0.073360667
-0.0081757708
-0.001508456
0.024337767
0.031170337
-0.03273822
-0.002039724
-0.018751808
-0.026625339
-0.0045067244
0.023422237
0.025373658
0.015271181
0.01540005
0.018400719
0.016901502
-0.015199254
-0.010677335
0.028216459
-0.015142132
-0.016266659
-0.006809386
0.018985868
-0.0022022387
-0.019414242
0.01864499
-0.012555969
0.022448229
-0.0085026585
-0.031723715
-0.0155411
0.017193824
0.013399592
0.013032842
-0.003971512
0.011250216
0.01288912
0.022429023
0.017660091
0.016992608
-0.010789694
0.019449811
0.01307151
-0.020311002
0.0067863544
0.0024707604
0.027583286
0.020414578
0.027169576
0.030713638
-0.020070665
-0.024393423
-0.008875859
0.0080840643
0.051606979
-0.021933878
0.026655341
0.0062903198
0.0095002595
-0.0073045334
0.014077455
0.028689483
0.029060114
0.0065459716
0.008725035
-0.0032574062
-0.0191836
-0.007318527
-0.014471718
-0.02175767
-0.016556112
0.0062573901
0.023697151
0.025605071
0.011058451
0.0030518961
-0.0039894176
0.010126926
-0.010216321
-0.010004145
-0.014070245
0.059783973
-0.032782912
-0.022892511
0.007690852
0.034714896
0.0043856264
-0.0079178046
-0.0066494509
-0.016470114
0.018560477
-0.022967497
-0.018306801
0.012368319
0.013748071
0.024268076
-0.020586438
0.029315246
-0.012760157
-0.0040397011
-0.027381076
-0.0026367474
0.023263045
-0.026202099
-0.010317542
0.013745392
0.003188147
0.0051379572
0.046856761
-0.00071443093
-0.0024286204
-0.004142486
0.0017127235
0.010788269
-0.01725336
-0.023303058
0.0077307783
0.020799482
-0.0052267737
-0.025220679
-0.027537998
-0.014030259
-0.019960413
-0.015647747
0.026453452
0.022871045
-0.023192849
-0.024970762
0.024850499
-0.009051335
0.00089150481
0.024841422
0.021946991
-0.005159196
-0.059812278
0.031731401
-0.033560477
0.0042813802
-0.016264988
0.007735929
0.0049395869
-0.017025135
0.020454451
-0.024491049
0.022322388
-0.026483364
-0.020016503
0.00078521261
0.022875883
0.0045965859
0.0037638594
0.026385613
0.020429129
0.01124574
-0.01752062
0.019987771
0.0068053515
-0.010340131
0.027812587
0.0012795621
0.012021668
-0.050547209
0.046009813
0.0077038417
0.0079801911
0.017244423
0.019337406
-0.028734364
-0.017330568
0.017172422
0.0054554362
0.01520414
-0.025720201
-0.0016213619
0.021733414
0.027413271
0.0045301844
-0.023012925
-0.0082314415
-0.001320644
0.0076263859
0.032134697
-0.0054472499
0.0069689844
0.011288706
0.0024900946
-0.004752954
-0.014793101
-0.01672058
0.032498945
0.017962821
-0.0036224788
0.030918939
-0.0097556571
-0.01741234
0.010210657
0.021093754
-0.024922563
0.012081178
-0.024235303
0.027550945
-0.012548099
0.023716625
-0.025736555
0.017569115
0.012718871
-0.026168661
-0.008671646
0.015578501
-0.0012687583
0.018153327
-0.0023196326
0.00034634676
-0.016366979
0.025537835
-0.068726987
0.056431599
-0.00071215798
-0.02147558
0.030012397
0.013673309
-0.016979696
-0.0031365084
-0.0015924933
0.0043081255
0.014754919
-0.017917117
0.00038392271
0.012456808
0.021450188
0.0042334045
0.013031201
-0.016820984
-0.0068231472
0.019387634
-0.02257067
-0.027523622
0.022213569
-0.0034415217
0.02091022
-0.010240146
-0.014749222
-0.04142366
0.050109629
-0.00046552444
-0.029857583
0.036123063
-0.011715895
0.006012076
-0.0088135516
-0.02856734
-0.0065612039
0.0056346832
0.00081639539
0.026422244
-0.02138157
-0.015792975
-0.021738879
0.007735101
-0.030461933
0.030486766
-0.019844225
0.016001141
-0.018981211
0.0046139574
0.0053734644
-0.015546953
0.0091493912
-0.0056847255
0.00052977842
0.028129047
0.0038866722
0.018827582
0.031813115
0.0048004841
-0.0032081609
-0.014694151
-0.00032867584
0.012520455
0.023026025
0.019731306
0.018504037
-0.017578833
-0.0025985599
-0.01417986
-0.022485834
0.0051446967
0.0033934666
-0.010410434
-0.017409507
0.0057964157
-0.0076971026
-0.011297543
-0.013470289
0.0040744729
0.018793803
0.016603278
0.042111903
-0.014652859
-0.0087049715
0.014286111
-0.022044798
-0.024100233
0.00030398637
-0.02767616
0.013016913
0.024932267
-0.015083711
-0.019726314
0.0042983512
-0.022565601
-0.031083655
-0.0043982067
-0.0033583338
-0.0012650655
0.012486123
0.0060866592
-0.031162146
-0.014443131
0.031260293
-0.017946463
0.015850952
-0.013751511
0.014702251
-0.038058024
0.028880496
-0.008533502
0.029136185
0.012425948
0.027187036
-0.015887707
-0.013143429
-0.02666348
-0.0072949431
0.013910115
-0.025334006
-0.027460845
0.0082440218
-0.005363625
-0.017354459
-0.013884498
0.0001188098
-0.012311019
0.0065397932
0.024965329
0.018346144
-0.0031210813
0.0041462658
0.012760632
0.0072847484
-0.0077630286
0.017079229
0.024347542
0.00039441636
0.0081615811
0.0020537989
0.015178489
0.023328256
0.00089989643
-0.0047466708
0.022313567
0.019581791
0.0088890409
0.025196124
-0.020850049
-0.0035138761
-0.02639267
-0.015944481
-0.027644182
-0.00082342111
-0.0054988782
-0.0115151
0.020178033
0.016478375
0.029831044
0.020371355
-0.0025390643
-0.032114334
-0.011530865
0.018257502
-0.053352155
0.034300245
-0.017543221
-0.00070735393
0.015114857
0.0087400191
-0.028259549
-0.0011376265
0.0032481658
0.0083175171
0.02241293
-0.0047664116
-0.0052463585
0.012806742
-0.0082995808
0.0054482254
-0.022288563
-0.0021489912
0.015490822
-0.023887578
0.023319483
-0.014856499
-0.0023211949
0.017935677
-0.052323092
-0.017320976
0.043238688
-0.018648798
0.025769725
-0.029294489
0.012791374
0.023928503
0.024255164
0.025382144
-0.0069749332
0.009581008
0.0075966669
-0.013252797
-0.019022226
-0.020394191
-0.025670756
-0.019948609
0.0078523438
0.0010222947
0.020884946
0.024409072
-0.030782579
0.025384214
0.0018062923
0.017106382
-0.029634256
-0.028262803
-0.040949468
0.033732746
-0.032335229
-0.013975467
0.020252835
0.019822121
0.0056966152
0.0063220868
0.017093154
-0.012781791
-0.0028342856
0.012063397
-0.018694999
0.017415626
-0.0046457341
0.032017484
-0.011571604
0.0043595764
-0.021686796
-0.013168242
0.0098852487
0.017960882
0.013986146
-0.00064474787
0.014036033
0.015154752
0.0035847495
-0.038280353
0.020016031
-0.0031599663
0.012822711
0.005751906
0.024693338
0.0083227362
0.0074734883
0.016952615
-0.0025375413
-0.018687559
-0.0090880347
-0.01842311
0.004370302
0.015502738
0.021344267
0.022165276
0.0057716076
-0.012748406
0.018615697
0.017130127
0.019754378
0.03104379
-0.019665102
0.0039043992
0.01673324
0.063588277
-0.046446316
-0.0056959339
0.024642691
0.0066462369
0.015480373
-0.011303673
0.026368635
-0.013042783
0.029672218
0.015717747
0.025366135
0.0045757405
0.0019149873
-0.0069607035
0.0053634164
0.018823249
0.01062417
-0.01308644
0.0093444204
-0.00015768064
-0.024857672
-0.0091586104
0.02044159
0.023838026
-0.026779285
0.012343903
0.076325685
-0.035929922
-0.032858621
0.049130991
0.0069354395
-0.017480353
-0.017387526
-0.027497994
0.0040453137
-0.030488225
-0.012053676
0.0032099036
-0.010362728
-0.018834136
-0.0087519987
-0.014205473
0.017497869
0.021162761
0.0066402028
0.0062628221
0.018616501
-0.021086177
0.019571256
-0.0019979873
0.016192021
0.025818158
0.01549081
0.040222436
0.010820783
0.0097133275
-0.0023040753
0.03155401
-0.019189397
-0.0062717246
0.0052304543
-0.0031183204
0.0055251475
0.023290429
0.00088458176
-0.015852861
0.029444542
0.019705692
0.012855807
-0.017635982
-0.025614521
-0.025000714
-0.00024198582
0.022185383
0.021611709
-0.020661732
-0.0031032267
0.010777905
-0.011864774
-0.013230926
-0.016404597
-0.03116614
-0.02169927
0.025627542
0.00080225029
-0.0017203407
0.015262166
0.020724872
-0.032179229
0.020975646
-0.013909588
0.011016261
-0.010557977
0.020491205
0.0060796179
0.012747628
-0.02345515
0.0032674794
0.008020102
0.029871223
0.012319439
0.010167285
-0.030016318
-0.0092348177
0.0082300128
0.027537812
0.0047726608
-0.0082645249
-0.0049053645
0.020007042
-0.0026974631
0.02174191
0.027489219
0.0031921987
0.011810414
0.0018951937
0.014231851
-0.0062118992
-0.0055301273
0.017358776
-0.016911229
0.010720478
-0.0062696915
0.0052267164
0.0047232071
-0.029369663
-0.0094217369
0.014356304
-0.00024645455
-0.032228537
0.0088209044
-0.0057335938
0.013184936
0.016015515
0.041887417
-0.037764281
0.0044673174
-0.014662974
-0.0026135144
-0.002065866
0.026351947
0.014178154
-0.019604634
0.018451666
-0.012598176
0.022882326
-0.0043344009
-0.028087035
-0.016062712
0.017132143
0.017867006
-0.0002768336
-0.0012966123
-0.0078179305
-0.024087321
-0.033240441
-0.010769406
-0.00098407455
0.021304738
0.023507945
0.0014198339
0.029487634
-0.040352434
-0.027041771
-0.014097819
0.026887512
0.011023116
0.020897893
-0.022945462
0.030012207
-0.018466499
-0.023585502
0.01147836
-0.0046292366
0.023739839
-0.029279359
-0.01438099
-0.008271046
-0.02592865
0.0034988455
-0.024922039
0.024941172
-0.02749465
0.0079955831
-0.015876152
-0.021412397
0.0065387883
0.0093308957
0.040756464
-0.038134068
-0.0017184896
-0.0048983442
0.025193203
0.030210635
-0.012583022
-0.026950317
0.016124388
0.020494984
0.025005786
0.02343842
0.020654352
-0.02263451
0.02569541
0.0037614931
0.0011095694
0.019899942
0.0058034826
0.020472227
-0.017503744
0.0097293817
-0.0014483731
-0.0073123542
0.0094125737
-0.00061672227
0.028999714
0.068117633
-0.022235489
0.0028043506
0.017957985
-0.0045422255
-0.020099759
-0.021162847
-0.010049607
-0.031124461
0.028056607
0.0079930481
-0.023492895
0.015391787
-0.0029164818
-0.026921865
0.0077662896
-0.0029668328
-0.022442358
0.0053891162
0.029760445
0.013278706
-0.0071729668
0.0020207989
0.0035157341
0.0087990649
-0.011135376
0.019030662
-0.11252231
0.094717175
0.010318113
-0.060133468
0.0258458
-0.022968147
0.015926432
-0.00441588
-0.011414109
0.020463584
0.0006223009
0.019162497
0.022226347
-0.0037452439
-0.0044134464
0.025823858
-0.015651684
0.027395841
0.030225588
0.015838642
-0.0093337372
-0.025803993
-0.0052481946
-0.012358828
0.01790571
0.019876765
0.012933429
-0.09119013
0.067282535
-0.0036736114
-0.040567469
0.01169709
-0.025971591
0.01405652
0.004714679
0.023021776
0.01806784
-0.012732294
-0.013372159
-0.018323962
-0.029717509
0.021106338
0.023676325
0.032333143
-0.010886996
-0.0072513348
0.021436
0.0064942366
-0.013188992
0.020493418
-0.0064050052
0.0084379604
0.027926201
0.0090397699
-0.02700307
0.066557728
0.014313547
-0.013591347
-0.015745055
-0.023048522
0.030078618
-0.011441444
0.011687394
0.026527435
-0.024952985
-0.020546388
0.025547842
0.016409634
0.0018062802
-0.012901488
-0.027367717
0.0083408961
-0.023505943
-0.033304669
0.0051647043
-0.0085576959
-0.010739816
-0.0053045703
0.027202958
0.012070285
-0.019850438
-0.051266596
0.02084507
-0.008113049
-0.04097756
-0.019120956
-0.026270082
0.014613205
0.022181837
-0.022768438
0.022349481
0.017449697
0.0010144264
0.0052003474
0.014379842
0.0075157648
0.020073524
0.01643756
0.00024089591
-0.0088789389
0.02549208
0.002010969
0.023200152
-0.030038167
0.0016807165
-0.0017533327
-0.0043591484
0.017026184
-2.9069761e-05
0.014567477
-0.0011585639
-0.018833391
0.017184902
0.014205614
-0.0044225398
0.017816154
0.02306672
-0.00065584766
0.0049885279
0.014563301
0.0095929345
0.0013114188
0.0045969621
-0.018018223
-0.031172534
-0.0076266844
0.019901851
0.017991412
-0.022049995
-0.015569569
-0.020245964
-0.029038787
0.020157261
-0.024432123
-0.038074538
-0.0269091
0.019580029
-0.005869729
-0.027032582
-0.0035996572
0.017062275
0.014274531
0.0012774825
-0.0053414321
0.00049080013
0.031082321
-0.013861079
-0.0049787941
0.0025306875
0.02401709
-0.024991451
-0.024114143
-0.0077819121
0.008686251
-0.0071230568
-0.0035555281
-0.035851307
-0.018891748
-0.01450038
-0.023686305
-0.0050633359
-0.012959917
-0.023404114
-0.014450368
-0.004247928
-0.014242898
0.0098906131
0.026832838
0.01031894
0.020023506
-0.015978549
-0.0039163437
0.0082046008
0.019004878
0.023993865
-0.022799486
0.020514555
-0.022898335
-0.0037639481
-0.0094304718
-0.02967179
0.0040054712
0.0021185917
-0.011787293
-0.019364292
0.020250058
0.01893113
-0.021929184
-0.03122036
0.039364602
-0.030083397
0.0053924364
0.0074825515
-0.0017081971
0.0171795
0.015989125
0.006645238
-0.0052980375
0.018638827
-0.021758122
-0.014969404
-0.023242902
-0.003055302
0.022947138
0.024348371
-0.0025138131
0.031649988
0.015393051
-0.0021545228
-0.0022046515
-0.030354995
0.0011994299
-0.029546022
0.0049497238
0.023714842
-0.023539461
0.020182258
-0.022006078
-0.00084248616
0.022089178
0.0089409007
0.010899815
-0.0278362
0.030976137
-0.025983116
0.023149008
0.015298547
0.0099409884
-0.014825682
0.0077797011
0.020232426
-0.00089649821
0.0027863688
-0.010331294
-0.0040947413
-0.00022403369
0.011827244
-0.0050428705
-0.016959284
-0.016075838
0.020072902
-0.01490273
0.010520225
0.07805644
-0.029043749
0.0023499499
-0.010101298
-0.000181747
-0.012200126
-0.0088580176
0.031139784
0.020257808
-0.021838911
-0.025466802
0.01896457
-0.018444628
0.031742979
0.0052664084
0.024651915
-0.012482874
-0.026653402
0.0097544389
0.018107546
0.01039012
-0.029550625
-0.021795869
-0.022032578
0.017252497
0.005809247
-0.012996701
0.1053694
-0.065340362
-0.0090974486
0.027436856
-0.010333524
0.006736178
-0.024278585
-0.0088855708
-0.021966748
-0.016836485
0.0073602339
-0.031252306
-0.013413772
-0.033946898
-0.0072349152
-0.010775976
-0.025079655
-0.029401299
-0.044564761
-0.024978071
-0.0088465735
0.030476451
0.043055393
-0.029683324
-0.0027566177
0.016126221
-0.032974616
-0.0078717526
-0.01137407
0.016356701
-0.033101156
0.0019618846
0.0052300547
0.047839038
0.0012354233
0.0050307144
-0.015861845
0.010314939
-0.017888987
-0.01956626
-0.033898972
0.019128004
-0.015368744
-0.032682903
0.03018173
0.030770786
-0.010296605
-0.025596546
-0.0070574414
0.00055966445
0.00028071424
-0.045299031
0.00082234386
-0.029381217
-0.048274834
-0.00056574401
0.050571188
-0.041562099
-0.0089921858
-0.0017200205
-0.044244718
0.01375733
-0.038256172
-0.0377982
0.002238021
-0.0072109406
0.0070609613
-0.011552329
0.0027114369
0.016445488
0.025510514
0.0053594108
0.005758814
0.0013788752
0.0096557094
0.026681021
0.00022672236
-0.019447478
0.0026902936
-0.031447016
0.013422376
-0.029470198
-0.043395247
-0.0022783861
-0.037200328
-0.022677977
-0.065588512
-0.05219052
-0.00092246704
-0.0027166514
-0.012909844
8.2188322e-05
-0.018950824
0.0038639961
0.05154454
0.026660323
-0.045764249
0.018870164
-0.012577192
-0.047928315
0.034537487
-0.017658895
0.0045553278
0.011151508
0.011325665
-0.035386983
-0.0069710868
-0.02591959
-0.0047521321
-0.014121221
-0.037100382
-0.0054794624
0.020402782
-0.013766125
-0.049011383
0.0056276205
0.001619747
-0.020459866
0.026699085
0.027656317
-0.015207477
-0.014870684
-0.021519613
0.057603482
0.063214533
8.6896303e-05
-0.0016437385
-0.031717345
-0.022382274
-0.029743901
0.0011989771
-0.010764296
-0.030787004
-0.021667287
-0.016480502
-0.044766419
0.011720349
0.0052082217
-0.030103065
0.0012521305
-0.062496319
0.0074100276
-0.024709471
-0.0024053024
0.00032346716
-0.025174076
-0.037170742
-0.053576928
-0.0074204677
0.018398382
-0.028249439
0.010720449
-0.023477843
0.029546816
0.021346623
-0.026966216
-0.02232334
-0.011477359
-0.038232759
0.046456348
0.0069002644
-0.0036266299
-0.04085163
0.012274418
0.011739508
0.0097087016
0.054784585
-0.0031098863
0.0079380162
-0.017543744
-0.015693218
0.038282119
0.039778564
-0.024296338
-0.020031093
0.0016075271
-0.043478161
-0.00072184921
0.030845359
-0.0046284818
-0.026994301
-0.02320748
-0.032849252
0.0057723331
-0.020000428
0.010804445
-0.012360058
-0.0050390209
-0.02226492
0.017906033
-0.0048683328
-0.0028705786
-0.031184189
0.001215398
-0.05796434
0.032699373
0.019817695
-0.013735741
-0.024706563
0.01998174
-0.027079344
0.019710265
0.047582708
-0.011000933
-0.0082137268
-0.011724705
0.019361939
0.029922726
0.018868782
0.017085157
-0.023895407
-0.0069916043
-0.017827462
0.0071022534
-0.02917375
-0.02598647
-0.026934784
0.01109961
-0.032271795
-0.043159984
0.0089710262
0.024473982
0.0050417185
0.017202856
0.0070139039
-0.009249174
-0.011002787
-0.0065807221
-0.017643362
-0.016437259
0.0034406222
0.003015283
0.060716964
-0.022059757
-0.020197757
-0.0067491364
-0.0033690033
-0.0039122496
-0.0096329628
-0.00082444242
-0.035056703
0.014280363
0.018524883
-0.021372113
0.0070652831
0.02748755
-0.029909929
0.00872311
0.022741705
0.024309803
-0.0097967554
-0.015949992
0.0061937994
0.026882432
-0.010655029
-0.03041848
-0.02045018
0.022987584
0.0027314501
0.0092033083
-0.0039436314
-0.028948447
0.012951117
0.027438309
-0.030209316
-0.013578978
-0.017801207
0.053543199
0.033179253
0.016147077
-0.027078606
0.021615215
0.02451879
-0.02293201
-0.041235477
0.024447588
-0.034578316
-0.0063904431
0.041207105
-0.038484931
-0.029580101
0.010935087
-0.031585503
-0.0093806311
0.0051217894
0.0079735955
-0.0041981717
0.018400995
-0.032530889
0.0072386097
0.011623346
-0.033505429
0.0056943875
-0.010457482
-0.019410565
-0.022276567
0.019260434
0.05854135
-0.016483877
-0.013993328
-0.007264764
-0.012366324
-0.0047278074
0.032911882
0.01105306
-0.011564597
-0.033116594
-0.03205166
0.037856743
0.053661954
-0.022644075
-0.012281219
-0.014901971
-0.014681405
0.046050925
-0.030423392
0.022490961
0.003074544
-0.039526723
-0.028365139
0.012922059
0.015215294
-0.0085093062
-0.021841988
-0.040857933
-0.024293372
-0.028960276
-0.0029199759
-0.030163568
-0.0079476805
-0.047373921
0.017180152
0.040647753
-0.0036779642
-0.0020149767
-0.0041402015
-0.011888262
-0.0099621546
-0.006583258
-0.039811488
-0.041697886
-0.0027995994
-0.00074454007
0.023346379
0.016393853
-0.015066829
-0.028523104
0.0012447365
-0.039252438
-0.0042671151
0.0038862764
0.0058168233
-0.027936717
-0.019111974
-0.0083250487
-0.0086623393
0.025935438
-0.034786735
-0.043761551
-0.0071626059
-0.026874114
-0.019857716
-0.019234173
-0.047455635
0.0016465685
-0.010205064
-0.014234191
-0.025217898
0.024723055
-0.021402521
0.0038895176
-0.024344036
-0.011993821
-6.8995585e-05
-0.010185829
-0.025636936
-0.061315153
-0.0046314001
-0.051438548
-0.012362453
-0.0084713437
-0.036092583
0.016396185
-0.014184802
0.0084409453
0.0087712882
0.0040666014
-0.017923173
0.017602835
-0.033261098
-0.0062805731
-0.022594295
-0.017304035
0.050923984
0.013252982
0.022616792
-0.029786875
-0.023855211
-0.029241454
-0.021523364
0.00070870854
0.023516025
-0.028085295
-0.0333395
0.014133597
-0.016706578
0.0027193921
0.013096972
-0.053135116
0.000910061
-0.03463785
-0.043560766
-0.007808893
-0.027373739
-0.027720965
-0.01809698
-0.0075454339
-0.058848619
-0.0065424414
-0.0038414956
-0.041426741
-0.014556866
0.020178456
-0.033722416
-0.03931129
-0.025362827
-0.027583897
0.0078105396
-0.0062199649
0.0057157958
0.01901711
0.0057344614
-0.020247156
-0.019788641
0.0056967223
-0.05085608
0.021368135
-0.020548513
-0.00014649723
0.01279937
-0.0033400105
-0.061510336
0.034897588
-0.021716624
-0.045118764
-0.022931827
5.061907e-05
0.049172662
0.011311486
-0.027842833
-0.02971755
-0.0059268223
-0.017439816
-8.5411979e-05
0.037067402
0.01250658
-0.037701089
-0.014634614
0.0060389577
0.017010322
0.024237297
-0.011270923
-0.043596104
-0.0094996439
0.0064788661
0.026441244
0.002923833
-0.010106697
-0.044922337
-0.015633818
-0.015411815
0.023300171
-0.015441229
0.024251614
-0.039340138
-0.0066390545
-0.025641413
0.028123422
-0.010582222
-0.0046193078
-0.0088326298
0.0061031953
0.0044523571
-0.02865026
0.025081482
0.017609844
0.0013149236
0.02381606
-0.025471095
-0.030892624
-0.010829551
-0.030199807
-0.016013261
0.00079462171
0.0093073985
-0.028392272
0.012946143
0.023092493
-0.018650541
-0.0057946183
-0.021170711
-0.039063483
-0.0060839532
-0.0019283214
-0.010614671
-0.0039777402
-0.013144298
0.026054582
-0.029677279
-0.019230867
-0.042235337
0.0059819501
0.04311822
-0.0054839933
0.027223296
0.003421359
0.0028332169
-0.0039941049
-0.020467918
-0.0050983862
0.039476961
0.024463175
-0.039742161
-0.014915197
-0.028526472
0.018592145
0.0190496
0.025371471
-0.022056557
0.021974243
-0.00260357
-0.017780134
0.015350571
0.01488733
-0.037497859
-0.025218669
-0.019434558
-0.051945604
-0.010128533
-0.015084376
-0.028379051
-0.033633854
0.03253185
-0.033393841
-0.026628954
0.0065980074
-0.00071236363
0.020431209
-0.050789226
-0.049705356
0.014766027
0.017966179
-0.036615644
-0.032207347
-0.033432942
-0.0066042286
-0.022808544
-0.0022432606
-0.0069270604
-0.031258974
-0.0018766602
-0.026341073
0.011736057
0.025597556
0.0062128087
0.022250634
-0.012011307
-0.079131246
-0.040783472
-0.034210343
-0.016146151
-0.0054856902
-0.015689822
-0.0099406922
-0.0092442799
-0.029386291
-0.041700501
-0.0029606232
-0.047503907
-0.02412186
0.013007052
0.025947155
-0.044815045
-0.030312611
-0.053765718
-0.026103115
0.009889964
0.0062660575
-0.0032799444
0.0033612552
-0.015219971
-0.03012998
0.01482751
-0.0037314405
-0.040278126
0.013945262
-0.005137899
-0.030363979
-0.046993539
0.002507532
-0.032646704
-0.0065894816
-0.061667688
-0.04190281
-0.055717673
0.010792901
-0.022614481
-0.021221314
-0.035493281
0.030764583
-0.0089105554
-0.029155068
-0.023435714
0.0043996503
-0.025777256
0.02622902
0.050781604
-0.031467881
-0.046150807
0.0034115124
-0.0027089145
0.0310221
0.0061486922
-0.0062934975
-0.037492782
-0.036550131
-0.027256215
-0.00073258672
-0.013908674
-0.019764258
-0.034960374
0.0020849532
0.013549522
-0.060224637
-0.04238094
0.016096102
-0.043640483
-0.0088814683
-0.029660432
-0.00017842367
0.036272828
0.00017642022
-0.028476918
-0.022203598
-0.024462475
-0.020450797
0.018555196
-0.028613131
-0.016835868
0.0072644367
0.0029098312
-0.023119507
-0.0078886906
0.0018675284
-0.012193104
0.0061641666
0.00340113
0.015934894
-0.0024044884
0.022687662
-0.045763481
0.010103003
-0.0082725286
0.0075487909
-0.021727903
0.0033739477
-0.005329099
-0.028009109
-0.066534296
-0.017112296
-0.0060485722
0.017641444
-0.026267178
0.014343023
-0.022860182
0.016866967
0.0030546836
0.0073304861
-0.0094552245
0.016711121
-0.034030102
-0.0028745066
0.032542255
0.013510787
0.0082285078
0.0040987614
0.0026312147
0.012288319
0.015036807
0.019513449
-0.024882602
-0.0084927967
0.0014626732
0.010960896
-0.036064506
0.0046199169
-0.014471743
0.020897543
-0.0084272213
-0.02205481
0.012038662
-0.027258413
-0.016552139
0.026242428
0.013749172
0.022696637
0.005161175
-0.025488682
-0.041133944
0.02393445
0.019805228
-0.023363283
-0.0070558675
0.016489396
-0.032963
-0.026043793
-0.036291774
0.066046052
0.028763622
0.012900688
-0.010131637
0.021809356
-0.036375739
-0.010572812
0.046962652
-0.0092074573
0.00043207535
-0.0038177171
-0.035659935
0.021856833
-0.015621922
0.025390243
0.0063749412
0.0052592941
0.027529571
0.004706739
0.036211941
-0.014011317
-0.00031588864
-0.028670991
-0.0057216347
0.0051073097
0.0067913728
-0.0032143707
-0.037312284
-0.052824937
0.00087274652
0.085318282
0.0077960361
-0.016180022
-0.0084589962
-0.019920398
-0.029450165
0.0025679409
-0.0061796666
0.016898792
0.031212106
-0.029227657
-0.0086078802
-0.014440721
0.0094840722
-0.0061815265
-0.012099382
-0.019550087
0.028744517
-0.022021471
0.012841048
0.019412167
-0.016644865
-0.012260455
0.03013099
0.0063253995
0.01049556
0.081557475
-0.41195223
-0.23478034
-0.00063258933
0.26942459
-0.27525681
0.13201274
0.39007556
-0.022070307
-0.088618159
0.38306966
0.53936183
0.18058246
0.1094935
0.13516924
0.1782617
-0.21702251
-0.23676741
-0.11029128
-0.25597736
0.028174769
0.16362463
0.15441693
-0.020814173
-1.2985989
0.31354889
-0.05049444
-0.089611538
-0.13172878
-0.057950623
-1.2354481
0.27140683
-0.0084353955
-0.06722369
0.45561463
-0.16677709
-0.083938934
0.28412634
0.52257138
0.093351401
0.09001635
-0.025701892
0.25143483
-0.33902037
-0.6956563
0.31045374
-0.43257964
0.11178039
-0.096424922
0.15297401
-0.16711527
-0.49155992
0.27031457
-0.12062033
-0.033730876
0.26254272
-0.13675562
-0.88376343
0.62990028
0.26256016
-0.3924129
0.46449459
-0.089801416
0.035064444
0.35830593
0.26955935
-0.293075
0.064520285
-0.15051843
0.12537393
-0.11550368
-0.3899667
0.14288005
-0.53284812
0.16866997
-0.10170887
-0.10298714
0.043071471
-0.46063387
0.13014281
-0.019962102
0.035316288
-0.018097091
-0.058800533
-0.84907252
0.42118376
-0.043495603
-0.10507458
0.27430624
-0.15106563
-0.2894716
0.21426922
-0.046526674
-0.11117874
0.061726861
-0.032328825
-0.042176507
0.081620276
-0.063012533
-0.16891098
-0.52839142
0.19962487
0.31287026
0.21982174
0.33118674
-0.62346584
0.0019925123
-0.055494562
0.12405121
-0.42822397
-0.67282605
-0.9142592
0.26517949
-0.16731708
-0.12454613
0.21258138
-0.5142473
-0.22018218
0.0057569505
0.4405117
-0.17842375
0.29933664
0.080257222
0.15494934
-0.041825861
0.40729117
-0.18729046
-0.57237643
0.15698053
0.16457325
-0.048724566
0.61287093
-0.96401942
-0.12779312
0.18561824
-0.057278764
-0.34070987
-0.54600549
-0.83497924
0.13395132
0.34642151
-0.23933899
0.30286476
-0.1077953
-0.12218659
0.29788494
0.38396859
-0.23266338
0.10388385
-0.22508031
0.38930073
0.044063427
-0.10162605
-0.31825575
-0.33731374
-0.075361133
0.47281516
-0.50343293
0.29996163
-0.76145393
-0.12619002
0.23466797
-0.044081647
0.31152824
-0.11498195
-0.66584045
0.0053478898
0.2123228
-0.0096846987
0.10862201
-0.20749792
-0.071077317
0.78283209
0.51476192
0.0094279507
0.17548957
-0.12651874
0.10726488
0.19802998
-0.080456115
-0.55431718
-0.69159526
-0.16726054
0.32113272
0.32657647
0.035616044
-1.1428695
-0.71252871
0.11560857
0.45724913
0.35753846
-0.21055228
-0.51864862
0.49033692
-1.0079571
-0.299941
-0.09130843
-0.053596709
-0.14802888
0.023059882
-1.3792697
-0.54644769
0.86745274
0.98408002
0.098512217
0.46727365
0.32558036
-1.0917163
-0.31438795
0.26335555
1.1198165
0.14199506
1.2159936
-2.0582876
-0.65538454
-0.58537781
0.55312359
1.4397237
0.051280588
-0.0067743715
-0.17260142
0.086086273
0.12399105
0.46820542
-0.21219043
-0.14454904
0.49574605
-0.30480546
-0.06170677
0.11008982
-0.31650871
0.51012647
-0.15992115
-0.17926721
0.63823432
-0.31624997
0.072516412
0.28716049
0.39160103
-0.20781042
-1.9234571
-0.31844825
-0.22160287
0.054356325
0.36800802
-0.61132973
-0.0098360172
0.25273469
0.14437808
0.30204326
0.22305943
-0.17097317
-0.087450899
0.43875313
-0.03714614
-0.22788051
-0.091580234
-0.15006016
0.048106857
-0.20689337
-0.49070102
0.28257811
-0.11875844
0.21759324
0.25654814
0.15207984
-0.1079162
-1.5644528
-0.52442306
0.26611763
-0.27322325
0.47417352
0.1484313
-0.024652457
0.25767112
-0.061166234
0.17092764
0.19871622
-0.11038338
-0.33600006
0.050970819
-0.051165514
0.032877307
0.1845697
0.28568259
-0.30947623
0.070061237
-0.2650612
-0.17606808
-0.22669372
0.098044626
0.39854065
0.20288092
0.068033822
-1.4387419
0.0020568876
-0.27484977
-0.40885115
-0.32610133
-0.43196014
0.019774003
0.072601587
-0.15369646
0.22939795
0.06843406
-0.16473204
-0.039067186
-0.10021725
0.58472675
-0.28299743
0.084945239
0.30604818
-0.36491674
0.16408773
0.45283389
-0.024092067
-0.57693583
0.1300749
0.082257122
-0.0025876081
-0.046677385
-1.2486287
0.04447712
-0.34252352
-0.3976512
0.0066267434
-0.82703745
0.0065921023
0.060592655
0.25062314
0.14116167
0.29645401
-0.14377224
-0.10603715
0.34886658
0.21584283
-0.26449102
0.52354467
-0.34959275
0.065631889
-0.062041476
-0.13465644
0.01368835
-0.4098244
-0.20971711
0.033511966
-0.3653127
0.085326895
-0.97926611
-0.19519512
-0.11066838
-0.31254351
-0.014418222
-0.28158545
-0.028118104
0.10075034
0.096908838
0.078746997
0.52816218
-0.13964239
-0.091696642
0.35094845
-0.098323174
0.1149061
-0.085495062
-0.3455829
-0.2204072
0.03511991
-0.29194352
-0.16587551
-0.28465167
-0.012371989
-0.079776645
0.03928446
-0.047531381
-0.49252671
-0.26048774
-0.069357857
-0.35862374
0.33044875
-0.033161331
-0.019680327
0.56004107
-0.10532927
-0.16437446
-0.20385507
-0.12882237
-0.13717189
0.17408019
0.27658531
-0.019478789
0.058985155
-0.13819379
-0.32611781
-0.014928007
-0.16086639
-0.032697476
-0.053381309
-0.079080507
0.0087852282
-0.28118163
0.30066481
-0.36472315
0.058028162
-0.20010163
-0.64311314
0.18847057
-0.57220221
-0.079414412
0.30486062
0.10376091
-0.28286019
0.25367236
-0.30325106
-0.0054991771
-0.0065180562
0.066311523
-0.085267827
-0.25988305
-0.13192932
-0.051613033
-0.056566074
-0.067654356
-0.057924282
0.012606228
0.29848677
0.18591301
0.17727207
-0.01648224
-0.77886128
-0.25840279
-0.82239789
0.31429061
-0.15365747
-0.83565336
-0.031772796
-0.030789966
0.47169343
-0.11949745
0.051022269
-0.29501337
-0.040434349
0.15276411
0.069382086
-0.14719142
-0.31201953
-0.035075873
0.2406328
-0.23121431
-0.17157933
0.047494665
-0.39475054
0.12854482
0.0064300625
0.061318334
0.1884319
-0.59108841
-0.5276286
0.0518759
-0.20430362
-0.26725951
-0.3370955
-0.027080759
0.12243482
0.1353395
-0.21984006
-0.16417767
-0.19845586
0.3750087
0.23537622
-0.42086965
0.1589193
-0.48730963
0.021032432
0.14569603
-0.19654132
-0.042738438
0.2404274
-0.5034188
0.17549354
-0.029563218
0.35900462
0.057768088
-0.68929911
-0.69795108
-0.0032901319
0.070169635
0.21008365
-0.39114577
-0.025740739
0.079389952
0.3918196
-0.11829335
-0.006877488
-0.38074756
-0.024728511
-0.097510129
-0.29787755
-0.045344185
-0.44234228
0.28128281
0.14508288
-0.17502645
0.033543162
-0.11324831
-0.24942264
0.21256579
-0.17873949
0.49490249
0.034856394
-0.51920849
-0.1802884
-0.32817197
-0.11052935
0.49730361
-0.69597095
0.01313551
0.027027508
0.53780842
0.30794927
0.32003006
-0.42575967
-0.42673603
0.26080269
-0.13304731
-0.053722814
-0.60147041
0.21050659
0.21422024
-0.33673492
0.075213656
0.10023821
-0.72526926
0.16054928
0.27922052
0.10214584
-0.064189754
-0.71419448
-0.55426276
0.21579447
-0.40782452
0.83477813
-0.32407966
0.011961871
0.054739889
0.41230342
-0.028125489
-0.05212152
-0.13459513
-0.086560436
0.15817884
0.19723183
0.10928887
-0.41996619
-0.11958171
0.07919953
-0.060783703
0.1257665
0.20254055
-0.64917368
0.19235723
-0.026290968
0.066193856
-0.082957894
-0.79052442
-0.28905115
0.29391459
-0.77269959
0.7373845
-0.55421799
-0.026146965
0.31892055
0.60285199
0.052703898
-0.35557675
-0.30212682
0.071876831
0.36528787
-0.04976128
0.15931158
-0.16697621
-0.23269275
0.50559074
0.036131103
0.28214186
-0.34009361
-0.82440364
-0.2729533
0.1986012
0.36595422
-0.47850737
-0.80110157
0.094607912
-0.37888974
-0.39327267
1.032513
-0.33970028
-0.029660897
-0.25147653
0.15915418
-0.42746118
0.062898636
-0.015761778
-0.069896646
0.58135343
-1.3704233
0.072222583
-0.10894518
-0.15450683
0.62548071
0.37118214
0.6338945
-1.2669364
-0.42406952
0.0055440241
1.0123471
0.39803967
0.18169035
-0.95699501
-0.28402859
-0.71401668
0.15678354
6.1505609
1.4260141
-0.0059834677
-0.49615964
0.61581385
0.1025769
-0.052596614
-0.23376729
-0.057734106
0.30184889
-0.79084617
-0.06547454
-0.090135023
0.026099838
0.48535159
-0.07602749
-0.069599524
0.50936836
-0.51291901
-0.33651224
0.3656587
0.38427973
-0.1796125
-0.30588907
0.16523096
-0.21883094
-0.30501708
1.5776877
-0.013880305
-0.44586033
-0.042336382
0.363886
0.084193118
0.11886296
-0.23758201
0.01570821
0.44092467
-0.42214382
0.04685805
-0.23126958
-0.39017925
0.13621409
0.091191322
0.25441435
-0.68915313
-0.44149274
-0.18777154
0.30748308
0.59100097
0.079393961
-0.47322917
-0.20673841
0.12229309
-0.40455887
0.62738651
-0.52785951
-0.39503714
-0.23545797
0.38676974
0.060230687
-0.063323773
-0.23914261
-0.016088314
0.20016789
-0.41125306
0.042523675
-0.29218209
-0.3287074
0.20507057
-0.033283729
0.44213274
-0.15535769
-0.38294923
-0.13652417
0.31811532
0.69236374
-0.20692724
-0.44805056
-0.44164395
-0.28419361
0.28947935
0.51561052
-0.8920024
-0.32780394
-0.34905928
0.46183047
0.046988554
-0.13583228
-0.077329725
-0.061392736
0.19451618
0.09520191
0.10001309
-0.20000759
0.017962659
0.10193463
0.18879874
-0.0092569571
-0.23375405
-0.39962566
-0.19951904
0.15110065
0.60794789
-0.30029854
-0.48943359
0.010277327
-0.40075547
-0.080798797
0.49594018
-1.0813347
-0.35534808
-0.055949852
0.409179
0.048561316
0.10636438
-0.13372357
-0.016214782
0.31188497
0.057918075
0.043688949
-0.26672652
-0.26867741
0.27308366
-0.26317379
0.1219409
-0.07873822
-0.27635032
0.03968896
-0.080357149
0.31385079
-0.066557139
-0.58365864
-0.20897132
-0.3704063
0.31138259
0.29237291
-0.52139568
-0.60455579
0.28925139
0.49661821
0.32670847
0.26217619
-0.2103959
-0.14203428
0.18275467
0.1872583
0.091811024
-0.47398153
-0.46473539
0.11992294
-0.23468947
-0.019181697
0.073339529
-0.12626578
0.37293249
0.053703025
0.25514153
-0.22762956
-0.90469736
-0.0090511283
-0.20393427
0.025109837
0.037460294
-0.60815656
-0.85499442
-0.12956494
0.29084474
0.2616007
0.22099711
-0.061191704
-0.2754052
0.37527835
0.16195142
0.37186164
-0.11614019
-0.059164084
0.059234049
-0.081142507
-0.17951059
0.26247245
0.088646568
0.36185026
-0.019524973
0.33788604
-0.30923867
-1.2500422
-0.18926591
0.34053698
0.04113017
-0.0078536384
-0.46395817
-1.3324538
0.34178025
0.04063471
0.013791033
-0.093599088
0.057315439
-0.32322457
0.12778814
-0.070294902
-0.41990811
0.060338903
-0.039786208
-0.16476366
-0.14184859
-0.17997794
-0.0003226109
-0.24659793
-0.18295842
-0.30569592
-0.03172962
0.47475904
0.15100475
0.078060314
0.2534045
-0.70003343
-0.11497445
-0.68259412
-0.036716226
0.22707912
0.19946364
-0.033376984
-0.3208546
-0.14119017
-0.49248773
0.20370901
-0.33309171
-0.44138843
0.13672175
0.098741472
0.054490689
0.023743439
-0.076715298
-0.063172579
-0.54179591
-0.0017473983
-0.1836372
-0.068191975
0.34805292
0.38536596
0.15389423
-0.16916315
-0.35464904
0.080518708
-0.48275876
-0.048308808
-0.04714622
0.19039623
-0.25333849
-0.15147755
-0.12384412
-0.23960829
0.27047735
-0.1642316
-0.092443042
0.14871489
0.0085429391
0.051805798
-0.17698047
-0.064826041
-0.084088534
-0.22251691
0.17093097
-0.32660294
-0.093669459
0.26380461
0.11751512
-0.10109919
-0.40370044
-0.13647445
-0.089021415
-0.39552385
-0.03036676
0.15407494
0.054670017
-0.24015501
-0.30842268
-0.20211022
-0.26767278
0.11190665
-0.22132225
-0.0080474578
0.36171272
-0.031794328
0.13860853
-0.10255023
0.012611488
-0.23091617
-0.14399374
-0.028935889
-0.3781262
-0.29025111
0.47133046
0.306422
-0.1794783
-0.29602695
-0.16180643
-0.16505443
-0.49789533
-0.001130839
-0.050647277
0.42955247
-0.4875721
0.10602141
-0.17384723
-0.16444008
0.087219402
-0.2566756
0.093539946
0.20283945
-0.074968457
-0.021480827
-0.028945407
-0.28221098
0.20991918
-0.13257153
0.10212792
-0.51846385
-0.25651711
0.11572669
0.29937658
-0.017534701
-0.27860311
-0.328731
-0.18993978
-0.25110009
-0.0016685867
-0.38113478
0.27570939
-0.27251995
0.040222403
-0.20154706
-0.0045490032
0.14234057
-0.081674777
0.081102863
0.34395915
0.1612411
-0.20796955
-0.053174496
-0.2463769
0.081872903
-0.42040175
0.1608588
-0.44268659
-0.026979897
0.12332038
0.089288913
-0.19683337
-0.12116481
-0.24329242
-0.092485502
0.19275132
0.0099438699
-0.3220695
0.31765804
-0.26880687
-0.034330346
-0.14196199
-0.25947109
0.081704468
0.012306447
-0.2344024
0.42067087
-0.034887861
-0.17363815
0.041619428
-0.36353201
0.20490162
-0.43112057
0.13069341
-0.085824095
0.012278534
0.14769888
0.16948214
-0.30063781
0.058982022
-0.24396545
-0.3468605
0.14352642
-0.025032839
-0.049873956
0.19921936
-0.3777667
0.17165138
-0.183259
-0.43898985
-0.12991877
0.18342157
-0.2600745
0.48974574
0.059272401
-0.3679606
0.11879907
-0.35683438
0.29720211
-0.28480685
0.12539686
-0.3244257
0.10809112
0.19390598
-0.1027138
-0.19949691
-0.13570516
-0.32626531
-0.45448646
0.14881358
0.029854422
0.056535233
0.1251802
-0.39492139
0.0361549
-0.249686
-0.43968338
-0.048927326
0.10850279
-0.28284308
0.12091307
0.050131541
-0.10362051
0.19911681
-0.28245041
0.15572351
-0.11874065
0.099320285
0.10823393
0.066995308
-0.033485081
-0.066436321
-0.31785056
-0.23010617
0.03390703
-0.33474731
0.18069853
-0.019455325
0.162174
0.25899467
-0.23449437
0.12626722
0.029945694
-0.43943235
0.001923584
-0.20218502
-0.26524997
0.30148646
-0.33845749
-0.21303706
0.013837891
-0.099005595
0.13194688
-0.34077576
-0.058164313
0.18954323
0.22573915
0.025801703
-0.18278746
-0.3219426
-0.32842958
0.21811235
-0.54449916
-0.19974323
-0.026304474
0.11897758
0.04167835
-0.39352375
0.42239916
0.011508073
-0.25595465
0.1681077
-0.11244667
-0.066636421
0.14837709
-0.22256325
0.031033987
-0.11612625
-0.031348258
-0.011550697
-0.1274031
0.050970268
0.082944773
0.12103476
-0.064448386
-0.57650852
-0.077545203
-0.64989197
-0.011400778
-0.22211456
-0.4718886
-0.062551811
-0.14310774
0.12417009
0.39196128
-0.014445052
-0.0021277871
0.3009285
0.03902445
0.18660776
0.3564122
0.11982626
0.047338132
0.17067897
-0.073987097
0.01192271
-0.12333043
-0.10641259
0.081732079
0.28630599
4.4714634e-06
0.29690403
-0.29467371
-0.19569682
-0.1247912
0.21144426
-0.058015909
0.12155981
0.066284113
-0.50236917
-0.20590504
0.12799007
0.33820221
0.21501607
-0.32369387
-0.20302883
0.1703382
0.031154003
0.097123809
0.24407919
0.21685681
-0.17916611
0.03611505
0.14639582
0.05776576
0.15520853
-0.072325282
-0.42298198
0.032058869
0.094219372
0.096909598
0.16266711
0.040955137
-0.19569647
-0.00071266841
0.086749114
-0.087417126
-0.094192453
0.12105458
0.029541114
0.0012451119
0.12679507
-0.14427908
0.050814353
0.038222916
0.086990453
0.060339015
0.22929318
-0.010505468
0.058305033
0.075876839
-0.091849215
-0.18934199
0.0047175023
-0.09082894
-0.068140849
0.3874504
-0.20990345
-0.26462692
0.11131355
-0.035108361
-0.079160117
0.35530871
-0.20420422
-0.0032280826
-0.042486165
-0.071332805
-0.041974895
-0.12056233
-0.43373924
-0.15767768
-0.03512672
0.064428329
0.011270203
0.18856741
-0.29400995
-0.17013629
0.0045874524
0.035860181
-0.29958698
0.34455261
-0.17391746
-0.45703509
-0.34171546
0.021039732
-0.046908099
0.13428986
-0.34899136
-0.17134312
-0.025393801
0.11044936
0.011541544
-0.13196756
-0.48694363
0.0051410082
-0.13755922
0.076312006
-0.1038759
0.035740349
-0.30508205
-0.2948955
-0.081475317
0.066437982
-0.10597843
-0.077951983
0.12747861
0.018035656
-0.0030689014
0.094689906
0.059688918
0.092547864
-0.42871651
0.21713853
0.097810805
-0.18106048
-0.0054062125
-0.14484222
0.021285515
-0.21406311
0.0055183847
-0.16275963
-0.025723424
0.032827429
-0.091533326
-0.087579489
-0.043842126
-0.16938913
-0.11622658
0.053136118
-0.066509746
-0.35182929
-0.022685513
-0.060664054
0.055560093
-0.36676106
-0.1995739
-0.06222973
-0.018503524
-0.21794473
-0.20052062
0.14786759
-0.53804982
-0.019644609
-0.1175269
-0.11487833
-0.40689659
0.15364034
-0.35230926
-0.59485328
-0.64890093
-0.15070403
-0.19974916
0.10255704
-0.28935444
-0.05087829
-0.25968438
0.13637269
0.14334966
0.013826843
-0.05405784
0.011382617
-0.16600218
0.01019823
-0.071884982
0.34264672
-0.26932737
-0.069858432
-0.045461398
0.099890947
-0.054724962
0.055671625
-0.08918
-0.33044878
-0.04293333
0.1247806
0.101299
0.051944561
-0.36539394
0.18805523
0.14187548
-0.1481335
0.15952669
0.21665724
-0.13911378
-0.15808637
0.089528427
-0.10116035
0.098649733
0.14003353
-0.43012089
0.081289791
-0.15952899
-0.040689766
0.061194204
0.52896535
-0.020413896
-0.14721423
-0.22577266
-0.25511399
0.053595632
0.22619548
-0.57022518
-0.23889226
-0.039083086
0.0068155881
0.047955833
0.12617452
-0.18558821
-0.21059488
-0.13729994
-0.17129326
-0.33448854
0.58317679
-0.44393727
-0.94824851
-0.72330505
0.07879331
0.095519118
0.038813263
-0.10481774
-0.31386155
-0.19642974
0.079779699
0.16123623
-0.10453553
-0.12404527
-0.49034715
-0.091324799
0.17263316
0.19567452
0.17589813
0.083377056
-0.42376798
-0.21809879
0.1461181
0.12056197
0.1617258
-0.28215089
-0.50651431
-0.14991678
0.16302942
0.2695356
0.12957443
-0.29268211
-0.33868802
0.092216618
-0.1238979
0.14931515
0.21421617
0.075206608
-0.16748141
0.1289003
-0.015793808
0.18613781
0.35084915
-0.18651989
-0.15995526
-0.096610829
-0.10454652
-0.025076093
0.73282534
-0.41882899
-0.20595887
-0.20170163
-0.014404427
0.17390276
0.18581349
-0.26794937
-0.06268277
0.0040191873
0.041073829
0.10552501
0.089048281
-0.057465155
-0.12012177
-0.074395552
-0.43855765
-0.58883131
0.39080989
-0.18909556
-0.96745002
-0.87166452
0.015968611
0.0018812796
-0.12686107
-0.1927028
-0.35935751
-0.28102961
0.11475924
0.20112191
-0.18273056
0.0063317367
-0.31257814
-0.24045914
-0.057178751
-0.018711224
0.48726654
-0.64140528
-0.19883406
-0.21832515
0.20420039
0.13766885
0.44111198
-0.047955733
-0.11948716
-0.052619115
0.26846561
0.39835638
0.38149309
-0.41197714
0.31863767
0.14645666
0.38155812
0.087329984
-0.24289078
-0.37067255
-0.44634205
-0.29588476
-0.31253552
-0.29685485
0.48314828
-0.56346947
-0.86361712
-0.71121782
-0.23562616
-0.31746858
0.58981013
-0.58528233
-0.81924492
-0.83379185
-0.18670478
-0.20208944
-0.051943716
-0.5115236
-0.82720774
-0.88363814
-0.54844403
-0.68434906
0.22692874
-0.13527314
-1.0465653
-1.2069
-2.0635481
-2.3352625
1.9626689
-0.18244904
-3.6474349
-3.517575
-0.41969702
-0.72892123
-0.038265541
-0.45370287
-1.2379543
-1.2743164
-0.0011363936
-0.30301589
0.013329626
-0.29116529
-1.2431599
-0.92176169
-0.099843837
-0.46812057
0.10617769
-0.13170415
-1.1935123
-0.89728189
-0.040187754
-0.4131892
-0.12212314
-0.51782984
-0.66873479
-0.67548168
0.3096416
0.090771884
0.056312386
-0.33930424
-0.1266944
-0.18004525
0.21083003
0.22969389
0.200039
-0.25749639
-0.1553327
0.18254992
0.063065007
-0.018304883
0.16507298
-0.19567394
-0.43595499
-0.095720053
-0.24252611
-0.0092311725
0.30668139
-0.26677215
-0.14160034
-0.33648902
-0.11957092
0.17724913
0.022278046
-0.046798803
-0.35222387
-0.26665527
-0.092363834
0.0007918491
0.23312663
-0.34650138
-0.11287627
-0.42250943
-0.7865237
-0.83636457
0.35754505
-0.52832317
-1.3089123
-1.1841445
-0.11488946
-0.027837165
0.26806638
-0.17346066
-0.25392482
-0.26656514
-0.090062782
0.080897354
-0.21235561
-0.088971175
-0.49813589
-0.18325946
-0.21702202
-0.16129637
0.2344401
-0.15404955
-0.055075388
-0.20100732
-0.086258136
-0.082861118
-0.061005726
0.038534027
0.089363456
-0.15858459
-0.072648905
0.14177832
0.20121929
-0.38090235
0.135267
0.082242332
0.22524148
0.24381389
0.20551252
0.1109449
-0.010532363
0.14957026
0.12646067
0.074143432
-0.065605968
-0.17304578
-0.27787128
-0.15240784
0.27422759
-0.10368267
0.26033235
-0.27367592
-0.34971106
-0.29809266
-0.13035038
0.08823213
-0.027205477
-0.26429623
-0.22846878
-0.34863093
-0.11039024
-0.060802184
0.17288968
-0.16364788
-0.2558645
-0.38349378
-0.34462342
-0.4830415
0.32171082
-0.468941
-0.70056427
-0.93130916
0.10776621
0.044158697
0.12273823
-0.25620201
-0.36095229
-0.3084783
0.025359249
0.089617789
0.0042068646
-0.10383304
-0.45882714
-0.11290281
0.00068367785
-0.07760717
0.44788212
-0.51955295
-0.075546786
-0.12475762
0.04432793
-0.042540681
0.36949056
-0.24668001
-0.056850381
-0.13591632
0.10994701
0.16687936
0.20111579
0.052600849
0.26059201
-0.044023275
0.14868376
0.21327779
-0.06312871
-0.17736459
-0.17334254
0.02645416
-0.064901508
-0.05452282
-0.29102981
0.055711698
-0.439603
-0.21313472
0.0041585169
-0.10085656
-0.17855543
-0.10017967
-0.08716628
-0.1903349
0.30872762
0.13443202
-0.36195192
-0.31331462
-0.34195274
-0.15239395
0.22550042
0.24970217
0.067641228
-0.33038974
-0.23055087
-0.31785539
-0.072746173
-0.29634631
0.48233461
0.19126396
-0.58814847
-0.7830438
-0.0048788828
-0.0056159482
0.092372872
-0.36038068
-0.30755109
-0.14473511
0.21481517
0.24129112
0.014711929
0.12738895
-0.24061748
-0.0055890288
0.12279388
0.044439491
0.00068364153
-0.032540418
-0.10622558
0.015897861
0.066567048
-0.047194485
0.3886964
-0.045157999
-0.053275909
-0.066755161
0.023123963
0.099253975
0.29045206
-0.13365509
0.26852939
0.076939218
-0.080192074
-0.0089721987
0.052137531
-0.25335956
-0.12206724
0.0076491386
-0.07908725
-0.09707199
0.093862921
0.19558147
-0.39835861
-0.09461017
0.028998243
-0.10313605
0.21114334
-0.14793882
-0.45370325
-0.096525021
0.17189237
0.092149705
0.049522404
-0.50704831
-0.31975171
-0.18587002
0.24334945
-0.10952333
0.33991987
-0.10430234
-0.23248591
-0.13258396
-0.23865378
-0.42371774
0.42986849
-0.36433989
-0.60022134
-0.58547705
0.1025893
0.079673126
0.0021348628
-0.016912075
-0.20352013
-0.10493951
0.011497106
0.0044562356
0.075099491
0.16479588
-0.37990892
-0.093299665
0.075053416
-0.10793904
0.12201467
0.020302476
-0.069192909
-0.029050678
0.0088217901
-0.1486378
0.20242693
-0.067299172
-0.16617002
-0.054744586
-0.1225749
-0.10801163
0.1310344
0.0054081846
-0.090794079
0.093890049
-0.21665502
0.12266175
0.2385067
0.2987338
0.046654273
0.12635835
-0.1889884
0.055327658
0.10906345
0.077564254
-0.1069247
0.085806809
0.031564601
0.076199204
0.024852933
-0.24984971
0.062954076
0.21210615
0.046850462
0.20774403
-0.070114009
0.22747198
-0.10705144
0.038181636
0.26917762
0.13887638
0.22768003
-0.081512205
0.17351894
0.12131571
0.53496546
0.18875189
0.043681234
-0.057087317
-0.45842049
-0.097627923
0.20770785
0.33976877
-0.27929553
0.14610106
0.23092388
0.087662905
-0.027041772
0.21110164
-0.022690855
-0.18176693
0.028540157
0.024728021
0.0056545474
0.025115939
0.058762297
0.12061194
0.045690574
0.1334776
0.016296765
0.028358508
-0.049568262
0.011088911
0.23111881
-0.074656688
-0.12563278
0.11951055
0.20485277
0.09656094
0.11732228
0.23204234
0.01568391
-1.5707968
-0.9992457
-0.7937386
-0.5582087
-0.45175439
-0.16855027
-0.12410516
0.07151407
0.07704071
0.51908505
0.57742876
0.31849927
0.18253951
-0.26858017
2.155843
0.29777759
-0.031620219
-0.23361872
0.050046828
-0.22800229
-0.36876094
0.13355364
0.12229934
-0.057067111
-0.10101816
-0.052783843
-0.1401819
7.124072e-05
-0.070841677
-0.066686086
-0.60579926
-0.13506983
0.029316293
0.026463648
-0.061279844
0.52165854
-0.94077122
-0.16795272
0.44757763
-0.98652011
2.9346766
0.69776678
-0.12156484
-1.4392984
0.0019167301
-0.0065707015
0.020669237
0.011963109
-0.059483297
-0.051052418
-0.034132522
0.00097098341
-0.069208205
0.041302346
-0.011527751
-0.021367215
0.051324692
0.087697335
-0.02018816
0.0061658737
-0.0296409
0.0052330708
0.030183414
0.063532136
0.17224178
0.12903628
0.043151252
-0.078097112
0.10295096
-0.045901202
-0.043138087
0.0058448501
0.02003628
-0.031753011
-0.028526014
0.017191542
0.0067019267
0.0088227754
-0.044411596
-0.013984615
0.087649345
-0.029022504
-0.012694671
0.01810986
-0.01425907
-0.03671534
-0.022651864
0.033584312
-0.0083140386
0.026566815
0.10248443
0.13180928
-0.073457308
0.14289889
-0.042086501
0.038686823
-0.079301789
-0.014120804
-0.081412509
-0.01889688
0.0085694026
0.018701067
-0.020263491
0.030003672
0.012171727
-0.033283509
0.022891536
-0.020350082
-0.048255656
0.011219627
-0.052837197
0.038353771
0.01284405
0.081107281
-0.015594771
0.027406486
0.0044552968
-0.022095898
0.12826456
-0.067375258
0.15559684
-0.049058527
0.060889404
-0.028832993
0.0019485966
-0.041420456
0.060073189
-0.062369704
-0.090764545
-0.029427171
-0.0088007422
0.042399585
-0.075524129
-0.016838351
0.01458519
0.0663983
-0.019918101
-0.020967767
0.050723098
-0.039029829
0.04530751
0.080075495
0.043483421
0.036878914
-0.032904014
0.08392787
-0.11719905
0.16894564
-0.038258832
0.032793541
-0.019689405
0.029327279
0.0071313074
-0.023706933
0.015658421
-0.11532715
0.02543742
-0.0036134864
-0.071731076
-0.033070318
-0.026577789
0.0044203671
0.066631749
-0.0002691735
-0.030344075
0.0032459851
-0.037700791
0.098692223
0.017666999
-0.017063534
-0.017295398
0.036851659
0.17700431
-0.0049244622
0.12686662
-0.066565327
-0.073768489
-0.1192501
-0.019688584
-0.041309357
-0.03406655
-0.025841014
0.010631825
0.014045979
-0.010116157
0.0022960273
-0.013990986
-0.035632852
0.0081371227
0.077190571
0.0021708899
0.03455412
-0.025578402
0.055090182
0.05187678
0.076989301
0.021043036
-0.024288876
0.031170161
0.099922344
0.042263262
0.10239638
-0.071848303
0.051901881
-0.084073208
-0.073106997
-0.040153358
-0.02993262
-0.024551837
-0.0052257525
0.016802641
-0.024101822
-0.065653153
0.043359563
-0.030196561
0.01726741
0.037488814
-0.0098402994
0.026792299
-0.0052590617
0.084123075
0.067800507
-0.029321235
-0.0009280424
-0.069207236
0.01440546
0.087788537
0.0079815593
0.16502619
-0.13726684
0.049463168
-0.049484961
0.0087280078
-0.059152983
0.051646065
0.020282216
-0.049728356
0.029138917
0.0064716991
-0.0033211375
0.10599078
0.064693302
0.073960312
-0.067525841
0.032836154
-0.035812434
-0.007592354
0.06843783
-0.045995116
-0.027324945
-0.0076546883
-0.0068527875
-0.06471166
0.12312897
-0.02359703
0.21155019
-0.17823543
-0.29846334
-0.17401084
0.0017118327
0.018705994
-0.044451986
0.01370201
-0.068647943
0.058273531
0.020204373
-0.053783819
0.032093648
0.045422465
-0.016449243
0.05806908
-0.020742929
-0.016232792
-0.0013082053
-0.030947857
0.012224725
0.0078925593
-0.030726558
-0.021792121
0.050408065
0.13066389
-0.03349245
0.16791141
-0.11154487
-0.086480096
-0.080968007
-0.013172277
-0.015999643
-0.065408722
0.04659852
-0.022654699
0.00013618062
0.014703096
0.0039502666
0.0072705345
0.012783818
0.031403627
0.024194811
0.024074774
0.020648876
-0.013678106
0.019476984
0.00037134523
0.052617714
-0.038813554
-0.073323503
-0.02096694
0.042232435
-0.12288556
0.20974281
-0.076094791
0.11978164
-0.057834119
0.02012372
0.044552047
-0.0092467982
0.0064199255
0.0079111271
-0.032507461
-0.016703393
-0.0052115065
-0.02049027
0.035849143
-0.0087945051
-0.073946916
-0.036660694
-0.038114857
0.063396432
-0.035139166
0.054375891
0.073554635
0.0032786096
-0.027976466
0.040919781
0.095802858
-0.09732601
0.1397962
-0.0054675248
0.03634892
-0.00045697441
0.0092777582
0.05185416
-0.017604562
-0.053940848
-0.027702652
0.06192496
0.036033832
0.020490279
-0.020235935
0.010659344
-0.0055391192
0.034990858
-0.014907973
-0.006695292
-0.049457282
-0.00010379
0.057344351
0.019229863
-0.00043239593
-0.0032309778
0.026079219
0.069749214
-0.15275045
0.14589883
0.031514928
-0.11802913
0.043291807
0.0039624185
0.049583074
-0.033880576
-0.029005943
-0.019763174
0.014549709
0.069989465
-0.056206606
-0.073009185
0.033032198
0.059498537
-0.0055085109
0.040093984
-0.019945877
0.047757134
-0.055874724
0.051369559
-0.053602953
-0.030116061
-0.015814571
0.058147959
0.077408209
-0.21700966
0.1844376
0.088242218
-0.053865984
-0.023536159
0.012578888
0.0098122517
0.042910438
-0.022320395
-0.0043981085
0.040234189
0.091757938
0.028793721
-0.074020378
-0.016097885
-0.015102093
-0.080144368
0.072474338
-0.059764292
0.0036029206
-0.0085091619
0.029212791
-0.015253743
-0.01288201
-0.0021550844
-0.067478403
0.038539547
-0.22848815
0.16664417
0.1134633
0.11165509
0.028759329
0.029100025
0.054128297
0.044548333
0.0034831986
-0.020867247
0.025573513
-0.0036012598
0.01785188
-0.0077795708
0.041180924
0.023142291
0.0022857811
0.046713825
0.0049217246
0.022043049
-0.077165693
0.0020174396
-0.0040520276
0.014854362
-0.017758906
-0.021983169
0.03102774
-0.1354551
0.21921037
0.021949735
-0.040619008
-0.036597107
0.038253501
-0.0096722869
-0.0063800514
-0.009978869
0.035367869
0.025095612
-0.039712351
-0.002886513
-0.1288211
0.019887378
0.0010410126
0.0077043478
0.030951746
-0.035048615
0.08946906
-0.024511373
0.073031805
0.0068178503
-0.025241548
0.045359612
0.027413001
0.046609871
-0.19064842
0.089288615
0.057176787
0.00073584827
0.036354873
-0.015475917
-0.059251565
0.025148101
-0.043033414
-0.025803057
0.0035611796
-0.0078181839
0.0306352
0.082097478
0.029584907
0.017709171
0.021512209
0.067096598
-0.025464339
0.053096294
-0.02923518
0.0013164427
-0.048414256
0.0072139855
0.011125598
-0.050835878
-0.020168865
-0.047305804
0.058903567
-0.011160155
0.11171898
0.03378965
0.008618216
-0.010193282
-0.066387802
0.012008722
0.01869509
0.060155958
-0.013874876
-0.016793985
-0.0042841868
0.0043606912
0.057427764
0.063393705
0.027313303
-0.0058399015
0.041305918
-0.046754859
0.0084140291
0.062013365
-0.052228633
-0.011713664
-0.035736598
0.0069796778
0.099889323
-0.034046482
-0.024684357
-0.042819858
0.037255846
-0.023397041
-0.009851425
-0.05862001
0.058812492
0.013956555
0.010735961
0.00052321021
-0.0041962895
-0.072194733
0.027453862
0.027670611
0.068268895
-0.020075787
0.002986856
0.026057048
0.012583248
0.026645204
0.024764102
0.013843812
-0.04009679
-0.017944543
0.024976941
0.18701704
-0.074629948
-0.070587486
0.048612222
0.089863598
-0.024349609
-0.068634368
-0.040061567
0.012833672
-0.0091771577
0.015882714
0.019607445
-0.027637849
0.086090267
-0.036708452
0.040617976
0.035533495
-0.024731714
-0.021426525
0.023086028
0.040878668
0.083015352
-0.01980936
0.01769783
-0.044658571
-0.045467556
0.069644965
0.26435825
-0.098803155
-0.16975264
0.028864119
0.038080249
0.015332056
-0.020965572
-0.078032523
0.11101203
-0.030133108
0.0096092466
-0.012929823
0.0075651128
0.063679062
-0.019783549
-0.0099004852
-0.028901365
0.0051244562
-0.026013548
-0.059163559
-0.053852979
0.1126498
-0.017932627
0.013239156
-0.02832449
-0.031680759
0.11918955
0.37405589
-0.083992831
-0.24292868
0.033411626
0.0022691709
-0.011966661
0.035380367
-0.034182355
0.02566094
0.052327428
-0.010633022
-0.057920098
-0.014712038
0.00020190894
0.022010081
-0.032539774
-0.044596821
0.022607585
0.027605064
-0.011366958
-0.025455436
0.16219737
-0.029961186
-0.026727078
0.033358455
-0.077246077
0.14307651
0.26598912
-0.091257565
-0.13682555
-0.083704941
-0.083469175
0.0069965781
-0.066467397
0.015947826
-0.02910254
0.038475115
0.077832565
-0.046374865
-0.075647019
0.020143852
0.0031940141
0.01438007
0.028576214
-0.037924033
-0.053275492
0.040746987
0.059708845
-0.035030339
-0.067092106
0.001351065
0.02230512
-0.049731452
0.21707682
0.01119195
0.07192713
-0.066041723
-0.4484857
-0.32777065
-0.01568995
-0.085866511
0.0018446702
-0.0082803648
0.066578485
-0.049352277
0.0053668926
0.01148768
0.014140213
0.047449984
-0.011584762
0.02626529
-0.017749177
-0.027971053
-0.021054417
-0.07346262
-0.010694541
-0.062890634
0.026381623
1.7878632e-05
-0.011753038
0.29696625
-0.04174507
0.10299251
-0.033140317
0.054066271
-0.1525609
-0.011841467
-0.04408792
0.022566926
-0.032289688
-0.011047924
0.014779009
0.057862349
-0.039980143
-0.027252605
-0.037550453
0.00055902335
0.059205491
0.0080011301
-0.030323483
0.0019814153
-0.095032834
0.0067243646
-0.010525009
-0.0080146389
-0.030573308
-0.030556841
0.2081479
-0.076365739
0.057102159
0.010656875
0.0027257265
-0.076895505
0.10979726
-0.0088484054
0.0020307407
-0.004360876
-0.088549651
-0.013282214
0.013150071
-0.034821216
-0.036544371
-0.023242252
-0.063378349
0.01298382
0.061666474
-0.013657497
0.023564629
-0.020321732
0.042382132
0.021060165
-0.032539397
-0.042555708
-0.060438186
0.18649167
-0.0055697593
0.025370197
-0.11596549
-0.11894254
-0.17840348
0.07566233
0.003515037
-0.076710954
-0.0049332343
-0.059927788
0.02959745
-0.019584592
-0.093964621
0.11745866
0.021356124
0.039178438
-0.058998946
0.014411142
-0.036211196
-0.02358471
-0.032744359
0.040227775
-0.062430881
-0.0022162704
-0.007515464
-0.016712768
0.22861668
0.036546048
-0.069977656
-0.047030959
-0.064446732
-0.20300396
0.081209637
-0.07849887
-0.045858752
-0.0039301161
-0.059861597
-0.0097059682
0.0025427844
-0.095421202
0.021024605
-0.032718047
-0.0024419851
-0.030131698
-0.0074554747
0.044720277
-0.056411311
-0.068599373
0.077007189
0.0052470844
-0.02624776
0.0055732708
-0.008233306
0.2121536
-0.080950983
0.0057055391
0.023176758
0.019819956
-0.022328475
0.099181294
-0.037810229
0.044102348
-0.034745038
-0.055570722
-0.034158397
0.009411932
0.014068617
0.042267535
0.031188482
-0.0028636365
-0.049270313
0.01188917
0.0038537718
0.047264423
-0.046887629
0.046582278
-0.025441514
-0.04946471
-0.020523788
-0.055659585
0.17336835
-0.073133238
0.010006201
-0.014337367
0.023775656
-0.10206556
0.063498318
0.0080493521
-0.0068480871
0.0030694026
-0.034778114
0.038511883
-0.046829253
-0.030200519
0.11156804
-0.080351688
0.058131982
-0.057035673
-0.001423856
0.019834572
-0.0096878922
-0.027110895
0.008953088
-0.015092385
-0.034313221
0.017583175
-0.029907202
0.22220923
0.024340743
0.079209328
-0.14277607
-0.0080257999
-0.066756845
0.012124535
0.05356174
-0.026444372
0.0080279354
-0.0045332559
-0.055070713
-0.0096546048
0.060549367
-0.050812572
-0.027947472
-0.0013687649
0.039370157
0.026094498
-0.026439207
-0.029005231
0.0069468925
0.066391632
-0.02143272
-0.0042401622
-0.0084635336
0.07177487
0.015025884
-0.15452914
0.17213359
0.043449428
0.14276157
-0.039772518
0.0014867343
-0.021235071
0.00065158692
0.033349447
0.063606612
0.020847809
0.058707315
0.015434214
-0.02963141
0.0085596135
0.018872285
-0.0019318669
-0.01341851
-0.016559398
-0.029887617
-0.031234879
0.008641907
-0.033455875
-0.027897937
-0.0052421442
0.015529087
0.0077945748
-0.04503059
0.084766991
-0.05592965
0.15834619
-0.062452015
-0.01043032
0.061110016
0.042450428
0.030781362
0.047916159
-0.021579176
0.028760493
-0.047266256
-0.1076775
-0.056068655
-0.026495643
0.021820903
0.0065433066
-0.0068013328
-0.040169187
0.035393018
0.033288468
0.023008514
-0.00094680063
-0.033208337
-0.021136608
0.051868968
-0.0054231267
0.036467269
-0.028575115
0.12591162
-0.036530316
-0.025108833
-0.016940104
-0.015480104
0.0047017643
0.060343295
0.0086670099
0.03269339
-0.05000864
-0.051673815
-0.011308141
-0.053071294
-0.016172444
-0.03158322
-0.038723178
0.010432106
0.045365304
0.11379848
-0.017815189
0.048343197
0.10941254
-0.063721292
0.052360959
0.10560075
0.031657312
-0.086678915
0.11090621
-0.013476224
0.023879131
-0.054160684
-0.014080034
-0.0025823612
-0.01366174
0.018701661
0.022844851
0.0098692495
0.00052838668
0.019842396
-0.07357686
0.00087584933
0.0026932841
-0.014719373
-0.048540384
-0.048792955
0.071871996
0.015841117
0.032015525
0.031855054
-0.095464841
0.062479861
0.15464608
0.11809691
-0.15260677
0.21516635
0.021785934
0.023843335
0.023922469
0.040846109
0.011927193
-0.028331619
-0.011430242
-0.018094592
-0.0051791905
0.13153672
-0.047363196
-0.021640258
-0.078797482
0.037575744
-0.042706385
0.02465249
-0.026950737
0.065452866
-0.00026390172
-0.022907391
0.049351379
0.0038912545
0.046755109
0.15688482
-0.00092503178
-0.12745447
0.16857019
0.038042597
-0.023664474
-0.058009837
0.0075181462
-0.028165797
-0.069454283
-0.028310964
0.017275868
-0.037825938
0.054978646
-0.0017994726
0.043749772
0.050408658
-0.0062683076
0.026537292
0.0014571586
0.035454717
0.096550554
0.010356307
0.0066576884
-0.015613993
0.054424766
0.020767953
0.11105188
-0.025016744
-0.021258961
-0.013429998
-0.07207334
-0.00027531327
-0.040267281
-0.010339928
-0.0029101968
-0.037883304
-0.039746217
-0.0024875207
-0.041414604
0.082428798
-0.010570947
-0.0075128335
0.015984321
0.036133375
0.0082945861
0.055319078
0.023752714
-0.004849636
0.029926199
0.049443353
-0.044908967
0.049620882
-0.036306351
0.081476338
0.0054005925
0.050313693
0.018053787
-0.062708326
-0.0080055147
-0.017383711
0.018382823
0.041171163
-0.0030744222
0.033736855
0.049693648
-0.090730928
0.047850668
0.033230953
-0.042306751
-0.012722874
-0.008496861
0.0085050426
-0.0113334
0.023130765
0.03528871
0.02164793
0.019143401
0.005375606
0.051876944
0.020742696
-0.037052952
0.027351219
0.034760959
-0.0093081603
0.016130114
-0.016643828
0.0091722459
-0.024896
-0.050415024
-0.062481798
-0.020409329
0.01774648
-0.030283522
0.026057912
-0.0051836087
-0.0012853674
0.078900717
-0.012550219
-0.0082600527
0.015265224
0.064936399
-0.010660924
-0.01157178
0.0072782598
0.083136015
0.025540743
0.020117519
-0.20064533
0.068928063
0.15759148
-0.06676694
-0.12221943
0.035334934
-0.042595528
-0.0074622771
0.029911121
-0.049311589
-0.046902504
-0.013961091
-0.010929964
-0.025996206
-0.052555326
0.053069856
0.12520823
0.018146301
0.022620054
-0.04374994
-0.045864146
-0.013565403
0.022917267
0.041537039
0.015247084
0.10557824
0.096134707
-0.31445146
0.19426258
0.15610132
-0.04897283
-0.032299876
0.033119373
0.067317113
-0.01231461
0.0671755
-0.0035226641
-0.18918845
0.0061294269
0.032707088
-0.056009505
0.026044112
-0.2089742
-0.39344418
-0.0086229257
0.0015408295
-0.072201915
-0.033452872
-0.40629062
-0.32781366
-0.035219025
0.033867996
-0.045272179
0.064637691
-0.26523799
-0.097965874
-0.038565423
-0.029103868
-0.085196786
0.076603673
-0.003583764
0.010492501
-0.0037002305
-0.05231021
-0.060044486
-0.02279743
-0.052219536
-0.34163836
-0.025706826
-0.0042675366
-0.048362032
0.091935597
-0.21375354
-0.23188889
0.012723655
-0.014593011
-0.046947233
0.095239908
0.19712812
-0.036527872
0.025425192
-0.026329977
0.0060889563
-0.0062512546
-0.10569841
-0.36135787
-0.016013527
-0.035557017
-0.054379437
0.0052695856
-0.1307814
-0.16823353
0.045739245
0.007815606
-0.045500401
0.043229379
-0.27432188
-0.25384998
0.017910389
0.049949657
-0.049653728
-0.10291845
-0.07710097
-0.13383132
-0.00090261298
0.0096911388
-0.058285527
-0.1660444
-0.47435948
-0.33713037
-0.019379374
0.0030965579
-0.054468878
-0.090088651
0.47533616
0.015058081
0.0017384788
0.061542384
-0.041659053
-0.067158476
-0.18189186
-0.14902529
0.027770497
0.0063229576
-0.040571932
0.0024268394
-0.93484467
-0.36798212
0.0068882019
-0.033474635
-0.044396669
-0.18984959
-0.40014252
-0.28741711
-0.024948508
0.026863486
-0.0090305004
0.0045323982
-0.038333777
-0.12602513
-0.042825874
0.017348679
-0.021737082
-0.053960554
0.21520488
-0.19723701
0.027072383
-0.0060966257
-0.02719203
-0.10241176
0.11275146
0.032725807
0.011402989
-0.041859522
-0.055239655
-0.11556988
-0.50316626
-0.35509193
-0.014486621
0.0056585274
-0.0025958917
-0.016703973
0.32450628
-0.044443168
0.028430542
0.056244679
-0.032521535
0.017577527
-0.13424799
-0.010528569
0.0086554401
0.019112714
-0.05869652
0.011736693
0.41791528
-0.04156692
0.052424558
-0.014284386
-0.054857131
-0.04592815
0.21937706
-0.047555976
0.0068705808
0.046634618
-0.053406235
-0.037997436
-0.10419423
-0.12827921
-0.022023633
-0.039485071
-0.037648216
0.093694128
-0.028569248
-0.15228985
0.021832304
-0.034878377
-0.037005141
-0.30281189
0.28372487
-0.19517934
0.025362443
-0.0058388798
-0.058341987
-0.030946571
-0.069814175
-0.21152261
0.0026876691
0.019748583
-0.038404871
-0.048718762
0.14443092
-0.1150769
0.034147989
-0.08338882
-0.024127997
0.067098998
0.038522039
-0.17352208
-0.0031464368
-0.023147337
0.001850143
-0.11938871
0.072043665
-0.15694325
-0.018475279
-0.021373186
-0.012092126
-0.1259269
-0.037964147
-0.12452715
0.0073781027
0.037542373
-0.032120939
0.068234563
0.18569039
0.19478761
0.016693437
0.067223325
-0.022516854
0.053566575
0.43753943
-0.1166572
0.021702647
0.0021539689
-0.06594716
0.01298067
0.35388982
-0.10528517
0.016150113
0.059819367
-0.042438745
0.062687211
-0.25762588
-0.20857534
0.01805413
0.027242294
-0.02649742
0.055963844
-0.25057822
-0.17734258
-0.010387981
-0.051843863
-0.076174237
-0.081847064
-0.1626268
-0.41829723
-0.0097332308
-0.0003187579
-0.090321131
-0.073432364
-0.022373296
-0.2548452
0.02294063
-0.023099691
-0.045022726
0.12338913
-0.42619821
-0.11921473
0.035134014
-0.059473068
-0.0221531
0.076044902
-0.31956369
-0.23814094
0.0066926442
-0.06515795
-0.035715375
0.036341544
-0.091722563
-0.093804017
0.020187559
-0.0060624164
-0.018111413
0.018506061
-0.10398578
0.0093959281
0.021005185
0.034683276
-0.031298384
-0.073860727
-0.17194839
0.24993384
0.0026377782
0.014177473
-0.038357422
-0.064918965
0.1167184
0.023771515
0.0037759284
-0.038273476
-0.040390622
-0.041696426
-0.10602204
-0.092389904
0.049699176
0.054412223
-0.037564896
0.049808849
-0.066146478
0.069505267
0.0082413694
-0.0069606677
-0.014455562
0.044515416
-0.31586358
-0.084582224
0.029468128
-0.039100405
-0.054935358
-0.097847387
-0.5818972
-0.43165943
0.0075628608
-0.0033103582
-0.024759347
-0.0084391851
0.5140115
0.064122997
0.049032062
-0.020146377
-0.059896477
-0.058281846
-0.50174201
-0.31652483
-0.018545236
-0.026490353
-0.043181591
-0.018061908
0.40175742
0.063495196
0.07416591
-0.051070746
-0.033891041
-0.045736719
-0.085309327
-0.0096316719
0.0082263332
-0.033748772
-0.058598042
0.039286848
0.41715565
-0.0050500073
0.012394445
0.07585045
0.0051838807
0.057880823
0.30758113
0.11388422
0.070703514
0.077968419
-0.045989387
-0.072828174
-0.75428635
-0.0085880496
0.00091001386
0.006092221
-0.030209312
0.031041944
-0.28600386
-0.22644004
0.034260843
0.053453695
0.0043828334
0.00038849137
-0.58786082
-0.22781238
0.055584546
-0.010912324
-0.020328078
-0.0072455015
-0.35430482
-0.37457383
-0.0013709211
0.014335823
0.016629858
-0.40927464
-0.70731062
-0.91827619
0.027412137
-0.0012884117
-0.039001588
-0.083072923
-0.49361295
-0.42379028
-0.029901102
-0.058503561
-0.064365678
-0.080115795
-0.61498851
-0.53415209
-0.031868894
-0.014604492
-0.054873381
-0.085203186
-0.18511459
-0.41860852
0.022112692
-0.068041056
-0.03509165
-0.10078203
0.12837274
-0.30792022
0.00023877616
-0.025633371
-0.032932658
0.010975805
-0.0053425459
-0.23723172
0.021512629
0.080666296
0.025412017
0.037717402
0.24352604
0.50488961
0.05176156
0.081600793
0.0087419003
-0.012013862
0.14085422
0.045804672
0.05857664
0.072672665
0.035276514
0.044873722
0.36682919
0.18708368
-0.00060857093
0.1202824
-0.010864455
0.12760082
0.43946302
-0.015911793
-0.0042779837
-0.030974403
-0.081645712
0.071233451
0.41363424
0.079374775
0.044893481
-0.018207218
-0.037375391
-0.1386593
-0.023848133
-0.40947121
0.0082131336
0.047515914
-0.023924235
-0.023059499
0.30593476
0.057670482
-0.0077759456
-0.0089992154
-0.077338278
0.049997333
-0.3755945
-0.20268808
-0.010451844
-0.051937308
-0.078297384
0.031568442
0.35787609
-0.22356451
-0.013062453
-0.031616844
-0.037598662
-0.088889085
-0.29660204
-0.18133087
-0.011391949
0.028435882
0.026757026
0.00021340877
0.18053237
0.044703182
0.030343089
0.080979593
-0.0050707408
0.064314552
0.34834793
0.55185926
0.051263761
0.022330089
-0.059088007
0.10055935
-0.27676108
0.016240016
0.032723818
0.012299993
-0.027743258
0.012441967
0.22292452
0.095593669
0.037917845
-0.0075286753
-0.072005525
0.14446588
-0.068352297
-0.28921556
-0.012566287
-0.028432844
-0.093549274
0.15710215
-0.095645986
-0.1483445
0.0099737244
-0.11438768
-0.12589025
0.048787326
-0.804079
-0.67887986
-0.039469127
-0.074558206
-0.10780309
0.089767359
-1.0299417
-0.4159002
-0.032774344
-0.062261056
-0.094991311
0.096514337
-0.59604925
-0.3126488
-0.016362939
-0.044461384
-0.084229343
0.074076042
-0.17064539
-0.30036926
0.024733929
-0.09023419
-0.067310549
0.078747332
-0.6768136
-0.31019178
0.0031282802
-0.0022892018
-0.013183398
0.096336305
-0.099365592
-0.12673143
0.015895171
0.094839409
-0.023938835
0.078539819
0.26172814
0.39873916
0.053303216
0.047623429
-0.0091065448
0.086063609
0.15692768
-0.16683581
0.043674108
0.02124887
-0.02189409
-0.0025226253
0.12204579
0.0077147484
0.044914868
0.086715333
-0.052674938
0.055436175
0.18684022
-0.090135932
-0.0053636786
0.018844787
-0.014440031
0.015558256
0.29882982
0.053933103
0.02928211
-0.039984874
-0.045287378
-0.1656366
-0.42620006
-0.28521684
0.0065385075
0.045756146
-0.025169047
-0.022211984
0.19831775
0.16695677
0.020905884
0.012717145
-0.029539661
0.036612555
-0.12860721
-0.21734484
0.03158211
-0.0016524575
-0.030244512
-0.10197105
0.030089987
-0.14828278
-0.0008963283
-0.017646836
-0.015374296
0.014991313
0.12077304
-0.009066008
0.033728171
-0.0006746641
-0.0042379289
0.059265457
0.28805253
0.056560587
-0.013683553
0.051292736
-0.030656785
-0.029039294
0.064966016
0.10131286
0.014779001
0.058397591
0.007175324
-0.038854484
0.047140777
-0.058657411
0.0173035
0.073631354
0.021335235
0.064483926
0.05557074
-0.022102943
0.0059516341
0.1137052
-0.00025033107
0.064181916
0.66773492
0.032212026
0.038049348
0.047017712
-0.0044547864
0.062559947
0.74112576
0.048287325
0.050117858
0.013123513
-0.017943854
-0.17986864
0.22430393
-0.14452276
0.031616438
-0.0040396038
-0.011043672
-0.030994086
0.081518166
0.051727455
0.0075418036
0.00080392201
0.011226534
0.010793489
-0.10842519
0.029889883
0.028385388
-0.085087024
-0.050948445
-0.064247765
0.11052347
-0.025774149
0.031198557
-0.027744204
-0.017712608
-0.063067853
0.3384234
0.027660366
0.027920961
-0.048232336
-0.052884623
-0.022182345
-0.34883073
-0.21911848
0.043304984
0.12334181
-0.020637034
0.048234779
0.053186607
-0.021614837
0.016444698
0.059113488
-0.011182245
-0.0051248139
0.16293682
-0.024967631
-0.014492001
0.068602748
-0.021904672
0.0075528221
0.066399455
0.050061669
-0.01510197
0.037329622
-0.044524606
0.033473831
-0.23374774
-0.14314306
-0.013384456
0.0086158514
-0.074599467
0.047441747
-0.044646319
0.0089378553
-0.015519708
-0.063847288
-0.066933244
-0.11979885
-0.12961997
-0.19851077
-0.016378775
-0.027019599
-0.080932997
-0.013281233
-0.20288868
-0.14561932
-0.021244807
-0.043310143
-0.074689135
0.0073475279
-0.064860061
-0.065690309
-0.014582085
-0.07382793
-0.044887252
-0.0097425627
-0.20659986
-0.1837343
0.010353528
-0.038885169
-0.03906418
-0.12928373
-0.1456219
-0.02805572
0.041306075
0.015372165
-0.019205539
-0.032018498
-0.084930278
-0.063016921
0.009796381
0.018509308
0.013715039
0.01929283
0.043181583
0.022536024
0.10207972
-0.034664482
0.011207126
-0.054653872
-0.023846839
-0.062258102
-0.039580867
-0.2173126
-0.31226471
-0.0055059027
0.67326629
-0.036784861
-0.017808689
0.023651768
0.0093429824
0.035260733
0.041341651
-0.02090529
-0.044359133
-0.0094200214
0.042704865
0.034071956
0.052558497
-0.011333874
0.038142934
-0.022657922
0.01713142
-0.012708934
0.013508776
0.02168303
0.040181413
0.0062046843
-0.036536921
0.14891918
-0.01846556
0.069102608
-1.15579
-0.42893669
0.064516135
-0.037738875
0.005737117
0.10794421
-0.14387448
0.10454648
0.12783265
-0.035998102
-0.024402168
-0.1466773
0.18993288
-0.043302406
0.41938159
0.014213324
0.0080301818
-0.10104953
-0.16888081
0.24302039
0.010859223
-0.10620475
0.011838467
0.1346242
-0.28860205
0.082358405
0.13965006
0.039393097
-0.35819247
0.16316022
-0.25362992
-0.13761821
0.11922631
-0.03169471
0.013438061
0.14770307
0.13359447
0.13314873
-0.2974377
0.091865867
0.15967308
0.0061299461
-0.0097798416
0.11016003
0.15725325
-0.28026825
0.070044309
-0.24171889
0.23078679
0.067469209
-0.075356707
-0.12445026
-0.0051443293
0.075299881
0.034637671
-0.28508267
0.27134183
-0.17719525
-0.23325017
0.2324854
-0.023837842
-0.076783597
0.19643493
0.099007294
0.23513569
-0.082636505
-0.20816176
0.10718111
-0.088799164
-0.18456087
0.021310261
0.082209885
-0.15470311
0.045881204
0.19069387
0.068630435
-0.0055512404
0.035430316
-0.084039822
0.099695437
-0.13369246
0.084780514
-0.75111711
0.27562955
-0.25225669
0.47002822
-0.10417562
-0.075459555
-0.032187156
0.50131696
-0.00028530881
0.1628301
0.16594094
-0.016146535
-0.40832242
-0.14794724
-0.093784228
0.060146
-0.14038791
-0.12435525
0.21907036
-0.091335699
-0.047614422
0.15637697
-0.11302757
-0.038609564
0.3140721
0.29207996
-0.34275293
-1.0276685
-0.16954106
-0.43646112
0.2377896
0.20907401
0.071475379
0.16577937
0.0082954774
0.019080332
0.14395674
0.25314862
0.05095505
-0.37398341
-0.028956506
-0.030471725
-0.13624248
-0.16122647
0.066116996
0.18979926
-0.081788734
-0.11816075
0.040512305
-0.39505726
-0.098668173
-0.14141296
0.40010828
-0.17248565
0.012691658
0.20219721
-0.23499115
0.015173431
-0.019310078
0.14075914
0.48024669
0.10191005
0.14414634
0.41319576
0.20970821
0.19105113
-0.2000124
-0.19118167
-0.18379776
-0.057636283
0.17219779
-0.12648472
-0.054319303
-0.41106072
-0.19249995
0.021384679
-0.04153426
-0.19893071
0.25669616
-0.037186213
-0.12927558
-0.1083921
-0.050019845
-0.18487059
0.16978697
0.18470787
-0.2351388
-0.25768074
0.37929967
0.13668293
-0.10284487
0.20123874
0.21707021
-0.26845288
0.30802861
-0.14946465
0.16112955
-0.12461659
-0.07691738
-0.13198768
-0.21770073
-0.28779897
0.27574894
-0.0895468
-0.00038515011
0.02611058
-0.30859873
0.32351404
-1.1861504
-0.57924724
-0.20666683
0.64697039
0.080154002
0.18414281
0.28952473
0.67064959
-0.07225243
-0.17151082
-0.13361605
0.058979124
-0.13596486
-0.1715901
-0.36504307
-0.041114442
-0.44406888
-0.66980284
0.43444467
-0.10865705
-0.68091625
0.38349441
-0.054233436
0.44139639
-0.4996036
-0.26916319
0.58129096
-3.7285891
-1.6699351
-0.026415249
-0.3467584
0.36981061
-0.062382653
0.35065126
0.43761444
0.0049658068
0.020122092
-0.24586298
0.0029087658
-0.095087335
-0.94609672
0.34050635
-0.17031533
-0.31367952
0.16494144
0.099325031
-0.26302102
-0.05191844
0.30650321
-0.12904169
0.4920688
-0.88990951
0.31526586
0.32332331
0.95115256
0.053647272
0.01242879
0.047890894
0.064601772
0.18875077
0.5446558
0.24061
-0.12638576
0.32799432
-0.60226613
0.045602381
-0.25997776
-0.41312784
-0.0027040483
0.0022829843
-0.34771627
-0.73926038
0.17050514
-0.035904381
-0.051652402
0.38648626
0.03802352
0.50378454
-1.1524843
0.96782458
0.061983082
0.91968346
0.91799885
0.02102928
-0.5154013
-0.37945047
0.57015437
0.82115716
0.034308068
-0.53920317
-0.054007571
0.74252921
0.1780024
-0.43227479
0.19485885
-0.47893164
-0.090438329
0.19621937
-1.1004896
0.11437504
0.22277641
0.083221577
0.26214394
-0.27410114
0.57996005
0.2708815
-0.66471392
0.26761714
0.18576056
-0.20237957
-0.0033007648
-0.8155213
-0.25981927
0.74110937
0.616638
0.0032603475
-0.20474654
-0.34518987
2.0161123
0.15173134
-0.34989458
-0.33434454
-0.18235649
-0.13722256
0.20290256
-0.97261673
-0.15406768
-0.20001119
-0.022209885
0.25214875
-0.49326667
0.6855759
1.44399
-1.4880968
-0.10558449
1.1493183
-0.141783
0.022531599
-0.48024359
0.29109448
0.52959687
0.16895114
-0.044705462
0.033856858
-0.036019742
0.8630752
0.019559778
-0.040761329
0.070871495
0.080031738
-0.0092934128
0.012067921
-1.1066725
-0.40005773
-0.23392507
-0.12157424
0.34685129
-0.21674278
0.29054824
-0.071277127
-0.54066986
0.33662456
0.7903918
0.19506922
-0.024783652
-0.1260116
-0.13143617
0.29868165
-0.0010792478
-0.020094762
-0.11182842
0.1042652
0.5019061
0.052639
-0.25695148
0.24350543
-0.015742388
-0.073268741
-0.17973252
-0.53477281
-0.11807005
-0.18360701
-0.081008852
0.10665412
-0.33071247
0.6009267
-0.19967599
-0.35129938
0.085403383
0.3908383
0.017781714
0.062821686
-0.18452227
0.084837608
0.26439849
-0.092556946
0.00037957015
-0.30893973
-0.37695354
0.4759661
0.058687579
-0.35001659
0.011274483
0.10164531
-0.055089116
-0.12006125
-0.15005183
-0.29436883
0.18054363
0.14026907
-0.015058056
-0.24374883
0.71776569
-0.0097105671
-0.28376317
-0.03116997
0.22608548
-0.11541717
0.19310558
-0.0013820557
0.1257554
0.40682057
0.5835101
0.36806649
-0.080469012
-0.01491232
0.043819509
0.13165946
-0.34990376
-0.31857058
-0.10735885
-0.11048064
-0.15884054
-0.39468211
0.26897329
-0.13396966
-0.060575221
0.059871629
-0.33589548
0.15055406
0.16614087
-0.20280299
0.017326936
0.34399801
-0.14060369
-0.12501903
-0.24060749
-0.026679045
0.23388277
0.52254248
0.60363424
-0.14558762
-0.032197714
0.45185065
0.16775794
-0.38668877
-0.12780041
-0.23528384
0.065387517
-0.070771329
-0.64564395
0.062213615
-0.044157777
-0.11468282
0.023899667
-0.21908577
0.17363006
-0.0077556772
-0.066200554
-0.18664949
0.27291334
-0.023209017
-0.062318388
-0.11492535
0.13892511
0.27899671
0.26670283
0.37202981
-0.28810304
-0.084691972
0.62347233
-0.077737473
-0.12899514
-0.043306701
0.023420729
0.08890029
-0.11511431
-0.51052272
-0.088116355
-0.10355923
-0.049652226
0.12312101
-0.24400203
-0.091948904
-0.47270966
0.21502429
-0.20627998
-0.024571145
0.13754335
0.013059754
-0.27442238
0.15536655
0.31722435
0.65449953
0.2211017
-0.1095148
-0.19041951
-0.0816743
0.16028255
-0.15405031
0.26532814
-0.043326758
-0.073631629
-0.070239015
-0.4545337
-0.29583773
-0.16680948
0.08718314
0.18023981
-0.26162156
0.084396206
-0.51862454
0.31121022
-0.29234168
1.0561994
0.74115765
0.012119897
-0.33601287
-0.23787066
0.74735415
0.33876389
-0.049134333
-0.19213621
-0.3618826
2.3267505
0.095082283
-0.40339726
0.12527081
-0.092672266
-0.072814986
0.11845353
-0.86712021
-0.26647124
-0.31229109
0.095970839
0.24210699
-0.50155389
-0.095809519
0.60098898
0.19531031
-1.0874751
1.3226192
0.3596085
0.0081882272
-0.24573486
0.11523499
-0.22756499
-0.31824729
-0.093125373
0.070252828
-0.00019604647
1.9136109
0.093615338
-0.23548654
-0.042071585
0.22696015
-0.11484174
-0.20101826
-0.97581965
-0.3265413
-0.14200386
0.097049862
0.36457735
-0.19077858
0.31938598
-0.023865193
0.0074086036
-0.38796091
0.83477956
0.43093842
0.017630562
-0.095967524
0.039727982
0.55312914
-0.44906837
-0.10779256
0.0085576437
-0.10604239
1.0778362
0.21566871
-0.31883132
-0.0050552427
0.15404953
0.045542974
0.12928092
-0.22141886
-0.54338175
-0.3415103
0.13650738
0.35713509
-0.64160305
0.07553862
-0.32803407
-1.0296936
1.075098
0.67878491
0.59753436
0.0028777684
0.89414537
0.18664737
0.0077140816
-0.56154817
-0.083619975
0.28984225
-0.220358
-0.45372084
0.032781757
0.52728987
0.3750115
-0.053602163
0.078614168
-0.39628604
-0.32112119
-0.1450427
-0.12415833
-0.58817488
0.12398017
0.56013149
0.023185791
-0.2904503
-0.92345411
0.67428064
-3.1163538
-0.52111542
-0.0074177538
-0.036363799
0.15947136
0.01689788
-0.33903435
0.053117
0.035068374
0.043767352
-0.39936104
0.18573943
0.018666098
0.12785992
0.21383998
0.024897201
-0.32983902
0.049040385
-0.062468823
0.12868138
0.039603814
0.30356333
-0.30202401
-0.090440296
0.0009109411
-0.75928968
0.30856401
0.2761395
0.33603451
0.12198794
0.01697983
0.10151336
0.086913742
-0.11906961
0.37023008
0.17478125
-0.11352918
-0.10182028
-0.026406284
-0.11300655
0.069066711
0.38261336
0.025887525
-0.54117459
0.18262322
-0.11837631
-0.016598683
-0.041065894
-0.01881808
-0.20288728
-0.1890873
0.11501058
-0.42427671
-0.054233089
0.41165903
0.39095175
0.12404111
0.22082935
0.14323351
-0.12449583
-0.37849995
0.10058184
0.069178663
0.082401074
0.19949916
0.10931345
-0.22035003
0.034318108
0.10834466
0.080908924
-0.25068104
0.18435919
0.098050721
-0.024522809
-0.060906056
0.15418461
-0.33570841
-0.22788918
-0.0096148634
0.083017156
-0.32697237
-0.044414021
0.10444228
-0.01774798
0.026405549
-0.0027820203
-0.20540985
0.1805941
0.12862222
-0.051475961
0.12655316
-0.26728758
-0.014290273
-0.27189046
-0.062131867
0.013641133
-0.055059068
0.029434323
0.23853694
0.38504878
-0.013959711
0.066957146
0.17214274
-0.42447573
-0.043896627
0.020207113
0.046452526
-0.20223337
-0.065700985
-0.28515688
-0.014183119
0.16301166
-0.10507691
-0.098907784
-0.050876848
0.25662619
0.058538176
0.092254646
-0.52430725
0.022939222
0.089643151
-0.10689452
0.096121997
0.072842143
-0.15548882
0.30307847
0.16412447
0.22404352
0.23122971
0.015540971
-0.31226969
-0.21159419
0.22029711
0.057237003
-0.3133035
0.097841077
0.10322709
-0.059556331
0.34843698
-0.23954879
-0.17619896
-0.0617988
-0.0047434075
-0.052568674
0.11114623
-0.36597273
0.19170827
0.12249968
0.30608067
-0.027522335
-0.036291841
-0.11593663
0.45153049
0.18008919
-0.026048802
0.14924046
-0.087991372
-0.17785174
-0.2353828
0.14022344
0.0015218505
-0.052415464
0.28219101
0.15324041
-0.28749683
0.3247714
-0.1512893
-0.00047923162
-0.27836755
0.091462031
0.0094530582
-0.010033778
0.097419076
-0.037010118
0.13091378
0.090728186
0.045588486
0.025415095
-0.13332719
0.3861987
-0.10704954
-0.11846749
0.30049172
-0.016162377
-0.037350837
-0.56552124
-0.10600282
0.21240626
-0.26738057
0.51750159
-0.021015054
-0.1521766
0.030638289
-0.1132929
0.13832539
0.093669102
0.090998352
-0.019477926
0.48377144
0.1864334
0.14855511
-0.21821558
-0.37809598
-0.12904149
0.0026050988
-0.26067266
0.074990764
-0.11254079
-0.10660915
-0.21915363
0.070501246
-0.039596211
0.32385817
-0.15851501
0.10923634
0.11046801
-0.51956421
0.26450178
-0.10038602
-0.15898347
-0.065308042
-0.11448932
-0.096737891
0.14509045
0.12539159
0.18133013
-0.32018524
0.19744229
-0.20087339
-0.21875496
-0.07901603
-0.063350789
-0.11380697
-0.23431115
-0.18870695
0.19344422
0.017819919
0.49046782
0.02645983
0.51687372
-0.14980042
-0.23766559
0.40956604
-0.65577871
0.085785657
-0.11110228
-0.0041097924
-0.037386816
0.2090603
0.46504316
0.93500632
-0.1102668
-0.023362275
-0.11544568
0.16432782
-0.42400181
-0.68319786
-0.18345124
-0.05236014
-0.10290996
-0.49601015
0.21598557
0.014671737
-0.12064012
0.18266279
-0.34116578
0.6563834
-0.7869907
-0.25434741
1.2456461
-1.1443323
-0.40569583
-0.076565146
-0.40835583
-0.1223166
0.41274947
1.0533774
0.45393553
-0.067974925
-0.014095351
-0.037216
0.17390688
-0.29283503
-0.63806778
-0.01456036
-0.081173189
-0.17558604
-0.80124712
0.38316572
0.24447361
-0.35876027
0.010311359
-0.35591298
0.67908102
-0.84265238
0.31066066
0.4256905
0.039139014
0.078310534
0.023214838
-0.22375587
-0.072740234
0.42809317
0.92708182
0.12197021
-0.36065793
0.12825555
-0.32683206
-0.060214315
0.058246698
-0.022467058
-0.11925517
-0.1276482
-0.11137632
-0.74212599
0.051314097
-0.29815188
0.036254019
0.10174812
0.079375423
0.58843386
0.12149824
1.2746836
-1.5346407
1.6207114
0.4055981
0.00042781141
-0.35512337
-0.30608651
0.61014801
0.88029218
0.17082824
-0.32165098
-0.006248239
1.1319408
0.033586122
-0.43071371
0.22448637
-0.36333528
0.032218691
0.25554189
-1.057232
-0.22290762
-0.1109731
0.22957163
0.13819852
-0.55261612
0.26459318
1.798259
1.1272166
-3.0111141
2.6065922
0.12070928
0.008482337
-1.0509614
-0.13053551
0.58487093
0.3153649
0.1219912
-0.20152496
-0.37813595
3.2339709
0.12746339
-0.56306982
0.070555329
-0.082673103
-0.073308319
0.21030092
-1.3400007
-0.22913159
-0.15181905
0.08414118
0.29561621
-0.62612677
0.17752822
1.3259524
-0.10621992
-1.4818888
2.1486394
-0.22689168
0.0096953036
-0.84790719
0.049130637
0.55001265
-0.47096315
-0.084060401
-0.15035614
-0.43055174
3.0775754
0.15130982
-0.055824202
0.13265546
0.2055041
-0.020133877
0.14672455
-0.87373316
-0.8392027
-0.77070034
0.0047181342
0.3303895
-0.14482091
0.26431519
-0.054102898
-0.49006498
0.16780984
0.67503798
-0.03044316
0.00750513
0.43255162
0.15296765
0.10486878
-0.50752705
0.013553393
0.16057558
0.031053847
-0.62578833
0.20984706
-0.067893185
0.020142272
0.10230114
-0.097783014
0.048542891
-0.29736325
-0.49550992
-0.13363115
0.20510378
0.37526256
-0.24866989
0.54967368
-0.62180126
-0.57139808
0.83509588
-0.39439178
0.63470274
0.023305329
0.1942458
-0.10900733
0.18128942
-0.32326514
0.25832266
0.03659438
-0.33960384
-0.59199047
0.13631061
-0.31793675
-0.071580395
0.0049958159
0.0086838119
-0.22202271
0.1887888
-0.16239555
-0.1385992
0.30008852
0.32522109
-0.39236715
1.0333688
-0.84725004
-0.44075921
0.78661704
-0.68011427
0.34358406
0.14412311
0.079994805
0.15734529
0.22339524
-0.11353874
0.055205647
-0.16019523
-0.32978746
0.43993735
0.11402117
-0.23678565
-0.189436
0.054456335
-0.11045904
-0.66662139
0.041612379
-0.1592052
-0.075205781
-0.1535648
0.080700845
-0.44953206
1.0511173
0.17281204
-0.3083472
-0.43992344
-0.30366915
-0.054981288
0.16972527
-0.011172931
-0.058069486
0.02350178
-0.029619318
0.02789548
0.23207283
0.0049622557
-0.080728047
0.062391996
-0.067662112
-0.0021156112
0.11522906
-0.023550123
-0.1341546
0.23683359
0.0067047733
0.2603952
0.17956081
0.0024664793
-0.096589014
0.089086622
-0.030508829
0.042423386
0.095281564
-0.1222025
-0.30004618
0.015957335
-0.098274656
0.35513091
0.073174663
-0.22863476
-0.36521432
0.44038624
0.049509495
-0.11084111
0.14855205
0.052442294
-0.28398356
0.20017838
0.070970669
-0.13330026
0.071343482
0.21121906
-0.086691692
0.19799845
-0.015052221
-0.10986281
0.095148683
0.31698889
0.037297819
-0.26163992
0.1041029
0.17011876
0.060116813
0.34989679
0.11879489
-0.066729568
-0.042536288
0.14460675
0.19015934
0.56603014
0.26227432
-0.61752987
-0.10858808
0.062215634
0.20862053
-0.12415519
-0.051455535
0.23879097
-0.071891613
0.22821364
0.11559062
-0.26150998
-0.25287712
0.44482028
-0.05966663
-0.14744461
0.014830103
-0.32366279
-0.27623138
0.54877502
-0.042093493
-0.067696802
0.081802443
-0.20238188
-0.18301722
0.33734986
-0.0076390635
-0.061980117
0.10860752
-0.23665196
-0.33522034
-0.13810067
-0.15673667
-0.34969088
-0.14779529
0.011534274
-0.0050673247
-0.43203303
0.017959842
-0.11689733
0.21199431
0.056196976
-0.10907318
0.12506951
0.075550832
0.12334776
0.25748354
0.29466471
0.15235128
-0.58981425
0.34434682
0.33797479
0.47884151
0.27754429
0.17816617
-0.34789521
0.14191702
0.28497857
0.33295992
0.4421736
0.29679275
-0.7466203
0.34324318
0.2669265
0.42166072
0.4331384
0.28987142
-0.41553208
0.19407488
0.31054699
0.41482154
-0.1564405
-0.1167645
0.047165625
0.098450646
0.01433228
0.18405224
-0.30601349
-0.29959413
0.40484384
-0.11797757
-0.054712594
0.055227999
-0.31746125
-0.3159577
0.56053156
-0.014490542
0.012727967
-0.0067028999
-0.43580228
-0.43489105
0.64258468
-0.21320808
-0.31544816
-0.19017294
-0.053810228
-0.17550899
-0.030209579
-0.060173012
0.24282524
0.14068423
0.035857972
0.0033333751
-0.15743758
0.012603922
0.0018279147
0.38372466
0.3480911
0.10664575
-0.011801419
0.028305421
0.31844601
0.33255932
0.42777118
0.27736276
-0.42693973
0.0068274988
0.47695276
0.48061523
0.29302913
0.18114626
-0.39058837
-0.078734733
0.3858164
0.21975195
0.35353899
0.21001366
-0.36259484
-0.015197655
-0.020219957
0.23508
0.395403
0.17729202
-0.18749341
-0.12124337
0.041087843
0.20816053
-0.19797762
-0.075919777
0.11636376
0.12307968
0.14576089
0.043417577
-0.16882309
-0.1466241
0.27876478
0.084261782
0.41729668
0.1166908
-0.39401367
-0.32375878
0.43028319
0.14917351
0.038164742
0.005549185
-0.31528628
-0.28276691
1.0457246
-0.22852384
-0.32706952
-0.24304233
-0.18867795
-0.23916987
0.29546487
-0.12531722
0.017806476
-0.075517818
0.25589693
0.24109127
-0.36272264
-0.076381952
0.27112159
0.31440774
0.25501159
0.11501963
-0.20184068
0.035100497
0.086553365
0.36114508
0.61269248
0.47944507
-0.9758215
0.39714
0.42302817
0.55774689
0.25228682
0.17509617
-0.43195364
0.091208532
0.29508439
0.3622945
0.28923067
0.1973003
-0.49255401
0.12955011
0.067887239
0.24591988
0.15513307
0.050104469
-0.03676939
0.036095023
0.18016747
0.14250749
-0.048560675
0.018976752
0.3124159
-0.047313381
-0.10621817
-0.34048358
-0.083220862
-0.044697568
0.035196643
0.03743941
-0.11253323
-0.11137874
-0.06512022
-0.035001345
0.060683977
-0.23116311
0.26877388
0.15064023
-0.10171992
-0.08579918
-0.012987447
-0.04504532
-0.0015699338
0.14777242
0.084406607
-0.076932408
-0.478122
-0.21312009
0.067786798
0.19344549
0.33901048
0.35436159
-0.4739061
-0.051500585
0.15520142
0.65641069
0.30651054
0.11137266
-0.17803183
-0.09606237
-0.069693416
0.060515333
0.29801133
0.22023244
-0.21186957
0.19954047
0.077858984
0.25337571
0.33353883
0.22313185
-0.10154804
0.098983251
-0.19787376
0.15976074
0.1197836
0.069721326
0.080006659
-0.13545777
-0.27626699
0.0431122
0.16605221
0.028342841
0.25018376
0.10721955
-0.10573241
0.10069759
-0.69736421
0.061639335
0.28292555
-0.041258879
0.1050242
-0.39098042
-0.22569272
-0.11434206
0.40965235
-0.081049658
-0.30997601
-0.23339681
-0.17658025
-0.054142166
0.66467017
-0.14346622
0.074329533
0.080679543
0.064527273
0.19236037
0.52847296
-0.11064982
0.31305769
0.37309474
0.19136065
0.21132107
0.43053874
0.018848004
0.050588902
0.40517288
1.3665106
1.3974764
-1.316264
-0.16428259
0.19784592
1.483332
0.59273857
0.44296777
-0.14066206
0.036010616
0.40361691
0.6147033
0.58908796
0.5584476
-0.66464782
0.28687745
0.2596373
0.47648782
0.15473138
0.12624675
0.13486812
-0.40090993
-0.075564981
0.17401853
0.018365661
0.029241458
0.50613648
-0.090608314
-0.21758477
-0.0309295
-0.086158589
-0.15622953
-0.074130766
-0.23827459
0.13240883
-0.027926888
-0.76374924
0.088104866
-0.14236289
-0.27820677
0.29207194
-0.345752
-0.22180305
0.37702319
-0.38257396
0.30631009
0.2960051
0.035594579
0.11226405
0.12208476
-0.12477852
-0.10875585
-0.25720993
0.02526095
0.07404469
0.080088921
-0.13889058
0.03930809
-0.32950938
0.17172283
0.15740943
-0.007133374
0.25234601
-0.25968692
-0.10432197
-0.065071858
0.49068019
0.45488539
0.14470869
0.14915611
0.016367547
0.58282471
0.60077041
0.3896167
-0.032004736
0.10697283
0.22363614
0.095251262
0.21832643
0.039500687
0.21239749
0.15694526
0.077356927
-0.015883001
0.20268945
0.014394197
0.30564648
-0.20920315
0.12040689
-0.0042937375
-0.11716647
-0.19184481
0.32876033
-0.22255403
-0.10480669
-0.089792892
-0.011533285
-0.1159052
-0.21285903
-0.02416392
-0.17362565
0.012798239
-0.3159489
0.36587188
-0.26096728
-0.21960521
0.39515388
0.22209148
-0.20591736
0.50405151
-0.56504393
-0.12258576
0.27577752
0.0598008
-0.16230613
0.37158421
-0.3658058
-0.011298155
0.20601505
0.088526703
0.59319717
0.41960099
-0.80402184
0.060274538
0.07077834
-0.019739324
0.28827739
-0.017623033
0.059654906
-0.07643564
-0.1594941
0.0010603276
0.50375384
0.31300965
0.099377163
0.10982018
-0.31733322
0.23470625
0.29495922
-0.052615535
0.30957717
-0.38121691
-0.32699946
-0.27162868
0.049088769
-0.18539643
0.37559178
-0.12842962
-0.60791254
-0.24070047
-0.047949404
-0.25364524
0.254188
0.026595352
-0.40928689
-0.22625788
-0.11437771
-0.30604368
0.38980198
-0.032411225
-0.050301149
-0.1004264
0.043342724
-0.20347272
0.37835869
-0.22378947
-0.032669272
-0.12467251
-0.25635508
0.21666047
0.12885571
-0.17070171
0.14668927
-0.025780501
-0.58205634
0.13074262
-0.50453269
-0.19642495
-0.022727722
0.26200166
-0.25831193
0.2221183
-0.67193443
-0.32932132
0.0097004324
0.10059991
-0.16194168
0.25137216
-0.9560656
-0.13690951
0.15177251
0.023259982
0.30447197
0.057007372
-0.10891847
-0.34463197
0.045747746
0.22017691
0.065743983
-0.04358504
0.17097181
0.23028286
-0.32103789
0.23890154
0.1922792
-0.051064517
0.23327655
-0.072709434
-0.38147643
-0.16623189
0.0097831534
-0.14677575
0.23703748
-0.17675005
-0.45399565
-0.24246328
0.0010889862
-0.11801054
0.17610401
0.10210374
-0.25274768
-0.25833547
-0.046501238
-0.17681263
0.28236473
-0.01542013
0.047167316
-0.043663714
-0.15687205
-0.29776138
0.039069626
0.22185035
0.071377739
-0.039982308
-0.20175023
0.27137291
-0.47712612
-0.22090293
0.3373037
0.39471176
-0.11144583
0.18064649
-0.12557623
-0.3432318
-0.21821918
-0.00059575349
-0.42918149
0.11687177
-0.33882391
0.098500162
-0.069002226
0.20409623
-0.50708079
0.22959319
-0.52625489
-0.29633072
-0.091768071
0.020172255
-0.22159262
0.099411801
-0.064020008
-0.12952679
-0.17761749
-0.28778383
-0.00520154
-0.034667678
0.32519078
0.19592115
-0.2390092
0.047604714
0.014701533
-0.13151197
0.013927037
-0.07805945
0.17628625
-0.2156641
-0.1162928
-0.19071284
0.25356954
-0.14851579
-0.26171413
-0.22200997
-0.0049828123
-0.001263873
0.13709907
-0.030065574
0.032499194
-0.1793621
-0.030687267
-0.081192084
0.38746238
0.026148906
0.32140684
-0.10168892
-0.12066467
-0.23068534
0.10097524
-0.30246425
-0.02222771
-0.018536374
-0.10722085
0.23590778
-0.5784725
-0.1945378
0.091879725
0.091007948
-0.25659168
0.095634133
-0.31621987
-0.10051773
-0.011264971
0.23470563
-0.10287585
0.24289805
-0.30282104
-0.050256267
0.06027396
0.0890278
-0.53633046
0.064425983
-0.020497346
-0.22087039
-0.00012173614
-0.032521676
-0.6012193
0.080396347
0.092985973
0.047985721
0.052774251
-0.21930203
-0.63701081
0.036377788
0.4262003
0.11835053
-0.051589474
-0.38228032
0.14286548
-0.013349187
-0.060063895
-0.18014787
0.19989489
-0.096685953
-0.15421155
-0.1922189
0.30263859
-0.11989246
0.24336959
-0.043043401
-0.055391725
-0.083662599
0.036754742
-0.16187461
0.043148275
-0.102947
-0.1200572
-0.13753335
-0.17887641
0.028086297
0.40403169
0.086577564
-0.024389727
-0.088141479
-0.30342722
-0.19466205
0.32315728
0.083559722
0.001243926
3.1914778
3.4373732
2.5990798
1.8111248
1.4071572
1.3482234
1.0297701
0.82523465
0.77820027
1.2832024
-0.2621468
-2.6476343
-4.0608649
-4.2324257
-6.2051382
0.25544164
-0.01568776
-0.15327987
-0.085755281
0.23950765
0.084508575
-0.098678991
0.34087795
0.032862905
-0.30445969
-0.24572922
0.17319074
-0.0091861021
-0.23666377
-0.24381205
0.14696591
0.2362127
-0.032544453
-0.14675841
-0.18342309
0.19077434
0.17930652
1.4104687
-1.5875851
0.54376107
-0.34541014
0.25642702
-1.1313252
0.25874415
-0.021224411
-0.034101449
-0.0050718565
-0.013077469
0.0091902623
-0.022852279
-0.0077924356
-0.0062211412
-0.0097865462
0.00076128868
0.030815715
-0.015908753
-0.024220292
-0.026474586
-0.012580588
0.0011992807
-0.0017970001
-0.014708739
0.012642821
-0.029098969
-0.02748445
-0.093487322
0.08077427
0.038977567
-0.041701723
-0.050755359
-0.024592169
-0.026335273
0.0058258739
0.035153475
-0.027362037
0.018177215
0.023861272
0.01083879
-0.034078527
-0.002427374
0.029902713
0.011223962
0.033556517
0.027598398
0.023722088
-0.0027829059
-0.016546311
0.025993213
0.019833442
0.0025879142
0.0030583928
-0.038912442
-0.064291231
0.059798807
-0.014435753
-0.050290808
-0.078875288
-0.046620157
-0.017881149
0.0083089704
-0.0063988515
0.00204028
0.025246315
-0.022556443
0.017436439
-0.015433053
0.0071813883
0.0022301157
0.030044539
0.020147283
-0.022500651
-1.8382723e-05
0.020235104
-0.026338873
-0.028809434
-0.014257178
0.020677546
0.0053513399
-0.022505362
-0.03545789
0.054315705
-0.048891366
-0.010487384
-0.10251258
-0.036912147
-0.015887998
-0.019511487
-0.0087587126
-0.013899373
0.010844916
-0.031435315
0.023545509
-0.014491997
0.032015521
0.03474199
0.015432922
-0.034121066
0.0078496644
0.030925453
0.022972692
-0.0017567717
0.0012849104
-0.0091478415
-0.021787075
0.020940972
0.013603607
0.024373347
0.075504191
-0.12808779
-0.0053041927
-0.08908949
-0.018174158
0.0017273617
0.044627752
0.019791622
0.022551544
-0.012085083
-0.029704507
-0.0040993541
0.024011385
0.013928848
-0.035720617
-0.0030999396
-0.010963985
-0.013321332
-0.022117259
0.012875256
0.0067854421
0.03781778
-0.038540632
-0.025404388
-0.037303764
0.0094445925
0.040211271
0.096024796
-0.10818523
-0.0025891901
-0.096266471
-0.031700887
-0.02995979
-0.016351268
0.0046039317
0.0056035109
0.017674556
0.0085832812
-0.01603665
0.034316033
0.032253604
-0.016997503
0.016529299
0.0022803922
-0.033477627
-0.015354093
0.027355697
-0.027383639
-0.019449318
0.015516213
0.0099375192
-0.045837909
-0.005178676
-0.00040078047
0.073688515
-0.11315072
0.02106205
-0.048877522
-0.027219782
0.01381104
-0.01414624
0.0033847017
0.0057942532
-0.038067244
0.0062442021
-0.0024004278
0.015456237
-0.010180349
0.012583989
0.01690763
-0.020490915
0.0091204206
-0.028749369
-0.040308625
-0.01891409
-0.024125351
-0.0032140194
0.022719119
-0.014664975
-0.01444014
0.077121951
0.046959244
-0.10581057
0.0084021166
-0.043688729
-0.024337629
0.0087276502
-0.023071777
-0.0081006736
-0.0034546715
0.012268066
0.0021316058
-0.053206112
0.029111363
0.015362175
-0.0075447625
0.01178642
-0.017833075
-0.027327836
-0.0061090947
-0.019304419
-0.012330047
-0.048005123
-0.03012686
-0.0058787349
-0.026884897
-0.031555943
0.049562313
-0.0039776452
-0.095572084
-0.13829482
-0.11962141
0.0053454773
0.029911786
-0.00092253037
-0.0072540524
0.007081822
0.040311407
-0.037252732
-0.026435526
-0.0029525287
-0.010238023
-0.014719303
-0.0069357739
-0.0017310254
0.017377863
-0.014961419
-0.018704729
-0.0083755516
0.00094182621
0.0038750218
-0.031556252
0.032662939
-0.022339653
0.013681534
-0.025619512
-0.041668102
-0.044319082
-0.047758572
0.017160486
0.030180402
0.005410633
0.020206384
-0.023584979
-0.025260502
-0.0083603309
-0.026745185
0.024688318
-0.033631422
-0.0098368051
-0.0074221119
-0.0030449801
-0.014737406
-0.0010681464
-0.043765344
0.045998987
-0.011693547
-0.023036759
-0.026800403
-0.018324645
-0.012918761
0.051247746
-0.019398214
-0.058365483
-0.019561196
-0.064497434
0.0063562011
-0.02905551
-0.034181073
-0.0017891697
0.039619666
0.025937051
-0.01696323
0.018134234
0.0058372146
-0.022116717
0.037983328
-0.0049992711
-0.031713024
-0.031554416
-0.0034536303
0.013114574
0.011647342
0.018126501
0.016631704
-0.010294568
0.033064369
-0.062529892
0.025324984
-0.072172344
-0.00098822592
-0.011789753
-0.051140122
-0.0085810497
-0.036344852
-0.021441624
0.0019448948
-0.0046953643
-0.01068075
0.016342176
-0.0060462877
-0.023271095
-0.010768391
0.013769239
0.022238409
-0.02479976
0.0040562996
0.014743975
0.013636449
0.040628102
0.026828554
-0.023258515
-0.044072445
0.005161359
-0.03988247
0.013905602
-0.06089747
-0.029849203
-0.057098493
-0.10950209
-0.025969038
0.0009533863
-0.010509895
0.021198891
-0.01202772
0.023800779
0.025701633
0.0059896
0.016669109
-0.0037128213
-0.0027509432
0.040829226
-0.009212059
-0.033828523
-0.025136806
0.0013017339
0.0025936719
0.0074358219
-0.030680463
-0.034826551
-0.0010710596
0.005568176
0.01765218
-0.026388938
-0.051652204
-0.034266133
-0.068297535
-0.01104613
-0.0069089807
0.027885102
0.003389695
0.01356717
0.018037908
-0.022473413
-0.0085747913
0.02246662
0.022085803
0.0092337616
0.012291502
-0.024758585
0.022992285
-0.030277435
-0.026122205
-0.0143905
-0.012181002
-0.027418911
0.015777498
-0.0066706892
-0.050491799
0.048895754
-0.0081962887
-0.054274023
-0.021792559
-0.10551576
-0.0079695797
-0.039483216
0.0035297235
-0.020226918
-0.014791638
-0.0046271556
0.031532574
0.02468048
-0.027801344
0.01084141
0.026174778
0.0066972566
-0.0092895189
0.014429128
-0.029329743
0.029999644
-0.019092223
-0.027747279
-0.036068235
-0.041853439
-0.00033089286
-0.046623446
-0.028622249
0.014587908
-0.051139679
-0.033153079
-0.11825871
-0.0031943524
-0.042555127
-0.021800179
0.0080775293
0.010180135
-0.022645036
-0.031706199
-0.014057625
-0.010117849
0.0063868309
0.021686273
-0.015203188
0.01093
-0.028346404
-0.019613151
-0.029955715
-0.01301509
0.013009823
-0.020074546
0.00014091149
0.034955271
-0.059381761
-0.052628949
-0.061993878
0.046125796
-0.030750815
-0.087889232
0.030156283
-0.0026665467
0.033282634
-0.028278477
0.0068394486
0.037300937
-0.019424468
-0.019569583
-0.024732701
0.0016334284
0.015320884
0.033741586
0.012578891
0.018778075
-0.0015372674
0.025609838
-0.014873759
-0.0035271638
-0.027256427
0.003048778
-0.00675641
-0.03097542
-0.083967403
0.010416745
0.065980747
-0.085183278
-0.10176939
0.021998461
0.014434091
-0.0011892091
-0.017422782
0.032358192
-0.0096762031
-0.015649116
0.033922892
-0.044289205
-0.035895839
0.004182362
-0.0073675169
-3.2092641e-05
0.00096061925
0.0062847692
0.002435436
-0.0016837859
0.0092411572
0.024008261
-0.023835782
-0.0045416784
-0.043128636
-0.065700546
-0.00016764202
0.019738466
-0.067884795
-0.075199157
-0.0064287116
0.039782923
-0.006645476
0.011196805
0.027743714
-0.019842476
-0.019289566
-0.03769039
0.0027254634
0.013413833
0.0067131054
0.038864288
0.0085408045
0.0013443662
-0.027004359
-0.0028091867
-0.0089979116
0.01164834
-0.0052318093
0.0020705047
-0.023615355
-0.049844287
-0.0010826376
-0.021344507
-0.045232315
-0.074956357
-0.11543075
0.017034549
-0.028719516
0.0031649948
-0.020386659
-0.010520843
0.015049745
-0.007653988
-0.037902463
-0.0022187687
0.013701498
0.017949414
0.02368727
0.020680636
-0.024812676
-0.03937437
0.02244563
0.01324829
0.020060698
0.022937059
0.0066797994
-0.025350383
-0.017970797
-0.0028028472
0.021117916
-0.054056041
-0.0375732
-0.12963083
0.028726351
0.042359192
0.018002054
0.0011962095
0.0075918846
-0.019721288
-0.0027545998
0.0058876779
0.017584007
-0.028017279
-0.0070798891
-0.010814072
0.009384905
-0.034102786
0.0095526148
-0.013593828
0.023835052
-0.04202592
-0.0064184624
-0.008456354
-0.00039495036
-0.065691203
-0.010531521
0.02963871
-0.094871789
-0.043509379
-0.10178111
0.024750242
0.017816059
-0.017183395
-0.014543937
0.026583059
-0.018983644
-0.0030039288
-0.0054111616
0.033957757
0.0076079881
0.0032571512
-0.018458566
0.025872014
0.017519187
0.017819954
-0.0038729543
0.0085741011
-0.0045044897
-0.0016976973
0.0081752539
-0.017268177
-0.041185662
-0.068178229
0.013232694
-0.069683097
-0.082187586
-0.1262015
0.00757408
0.016778469
0.019637669
-0.0063671991
-0.020734442
0.027900312
-0.0037899967
-0.025795925
0.078359492
0.014579036
-0.025254406
-0.022134528
-0.013927758
-0.0059426459
-0.028716845
-0.013375282
-0.003529219
-0.033372615
-0.035543673
0.01324893
-0.0038575043
-0.0083901538
-0.028026024
-0.0066973311
-0.066340946
-0.15337642
-0.21239439
-0.013162013
0.013041477
-0.0070512122
0.020979755
-0.0077403756
-0.0028666975
0.011869132
-0.014171899
-0.0033088711
0.02523067
-0.0057565472
-0.031797584
-0.0012555133
-0.019179489
-0.0013984584
-0.0013387506
0.0071586459
0.021727616
0.0096564712
-0.020568516
-0.0038619495
-0.012084844
-0.040390953
-0.017321628
-0.036655165
-0.058307499
-0.13220617
-0.011533144
0.024211839
-0.040140178
-0.017165853
0.015579464
0.034251735
-0.0016055806
0.00774235
0.0023918441
-0.024564222
0.022122528
-0.025819698
0.015865235
0.027396088
0.00074355636
-0.04740433
0.00061437499
0.0013894462
-0.011629594
0.0022628447
0.0054479796
-0.058453076
-0.048417717
0.01489913
-0.021785442
-0.044861168
-0.073670641
